tree
version=v4
num_class=1
num_tree_per_iteration=1
label_index=0
max_feature_idx=10
objective=binary sigmoid:1
feature_names=price_close diff_MA_100 diff_MA_50 diff_MA_9 diff_divergence divergence OBV VWAP MFI Volume_Oscillator predicted_label
feature_infos=[0.74457658128009907:0.84080468885716197] [-0.00047082409885923493:0.00060683762953450682] [-0.0010281699370391362:0.0011499696879304633] [-0.0059649516229133281:0.0054343571417589942] [-0.0056459546827649643:0.0052023777683095629] [-0.026000659311391727:0.019827895651652216] [0.11961189306667205:1.6708177329544016] [0.77524300662021972:0.81103156643147545] [0.42748616675476114:99.968663583631738] [-0.99951694231560229:0.9943259599354809] [0:2]
tree_sizes=1737 1954 1951 1949 1953 1949 2143 2160 2261 2257 2058 2247 1954 2052 2059 2039 2247 2148 2260 2262 2137 2060 2042 2151 2265 1943 2235 2156 2165 1947 2255 2064 2249 2258 2143 2143 2153 2148 2141 2052 2249 2234 2243 2252 1959 2144 2466 2158 2141 2139 2345 2153 2245 2146 2051 2044 2139 2156 2041 2156 2161 2266 2244 2256 2248 2126 2149 2137 2370 2041 2146 2161 2038 2158 2377 2265 2356 2251 2160 2033 2158 2228 2143 2051 2230 2044 1950 2141 2035 2261 2155 2274 2031 2265 2147 2360 2051 2166 2356 2257 2259 2225 2267 2158 2054 2044 2264 2270 2172 2155 2051 2232 2052 2361 2151 2162 2260 2155 2279 2359 2357 2160 2375 2370 2147 2262 2046 2169 2292 2154 2260 2269 2479 2266 2465 2140 2167 2162 2267 2371 2276 2273 2380 2249 2160 2267 2155 2150 2167 2257 2061 2476 2265 2396 2371 2384 1939 2383 2474 2391 2269 2149 2259 2372 2486 2261 2253 2401 2041 2473 2269 2248 2271 2376 2492 2499

Tree=0
num_leaves=16
num_cat=0
split_feature=2 7 1 1 7 8 6 10 8 2 7 1 1 9 1
split_gain=63.1832 34.3874 17.9605 12.9119 10.4603 9.07811 8.52958 6.9347 6.03706 4.45223 4.52258 7.64154 3.29271 3.08029 7.10543e-15
threshold=0.00016204134347869162 0.80977436276717552 -0.00010341400896279883 6.3563198582083938e-05 0.79463423003606037 48.203681426134075 1.130286054058337 1.5000000000000002 20.985713543892633 0.00027189476650457683 0.79406109358373211 0.00012179347049057211 7.8522987549345405e-05 0.19575426829621778 0.00026450097190472427
decision_type=2 2 2 2 2 2 2 2 2 2 2 2 2 2 2
left_child=1 2 5 8 -5 -1 -3 -6 -4 10 -2 -12 -11 -10 -14
right_child=9 6 3 4 7 -7 -8 -9 13 12 11 -13 14 -15 -16
leaf_value=1.0091543392474289 1.0358787036607473 1.0358787036607473 1.0112994387321101 1.0208890761853284 1.0094480135816413 0.99019602944994678 1.0178911506902446 0.99342360969310117 1.028933702513835 1.0260895591870043 1.0335426578204223 1.0156885931836523 1.0358787036607473 1.0178911506902446 1.0358787036607473
leaf_weight=4.8644747585058195 4.2807377874851218 8.1723175942897779 4.4753167778253582 4.6698957681655875 6.8102646619081479 5.2536327391862869 3.8915798068046561 4.4753167778253555 7.1994226425886136 4.0861587971448925 4.2807377874851209 5.4482117295265198 13.425950333476068 3.891579806804657 8.1723175942897779
leaf_count=25 22 42 23 24 35 27 20 23 37 21 22 28 69 20 42
internal_value=1.02228 1.01521 1.0109 1.01462 1.0083 0.999311 1.03008 1.00309 1.0211 1.03185 1.02731 1.02354 1.03432 1.02506 1.03588
internal_weight=0 53.7038 41.6399 31.5218 15.9555 10.1181 12.0639 11.2856 15.5663 39.6941 14.0097 9.72895 25.6844 11.091 21.5983
internal_count=480 276 214 162 82 52 62 58 80 204 72 50 132 57 111
is_linear=0
shrinkage=1


Tree=1
num_leaves=17
num_cat=0
split_feature=2 5 5 1 7 5 7 5 2 1 2 1 1 2 1 4
split_gain=61.9987 41.552 27.5885 15.9221 14.2621 11.0649 10.5314 10.4092 8.06719 5.1366 5.10576 2.09635 0.621045 2.56471e-05 2.55647e-06 3.55271e-15
threshold=0.00016204134347869162 -0.012758032963541553 -0.005138405804530787 6.3563198582083938e-05 0.80212090893000243 0.0060890730337236918 0.80106281997311146 0.0084394870405816187 -5.9002012840869693e-05 -0.00011885415613882565 0.00027189476650457683 9.7478880417833938e-05 -0.0002416564230220408 0.00026160620369841686 0.00014418695220352887 -0.00015443659911401617
decision_type=2 2 2 2 2 2 2 2 2 2 2 2 2 2 2 2
left_child=1 12 9 4 6 8 -4 10 -5 -3 -2 -12 -1 -9 -15 -16
right_child=7 2 3 5 -6 -7 -8 13 -10 -11 11 -13 -14 14 15 -17
leaf_value=0.0084309808017684704 -0.0031073040800944089 -0.031847217931189775 -0.0056556572972748763 -0.0082949897418645377 -0.013991206350654033 -0.0022849273030811643 0.013614324462200405 0.013574426950306969 -0.025919304653407291 -0.017552051708743754 0.003270475316265644 0.013549144084371908 0.013562969039585451 0.013558317431087612 0.013549144084371901 0.013549144084371913
leaf_weight=3.8831113278865814 7.1883576214313489 5.7095798850059509 4.6731224805116671 4.1044617891311654 5.0710670202970496 5.6587252020835868 7.2146597802639008 6.4011306464672115 7.0721602588891992 4.4905300736427289 3.8809986114501953 4.0599360466003418 6.004011854529379 3.8713184595108059 5.0265874862670925 9.0865235328674263
leaf_count=20 37 29 24 21 26 29 37 33 36 23 20 21 31 20 26 47
internal_value=0 -0.00697681 -0.0111399 -0.0067893 4.96965e-05 -0.0136785 0.00603924 0.00951454 -0.019447 -0.0255539 0.00299848 0.00852562 0.0115474 0.0135572 0.0135511 0.0135491
internal_weight=0 53.8814 43.9943 33.7942 16.9588 16.8353 11.8878 39.5149 11.1766 10.2001 15.1293 7.94093 9.88712 24.3856 17.9844 14.1131
internal_count=480 276 225 173 87 86 61 204 57 52 78 41 51 126 93 73
is_linear=0
shrinkage=0.01


Tree=2
num_leaves=17
num_cat=0
split_feature=2 5 5 1 0 5 5 2 5 2 1 1 1 1 2 1
split_gain=60.8403 40.6032 26.5027 15.4583 10.9237 10.6685 10.3303 7.71398 5.95554 5.0245 4.86661 2.0799 0.618617 0.549262 2.46272e-05 2.45481e-06
threshold=0.00016204134347869162 -0.012758032963541553 -0.005138405804530787 6.3563198582083938e-05 0.80887975295015691 0.0060890730337236918 0.0084394870405816187 -5.9002012840869693e-05 -0.0032176082248273059 0.00027189476650457683 -0.00011885415613882565 9.7478880417833938e-05 -0.0002416564230220408 5.3547929123043411e-06 0.00026160620369841686 0.00014418695220352887
decision_type=2 2 2 2 2 2 2 2 2 2 2 2 2 2 2 2
left_child=1 12 10 4 8 7 9 -5 -4 -2 -3 -11 -1 -6 -8 -16
right_child=6 2 3 5 13 -7 14 -9 -10 11 -12 -13 -14 -15 15 -17
leaf_value=0.0083802786469699079 -0.0030717044411574762 -0.03107327370246777 0.0013942952829717045 -0.0081802324340645594 0.011135833441118797 -0.0022596480641860397 0.013526235481557012 -0.025355978381533546 -0.014951196398392199 0.0032428149119029682 -0.017234720484381953 0.01350138018574285 0.0135149726899283 0.0058840558744970954 0.013510398450868493 0.013501380185742855
leaf_weight=3.8676166534423828 7.1988963335752469 5.7928433269262314 4.0926490277051899 4.1203403919935235 4.0800540894269934 5.6647797524929038 6.3599039018154171 7.1565552651882181 4.8953419327735945 3.8749906420707703 4.5272915810346586 4.0336873233318329 5.9652749150991422 3.8902144283056259 3.8463240712881115 14.02186545729637
leaf_count=20 37 29 21 21 21 29 33 36 25 20 23 21 31 20 20 73
internal_value=0 -0.00688443 -0.0109714 -0.00669993 4.95443e-05 -0.013456 0.00946263 -0.0190803 -0.00750834 0.0029729 -0.0250025 0.00847502 0.0114953 0.00857249 0.0135093 0.0135033
internal_weight=0 54.053 44.2201 33.8999 16.9583 16.9417 39.3357 11.2769 8.98799 15.1076 10.3201 7.90868 9.83289 7.97027 24.2281 17.8682
internal_count=480 276 225 173 87 86 204 57 46 78 52 41 51 41 126 93
is_linear=0
shrinkage=0.01


Tree=3
num_leaves=17
num_cat=0
split_feature=2 2 1 1 6 0 10 4 2 6 1 1 4 2 1 1
split_gain=59.7096 26.4553 7.81926 14.1384 8.29961 7.83379 7.06339 6.02797 4.35452 3.85125 6.67541 3.25234 2.45885 1.62451 6.51009e-06 1.22213e-12
threshold=0.00016204134347869162 -0.00046291151562410921 -0.00010341400896279883 6.3563198582083938e-05 0.58365262454571909 0.80851400748428637 1.5000000000000002 -4.3123990529692062e-05 0.00027189476650457683 0.51667735032594286 0.00012179347049057211 7.8522987549345405e-05 4.1867883719237671e-05 -0.00067791605417416567 0.0001382438637528294 0.00021016380875094057
decision_type=2 2 2 2 2 2 2 2 2 2 2 2 2 2 2 2
left_child=1 13 7 5 -5 -4 -6 -3 9 -2 -11 -10 -7 -1 -13 -16
right_child=8 2 3 4 6 12 -8 -9 11 10 -12 14 -14 -15 15 -17
leaf_value=0.013497780203778918 0.013466109507494144 -0.026565282556547883 -0.0094406649170920374 -0.002716876742068202 -0.012143994574062738 0.0095905601922927318 -0.027563073737725791 -0.011473734350172373 0.0036836390019580603 0.011203093028766467 -0.0052693101074546582 0.013468836057743822 -0.00028607528806086 0.0049244328603601176 0.013454418432211096 0.013454424832557663
leaf_weight=4.2228263020515442 3.822643667459487 4.2074089795351028 6.4877374023199108 4.8908131420612362 7.7262398004531843 5.035285755991934 4.8271201699972153 7.1350140273570997 4.0567826479673412 4.2551308125257474 5.8320435881614685 3.8241717815399197 5.0473743677139282 4.6371636986732465 3.8165860474109676 13.54889242351055
leaf_count=22 20 21 33 25 39 26 24 36 21 22 30 20 26 24 20 71
internal_value=0 -0.00679434 -0.00988167 -0.00748405 -0.0137677 -0.000869096 -0.0180731 -0.0170719 0.00941125 0.00491853 0.00167934 0.0118866 0.00464632 0.00901064 0.013457 0.0134544
internal_weight=0 54.217 45.357 34.0146 17.4442 16.5704 12.5534 11.3424 39.1563 13.9098 10.0872 25.2464 10.0827 8.85999 21.1897 17.3655
internal_count=480 276 230 173 88 85 63 57 204 72 52 132 52 46 111 91
is_linear=0
shrinkage=0.01


Tree=4
num_leaves=17
num_cat=0
split_feature=2 5 5 1 0 5 5 9 5 2 1 1 1 5 2 1
split_gain=58.6041 39.0806 25.1266 14.6355 10.5367 10.2466 10.0601 7.34147 5.77474 4.91283 4.50355 2.05488 0.618728 0.555163 9.15466e-05 9.25212e-06
threshold=0.00016204134347869162 -0.012758032963541553 -0.005138405804530787 6.3563198582083938e-05 0.80887975295015691 0.0084394870405816187 0.0060890730337236918 -0.35502783896530593 -0.0032176082248273059 0.00027189476650457683 -0.00011885415613882565 9.7478880417833938e-05 -0.0002416564230220408 0.00095039808076008436 0.00026846316400996889 0.00014418695220352887
decision_type=2 2 2 2 2 2 2 2 2 2 2 2 2 2 2 2
left_child=1 12 10 4 8 9 7 -5 -4 -2 -3 -11 -1 -6 -7 -16
right_child=5 2 3 6 13 14 -8 -9 -10 11 -12 -13 -14 -15 15 -17
leaf_value=0.0082994829842086768 -0.0030740088012431357 -0.029965569240318134 0.0014683816739477636 -0.0090140476341751524 0.011080163503129844 0.013456095266452191 -0.0021545012789469294 -0.025231761106650218 -0.01457331769650762 0.0031676568479388771 -0.016758910375646325 0.013408249459792663 0.013453530951396446 0.0057841349171284017 0.013425899339391317 0.013408258641341595
leaf_weight=3.8424511253833771 7.1979542821645719 5.9143797159194946 4.1076056659221623 4.8121332824230203 4.0571430623531333 6.4885904192924526 5.6897883713245383 6.6467171758413324 4.9462584853172347 3.8586239814758301 4.5828328430652601 3.9811310023069382 5.9141756743192655 3.8648753464221954 3.8010251969099071 13.649610400199888
leaf_count=20 37 29 21 24 21 34 29 33 25 20 23 21 31 20 20 72
internal_value=0 -0.006706 -0.0106701 -0.00650813 7.40407e-05 0.00936033 -0.013024 -0.0184211 -0.00729543 0.00289115 -0.0241999 0.00836796 0.0114237 0.00849642 0.013424 0.0134121
internal_weight=0 54.3784 44.6217 34.1245 16.9759 38.9769 17.1486 11.4589 9.05386 15.0377 10.4972 7.83975 9.75663 7.92202 23.9392 17.4506
internal_count=480 276 225 173 87 204 86 57 46 78 52 41 51 41 126 92
is_linear=0
shrinkage=0.01


Tree=5
num_leaves=17
num_cat=0
split_feature=2 5 5 1 5 5 10 2 1 1 5 1 5 1 2 1
split_gain=57.524 38.2093 24.1889 14.2207 10.1707 9.71547 12.4539 4.83465 4.72019 4.28765 2.84123 2.03922 2.025 0.616515 8.79502e-05 8.88895e-06
threshold=0.00016204134347869162 -0.012758032963541553 -0.005138405804530787 6.3563198582083938e-05 0.0084394870405816187 0.0060890730337236918 1.5000000000000002 0.00027189476650457683 -2.7452072311195949e-05 -0.00011885415613882565 -0.0032176082248273059 9.7478880417833938e-05 0.0013405965667652733 -0.0002416564230220408 0.00026846316400996889 0.00014418695220352887
decision_type=2 2 2 2 2 2 2 2 2 2 2 2 2 2 2 2
left_child=1 13 9 8 7 6 -5 -2 10 -3 -4 -9 -10 -1 -6 -16
right_child=4 2 3 5 14 -7 -8 11 12 -11 -12 -13 -14 -15 15 -17
leaf_value=0.0082496311816675875 -0.003038849784020269 -0.029290393500411217 0.0014415581344348197 -0.010359686135221534 0.013409906601693842 -0.0021308168938106655 -0.032036851872929394 0.0031407591330465069 0.010954812072323463 -0.016466859168599208 -0.0097269864345905892 0.013362854799149235 0.00073134884990843784 0.013407384524276384 0.013380212376002374 0.01336286410330848
leaf_weight=3.8270909935235977 7.2083680629730207 5.9898186177015305 4.1020141541957829 7.432249531149866 6.4460433423519161 5.6954718083143225 4.1192690134048462 3.8527814149856567 3.8624591827392605 4.6172958314418775 5.1218946576118478 3.9548403471708298 3.88739113509655 5.8753807097673398 3.775989398360255 13.559471011161802
leaf_count=20 37 29 21 37 34 29 20 20 20 23 26 21 20 31 20 72
internal_value=0 -0.00661985 -0.0105142 -0.00642452 0.00930991 -0.0128196 -0.0180898 0.00286651 7.35397e-05 -0.0237083 -0.00476016 0.00831862 0.00582664 0.0113729 0.0133784 0.0133666
internal_weight=0 54.5303 44.8279 34.2207 38.7975 17.247 11.5515 15.016 16.9738 10.6071 9.22391 7.80762 7.74985 9.70247 23.7815 17.3355
internal_count=480 276 225 173 204 86 57 78 87 52 47 41 40 51 126 92
is_linear=0
shrinkage=0.01


Tree=6
num_leaves=19
num_cat=0
split_feature=5 5 5 7 7 1 7 7 6 5 9 7 1 7 9 1 7 1
split_gain=56.2561 30.3231 30.6899 14.8222 24.6846 12.9166 8.96279 6.35469 16.7376 6.64381 2.65545 1.80418 1.30185 0.619368 0.197192 0.00039757 0.000574638 3.01387e-05
threshold=0.0084394870405816187 -0.012758032963541553 -0.005138405804530787 0.79631213424630987 0.79406109358373211 0.0001273083004002529 0.80201860966487404 0.80212090893000243 0.75445803993395189 0.0037747726830863475 -0.013776669003685613 0.80811843118401183 3.2179513890229223e-05 0.80989663422294333 0.75544491416985582 0.00022270874936292098 0.80060365705689163 0.00026993201169150943
decision_type=2 2 2 2 2 2 2 2 2 2 2 2 2 2 2 2 2 2
left_child=1 13 6 4 -4 7 -3 9 -9 12 -6 14 -5 -1 15 16 -2 -17
right_child=11 2 3 5 10 -7 -8 8 -10 -11 -12 -13 -14 -15 -16 17 -18 -19
leaf_value=0.0081839268069179832 0.013499121163488278 -0.028335765546074091 0.0082164729479969802 0.013542056001333075 -0.016173434967905721 -0.012916152576696713 -0.010578004150591101 -0.019010636291162033 0.0080232986838162917 -0.0041462418231666904 -0.027173166935357762 0.0055398082708254205 0.0064975469028787317 0.013367893099400754 0.010974964109734092 0.013353452177247297 0.013334560240106508 0.01331980116005215
leaf_weight=3.8065201938152295 4.6018055677414029 7.7850940227508527 3.8140424489974967 7.1439612358808571 3.999682903289794 6.3643610328435889 4.4766837507486343 3.9672807306051237 5.4177248775959015 3.9264799803495398 4.8632155060768119 3.8011904358863822 4.1457513719797134 5.841838002204895 4.1529776602983466 4.3236218690872175 3.937751904129982 6.9233462959527969
leaf_count=20 24 38 20 37 20 32 22 20 28 20 24 20 21 31 22 23 21 37
internal_value=0 -0.00504876 -0.00787427 -0.00394694 -0.0130552 -0.000218131 -0.0218525 0.00306686 -0.00340463 0.00705834 -0.0222092 0.0119398 0.0109552 0.0113227 0.012956 0.0133718 0.0134232 0.0133327
internal_weight=0 65.5526 55.9043 43.6425 12.6769 30.9656 12.2618 24.6012 9.38501 15.2162 8.8629 27.7407 11.2897 9.64836 23.9395 19.7865 8.53956 11.247
internal_count=480 333 282 222 64 158 60 126 48 78 44 147 58 51 127 105 45 60
is_linear=0
shrinkage=0.01


Tree=7
num_leaves=19
num_cat=0
split_feature=2 5 5 1 5 5 10 2 6 1 6 1 1 1 6 2 9 1
split_gain=55.7651 36.6599 22.4008 13.5416 9.95951 9.11696 11.7558 4.7042 4.66092 4.65593 4.4825 4.09668 2.01238 0.616624 9.46502e-05 0.000136652 1.77977e-07 2.42978e-09
threshold=0.00016204134347869162 -0.012758032963541553 -0.005138405804530787 6.3563198582083938e-05 0.0084394870405816187 0.0060890730337236918 1.5000000000000002 0.00027189476650457683 0.71300623483949777 -3.6254077930952804e-05 0.73356693695499064 -0.00011885415613882565 9.7478880417833938e-05 -0.0002416564230220408 0.52682650830248012 0.00027924141597290847 0.46619640085398623 0.00028640555737319279
decision_type=2 2 2 2 2 2 2 2 2 2 2 2 2 2 2 2 2 2
left_child=1 13 11 8 7 6 -5 -2 9 -4 -10 -3 -9 -1 16 -16 17 -6
right_child=4 2 3 5 14 -7 -8 12 10 -11 -12 -13 -14 -15 15 -17 -18 -19
leaf_value=0.0081371232298037971 -0.0029361333680916701 -0.028200682736070549 -0.012549969924660218 -0.010048717330577413 0.013273933714996118 -0.0021233537123284858 -0.030942588536929806 0.0031316031089661969 0.013477002761407323 0.0017197158957871137 -0.0017546229502326573 -0.015782928295871232 0.013308294501405735 0.01332247702631168 0.013364004336781423 0.013289779232803776 0.013276665345412709 0.013274272201859573
leaf_weight=3.7922040373086929 7.2382982075214368 6.1132827252149582 4.1769848763942692 7.502353563904764 4.6452661603689211 5.6971673816442481 4.2006351500749588 3.8506457060575485 3.8273391276597968 5.0521456897258803 3.9017449021339417 4.6986790597438794 3.9224633723497391 5.8021105229854566 3.7664145082235319 7.2641265392303467 3.9036696106195441 3.9022280126810074
leaf_count=20 37 29 21 37 25 29 20 20 20 26 20 23 21 31 20 39 21 21
internal_value=0 -0.0064798 -0.0102505 -0.00630014 0.0092268 -0.0124979 -0.0175483 0.00286498 5.90976e-05 -0.00473856 0.00578787 -0.0228042 0.00826696 0.0112729 0.0132938 0.0133151 0.0132749 0.0132741
internal_weight=0 54.7646 45.1703 34.3584 38.4931 17.4002 11.703 15.0114 16.9582 9.22913 7.72908 10.812 7.77311 9.59431 23.4817 11.0305 12.4512 8.54749
internal_count=480 276 225 173 204 86 57 78 87 47 40 52 41 51 126 59 67 46
is_linear=0
shrinkage=0.01


Tree=8
num_leaves=20
num_cat=0
split_feature=2 7 1 1 7 8 0 9 2 7 0 7 4 3 3 2 2 0 1
split_gain=54.7505 28.8885 14.2134 10.3467 8.33098 7.09449 6.03357 5.8772 5.05021 4.24214 6.042 3.84012 3.11744 0.184022 0.155308 0.000852743 5.86108e-05 6.17828e-07 1.66186e-07
threshold=0.00016204134347869162 0.80977436276717552 -0.00010341400896279883 6.3563198582083938e-05 0.79463423003606037 48.203681426134075 0.80851400748428637 -0.35502783896530593 -0.00046291151562410921 0.79406109358373211 0.81667836216141432 0.80833979797841304 4.1867883719237671e-05 0.00021885621027695204 -0.00021550322945340647 0.00033362045753454478 0.00027189476650457683 0.7977036503416125 0.00030962804815692918
decision_type=2 2 2 2 2 2 2 2 2 2 2 2 2 2 2 2 2 2 2
left_child=1 2 5 6 -5 -1 -4 -6 14 16 -11 13 -8 -12 -3 -15 -2 -18 -19
right_child=9 8 3 4 7 -7 12 -9 -10 10 11 -13 -14 15 -16 -17 17 18 -20
leaf_value=-0.011550589713189134 0.013279132193190083 0.013412595743302978 -0.0086877799967835598 -0.0011106442340793571 -0.0083844095632756611 -0.027801597234977202 0.0094497370655582755 -0.022631885730293459 -0.0018472301634161342 -0.0016382472880505899 0.010695144183707721 0.0014199253387653646 -0.0020588458543262396 0.013455957849150733 0.010601408923951831 0.013255086800272844 0.013238282364299405 0.013231848110077982 0.013234812310909512
leaf_weight=5.0865405052900297 4.0886349976062766 4.1620200723409653 6.2119496911764136 4.7272492498159435 4.9076007753610567 5.6929231137037277 4.9723801612853986 7.0611128658056286 3.8827680349349958 6.5786351114511517 3.7580830752849606 4.1682045906782141 4.4692857563495636 4.193621948361395 3.7233190089464188 4.2605453282594681 3.6955589950084669 3.876403346657753 3.6935373395681381
leaf_count=25 22 22 31 24 24 27 26 34 20 34 20 22 23 22 20 23 20 21 20
internal_value=0 -0.00639901 -0.0101883 -0.00687446 -0.0123505 -0.0201332 -0.00103375 -0.0167899 0.00748834 0.00917775 0.00645659 0.0097076 0.00400206 0.0125363 0.0120852 0.0133547 0.0132467 0.0132349 0.0132333
internal_weight=0 54.8971 43.129 32.3496 16.696 10.7795 15.6536 11.9687 11.7681 38.3132 22.9591 16.3805 9.44167 12.2123 7.88534 8.45417 15.3541 11.2655 7.56994
internal_count=480 276 214 162 82 52 80 58 62 204 121 87 49 65 42 45 83 61 41
is_linear=0
shrinkage=0.01


Tree=9
num_leaves=20
num_cat=0
split_feature=2 7 1 1 7 0 9 2 7 7 0 7 4 3 3 2 2 0 1
split_gain=53.7545 28.211 13.7249 10.0555 8.06434 5.89878 5.6504 4.99389 4.43102 4.22061 5.96509 3.80879 3.07247 0.183716 0.154798 0.000819527 5.63697e-05 5.93751e-07 1.59673e-07
threshold=0.00016204134347869162 0.80977436276717552 -0.00010341400896279883 6.3563198582083938e-05 0.79463423003606037 0.80851400748428637 -0.35502783896530593 -0.00046291151562410921 0.80204256100362847 0.79406109358373211 0.81667836216141432 0.80833979797841304 4.1867883719237671e-05 0.00021885621027695204 -0.00021550322945340647 0.00033362045753454478 0.00027189476650457683 0.7977036503416125 0.00030962804815692918
decision_type=2 2 2 2 2 2 2 2 2 2 2 2 2 2 2 2 2 2 2
left_child=1 2 8 5 -5 -4 -6 14 -1 16 -11 13 -7 -12 -3 -15 -2 -18 -19
right_child=9 7 3 4 6 12 -8 -9 -10 10 11 -13 -14 15 -16 -17 17 18 -20
leaf_value=-0.026537593708294584 0.013235893903572989 0.013367219369027669 -0.0085677202612051973 -0.0010989730656313578 -0.0082709532616556895 0.009398557742940657 -0.022199975833351537 -0.0018271620617797599 -0.01374475801641351 -0.0016205980860052246 0.010645214347256857 0.0014067123848645489 -0.002036275695767482 0.013409807563175145 0.010552267034054728 0.013212228879318125 0.01319569570874028 0.013189366758722889 0.013192282192764122
leaf_weight=5.1192745119333249 4.061109632253646 4.134524792432785 6.2358863651752463 4.7296652942895916 4.9250825196504548 4.9495768845081312 7.1261722743511227 3.8861424624919874 5.7470173686742783 6.5837511569261578 3.7380533069372204 4.1652972996234885 4.4736145436763763 4.1661117523908597 3.7033522427082062 4.2317663431167603 3.6705363392829877 3.8501316457986832 3.6685157865285873
leaf_count=24 22 22 31 24 24 26 34 20 28 34 20 22 23 22 20 23 20 21 20
internal_value=0 -0.00631926 -0.0100446 -0.00678643 -0.0121646 -0.00102292 -0.0165075 0.00744158 -0.0197717 0.00912868 0.00641294 0.00965753 0.00396993 0.0124894 0.0120372 0.0133102 0.013204 0.0131924 0.0131908
internal_weight=0 55.0303 43.3063 32.44 16.7809 15.6591 12.0513 11.724 10.8663 38.1353 22.885 16.3012 9.42319 12.1359 7.83788 8.39788 15.2503 11.1892 7.51865
internal_count=480 276 214 162 82 80 58 62 52 204 121 87 49 65 42 45 83 61 41
is_linear=0
shrinkage=0.01


Tree=10
num_leaves=18
num_cat=0
split_feature=5 5 5 2 1 0 5 7 4 4 2 1 1 7 2 4 1
split_gain=53.1553 28.2845 27.5738 20.0213 20.3218 9.49122 12.527 8.12402 5.23599 10.3174 3.21389 1.16834 0.622798 0.000378271 0.000459417 3.25334e-07 1.85293e-08
threshold=0.0084394870405816187 -0.012758032963541553 -0.005138405804530787 0.00027189476650457683 7.3328842056297208e-05 0.80887975295015691 -0.0033406363753128994 0.80201860966487404 -0.0006320432812728648 -1.0000000180025095e-35 0.00015587343821538149 1.6895151281670632e-05 -0.0002416564230220408 0.79836964934557841 0.00027924141597290847 -0.0002039959221816767 0.00029964233846929705
decision_type=2 2 2 2 2 2 2 2 2 2 2 2 2 2 2 2 2
left_child=1 12 7 4 5 6 -4 -3 -6 -10 -2 -7 -1 15 -15 -12 -17
right_child=10 2 3 -5 8 11 -8 -9 9 -11 13 -13 -14 14 -16 16 -18
leaf_value=0.0079851688179302504 0.0033798824600085758 -0.026604229618162584 0.0066721749782835335 0.011856180531002115 -0.023648963372319202 0.011351704282481577 -0.015946719336766328 -0.0099011186393611547 -0.00062886212382869523 -0.01844379311996636 0.013150272865432203 0.0041395770305443329 0.01323152405716475 0.01331887286487903 0.013182023092770166 0.013146468334718546 0.013147453947302087
leaf_weight=3.7441674321889877 3.9030218571424511 8.0450599640607816 4.3018311560153917 6.9012306630611411 4.5068850666284588 4.7653652280569059 5.6833775639534059 4.5637403130531302 5.4799293726682672 7.9920930266380283 4.7364035695791271 4.248892068862915 5.7187607139348966 3.7368346005678159 7.1409232914447784 4.0052337050437918 3.6417145729064941
leaf_count=20 20 38 22 37 22 25 28 22 27 39 26 22 31 20 39 22 20
internal_value=0 -0.00484463 -0.007525 -0.00377981 -0.00669794 0.000513434 -0.00620204 -0.0205586 -0.0143187 -0.0111973 0.011777 0.00795225 0.0111557 0.013186 0.013229 0.0131482 0.0131469
internal_weight=0 65.9513 56.4884 43.8796 36.9784 18.9995 9.98521 12.6088 17.9789 13.472 27.1641 9.01426 9.46293 23.2611 10.8778 12.3834 7.64695
internal_count=480 333 282 222 185 97 50 60 88 66 147 47 51 127 59 68 42
is_linear=0
shrinkage=0.01


Tree=11
num_leaves=20
num_cat=0
split_feature=5 5 5 7 7 1 7 8 3 8 9 7 9 1 9 1 7 8 5
split_gain=52.2982 27.7234 26.6888 13.7935 22.223 12.1437 7.79236 7.67673 3.19138 3.43077 2.2938 1.78261 0.623115 0.620909 0.202187 0.00100593 0.00108789 7.97254e-05 1.58057e-07
threshold=0.0084394870405816187 -0.012758032963541553 -0.005138405804530787 0.79631213424630987 0.79406109358373211 0.0001273083004002529 0.80201860966487404 14.538226452565135 -0.00078003757150091324 92.185077249051531 -0.013776669003685613 0.80811843118401183 -0.35502783896530593 -0.0002416564230220408 0.75544491416985582 0.00022270874936292098 0.80060365705689163 67.03121653209142 0.01526657879256388
decision_type=2 2 2 2 2 2 2 2 2 2 2 2 2 2 2 2 2 2 2
left_child=1 13 6 4 -4 7 -3 -5 -9 12 -6 14 -10 -1 15 16 -2 -17 -19
right_child=11 2 3 5 10 -7 -8 8 9 -11 -12 -13 -14 -15 -16 17 -18 18 -20
leaf_value=0.0079372505676304529 0.01337738711581833 -0.026070001976878351 0.0080452928082299386 -0.0063093067012621106 -0.015296082604918585 -0.012321323303710583 -0.0097624646966099401 -0.0015745160498546432 0.0084178294083103577 0.00054243092559421076 -0.025376405144288353 0.0053285757745460882 0.013485203240882426 0.01318906368222752 0.010727856040476533 0.013164344226273737 0.013148103688086537 0.013108482370664086 0.01310552612167408
leaf_weight=3.7291790992021561 4.5114970356226056 8.127398952841757 3.7537852972745887 6.4316355139017167 4.090245693922042 6.4670619517564765 4.5821788460016242 3.9283237904310253 3.8677778095006943 3.8481137156486502 5.0376275628805152 3.7456394731998435 6.5125816315412504 5.6799940913915616 4.0374885797500601 3.6474680006504041 3.8229155242443085 3.6180072128772736 3.616231843829155
leaf_count=20 24 38 20 32 20 32 22 20 20 20 24 20 34 31 22 20 21 20 20
internal_value=0 -0.00478808 -0.00742839 -0.00373669 -0.0124364 -0.000128094 -0.0201907 0.00307888 0.00640443 0.00860733 -0.0208594 0.0117309 0.0115971 0.0111076 0.0127621 0.0131895 0.0132722 0.0131262 0.013107
internal_weight=0 66.0559 56.6467 43.9372 12.8817 31.0555 12.7096 24.5884 18.1568 14.2285 9.12787 26.9992 10.3804 9.40917 23.2536 19.2161 8.33441 10.8817 7.23424
internal_count=480 333 282 222 64 158 60 126 94 74 44 147 54 51 127 105 45 60 40
is_linear=0
shrinkage=0.01


Tree=12
num_leaves=17
num_cat=0
split_feature=5 5 5 2 1 7 5 7 4 4 2 7 7 2 4 1
split_gain=51.456 27.1756 25.8465 19.4545 19.2147 8.06608 11.3277 7.48296 4.99304 9.89585 3.21859 0.619266 0.000424222 0.000453236 5.11705e-07 6.56069e-08
threshold=0.0084394870405816187 -0.012758032963541553 -0.005138405804530787 0.00027189476650457683 7.3328842056297208e-05 0.80212090893000243 -1.0000000180025095e-35 0.80201860966487404 -0.0006320432812728648 -1.0000000180025095e-35 0.00015587343821538149 0.80989663422294333 0.79836964934557841 0.00027924141597290847 -0.0002039959221816767 0.00029964233846929705
decision_type=2 2 2 2 2 2 2 2 2 2 2 2 2 2 2 2
left_child=1 11 7 4 5 6 -4 -3 -6 -10 -2 -1 14 -14 -12 -16
right_child=10 2 3 -5 8 -7 -8 -9 9 -11 12 -13 13 -15 15 -17
leaf_value=0.0078884544754647887 0.003255879975378565 -0.02555928163736999 0.013479097871071138 0.011794411491195757 -0.022933502505081808 -0.0089067858831725771 -0.0054362095067396043 -0.0096266851343847458 -0.00051345091579923867 -0.017890523011665153 0.013069861917144984 0.013147057309638258 0.013243149997878579 0.013106404684989961 0.013064761128793416 0.013066628537793784
leaf_weight=3.7131771743297559 3.8760616779327419 8.2064963579177839 7.0756122022867167 6.8474222123622885 4.5749859064817455 6.1650267988443366 5.729919716715818 4.6002483516931525 5.5057110935449627 8.0964360088109917 4.6724674552679089 5.6423287093639374 3.6932875514030439 7.0516377091407776 3.9501751363277426 3.5922252535820007
leaf_count=20 20 38 37 37 22 31 29 22 27 39 26 31 20 39 22 20
internal_value=0 -0.00473248 -0.00733356 -0.0036941 -0.00654909 0.000490932 0.00501532 -0.0198362 -0.0138964 -0.0108568 0.0116846 0.0110599 0.0131076 0.0131534 0.0130673 0.0130657
internal_weight=0 66.1574 56.8019 43.9951 37.1477 18.9706 12.8055 12.8067 18.1771 13.6021 26.8359 9.35551 22.9598 10.7449 12.2149 7.5424
internal_count=480 333 282 222 185 97 66 60 88 66 147 51 127 59 68 42
is_linear=0
shrinkage=0.01


Tree=13
num_leaves=18
num_cat=0
split_feature=5 5 5 2 1 0 5 7 9 9 2 1 1 7 2 1 9
split_gain=50.6324 26.6421 25.0425 19.0911 18.6788 9.2731 11.8303 7.19387 3.62142 5.32998 3.20271 1.14104 0.621589 0.000408004 0.000435903 4.05978e-07 1.84043e-07
threshold=0.0084394870405816187 -0.012758032963541553 -0.005138405804530787 0.00027189476650457683 7.3328842056297208e-05 0.80887975295015691 -0.0033406363753128994 0.80201860966487404 -0.24975066316340877 0.44030459651897819 0.00015587343821538149 1.6895151281670632e-05 -0.0002416564230220408 0.79836964934557841 0.00027924141597290847 0.0003122359990057611 0.12079077752736704
decision_type=2 2 2 2 2 2 2 2 2 2 2 2 2 2 2 2 2
left_child=1 12 7 4 5 6 -4 -3 -6 -10 -2 -7 -1 15 -15 16 -12
right_child=10 2 3 -5 8 11 -8 -9 9 -11 13 -13 -14 14 -16 -17 -18
leaf_value=0.0078283149394394111 0.003228325397725061 -0.025070509972320364 0.0065122370329703388 0.011747441802073082 -0.008153174051429523 0.011260674034052474 -0.01548348235591942 -0.0094936873904770125 -0.025179356818189717 -0.011191047466166041 0.013024942411894095 0.0041127498156089846 0.013111187929592372 0.013200524559506762 0.013065960289349039 0.013030177286370339 0.013027939244761959
leaf_weight=3.6949108839035034 3.8700835555791882 8.2824357300996763 4.2541476786136583 6.8062588423490515 7.191644653677943 4.7170421779155713 5.7506248205900254 4.6179567426443091 4.8141499459743482 6.2736579328775406 4.8142567425966281 4.2412799745798111 5.6070235222578031 3.6682866364717466 7.002974659204483 3.7478511482477179 3.5679992288351059
leaf_count=20 20 38 22 37 35 25 28 22 23 30 27 22 31 20 39 21 20
internal_value=0 -0.00467806 -0.00724095 -0.00365231 -0.00646669 0.000486456 -0.00613064 -0.0194945 -0.0136799 -0.0172645 0.0116395 0.00787652 0.0110127 0.0130671 0.0131122 0.0130274 0.0130262
internal_weight=0 66.2511 56.9492 44.0488 37.2425 18.9631 10.0048 12.9004 18.2795 11.0878 26.6715 8.95832 9.30193 22.8014 10.6713 12.1301 8.38226
internal_count=480 333 282 222 185 97 50 60 88 53 147 47 51 127 59 68 47
is_linear=0
shrinkage=0.01


Tree=14
num_leaves=18
num_cat=0
split_feature=2 2 1 1 0 9 9 4 2 1 1 1 4 2 0 8 0
split_gain=49.7944 21.2226 5.95257 10.9665 6.20065 6.10362 6.31592 4.36999 3.98383 3.11365 2.51943 4.11631 2.29494 1.58087 0.000163484 0.000148133 3.44306e-06
threshold=0.00016204134347869162 -0.00046291151562410921 -0.00010341400896279883 6.3563198582083938e-05 0.80851400748428637 -0.35502783896530593 0.49172465475021904 -4.3123990529692062e-05 0.00027189476650457683 7.8522987549345405e-05 0.00012179347049057211 0.00024962972252073895 4.1867883719237671e-05 -0.00067791605417416567 0.81399615379821244 82.586316567997386 0.7977036503416125
decision_type=2 2 2 2 2 2 2 2 2 2 2 2 2 2 2 2 2
left_child=1 13 7 4 -4 -5 -7 -3 10 -10 -2 -12 -6 -1 16 -16 -11
right_child=8 2 3 5 12 6 -8 -9 9 14 11 -13 -14 -15 15 -17 -18
leaf_value=0.013140509829572124 0.01107057108525519 -0.022405178510435091 -0.0080473721158310831 -0.0048559909581201502 0.0092512801660057948 -0.025760076313641189 -0.010314237206128314 -0.0099746379480950675 0.0033140268362628778 0.013003647693373786 -0.0044809688751317484 0.0087645012692598428 -0.00038102495593433445 0.004489014846262753 0.01308972413937338 0.013012024592945346 0.012991364354508187
leaf_weight=3.9897769093513489 4.1877406686544409 4.5680695921182632 6.7726712971925762 7.3897425681352606 4.8818953037261945 4.4714706540107745 6.4895295202732086 7.4250720888376218 3.9637411236763027 3.5525344610214251 4.9892195314168912 4.4290826618671417 5.0138192474842072 4.4878610521554929 5.2268872261047346 4.6245822906494141 6.3805367648601532
leaf_count=22 22 21 33 36 26 21 31 36 21 20 26 24 26 24 29 26 36
internal_value=0 -0.00600272 -0.0086289 -0.00654652 -0.000674859 -0.0118799 -0.0166153 -0.0147093 0.00893177 0.0114037 0.00461728 0.00174789 0.00437092 0.00856061 0.0130244 0.0130532 0.0129958
internal_weight=0 55.4899 47.0123 35.0191 16.6684 18.3507 10.961 11.9931 37.3543 23.7483 13.606 9.4183 9.89571 8.47764 19.7845 9.85147 9.93307
internal_count=480 276 230 173 85 88 52 57 204 132 72 50 52 46 111 55 56
is_linear=0
shrinkage=0.01


Tree=15
num_leaves=18
num_cat=0
split_feature=5 5 5 2 6 2 8 8 6 4 2 2 6 6 2 2 9
split_gain=49.3153 25.871 23.9726 18.4534 11.2267 10.6454 12.1453 6.83276 5.41351 4.1409 3.62523 3.13733 0.603598 0.000463507 0.000579133 9.27872e-06 1.50983e-07
threshold=0.0084394870405816187 -0.012758032963541553 -0.005138405804530787 0.00027189476650457683 0.65615277386382942 -7.1214907891581345e-05 60.220585652806669 60.967323881838837 0.71133069102209501 2.9396135512615998e-05 -0.000187048835535053 0.00015587343821538149 1.1297161151978645 0.52682650830248012 0.00027924141597290847 0.00027493399130201773 0.17071016731156283
decision_type=2 2 2 2 2 2 2 2 2 2 2 2 2 2 2 2 2
left_child=1 12 7 4 9 10 8 -3 -7 -4 -6 -2 -1 15 -15 -13 -17
right_child=11 2 3 -5 5 6 -8 -9 -10 -11 -12 13 -14 14 -16 16 -18
leaf_value=0.013035699375517915 0.003257166620394338 -0.013447586976419287 -0.0098119493243645026 0.011663203429851488 -0.0015668781714962006 -0.0078205272981604554 0.0024816973354796403 -0.028432855290534222 -0.023990081478869156 -0.021908198069555157 0.010266156519492593 0.01296818710508783 0.0078141523820728191 0.013144340889057587 0.012990849582173931 0.01294765561283351 0.01295038903144851
leaf_weight=5.536642909049986 3.8755992501974132 8.1854974478483182 7.8989119529724103 6.7303995639085761 4.5551844835281372 4.1038161516189628 6.2555004954338065 4.84303294122219 4.1790107488632202 4.410111740231514 5.9984698891639656 3.5298420786857632 3.6888698637485504 3.8153669983148557 6.9103853851556778 4.7474260479211789 3.5183796137571335
leaf_count=31 20 38 38 37 23 20 32 22 20 21 31 20 20 21 39 27 20
internal_value=0 -0.00459108 -0.00709904 -0.00358031 -0.00632341 -0.00248608 -0.00803563 -0.019018 -0.0159787 -0.0141458 0.00515876 0.0115677 0.0109478 0.0129979 0.0130454 0.0129546 0.0129488
internal_weight=0 66.3854 57.1599 44.1314 37.401 25.092 14.5383 13.0285 8.28283 12.309 10.5537 26.397 9.22551 22.5214 10.7258 11.7956 8.26581
internal_count=480 333 282 222 185 126 72 60 40 59 54 147 51 127 60 67 47
is_linear=0
shrinkage=0.01


Tree=16
num_leaves=20
num_cat=0
split_feature=5 5 5 7 7 1 8 7 3 8 9 7 1 9 9 1 7 8 4
split_gain=48.5332 25.3693 23.2502 12.6582 20.1037 11.15 7.25744 6.7737 3.03379 3.42486 2.07682 1.8035 0.625715 0.608459 0.205617 0.00146237 0.00179214 0.000132471 5.06849e-07
threshold=0.0084394870405816187 -0.012758032963541553 -0.005138405804530787 0.79631213424630987 0.79406109358373211 0.0001273083004002529 14.538226452565135 0.80201860966487404 -0.00078003757150091324 92.185077249051531 -0.013776669003685613 0.80811843118401183 -0.0002416564230220408 -0.35502783896530593 0.75544491416985582 0.00022270874936292098 0.80060365705689163 67.03121653209142 0.0004103828374489305
decision_type=2 2 2 2 2 2 2 2 2 2 2 2 2 2 2 2 2 2 2
left_child=1 12 7 4 -4 6 -5 -3 -8 13 -6 14 -1 -10 15 16 -2 -17 -19
right_child=11 2 3 5 10 -7 8 -9 9 -11 -12 -13 -14 -15 -16 17 -18 18 -20
leaf_value=0.0076890302648749435 0.013255172240626572 -0.024052128819955953 0.007927826829282095 -0.006030364644698495 -0.014337930017882961 -0.011614185811267719 -0.0014426167589320876 -0.0090475559594537704 0.0083423504890917342 0.00039422911035650498 -0.023799772950650749 0.0050157709564084361 0.013025143563745335 0.013376863993912882 0.010500668704797248 0.012990494467328589 0.012956779242676394 0.012918081248180686 0.01291269605775189
leaf_weight=3.6499079167842865 4.4188703298568814 8.4394621104001981 3.7075800895690909 6.4859651774168077 4.1911324858665457 6.5889269411563864 3.9457358866930035 4.6755525767803183 3.8377993553876877 3.8168679326772681 5.1954371482133856 3.6632949262857428 5.5222614556550962 6.4102672487497312 3.9270305782556525 3.5365332365035993 3.6965088993310928 3.4972126632928848 3.493739515542984
leaf_count=20 24 38 20 32 20 32 20 22 20 20 24 20 31 34 22 20 21 20 20
internal_value=0 -0.00453919 -0.00701109 -0.00354029 -0.0117877 -6.62584e-05 0.00303982 -0.0187029 0.00630615 0.00847997 -0.019575 0.011524 0.0109017 0.0114915 0.0125803 0.0130184 0.0131193 0.0129406 0.0129154
internal_weight=0 66.4669 57.2947 44.1797 13.0941 31.0856 24.4966 13.115 18.0107 14.0649 9.38657 26.2332 9.17217 10.2481 22.5699 18.6429 8.11538 10.5275 6.99095
internal_count=480 333 282 222 64 158 126 60 94 74 44 147 51 54 127 105 45 60 40
is_linear=0
shrinkage=0.01


Tree=17
num_leaves=19
num_cat=0
split_feature=5 5 5 7 7 1 7 7 5 10 7 0 1 0 0 3 1 5
split_gain=47.7642 24.8802 22.5619 12.3386 19.5299 10.8902 6.53341 6.09844 15.0135 6.46615 1.79611 1.78013 0.624128 0.148837 0.123157 0.00137656 0.000421845 1.03827e-06
threshold=0.0084394870405816187 -0.012758032963541553 -0.005138405804530787 0.79631213424630987 0.79406109358373211 0.0001273083004002529 0.80201860966487404 0.80212090893000243 -0.0008433035830812673 1.0000000180025095e-35 0.80811843118401183 0.8083471924986344 -0.0002416564230220408 0.8095408505060292 0.80191508144097534 -3.3877815751981448e-05 0.00015632514003016687 0.014151099560748172
decision_type=2 2 2 2 2 2 2 2 2 2 2 2 2 2 2 2 2 2
left_child=1 12 6 4 -4 7 -3 9 -9 13 14 -6 -1 -5 -2 -16 -17 -18
right_child=10 2 3 5 11 -7 -8 8 -10 -11 -12 -13 -14 -15 15 16 17 -19
leaf_value=0.0076428115276475752 0.011334307114462731 -0.023625353174008833 0.0078801547881036556 0.013472550854742603 -0.023586753723859166 -0.011443180382523663 -0.008926118515423468 -0.017698142902170796 0.0077914320785688832 -0.00098593024878070642 0.0049785482329039264 -0.014908559967308751 0.012986020181656848 0.010865626630567138 0.013125568754052214 0.013013620523939631 0.012887528939142476 0.01287979795464473
leaf_weight=3.6353336870670319 6.1515025794506135 8.5056577324867231 3.6927838325500479 5.1526193618774467 4.7175683379173261 6.6203574836254111 4.6916888058185569 4.0923927426338196 5.307876378297804 6.095508784055709 3.65382495522499 4.7372671365737915 5.4837028384208661 3.8090124577283859 5.4176306128501972 3.8997420668601919 3.4767617285251617 3.4719109833240509
leaf_count=20 35 38 20 27 22 32 22 20 28 31 20 22 31 20 30 22 20 20
internal_value=0 -0.00448836 -0.00692512 -0.00350096 -0.0116217 -6.54246e-05 -0.0183997 0.00301441 -0.00330542 0.00695992 0.0114799 -0.0192386 0.0108559 0.0123645 0.0125396 0.0129954 0.0129304 0.0128837
internal_weight=0 66.5418 57.4227 44.2254 13.1476 31.0778 13.1973 24.4574 9.40027 15.0571 26.0714 9.45484 9.11904 8.96163 22.4175 16.266 10.8484 6.94867
internal_count=480 333 282 222 64 158 60 126 48 78 147 44 51 47 127 92 62 40
is_linear=0
shrinkage=0.01


Tree=18
num_leaves=20
num_cat=0
split_feature=2 7 1 1 6 7 0 10 7 0 7 7 3 3 2 1 2 0 1
split_gain=47.0535 23.6434 11.4414 8.3602 8.17111 6.91086 4.82057 4.76375 3.96485 5.34559 3.71744 2.93361 1.12398 0.19008 0.00261891 0.00251352 0.000340529 9.53692e-06 2.98683e-06
threshold=0.00016204134347869162 0.80977436276717552 -0.00010341400896279883 6.3563198582083938e-05 1.130286054058337 0.79463423003606037 0.80887975295015691 1.5000000000000002 0.79406109358373211 0.81667836216141432 0.80833979797841304 0.80204256100362847 0.00016344204463458747 0.00021885621027695204 0.00032811574857394282 -0.00017439546743502896 0.00026160620369841686 0.7977036503416125 0.00030962804815692918
decision_type=2 2 2 2 2 2 2 2 2 2 2 2 2 2 2 2 2 2 2
left_child=1 2 11 6 15 -5 -4 -7 16 -10 13 -1 -8 -11 -15 -3 -2 -18 -19
right_child=8 4 3 5 -6 7 12 -9 9 10 -12 -13 -14 14 -16 -17 17 18 -20
leaf_value=-0.023032564309400608 0.012965449847887426 0.012943076455291622 -0.0064231292208916024 -0.00069657798027643921 -0.0048444109146661488 -0.0097025629693765717 0.0083237919643017085 -0.022251820944551581 -0.0013708922515136895 0.010302234297725973 0.0011391225438517388 -0.012846738965533304 0.00080270629034314659 0.013267127759930388 0.012904960250447054 0.013308212046685218 0.012867718889808562 0.012841116858664276 0.012853958044825418
leaf_weight=5.4533000290393812 3.6911268830299369 3.8634362518787384 7.7813547104597074 4.8047842383384731 3.8098477423191071 7.4450654834508878 4.0656789541244507 5.0950041264295578 6.6371112316846874 3.5848716944456092 4.096116676926612 5.8723848015069962 3.8863917589187622 3.6857305169105512 4.3568711280822754 3.6820117235183698 3.4636417627334577 3.6182228326797485 3.627140998840332
leaf_count=24 21 22 38 24 20 35 22 23 34 20 22 28 20 20 25 20 20 21 21
internal_value=0 -0.00578327 -0.00907621 -0.00610598 0.00709354 -0.0108941 -0.000827483 -0.0148013 0.0087902 0.00615471 0.00933136 -0.0177512 0.00464803 0.0122173 0.0130709 0.0131213 0.0128826 0.0128541 0.0128475
internal_weight=0 55.7593 44.404 33.0783 11.3553 17.3449 15.7334 12.5401 36.7608 22.3607 15.7236 11.3257 7.95207 11.6275 8.0426 7.54545 14.4001 10.709 7.24536
internal_count=480 276 214 162 62 82 80 58 204 121 87 52 42 65 45 42 83 62 42
is_linear=0
shrinkage=0.01


Tree=19
num_leaves=20
num_cat=0
split_feature=2 2 6 6 1 1 3 9 0 2 6 1 1 3 2 6 6 6 0
split_gain=46.2215 19.2985 5.97047 5.83717 7.24701 6.16519 7.01448 6.2354 5.22783 3.84712 3.30942 6.24855 3.0371 2.96664 1.56209 0.000443921 0.000225373 1.24856e-05 3.69832e-06
threshold=0.00016204134347869162 -0.00046291151562410921 1.1637933748783882 0.72789181409610082 -0.00010341400896279883 6.3563198582083938e-05 0.00035532105480556858 -0.35502783896530593 0.8069891679600335 0.00027189476650457683 0.51667735032594286 0.00012179347049057211 7.8522987549345405e-05 -5.0714622027214766e-05 -0.00067791605417416567 0.52890947528302845 1.5489192505868294 0.31215158076452448 0.7977036503416125
decision_type=2 2 2 2 2 2 2 2 2 2 2 2 2 2 2 2 2 2 2
left_child=1 14 3 4 -3 8 7 -7 -6 10 -2 -12 -11 -10 -1 17 -17 18 -14
right_child=9 2 -4 -5 5 6 -8 -9 13 12 11 -13 15 -15 -16 16 -18 -19 -20
leaf_value=0.012987670917104533 0.012901149033210798 -0.017823540278031916 -0.017875729751450527 0.002206484533398266 -0.0092015868585379676 0.0023936671855400576 -0.019837697899182521 -0.012269247047345083 0.010627593441721313 0.0032138925419867015 0.010976924018385766 -0.0050769891747952361 0.012831055913356608 -0.0018771163730024721 0.0042910838348904938 0.012963281012072574 0.01286262246317536 0.01280033893706177 0.012816379492202788
leaf_weight=3.8792432844638824 3.4755597263574591 6.6596280634403184 5.5937566608190528 6.0533910840749732 4.6522173136472755 5.1287435889244062 5.2001257836818686 6.674330353736881 3.7262789607048035 3.932553485035899 4.1386923342943174 5.8534852415323257 3.4389271736145037 3.8651392012834549 4.4173144549131376 4.4017924517393094 4.496562197804451 3.4181961566209793 3.428983211517334
leaf_count=22 20 30 27 31 22 25 24 31 20 21 22 30 20 20 24 25 26 20 20
internal_value=0 -0.00571582 -0.00817113 -0.00687739 -0.00840882 -0.00626505 -0.0101611 -0.00589783 -0.000854462 0.00874449 0.00449598 0.00157243 0.0112196 0.00426087 0.00835737 0.0128607 0.0129124 0.012816 0.0128237
internal_weight=0 55.8502 47.5536 41.9599 35.9065 29.2468 17.0032 11.8031 12.2436 36.5848 13.4677 9.99218 23.117 7.59142 8.29656 19.1845 8.89835 10.2861 6.86791
internal_count=480 276 230 203 172 142 80 56 62 204 72 52 132 40 46 111 51 60 40
is_linear=0
shrinkage=0.01


Tree=20
num_leaves=19
num_cat=0
split_feature=2 7 1 6 1 7 8 8 9 7 0 7 8 3 8 2 2 0
split_gain=45.4046 22.775 10.86 7.96896 7.93426 6.64947 5.35538 5.08239 4.53712 3.93478 5.27776 3.68184 2.90083 0.18927 0.00297177 0.0027499 0.000347518 1.00621e-05
threshold=0.00016204134347869162 0.80977436276717552 -0.00010341400896279883 1.130286054058337 6.3563198582083938e-05 0.79463423003606037 48.203681426134075 20.985713543892633 -0.35502783896530593 0.79406109358373211 0.81667836216141432 0.80833979797841304 63.279788680141138 0.00021885621027695204 25.500495975056904 0.00032811574857394282 0.00027189476650457683 0.79822502602246526
decision_type=2 2 2 2 2 2 2 2 2 2 2 2 2 2 2 2 2 2
left_child=1 2 6 14 7 -6 -1 -4 -7 16 -11 13 -9 -12 -3 -15 -2 -18
right_child=9 3 4 -5 5 8 -8 12 -10 10 11 -13 -14 15 -16 -17 17 -19
leaf_value=-0.0099071810605651095 0.012892601283886765 0.013261155294288059 -0.0095825027766560222 -0.0046831537380068681 -0.00060966326200696808 -0.0071188508285023886 -0.023625991738084141 0.0081146151422735562 -0.019328094470768106 -0.0014049358305142747 0.010228214046518205 0.0010950657793542921 -0.0021209933804940662 0.013206799512343397 0.012861943617357117 0.012833481530893639 0.012793186757112354 0.012773045213585783
leaf_weight=5.3091636300086957 3.8144162595272055 3.6574432849884015 4.653312385082244 3.8323960155248642 4.82264216244221 5.0971285104751543 6.1319822669029236 5.4044810980558378 7.5552661120891598 6.6260795593261745 3.5524107962846738 4.0853164494037619 5.6775342971086502 3.6486251503229141 3.8042493462562561 4.2968403398990631 4.0956484377384168 6.2885948121547699
leaf_count=25 22 20 23 20 24 24 27 28 34 34 20 22 29 20 22 25 24 37
internal_value=0 -0.00564871 -0.00885759 0.00703769 -0.00596295 -0.0106011 -0.0172599 -0.000812001 -0.0144095 0.00869942 0.00607086 0.00924962 0.00287071 0.012147 0.0130576 0.0130049 0.012811 0.012781
internal_weight=0 55.9456 44.6515 11.2941 33.2104 17.475 11.4411 15.7353 12.6524 36.4079 22.2093 15.5832 11.082 11.4979 7.46169 7.94547 14.1987 10.3842
internal_count=480 276 214 62 162 82 52 80 58 204 121 87 57 65 42 45 83 61
is_linear=0
shrinkage=0.01


Tree=21
num_leaves=18
num_cat=0
split_feature=2 2 1 1 0 9 9 2 4 1 1 1 4 2 0 8 0
split_gain=44.6053 18.5088 4.94653 9.44629 5.51919 5.42243 5.84203 3.82157 3.7664 3.01276 2.50163 3.87339 2.15474 1.54636 0.000417997 0.000432696 9.84977e-06
threshold=0.00016204134347869162 -0.00046291151562410921 -0.00010341400896279883 6.3563198582083938e-05 0.80851400748428637 -0.35502783896530593 0.49172465475021904 0.00027189476650457683 -4.3123990529692062e-05 7.8522987549345405e-05 0.00012179347049057211 0.00024962972252073895 4.1867883719237671e-05 -0.00067791605417416567 0.81399615379821244 84.226028829333671 0.79822502602246526
decision_type=2 2 2 2 2 2 2 2 2 2 2 2 2 2 2 2 2
left_child=1 13 8 4 -4 -5 -7 10 -3 -9 -2 -12 -6 -1 16 -16 -11
right_child=7 2 3 5 12 6 -8 9 -10 14 11 -13 -14 -15 15 -17 -18
leaf_value=0.012918566885307734 0.010909490348456896 -0.020419553311300079 -0.0074512641661488134 -0.0043497110739744334 0.0090325702309535655 -0.023950831993828574 -0.0093186718293998758 0.0031603510088581157 -0.0090574706992292212 0.01275768190753074 -0.0044684331868673323 0.0084877670946697618 -0.00035150790006037452 0.0042256884877910064 0.012898654998496833 0.012762062088261424 0.012737073914447977
leaf_weight=3.8296446353197098 4.1071996092796317 4.7381774038076401 6.8904392421245602 7.5106769055128089 4.7813968956470472 4.6239138692617434 6.6571003198623657 3.9193785637617138 7.5925610810518247 4.0661242604255694 4.9791944026947004 4.3003441989421844 5.0115145742893219 4.3946154117584211 5.3930554687976819 4.0688288360834122 5.3986200392246246
leaf_count=22 22 21 33 36 26 21 31 21 36 24 26 24 26 24 31 24 32
internal_value=0 -0.00558351 -0.0079674 -0.00607094 -0.000594351 -0.0109331 -0.0153162 0.00865438 -0.0134234 0.0111404 0.00441172 0.00153576 0.00423028 0.00827355 0.0127929 0.0128399 0.0127459
internal_weight=0 56.03 47.8058 35.475 16.6834 18.7917 11.281 36.2327 12.3307 22.846 13.3867 9.27954 9.79291 8.22426 18.9266 9.46188 9.46474
internal_count=480 276 230 173 85 88 52 204 57 132 72 50 52 46 111 55 56
is_linear=0
shrinkage=0.01


Tree=22
num_leaves=18
num_cat=0
split_feature=5 5 5 2 6 2 8 8 6 4 2 2 6 6 2 2 0
split_gain=45.0072 23.3251 20.6714 16.7959 9.76524 10.145 10.9162 6.07393 4.86326 3.86119 3.50502 2.9976 0.56765 0.00118924 0.00139797 2.77913e-05 9.44739e-07
threshold=0.0084394870405816187 -0.012758032963541553 -0.005138405804530787 0.00027189476650457683 0.65615277386382942 -7.1214907891581345e-05 60.220585652806669 60.967323881838837 0.71133069102209501 2.9396135512615998e-05 -0.000187048835535053 0.00015587343821538149 1.1297161151978645 0.52682650830248012 0.00027924141597290847 0.00027493399130201773 0.80191508144097534
decision_type=2 2 2 2 2 2 2 2 2 2 2 2 2 2 2 2 2
left_child=1 12 7 4 9 10 8 -3 -7 -4 -6 -2 -1 15 -15 -13 -17
right_child=11 2 3 -5 5 6 -8 -9 -10 -11 -12 13 -14 14 -16 16 -18
leaf_value=0.012807818989619748 0.0032130563936753863 -0.012302113629969545 -0.0089354984194115264 0.011459342767000088 -0.0014032834401975622 -0.007362332170811399 0.0023840542134802275 -0.02620186082338697 -0.022530116050691627 -0.020460619589112061 0.010231301542692592 0.012731982752625833 0.0076805093996074568 0.013011653600369854 0.012769395522671978 0.012701051805028292 0.012694117977945117
leaf_weight=5.3040672689676267 3.8620531558990505 8.3993924856185895 8.0863099396228773 6.5370347350835791 4.5762923508882523 4.1577108800411278 6.2122017741203299 5.0243797004222861 4.3002748638391495 4.5383784621953955 5.9636729359626717 3.3704283684492129 3.6417810767889023 3.7210488170385343 6.6191986203193665 4.0184887647628784 3.845380961894989
leaf_count=31 20 38 38 37 23 20 32 22 20 21 31 20 20 21 39 24 23
internal_value=0 -0.0043057 -0.00663152 -0.00334209 -0.00589945 -0.00230429 -0.00768129 -0.0175046 -0.0150741 -0.0130786 0.00517974 0.0113268 0.0107205 0.0127792 0.0128566 0.012708 0.0126977
internal_weight=0 66.7415 57.7956 44.3719 37.8348 25.2102 14.6702 13.4238 8.45799 12.6247 10.54 25.4366 8.94585 21.5745 10.3402 11.2343 7.86387
internal_count=480 333 282 222 185 126 72 60 40 59 54 147 51 127 60 67 47
is_linear=0
shrinkage=0.01


Tree=23
num_leaves=19
num_cat=0
split_feature=5 5 5 2 7 7 2 7 7 2 5 2 7 2 7 2 2 7
split_gain=44.3071 22.885 20.0893 16.4927 14.5552 11.9457 13.5 7.95199 5.91167 4.64046 3.99599 2.98541 0.598704 0.553546 0.00112878 0.0014092 3.7384e-05 7.00204e-07
threshold=0.0084394870405816187 -0.012758032963541553 -0.005138405804530787 0.00027189476650457683 0.79631213424630987 0.80212090893000243 -6.175446006745354e-05 0.80098095499296806 0.80201860966487404 8.5532082042760762e-05 0.0044979088640428331 0.00015587343821538149 0.80989663422294333 -0.00017710463291970011 0.79836964934557841 0.00027924141597290847 0.00027369809252869587 0.77849762023155977
decision_type=2 2 2 2 2 2 2 2 2 2 2 2 2 2 2 2 2 2
left_child=1 12 8 4 10 6 13 -8 -3 -7 -4 -2 -1 -6 16 -16 -13 -18
right_child=11 2 3 -5 5 9 7 -9 -10 -11 -12 14 -14 -15 15 -17 17 -19
leaf_value=0.0075235122639940458 0.0031858107347399606 -0.022131089039213184 -0.019887015157127392 0.011415807879963429 0.0085185030416951441 -0.018742166427243918 0.0039234509328984505 -0.015690701861744136 -0.0082847932170939612 -0.0044610446431596106 -0.0075386532897167803 0.012703398711666843 0.012811689902423689 0.013484965164082083 0.012982110295233941 0.012734270570242274 0.012666808671658288 0.01266086115597057
leaf_weight=3.5906882882118207 3.85616107285023 8.7259661555290204 7.1345859318971616 6.4965476393699637 3.8843828290700868 4.2240528613328916 3.9989749640226435 4.2783807665109634 4.7685571461915961 4.9318004250526428 4.1420623064041138 3.3501200228929537 5.3024729490280151 5.3147878199815759 3.5247708410024625 6.5713218301534653 3.6566024273633957 4.3158762007951736
leaf_count=20 20 38 32 37 20 20 20 20 22 25 20 20 31 28 20 39 22 26
internal_value=0 -0.004259 -0.00655302 -0.00330587 -0.00582875 -0.00179672 0.00305083 -0.00621467 -0.0172382 -0.0110496 -0.0153513 0.0112856 0.0106765 0.0113879 0.0127439 0.0128208 0.0126754 0.0126636
internal_weight=0 66.7933 57.9001 44.4056 37.909 26.6324 17.4765 8.27736 13.4945 9.15585 11.2766 25.2749 8.89316 9.19917 21.4187 10.0961 11.3226 7.97248
internal_count=480 333 282 222 185 133 88 40 60 45 52 147 51 48 127 59 68 48
is_linear=0
shrinkage=0.01


Tree=24
num_leaves=20
num_cat=0
split_feature=2 2 6 6 1 1 4 9 0 2 6 1 1 4 2 6 8 6 0
split_gain=42.4689 17.4639 5.64373 5.37324 6.41228 5.48045 5.49335 5.88925 4.81379 3.71191 3.2037 6.08245 2.98226 2.84244 1.52698 0.000461159 0.000366728 1.2386e-05 3.55671e-06
threshold=0.00016204134347869162 -0.00046291151562410921 1.1637933748783882 0.72789181409610082 -0.00010341400896279883 6.3563198582083938e-05 0.00018999514381501384 -0.35502783896530593 0.8069891679600335 0.00027189476650457683 0.51667735032594286 0.00012179347049057211 7.8522987549345405e-05 -3.675510844436402e-05 -0.00067791605417416567 0.52890947528302845 84.226028829333671 0.31215158076452448 0.7977036503416125
decision_type=2 2 2 2 2 2 2 2 2 2 2 2 2 2 2 2 2 2 2
left_child=1 14 3 4 -3 8 7 -7 -6 10 -2 -12 -11 -10 -1 17 -17 18 -14
right_child=9 2 -4 -5 5 6 -8 -9 13 12 11 -13 15 -15 -16 16 -18 -19 -20
leaf_value=0.012828672807605782 0.012765696427508537 -0.016645684389861738 -0.017043450702506426 0.002277247623874937 -0.0086906804657013621 0.0025262281017620447 -0.017031035688456663 -0.012097480012748001 0.010494255504965393 0.0030572146649411706 0.010862383853867969 -0.0050427117521980851 0.012658606977301701 -0.001786370447986344 0.0041307048078072454 0.012797352059978609 0.012664371824081555 0.01262756897615048 0.012643953209444801
leaf_weight=3.7590818554162979 3.3771888911724082 6.8071482032537416 5.6970446705818167 6.0570282936096183 4.716998100280767 5.1572415977716428 6.2151026129722586 5.9094023108482396 3.6702244132757187 3.8887510597705868 4.0808330029249174 5.8528634309768677 3.3179792612791079 3.8742440491914749 4.3586267828941327 5.1164948642253858 3.4872797280550003 3.2956719547510147 3.3073994368314743
leaf_count=22 20 30 27 31 22 25 28 27 20 21 22 30 20 20 24 30 21 20 20
internal_value=0 -0.00540879 -0.0076983 -0.00644286 -0.00789588 -0.00587982 -0.00950773 -0.00528259 -0.000766506 0.00853454 0.00435173 0.00149121 0.0110186 0.00418789 0.00815849 0.0126899 0.0127435 0.0126434 0.0126513
internal_weight=0 56.2221 48.1044 42.4074 36.3504 29.5432 17.2817 11.0666 12.2615 35.7245 13.3109 9.9337 22.4136 7.54447 8.11771 18.5248 8.60377 9.92105 6.62538
internal_count=480 276 230 203 172 142 80 52 62 204 72 52 132 40 46 111 51 60 40
is_linear=0
shrinkage=0.01


Tree=25
num_leaves=17
num_cat=0
split_feature=5 5 5 2 1 7 5 7 4 4 2 1 6 2 2 6
split_gain=43.1839 22.2573 19.2804 15.9678 15.101 7.31663 10.6973 5.67567 4.48636 8.5116 2.92148 0.629262 0.00132423 0.00165476 2.44641e-05 7.10652e-07
threshold=0.0084394870405816187 -0.012758032963541553 -0.005138405804530787 0.00027189476650457683 7.3328842056297208e-05 0.80212090893000243 -1.0000000180025095e-35 0.80201860966487404 -0.0006320432812728648 -1.0000000180025095e-35 0.00015587343821538149 -0.0002416564230220408 0.52682650830248012 0.00027924141597290847 0.00027493399130201773 0.18900757497490397
decision_type=2 2 2 2 2 2 2 2 2 2 2 2 2 2 2 2
left_child=1 11 7 4 5 6 -4 -3 -6 -10 -2 -1 14 -14 -12 -16
right_child=10 2 3 -5 8 -7 -8 -9 9 -11 12 -13 13 -15 15 -17
leaf_value=0.007353367245117778 0.0032257178488484901 -0.021625407430608191 0.013347066253889039 0.011338283125784417 -0.020342440836628742 -0.0082299659209684687 -0.0050799927075278464 -0.0080984255777865957 0.00030426812719568471 -0.015491690530773266 0.012629626219442891 0.012803990351125366 0.012935029316109377 0.012669207975485852 0.012599797322062957 0.012593683093604358
leaf_weight=3.5360485762357712 3.8635694533586529 8.7993816733360273 6.9260798245668376 6.4221599996089926 4.8185792118310955 6.2787660807371131 5.7789549529552513 4.7904721200466147 5.6831596940755871 8.5334950685501045 3.2969461679458636 5.2818407267332059 3.666944742202757 6.4804649353027344 4.2577847391366959 3.434240385890007
leaf_count=20 20 38 37 37 22 31 29 22 27 39 20 31 21 39 26 21
internal_value=0 -0.00418433 -0.00643359 -0.00324615 -0.00570974 0.000601132 0.00496542 -0.0168571 -0.0120036 -0.0091772 0.0112214 0.0106182 0.0126829 0.0127653 0.0126068 0.0125971
internal_weight=0 66.8489 58.031 44.4412 38.019 18.9838 12.705 13.5899 19.0352 14.2167 25 8.81789 21.1364 10.1474 10.989 7.69203
internal_count=480 333 282 222 185 97 66 60 88 66 147 51 127 60 67 47
is_linear=0
shrinkage=0.01


Tree=26
num_leaves=20
num_cat=0
split_feature=2 7 6 4 7 6 4 7 6 8 7 3 0 8 8 6 8 2 7
split_gain=41.1733 20.4178 7.69683 5.6562 6.79946 10.301 5.5494 3.84469 5.14214 9.9967 4.28622 3.623 6.90203 3.02373 1.73877 0.00544411 0.00407754 0.00075548 1.03707e-05
threshold=0.00016204134347869162 0.80977436276717552 1.130286054058337 -0.00087692336332312315 0.80129493933102824 0.69920319025775657 2.9396135512615998e-05 0.79406109358373211 0.7418067317833229 55.854287838246705 0.80965870924176031 0.00043566958019719554 0.80887975295015691 36.028509173434607 65.614506843339328 1.5489192505868294 25.500495975056904 0.00027189476650457683 0.78054372947552053
decision_type=2 2 2 2 2 2 2 2 2 2 2 2 2 2 2 2 2 2 2
left_child=1 3 16 -1 5 6 14 17 9 -9 15 12 13 -6 -5 -10 -3 -2 -19
right_child=7 2 -4 4 11 -7 -8 8 10 -11 -12 -13 -14 -15 -16 -17 -18 18 -20
leaf_value=-0.016752546546388053 0.012746613043231393 0.013165809880168725 -0.0045892160522875685 -0.0066197948457183114 -0.0078603474132479655 0.0097895315238842925 -0.015490688524066485 0.010592287040476895 0.013149645224608627 -0.012051687887138084 0.00044855696739002536 -0.017746711282790609 0.0016174648981570573 -0.018934829489424147 0.0024725752265279135 0.012681320682220111 0.01269135294710306 0.012586749074177391 0.012565465217217377
leaf_weight=6.7139582335948935 3.6919758915901175 3.5738566964864713 3.8378740251064301 4.2191537618637103 5.3241448551416415 5.0324652045965186 4.881166696548461 3.9260648787021664 4.3250071257352811 3.8727997243404388 3.8155455887317649 5.48243823647499 4.8020355105400077 4.5917400419712067 4.1938869953155518 5.8255296051502228 3.6729309260845184 6.367225915193556 3.5745505690574646
leaf_count=32 22 20 20 20 25 26 22 22 24 20 20 25 24 20 20 35 22 39 22
internal_value=0 -0.00530221 0.00686122 -0.00828242 -0.00680636 -0.00239582 -0.00700853 0.00846049 0.00585214 -0.000652373 0.00948435 -0.0108078 -0.00822306 -0.0129886 -0.00208726 0.0128809 0.0129253 0.0126245 0.0125791
internal_weight=0 56.3257 11.0847 45.241 38.527 18.3267 13.2942 35.3987 21.7649 7.79886 13.9661 20.2004 14.7179 9.91588 8.41304 10.1505 7.24679 13.6338 9.94178
internal_count=480 276 62 214 182 88 62 204 121 42 79 94 69 45 40 59 42 83 61
is_linear=0
shrinkage=0.01


Tree=27
num_leaves=19
num_cat=0
split_feature=5 5 5 1 6 6 8 3 4 1 1 8 3 1 3 5 3 5
split_gain=42.0162 21.558 18.4909 10.257 9.56587 6.29624 5.62995 5.29909 6.74845 4.11599 4.00127 3.10574 0.660842 0.625275 0.296238 0.634756 0.00317108 0.00104227
threshold=0.0084394870405816187 -0.012758032963541553 -0.005138405804530787 6.3563198582083938e-05 0.52962800454781711 0.71300623483949777 60.967323881838837 -6.6627770877847312e-05 5.8911940837180772e-05 0.00013555844818935461 -3.6254077930952804e-05 90.283008063792565 -0.00062880767571299445 -0.0002416564230220408 0.00061835558055567408 0.012748655057311266 -0.00019281689306632763 0.012512602006792663
decision_type=2 2 2 2 2 2 2 2 2 2 2 2 2 2 2 2 2 2
left_child=1 13 6 5 -5 10 -3 -6 -9 -10 -4 -7 -2 -1 16 -16 -14 -18
right_child=12 2 3 4 7 11 -8 8 9 -11 -12 -13 14 -15 15 -17 17 -19
leaf_value=0.0072879065348648714 0.0070854970603865417 -0.011495615446845488 -0.010720417653218788 0.0076110374882678187 -0.016492966546340304 0.011772798190781412 -0.024740100015219042 0.0044664549853952913 -0.0040150788345594754 -0.017628489076718278 0.0022302432159723583 0.00040698645762674338 0.013006881274614428 0.012745404963718447 0.0070305600338105801 0.012637032371327911 0.012794643985188934 0.012576140538274936
leaf_weight=3.5138419419527054 3.4393208920955685 8.5458797216415388 4.3827464878559113 3.5770131349563625 7.9846248477697399 6.5089500993490201 5.1397548019886008 4.1031963080167762 4.3057999759912473 4.5869107991456985 5.2356539815664309 3.812269315123558 3.684140712022784 5.2151090502738935 3.4186848849058133 4.9338643848896027 3.5396124869585019 5.6961517035961151
leaf_count=20 20 38 21 20 37 35 22 20 21 21 27 20 21 31 20 30 21 35
internal_value=0 -0.00410595 -0.0063045 -0.00317807 -0.00750429 0.00215009 -0.0164697 -0.0100813 -0.00614206 -0.011037 -0.00367089 0.0075747 0.0111525 0.0105485 0.01181 0.0103423 0.0127588 0.0126599
internal_weight=0 66.9118 58.1828 44.4972 24.5575 19.9396 13.6856 20.9805 12.9959 8.89271 9.6184 10.3212 24.7118 8.72895 21.2725 8.35255 12.9199 9.23576
internal_count=480 333 282 222 119 103 60 99 62 42 48 55 147 51 127 50 77 56
is_linear=0
shrinkage=0.01


Tree=28
num_leaves=19
num_cat=0
split_feature=5 5 5 2 1 6 6 6 4 4 1 2 1 9 6 2 2 3
split_gain=41.3665 21.1569 17.9965 15.3683 14.3706 5.51248 4.83839 4.72478 4.20805 8.04479 3.0052 2.88945 0.624125 0.433414 0.00135469 0.00158725 2.27324e-05 5.68906e-07
threshold=0.0084394870405816187 -0.012758032963541553 -0.005138405804530787 0.00027189476650457683 7.3328842056297208e-05 0.71300623483949777 0.73602085447940746 0.82868696015299359 -0.0006320432812728648 -1.0000000180025095e-35 -3.6254077930952804e-05 0.00015587343821538149 -0.0002416564230220408 0.45160783170527746 0.52682650830248012 0.00027924141597290847 0.00027493399130201773 0.00028512568801858379
decision_type=2 2 2 2 2 2 2 2 2 2 2 2 2 2 2 2 2 2
left_child=1 12 7 4 5 10 -7 13 -6 -10 -4 -2 -1 -3 16 -16 -13 -18
right_child=11 2 3 -5 8 6 -8 -9 9 -11 -12 14 -14 -15 15 -17 17 -19
leaf_value=0.0072437856452457474 0.0031544509600166908 -0.018101259240918755 -0.010568447328302316 0.01126338254708645 -0.019655974276993657 0.013235310674360989 -0.0017844555620983968 -0.0076864364275974874 0.00032746578082115945 -0.014994698070376468 0.00034492374955526022 0.012535024818308904 0.012710733890522678 -0.022407881070948252 0.012842402127388084 0.012579622173174199 0.012506490134807717 0.012500929815855299
leaf_weight=3.4999616146087646 3.8481082916259792 4.6723799109458906 4.4012171179056123 6.3484248965978614 4.884048298001292 4.7864498794078809 3.8860058039426804 4.3981501311063758 5.6864404678344753 8.6229178607463783 5.9133638143539491 3.22648933529854 5.1772309541702253 4.6749919950962067 3.601918160915373 6.3524614125490189 3.2049401551485062 4.3209505528211594
leaf_count=20 20 20 21 37 22 26 20 20 27 39 30 20 31 20 21 39 20 27
internal_value=0 -0.00406219 -0.00623137 -0.00314382 -0.00553936 0.000628923 0.00650516 -0.0162336 -0.0116413 -0.00890578 -0.0043118 0.0111119 0.0105056 -0.0202552 0.0125906 0.0126747 0.0125128 0.0125033
internal_weight=0 66.9516 58.2744 44.5289 38.1804 18.987 8.67246 13.7455 19.1934 14.3094 10.3146 24.5549 8.67719 9.34737 20.7068 9.95438 10.7524 7.52589
internal_count=480 333 282 222 185 97 46 60 88 66 51 147 51 40 127 60 67 47
is_linear=0
shrinkage=0.01


Tree=29
num_leaves=17
num_cat=0
split_feature=5 5 5 2 1 7 5 7 4 4 2 1 6 2 2 3
split_gain=40.7339 20.7671 17.5193 15.0966 14.0074 7.00136 10.4716 5.28954 4.07139 7.82475 2.87901 0.623034 0.00130518 0.00152896 2.18955e-05 5.4803e-07
threshold=0.0084394870405816187 -0.012758032963541553 -0.005138405804530787 0.00027189476650457683 7.3328842056297208e-05 0.80212090893000243 -1.0000000180025095e-35 0.80201860966487404 -0.0006320432812728648 -1.0000000180025095e-35 0.00015587343821538149 -0.0002416564230220408 0.52682650830248012 0.00027924141597290847 0.00027493399130201773 0.00028512568801858379
decision_type=2 2 2 2 2 2 2 2 2 2 2 2 2 2 2 2
left_child=1 11 7 4 5 6 -4 -3 -6 -10 -2 -1 14 -14 -12 -16
right_child=10 2 3 -5 8 -7 -8 -9 9 -11 12 -13 13 -15 15 -17
leaf_value=0.0071998917093799254 0.0031276387012365114 -0.02056275035189405 0.013285675852602749 0.011221685294406224 -0.019337040393895881 -0.0079673361775271581 -0.0049747796156780141 -0.007596660107828208 0.00032423273174651368 -0.014773091615319731 0.01250344791628932 0.01267659235962605 0.012806238763312898 0.012547387967837519 0.012475338383178124 0.012469860476686308
leaf_weight=3.4861554801464081 3.8423153012990978 8.9503756165504438 6.853558257222172 6.3084944188594809 4.914799943566325 6.3249057829380027 5.7965195029974037 4.851853370666503 5.6857118308544186 8.6645329892635292 3.2024120539426821 5.1394522786140424 3.5760981291532499 6.3053293228149414 3.1809340566396713 4.2885617017745972
leaf_count=20 20 38 37 37 22 31 29 22 27 39 20 31 21 39 20 27
internal_value=0 -0.00401979 -0.0061607 -0.00311075 -0.00547518 0.000623194 0.00491837 -0.0160048 -0.0114817 -0.00879138 0.0110729 0.0104631 0.0125583 0.0126411 0.0124816 0.0124722
internal_weight=0 66.9764 58.3508 44.5485 38.24 18.975 12.6501 13.8022 19.265 14.3502 24.3957 8.62561 20.5533 9.88143 10.6719 7.4695
internal_count=480 333 282 222 185 97 66 60 88 66 147 51 127 60 67 47
is_linear=0
shrinkage=0.01


Tree=30
num_leaves=20
num_cat=0
split_feature=2 7 1 6 1 7 0 10 7 6 0 7 9 4 6 1 2 0 6
split_gain=38.9551 18.9546 9.06594 7.60195 6.61222 5.79833 4.15311 4.03167 3.73878 4.96314 6.89775 4.19612 2.37008 1.00423 0.00755664 0.00508138 0.000906278 1.26665e-05 2.46069e-06
threshold=0.00016204134347869162 0.80977436276717552 -0.00010341400896279883 1.130286054058337 6.3563198582083938e-05 0.79463423003606037 0.80887975295015691 1.5000000000000002 0.79406109358373211 0.7418067317833229 0.81729432086505815 0.80965870924176031 0.28324297527277992 0.00016732081142062374 1.5489192505868294 -0.00017439546743502896 0.00027189476650457683 0.7977036503416125 0.31215158076452448
decision_type=2 2 2 2 2 2 2 2 2 2 2 2 2 2 2 2 2 2 2
left_child=1 2 12 15 6 -6 -4 -7 16 10 -10 14 -1 -8 -11 -3 -2 -18 -19
right_child=8 3 4 -5 5 7 13 -9 9 11 -12 -13 -14 -15 -16 -17 17 18 -20
leaf_value=-0.011747284020958156 0.012644681670245675 0.01257633570702494 -0.0057091091166314445 -0.0046562544991026068 -0.0001952252292454947 -0.0083329089812455345 0.008082464924141438 -0.019643384329488974 -0.0089797510053447344 0.013110536067266124 0.0099807559895419822 0.00044680701920077971 -0.020852101373535138 0.00093672255860657589 0.012553573043212973 0.013111674292302823 0.012475170817239516 0.01245710916665649 0.012444782592847021
leaf_weight=6.9312660694122297 3.6017175465822211 3.5805161744356155 7.9260690808296186 3.8202191889286041 4.8969314247369793 7.7078204900026304 3.974883571267128 5.3314471542835236 4.3520667105913189 4.2759012132883054 3.4315937012434006 3.8074746876955023 4.8663452118635178 3.8927845805883408 5.6611933708190918 3.5123910754919034 3.1803353428840619 3.1663831174373627 3.3148807734251022
leaf_count=31 22 22 38 20 24 35 22 23 22 24 20 20 21 20 35 20 20 20 21
internal_value=0 -0.00512027 -0.00795753 0.00671624 -0.00531841 -0.00947315 -0.000600078 -0.0129575 0.00833286 0.0057598 -0.000620605 0.00937307 -0.0155029 0.00454688 0.0127932 0.0128414 0.0125093 0.0124588 0.0124508
internal_weight=0 56.4407 45.5275 10.9131 33.7299 17.9362 15.7937 13.0393 34.7915 21.5282 7.78366 13.7446 11.7976 7.86767 9.93709 7.09291 13.2633 9.6616 6.48126
internal_count=480 276 214 62 162 82 80 58 204 121 42 79 52 42 59 42 83 61 41
is_linear=0
shrinkage=0.01


Tree=31
num_leaves=18
num_cat=0
split_feature=5 5 5 2 1 0 5 8 4 4 2 1 1 6 2 2 4
split_gain=39.6252 20.1199 16.8206 14.6123 13.5609 7.73789 9.80396 5.34133 3.94077 7.56139 2.84385 1.08308 0.619002 0.00139215 0.00161402 1.98644e-05 5.10119e-07
threshold=0.0084394870405816187 -0.012758032963541553 -0.005138405804530787 0.00027189476650457683 7.3328842056297208e-05 0.80887975295015691 -0.0033406363753128994 60.967323881838837 -0.0006320432812728648 -1.0000000180025095e-35 0.00015587343821538149 1.6895151281670632e-05 -0.0002416564230220408 0.52682650830248012 0.00027924141597290847 0.00027493399130201773 -6.0381596884817583e-05
decision_type=2 2 2 2 2 2 2 2 2 2 2 2 2 2 2 2 2
left_child=1 12 7 4 5 6 -4 -3 -6 -10 -2 -7 -1 15 -15 -12 -17
right_child=10 2 3 -5 8 11 -8 -9 9 -11 13 -13 -14 14 -16 16 -18
leaf_value=0.0071370008495016549 0.0031123164440993983 -0.010834642926347395 0.0064619721610587157 0.011149148044746158 -0.018939436923303046 0.010958020506713377 -0.013398264350022891 -0.023638972045963845 0.00036491645833229384 -0.014451283970799041 0.012441322394642419 0.0039016257734733428 0.012620507908583749 0.012756727826918347 0.012489181952805871 0.012414383613356892 0.01240905840497295
leaf_weight=3.4647281020879745 3.8378632962703731 8.6612702906131727 4.2215096354484514 6.2371832281351081 4.9512645602226284 4.5440784096717817 6.0447125881910386 5.2221801877021781 5.6935622394084957 8.7199301868677086 3.1542059332132357 4.1724857836961746 5.0725259631872159 3.5376760661602003 6.2180051207542419 3.1331461817026165 4.2240794450044605
leaf_count=20 20 38 22 37 22 25 28 22 27 39 20 22 31 21 39 20 27
internal_value=0 -0.00394521 -0.00603911 -0.00304605 -0.00535488 0.000651338 -0.00523166 -0.0156509 -0.0112426 -0.00859865 0.0110055 0.00758023 0.0103951 0.0125002 0.0125862 0.0124203 0.0124113
internal_weight=0 67.0054 58.4682 44.5847 38.3475 18.9828 10.2662 13.8835 19.3648 14.4135 24.105 8.71656 8.53725 20.2671 9.75568 10.5114 7.35723
internal_count=480 333 282 222 185 97 50 60 88 66 147 47 51 127 60 67 47
is_linear=0
shrinkage=0.01


Tree=32
num_leaves=20
num_cat=0
split_feature=5 5 5 7 7 1 8 8 3 8 7 9 1 9 9 1 7 8 8
split_gain=39.0244 19.7541 16.3835 10.3632 15.1454 9.15621 6.06299 5.18931 2.71077 3.42837 1.81435 1.65809 0.618083 0.577984 0.220897 0.00420654 0.00490461 0.000400079 2.97923e-06
threshold=0.0084394870405816187 -0.012758032963541553 -0.005138405804530787 0.79631213424630987 0.79406109358373211 0.0001273083004002529 14.538226452565135 60.967323881838837 -0.00078003757150091324 92.185077249051531 0.80811843118401183 -0.013776669003685613 -0.0002416564230220408 -0.35502783896530593 0.75544491416985582 0.00022270874936292098 0.80060365705689163 67.03121653209142 82.875654098612927
decision_type=2 2 2 2 2 2 2 2 2 2 2 2 2 2 2 2 2 2 2
left_child=1 12 7 4 -4 6 -5 -3 -8 13 14 -6 -1 -10 15 16 -2 -17 -19
right_child=10 2 3 5 11 -7 8 -9 9 -11 -12 -13 -14 -15 -16 17 -18 18 -20
leaf_value=0.0070936386081712132 0.012982822323934393 -0.010694141680331726 0.0074842520277334018 -0.0051019271848361403 -0.012076628471427035 -0.010072386692967259 -0.001173810559774367 -0.023288784883643863 0.0081891751543552126 4.1494173378830586e-05 0.0042695177857785312 -0.020289235134120107 0.012587749632676495 0.013163535905434618 0.009844136764842637 0.012527351371656668 0.012467623873861253 0.012396559626354496 0.012382725194977826
leaf_weight=3.4511167854070663 4.1588964015245535 8.687181204557417 3.5221702456474295 6.6498717963695588 4.4219921380281439 6.8279852867126456 3.9673735946416882 5.2475677132606497 3.7540655583143234 3.7305680811405173 3.4598273783922187 5.5361403524875632 5.0350572168827039 6.1829288601875287 3.5852074921131125 3.1916754692792875 3.3251860439777374 3.1185799986124039 3.1079102754592896
leaf_count=20 24 38 20 32 20 32 20 22 20 20 20 24 31 34 22 20 21 20 20
internal_value=0 -0.00390497 -0.00597235 -0.00301476 -0.0103385 0.000158407 0.00303493 -0.0154371 0.00610321 0.00821556 0.0109676 -0.0166424 0.0103534 0.0112843 0.0120987 0.0125769 0.0127539 0.0124363 0.0123897
internal_weight=0 67.014 58.5278 44.5931 13.4803 31.1128 24.2848 13.9347 17.6349 13.6676 23.9473 9.95813 8.48617 9.93699 20.4875 16.9022 7.48408 9.41817 6.22649
internal_count=480 333 282 222 64 158 126 60 94 74 147 44 51 54 127 105 45 60 40
is_linear=0
shrinkage=0.01


Tree=33
num_leaves=20
num_cat=0
split_feature=2 7 1 6 1 7 0 10 7 6 0 7 7 2 6 1 2 0 1
split_gain=37.3086 17.918 8.52762 7.51955 6.22124 5.48822 3.91028 3.87137 3.66693 4.84035 6.60911 4.11302 2.08895 0.989889 0.00822071 0.00577526 0.000957104 1.61225e-05 3.08541e-06
threshold=0.00016204134347869162 0.80977436276717552 -0.00010341400896279883 1.130286054058337 6.3563198582083938e-05 0.79463423003606037 0.80887975295015691 1.5000000000000002 0.79406109358373211 0.7418067317833229 0.81729432086505815 0.80965870924176031 0.80204256100362847 -5.6273954958718779e-05 1.5489192505868294 -0.00017439546743502896 0.00027189476650457683 0.7977036503416125 0.00030962804815692918
decision_type=2 2 2 2 2 2 2 2 2 2 2 2 2 2 2 2 2 2 2
left_child=1 2 12 15 6 -6 -4 -7 16 10 -10 14 -1 -8 -11 -3 -2 -18 -19
right_child=8 3 4 -5 5 7 13 -9 9 11 -12 -13 -14 -15 -16 -17 17 18 -20
leaf_value=-0.019329264863833649 0.012565247063240038 0.012493940903037537 -0.0055016931189083452 -0.0046883591404444456 -0.00014005667589511015 -0.0080209866525186597 0.0010193656259806358 -0.019058684777579177 -0.0087252024984177598 0.013054940177414529 0.0098827069488153542 0.00046878279031906052 -0.010941234028133486 0.0081437706430140273 0.012469321252236557 0.013069420510971387 0.012390921906159993 0.012356313392509474 0.012370271191085604
leaf_weight=5.7603311836719495 3.5308389067649832 3.5112712383270264 7.9697791486978513 3.8104704022407532 4.902232393622401 7.7648895680904371 4.0447800308465958 5.3788896352052689 4.3787845820188549 4.220955088734625 3.383743479847908 3.806768834590911 6.1268965899944305 3.7661399692296982 5.5474058836698532 3.4644824564456922 3.1137970536947233 3.2407949268817902 3.0973444283008575
leaf_count=24 22 22 38 20 24 35 22 23 22 24 20 20 28 20 35 20 20 21 20
internal_value=0 -0.00498462 -0.00772009 0.00660876 -0.00515973 -0.00917007 -0.000573713 -0.012538 0.00823428 0.0056846 -0.000613877 0.00928619 -0.0150059 0.00445449 0.0127224 0.0127798 0.0124248 0.0123723 0.0123631
internal_weight=0 56.5002 45.7139 10.7862 33.8267 18.046 15.7807 13.1438 34.3204 21.3377 7.76253 13.5751 11.8872 7.81092 9.76836 6.97575 12.9828 9.45194 6.33814
internal_count=480 276 214 62 162 82 80 58 204 121 42 79 52 42 59 42 83 61 41
is_linear=0
shrinkage=0.01


Tree=34
num_leaves=19
num_cat=0
split_feature=5 5 5 7 7 1 8 8 3 8 7 3 1 6 6 4 5 5
split_gain=37.9695 19.1455 15.7314 10.0634 14.534 8.92264 5.86373 4.97191 2.66055 3.42952 1.81005 1.08682 0.614323 0.556261 0.140311 0.00464926 0.00191125 0.000112918
threshold=0.0084394870405816187 -0.012758032963541553 -0.005138405804530787 0.79631213424630987 0.79406109358373211 0.0001273083004002529 14.538226452565135 60.967323881838837 -0.00078003757150091324 92.185077249051531 0.80811843118401183 -4.0201313937449072e-05 -0.0002416564230220408 0.71380271263072237 0.21771403114279428 -0.0004911213105122102 0.010658290791434601 0.013377799289206462
decision_type=2 2 2 2 2 2 2 2 2 2 2 2 2 2 2 2 2 2
left_child=1 12 7 4 -4 6 -5 -3 -8 13 14 -6 -1 -10 -2 -16 -17 -18
right_child=10 2 3 5 11 -7 8 -9 9 -11 -12 -13 -14 -15 15 16 17 -19
leaf_value=0.007031955241061566 0.010726912544388281 -0.010465504965089243 0.0074067585610369663 -0.004949575769088636 -0.019711276548388879 -0.0098960063436632235 -0.0011440094542839617 -0.022757850369200389 0.0082135769855147655 -2.9193254957232569e-05 0.0041948513468498564 -0.013120518423361616 0.012534157213897513 0.013100698436599962 0.012882403014346389 0.012638091644351481 0.012408106551350278 0.012326331960710512
leaf_weight=3.4300143867731094 5.7925328314304414 8.7234676629304868 3.4936666786670676 6.6804867535829606 4.8033777177333823 6.8558564335107794 3.9705184847116497 5.2832491248846045 3.759950786828993 3.7156310230493537 3.439772203564643 5.2220835685729972 4.9686371237039548 6.1197573095560074 3.5704576373100307 4.0609615743160195 3.1244039982557297 3.6744947731494904
leaf_count=20 37 38 20 32 21 32 20 22 20 20 20 23 31 34 21 25 20 24
internal_value=0 -0.0038337 -0.00585654 -0.00295434 -0.0101575 0.000176637 0.00302476 -0.0151021 0.00605749 0.00816068 0.010901 -0.0162783 0.0102871 0.0112408 0.0120416 0.0125694 0.0124664 0.0123639
internal_weight=0 67.0267 58.628 44.6213 13.5191 31.1022 24.2463 14.0067 17.5659 13.5953 23.6626 10.0255 8.39865 9.87971 20.2229 14.4303 10.8599 6.7989
internal_count=480 333 282 222 64 158 126 60 94 74 147 44 51 54 127 90 69 44
is_linear=0
shrinkage=0.01


Tree=35
num_leaves=19
num_cat=0
split_feature=5 5 5 2 7 7 2 7 7 8 5 2 7 2 6 2 2 7
split_gain=37.393 18.7991 15.3359 13.9179 12.0448 10.9489 12.2772 7.22981 4.95464 3.9668 3.26799 2.85588 0.596126 0.543998 0.0015722 0.0016901 1.6192e-05 1.26274e-06
threshold=0.0084394870405816187 -0.012758032963541553 -0.005138405804530787 0.00027189476650457683 0.79631213424630987 0.80212090893000243 -6.175446006745354e-05 0.80098095499296806 0.80201860966487404 77.349766486445503 0.0044979088640428331 0.00015587343821538149 0.80989663422294333 -0.00017710463291970011 0.52682650830248012 0.00027924141597290847 0.00027493399130201773 0.77849762023155977
decision_type=2 2 2 2 2 2 2 2 2 2 2 2 2 2 2 2 2 2
left_child=1 12 8 4 10 6 13 -8 -3 -7 -4 -2 -1 -6 16 -16 -13 -18
right_child=11 2 3 -5 5 9 7 -9 -10 -11 -12 14 -14 -15 15 -17 17 -19
leaf_value=0.0070473575052457868 0.0029176001335889769 -0.019273537581973196 -0.017632077091077027 0.01105574232435083 0.0084449689331201755 -0.017144600336427784 0.0041957184114744875 -0.014353676409409894 -0.0068356784819570606 -0.0040913916693701199 -0.0066366531200430503 0.012324577885260592 0.012478515767292218 0.013408121356497851 0.012660271683023208 0.012383254388676861 0.012301759227934512 0.012293301118637974
leaf_weight=3.4312778860330564 3.7941307723522213 9.1139104813337308 7.4281766861677152 6.1418386548757544 3.833587601780887 4.3726955950260145 4.0298936963081431 4.3903355896472931 4.9380006939172736 4.9791261106729507 4.2493890821933746 3.0605390369892138 4.9168322831392288 5.2094194740057 3.4619979262351972 6.0533922463655472 3.1940130144357681 3.9454460293054581
leaf_count=20 20 38 32 37 20 20 20 20 22 25 20 20 31 28 21 39 21 26
internal_value=0 -0.00379469 -0.00579199 -0.00292373 -0.00515428 -0.00146283 0.00321326 -0.005476 -0.0149027 -0.0101948 -0.0136309 0.0108626 0.0102462 0.0113041 0.0123916 0.012484 0.0123053 0.0122971
internal_weight=0 67.0345 58.6864 44.6345 38.4926 26.8151 17.4632 8.42023 14.0519 9.35182 11.6776 23.5095 8.34811 9.04301 19.7154 9.51539 10.2 7.13946
internal_count=480 333 282 222 185 133 88 40 60 45 52 147 51 48 127 60 67 47
is_linear=0
shrinkage=0.01


Tree=36
num_leaves=19
num_cat=0
split_feature=5 5 5 2 7 7 2 7 8 2 5 2 7 2 6 2 2 0
split_gain=36.8313 18.462 14.954 13.6778 11.7372 10.6996 12.0884 7.05051 4.8324 3.86916 3.17768 2.84632 0.595591 0.542593 0.00151578 0.00162914 1.56053e-05 1.25904e-06
threshold=0.0084394870405816187 -0.012758032963541553 -0.005138405804530787 0.00027189476650457683 0.79631213424630987 0.80212090893000243 -6.175446006745354e-05 0.80098095499296806 60.967323881838837 8.5532082042760762e-05 0.0044979088640428331 0.00015587343821538149 0.80989663422294333 -0.00017710463291970011 0.52682650830248012 0.00027924141597290847 0.00027493399130201773 0.80245685958940283
decision_type=2 2 2 2 2 2 2 2 2 2 2 2 2 2 2 2 2 2
left_child=1 12 8 4 10 6 13 -8 -3 -7 -4 -2 -1 -6 16 -16 -13 -18
right_child=11 2 3 -5 5 9 7 -9 -10 -11 -12 14 -14 -15 15 -17 17 -19
leaf_value=0.0070044075862768333 0.0028925569817154829 -0.01015186832633496 -0.017378988266200105 0.011015851237869745 0.0083939744061398112 -0.016898437064149154 0.0041611865346279833 -0.014145364592959252 -0.022232519148498917 -0.0040316771231087385 -0.0065537997100684831 0.012296105084326743 0.012447839258519128 0.013363424061857299 0.012626936138970321 0.01235394248354869 0.012272960780589908 0.012264511610842656
leaf_weight=3.4178622215986234 3.7887369543314007 8.7766765803098661 7.4608226865529996 6.1026356965303412 3.8183849006891206 4.3943125605583173 4.0227384716272425 4.4103382378816605 5.3171958476304999 4.9921814799308777 4.2600250840187073 3.0370673984289187 4.8798452317714691 5.1747490465641031 3.436553940176962 6.0073084831237793 3.7724745273590088 3.3120387494564056
leaf_count=20 20 38 32 37 20 20 20 20 22 25 20 20 31 28 21 39 25 22
internal_value=0 -0.00375684 -0.00572954 -0.0028941 -0.00509705 -0.00144807 0.00318815 -0.00541279 -0.0147095 -0.0100553 -0.0134445 0.0108259 0.0102057 0.0112535 0.0123622 0.0124533 0.0122771 0.012269
internal_weight=0 67.0278 58.7301 44.6362 38.5336 26.8127 17.4262 8.43308 14.0939 9.38649 11.7208 23.3542 8.29771 8.99313 19.5654 9.44386 10.1216 7.08451
internal_count=480 333 282 222 185 133 88 40 60 45 52 147 51 48 127 60 67 47
is_linear=0
shrinkage=0.01


Tree=37
num_leaves=19
num_cat=0
split_feature=5 5 5 2 7 7 2 7 7 8 5 2 7 2 6 2 2 7
split_gain=36.2793 18.1321 14.5826 13.4428 11.4397 10.4571 11.903 6.87683 4.8212 3.781 3.09137 2.83693 0.595096 0.541266 0.0014615 0.00157051 1.50413e-05 1.17527e-06
threshold=0.0084394870405816187 -0.012758032963541553 -0.005138405804530787 0.00027189476650457683 0.79631213424630987 0.80212090893000243 -6.175446006745354e-05 0.80098095499296806 0.80201860966487404 77.349766486445503 0.0044979088640428331 0.00015587343821538149 0.80989663422294333 -0.00017710463291970011 0.52682650830248012 0.00027924141597290847 0.00027493399130201773 0.77849762023155977
decision_type=2 2 2 2 2 2 2 2 2 2 2 2 2 2 2 2 2 2
left_child=1 12 8 4 10 6 13 -8 -3 -7 -4 -2 -1 -6 16 -16 -13 -18
right_child=11 2 3 -5 5 9 7 -9 -10 -11 -12 14 -14 -15 15 -17 17 -19
leaf_value=0.0069616705715295482 0.0028677025869957638 -0.018818709182098738 -0.017133032790105342 0.010976291693418141 0.008343310612022899 -0.016659576646820072 0.0041269073783550495 -0.013942221635516646 -0.006585535029699198 -0.003964437838789598 -0.0064723029277478205 0.012268045697858132 0.012417615699986987 0.013319456478556485 0.012594103218844868 0.012325059078139043 0.012245886803355754 0.012237663498315446
leaf_weight=3.4045229107141477 3.7833850979805019 9.1678362935781461 7.4920889139175397 6.0635798126459113 3.8032320737838701 4.4183745831251127 4.0156268775463175 4.4297537058591843 4.9671126902103415 5.0018423348665237 4.2704762071371078 3.0136907845735568 4.842989981174469 5.1400864124298105 3.4111850857734662 5.9614026099443436 3.1449846178293228 3.8848103433847427
leaf_count=20 20 38 32 37 20 20 20 20 22 25 20 20 31 28 21 39 21 26
internal_value=0 -0.00371957 -0.00566813 -0.00286497 -0.00504086 -0.00143354 0.00316333 -0.00535068 -0.0145199 -0.00991885 -0.0132626 0.0107895 0.0101654 0.0112033 0.0123332 0.012423 0.0122494 0.0122413
internal_weight=0 67.0175 58.77 44.6351 38.5715 26.8089 17.3887 8.44538 14.1349 9.42022 11.7626 23.1995 8.24751 8.94332 19.4161 9.37259 10.0435 7.02979
internal_count=480 333 282 222 185 133 88 40 60 45 52 147 51 48 127 60 67 47
is_linear=0
shrinkage=0.01


Tree=38
num_leaves=19
num_cat=0
split_feature=2 7 1 6 1 7 10 7 6 7 9 3 9 2 6 7 2 7
split_gain=34.6612 16.2938 7.80781 7.47585 5.68826 5.12596 3.62334 3.5723 4.70765 3.97836 3.01069 2.52801 2.13235 0.82766 0.00988875 0.00912709 0.00116249 1.88968e-05
threshold=0.00016204134347869162 0.80977436276717552 -0.00010341400896279883 1.130286054058337 6.3563198582083938e-05 0.79463423003606037 1.5000000000000002 0.79406109358373211 0.7418067317833229 0.80965870924176031 0.46619640085398623 -0.00070259086324220277 0.28324297527277992 0.00026846316400996889 1.5489192505868294 0.81030587908723362 0.00026160620369841686 0.77855828578035624
decision_type=2 2 2 2 2 2 2 2 2 2 2 2 2 2 2 2 2 2
left_child=1 2 12 15 10 -6 -7 16 13 14 11 -4 -1 -9 -10 -3 -2 -18
right_child=7 3 4 -5 5 6 -8 8 9 -11 -12 -13 -14 -15 -16 -17 17 -19
leaf_value=-0.01073177047790878 0.012457473123167513 0.012365854161999991 -0.0042462037382539324 -0.0048455219858979061 1.5347981875858933e-05 -0.0075783891419709129 -0.018200368834344945 -0.0039088280029609297 0.012979587485390217 0.0005056447432825904 -0.0073479316467720476 0.0057418519009745442 -0.019292092721747974 0.0026519679393726303 0.01232870814094502 0.013102058130056021 0.012221725613853663 0.01225054830380286
leaf_weight=7.0278902351856214 3.2658872902393332 3.7090479731559736 3.8708259165287009 3.7794535011053085 4.923767730593684 7.8374331593513471 5.4408494979143143 3.9053899794816997 4.1408444941043836 3.801117241382598 4.556226357817649 7.3378219604492179 4.9661201238632202 3.7876969426870346 5.3500697165727615 3.0843092501163483 4.015684247016905 5.246610015630722
leaf_count=31 21 24 20 20 24 35 23 20 24 20 22 38 21 22 35 18 27 35
internal_value=0 -0.00476517 -0.00734006 0.00642808 -0.00489086 -0.0086993 -0.0119308 0.00806976 0.00554713 0.00915044 -0.000493659 0.00229255 -0.0142762 -0.000678615 0.0126127 0.0127001 0.0122953 0.0122381
internal_weight=0 56.5337 45.9609 10.5728 33.9669 18.2021 13.2783 33.5133 20.9851 13.292 15.7649 11.2086 11.994 7.69309 9.49091 6.79336 12.5282 9.26229
internal_count=480 276 214 62 162 82 58 204 121 79 80 58 52 42 59 42 83 62
is_linear=0
shrinkage=0.01


Tree=39
num_leaves=18
num_cat=0
split_feature=5 5 5 2 1 0 5 7 4 4 2 3 1 7 2 2 0
split_gain=35.3462 17.592 14.0762 13.026 11.7897 7.15591 8.70895 4.65853 3.71937 7.07967 2.79892 1.35912 0.620472 0.00155723 0.00177044 2.05029e-05 1.216e-06
threshold=0.0084394870405816187 -0.012758032963541553 -0.005138405804530787 0.00027189476650457683 7.3328842056297208e-05 0.80887975295015691 -0.0033406363753128994 0.80201860966487404 -0.0006320432812728648 -1.0000000180025095e-35 0.00015587343821538149 0.00030399453018675754 -0.0002416564230220408 0.79836964934557841 0.00027924141597290847 0.00027369809252869587 0.80245685958940283
decision_type=2 2 2 2 2 2 2 2 2 2 2 2 2 2 2 2 2
left_child=1 12 7 4 5 6 -4 -3 -6 -10 -2 -7 -1 15 -15 -12 -17
right_child=10 2 3 -5 8 11 -8 -9 9 -11 13 -13 -14 14 -16 16 -18
leaf_value=0.0068016915494409263 0.002869132549092122 -0.01845726717263535 0.006285022445996347 0.010908207058326066 -0.017746137776666619 0.010971292325452351 -0.012438310216829479 -0.0064507154154043161 0.0008171469298038596 -0.013399984121232309 0.012218620972039088 0.0029607924809160169 0.012405422550953818 0.012565476828704208 0.012273891741248533 0.012191126893031786 0.012182801818226747
leaf_weight=3.3551871031522751 3.7828491926193264 9.2059240490198118 4.1565656065940813 5.994499906897544 5.051805347204211 4.8108540475368482 6.1747806519270005 4.9795217514038077 5.7806536257267025 8.887899890542025 2.9717404544353503 3.7840797752141953 4.8065580278635007 3.2246242016553861 5.878332257270813 3.8330664932727814 3.2354991734027863
leaf_count=20 20 38 22 37 22 27 28 22 27 39 20 20 31 20 39 26 22
internal_value=0 -0.00365614 -0.00556495 -0.00280749 -0.00493494 0.000703014 -0.00490543 -0.0142426 -0.0103459 -0.00779723 0.0107292 0.00744452 0.0101018 0.0122825 0.0123772 0.0121966 0.0121873
internal_weight=0 66.9883 58.8266 44.6411 38.6466 18.9263 10.3313 14.1854 19.7204 14.6686 22.9261 8.59493 8.16175 19.1433 9.10296 10.0403 7.06857
internal_count=480 333 282 222 185 97 50 60 88 66 147 47 51 127 59 68 48
is_linear=0
shrinkage=0.01


Tree=40
num_leaves=20
num_cat=0
split_feature=5 5 5 7 7 1 8 8 4 8 7 9 1 9 9 1 7 8 8
split_gain=34.8202 17.2806 13.7363 8.99429 13.0346 8.35875 5.4725 4.6484 2.51585 3.39863 1.85493 1.53351 0.619815 0.55367 0.233947 0.00522596 0.00596914 0.000503939 2.17538e-06
threshold=0.0084394870405816187 -0.012758032963541553 -0.005138405804530787 0.79631213424630987 0.79406109358373211 0.0001273083004002529 14.538226452565135 60.967323881838837 -0.00077289526523693908 92.185077249051531 0.80811843118401183 -0.013776669003685613 -0.0002416564230220408 -0.35502783896530593 0.75544491416985582 0.00022270874936292098 0.80060365705689163 67.03121653209142 82.875654098612927
decision_type=2 2 2 2 2 2 2 2 2 2 2 2 2 2 2 2 2 2 2
left_child=1 12 7 4 -4 6 -5 -3 -8 13 14 -6 -1 -10 15 16 -2 -17 -19
right_child=10 2 3 5 11 -7 8 -9 9 -11 -12 -13 -14 -15 -16 17 -18 18 -20
leaf_value=0.0067599427500432876 0.012838955403352635 -0.0096163922178481801 0.0073069178085153133 -0.0046843096106572116 -0.010875034544002736 -0.0094950664574633345 -0.0010327314189027246 -0.021412734610588378 0.0080821658739070375 -0.00015668381803098086 0.0038092897609266819 -0.018671808620994174 0.012375899926641721 0.013002546658158226 0.0094954146721758625 0.012325108723633894 0.012256999441614312 0.012172164229634106 0.012159971589988541
leaf_weight=3.3422145545482635 4.013908118009577 8.8570161461830121 3.4361505955457678 6.7127639949321809 4.5395501405000678 6.9090427011251441 3.9792251586914089 5.3632605224847785 3.6932125687599182 3.6810991317033759 3.3397864848375312 5.6778661757707587 4.7700269818305951 6.0060150027275068 3.4028552919626227 3.0210196822881681 3.1422935426235199 2.931762769818306 2.9215285629034042
leaf_count=20 24 38 20 32 20 32 20 22 20 20 20 24 31 34 22 20 21 20 20
internal_value=0 -0.00362048 -0.00550641 -0.00277958 -0.00954155 0.000200441 0.00298317 -0.0140655 0.0059481 0.00802416 0.0106937 -0.0152077 0.0100621 0.011129 0.0118768 0.0123824 0.0125834 0.0122202 0.0121661
internal_weight=0 66.9674 58.8552 44.6349 13.6536 30.9814 24.0723 14.2203 17.3596 13.3803 22.7732 10.2174 8.11224 9.69923 19.4334 16.0305 7.1562 8.87431 5.85329
internal_count=480 333 282 222 64 158 126 60 94 74 147 44 51 54 127 105 45 60 40
is_linear=0
shrinkage=0.01


Tree=41
num_leaves=20
num_cat=0
split_feature=2 7 6 4 7 6 4 7 6 8 7 3 0 8 8 6 7 2 7
split_gain=33.2177 15.4188 7.39397 5.33582 5.79854 8.72678 4.68101 3.50864 4.5962 8.90503 3.90773 3.14822 5.5657 2.15406 1.63745 0.0105366 0.0100161 0.00121988 2.17754e-05
threshold=0.00016204134347869162 0.80977436276717552 1.130286054058337 -0.00087692336332312315 0.80129493933102824 0.69920319025775657 2.9396135512615998e-05 0.79406109358373211 0.7418067317833229 55.854287838246705 0.80965870924176031 0.00043566958019719554 0.80887975295015691 36.028509173434607 65.614506843339328 1.5489192505868294 0.81030587908723362 0.00026160620369841686 0.77855828578035624
decision_type=2 2 2 2 2 2 2 2 2 2 2 2 2 2 2 2 2 2 2
left_child=1 3 16 -1 5 6 14 17 9 -9 15 12 13 -6 -5 -10 -3 -2 -19
right_child=7 2 -4 4 11 -7 -8 8 10 -11 -12 -13 -14 -15 -16 -17 -18 18 -20
leaf_value=-0.015238351274472203 0.012387866095344606 0.012291086170951558 -0.0048719536822149235 -0.0056336426819850096 -0.0068195929336869023 0.0097752632684101667 -0.013399191123862087 0.010355653991738581 0.01293123919064062 -0.011200519502766191 0.00051739273868146667 -0.015694817920472382 0.0019371711253916401 -0.016033394887856687 0.0031183425285116928 0.012253805803187998 0.013068741291037297 0.012143003635175844 0.012174296961907489
leaf_weight=6.9019211977720252 3.200422227382659 3.6348855197429639 3.7699398547410965 4.276267349720003 5.4296227693557757 4.918648198246955 5.052071899175643 3.7449861764907864 4.0865858197212201 3.9249363541603088 3.7975978106260291 5.6670106798410407 4.7969364374876013 4.763340950012207 4.2747028917074203 5.2400013953447342 3.0426435619592667 3.9236938208341581 5.1320533007383347
leaf_count=32 21 24 20 20 25 26 22 22 24 20 20 25 24 20 20 35 18 27 35
internal_value=0 -0.00464416 0.00632433 -0.00713095 -0.00570271 -0.00163989 -0.00576743 0.00797606 0.00547462 -0.000675306 0.00906871 -0.00934557 -0.0069452 -0.0111254 -0.00125845 0.0125506 0.0126454 0.01222 0.0121607
internal_weight=0 56.528 10.4475 46.0805 39.1786 18.5217 13.603 33.0503 20.7941 7.66992 13.1242 20.6569 14.9899 10.193 8.55097 9.32659 6.67753 12.2562 9.05575
internal_count=480 276 62 214 182 88 62 204 121 42 79 94 69 45 40 59 42 83 62
is_linear=0
shrinkage=0.01


Tree=42
num_leaves=20
num_cat=0
split_feature=5 5 5 7 7 8 7 0 4 9 8 7 0 7 9 9 3 5 8
split_gain=33.9055 16.7677 13.2409 8.75986 12.5457 7.32696 4.50654 4.39411 11.4125 3.20727 3.01248 1.84659 1.54257 0.591129 0.561427 0.234633 0.00329069 0.00280905 0.000155764
threshold=0.0084394870405816187 -0.012758032963541553 -0.005138405804530787 0.79631213424630987 0.79406109358373211 14.538226452565135 0.80201860966487404 0.81603836613948499 0.00040016888001259693 -0.49448484939091492 70.293867271115971 0.80811843118401183 0.8083471924986344 0.80989663422294333 -0.050025430455697247 0.75544491416985582 -0.0003311130940327755 0.012225494139421313 76.805770021024415
decision_type=2 2 2 2 2 2 2 2 2 2 2 2 2 2 2 2 2 2 2
left_child=1 13 6 4 -4 9 -3 10 -9 -5 14 15 -6 -1 -7 16 -2 -18 -19
right_child=11 2 3 5 12 7 -8 8 -10 -11 -12 -13 -14 -15 -16 -17 17 18 -20
leaf_value=0.0067908493575402932 0.012604716168004999 -0.017924477525000166 0.0072336764032505029 -0.0013166747197628232 -0.018778216576890799 0.0079625285143413247 -0.0061504160387965473 -0.012744639014799454 0.010867666167958437 -0.013219092288791517 0.0012820108362552487 0.00374975739061731 -0.011026491384338337 0.012294577171473784 0.013299332089069001 0.0094267040456964216 0.012456925312369809 0.012200709186839907 0.012108486961773218
leaf_weight=3.3463821411132795 3.5076172351837203 9.2590492367744428 3.4084505140781394 4.469061404466629 5.1416543275117856 3.6708968877792323 5.0096631795167914 4.6638491004705411 3.6480301320552826 4.5882756710052508 5.669557511806488 3.3230730444192877 5.1268925666809082 4.6817241311073303 4.2572739571332985 3.3655652403831473 4.4874528050422668 2.9283342212438583 4.8894113302230835
leaf_count=20 22 38 20 22 22 20 22 22 20 21 30 20 22 31 23 22 29 20 34
internal_value=0 -0.00355734 -0.00540488 -0.00272469 -0.00939001 0.000219147 -0.0137907 0.00334663 -0.00238135 -0.00734621 0.00684798 0.0106318 -0.0149079 0.0100004 0.0108283 0.0118242 0.0123345 0.0122575 0.012143
internal_weight=0 66.9408 58.9127 44.6439 13.677 30.9669 14.2687 21.9096 8.31188 9.05734 13.5977 22.5015 10.2685 8.02811 7.92817 19.1784 15.8128 12.3052 7.81775
internal_count=480 333 282 222 64 158 60 115 42 43 73 147 44 51 43 127 105 83 54
is_linear=0
shrinkage=0.01


Tree=43
num_leaves=20
num_cat=0
split_feature=2 7 6 1 4 4 1 7 8 7 6 8 7 1 1 6 7 2 7
split_gain=32.3008 14.8259 7.30522 7.24475 5.30006 8.06139 6.02495 4.10022 3.52516 3.46237 4.51725 8.67101 3.84738 3.02756 3.03367 0.0104281 0.00989475 0.00115915 2.35803e-05
threshold=0.00016204134347869162 0.80977436276717552 1.130286054058337 -0.00010341400896279883 -0.00087692336332312315 2.9396135512615998e-05 0.00011372456538072397 0.80135272925478918 48.203681426134075 0.79406109358373211 0.7418067317833229 55.854287838246705 0.80965870924176031 1.491215099247434e-05 0.0001331528455004172 1.5489192505868294 0.81030587908723362 0.00026160620369841686 0.77855828578035624
decision_type=2 2 2 2 2 2 2 2 2 2 2 2 2 2 2 2 2 2 2
left_child=1 3 16 8 -5 13 7 -7 -1 17 11 -11 15 -6 -15 -12 -3 -2 -19
right_child=9 2 -4 4 5 6 -8 -9 -10 10 12 -13 -14 14 -16 -17 -18 18 -20
leaf_value=-0.0077770462801184017 0.012334374117708895 0.012240346506841457 -0.004859571880148455 -0.013549082436885755 0.0091373695554582759 0.0035458751768551191 -0.017024948893134498 -0.010134071014248642 -0.018621209671885117 0.010304159991756823 0.012885633186935159 -0.010988560586336382 0.00054887120768409056 -0.0054847227114166045 0.0055291216155099691 0.01220789438017883 0.013018266081764946 0.012092727741139935 0.012125539832286982
leaf_weight=5.5361606776714307 3.1537351310253134 3.5836357176303846 3.7688722461462021 5.5782512873411134 4.4705611169338288 4.3529552519321424 5.0825158506631842 4.4113560914993286 6.5376644730567932 3.7125786542892483 4.0474493950605375 3.94455386698246 3.8009024709463111 5.7963163852691633 4.3987299650907516 5.1705248951911926 3.0070687681436539 3.8634852170944196 5.0569585412740707
leaf_count=25 21 24 20 26 24 21 22 21 27 22 24 20 20 27 21 35 18 27 35
internal_value=0 -0.00456616 0.00624511 -0.00699227 -0.00463472 -0.00289068 -0.00836289 -0.00333968 -0.0136489 0.00791474 0.00543003 -0.000664735 0.00901471 0.00227601 -0.000732716 0.0125055 0.0125953 0.0121696 0.0121113
internal_weight=0 56.5241 10.3596 46.1645 34.0907 28.5124 13.8468 8.76431 12.0738 32.7502 20.676 7.65713 13.0189 14.6656 10.195 9.21797 6.5907 12.0742 8.92044
internal_count=480 276 62 214 162 136 64 42 52 204 121 42 79 72 48 59 42 83 62
is_linear=0
shrinkage=0.01


Tree=44
num_leaves=17
num_cat=0
split_feature=5 5 5 2 1 8 5 1 4 4 2 1 10 2 9 9
split_gain=33.0283 16.2781 12.7415 12.2576 10.9529 4.33723 4.04516 5.69916 3.53976 6.65575 2.77131 0.617763 0.531317 0.00119917 0.000123841 0.000146776
threshold=0.0084394870405816187 -0.012758032963541553 -0.005138405804530787 0.00027189476650457683 7.3328842056297208e-05 60.967323881838837 -0.0033406363753128994 -2.5185679985051387e-05 -0.0006320432812728648 -1.0000000180025095e-35 0.00015587343821538149 -0.0002416564230220408 1.5000000000000002 0.00027189476650457683 -0.13177425968044165 0.40809633849521859
decision_type=2 2 2 2 2 2 2 2 2 2 2 2 2 2 2 2
left_child=1 11 5 4 6 -3 -4 -8 -6 -10 -2 -1 -9 -12 -15 -16
right_child=10 2 3 -5 8 -7 7 12 9 -11 13 -13 -14 14 15 -17
leaf_value=0.0066298907784181158 0.0027374862702422864 -0.0092312025391547061 0.0079273141829156995 0.010791997267261818 -0.017074523288099913 -0.020587891610667479 -0.0098152914953182745 0.00075237599409234556 0.00093333227448634331 -0.012811750806994922 0.012288238230074546 0.012289123787603178 0.0060186047206945287 0.012074450498995169 0.012192419311572885 0.012102473403350963
leaf_weight=3.2975442856550217 3.7530180960893658 8.9060815125703794 5.5332690030336371 5.8695152103900901 5.1051973104476955 5.4029735326766959 5.6971494555473301 3.8237189650535628 5.7999553233385113 8.9733991622924751 5.4019890576601055 4.6473241150379172 3.8395899087190628 5.4027369469404256 2.9416447132825798 4.7336672842502594
leaf_count=20 20 38 30 37 22 22 27 20 27 39 36 31 20 38 20 33
internal_value=0 -0.00349681 -0.00530774 -0.00267566 -0.00471445 -0.0135194 0.000737315 -0.00224044 -0.00989612 -0.00741549 0.0105719 0.00994024 0.00339094 0.0121629 0.0121111 0.0121369
internal_weight=0 66.8957 58.9508 44.6418 38.7723 14.3091 18.8937 13.3605 19.8786 14.7734 22.2331 7.94487 7.66331 18.48 13.078 7.67531
internal_count=480 333 282 222 185 60 97 67 88 66 147 51 40 127 91 53
is_linear=0
shrinkage=0.01


Tree=45
num_leaves=19
num_cat=0
split_feature=5 5 5 2 7 7 2 7 7 8 0 2 8 2 6 2 2 7
split_gain=32.5402 15.9923 12.4444 12.0502 10.1326 10.072 11.2571 6.44658 4.34941 3.39681 2.80037 2.7631 0.668431 0.534631 0.00178616 0.00164585 1.05613e-05 1.62189e-06
threshold=0.0084394870405816187 -0.012758032963541553 -0.005138405804530787 0.00027189476650457683 0.79631213424630987 0.80212090893000243 -6.175446006745354e-05 0.80098095499296806 0.80201860966487404 77.349766486445503 0.80688341728388335 0.00015587343821538149 93.636463500488347 -0.00017710463291970011 0.52682650830248012 0.00027924141597290847 0.00027493399130201773 0.77849762023155977
decision_type=2 2 2 2 2 2 2 2 2 2 2 2 2 2 2 2 2 2
left_child=1 12 8 4 10 6 13 -8 -3 -7 -4 -2 -1 -6 16 -16 -13 -18
right_child=11 2 3 -5 5 9 7 -9 -10 -11 -12 14 -14 -15 15 -17 17 -19
leaf_value=0.012260797094919507 0.0027138041519943739 -0.017410188914256136 -0.017738053854099364 0.01075418464143112 0.0083126791501016983 -0.015853807754277967 0.0042531237021357976 -0.013182638979877903 -0.0058717736181611623 -0.0038712300238025162 -0.0079956990875855293 0.012057061439315269 0.006313511959863796 0.013281398104880082 0.012417226615348467 0.01213503112536159 0.012039476780855731 0.012029508261703566
leaf_weight=4.7639964669942847 3.7479363828897503 9.3018192052841169 5.308384031057356 5.8314424008131018 3.7724443227052653 4.4883536547422391 4.0210722833871895 4.4865824282169342 5.0354167819023123 5.002542108297348 6.6423044800758362 2.829837232828142 3.1323911994695663 5.0839041769504565 3.2610565274953824 5.6433309316635132 2.9546520262956619 3.646424412727356
leaf_count=32 20 38 23 37 20 20 20 20 22 25 29 20 19 28 21 39 21 26
internal_value=0 -0.00346296 -0.00525241 -0.00264901 -0.00466315 -0.00125437 0.0032733 -0.00494177 -0.0133578 -0.00953793 -0.0123232 0.0105375 0.00990159 0.0111649 0.0121368 0.0122384 0.0120409 0.012034
internal_weight=0 66.8707 58.9743 44.637 38.8056 26.8549 17.364 8.50765 14.3372 9.4909 11.9507 22.0832 7.89639 8.85635 18.3353 8.90439 9.43091 6.60108
internal_count=480 333 282 222 185 133 88 40 60 45 52 147 51 48 127 60 67 47
is_linear=0
shrinkage=0.01


Tree=46
num_leaves=22
num_cat=0
split_feature=2 7 6 1 7 1 0 7 7 6 0 7 9 4 1 6 6 7 2 0 1
split_gain=30.8817 14.0287 7.22357 6.92298 5.88469 6.54894 6.55688 3.74329 3.41691 4.42122 8.06671 3.78362 2.79686 2.61722 2.60455 0.767169 0.0113081 0.0110473 0.00139992 2.38681e-05 8.05514e-06
threshold=0.00016204134347869162 0.80977436276717552 1.130286054058337 -0.00020299236363702231 0.79406109358373211 0.00010779164013613453 0.80851400748428637 0.80172285630690332 0.79406109358373211 0.7418067317833229 0.81714329457443668 0.80965870924176031 -0.517232236339911 -4.3123990529692062e-05 4.3911494981563333e-05 0.65667521674042573 1.5489192505868294 0.81030587908723362 0.00026160620369841686 0.7977036503416125 0.00030962804815692918
decision_type=2 2 2 2 2 2 2 2 2 2 2 2 2 2 2 2 2 2 2 2 2
left_child=1 3 17 -1 -5 6 13 14 18 10 -10 16 -7 15 -8 -6 -11 -3 -2 -20 -21
right_child=8 2 -4 4 5 12 7 -9 9 11 -12 -13 -14 -15 -16 -17 -18 -19 19 20 -22
