tree
version=v4
num_class=1
num_tree_per_iteration=1
label_index=0
max_feature_idx=12
objective=binary sigmoid:1
feature_names=price_close diff_MA_100 diff_MA_50 diff_MA_30 diff_MA_20 diff_MA_9 divergence OBV VWAP MFI Volume_Oscillator ATR predicted_label
feature_infos=[0.83949921013365303:1.0722328804603238] [-0.001454357601008649:0.00081656311561539852] [-0.0029628687642471174:0.0014057720329370138] [-0.0048355997758151581:0.00172214639678403] [-0.0066267046672556784:0.0039233032115026933] [-0.016378317993878122:0.0060739395324818091] [-0.09981428231090228:0.026433389564362031] [-5785.3214218776948:0.11763732293214448] [0.86587574696247394:0.99910270603774298] [0.0001481000665251031:93.927918000136955] [-0.99999947712538995:0.99999573767058314] [0.0052378430070898086:0.048242073934410226] [0:2]
tree_sizes=1899 1923 2023 2137 2054 2064

Tree=0
num_leaves=17
num_cat=0
split_feature=7 2 8 0 12 11 12 0 8 5 0 8 10 2 2 2
split_gain=20.7848 23.2043 21.6111 25.1822 24.4032 12.7176 12.1658 10.4782 25.2363 10.2594 6.73322 16.4982 4.47947 3.52726 1.02411 0.113993
threshold=-2.080175225637646 0.00030195096377844127 0.95310146145062469 1.0096830993937329 1.0000000180025095e-35 0.013056177338227943 1.5000000000000002 0.86401233580136483 0.94345315048027911 7.2367041258125666e-05 0.98039780488713657 0.99139052837886521 -0.12120796217077139 -0.00023251382594163814 0.00014662739522403048 -4.7136027248373395e-05
decision_type=2 2 2 2 2 2 2 2 2 2 2 2 2 2 2 2
left_child=1 14 7 4 10 -5 -6 8 -2 -7 15 -12 -8 -10 -1 -4
right_child=2 -3 3 5 6 9 12 -9 13 -11 11 -13 -14 -15 -16 -17
leaf_value=-0.33299468370790902 -0.33210642803155638 -0.31391250141936744 -0.33796891549548391 -0.30324495128606699 -0.3080226957473135 -0.30924272692223898 -0.31539833875936291 -0.29693150324799117 -0.31012210004182811 -0.32976143304598537 -0.33685979624555168 -0.31797633004157716 -0.32741643806041432 -0.29898337386036578 -0.33796891549548391 -0.33591704488310925
leaf_weight=8.0414429605007225 5.117281883955008 7.0667226016521445 6.0920022428035736 9.5035234987735766 9.0161633193492889 4.8736017942428571 4.8736017942428598 4.873601794242858 6.823042511940006 4.8736017942428589 9.0161633193492907 9.5035234987735731 8.5288031399250013 4.8736017942428536 8.5288031399250013 4.8736017942428607
leaf_count=33 21 29 25 39 37 20 20 20 28 20 37 39 35 20 35 20
internal_value=-0.320713 -0.329085 -0.318581 -0.321245 -0.324868 -0.311476 -0.317004 -0.309842 -0.313584 -0.319502 -0.330847 -0.32717 -0.323046 -0.305481 -0.335555 -0.337057
internal_weight=0 23.637 92.8421 71.1546 51.9039 19.2507 22.4186 21.6875 16.8139 9.7472 29.4853 18.5197 13.4024 11.6966 16.5702 10.9656
internal_count=478 97 381 292 213 79 92 89 69 40 121 76 55 48 68 45
is_linear=0
shrinkage=1


Tree=1
num_leaves=17
num_cat=0
split_feature=7 8 0 12 3 11 12 0 8 5 0 8 11 4 0 5
split_gain=20.3922 21.1403 24.6641 23.9592 20.4493 12.4104 11.8974 10.2037 24.6923 10.0496 6.63483 16.2226 2.89836 2.78839 2.37766 0.11413
threshold=-2.080175225637646 0.95310146145062469 1.0096830993937329 1.0000000180025095e-35 0.00047353120018622802 0.013056177338227943 1.5000000000000002 0.86401233580136483 0.94345315048027911 7.2367041258125666e-05 0.98039780488713657 0.99139052837886521 0.007903217509972655 -0.0005438805976856197 0.85509477167987813 0.00010186670366729712
decision_type=2 2 2 2 2 2 2 2 2 2 2 2 2 2 2 2
left_child=4 7 3 10 12 -4 -5 8 -2 -7 15 -12 -1 -8 -10 -3
right_child=1 2 5 6 -6 9 13 -9 14 -11 11 -13 -14 -15 -16 -17
leaf_value=-0.017174470083421583 -0.011300806935162633 -0.017138035821071589 0.017246056163408244 0.012538046915194776 0.0088730299313219269 0.011334742771183109 -0.0060367025222208782 0.023457230701591163 0.0099366789161322872 -0.0089714891498125088 -0.016028048869306762 0.0027077262738410724 -0.0091967054501213598 0.0032754437516728098 0.019014651020357428 -0.015082195887497145
leaf_weight=9.4858902841806465 5.1078581660986009 6.0757022351026553 9.5292444080114382 9.0340180099010468 5.3597343564033499 4.8823410272598249 8.0374539196491224 4.8913890123367301 5.1286438554525358 4.866497814655304 8.992474317550661 9.5076414942741376 8.7589404582977277 5.3598577976226816 6.5956154018640518 4.8607282340526581
leaf_count=39 21 25 39 37 22 20 33 20 21 20 37 39 36 22 27 20
internal_value=0 0.00210935 -0.000527035 -0.00411659 -0.00829973 0.00913069 0.0036692 0.0107437 0.00704915 0.00119813 -0.0100495 -0.0063993 -0.0133445 -0.0023112 0.0150436 -0.0162243
internal_weight=0 92.8695 71.146 51.8679 23.6046 19.2781 22.4313 21.7235 16.8321 9.74884 29.4365 18.5001 18.2448 13.3973 11.7243 10.9364
internal_count=478 381 292 213 97 79 92 89 69 40 121 76 75 55 48 45
is_linear=0
shrinkage=0.01


Tree=2
num_leaves=18
num_cat=0
split_feature=7 2 8 0 8 11 11 0 8 5 7 8 0 2 9 2 2
split_gain=20.0081 22.6612 20.6832 24.159 17.8011 13.6316 12.1138 9.94176 24.1633 9.84486 7.00627 5.88632 10.6313 3.4147 2.66785 1.01752 0.123309
threshold=-2.080175225637646 0.00030195096377844127 0.95310146145062469 1.0096830993937329 0.9956225054039457 0.013867608423673352 0.013056177338227943 0.86401233580136483 0.94345315048027911 7.2367041258125666e-05 -1.7085512647822025 0.9885124555500634 0.98039780488713657 -0.00023251382594163814 41.448189647048167 0.00014662739522403048 0.00033563458160801313
decision_type=2 2 2 2 2 2 2 2 2 2 2 2 2 2 2 2 2
left_child=1 15 7 4 10 14 -5 8 -2 -8 -4 16 -13 -10 -6 -1 -12
right_child=2 -3 3 6 5 -7 9 -9 13 -11 11 12 -14 -15 -16 -17 -18
leaf_value=-0.012090923559730658 -0.011209075361008639 0.0067484284940784282 0.0014827337709715728 0.017030364132959729 0.0033139412747310863 0.01565161796983832 0.011202156094426145 0.023145235851121861 0.010299837803054743 -0.0088950457396027235 -0.017084450046689931 -0.013811414698769165 0.0024861091264459056 0.021232714617268861 -0.0062426296168147455 -0.017059710476580732 -0.014963646361340824
leaf_weight=8.009663671255117 5.0982110202312532 7.0717430114746085 5.854021653532981 9.5533107966184634 4.8696010559797305 6.3540343642234793 4.8906841874122602 4.9076679348945609 6.8492061197757756 4.8592737317085266 6.3104057163000125 9.2186516821384448 7.0740315765142432 4.9010879248380608 7.3007117360830307 8.4898589700460416 4.8475122451782227
leaf_count=33 21 29 24 39 20 26 20 20 28 20 26 38 29 20 30 35 20
internal_value=0 -0.00822848 0.00208769 -0.000521988 -0.00407859 0.0037795 0.00902744 0.0106201 0.00697171 0.00118593 -0.00844934 -0.0105674 -0.00673528 0.01486 -0.00241884 -0.0146476 -0.0161631
internal_weight=0 23.5713 92.8884 71.1322 51.829 18.5243 19.3033 21.7562 16.8485 9.74996 33.3046 27.4506 16.2927 11.7503 12.1703 16.4995 11.1579
internal_count=478 97 381 292 213 76 79 89 69 40 137 113 67 48 50 68 46
is_linear=0
shrinkage=0.01


Tree=3
num_leaves=19
num_cat=0
split_feature=7 2 8 0 8 11 11 0 8 5 8 8 1 2 7 3 2 1
split_gain=19.6326 22.2732 20.2396 23.6663 17.474 13.327 11.8272 9.69156 23.6489 9.64486 6.8982 5.80719 18.0387 3.32633 2.44186 1.77785 1.00525 0.123933
threshold=-2.080175225637646 0.00030195096377844127 0.95310146145062469 1.0096830993937329 0.9956225054039457 0.013867608423673352 0.013056177338227943 0.86401233580136483 0.94345315048027911 7.2367041258125666e-05 0.96147675150557366 0.9885124555500634 -5.1413301983493913e-05 -0.00023251382594163814 -0.14515800040870114 0.00010935586470922633 0.00014662739522403048 0.00023515273796897998
decision_type=2 2 2 2 2 2 2 2 2 2 2 2 2 2 2 2 2 2
left_child=1 16 7 4 10 14 -5 8 -2 -8 -4 17 15 -10 -6 -13 -1 -12
right_child=2 -3 3 6 5 -7 9 -9 13 -11 11 12 -14 -15 -16 -17 -18 -19
leaf_value=-0.011995287406802739 -0.011118602102480205 0.0066739211091868733 0.0014754595288474551 0.016820321752326811 0.0024581244659171325 0.01545960858851657 0.011072028224909585 0.02284447961876121 0.01018162580344022 -0.0088194820382385148 -0.016975187625196203 -0.0091606569990912035 0.0094292789186927895 0.020959724159281382 -0.0065310077596753835 -0.017104396883253502 -0.016940299907426314 -0.014846045059319459
leaf_weight=7.9928722232580247 5.0883482694625917 7.0791466683149329 5.8546075671911231 9.5757656693458575 5.5965894758701333 6.3685481250286093 4.898641109466551 4.9224799871444693 6.8593886792659795 4.8519346117973328 6.2932829260826129 5.0885589867830294 4.8722858875989905 4.9152009040117211 6.5688295364379892 6.3122723698616028 8.4643336534500104 4.8336644470691681
leaf_count=33 21 29 24 39 23 26 20 20 28 20 26 21 20 20 27 26 35 20
internal_value=0 -0.00815842 0.00206641 -0.00051701 -0.00404106 0.00373969 0.00892636 0.0104996 0.00689593 0.00117391 -0.00837754 -0.0104828 -0.00667604 0.0146809 -0.00239564 -0.0135588 -0.0145386 -0.0160503
internal_weight=0 23.5364 92.9004 71.115 51.7886 18.534 19.3263 21.7854 16.8629 9.75058 33.2547 27.4001 16.2731 11.7746 12.1654 11.4008 16.4572 11.1269
internal_count=478 97 381 292 213 76 79 89 69 40 137 113 67 48 50 47 68 46
is_linear=0
shrinkage=0.01


Tree=4
num_leaves=18
num_cat=0
split_feature=6 0 4 4 9 2 0 2 2 3 2 12 3 9 3 0 10
split_gain=25.5789 32.7563 16.7714 11.8059 9.12379 8.99804 13.4385 8.46377 5.9558 4.56545 6.83794 4.20311 3.42555 3.91836 2.75333 1.30695 0.000236177
threshold=-0.023812995703481662 1.0096830993937329 -0.00082849609674895397 0.00036825605431195513 66.365510791795046 0.00023519158735502146 0.98276592059911683 -0.00031853846280593951 -0.00023251382594163814 -0.0007455906519506782 -0.00088704025940544707 1.0000000180025095e-35 0.00011832299909547707 55.699583073714201 9.3734547265633697e-05 0.97771010024493321 -0.2711575517074295
decision_type=2 2 2 2 2 2 2 2 2 2 2 2 2 2 2 2 2
left_child=2 3 -1 7 14 -5 -7 -2 9 -4 -11 12 15 -14 -3 16 -9
right_child=1 4 8 5 -6 6 -8 11 -10 10 -12 -13 13 -15 -16 -17 -18
leaf_value=-0.0043571033951441216 0.0024408564612774792 0.0088632056462259936 0.00095537495598553796 -0.0077084721213418082 -0.00036622666808417998 0.016476217149639642 -0.004967065323410058 -0.016954911282478863 0.020951725888012581 0.021211967067174362 0.0062816655382814815 -0.0033774031482556757 -0.0033841460089175592 -0.013389851927012674 0.018449557801448805 -0.010784162800659325 -0.016865806878834239
leaf_weight=8.526817202568056 5.5973282307386389 5.6504229456186312 4.8913072645664277 8.4948475807905215 7.0730181187391272 5.8784498423337919 5.8123039752244949 4.8379881232976887 5.6677559018135062 5.1515043526887947 7.5827797949314046 6.5548027455806723 7.2828843146562567 8.4608167111873609 6.3778526782989502 4.8404399156570426 7.7235266119241759
leaf_count=35 23 23 20 35 29 24 24 20 23 21 31 27 30 35 26 20 32
internal_value=0 -0.00287571 0.0076422 -0.0062367 0.00864649 0.000123961 0.00581524 -0.00907114 0.0120347 0.0091673 0.0123215 -0.0106942 -0.0121412 -0.00876131 0.0139463 -0.0151989 -0.0169001
internal_weight=0 84.5847 31.8202 65.4834 19.1013 20.1856 11.6908 45.2978 23.2933 17.6256 12.7343 39.7005 33.1457 15.7437 12.0283 17.402 12.5615
internal_count=478 348 130 270 78 83 48 187 95 72 52 164 137 65 49 72 52
is_linear=0
shrinkage=0.01


Tree=5
num_leaves=18
num_cat=0
split_feature=6 0 4 4 11 11 5 2 2 3 2 12 2 3 6 0 6
split_gain=25.0577 32.1142 16.4051 11.6022 13.295 11.0665 9.39596 8.32174 5.81103 4.46101 6.66755 4.13992 3.73305 3.38057 2.91657 1.29176 9.5274e-05
threshold=-0.023812995703481662 1.0096830993937329 -0.00082849609674895397 0.00036825605431195513 0.0092601628763308314 0.013056177338227943 7.2367041258125666e-05 -0.00031853846280593951 -0.00023251382594163814 -0.0007455906519506782 -0.00088704025940544707 1.0000000180025095e-35 0.0002797440304493915 0.00011832299909547707 0.010839233564418462 0.97771010024493321 0.0022415034505403613
decision_type=2 2 2 2 2 2 2 2 2 2 2 2 2 2 2 2 2
left_child=2 3 -1 7 -5 -3 -7 -2 9 -4 -11 13 -6 15 -15 16 -9
right_child=1 5 8 4 12 6 -8 11 -10 10 -12 -13 -14 14 -16 -17 -18
leaf_value=-0.0043165583365206801 0.0024154898336971858 0.016316818273993554 0.00094568835951132433 0.0091392281976808102 -0.013234530921194547 0.010846802679646113 -0.0087775987895972359 -0.016761784484766788 0.020692301519606868 0.020941433532068218 0.0062131820625011018 -0.0033455605087757546 -0.0016499538781126271 -0.0050629822592455102 -0.013806702044886772 -0.01069723050576755 -0.016817993656470378
leaf_weight=8.5208699256181735 5.5995367020368567 9.3633300215005892 4.8919915258884492 9.0336247831583041 5.3251478374004346 4.9117888659238798 4.8477020561695099 7.4605511128902453 5.6813558191061011 5.1658007055521065 7.5896610021591115 6.5510383546352378 5.8237829506397247 9.2026405185461027 6.5160184800624839 4.8310257047414771 5.0612126737833023
leaf_count=35 23 38 20 37 22 20 20 31 23 21 31 27 24 38 27 20 21
internal_value=0 -0.00284899 0.00755866 -0.00618188 0.000122658 0.0085503 0.00109903 -0.00899559 0.0118961 0.00906428 0.0121779 -0.0106082 -0.00718318 -0.0120469 -0.00868761 -0.0150898 -0.0167845
internal_weight=0 84.5274 31.8497 65.4046 20.1826 19.1228 9.75949 45.222 23.3288 17.6475 12.7555 39.6225 11.1489 33.0714 15.7187 17.3528 12.5218
internal_count=478 348 130 270 83 78 40 187 95 72 52 164 46 137 65 72 52
is_linear=0
shrinkage=0.01


end of trees

feature_importances:
diff_MA_50=19
price_close=17
VWAP=15
ATR=9
diff_MA_30=7
diff_MA_9=6
OBV=6
predicted_label=6
diff_MA_20=5
divergence=4
MFI=3
diff_MA_100=2
Volume_Oscillator=2

parameters:
[boosting: gbdt]
[objective: binary]
[metric: binary_logloss]
[tree_learner: serial]
[device_type: cpu]
[data_sample_strategy: bagging]
[data: ]
[valid: ]
[num_iterations: 5000]
[learning_rate: 0.01]
[num_leaves: 31]
[num_threads: 4]
[seed: 0]
[deterministic: 0]
[force_col_wise: 0]
[force_row_wise: 0]
[histogram_pool_size: -1]
[max_depth: -1]
[min_data_in_leaf: 20]
[min_sum_hessian_in_leaf: 0.001]
[bagging_fraction: 0.6]
[pos_bagging_fraction: 1]
[neg_bagging_fraction: 1]
[bagging_freq: 0]
[bagging_seed: 3]
[feature_fraction: 0.7]
[feature_fraction_bynode: 1]
[feature_fraction_seed: 2]
[extra_trees: 0]
[extra_seed: 6]
[early_stopping_round: 0]
[first_metric_only: 0]
[max_delta_step: 0]
[lambda_l1: 0]
[lambda_l2: 0]
[linear_lambda: 0]
[min_gain_to_split: 0]
[drop_rate: 0.1]
[max_drop: 50]
[skip_drop: 0.5]
[xgboost_dart_mode: 0]
[uniform_drop: 0]
[drop_seed: 4]
[top_rate: 0.2]
[other_rate: 0.1]
[min_data_per_group: 100]
[max_cat_threshold: 32]
[cat_l2: 10]
[cat_smooth: 10]
[max_cat_to_onehot: 4]
[top_k: 20]
[monotone_constraints: ]
[monotone_constraints_method: basic]
[monotone_penalty: 0]
[feature_contri: ]
[forcedsplits_filename: ]
[refit_decay_rate: 0.9]
[cegb_tradeoff: 1]
[cegb_penalty_split: 0]
[cegb_penalty_feature_lazy: ]
[cegb_penalty_feature_coupled: ]
[path_smooth: 0]
[interaction_constraints: ]
[verbosity: 0]
[saved_feature_importance_type: 0]
[use_quantized_grad: 0]
[num_grad_quant_bins: 4]
[quant_train_renew_leaf: 0]
[stochastic_rounding: 1]
[linear_tree: 0]
[max_bin: 255]
[max_bin_by_feature: ]
[min_data_in_bin: 3]
[bin_construct_sample_cnt: 200000]
[data_random_seed: 1]
[is_enable_sparse: 1]
[enable_bundle: 1]
[use_missing: 1]
[zero_as_missing: 0]
[feature_pre_filter: 1]
[pre_partition: 0]
[two_round: 0]
[header: 0]
[label_column: ]
[weight_column: ]
[group_column: ]
[ignore_column: ]
[categorical_feature: ]
[forcedbins_filename: ]
[precise_float_parser: 0]
[parser_config_file: ]
[objective_seed: 5]
[num_class: 1]
[is_unbalance: 0]
[scale_pos_weight: 1]
[sigmoid: 1]
[boost_from_average: 1]
[reg_sqrt: 0]
[alpha: 0.9]
[fair_c: 1]
[poisson_max_delta_step: 0.7]
[tweedie_variance_power: 1.5]
[lambdarank_truncation_level: 30]
[lambdarank_norm: 1]
[label_gain: ]
[lambdarank_position_bias_regularization: 0]
[eval_at: ]
[multi_error_top_k: 1]
[auc_mu_weights: ]
[num_machines: 1]
[local_listen_port: 12400]
[time_out: 120]
[machine_list_filename: ]
[machines: ]
[gpu_platform_id: -1]
[gpu_device_id: -1]
[gpu_use_dp: 0]
[num_gpu: 1]

end of parameters

pandas_categorical:[]
