tree
version=v4
num_class=1
num_tree_per_iteration=1
label_index=0
max_feature_idx=11
objective=binary sigmoid:1
feature_names=price_close diff_MA_100 diff_MA_50 diff_MA_30 diff_MA_20 diff_MA_9 divergence OBV MFI Volume_Oscillator ATR predicted_label
feature_infos=[0.78800000000000003:0.86329999999999996] [-0.00024099999999993571:0.0006399999999998629] [-0.00088799999999988888:0.0010079999999998979] [-0.0010566666666667057:0.0012500000000000844] [-0.0019100000000000783:0.0016199999999999548] [-0.0040777777777777358:0.0039666666666665629] [-0.01826266666666676:0.028386333333333402] [22.264638999999999:97.287749000000005] [6.9554160278326549:96.060121049819728] [-0.54230149427852425:0.66343919270796692] [0.003971428571428578:0.011214285714285724] [1:2]
tree_sizes=1179 1291 1283 1284 1089 1082 1293 1202 1301 1085 1180 1089 1089 1073 1185 1290 1188

Tree=0
num_leaves=10
num_cat=0
split_feature=10 9 3 10 3 8 6 1 3
split_gain=24.101 14.8473 8.88629 9.48193 10.2818 13.1541 5.42503 1.19423 0.466284
threshold=0.010285714285714292 0.34643071382901952 0.00073666666666677438 0.0071357142857142704 0.00035833333333329392 41.498867326279417 0.012045722222222223 -1.0000000180025095e-35 -0.00014499999999989519
decision_type=2 2 2 2 2 2 2 2 2
left_child=1 2 3 4 5 -1 8 -5 -7
right_child=-2 -3 -4 7 -6 6 -8 -9 -10
leaf_value=-0.43524880471624938 -0.41973980513544684 -0.42475742264688293 -0.43414444870894764 -0.44783846319948906 -0.43040662837654176 -0.45623156885498223 -0.44154363395786922 -0.45402285684037874 -0.45203501602723561
leaf_weight=9.0550510287284904 5.4806887805461875 4.7658163309097281 9.0550510287284833 4.7658163309097299 6.1955612301826468 5.9572704136371577 4.7658163309097281 9.0550510287284816 4.7658163309097308
leaf_count=38 23 20 38 20 26 25 20 38 20
internal_value=-0.43979 -0.441672 -0.443176 -0.445011 -0.441918 -0.444823 -0.450421 -0.45189 -0.454366
internal_weight=0 58.3813 53.6154 44.5604 30.7395 24.544 15.4889 13.8209 10.7231
internal_count=268 245 225 187 129 103 65 58 45
is_linear=0
shrinkage=1


Tree=1
num_leaves=11
num_cat=0
split_feature=9 5 3 0 6 2 9 0 9 3
split_gain=13.8541 8.67689 27.2466 13.9673 5.29995 5.74523 3.50846 1.06526 1.02987 0.426699
threshold=0.34643071382901952 1.0000000180025095e-35 0.00038666666666664634 0.81780000000000008 0.013678388888888894 0.0005089999999999818 -0.27735059037711474 0.81345000000000012 0.040673893223690048 -0.00017666666666660277
decision_type=2 2 2 2 2 2 2 2 2 2
left_child=1 3 7 6 -4 -6 -1 8 -3 -8
right_child=-2 2 4 -5 5 -7 9 -9 -10 -11
leaf_value=0.0023985859142071613 0.014823377492336073 -0.0080033197387651273 0.0110048815249326 -0.0064737077359549259 -0.0073428397149137648 0.0074703982279683339 0.01078835986018226 -0.016380074995275801 -0.014433319247443982 0.015018907780933772
leaf_weight=4.7699874937534323 5.7383049130439749 4.7600208669900912 6.9161548018455532 9.0480795949697477 5.4839715063571912 5.0103199630975723 4.7696635872125617 7.3714131116867057 5.2253209203481674 4.7668151706457165
leaf_count=20 24 20 29 38 23 21 20 31 22 20
internal_value=0 -0.00146366 -0.00463041 0.00325058 0.00420854 -0.000270513 0.00940067 -0.0134967 -0.0113681 0.012903
internal_weight=0 58.1217 34.7672 23.3545 17.4104 10.4943 14.3065 17.3568 9.98534 9.53648
internal_count=268 244 146 98 73 44 60 73 42 40
is_linear=0
shrinkage=0.01


Tree=2
num_leaves=11
num_cat=0
split_feature=8 3 5 7 5 8 1 7 7 7
split_gain=18.0971 13.1967 18.093 10.8082 8.26013 4.09706 6.64348 5.67022 1.69682 0.140803
threshold=30.197710948482122 0.00023000000000006351 3.333333333338518e-05 46.375901500000005 -0.0003611111111111453 54.534771804943311 0.00022250000000001438 53.430108000000011 46.891707500000003 48.192425500000006
decision_type=2 2 2 2 2 2 2 2 2 2
left_child=3 2 8 -1 -3 -6 -7 -8 -2 -4
right_child=1 4 9 -5 5 6 7 -9 -10 -11
leaf_value=0.00034088107347519188 -0.0017787862838312672 -0.0091297183356265788 -0.014164528608356953 0.02035080756652962 0.012761315476998145 0.0093513289293192265 0.0055049971110436684 -0.0086846038491582237 0.0066595303853880282 -0.016303813280783255
leaf_weight=4.7657066434621793 4.7682181894779223 5.4783216118812588 4.7380114048719397 6.2256821542978287 4.7793742865324047 8.119834631681444 5.0072320550680143 6.4358183443546295 4.7637847363948822 8.7740626931190473
leaf_count=20 20 23 20 26 20 34 21 27 20 37
internal_value=0 -0.00242772 -0.00811139 0.0116748 0.00196438 0.00446116 0.00243336 -0.00247554 0.00243841 -0.0155537
internal_weight=0 52.8647 23.0441 10.9914 29.8206 24.3423 19.5629 11.4431 9.532 13.5121
internal_count=268 222 97 46 125 102 82 48 40 57
is_linear=0
shrinkage=0.01


Tree=3
num_leaves=11
num_cat=0
split_feature=8 4 0 5 6 8 6 7 6 5
split_gain=17.7042 18.3284 10.6423 9.3227 6.34068 4.46946 4.00526 3.3473 2.05918 0.493007
threshold=30.197710948482122 0.00075499999999995026 0.80300000000000005 1.0000000180025095e-35 0.013678388888888894 59.417337928725452 0.010478277777777658 53.087998000000006 0.012045722222222223 0.00051111111111107343
decision_type=2 2 2 2 2 2 2 2 2 2
left_child=2 3 -1 6 9 -3 -2 -6 -7 -5
right_child=1 5 -4 4 7 8 -8 -9 -10 -11
leaf_value=0.020120512163082974 -0.0052779342643434072 0.014768837994088584 0.00028511601063921637 -0.012282353948616731 0.001622390258782866 0.0070668640727325188 0.0052207126031328967 -0.010097438401604642 -0.0017530040746842094 -0.016285284463601512
leaf_weight=6.2461663037538511 7.1531714200973493 4.7856463044881812 4.7710253447294235 4.978166043758395 4.995096877217291 5.9549772590398771 7.3858424574136734 4.7585721164941788 4.7654132544994354 8.0556032061576825
leaf_count=26 30 20 20 21 21 25 31 20 20 34
internal_value=0 -0.00240503 0.0115307 -0.00620127 -0.0101932 0.00673336 5.53952e-05 -0.00409542 0.00314627 -0.0147564
internal_weight=0 52.8325 11.0172 37.3265 22.7874 15.506 14.539 9.75367 10.7204 13.0338
internal_count=268 222 46 157 96 65 61 41 45 55
is_linear=0
shrinkage=0.01


Tree=4
num_leaves=9
num_cat=0
split_feature=10 9 3 10 3 8 2 3
split_gain=22.6441 13.9743 8.50496 9.3311 9.76538 12.4421 5.12463 1.07878
threshold=0.010285714285714292 0.34643071382901952 0.00073666666666677438 0.0071357142857142704 0.00035833333333329392 41.498867326279417 0.00013900000000011128 0.00011833333333333142
decision_type=2 2 2 2 2 2 2 2
left_child=1 2 3 4 5 -1 -7 -5
right_child=-2 -3 -4 7 -6 6 -8 -9
leaf_value=0.004398784406291217 0.019322268618864987 0.014498182419637533 0.005517458659409169 -0.0082271837539244271 0.0091501986760182709 -0.015091729360147028 -0.0033085412782188246 -0.014055925113518303
leaf_weight=9.0787179619073921 5.5386192649602881 4.8058403730392447 9.0761697292327863 4.9732716083526602 6.2208907157182685 9.2042798250913602 6.1618676930665961 8.7830348610877973
leaf_count=38 23 20 38 21 26 39 26 37
internal_value=0 -0.00183613 -0.00330347 -0.00510574 -0.00203607 -0.00488282 -0.0103666 -0.0119487
internal_weight=0 58.3041 53.4982 44.4221 30.6658 24.4449 15.3661 13.7563
internal_count=268 245 225 187 129 103 65 58
is_linear=0
shrinkage=0.01


Tree=5
num_leaves=9
num_cat=0
split_feature=10 8 3 5 10 5 6 7
split_gain=22.121 7.75822 11.1426 15.5208 6.62897 9.28079 6.66063 0.142237
threshold=0.010285714285714292 30.197710948482122 0.00023000000000006351 3.333333333338518e-05 0.0064571428571428367 -0.00015000000000009448 0.013678388888888894 48.192425500000006
decision_type=2 2 2 2 2 2 2 2
left_child=1 -1 3 -3 -4 -6 -7 -5
right_child=-2 2 4 7 5 6 -8 -9
leaf_value=0.0073892248668287466 0.019059787324925779 0.0017520189455808252 0.0094012516627627867 -0.01393487713678593 -0.014189661916378949 0.0077566403458705878 -0.0049723980427739435 -0.016093819153715976
leaf_weight=7.9082634001970282 5.558643013238906 8.8071539252996462 6.9343188554048565 4.6992219239473334 4.7415143102407482 8.6204158067703265 7.857972338795661 8.7037619501352292
leaf_count=33 23 37 29 20 20 36 33 37
internal_value=0 -0.00181887 -0.00326473 -0.00856048 0.000912946 -0.00186089 0.0016866 -0.0153369
internal_weight=0 58.2726 50.3644 22.2101 28.1542 21.2199 16.4784 13.403
internal_count=268 245 212 94 118 89 69 57
is_linear=0
shrinkage=0.01


Tree=6
num_leaves=11
num_cat=0
split_feature=8 2 0 5 2 0 5 1 0 7
split_gain=16.698 10.9069 10.1642 6.04031 4.69549 9.83387 9.51863 9.66314 4.82057 2.83301
threshold=30.197710948482122 5.9999999999504902e-06 0.80300000000000005 0.00013333333333337419 0.00060600000000005105 0.83005000000000007 0.0011499999999999846 0.00028149999999993463 0.81435000000000013 53.430108000000011
decision_type=2 2 2 2 2 2 2 2 2 2
left_child=2 3 -1 -2 5 6 7 8 -3 -7
right_child=1 4 -4 -5 -6 9 -8 -9 -10 -11
leaf_value=0.019504041299223136 -0.0016448542643208006 -0.014043922955181126 0.00016675730082802605 -0.015972152953788638 0.0092251822389294979 -0.0043565622998036017 0.01409749401279552 0.0091956690267399419 -0.0010160948057340545 -0.014327687197337811
leaf_weight=6.2984215021133405 4.7533715814352018 4.7166017889976555 4.7819740474224091 7.7244618982076645 5.0292102843523017 6.6539589464664441 5.5216909348964682 6.214746728539466 7.1394727528095245 4.9835644364356995
leaf_count=26 20 20 20 33 21 28 23 26 30 21
internal_value=0 -0.00234549 0.0111586 -0.0105142 0.000186313 -0.00110402 0.00260662 -0.000904509 -0.00619885 -0.00862652
internal_weight=0 52.7371 11.0804 12.4778 40.2592 35.23 23.5925 18.0708 11.8561 11.6375
internal_count=268 222 46 53 169 148 99 76 50 49
is_linear=0
shrinkage=0.01


Tree=7
num_leaves=10
num_cat=0
split_feature=10 4 5 10 3 3 3 10 10
split_gain=21.3126 7.98924 16.1033 11.8631 9.72296 7.71754 5.97403 4.52684 0.147644
threshold=0.010285714285714292 0.0009199999999999765 8.8888888888971631e-05 0.0058678571428571477 0.00025166666666670562 0.00017000000000000351 0.00060999999999999954 0.0076642857142857112 0.0051928571428571354
decision_type=2 2 2 2 2 2 2 2 2
left_child=1 2 3 -1 8 -5 -3 -6 -4
right_child=-2 6 4 5 7 -7 -8 -9 -10
leaf_value=0.011133915324769525 0.018653658975993755 -0.0017941473335237651 -0.013810399447464461 0.0031577550552264002 0.0043070806294147196 -0.011535694380208199 0.01365045141242628 -0.0083101949044468645 -0.016017510641479504
leaf_weight=9.3537911027669924 5.5880148708820334 4.7662790566682798 4.8904380798339862 8.1217890381813032 5.264330714941023 6.3847395330667487 5.2775957882404327 6.1838071644306183 7.9708063155412674
leaf_count=39 23 20 21 34 22 27 22 26 34
internal_value=0 -0.00179163 -0.00348326 0.0023528 -0.00921151 -0.00330925 0.00632128 -0.00250825 -0.0151783
internal_weight=0 58.2136 48.1697 23.8603 24.3094 14.5065 10.0439 11.4481 12.8612
internal_count=268 245 203 100 103 61 42 48 55
is_linear=0
shrinkage=0.01


Tree=8
num_leaves=11
num_cat=0
split_feature=9 4 5 0 3 3 3 5 9 4
split_gain=12.5308 9.19856 18.9139 12.9851 7.53922 6.91905 6.78726 6.18221 2.4207 0.137468
threshold=0.34643071382901952 0.0009199999999999765 8.8888888888971631e-05 0.81780000000000008 0.00025166666666670562 0.00021000000000004351 0.00060999999999999954 -0.00054999999999999483 -0.026771902452615647 0.000189999999999968
decision_type=2 2 2 2 2 2 2 2 2 2
left_child=1 2 3 5 9 7 -3 -1 -6 -4
right_child=-2 6 4 -5 8 -7 -8 -9 -10 -11
leaf_value=0.019447072704027308 0.014002927700623377 -0.0017921627538973449 -0.015864192467653325 -0.0066432454723167967 0.0014837092056517302 -0.0017426976440912578 0.014327180318529302 0.0042369447906349094 -0.0083570343867060658 -0.013698836503217564
leaf_weight=6.0431652516126597 5.8078124821186057 4.7656733095645887 7.9183749407529849 9.2615304291248304 5.0081691592931747 4.7605981528758994 5.7806461304426193 4.7906653285026604 4.9905805140733701 4.6556735336780548
leaf_count=25 24 20 34 39 21 20 24 20 21 20
internal_value=0 -0.00140397 -0.00328229 0.00273563 -0.00990891 0.00830575 0.00704317 0.0127212 -0.00342801 -0.0150624
internal_weight=0 57.9751 47.4288 24.856 22.5728 15.5944 10.5463 10.8338 9.99875 12.574
internal_count=268 244 200 104 96 65 44 45 42 54
is_linear=0
shrinkage=0.01


Tree=9
num_leaves=9
num_cat=0
split_feature=10 8 3 5 10 5 6 5
split_gain=20.5957 7.19089 10.5381 14.6881 6.28833 8.9 6.35916 0.141066
threshold=0.010285714285714292 30.197710948482122 0.00023000000000006351 3.333333333338518e-05 0.0064571428571428367 -0.00015000000000009448 0.013678388888888894 0.00057777777777778827
decision_type=2 2 2 2 2 2 2 2
left_child=1 -1 3 -3 -4 -6 -7 -5
right_child=-2 2 4 7 5 6 -8 -9
leaf_value=0.0070708362197560047 0.018292539393880935 0.0016465158504172608 0.0091307675919615854 -0.013607697279129458 -0.013956544659698443 0.0075524952197233474 -0.004883392198676919 -0.015772217308526619
leaf_weight=7.9482302367687216 5.6124740391969672 8.8251787573099154 6.9656259864568737 4.6379915922880164 4.7025289237499264 8.6481739580631274 7.8392543643712989 8.5825809389352781
leaf_count=33 23 37 29 20 20 36 33 37
internal_value=0 -0.00176689 -0.00316614 -0.00834392 0.000888051 -0.00182152 0.00163962 -0.0150129
internal_weight=0 58.1496 50.2013 22.0458 28.1556 21.19 16.4874 13.2206
internal_count=268 245 212 94 118 89 69 57
is_linear=0
shrinkage=0.01


Tree=10
num_leaves=10
num_cat=0
split_feature=9 5 3 0 9 0 1 0 9
split_gain=12.0936 7.48793 24.418 12.8643 4.85331 4.27029 3.8764 1.11357 0.981748
threshold=0.34643071382901952 1.0000000180025095e-35 0.00038666666666664634 0.81780000000000008 -0.066415133524902761 0.83005000000000007 0.00016300000000002426 0.81345000000000012 0.040673893223690048
decision_type=2 2 2 2 2 2 2 2 2
left_child=1 3 7 6 -4 -6 -1 8 -3
right_child=-2 2 4 -5 5 -7 -8 -9 -10
leaf_value=0.0039786816335025035 0.013727332571191153 -0.0073799850486026995 0.010054600806102288 -0.0063909066827429837 0.0062129811774807447 -0.0068478078573987102 0.014367415714676779 -0.015872205715148548 -0.013732065045999759
leaf_weight=7.6882379055023211 5.8296206146478644 4.6679031550884265 7.4543896019458797 9.0224335193634015 4.800165578722952 5.2317391186952591 6.7408578842878342 7.219853848218917 5.0822925120592117
leaf_count=32 24 20 31 38 20 22 28 31 22
internal_value=0 -0.0013834 -0.00435003 0.00297534 0.00394299 -0.000598352 0.008832 -0.0128953 -0.010691
internal_weight=0 57.9079 34.4563 23.4515 17.4863 10.0319 14.4291 16.97 9.7502
internal_count=268 244 146 98 73 42 60 73 42
is_linear=0
shrinkage=0.01


Tree=11
num_leaves=9
num_cat=0
split_feature=10 4 8 1 6 7 10 10
split_gain=20.0388 7.63361 11.2348 9.12633 5.22823 4.95612 3.19015 2.69934
threshold=0.010285714285714292 0.00075499999999995026 30.197710948482122 0.00038650000000012291 0.01387683333333334 44.822187000000007 0.0064571428571428367 0.0075571428571428586
decision_type=2 2 2 2 2 2 2 2
left_child=1 2 -1 5 -3 -4 -7 -8
right_child=-2 4 3 -5 -6 6 7 -9
leaf_value=0.0069487553638083541 0.018010837336387042 0.0090018815517979699 0.00041302175592364862 0.0031569951661227546 -0.0038698788340256756 -0.015751556082700287 -0.0043222182629378434 -0.012946610190661489
leaf_weight=7.9625438451766959 5.6305693686008444 9.3408820331096631 4.7497933059930828 8.1147730350494367 4.7654640823602668 8.3318057656288165 8.4698973149061185 6.3498529046773902
leaf_count=33 23 39 20 34 20 36 36 27
internal_value=0 -0.00174749 -0.00380064 -0.00617714 0.00465349 -0.00889186 -0.0108009 -0.00801753
internal_weight=0 58.085 43.9787 36.0161 14.1063 27.9013 23.1516 14.8198
internal_count=268 245 186 153 59 119 99 63
is_linear=0
shrinkage=0.01


Tree=12
num_leaves=9
num_cat=0
split_feature=10 9 3 5 10 3 10 10
split_gain=19.5963 12.5495 7.96966 9.71601 16.9794 10.372 3.5212 0.15232
threshold=0.010285714285714292 0.34643071382901952 0.00073666666666677438 3.333333333338518e-05 0.0057928571428571283 0.00025166666666670562 0.0075571428571428586 0.0051928571428571354
decision_type=2 2 2 2 2 2 2 2
left_child=1 2 3 4 -1 7 -6 -5
right_child=-2 -3 -4 5 6 -7 -8 -9
leaf_value=0.010720118162882708 0.017786185181721936 0.013644408195194855 0.0053877598728725561 -0.013489666367249289 -0.0031984624432873044 -0.0011122037259329032 -0.014048130180259938 -0.015672722902873387
leaf_weight=8.6896972656250018 5.6445989459753028 4.8636204600334159 9.0914828777313215 5.028891637921336 7.5971158146858198 9.0737587958574277 4.9339946955442429 8.7700001299381238
leaf_count=36 23 20 38 22 32 38 21 38
internal_value=0 -0.0017312 -0.00313726 -0.004895 -2.15783e-05 -0.00941647 -0.00747041 -0.0148771
internal_weight=0 58.0486 53.1849 44.0935 21.2208 22.8727 12.5311 13.7989
internal_count=268 245 225 187 89 98 53 60
is_linear=0
shrinkage=0.01


Tree=13
num_leaves=9
num_cat=0
split_feature=10 8 1 0 6 7 0 8
split_gain=19.1673 6.77065 7.67813 7.1615 5.12262 11.5444 8.95894 5.11194
threshold=0.010285714285714292 30.197710948482122 -4.1499999999972108e-05 0.83005000000000007 0.010910611111111137 52.572509500000002 0.81925000000000014 64.748297595689394
decision_type=2 2 2 2 2 2 2 2
left_child=1 -1 -3 4 5 -4 -6 -5
right_child=-2 2 3 7 6 -7 -8 -9
leaf_value=0.0068427456517080251 0.017567639058932896 -0.011414181665814023 -0.010064150227864088 -0.0011878693583035017 0.016831846686625442 0.0070193798696611158 -0.0012825930161575081 -0.013220761896443623
leaf_weight=7.9735178500413886 5.6576045006513587 9.0525817424058896 8.2194652557373065 7.3123227655887586 5.0516349673271161 7.625291481614112 5.9415047615766525 6.8266752809286118
leaf_count=33 23 39 35 31 21 32 25 29
internal_value=0 -0.00171536 -0.00307933 -0.001238 0.00179637 -0.0018427 0.00704147 -0.00699766
internal_weight=0 58.003 50.0295 40.9769 26.8379 15.8448 10.9931 14.139
internal_count=268 245 212 173 113 67 46 60
is_linear=0
shrinkage=0.01


Tree=14
num_leaves=10
num_cat=0
split_feature=10 8 2 0 5 6 5 8 7
split_gain=18.7505 6.63483 8.00479 6.282 7.62835 7.01123 5.54177 4.81864 3.4956
threshold=0.010285714285714292 30.197710948482122 5.9999999999504902e-06 0.83005000000000007 0.0011499999999999846 0.011451944444444308 0.00013333333333337419 64.748297595689394 52.143418000000004
decision_type=2 2 2 2 2 2 2 2 2
left_child=1 -1 6 4 5 8 -3 -5 -4
right_child=-2 2 3 7 -6 -7 -8 -9 -10
leaf_value=0.0067660787258799551 0.017354934475804027 -0.0016108954721023464 -0.011121861679621699 -0.00071992272487876922 0.012234182769870221 0.0062984693537740822 -0.015412295898008615 -0.01283918606881306 0.00031980148156704892
leaf_weight=7.9831785857677451 5.6696140319108954 4.7467629313468915 6.0828913897275978 7.0827870368957502 5.8091878592967978 7.8742392510175696 7.5162839144468307 6.1116629987955093 4.75944983959198
leaf_count=33 23 20 26 30 24 33 33 26 20
internal_value=0 -0.00169939 -0.00305147 -0.00076968 0.00222359 -0.00088346 -0.0100701 -0.00633356 -0.00609933
internal_weight=0 57.9664 49.9833 37.7202 24.5258 18.7166 12.263 13.1945 10.8423
internal_count=268 245 212 159 103 79 53 56 46
is_linear=0
shrinkage=0.01


Tree=15
num_leaves=11
num_cat=0
split_feature=9 4 5 0 3 3 3 7 9 4
split_gain=11.1698 8.56905 17.3268 12.22 6.91177 6.42805 6.38741 6.10783 2.2966 0.136511
threshold=0.34643071382901952 0.0009199999999999765 8.8888888888971631e-05 0.81780000000000008 0.00025166666666670562 0.00060999999999999954 0.00021000000000004351 47.526952500000007 -0.026771902452615647 0.000189999999999968
decision_type=2 2 2 2 2 2 2 2 2 2
left_child=1 2 3 6 9 -3 7 -1 -6 -4
right_child=-2 5 4 -5 8 -7 -8 -9 -10 -11
leaf_value=0.004801139357035451 0.013139464328274562 -0.0018196567164989266 -0.015400967966824972 -0.0065558451679362442 0.0013845133669102116 0.013851328715925959 -0.0017270866129300434 0.01976834309028894 -0.0082086832579105727 -0.01321865175650791
leaf_weight=5.5415681451559085 5.8709328919649115 4.7601952850818616 7.7325760722160357 9.2299097180366498 5.014415442943573 5.8150257468223572 4.751095935702323 5.3672143667936325 4.9678333401679975 4.5547724217176437
leaf_count=23 24 20 34 39 21 24 20 22 21 20
internal_value=0 -0.00133817 -0.00316252 0.00257099 -0.00957062 0.00679739 0.00795033 0.0121651 -0.0033897 -0.014592
internal_weight=0 57.7346 47.1594 24.8898 22.2696 10.5752 15.6599 10.9088 9.98225 12.2873
internal_count=268 244 200 104 96 44 65 45 42 54
is_linear=0
shrinkage=0.01


Tree=16
num_leaves=10
num_cat=0
split_feature=8 2 9 0 9 0 5 9 5
split_gain=13.9764 9.64994 9.25638 9.11051 8.59069 7.97726 5.36646 4.53862 3.87822
threshold=30.197710948482122 5.9999999999504902e-06 -0.23645906327110558 0.80300000000000005 -0.066415133524902761 0.83005000000000007 0.00013333333333337419 -0.15612607537236659 0.0011055555555555265
decision_type=2 2 2 2 2 2 2 2 2
left_child=3 6 -3 -1 7 8 -2 -4 -6
right_child=1 2 4 -5 5 -7 -8 -9 -10
leaf_value=0.017935209897231512 -0.0016566843600998907 -0.011154678146132172 0.0023956581075491572 -0.00026925716377658286 -0.00065659945429405897 -0.0085442786016437147 -0.015257585946087421 0.015001120015608192 0.010440145857205277
leaf_weight=6.407664403319357 4.7511977553367597 6.0958383083343497 5.2508517503738403 4.8147384226322174 8.2776209861040169 9.1751879304647428 7.4498075544834137 6.2634561657905525 5.083806410431861
leaf_count=26 20 26 22 20 35 39 33 26 21
internal_value=0 -0.00217299 0.000193944 0.010125 0.00222559 -0.00136466 -0.00996125 0.00925267 0.00356553
internal_weight=0 52.3478 40.1468 11.2224 34.0509 22.5366 12.201 11.5143 13.3614
internal_count=268 222 169 46 143 95 53 48 56
is_linear=0
shrinkage=0.01


end of trees

feature_importances:
diff_MA_30=23
diff_MA_9=22
ATR=21
price_close=16
Volume_Oscillator=16
MFI=15
OBV=11
divergence=10
diff_MA_20=7
diff_MA_100=6
diff_MA_50=6

parameters:
[boosting: gbdt]
[objective: binary]
[metric: binary_logloss]
[tree_learner: serial]
[device_type: cpu]
[data_sample_strategy: bagging]
[data: ]
[valid: ]
[num_iterations: 5000]
[learning_rate: 0.01]
[num_leaves: 31]
[num_threads: 4]
[seed: 0]
[deterministic: 0]
[force_col_wise: 0]
[force_row_wise: 0]
[histogram_pool_size: -1]
[max_depth: -1]
[min_data_in_leaf: 20]
[min_sum_hessian_in_leaf: 0.001]
[bagging_fraction: 0.6]
[pos_bagging_fraction: 1]
[neg_bagging_fraction: 1]
[bagging_freq: 0]
[bagging_seed: 3]
[feature_fraction: 0.7]
[feature_fraction_bynode: 1]
[feature_fraction_seed: 2]
[extra_trees: 0]
[extra_seed: 6]
[early_stopping_round: 0]
[first_metric_only: 0]
[max_delta_step: 0]
[lambda_l1: 0]
[lambda_l2: 0]
[linear_lambda: 0]
[min_gain_to_split: 0]
[drop_rate: 0.1]
[max_drop: 50]
[skip_drop: 0.5]
[xgboost_dart_mode: 0]
[uniform_drop: 0]
[drop_seed: 4]
[top_rate: 0.2]
[other_rate: 0.1]
[min_data_per_group: 100]
[max_cat_threshold: 32]
[cat_l2: 10]
[cat_smooth: 10]
[max_cat_to_onehot: 4]
[top_k: 20]
[monotone_constraints: ]
[monotone_constraints_method: basic]
[monotone_penalty: 0]
[feature_contri: ]
[forcedsplits_filename: ]
[refit_decay_rate: 0.9]
[cegb_tradeoff: 1]
[cegb_penalty_split: 0]
[cegb_penalty_feature_lazy: ]
[cegb_penalty_feature_coupled: ]
[path_smooth: 0]
[interaction_constraints: ]
[verbosity: 0]
[saved_feature_importance_type: 0]
[use_quantized_grad: 0]
[num_grad_quant_bins: 4]
[quant_train_renew_leaf: 0]
[stochastic_rounding: 1]
[linear_tree: 0]
[max_bin: 255]
[max_bin_by_feature: ]
[min_data_in_bin: 3]
[bin_construct_sample_cnt: 200000]
[data_random_seed: 1]
[is_enable_sparse: 1]
[enable_bundle: 1]
[use_missing: 1]
[zero_as_missing: 0]
[feature_pre_filter: 1]
[pre_partition: 0]
[two_round: 0]
[header: 0]
[label_column: ]
[weight_column: ]
[group_column: ]
[ignore_column: ]
[categorical_feature: ]
[forcedbins_filename: ]
[precise_float_parser: 0]
[parser_config_file: ]
[objective_seed: 5]
[num_class: 1]
[is_unbalance: 0]
[scale_pos_weight: 1]
[sigmoid: 1]
[boost_from_average: 1]
[reg_sqrt: 0]
[alpha: 0.9]
[fair_c: 1]
[poisson_max_delta_step: 0.7]
[tweedie_variance_power: 1.5]
[lambdarank_truncation_level: 30]
[lambdarank_norm: 1]
[label_gain: ]
[lambdarank_position_bias_regularization: 0]
[eval_at: ]
[multi_error_top_k: 1]
[auc_mu_weights: ]
[num_machines: 1]
[local_listen_port: 12400]
[time_out: 120]
[machine_list_filename: ]
[machines: ]
[gpu_platform_id: -1]
[gpu_device_id: -1]
[gpu_use_dp: 0]
[num_gpu: 1]

end of parameters

pandas_categorical:[]
