tree
version=v4
num_class=3
num_tree_per_iteration=3
label_index=0
max_feature_idx=10
objective=multiclass num_class:3
feature_names=price_close diff_MA_100 diff_MA_50 diff_MA_30 diff_MA_20 diff_MA_9 divergence OBV MFI Volume_Oscillator ATR
feature_infos=[0.62649999999999995:0.97719999999999996] [-0.0011090000000000266:0.0013440000000000119] [-0.0018359999999998378:0.0018299999999997763] [-0.0023799999999999377:0.0030400000000000427] [-0.0041550000000000198:0.0044800000000000395] [-0.0070777777777778494:0.0064888888888887664] [-0.053204333333333298:0.081545666666666405] [-124.40667500000001:135.851674] [3.1792046754564041:98.550895015044432] [-0.73294885518987185:0.72571345014422828] [0.0015214285714285941:0.022771428571428585]
tree_sizes=3406 3339 3416 3494 3492 3510 3487 3497 3482 3486 3448 3464 3480 3426 3482 3487 3469 3470 3494 3495 3468 3497 3457 3498 3477 3495 3452 3504 3493 3483 3448 3447 3482 3495 3461 3504 3460 3438 3487

Tree=0
num_leaves=31
num_cat=0
split_feature=2 7 7 7 4 4 10 10 10 4 10 4 1 6 2 1 1 10 9 7 1 1 4 9 8 2 6 10 2 6
split_gain=13.4358 17.0175 21.5736 15.7431 11.0027 14.3034 12.8063 9.32601 11.6237 8.89989 10.5299 12.8355 11.927 8.77765 11.0902 9.48163 7.90935 15.3381 7.24973 6.83428 6.77118 6.72165 9.16828 8.5542 6.63668 7.13639 10.3762 9.94501 7.9908 8.85383
threshold=0.0013540000000000776 1.7320070000000001 -97.675457999999978 75.221754000000018 0.0011824999999999755 0.00033249999999995788 0.0052321428571428562 0.0088392857142857266 0.012967857142857151 -0.0006025000000000057 0.0065321428571428605 0.00022500000000008627 -0.00029799999999996491 -0.015864166666666565 0.00014400000000008853 -0.00022700000000014373 0.00017950000000011015 0.0044749999999999989 -0.35195647121753343 33.705941500000009 0.00034699999999993075 0.00024049999999992136 0.000369999999999926 0.1721514966958394 77.09397657009869 0.00023300000000003876 -0.0019559444444444125 0.0033071428571428778 -5.1999999999996487e-05 -0.01499772222222223
decision_type=2 2 2 2 2 2 2 2 2 2 2 2 2 2 2 2 2 2 2 2 2 2 2 2 2 2 2 2 2 2
left_child=1 2 24 4 5 13 19 20 -9 -4 11 12 -11 -3 15 -15 -16 -18 -14 -7 -5 22 -13 -24 25 26 27 -1 29 -29
right_child=-2 3 9 7 -6 6 -8 8 -10 10 -12 21 18 14 16 -17 17 -19 -20 -21 -22 -23 23 -25 -26 -27 -28 28 -30 -31
leaf_value=-0.87415735607640799 -0.87255201262226567 -0.89121529718322323 -0.87618878797062938 -0.86893730289092319 -0.88934020046646445 -0.87543703273775875 -0.88431540916849871 -0.88807937897706846 -0.87668730691515717 -0.87386731380317328 -0.88643093595382483 -0.87333896123094146 -0.88920570546090483 -0.87589812613524165 -0.89068091028742646 -0.88377805059226922 -0.87536075977993943 -0.88758370667151165 -0.88167825161589553 -0.88261050972022204 -0.87882626834703903 -0.87192384485383256 -0.88381653639200441 -0.87357070517174218 -0.88931659630772042 -0.87664269500461123 -0.88764722124917583 -0.88530107109855805 -0.88999602404885203 -0.87855170823254658
leaf_weight=13.82725006341934 14.19112506508827 22.196375101804733 64.40587529540062 11.280125051736833 40.754000186920166 40.754000186920166 58.583875268697739 18.557625085115433 17.102125078439713 18.193750083446503 25.471250116825104 23.651875108480453 14.19112506508827 17.466000080108643 38.934625178575516 115.71225053071976 13.09950006008148 45.484375208616257 121.17037555575371 19.285375088453293 18.921500086784363 22.560250103473663 30.929375141859055 10.9162500500679 19.285375088453293 15.28275007009506 47.667625218629837 38.934625178575509 14.5550000667572 38.570750176906593
leaf_count=38 39 61 177 31 112 112 161 51 47 50 70 65 39 48 107 318 36 125 333 53 52 62 85 30 53 42 131 107 40 106
internal_value=-0.882179 -0.882317 -0.881066 -0.88368 -0.884406 -0.883861 -0.881002 -0.879149 -0.882588 -0.87953 -0.880341 -0.879694 -0.881448 -0.885205 -0.884619 -0.882733 -0.887181 -0.884827 -0.882465 -0.877755 -0.875068 -0.876651 -0.878307 -0.881153 -0.883767 -0.883123 -0.883778 -0.882042 -0.883222 -0.881955
internal_weight=0 997.745 519.614 478.132 412.27 371.516 118.623 65.8614 35.6598 331.49 267.084 241.613 153.555 252.893 230.697 133.178 97.5185 58.5839 135.362 60.0394 30.2016 88.0578 65.4975 41.8456 188.123 168.838 153.555 105.888 92.0604 77.5054
internal_count=2781 2742 1428 1314 1133 1021 326 181 98 911 734 664 422 695 634 366 268 161 372 165 83 242 180 115 517 464 422 291 253 213
is_linear=0
shrinkage=1


Tree=1
num_leaves=31
num_cat=0
split_feature=9 0 5 7 4 8 2 2 5 0 0 4 5 2 4 5 7 7 7 2 8 1 2 9 1 5 4 7 4 2
split_gain=7.68585 10.094 10.3579 8.60844 18.5212 7.41892 5.80984 8.02258 11.9757 10.9821 5.16577 4.58884 7.37484 5.01489 9.5724 5.04265 7.55462 8.03505 3.87164 10.0717 7.03798 10.285 10.6249 6.90464 8.86058 9.68279 8.20239 6.77954 5.60826 4.21447
threshold=-0.16718384206069012 0.85245000000000015 0.0011777777777777778 39.917423500000005 -7.499999999993622e-06 35.977302256656557 -5.4000000000220531e-05 0.00026599999999998852 0.00038888888888893863 0.77875000000000016 0.66965000000000008 -0.0015924999999999965 -0.00017777777777777667 0.00030600000000008404 -4.9999999999938975e-05 -0.00066111111111116772 -92.721363499999981 -99.451231499999992 13.867634500000001 0.00043900000000002276 52.540271308074544 0.00025350000000007317 0.00037000000000003702 0.18261096085927103 7.8499999999925865e-05 0.00085000000000001752 -6.0000000000004487e-05 -97.137311499999996 0.00052999999999997504 9.8999999999960244e-05
decision_type=2 2 2 2 2 2 2 2 2 2 2 2 2 2 2 2 2 2 2 2 2 2 2 2 2 2 2 2 2 2
left_child=1 2 3 5 -5 10 -7 8 9 -8 -1 -2 13 15 -15 16 17 -13 19 23 21 -20 -23 24 25 -14 -26 -25 29 -28
right_child=11 -3 -4 4 -6 6 7 -9 -10 -11 -12 12 18 14 -16 -17 -18 -19 20 -21 -22 22 -24 27 26 -27 28 -29 -30 -31
leaf_value=-2.0806520363004934 -2.0821763470392667 -2.0910135506111915 -2.0733155007049029 -2.0636655438700218 -2.086795676933435 -2.0893031937191764 -2.0869478590526436 -2.0882516403606015 -2.0673126779617768 -2.0702226335337248 -2.0917475099313787 -2.0879790341902247 -2.0895080351740063 -2.0921421520592087 -2.0769945032876826 -2.0934544622281352 -2.091488497505761 -2.0740015064519244 -2.090070600673795 -2.0748768908864759 -2.0901191822932748 -2.0664603898440137 -2.0869161367708391 -2.0827742543620054 -2.0686279356924104 -2.0746399859964519 -2.0795625582001556 -2.0932366061030869 -2.0739848772234355 -2.0897176037146803
leaf_weight=4.8899781703949001 13.528939604759215 22.493899583816528 8.8019607067108137 5.7049745321273813 8.8019607067108119 13.365940332412718 15.484930872917181 12.713943243026732 6.8459694385528556 5.2159767150878897 24.77588939666748 13.691938877105715 35.370842099189758 8.6389614343643206 7.823965072631835 43.846804261207581 38.63082754611969 5.7049745321273795 11.246949791908266 7.9869643449783316 64.547711849212646 5.2159767150878888 5.052977442741394 8.3129628896713275 4.8899781703949001 4.8899781703948966 6.5199708938598695 22.656898856163025 5.2159767150878897 10.431953430175779
leaf_count=30 83 138 54 35 54 82 95 78 42 32 152 84 217 53 48 269 237 35 69 49 396 32 31 51 30 30 40 139 32 64
internal_value=-2.08702 -2.08496 -2.08367 -2.08462 -2.07753 -2.08588 -2.08366 -2.08175 -2.07873 -2.08263 -2.08987 -2.08784 -2.08809 -2.09006 -2.08499 -2.09089 -2.08892 -2.08387 -2.08689 -2.08561 -2.08846 -2.08354 -2.07633 -2.0865 -2.0847 -2.08765 -2.08028 -2.09039 -2.08297 -2.08585
internal_weight=0 129.095 106.602 97.7996 14.5069 83.2926 53.6268 40.2608 27.5469 20.7009 29.6659 324.206 310.677 118.337 16.4629 101.875 58.0277 19.3969 192.339 106.276 86.0636 21.5159 10.269 98.2886 67.3187 40.2608 27.0579 30.9699 22.1679 16.9519
internal_count=2781 792 654 600 89 511 329 247 169 127 182 1989 1906 726 101 625 356 119 1180 652 528 132 63 603 413 247 166 190 136 104
is_linear=0
shrinkage=1


Tree=2
num_leaves=31
num_cat=0
split_feature=0 0 1 4 4 1 2 6 2 2 0 9 9 2 1 8 4 0 6 2 1 4 4 8 2 9 0 2 2 9
split_gain=23.2633 16.6599 14.5405 14.5904 14.8022 11.4991 8.45937 16.1621 8.66998 7.94179 9.62574 7.45466 12.5036 7.38139 9.49685 10.6026 8.55373 9.33587 11.5915 8.26716 9.32744 9.30303 11.9978 9.34184 9.14641 8.18997 7.48469 15.01 9.30834 7.81896
threshold=0.75905000000000011 0.65245000000000009 0.00042849999999994287 0.00076500000000007129 0.00046750000000000963 0.00019250000000003989 -0.00018800000000002146 -0.01436522222222225 -3.5999999999869463e-05 0.00026599999999998852 0.68300000000000016 -0.014914874516822786 -0.28573959895874312 0.0013540000000000776 0.00031750000000002615 81.473549750188724 0.0017225000000000714 0.80100000000000005 0.0021426666666667931 -0.0007139999999999368 -0.00020199999999997995 0.00022500000000008627 -0.00017750000000005259 86.750900609125495 4.5000000000017255e-05 -0.071316710015716531 0.8579500000000001 -0.00031900000000006917 -0.00013200000000007647 0.20723779456211841
decision_type=2 2 2 2 2 2 2 2 2 2 2 2 2 2 2 2 2 2 2 2 2 2 2 2 2 2 2 2 2 2
left_child=1 -1 3 4 5 6 7 -3 -8 10 -7 12 -10 14 19 16 17 -16 -19 -2 26 22 25 -23 -24 -22 27 29 -28 -21
right_child=13 2 -4 -5 -6 9 8 -9 11 -11 -12 -13 -14 -15 15 -17 -18 18 -20 20 21 23 24 -25 -26 -27 28 -29 -30 -31
leaf_value=-0.75862698953979268 -0.76993938950175511 -0.76614977124282435 -0.78158813705745733 -0.76338589809252699 -0.77617713498887964 -0.78292591051233962 -0.76320606788511225 -0.77619566588988942 -0.76251111893599222 -0.76890403893000969 -0.77237393711193669 -0.76616198499509369 -0.77364974821231525 -0.78019382143757332 -0.76685844489016319 -0.7782504667722191 -0.76310100625316635 -0.7653933833734643 -0.77511580206029818 -0.77713983175110324 -0.77889699966856929 -0.77616119912167492 -0.76602947061952853 -0.76741825054539403 -0.77183562682332307 -0.77232446124467502 -0.77779481314153676 -0.78260433475405566 -0.76740864066039594 -0.76867762029074627
leaf_weight=12.303762853145598 53.689146995544434 28.335938692092896 11.185238957405089 29.827303886413574 42.503908038139343 14.540810644626616 36.165605962276459 36.538447260856628 12.676604151725767 20.506271421909332 21.624795317649841 54.061988294124603 47.350844919681549 14.540810644626616 39.148336350917816 16.405017137527466 16.777858436107635 15.659334540367125 54.807670891284943 31.691510379314423 30.945827782154083 119.68205684423447 40.639701545238495 13.422286748886107 82.397926986217499 49.587892711162567 16.777858436107635 39.148336350917816 17.523541033267975 16.405017137527466
leaf_count=33 144 76 30 80 114 39 97 98 34 55 58 145 127 39 105 44 45 42 147 85 83 321 109 36 221 133 45 105 47 44
internal_value=-0.772052 -0.770031 -0.770433 -0.770064 -0.770704 -0.769843 -0.768786 -0.771821 -0.767483 -0.773837 -0.776662 -0.768855 -0.771302 -0.773162 -0.773003 -0.770727 -0.769739 -0.770771 -0.772935 -0.77364 -0.774076 -0.773214 -0.771874 -0.775269 -0.769906 -0.774868 -0.776453 -0.778008 -0.772462 -0.774232
internal_weight=0 367.622 355.318 344.133 314.305 271.801 215.129 64.8744 150.255 56.6719 36.1656 114.089 60.0274 669.25 654.709 142.798 126.393 109.615 70.467 511.911 458.222 336.676 203.571 133.104 123.038 80.5337 121.546 87.2449 34.3014 48.0965
internal_count=2781 986 953 923 843 729 577 174 403 152 97 306 161 1795 1756 383 339 294 189 1373 1229 903 546 357 330 216 326 234 92 129
is_linear=0
shrinkage=1


Tree=3
num_leaves=31
num_cat=0
split_feature=0 10 10 1 2 0 3 2 8 0 6 2 4 4 1 4 8 2 4 0 0 0 3 10 6 2 10 1 10 10
split_gain=23.5452 17.7995 15.5846 14.3825 22.3351 13.9886 11.2684 14.4336 11.1403 9.48663 17.2209 14.2979 22.3791 12.1011 9.66799 23.0142 9.07362 10.0701 9.01309 8.43434 8.35576 7.30883 7.06853 6.78354 14.787 6.67369 8.4785 6.53234 5.87362 7.83007
threshold=0.82530000000000014 0.0052321428571428562 0.010360714285714298 -9.4999999999956217e-05 -0.00031900000000006917 0.6553500000000001 -0.00065000000000003933 -0.00026199999999998441 31.121892467766994 0.78085000000000016 -0.015555277777777874 -0.0001429999999999487 0.00036000000000008253 0.00015000000000003902 -0.00031450000000010631 1.5000000000042759e-05 72.051707417435082 0.0008730000000001793 -0.00063499999999999657 0.91455000000000009 0.81525000000000014 0.79700000000000015 0.00020000000000003351 0.0041785714285714134 0.0098430555555556482 0.00022800000000006151 0.0031964285714285606 0.0005750000000000478 0.0045571428571428837 0.0049071428571428573
decision_type=2 2 2 2 2 2 2 2 2 2 2 2 2 2 2 2 2 2 2 2 2 2 2 2 2 2 2 2 2 2
left_child=1 5 6 4 20 -1 -2 -8 -6 10 -7 13 22 18 -11 -16 19 -18 -12 -4 -3 -17 23 24 -13 26 -24 -5 -14 -30
right_child=2 3 16 27 8 9 7 -9 -10 14 11 12 28 -15 15 21 17 -19 -20 -21 -22 -23 25 -25 -26 -27 -28 -29 29 -31
leaf_value=-0.0097844717707408282 0.01006054977293094 -0.0056590458974195628 -0.00086282025723493012 -0.0069116031319631397 0.014915071654611079 -0.010564797009581855 -0.0041292329381297319 0.0042787645242003168 0.0010083522983543496 0.0093167694265565773 0.0011285359419903444 -0.0032019789516867076 0.0050599363713176191 -0.0027145395071649461 -0.0075066937591557904 0.010782180468524581 -0.011196084141723055 0.0013434126178144315 0.010181553887483652 0.0068229782555063664 0.0029407664713716353 0.0006548612246647605 0.0040115306419474129 -0.00662022722488507 0.0074912192791856437 0.0049622416770005425 -0.0045823546136068132 0.00046178468534523864 -0.0052420873963704333 0.0058479407670070059
leaf_weight=14.170482754707335 26.943381398916245 47.640779048204422 60.038047313690186 94.902370154857635 11.297782152891161 15.624569803476332 23.653150498867035 141.61328855156898 12.013008117675779 21.133148849010468 17.478727221488953 131.29572525620461 67.365982592105865 17.466420501470566 18.556635677814484 17.484657645225528 14.898875415325167 10.916801691055296 30.955196112394333 18.570841580629349 14.563215315341948 12.374537169933317 17.462735772132874 44.721028327941895 14.202374070882795 22.558626800775528 32.719842582941055 13.45302703976631 14.919735163450243 10.925326824188231
leaf_count=39 74 131 165 261 31 43 65 389 33 58 48 361 185 48 51 48 41 30 85 51 40 34 48 123 39 62 90 37 41 30
internal_value=0 -0.000982347 0.00236818 -0.00356856 -0.000488622 -1.83389e-05 0.00405776 0.00306758 0.007826 0.000254393 -0.000288901 9.1544e-05 -0.000698053 0.00436882 0.0036834 0.00118972 -0.000733092 -0.00587014 0.00694418 0.000946557 -0.00362812 0.00663469 -0.00219269 -0.00320677 -0.0021469 0.000446161 -0.0015699 -0.00598735 0.00350563 -0.000511053
internal_weight=0 715.286 296.634 193.87 85.5148 521.416 192.21 165.266 23.3108 507.245 437.696 422.072 356.171 65.9003 69.549 48.4158 104.425 25.8157 48.4339 78.6089 62.204 29.8592 262.96 190.219 145.498 72.7412 50.1826 108.355 93.211 25.8451
internal_count=2781 1966 815 533 235 1433 528 454 64 1394 1203 1160 979 181 191 133 287 71 133 216 171 82 723 523 400 200 138 298 256 71
is_linear=0
shrinkage=0.01


Tree=4
num_leaves=31
num_cat=0
split_feature=9 0 5 1 0 0 5 9 2 4 5 3 0 5 9 1 3 1 4 1 1 2 4 0 0 9 2 5 8 0
split_gain=7.55421 9.95551 10.0478 5.64205 6.18245 7.90214 7.02613 6.92817 5.22445 4.52431 7.28744 6.14671 6.14974 4.4476 5.30809 8.18729 4.29867 10.3574 8.35257 6.95875 5.25765 5.84086 4.71334 4.82786 5.96976 6.24722 3.98525 3.58217 3.48684 3.44295
threshold=-0.16718384206069012 0.85245000000000015 0.0011777777777777778 4.6000000000046011e-05 0.77415000000000012 0.66965000000000008 -0.00031111111111098427 -0.2238027257872183 0.00018900000000005027 -0.0015924999999999965 -0.00017777777777777667 0.00043833333333331842 0.84055000000000013 -0.00066111111111116772 0.25706003723703957 -0.00031450000000010631 0.00020833333333336593 0.00029649999999992188 4.7499999999978122e-05 -0.00025750000000002155 -0.00015299999999990319 9.8999999999960244e-05 0.00047500000000005876 0.73945000000000005 0.76345000000000007 0.086371818566779945 0.00014400000000008853 -0.00016111111111111184 66.522698994010426 0.73125000000000007
decision_type=2 2 2 2 2 2 2 2 2 2 2 2 2 2 2 2 2 2 2 2 2 2 2 2 2 2 2 2 2 2
left_child=1 2 3 -1 5 -5 -6 -7 -8 -2 11 13 -13 14 -11 -16 17 20 -19 -18 -12 -22 29 -24 -25 26 -26 -3 -27 -21
right_child=9 27 -4 4 6 7 8 -9 -10 10 16 12 -14 -15 15 -17 19 18 -20 22 21 -23 23 24 25 28 -28 -29 -30 -31
leaf_value=-0.00011417557981954405 0.0048017929354718892 0.00048086746748416022 0.013456468508639319 0.011412754302102797 0.016886504497637785 -0.0041228404927859952 0.012245093236657496 0.0074504297540646568 -0.00081003923349146523 -0.0039737724064849642 -0.0040168664643268079 0.012334835367060702 -0.0032599819619417059 -0.0060614049400145188 0.011073785732873643 -0.0022662737956634397 0.010317705174942893 0.017888295865410547 0.0016422430943709499 0.00019715224501995414 0.005186638333496931 -0.0015877249845189817 -0.0048971475530871613 0.011697660571698656 -0.0021447153309101345 0.0043420344409732803 0.0077256124751465703 -0.0074696867727358967 -0.0049512119250155039 -0.0061914491964556633
leaf_weight=46.815899208188057 13.572087869048117 9.7601824253797549 8.9013519436120969 6.7186610698699978 7.2346913963556316 17.605769693851474 4.9221617430448514 7.186393290758132 7.5089488923549652 41.651958599686623 19.871803060173988 4.9009310305118543 4.8989062458276749 46.394018992781639 6.8448648601770428 13.334285512566565 4.9054955691099158 6.5557180345058423 6.3582873791456223 11.3978915810585 27.229501709342003 23.442180544137955 15.299243524670599 5.0658356845378867 5.7094510644674328 4.8987635672092464 12.921529412269591 12.679676190018652 19.372848019003868 29.329764917492867
leaf_count=287 83 60 54 41 44 108 30 44 46 256 122 30 30 286 42 82 30 40 39 70 167 144 94 31 35 30 79 78 119 180
internal_value=0 0.00204236 0.00331859 0.00237472 0.00466682 0.00186988 0.00906569 -0.000711521 0.00433587 -0.000815525 -0.00106584 -0.00302123 0.00448384 -0.00371356 -0.0019288 0.00224172 0.000129672 0.00184078 0.0100404 -0.00117297 0.000313485 0.00203597 -0.00173399 -8.74102e-06 0.00153653 0.000289059 0.00465217 -0.00398045 -0.0030244 -0.00438296
internal_weight=0 129.334 106.894 97.9925 51.1766 31.5108 19.6658 24.7922 12.4311 323.955 310.383 118.025 9.79984 108.225 61.8311 20.1792 192.358 83.4575 12.914 108.901 70.5435 50.6717 103.995 63.2677 47.9684 42.9026 18.631 22.4399 24.2716 40.7277
internal_count=2781 792 654 600 313 193 120 152 76 1989 1906 726 60 666 380 124 1180 512 79 668 433 311 638 388 294 263 114 138 149 250
is_linear=0
shrinkage=0.01


Tree=5
num_leaves=31
num_cat=0
split_feature=2 10 10 8 1 10 1 5 10 4 4 10 3 8 5 2 10 10 3 4 1 2 3 2 4 9 9 8 10 4
split_gain=9.61641 9.01891 11.1808 10.4424 14.2461 9.83264 10.4423 13.7111 11.8381 10.3098 9.18405 8.56677 8.30215 7.11342 6.49734 6.20596 6.52599 6.04136 5.83029 9.06755 5.58177 4.81221 4.79833 4.68275 5.58815 4.42696 4.36152 4.31472 4.19317 3.68503
threshold=0.0013540000000000776 0.01880357142857143 0.010360714285714298 31.121892467766994 0.0005864999999999344 0.0071214285714285763 -0.00025750000000002155 -0.00013333333333337413 0.0062321428571428658 0.0012875000000000527 0.00039000000000005702 0.0023571428571428402 0.000149999999999928 20.59519743692233 -0.0021722222222222416 -0.00040399999999990438 0.0042642857142857022 0.0038928571428571428 0.0010000000000000011 0.00057999999999996954 -0.00051250000000008223 -0.00039499999999997865 0.00032666666666664185 0.0004639999999999645 0.00088749999999987461 -0.12322716628373712 0.050114762173015123 29.939830924244038 0.0059142857142857252 -0.00088750000000004093
decision_type=2 2 2 2 2 2 2 2 2 2 2 2 2 2 2 2 2 2 2 2 2 2 2 2 2 2 2 2 2 2
left_child=1 2 5 14 21 6 10 8 12 11 15 -9 13 29 -4 28 -17 -15 19 -13 27 -5 26 -22 -25 -24 -14 -7 -1 -8
right_child=-2 -3 3 4 -6 20 7 9 -10 -11 -12 18 22 17 -16 16 -18 -19 -20 -21 23 -23 25 24 -26 -27 -28 -29 -30 -31
leaf_value=-0.0028581439905056107 -0.0080519401170760351 -0.0078859120775771584 0.0042534812122590341 0.0040031499378739201 -0.0029350853520291433 0.004735123333732643 0.0050796214125156695 0.0070407889129534117 -0.0042790175167444593 0.0067066793050923872 0.0045189732514464955 -0.00038526299813049572 -0.0042827493369020694 0.0031997159161210533 -0.0051814505698243819 -0.0010631931347496481 -0.0084167232805575955 0.0076685035646284275 0.0058992431044381233 -0.0042396694636956658 -0.0053496871065183719 0.010404314661205652 0.0075749221012616479 0.0032547503156255936 -0.0046591835716306932 -0.00026195608615860389 0.0030385076902874238 -0.003340822586293422 0.0044550165048566704 -0.0017108636803536833
leaf_weight=25.34755477309227 14.523394227027891 13.790118753910063 11.930472105741503 19.3952397108078 14.916185796260832 15.662465661764147 11.931037634611128 13.797098010778425 22.369103193283081 19.7696333527565 15.286441713571547 305.72389024496078 26.095666944980621 56.307388752698898 18.266171991825104 18.640478312969208 36.139444321393967 68.622258812189102 11.932498544454573 76.410033851861954 65.611196100711823 33.197246223688126 13.424424946308138 17.153923541307449 18.271135836839676 14.91466051340103 11.561667472124098 11.186141759157179 11.186202287673948 23.491448700428009
leaf_count=68 39 37 32 52 40 42 32 37 60 53 41 820 70 151 49 50 97 184 32 205 176 89 36 46 49 40 31 30 30 63
internal_value=0 0.000115126 0.00022629 0.0034396 0.00562655 -0.000117644 0.000301223 0.000760937 0.00262782 -0.000322892 -0.00260416 -0.000667635 0.0033164 0.00454488 -0.00141904 -0.00381119 -0.00593919 0.00566653 -0.000941778 -0.0011595 -0.00268813 0.00807473 0.000314054 -0.00376691 -0.000800485 0.00342885 -0.00200638 0.00133336 -0.000585595 0.000556024
internal_weight=0 1022.33 1008.54 97.7053 67.5087 910.836 782.951 676.351 248.718 427.633 106.6 407.864 226.349 160.352 30.1966 91.3137 54.7799 124.93 394.066 382.134 127.885 52.5925 65.9964 101.036 35.4251 28.3391 37.6573 26.8486 36.5338 35.4225
internal_count=2781 2742 2705 262 181 2443 2100 1814 667 1147 286 1094 607 430 81 245 147 335 1057 1025 343 141 177 271 95 76 101 72 98 95
is_linear=0
shrinkage=0.01


Tree=6
num_leaves=31
num_cat=0
split_feature=0 7 0 1 7 6 4 6 3 1 6 7 0 0 4 5 3 3 1 4 3 0 4 3 4 5 7 6 0 4
split_gain=23.1712 16.943 16.8997 17.616 13.6309 22.1307 13.1174 12.1707 11.1468 10.6866 14.349 16.4329 12.7791 15.1276 16.4047 16.5391 12.4782 12.0197 9.97915 9.73694 17.7052 12.1093 9.18475 10.0488 8.81954 8.23216 8.0615 7.67628 10.6677 7.06572
threshold=0.82530000000000014 43.297948500000004 0.75845000000000007 0.00042100000000006027 7.8912590000000007 -0.0072411111111111417 0.0012200000000001101 -0.014790500000000094 -0.00029999999999991139 -0.00017399999999995194 -0.015864166666666565 -86.902436999999992 0.80345000000000011 0.78085000000000016 -0.00017250000000007534 6.6666666666714849e-05 0.00021999999999994249 -0.00042999999999998589 0.0005864999999999344 0.00036000000000008253 0.00055333333333335022 0.70465000000000011 -0.00017750000000005259 0.0004216666666667091 -0.00035499999999993864 0.00081111111111115141 75.221754000000018 0.003500611111111052 0.84515000000000018 -0.00078250000000001918
decision_type=2 2 2 2 2 2 2 2 2 2 2 2 2 2 2 2 2 2 2 2 2 2 2 2 2 2 2 2 2 2
left_child=1 2 3 7 22 -6 26 -1 24 10 11 17 13 14 -11 -16 -17 29 -8 -10 21 -21 -2 27 -9 -3 -7 -24 -29 -4
right_child=4 25 9 -5 5 6 18 8 19 12 -12 -13 -14 -15 15 16 -18 -19 -20 20 -22 -23 23 -25 -26 -27 -28 28 -30 -31
leaf_value=-0.0083165163485535588 0.0088599827520203824 -0.0072319459894447258 0.0059289230399273479 0.0095848709990734599 -0.0065625831164826936 0.0022575033960862225 -0.0058963190413662192 -0.0003534908620168884 -0.0037949363632749358 0.0066454537732663086 0.0092677795584705236 -0.0078768426837920891 -0.0071381038500348435 0.0090270975171750645 -0.0060531473589470709 -0.002317032383300186 0.0061976398330060058 0.013070702766744234 0.0036323354767260037 0.0076356894873675918 -0.0065169623604036967 -0.0017588804062694389 -0.0065347347738114667 0.0083555615064321749 0.008901421236863544 -3.9466878770084442e-05 0.0079575573459016516 -0.0030795575791835519 0.0091897337276816149 -0.0036429079267799743
leaf_weight=30.835989356040955 42.29259580373764 58.86643460392952 14.924037367105482 12.758127033710478 33.802764028310776 75.368700563907623 27.957562178373337 29.114617705345154 181.71157920360565 28.7530677318573 34.659211874008179 14.905390650033949 21.807217061519623 20.425479859113693 51.261791408061981 38.895028620958328 30.593278646469116 11.3169082403183 17.853963524103165 31.364284008741379 25.404182106256485 24.022010028362274 12.736044824123381 21.141590923070908 15.664254665374754 22.180608451366425 37.555644512176514 14.570800065994264 13.488430947065352 15.657299369573591
leaf_count=85 116 162 41 35 93 207 77 80 500 79 95 41 60 56 141 107 84 31 49 86 70 66 35 58 43 61 103 40 37 43
internal_value=0 -0.000974859 -0.000422468 -0.00189013 0.00234853 0.000764678 0.00233446 -0.00232878 -0.00172214 0.00139242 0.00420309 0.00108439 4.49546e-05 0.000976305 -0.000122228 -0.00174619 0.00142083 0.00430735 -0.00216115 -0.00251083 0.0003661 0.00354725 0.00526119 0.00277738 0.00287434 -0.00527834 0.0041674 -0.000102351 0.00279462 0.00099976
internal_weight=0 715.121 634.074 350.875 296.768 192.539 158.736 338.117 307.281 283.199 91.4628 56.8036 191.736 169.929 149.503 120.75 69.4883 41.8982 45.8115 262.502 80.7905 55.3863 104.229 61.9369 44.7789 81.047 112.924 40.7953 28.0592 30.5813
internal_count=2781 1966 1743 965 815 529 436 930 845 778 251 156 527 467 411 332 191 115 126 722 222 152 286 170 123 223 310 112 77 84
is_linear=0
shrinkage=0.01


Tree=7
num_leaves=31
num_cat=0
split_feature=10 5 2 3 1 3 6 6 10 10 3 3 2 10 4 9 4 6 3 10 5 3 3 1 9 1 6 6 6 4
split_gain=12.8051 12.7395 7.58243 8.63195 7.2314 6.2515 21.525 6.92831 9.79046 6.55794 13.8452 8.99662 7.46568 11.1705 9.24736 6.19894 5.92856 5.64755 6.32575 5.50692 5.34855 5.32091 15.7522 5.16679 4.80716 4.72794 5.40863 9.24738 7.44471 4.60787
threshold=0.0051178571428571436 -0.00021111111111099531 -0.00031900000000006917 0.00014666666666668385 -0.00027849999999990377 -0.00069500000000000106 -0.024185999999999982 0.034153277777777664 0.0067464285714285708 0.011150000000000012 -7.0000000000069993e-05 -0.00028666666666671276 0.00045899999999998725 0.0077035714285714372 0.0013774999999999762 0.078257343223821871 0.00084000000000000752 0.0062557777777777499 -0.00032999999999988589 0.0030357142857142809 0.00020555555555551444 0.0006533333333333392 0.0003833333333334577 -0.00031450000000010631 0.15874164961425627 -0.00024199999999996444 0.00096188888888887336 -0.0019559444444444125 -0.0087454444444444151 6.9999999999958997e-05
decision_type=2 2 2 2 2 2 2 2 2 2 2 2 2 2 2 2 2 2 2 2 2 2 2 2 2 2 2 2 2 2
left_child=1 23 -3 25 -5 -2 -7 8 15 11 -11 -10 13 -13 20 17 -15 18 -8 -6 -14 22 -19 -1 -21 -4 27 28 -27 -29
right_child=5 2 3 4 19 6 7 -9 9 10 -12 12 14 16 -16 -17 -18 21 -20 24 -22 -23 -24 -25 -26 26 -28 29 -30 -31
leaf_value=0.0031028230701713537 -0.0012182019168209643 -0.0068004487697330765 -0.0053936398949517407 0.010225647972282171 -0.0074919545409159695 0.020146579942155074 0.0083184563371029082 -0.0050918595345362475 -0.0025581746392544418 0.012291369110509978 -0.007432933651107294 0.022340526310560618 0.0082852677526153318 0.01218184378075148 0.013861613276730156 -0.0037827561119301695 -0.00040624390756548292 0.0019433116517667912 -0.0044826642660530797 0.0012117930499110942 -0.0043935859954878911 -0.0017579359568266246 0.022140350237776104 -0.0055721344823175204 -0.0046664230319969184 0.012247285224582552 0.0017303835931687206 0.022163479546078838 -0.0029304739864126311 0.0082774617988991099
leaf_weight=7.3437011837959281 51.802502125501633 14.469639360904692 5.2085179090499869 4.9295993000268927 15.267905637621878 6.734024927020072 4.905886963009837 12.522428497672079 8.1619331389665586 5.4127521812915811 9.9239181727170909 7.9016396701335934 4.9155731201171902 9.9895754456520063 6.8729389905929557 26.503538534045219 5.6976657211780539 12.429235056042677 16.45086595416069 40.665033996105194 9.774033457040785 7.0303416848182669 5.6033384054899207 74.580198362469673 20.920177459716797 4.9216506183147422 33.044058993458748 4.9282239675521833 8.8180884420871752 5.5489409416913986
leaf_count=45 318 89 32 30 94 41 30 77 50 33 61 48 30 61 42 163 35 76 101 249 60 43 34 460 129 30 202 30 54 34
internal_value=0 -0.00157933 6.80877e-05 0.000768218 -0.00136042 0.00178791 0.00276253 0.00198379 0.00261985 0.00532743 -0.00037235 0.00698344 0.0087322 0.0126353 0.00437756 5.34352e-05 0.00757285 0.00226865 -0.00147043 -0.00212891 -5.5921e-05 0.00548774 0.00836186 -0.00477948 -0.000773123 0.00356866 0.00440929 0.0080014 0.00248324 0.0150515
internal_weight=0 240.646 158.722 144.252 81.7827 212.632 160.83 154.096 141.573 68.65 15.3367 53.3134 45.1514 23.5889 21.5625 72.9232 15.6872 46.4197 21.3568 76.8531 14.6896 25.0629 18.0326 81.9239 61.5852 62.4695 57.261 24.2169 13.7397 10.4772
internal_count=2781 1478 973 884 502 1303 985 944 867 420 94 326 276 144 132 447 96 284 131 472 90 153 110 505 378 382 350 148 84 64
is_linear=0
shrinkage=0.01


Tree=8
num_leaves=31
num_cat=0
split_feature=0 7 0 0 1 4 4 3 0 1 8 2 7 1 3 1 3 1 3 3 2 2 7 3 3 0 4 1 7 7
split_gain=22.5765 21.7375 16.3104 14.9088 14.2338 14.2396 14.3782 14.0864 11.9142 11.7275 14.5249 15.066 13.077 11.2233 11.2211 11.3567 12.8924 10.1146 9.79125 8.87153 8.26209 8.50886 9.42258 8.32125 7.93898 9.83099 12.9275 12.5666 7.59857 7.0867
threshold=0.75905000000000011 0.57412550000000007 0.65245000000000009 0.80100000000000005 0.00042849999999994287 0.00076500000000007129 0.00046750000000000963 0.00045833333333328291 0.84595000000000009 0.0005864999999999344 57.002160033485488 -0.00053200000000003234 63.975536500000011 0.00019250000000003989 0.00046499999999999325 -0.00015299999999990319 -0.0011483333333332511 0.00031199999999997902 0.00037000000000003702 4.1666666666606573e-05 -0.00018800000000002146 -3.5999999999869463e-05 14.424761500000001 -0.00065000000000003933 5.0000000000105522e-05 0.81325000000000014 -0.00017250000000007534 7.6000000000020509e-05 61.659310500000011 11.075283500000003
decision_type=2 2 2 2 2 2 2 2 2 2 2 2 2 2 2 2 2 2 2 2 2 2 2 2 2 2 2 2 2 2
left_child=2 8 -1 7 5 6 13 -3 14 10 11 -5 18 20 15 16 -2 -14 -12 -15 23 -22 29 -4 25 26 -17 -28 -11 -23
right_child=1 3 4 9 -6 -7 -8 -9 -10 28 12 -13 17 19 -16 24 -18 -19 -20 -21 21 22 -24 -25 -26 -27 27 -29 -30 -31
leaf_value=0.013265527313208805 0.0044500399239437846 0.010866818191792209 0.0054801172974115585 0.0050562671677773967 -0.0094511593986488472 0.0085504997229373901 -0.00407168540482285 -0.00022939312244779194 -0.0072110042726021787 0.00034431434040532038 0.012774604543146511 -0.00310653985602386 -0.0056571775814885606 -0.0074141078097788842 -0.0076050145952304121 -0.005392107181533037 -0.0058662319490722838 0.0045472549634198887 0.0035235538220000921 0.00097498882048442138 0.008737946194131303 0.002841455896268814 0.008466169158197475 -0.0022029981777871225 -0.0016893164456522761 0.0088480168876242729 0.0093952659173351175 -0.0019484708030368615 -0.0085272801864550093 -0.0047565925862795323
leaf_weight=12.321989834308622 14.166833132505415 26.492590725421906 20.525924474000931 29.092016279697418 11.172167330980299 29.860711306333542 42.475042283535004 19.767627656459808 51.03999325633049 15.653086751699446 20.521418184041977 99.506587266921997 18.249439775943756 18.627507418394089 32.040779650211334 23.112035006284714 77.490130364894867 20.517438292503357 26.858091950416565 38.034750133752823 36.203934222459793 73.864666134119034 25.740880876779556 44.355660647153854 113.3171089887619 18.269323498010635 20.518668681383133 18.27322456240654 24.209331274032593 14.54576602578163
leaf_count=33 38 71 55 78 30 80 114 53 137 42 55 267 49 50 86 62 208 55 72 102 97 198 69 119 304 49 55 49 65 39
internal_value=0 -0.001094 0.00199007 0.000897396 0.00159271 0.00195669 0.00132468 0.00611342 -0.00272362 -4.84171e-05 0.000872891 -0.00124966 0.00405078 0.00217254 -0.00199634 -0.00136016 -0.0042577 -0.000232931 0.00756998 -0.00177348 0.00321633 0.00450299 0.00314462 0.000216934 8.73546e-06 0.00242034 0.00049604 0.00403473 -0.00502643 0.00157612
internal_weight=0 669.096 367.729 300.868 355.407 344.235 314.374 46.2602 368.228 254.607 214.745 128.599 86.1464 271.899 317.188 285.147 91.657 38.7669 47.3795 56.6623 215.237 150.355 114.151 64.8816 193.49 80.1733 61.9039 38.7919 39.8624 88.4104
internal_count=2781 1795 986 807 953 923 843 124 988 683 576 345 231 729 851 765 246 104 127 152 577 403 306 174 519 215 166 104 107 237
is_linear=0
shrinkage=0.01


Tree=9
num_leaves=31
num_cat=0
split_feature=0 10 10 1 2 0 7 7 1 10 3 2 0 7 3 4 7 2 0 7 7 1 7 2 1 10 7 0 1 2
split_gain=22.7378 17.3617 15.157 14.0385 21.7041 13.6637 13.2322 15.9685 13.3772 14.8623 10.9989 14.0816 9.19432 20.7941 9.24932 8.97672 10.1842 9.9745 8.17634 7.80065 7.57921 6.93783 8.39918 11.6807 9.93636 10.1501 7.35768 6.91502 6.45953 14.0853
threshold=0.82530000000000014 0.0052321428571428562 0.010360714285714298 -9.4999999999956217e-05 -0.00031900000000006917 0.6553500000000001 7.8912590000000007 61.659310500000011 0.0005864999999999344 0.014289285714285709 -0.00065000000000003933 -0.00026199999999998441 0.78085000000000016 45.627126000000011 -0.00041666666666656521 0.00046750000000000963 -92.09254399999999 -0.0001429999999999487 0.81525000000000014 76.154584500000013 -78.039356499999982 0.00038299999999985573 -86.495824499999983 0.00026599999999998852 0.00010000000000004451 0.0042642857142857022 -97.675457999999978 0.66675000000000006 0.00035249999999997789 0.00055299999999997029
decision_type=2 2 2 2 2 2 2 2 2 2 2 2 2 2 2 2 2 2 2 2 2 2 2 2 2 2 2 2 2 2
left_child=1 5 10 4 18 -1 -4 -8 9 -9 -2 -12 15 14 -14 17 -17 -7 -3 -13 -6 22 23 26 27 -26 -19 -24 -5 -30
right_child=2 3 6 28 20 12 7 8 -10 -11 11 19 13 -15 -16 16 -18 21 -20 -21 -22 -23 24 -25 25 -27 -28 -29 29 -31
leaf_value=-0.0096849314817700292 0.0099108546544462526 -0.0055952476412190156 0.0087460460214845871 -0.0075943581206089237 0.0016924184106949563 0.0023781963031865639 -0.0061569607400094066 -0.0096225850110707722 0.009209959219623691 0.0048922530242601547 -0.0041013271119479432 0.0032252525105873442 -0.0010284619892275012 -0.0059147088720260541 0.0089824529070220739 -0.0014903910789860197 0.0056759093102691106 -0.0034149226221131868 0.0029112647565556348 0.0099297367855799498 0.013196863592957223 0.0050533236046649745 -0.0022662565030668992 0.0093638586643861252 0.0003539666039580499 -0.0074167413722567299 0.0012909062125680119 -0.010571572570344683 -0.0097771749926294452 0.0031095223044849173
leaf_weight=14.117565602064131 27.023606777191162 47.543136239051819 12.774141848087309 73.614090204238892 11.313932299613954 71.020920425653458 46.832479596138 13.404321610927584 16.809038579463959 14.593937307596205 23.633047550916672 121.39083969593048 11.660030812025068 17.045444935560226 40.923512130975723 33.480354636907578 47.789935022592545 74.803128212690353 14.572943866252897 20.454477250576019 12.056327462196348 13.856331408023832 15.610345959663389 10.949898004531859 57.098763406276703 23.590082734823227 59.25062957406044 30.120350033044815 14.508648425340651 19.983973741531372
leaf_count=39 74 131 35 203 31 195 129 37 46 40 65 333 32 47 112 92 131 206 40 56 33 38 43 30 157 65 163 83 40 55
internal_value=0 -0.000966167 0.00232556 -0.00352262 -0.000480401 -1.44082e-05 -0.000733798 -0.00207424 0.00217496 -0.00203073 0.00398968 0.00301128 0.000254649 0.00362814 0.00674588 -0.000280584 0.00271317 -0.000966818 -0.00358201 0.00420542 0.00770092 -0.00180361 -0.00215908 -0.000507931 -0.00404315 -0.00191186 -0.00132812 -0.00776947 -0.00591637 -0.0022947
internal_weight=0 714.91 296.916 193.593 85.4863 521.317 104.414 91.6398 44.8073 27.9983 192.502 165.478 507.2 69.629 52.5835 437.571 81.2703 356.3 62.1161 141.845 23.3703 285.28 271.423 145.004 126.42 80.6888 134.054 45.7307 108.107 34.4926
internal_count=2781 1966 815 533 235 1433 287 252 123 77 528 454 1394 191 144 1203 223 980 171 389 64 785 747 399 348 222 369 126 298 95
is_linear=0
shrinkage=0.01


Tree=10
num_leaves=31
num_cat=0
split_feature=10 0 5 7 4 7 7 7 9 4 7 5 7 2 10 0 0 7 7 2 10 9 2 7 10 9 1 4 0 10
split_gain=12.6142 15.7202 12.6283 10.332 15.0205 15.0775 9.76063 18.2945 9.52041 14.5062 15.4497 13.9801 8.50579 8.3669 9.68713 12.3686 9.7745 7.89992 16.4578 11.7009 16.4526 5.81961 8.35068 8.86624 7.00013 5.79739 5.12184 4.58495 4.44267 3.04319
threshold=0.0051178571428571436 0.82245000000000013 -0.00021111111111099531 33.230896000000008 0.00047500000000005876 -77.312298499999983 13.867634500000001 11.935984000000003 -0.18459784365731452 0.00040000000000001151 39.216732500000006 0.00016666666666670385 25.743487000000005 -0.00031900000000006917 0.0041285714285714302 0.77840000000000009 0.77165000000000006 -92.721363499999981 -100.1206395 6.3999999999897486e-05 0.0068035714285714409 0.1159024139818841 8.0000000000135532e-05 -99.133836499999987 0.0031607142857142871 0.068407144341099541 -0.00031450000000010631 -0.0015024999999999065 0.75505000000000011 0.0079821428571428491
decision_type=2 2 2 2 2 2 2 2 2 2 2 2 2 2 2 2 2 2 2 2 2 2 2 2 2 2 2 2 2 2
left_child=2 8 26 4 12 -6 7 13 9 10 11 -2 27 -4 21 16 25 18 -10 -19 -21 22 -15 -24 -25 28 -1 -3 -16 -5
right_child=1 3 6 29 5 -7 -8 -9 17 -11 -12 -13 -14 14 15 -17 -18 19 -20 20 -22 -23 23 24 -26 -27 -28 -29 -30 -31
leaf_value=0.003070433362097431 0.00051584900308792431 0.0059152818883328045 -0.0074491861967271337 -0.0061286255950935087 0.02437214759292702 0.0033029287063094295 -0.0045033959502516832 0.020066947930358826 0.0008237105797566052 -0.001944232407223744 0.028845559512540669 0.021036656634575247 0.01106524176786022 -0.0027953050724938058 0.0067517684678796768 -0.0030364126184469066 0.022048954221247991 -0.0050714292816934825 0.020137605438061913 0.00020678687554254627 0.018989066536110356 -0.0051224025585853766 0.015429222207215376 -0.0049812283095328055 0.0076950111867398734 0.012812570928543644 -0.0055574561587745852 -0.0043782275746261897 -0.0052933018976950739 -0.0016003322983600629
leaf_weight=7.3638657033443442 8.4829856604337746 5.0570802837610236 11.482721045613287 21.336886316537857 5.5149300098419181 9.0326763689517957 35.909329205751419 4.9468516856431952 11.728603765368463 7.251358523964881 5.3737238496541968 5.4724933356046668 5.239961549639701 25.167038112878799 7.5384356230497414 11.221680596470831 4.946808233857154 20.312671184539795 7.0949181765317908 17.775754004716877 6.2779015004634848 20.754140183329582 6.3977187424898174 8.1667452007532138 9.0259939432144147 8.2082691043615323 74.245934277772903 25.210819765925411 4.9445204585790634 51.779084146022797
leaf_count=45 52 31 71 131 33 55 221 30 72 44 32 33 32 154 46 69 30 125 43 109 38 128 39 50 55 50 460 155 30 318
internal_value=0 0.00177223 -0.00156958 -0.000540376 0.00294663 0.0114703 6.86219e-05 0.00141628 0.00495348 0.00997933 0.0144909 0.00872643 -0.000539852 0.000608603 0.00149401 0.00563372 0.00946451 0.00281115 0.00822425 0.000478687 0.00520861 -0.000691717 0.00118041 0.00545793 0.00162184 0.00631618 -0.0047639 -0.00261167 0.00189707 -0.00294201
internal_weight=0 212.942 240.32 123.171 50.0555 14.5476 158.71 122.801 89.7704 26.5806 19.3292 13.9555 35.5079 117.854 106.371 36.8597 25.638 63.1898 18.8235 44.3663 24.0537 69.5116 48.7575 23.5905 17.1927 20.6912 81.6098 30.2679 12.483 73.116
internal_count=2781 1303 1478 755 306 88 973 752 548 161 117 85 218 722 651 225 156 387 115 272 147 426 298 144 105 126 505 186 76 449
is_linear=0
shrinkage=0.01


Tree=11
num_leaves=31
num_cat=0
split_feature=0 7 0 6 1 3 1 0 5 8 3 1 0 8 3 7 3 0 6 6 8 3 6 0 0 7 7 5 5 7
split_gain=22.0243 21.2494 16.04 15.58 13.917 13.5124 12.5756 11.6597 15.3023 15.4438 11.3134 15.0421 10.673 11.6641 10.9602 10.8624 10.2432 9.73003 9.6442 8.69309 9.71863 8.80392 9.75651 8.62445 8.51478 8.74187 8.99327 7.94265 11.0073 7.61773
threshold=0.75905000000000011 0.57412550000000007 0.65245000000000009 -0.020279333333333368 0.00042849999999994287 0.0010816666666666477 0.00010000000000004451 0.84660000000000013 -0.00019444444444438599 60.127250305165639 0.00046499999999999325 -0.00017399999999995194 0.80100000000000005 72.051707417435082 0.00045833333333328291 67.224463500000013 -0.00018666666666661277 0.83855000000000013 0.0058726111111111487 0.0042257777777776626 17.539388261640962 -0.00086666666666662662 -0.0047419444444443673 0.82600000000000007 0.83040000000000014 63.975536500000011 52.089623500000009 0.0006333333333333192 -0.00035555555555560886 53.684371000000006
decision_type=2 2 2 2 2 2 2 2 2 2 2 2 2 2 2 2 2 2 2 2 2 2 2 2 2 2 2 2 2 2
left_child=2 7 -1 -3 5 6 -4 8 9 17 11 -10 14 19 -5 -15 -8 23 -18 20 -14 -22 -23 -2 -21 26 -26 28 -20 -24
right_child=1 3 4 12 -6 -7 16 -9 10 -11 -12 -13 13 15 -16 -17 18 -19 27 24 21 22 29 -25 25 -27 -28 -29 -30 -31
leaf_value=0.013141002933120979 -0.00041433467238865667 0.011685982799655142 0.0032732287226660468 0.0099940702341137274 -0.009357043960368237 0.01234395675052171 -0.0090689086540865251 -0.0072710303256512277 -0.0087023746491031971 0.011579297861295655 -0.0099124829799858809 -0.0012180395437977195 -0.0060754278484371838 0.007787877485597749 -0.0002427531687359416 -0.00093444348178241753 0.0060437758513345518 0.0082169054400740779 0.0031079060239343655 0.00276684153214 -0.0053614941987280319 0.0073732464159997051 -0.0055595232416531656 -0.0095294516541073598 -0.0054818625876456566 -0.0085468627424740394 0.0042875016087140809 0.0031231773889513416 -0.0051640799619848124 0.0042289140544644853
leaf_weight=12.334613323211668 98.764889001846313 12.70039042830467 186.18215826153755 21.660946905612946 11.156355142593382 11.954581052064894 13.028306663036345 48.380357623100281 34.234843075275421 11.565088540315626 26.419461637735367 125.60658442974091 17.875834971666336 29.48951244354248 19.770388185977936 27.203558146953583 23.13781401515007 11.557104140520094 22.389316558837891 16.404875099658966 13.045597553253172 33.205108255147934 14.908517599105837 11.542281210422514 24.966164946556091 37.967531114816666 14.910424172878264 32.074227303266525 55.548822939395905 16.772989094257355
leaf_count=33 265 34 499 58 30 32 35 130 92 31 71 337 48 79 53 73 62 31 60 44 35 89 40 31 67 102 40 86 149 45
internal_value=0 -0.00108081 0.00196521 0.000887809 0.00157102 0.00193062 0.00154946 -0.0026926 -0.00199453 0.000583775 -0.00384621 -0.00283173 0.000404567 -0.00038091 0.00509632 0.00359068 -0.000639942 -0.000460154 0.000183487 -0.00157214 0.000539997 0.00207608 0.00359276 -0.00138494 -0.00372811 -0.00511148 -0.00180236 -0.00104434 -0.00277403 -0.000348812
internal_weight=0 668.952 367.806 300.882 355.472 344.315 332.361 368.071 319.69 133.429 186.261 159.841 288.181 246.75 41.4313 56.6931 146.178 121.864 133.15 190.057 95.808 77.9322 64.8866 110.307 94.249 77.8441 39.8766 110.012 77.9381 31.6815
internal_count=2781 1795 986 807 953 923 891 988 858 358 500 429 773 662 111 152 392 327 357 510 257 209 174 296 253 209 107 295 209 85
is_linear=0
shrinkage=0.01


Tree=12
num_leaves=31
num_cat=0
split_feature=2 7 7 7 3 4 3 4 4 3 3 2 7 3 7 1 7 4 9 1 2 1 4 4 7 8 5 1 1 8
split_gain=12.5959 16.1028 20.1014 14.7262 12.0492 10.5231 13.438 10.4252 13.7103 10.862 10.7011 9.22851 9.21445 8.96003 8.82522 8.34548 14.6355 7.98971 16.3268 7.72733 16.1449 6.84225 6.58017 8.97484 10.9004 6.52473 7.65679 6.11077 6.35185 5.90933
threshold=0.0013540000000000776 1.7320070000000001 -97.675457999999978 75.221754000000018 0.00066666666666675989 -0.0006025000000000057 8.1666666666646584e-05 0.0011824999999999755 0.00033249999999995788 -0.00017500000000003621 0.0010550000000000284 -0.00053200000000003234 24.783102500000002 0.00044666666666665083 36.912903500000006 0.00018300000000009978 26.694113500000004 0.00047500000000005876 0.1721514966958394 -0.00029799999999996491 -0.00059099999999989705 -0.00018650000000003383 0.00023749999999994611 -0.00017250000000007534 -86.003955999999988 77.09397657009869 -0.0009388888888888779 1.0999999999927736e-05 -0.00071900000000002507 23.327611586436777
decision_type=2 2 2 2 2 2 2 2 2 2 2 2 2 2 2 2 2 2 2 2 2 2 2 2 2 2 2 2 2 2
left_child=1 2 25 7 5 27 19 8 9 11 12 14 -10 -14 -3 -11 -17 -8 -19 20 -7 -13 23 24 -21 26 29 28 -4 -1
right_child=-2 3 4 -5 -6 6 17 -9 10 15 -12 21 13 -15 -16 16 -18 18 -20 22 -22 -23 -24 -25 -26 -27 -28 -29 -30 -31
leaf_value=-0.00097001279961705087 0.0092902399759121519 -0.0086962780537893965 0.00086880514533689492 0.0029136762994049731 0.012835348018467682 -0.004268960297957273 0.0052051074409255682 -0.0069841498629386782 0.0066186275385706492 -0.0064058192114182545 -0.0066156542936811735 0.0067105680930434055 -0.0029076026904612264 0.004301787330763464 0.0023784650935426343 0.0052098694042645227 -0.0052410521313777693 -0.003781077287286265 0.0098386216228819635 0.0074887567608284992 0.010443881224649601 -0.00029585399521833217 0.0034485980620379809 -0.006163552952263192 -0.0050296107903202141 -0.0070405538244246325 0.00017713205346463068 -0.00031937440235371456 0.0092538254471340436 -0.0093602589602078158
leaf_weight=17.447401314973831 14.286129832267759 20.279823511838917 12.052364498376845 66.03020441532135 10.979990661144255 14.206202656030657 89.372948974370956 40.507855981588364 33.601732105016708 96.48525083065033 15.245820939540861 19.70853465795517 39.251990914344788 30.549241632223129 10.880711346864699 20.387157797813416 38.409609973430634 31.682104587554932 12.07282245159149 13.12364372611046 15.369199335575102 46.181726694107056 15.330790370702742 50.817778348922729 14.526321709156035 19.223061442375183 134.45565614104271 12.740229517221449 39.858974367380142 16.673645049333572
leaf_count=48 39 56 33 181 30 39 245 112 92 266 42 54 108 84 30 56 106 87 33 36 42 127 42 140 40 53 370 35 109 46
internal_value=0 -0.000134127 0.00108233 -0.00146067 0.00256171 0.00220346 0.00128853 -0.00216558 -0.001635 -0.00295398 0.00116181 -0.000317831 0.00232347 0.000234997 -0.00480195 -0.00459386 -0.00159763 0.00349258 0 -0.00108258 0.00335247 0.00179169 -0.00249371 -0.00367034 0.000881585 -0.00152868 -0.000890418 0.00581037 0.0073317 -0.0051146
internal_weight=0 997.453 519.933 477.52 332.133 321.153 256.502 411.489 370.982 252.333 118.649 97.0508 103.403 69.8012 31.1605 155.282 58.7968 133.128 43.7549 123.374 29.5754 65.8903 93.7985 78.4677 27.65 187.8 168.577 64.6516 51.9113 34.121
internal_count=2781 2742 1428 1314 911 881 704 1133 1021 695 326 267 284 192 86 428 162 365 120 339 81 181 258 216 76 517 464 177 142 94
is_linear=0
shrinkage=0.01


Tree=13
num_leaves=31
num_cat=0
split_feature=10 0 5 7 8 10 7 7 9 8 7 5 2 10 0 0 2 7 7 2 8 8 0 9 2 7 10 8 10 1
split_gain=12.4155 15.3877 12.4898 10.1736 18.2698 10.1969 9.63068 17.7413 9.25636 12.2849 12.0999 10.2244 8.28151 9.50336 12.1065 9.33465 8.1627 7.68993 15.823 11.5355 16.7911 6.89819 8.63622 5.76203 8.21303 8.58103 6.8924 5.48654 5.34561 5.09378
threshold=0.0051178571428571436 0.82245000000000013 -0.00021111111111099531 33.230896000000008 45.38527369248731 0.0068035714285714409 13.867634500000001 11.935984000000003 -0.18459784365731452 63.328769164854698 39.216732500000006 0.00016666666666670385 -0.00031900000000006917 0.0041285714285714302 0.77840000000000009 0.77165000000000006 0.00014400000000008853 -92.721363499999981 -100.1206395 6.3999999999897486e-05 51.041200630707372 77.317812742976088 0.73945000000000005 0.1159024139818841 8.0000000000135532e-05 -99.133836499999987 0.0031607142857142871 33.002983847257248 0.0077785714285714255 -0.00031450000000010631
decision_type=2 2 2 2 2 2 2 2 2 2 2 2 2 2 2 2 2 2 2 2 2 2 2 2 2 2 2 2 2 2
left_child=2 8 29 4 -3 16 7 12 9 10 11 -2 -4 23 15 21 -6 18 27 -19 -21 22 -15 24 -14 -26 -27 -10 -7 -1
right_child=1 3 6 -5 5 28 -8 -9 17 -11 -12 -13 13 14 -16 -17 -18 19 -20 20 -22 -23 -24 -25 25 26 -28 -29 -30 -31
leaf_value=0.0030623204505262555 0.00067066732920329343 -0.0031341586377718134 -0.0074411240708819404 -0.002925987733275133 -0.0072692481445725604 0.023528733685065029 -0.004485966518130614 0.019622127292334975 -0.0056969535152653298 -0.0024919796397476035 0.024006866694081547 0.018547750724081626 -0.0027836525180445905 0.0096011707148551152 -0.0030281821224460827 0.021510004317786477 0.0087512541612286693 -0.005057618867696765 0.019641438035289636 0.018308860047558204 -5.3621416284737422e-05 0.014605722837727573 -0.0058950155186436193 -0.0051091584921357505 0.015130805456954194 -0.004968136086796103 0.0076048717593800831 0.0078410521992654386 0.0094239022004859348 -0.0055410472104586448
leaf_weight=7.3689208328723899 8.3221819996833855 24.879842951893806 11.415537387132643 72.918003425002098 4.9231642633676556 5.024717450141905 35.765193194150925 5.0254537016153327 6.0393271744251269 6.0897051990032187 7.1536437869071952 5.2336109876632682 25.11865197122097 7.4316103756427818 11.205634459853171 5.0361369252204886 8.4318676292896253 20.238080650568008 7.2198044508695594 6.8278770744800594 17.326309055089951 6.6342331022024146 6.723659485578537 20.680010110139847 6.4783700555563 8.138937786221506 9.0758112519979459 5.7087115496397018 6.9242913872003555 73.874295890331268
leaf_count=45 51 153 71 449 30 30 221 30 37 37 42 31 154 45 69 30 51 125 43 41 106 40 41 128 39 50 55 35 42 460
internal_value=0 0.00175598 -0.00155922 -0.000535838 0.00291611 0.00889324 6.73551e-05 0.00140242 0.0048934 0.00982513 0.0134897 0.00773115 0.000601631 0.00147908 0.00556641 0.00933143 0.00276104 0.0027795 0.00809438 0.000473 0.00514992 0.00624453 0.00218072 -0.000689501 0.00116914 0.00539588 0.00160838 0.000807809 0.0155842 -0.00474561
internal_weight=0 213.261 239.972 123.102 50.1839 25.304 158.729 122.964 90.1593 26.7991 20.7094 13.5558 117.939 106.523 37.0313 25.8256 13.355 63.3601 18.9678 44.3923 24.1542 20.7895 14.1553 69.4918 48.8118 23.6931 17.2147 11.748 11.949 81.2432
internal_count=2781 1303 1478 755 306 153 973 752 548 161 124 82 722 651 225 156 81 387 115 272 147 126 86 426 298 144 105 72 72 505
is_linear=0
shrinkage=0.01


Tree=14
num_leaves=31
num_cat=0
split_feature=0 0 1 4 4 1 3 2 10 2 9 3 2 10 8 0 1 2 0 1 10 4 8 2 1 10 9 9 8 4
split_gain=21.4965 15.6968 13.663 13.8782 13.947 10.8976 8.60124 8.11256 9.67278 9.6967 12.0512 8.11325 6.97971 10.5595 15.8889 10.103 14.8175 18.7598 16.2137 9.73482 9.4362 9.05746 13.5814 8.07954 7.57937 8.16137 6.71444 6.54271 6.5077 6.45572
threshold=0.75905000000000011 0.65245000000000009 0.00042849999999994287 0.00076500000000007129 0.00046750000000000963 0.00019250000000003989 4.1666666666606573e-05 -0.00018800000000002146 0.0035250000000000047 -1.9999999999964487e-05 -0.0062319736473372186 -0.00078833333333339073 0.0013540000000000776 0.010360714285714298 55.365933617937081 0.82600000000000007 -0.00017399999999995194 -0.00040399999999990438 0.79575000000000007 0.0005750000000000478 0.0065321428571428605 0.00012500000000009728 20.351827609351478 -0.00087099999999995504 0.00027699999999991626 0.00460357142857143 0.0659146537894163 0.1926687152012366 63.001614810534399 -0.00023499999999992968
decision_type=2 2 2 2 2 2 2 2 2 2 2 2 2 2 2 2 2 2 2 2 2 2 2 2 2 2 2 2 2 2
left_child=1 -1 3 4 5 7 -7 11 9 -9 -11 -3 13 15 23 16 17 -2 21 -16 -20 22 -18 -15 25 -23 -8 29 -26 -24
right_child=12 2 -4 -5 -6 6 26 8 -10 10 -12 -13 -14 14 19 -17 18 -19 20 -21 -22 24 27 -25 28 -27 -28 -29 -30 -31
leaf_value=0.01299078789854651 0.00042863306232911321 0.006425098975587829 -0.0092835846742568978 0.0084126243211034152 -0.0040336071187399803 -0.0073301147017628592 -0.0018156761779565863 0.008065365409820606 0.0071200822793485467 -0.0044349634235609997 0.0045074196438698901 -0.0018084146044853818 -0.007917456437058051 0.0050968828477450491 0.010148986457419023 -0.0033499585446222098 -0.00813472649891233 -0.0082259996743700003 0.0081778613730135313 -0.00055057624086757241 -0.00064503481182367182 -0.0022476983820603337 -0.003753423725209063 -0.0029173074923278058 0.0070966678443169992 -0.009715040220808973 0.0072718731951432625 0.0087219382605764756 -0.0026430501895309167 0.0034031925510340268
leaf_weight=12.34778246283531 51.433398306369781 15.69418555498123 11.142797261476515 29.895213901996613 42.45200514793396 18.604674816131592 26.483967959880829 19.797572761774063 70.59257248044014 30.211592465639111 29.871282875537876 49.214133769273758 14.493207573890684 16.418195158243179 28.030527889728546 189.11284306645393 12.295011401176451 48.319846034049988 39.568933129310608 11.925614625215529 17.144625216722488 55.519389808177948 16.398972392082214 52.148840248584747 12.687524676322939 20.105006515979767 11.567554920911787 16.421068489551544 14.533500075340269 52.237667918205261
leaf_count=33 138 42 30 80 114 50 71 53 189 81 80 132 39 44 75 508 33 130 106 32 46 149 44 140 34 54 31 44 39 140
internal_value=0 0.00194111 0.00155099 0.00190705 0.00128298 0.00211749 -0.00177127 0.00314542 0.00441965 0.00201479 0 0.000173806 -0.00106813 -0.000913701 0.00192998 -0.00148122 -0.000486909 -0.00375764 0.000780122 0.00693715 0.00549664 -0.000553091 0.00162595 -0.00097914 -0.00262504 -0.00425633 0.000932521 0.00305649 0.00186932 0.00167578
internal_weight=0 367.875 355.528 344.385 314.49 272.038 56.6562 215.381 150.473 79.8804 60.0829 64.9083 668.794 654.301 108.523 545.778 356.665 99.7532 256.912 39.9561 56.7136 200.198 97.3527 68.567 102.845 75.6244 38.0515 85.0577 27.221 68.6366
internal_count=2781 986 953 923 843 729 152 577 403 214 161 174 1795 1756 291 1465 957 268 689 107 152 537 261 184 276 203 102 228 73 184
is_linear=0
shrinkage=0.01


Tree=15
num_leaves=31
num_cat=0
split_feature=0 10 10 5 0 0 0 6 2 4 5 4 5 6 8 2 0 0 10 8 2 6 10 6 6 6 9 5 0 2
split_gain=21.9317 16.9558 14.7253 14.406 13.2346 11.3513 8.91994 16.8321 13.7403 21.1046 13.3728 11.7854 11.7697 8.81608 8.59543 9.70531 8.45701 8.13867 7.52941 7.16504 11.8211 16.5265 6.69322 7.95522 6.39113 6.34416 5.69832 8.32194 5.42644 7.56934
threshold=0.82530000000000014 0.0052321428571428562 0.010360714285714298 -0.0013777777777776443 0.6553500000000001 0.75690000000000013 0.78085000000000016 -0.015555277777777874 -0.0001429999999999487 0.00036000000000008253 -0.00021111111111110634 0.00015000000000003902 -0.00039999999999990038 0.0030601111111110417 72.051707417435082 0.0008730000000001793 0.84660000000000013 0.91455000000000009 0.0083750000000000074 33.002983847257248 -0.00031900000000006917 -0.0026598888888889056 0.0050499999999999963 0.010920888888888871 0.0084943888888888725 0.018299944444444608 0.32383995508324093 0.00085000000000001752 0.66835000000000011 0.00028800000000012155
decision_type=2 2 2 2 2 2 2 2 2 2 2 2 2 2 2 2 2 2 2 2 2 2 2 2 2 2 2 2 2 2
left_child=1 4 3 -2 -1 -3 7 -6 11 28 -8 12 -9 -5 17 -16 22 -4 -18 20 -7 -22 -15 -24 -12 -25 27 -11 -10 -30
right_child=2 5 14 13 6 19 10 8 9 26 24 -13 -14 16 15 -17 18 -19 -20 -21 21 -23 23 25 -26 -27 -28 -29 29 -31
leaf_value=-0.0095532553873531514 0.010963453528764979 -0.0072589080509369817 -0.00088286938529952091 -0.00018698419292469462 -0.010454599496908936 -0.002868606848476432 -0.0018483369748506832 0.0017998310268796333 -0.0060525949556087481 0.0047287224026911498 0.0093739387243476965 -0.0027026160528227311 0.011702989291874364 0.0069860219186146768 -0.01100916365472673 0.0013192323917219598 0.011617901823780467 0.0066576553318781397 0.003340928220811746 -0.0038889999281955514 0.014567127148877717 -0.0022802031111808225 0.0057325925926221526 -0.0078121697251113346 0.0003972662408996254 0.001768502501522293 0.0098127913853581009 -0.0019937352769002874 -0.0022874620273938997 0.0031165125512432018
leaf_weight=14.041491180658339 25.241535872220993 56.350847184658051 60.050831943750381 60.524579554796219 15.557516753673552 35.596011161804199 27.314421355724335 24.072780460119247 31.132923007011414 53.642862677574158 31.461181282997131 17.459453582763672 24.479493170976639 19.372788459062576 14.783987581729891 10.918999612331389 24.517488807439804 18.631253778934479 20.818403691053391 78.374779850244522 11.739884793758394 11.239581137895582 14.986260086297987 14.551114022731783 10.921556890010832 12.769541978836058 12.078332781791685 27.695451855659485 201.8068795800209 29.505103975534439
leaf_count=39 69 156 165 166 43 98 75 66 86 147 86 48 67 53 41 30 67 51 57 216 32 31 41 40 30 35 33 76 556 81
internal_value=0 -0.000949767 0.00228242 0.00392058 -9.46629e-06 -0.00347848 0.000254644 -0.000272889 0.000102603 -0.000672567 0.0035755 0.00429128 0.00682723 0.00284764 -0.000734294 -0.00574831 0.00457183 0.000896154 0.00785481 -0.00191149 0.00071953 0.00630936 0.00213377 -7.57846e-05 0.00709067 -0.00330762 0.00340284 0.00242783 -0.00212775 -0.00159279
internal_weight=0 714.471 297.167 192.782 521.169 193.301 507.128 437.431 421.873 355.862 69.6972 66.0117 48.5523 167.54 104.385 25.703 107.016 78.6821 45.3359 136.95 58.5755 22.9795 61.6797 42.3069 42.3827 27.3207 93.4166 81.3383 262.445 231.312
internal_count=2781 1966 815 528 1433 533 1394 1203 1160 979 191 181 133 459 287 71 293 216 124 377 161 63 169 116 116 75 256 223 723 637
is_linear=0
shrinkage=0.01


Tree=16
num_leaves=31
num_cat=0
split_feature=9 0 5 7 4 8 9 5 0 7 4 4 5 3 0 5 7 7 3 3 1 4 1 1 7 4 7 1 9 7
split_gain=7.16419 9.646 9.28128 7.84081 16.4084 7.14146 5.30367 8.36508 5.00813 4.72425 5.2032 4.46428 7.0129 5.96376 5.84048 4.40546 8.74691 7.6457 5.41728 4.22244 9.9643 7.82206 6.64352 5.13454 4.75172 4.57916 9.63917 4.73324 4.60926 3.95922
threshold=-0.16718384206069012 0.85245000000000015 0.0011777777777777778 39.917423500000005 -7.499999999993622e-06 35.977302256656557 -0.25902754747249956 0.00038888888888893863 0.66965000000000008 -102.79779799999999 0.00016500000000013729 -0.0015924999999999965 -0.00017777777777777667 0.00043833333333331842 0.84055000000000013 -0.00066111111111116772 -92.721363499999981 -99.832450499999979 -0.00044333333333329556 0.00020833333333336593 0.00029649999999992188 4.7499999999978122e-05 -0.00025750000000002155 -0.00015299999999990319 -102.21747749999999 0.00047500000000005876 -85.00523299999999 0.0001665000000000694 -0.10157799910927361 47.352950500000006
decision_type=2 2 2 2 2 2 2 2 2 2 2 2 2 2 2 2 2 2 2 2 2 2 2 2 2 2 2 2 2 2
left_child=1 2 3 5 -5 8 9 -8 -1 -7 -11 -2 13 15 -15 16 17 18 -13 20 23 -22 -21 -14 -25 -24 27 -27 -28 -30
right_child=11 -3 -4 4 -6 6 7 -9 -10 10 -12 12 19 14 -16 -17 -18 -19 -20 22 21 -23 25 24 -26 26 28 -29 29 -31
leaf_value=0.0061761711263784982 0.0047780834158197795 -0.0039627508411657899 0.012825791157819129 0.021523884537216605 0.00015513499035745755 -0.0073195192689714259 0.0023530226967131583 0.015423444360024588 -0.0046965204862451674 0.0070774492715425701 -0.0017105433893592906 -0.0073355149501722105 -0.0039876438207967126 0.011911388874582221 -0.0032287897000313937 -0.0060226802594145487 -0.0044645769497081642 0.012561481627146615 0.0053963034626561312 0.009941386201979336 0.017263690782388513 0.0016282850768412054 -0.0043495990988140082 0.010908817124348271 0.00092823535659571283 0.01562031416939756 0.0068571571283436959 0.0017895115275750224 -0.0053104520827446924 0.00044233115993675965
leaf_weight=4.9537074267864254 13.59569777548313 22.356918901205063 9.1615545153617841 6.0533463954925546 8.8708829432725871 5.879280716180797 13.917602255940439 7.6927410811185828 24.597086846828461 12.810087144374853 13.744231536984442 6.3449533730745324 19.749425932765007 5.0022804290056211 4.8711078017950058 45.746937096118927 41.991104379296303 6.3238812685012809 6.8046327531337747 5.005132943391799 6.714268431067465 6.3664587140083313 40.421639949083328 5.2820295691490164 45.532894000411034 5.0460501164197904 5.409907877445213 5.1758178621530533 26.794143706560142 20.984967902302742
leaf_count=30 83 138 54 35 54 36 85 46 152 78 84 39 122 30 30 286 261 38 42 30 40 39 250 32 279 30 33 31 165 129
internal_value=0 0.00198215 0.00322826 0.00231351 0.00897454 0.00110306 0.00327088 0.00710144 -0.00282548 0.000673884 0.00250201 -0.000796573 -0.0010461 -0.00297513 0.00438413 -0.00366563 -0.00188815 0.0036108 -0.000680592 0.000123053 0.00181606 0.00979981 -0.00116937 0.000310159 0.00200471 -0.00172362 -2.9714e-05 0.00879919 -0.00175855 -0.00276725
internal_weight=0 130.037 107.681 98.519 14.9242 83.5947 54.0439 21.6103 29.5508 32.4336 26.5543 323.163 309.568 117.085 9.87339 107.212 61.4646 19.4735 13.1496 192.483 83.6451 13.0807 108.838 70.5643 50.8149 103.833 63.4109 10.2219 53.189 47.7791
internal_count=2781 792 654 600 89 511 329 131 182 198 162 1989 1906 726 60 666 380 119 81 1180 512 79 668 433 311 638 388 61 327 294
is_linear=0
shrinkage=0.01


Tree=17
num_leaves=31
num_cat=0
split_feature=0 7 0 6 10 1 4 4 10 5 10 1 3 3 1 6 5 10 10 1 7 7 7 6 10 6 10 5 3 0
split_gain=21.0061 20.5678 15.4637 15.1398 14.4653 13.4248 13.6254 13.6705 11.5936 10.8487 17.0342 10.6983 8.49435 8.43551 8.15849 10.3311 11.1754 7.84772 12.5137 19.2523 13.4213 11.6092 10.86 7.67265 12.8735 11.2677 10.5213 6.91908 7.29246 6.66767
threshold=0.75905000000000011 0.57412550000000007 0.65245000000000009 -0.020279333333333368 0.0053749999999999996 0.00042849999999994287 0.00076500000000007129 0.00046750000000000963 0.0030357142857142809 -0.00019444444444438599 0.0049071428571428573 0.00019250000000003989 4.1666666666606573e-05 0.00046499999999999325 -0.00017399999999995194 0.0058726111111111487 0.0011777777777777778 0.01880357142857143 0.010360714285714298 0.0005864999999999344 39.917423500000005 61.659310500000011 26.694113500000004 -0.0065118333333333269 0.0033714285714285613 -0.014790500000000094 0.0036857142857142887 0.0003611111111110899 0.00020833333333336593 0.83205000000000007
decision_type=2 2 2 2 2 2 2 2 2 2 2 2 2 2 2 2 2 2 2 2 2 2 2 2 2 2 2 2 2 2
left_child=2 8 -1 -3 -5 6 7 11 -2 10 -10 23 -13 14 -11 -16 -17 18 22 20 -20 -21 -6 25 -25 -4 -27 28 -14 -24
right_child=1 3 5 4 17 -7 -8 -9 9 13 -12 12 27 -15 15 16 -18 -19 19 21 -22 -23 29 24 -26 26 -28 -29 -30 -31
leaf_value=0.012882277998207448 0.001743448966867636 0.01151776502073752 0.0059324779834470567 0.006522366601141678 0.0061593638146140465 -0.0092151168296037891 0.0083277861603742349 -0.0039996563490080211 0.002736070382101532 -0.0077573993042601742 -0.0042539622706016609 -0.0072886856251667418 0.0034741449094233996 -0.0098020668792794981 0.00056229024490369391 -0.0084359110044504356 0.002889931692720892 -0.0077301078233169701 -0.002281823097795337 0.0042473709609349144 0.0097448245752294604 -0.0085309796738563069 0 0.0013951349897874399 0.007598442810710062 0.0063968027662642257 -0.0043122888280066043 0.0064506169292246609 -0.0075232353173359055 -0.004352626320667523
leaf_weight=12.355687975883482 51.463815897703171 12.716993749141691 26.905015110969543 33.987134605646133 16.034747987985611 11.129235059022902 29.914370775222778 42.43162876367569 60.022572219371796 41.236581146717072 82.596980452537537 18.593021124601364 11.196571588516237 30.820615828037262 53.289588212966919 37.202702224254608 11.15775892138481 13.758920609951018 11.93582710623741 11.9303335249424 39.244903177022934 17.084245979785919 62.241257339715958 66.079023629426956 68.755488216876984 11.568886905908583 42.136915177106857 14.181522905826567 12.67615422606468 81.911129951477051
leaf_count=33 138 34 72 91 43 30 80 114 161 111 222 50 30 83 143 100 30 37 32 32 105 46 167 177 184 31 113 38 34 220
internal_value=0 -0.0010562 0.00191852 0.000880388 0.000403589 0.00153121 0.00188392 0.00126541 -0.00264282 -0.00335992 -0.00130529 0.00209132 -0.00176211 -0.00503936 -0.00399892 -0.00245826 -0.0058016 -0.000413005 4.69026e-06 0.00323113 0.00692162 -0.00324584 -0.00160535 0.00310949 0.00456905 0.000653103 -0.00197923 0.000923948 -0.00233065 -0.00247966
internal_weight=0 668.636 367.924 300.845 288.129 355.568 344.439 314.524 367.791 316.327 142.62 272.093 56.6473 173.707 142.887 101.65 48.3605 254.141 240.382 80.1953 51.1807 29.0146 160.187 215.445 134.835 80.6108 53.7058 38.0542 23.8727 144.152
internal_count=2781 1795 986 807 773 953 923 843 988 850 383 729 152 467 384 273 130 682 645 215 137 78 430 577 361 216 144 102 64 387
is_linear=0
shrinkage=0.01


Tree=18
num_leaves=31
num_cat=0
split_feature=0 10 10 1 2 0 7 7 1 10 3 2 7 0 6 2 4 4 3 4 0 7 7 3 10 1 2 7 2 1
split_gain=21.4423 16.7351 14.3317 13.5035 20.847 12.9884 12.7135 15.2955 12.7852 14.316 10.5761 13.7196 8.83805 21.7253 16.7992 13.1005 22.4129 11.5578 8.93474 8.73865 7.94368 7.56983 7.35308 7.05324 6.61448 6.32388 13.8402 8.79255 6.09165 5.45353
threshold=0.82530000000000014 0.0052321428571428562 0.010360714285714298 -9.4999999999956217e-05 -0.00031900000000006917 0.6553500000000001 7.8912590000000007 61.659310500000011 0.0005864999999999344 0.014289285714285709 -0.00065000000000003933 -0.00026199999999998441 45.627126000000011 0.78085000000000016 -0.015555277777777874 -0.0001429999999999487 0.00037249999999999789 0.00015000000000003902 -0.00041666666666656521 -0.00063499999999999657 0.81525000000000014 76.154584500000013 -78.039356499999982 0.00020000000000003351 0.0041785714285714134 0.00035249999999997789 0.00055299999999997029 4.6904640000000013 0.00022800000000006151 -0.00021249999999994881
decision_type=2 2 2 2 2 2 2 2 2 2 2 2 2 2 2 2 2 2 2 2 2 2 2 2 2 2 2 2 2 2
left_child=1 5 10 4 20 -1 -4 -8 9 -9 -2 -12 13 14 -7 17 23 19 -15 -16 -3 -13 -6 24 -17 27 -27 -5 -25 -20
right_child=2 3 6 25 22 12 7 8 -10 -11 11 21 -14 18 15 16 -18 -19 29 -21 -22 -23 -24 28 -26 26 -28 -29 -30 -31
leaf_value=-0.0094765162645071462 0.009662075593817019 -0.0055096864781631252 0.008549316141747627 -0.0024252205972000325 0.0016107470640863233 -0.010391848889956083 -0.0060482068471538735 -0.009493605989096425 0.0089667101613571162 0.0047613794225567479 -0.0041102144377602335 0.0031217343153335025 -0.0061975735870485535 -0.0010587838404345054 0.0010397671599229382 -0.0020316433825679557 0.0037827843144682184 -0.0026752087086382502 0.013419928977395926 0.0099402876094604343 0.0028748668202726491 0.0097136269673850778 0.012924655392730964 -0.0013642528549093825 -0.0064676289565544854 -0.0096620748422250411 0.0031306866135904555 -0.0098861821418475045 0.0047784128376016149 0.0057823787683023865
leaf_weight=13.994237035512922 27.149903684854507 47.403404176235199 12.823569178581236 23.9051553606987 11.333311975002291 15.517219901084898 46.654060781002045 13.334531694650652 16.88540506362915 14.634399890899656 23.637326300144196 121.6601183116436 20.248142331838608 11.667505502700804 17.51512348651886 145.82187542319298 87.650220960378647 17.445771634578705 15.817676842212675 31.100551575422287 14.584398269653319 20.538043618202209 12.113545298576353 51.49601474404335 44.18316850066185 14.441957950592039 19.972614198923111 49.377940237522125 23.336572349071503 25.266141504049301
leaf_count=39 74 131 35 66 31 43 129 37 46 40 65 333 56 32 48 402 240 48 43 85 40 56 33 142 122 40 55 137 64 69
internal_value=0 -0.000939691 0.00225584 -0.00345321 -0.000470466 -5.64653e-06 -0.000721747 -0.00203978 0.00211141 -0.00200884 0.0038703 0.00291081 0.00025558 0.000527257 -0.000207526 0.000170049 -0.000593692 0.00425504 0.00658132 0.00676288 -0.00351942 0.004087 0.00752848 -0.00204678 -0.00307129 -0.00580746 -0.00222122 -0.00747264 0.000541815 0.00877264
internal_weight=0 714.193 297.317 193.132 85.4347 521.06 104.332 91.5084 44.8543 27.9689 192.985 165.835 507.066 486.818 434.067 418.549 352.488 66.0614 52.7513 48.6157 61.9878 142.198 23.4469 264.838 190.005 107.698 34.4146 73.2831 74.8326 41.0838
internal_count=2781 1966 815 533 235 1433 287 252 123 77 528 454 1394 1338 1194 1151 970 181 144 133 171 389 64 730 524 298 95 203 206 112
is_linear=0
shrinkage=0.01


Tree=19
num_leaves=31
num_cat=0
split_feature=10 0 9 4 3 10 0 1 0 10 9 0 3 0 2 10 2 4 4 4 1 3 3 10 10 9 3 4 9 3
split_gain=12.1548 15.0149 8.78887 13.6351 9.87372 12.3086 8.24772 9.39405 6.96408 11.7902 14.2098 10.1166 13.4143 18.2018 6.46789 16.9508 6.40474 5.01232 8.46614 4.58535 4.10346 5.57324 4.07105 10.4799 6.50378 8.5251 5.79164 6.89563 4.64457 6.88726
threshold=0.0051178571428571436 0.82245000000000013 -0.18459784365731452 0.00040000000000001151 -0.00054333333333334 0.0062571428571428543 0.78275000000000017 -0.00031450000000010631 0.77305000000000013 0.0037678571428571444 -0.24388134987526303 0.67295000000000016 -8.5000000000001727e-05 0.66575000000000006 6.3999999999897486e-05 0.0068035714285714409 0.00035099999999993475 0.00013000000000001902 0.00045750000000005514 -0.00018500000000004621 -0.00010850000000006686 -0.00084166666666668488 4.1666666666606573e-05 0.011150000000000012 0.010564285714285719 0.018436247660173585 0.00068833333333329094 0.0013425000000000244 0.16730477187515072 0.00026833333333331494
decision_type=2 2 2 2 2 2 2 2 2 2 2 2 2 2 2 2 2 2 2 2 2 2 2 2 2 2 2 2 2 2
left_child=6 2 3 4 -2 -6 7 -1 11 10 -10 12 13 -9 20 16 -16 -14 -19 -13 21 -4 24 26 -3 -26 28 -28 29 -24
right_child=1 22 14 -5 5 -7 -8 8 9 -11 -12 19 17 -15 15 -17 -18 18 -20 -21 -22 -23 23 -25 25 -27 27 -29 -30 -31
leaf_value=0.0088790747739392589 0.0057501902496358307 -0.0054083666851794535 -0.002584301030201931 -0.0019745554422952822 0.0095079814668732349 0.031153581162426738 -0.0057556453367144421 0.00091377789060846258 0.014139260842113302 0.011812072402601513 -0.0045848799278324047 -0.0068976379271904302 -0.0060376508051870103 0.025058274620063554 0.0095143211422009794 0.019949953309369519 -0.0016818919785333566 0.0093219688870185644 -0.0072558059382066666 -0.0023858988183983959 -0.0054946401452598331 0.0070532287282000696 0.0015103049714554632 -0.0057293970843895169 -0.0035536994306803044 0.0091616374240125285 -0.0057806409891879677 0.0058347423701725614 -0.00076118845657003904 0.012557232280332307
leaf_weight=9.5782846361398679 8.842178493738178 32.577369958162308 12.193454906344412 7.2830752879381171 5.7136010378599167 5.2963155806064606 38.919417157769203 8.0910384953021985 4.9431788474321392 10.168664008378981 20.421470254659653 31.376477062702179 13.78301587700844 5.0879446268081656 7.4666589796543184 6.7728020995855323 15.365573450922964 7.5582401007413846 5.0068790167570114 84.559507727622986 10.212976157665251 11.469916239380838 9.7244110852479988 16.912343323230743 12.669913038611414 8.8268562257289869 11.831752300262453 8.8063254952430707 7.4628150910139075 14.240996494889258
leaf_count=58 53 201 75 44 34 30 242 50 30 61 127 196 85 30 45 40 94 46 31 522 63 70 59 105 78 54 73 54 46 85
internal_value=0 0.00173482 0.00482263 0.00959168 0.0138737 0.0201973 -0.00154527 -0.000720845 -0.0012119 0.00276462 -0.000855368 -0.00212841 0.00222071 0.0104289 0.00275649 0.00616368 0.00196144 -0.00187104 0.00263206 -0.00362045 -0.000201046 0.00205507 -0.000532998 0.00106671 -0.0025903 0.00163933 0.00330016 -0.000771868 0.00599984 0.00814119
internal_weight=0 213.669 90.6166 27.1352 19.8521 11.0099 239.494 200.575 190.996 35.5333 25.3646 155.463 39.5271 13.179 63.4814 29.605 22.8322 26.3481 12.5651 115.936 33.8763 23.6634 123.053 68.9786 54.0741 21.4968 52.0663 20.6381 31.4282 23.9654
internal_count=2781 1303 548 161 117 64 1478 1236 1178 218 157 960 242 80 387 179 139 162 77 718 208 145 755 422 333 132 317 127 190 144
is_linear=0
shrinkage=0.01


Tree=20
num_leaves=31
num_cat=0
split_feature=0 7 0 6 1 2 1 0 3 1 3 2 9 3 0 3 0 6 9 8 0 7 1 3 2 1 0 0 2 7
split_gain=20.5346 20.2929 15.138 14.8866 13.2372 13.4016 16.0445 11.2456 10.5508 10.6557 12.5294 10.3174 9.64944 7.60341 9.7342 9.27087 7.5681 7.99169 7.07253 10.7895 12.2856 7.03009 11.7272 10.8299 9.72347 6.95114 6.39819 9.58658 6.37986 7.35951
threshold=0.75905000000000011 0.57412550000000007 0.65245000000000009 -0.020279333333333368 0.00042849999999994287 0.00051299999999993029 0.00019250000000003989 0.84595000000000009 0.00046499999999999325 -0.00015299999999990319 -0.0011483333333332511 0.0013540000000000776 -0.3465386138902174 5.0000000000105522e-05 0.81325000000000014 -2.000000000007551e-05 0.69810000000000005 0.010397333333333316 0.39831190001710054 58.746345155495256 0.79455000000000009 14.424761500000001 0.00010000000000004451 -0.00031666666666668725 0.00016400000000010853 0.0005864999999999344 0.77495000000000014 0.7672500000000001 0.00015200000000009653 -86.003955999999988
decision_type=2 2 2 2 2 2 2 2 2 2 2 2 2 2 2 2 2 2 2 2 2 2 2 2 2 2 2 2 2 2
left_child=2 7 -1 -3 5 6 21 8 9 10 -2 12 -5 14 15 -11 -8 -18 19 20 -14 22 -4 -23 -25 -21 27 -15 29 -28
right_child=1 3 4 11 -6 -7 16 -9 -10 13 -12 -13 18 26 -16 -17 17 -19 -20 25 -22 23 -24 24 -26 -27 28 -29 -30 -31
leaf_value=0.012740607839747023 0.0044754284239610555 0.011423700596560291 0.0027479962913241596 -0.0045113455242016117 -0.0091630784147655447 0.0091958995688178786 -0.0067523752474761868 -0.0069887270740152272 -0.0073642584331158759 -0.0021630264060761564 -0.0056981880681365553 -0.007789873084886813 0.0086586536650241335 -0.0044781708593531564 0.0087805457523179239 0.0061140044028581489 0.0070592911481847992 -0.002830551110799748 -0.0042018331259485973 0.0060234813060518798 -0.00094353355597051483 -0.0027951023762189781 -0.0036682488623351345 0.012649408833021035 0.0029992511588975818 -0.00061153947975274851 -0.0048616750083386225 0.0048378439471890274 -0.0066278003509674197 0.0046016808887964578
leaf_weight=12.364132851362227 14.16142615675926 12.724871873855589 162.79868620634079 29.771264880895615 11.118216931819914 23.189875870943069 29.387331157922745 50.867938041687012 31.918965637683868 42.123847633600235 77.290496051311493 14.460802704095839 14.950437754392622 17.891903936862946 18.278871029615402 19.785194158554077 11.19078481197357 29.445383071899414 19.746569395065308 73.575641274452209 115.84474915266037 11.56008595228195 34.31664565205574 22.053564220666885 20.530472487211227 19.736100256443024 17.515904009342194 28.335808753967285 34.214780539274216 15.270159184932707
leaf_count=33 38 34 436 80 30 62 79 137 86 113 208 39 40 48 49 53 30 79 53 197 311 31 92 59 55 53 47 76 92 41
internal_value=0 -0.0010446 0.0018966 0.000879003 0.00151326 0.00186331 0.00132825 -0.00262099 -0.0019145 -0.00129799 -0.0041087 0.000405966 0.00084545 2.72578e-05 0.0023867 0.000471655 -0.00289538 -7.17981e-05 0.00150512 0.00201409 0.000152173 0.00250999 0.0016246 0.00570595 0.00803826 0.00461027 -0.0016355 0.00120872 -0.00361166 -0.000423104
internal_weight=0 668.466 367.955 300.81 355.591 344.473 321.283 367.655 316.787 284.868 91.4519 288.086 273.625 193.416 80.1879 61.909 70.0235 40.6362 243.853 224.107 130.795 251.259 197.115 54.1441 42.584 93.3117 113.229 46.2277 67.0008 32.7861
internal_count=2781 1795 986 807 953 923 861 988 851 765 246 773 734 519 215 166 188 109 654 601 351 673 528 145 114 250 304 124 180 88
is_linear=0
shrinkage=0.01


Tree=21
num_leaves=31
num_cat=0
split_feature=0 10 10 1 2 0 8 3 2 0 0 1 1 8 2 0 0 1 3 3 4 8 2 1 2 1 2 4 8 2
split_gain=21.0031 16.4216 14.0734 13.2943 20.5377 12.7349 10.4846 10.3904 13.5258 8.56145 8.86783 10.0022 8.49498 8.35932 9.45645 7.93932 7.81281 7.18028 6.9557 9.74423 8.06 6.62663 6.33988 6.25043 13.701 5.32849 7.6263 5.16501 4.96482 6.04433
threshold=0.82530000000000014 0.0052321428571428562 0.010360714285714298 -9.4999999999956217e-05 -0.00031900000000006917 0.6553500000000001 31.121892467766994 -0.00065000000000003933 -0.00026199999999998441 0.78085000000000016 0.81025000000000014 0.00023300000000003876 0.00042849999999994287 72.051707417435082 0.0008730000000001793 0.91455000000000009 0.81525000000000014 -0.00018650000000003383 0.00020833333333336593 -0.00028666666666671276 0.00047500000000005876 39.218075081038286 -0.00041000000000007692 0.00035249999999997789 0.00055299999999997029 -0.00057400000000012985 -0.0010269999999999444 0.00032500000000007528 26.449604528142689 1.6000000000071516e-05
decision_type=2 2 2 2 2 2 2 2 2 2 2 2 2 2 2 2 2 2 2 2 2 2 2 2 2 2 2 2 2 2
left_child=1 5 7 4 16 -1 -6 -2 -9 12 11 -11 18 15 -15 -4 25 -12 19 22 28 -20 -7 27 -25 26 -3 -5 29 -21
right_child=2 3 13 23 6 9 -8 8 -10 10 17 -13 -14 14 -16 -17 -18 -19 21 20 -22 -23 -24 24 -26 -27 -28 -29 -30 -31
leaf_value=-0.0094004045146245246 0.0095659430331408862 -0.008260735809113887 -0.00087260648500081886 -0.004761870457703943 0.014299820435416673 -0.0021418031670630169 0.00085570086363725669 -0.0040941893227494745 0.0040460129899623758 0.0089163287322399538 0.0045252444191798673 -0.0020323663333634483 0.0077142521096587747 -0.010890349067306427 0.0012913347944377715 0.0065711645848930056 0.0028445572831035473 -0.0060679604352950793 -0.0045909020553600542 0.0052681612802667676 0.0038144276775350172 0.0020908209436073335 0.0045682522876759482 -0.0096097676735106656 0.0031263290421548969 -0.0089559753040466938 0.0028587573634878561 -0.010175139094247729 -0.0035915520212674154 -0.0040729527563404975
leaf_weight=13.945022463798521 27.196476995944977 11.159159630537031 60.016053676605225 37.558605462312698 11.416414856910707 21.812367916107178 12.055343210697172 23.626058965921402 142.31594869494438 33.422002643346786 11.710748642683031 10.882814854383467 12.834200739860533 14.701173514127733 10.922611743211744 18.659183531999588 14.5945448577404 13.769759744405745 16.671562135219574 14.917176634073259 18.94106125831604 124.96854808926582 38.640998125076294 14.410227954387663 19.974442511796951 22.790398091077808 13.387589693069456 35.570117890834808 175.78576949238777 12.686655819416044
leaf_count=39 74 31 165 104 31 60 33 65 389 91 32 30 35 41 30 51 40 38 46 41 52 343 106 40 55 63 37 99 485 35
internal_value=0 -0.000930545 0.00223182 -0.00342213 -0.00046283 -5.53918e-06 0.00747013 0.00383047 0.00287926 0.000252675 0.0035037 0.00620591 -0.000264577 -0.000719777 -0.00567397 0.000886218 -0.00349269 -0.00116161 -0.000509965 -0.00141751 -0.00238743 0.00129462 0.00213112 -0.00576094 -0.00219462 -0.00546949 -0.00216869 -0.00741886 -0.0029715 0.000939706
internal_weight=0 713.906 297.438 192.917 85.4035 520.989 23.4718 193.138 165.942 507.044 69.7853 44.3048 437.258 104.299 25.6238 78.6752 61.9317 25.4805 424.424 282.784 222.331 141.64 60.4534 107.513 34.3847 47.3371 24.5467 73.1287 203.39 27.6038
internal_count=2781 1966 815 533 235 1433 64 528 454 1394 191 121 1203 287 71 216 171 70 1168 779 613 389 166 298 95 131 68 203 561 76
is_linear=0
shrinkage=0.01


Tree=22
num_leaves=31
num_cat=0
split_feature=9 0 5 6 8 8 0 2 6 8 4 9 3 4 0 3 5 3 2 5 3 0 9 2 0 5 0 6 5 8
split_gain=6.94618 9.40154 8.85135 5.62788 7.40924 11.6576 14.4679 5.3795 6.15996 5.88812 11.7192 5.50953 10.4129 6.6859 5.29328 4.92617 5.87521 4.92182 4.9229 4.88818 4.71601 4.71114 4.53036 6.47608 4.51085 5.0258 4.03438 3.97139 9.4312 7.15649
threshold=-0.16718384206069012 0.85245000000000015 0.0011777777777777778 0.01144844444444443 55.365933617937081 35.298448294091237 0.83665000000000012 -3.5999999999869463e-05 -0.012188444444444333 23.840427741715626 -0.00022250000000001433 -0.25902754747249956 0.00055333333333335022 0.00016500000000013729 0.75965000000000016 -0.0015650000000001494 0.00047222222222215176 1.0000000000121025e-05 0.00035099999999993475 0.001205555555555571 -0.00026000000000003792 0.75255000000000016 1.0000000180025095e-35 0.00035099999999993475 0.7914500000000001 0.00038888888888893863 0.7642500000000001 0.016874055555555659 0.0010888888888888617 81.473549750188724
decision_type=2 2 2 2 2 2 2 2 2 2 2 2 2 2 2 2 2 2 2 2 2 2 2 2 2 2 2 2 2 2
left_child=1 2 7 15 5 -5 22 8 9 -1 -11 12 13 14 -9 -2 -17 19 -19 20 -18 -6 -7 -24 25 -13 -20 28 -23 -29
right_child=3 -3 -4 4 21 6 -8 11 -10 10 -12 24 -14 -15 -16 16 17 18 26 -21 -22 27 23 -25 -26 -27 -28 29 -30 -31
leaf_value=-0.0045114063214074587 0.0073364440952542265 -0.0039395198603963365 0.012460641336487948 -0.0043305408054846268 -0.006017879194368185 0.0060242309288702812 -0.0011552127483032788 -0.0025073443942853733 -0.0055670603763500184 0.015021789368868117 -0.0038507402170159018 0.0064324243465248999 0.014508152781742101 -0.0054725939548067861 0.0081100665119552291 -0.0028849964995158899 0.0021358567496368012 -0.0025835506553428637 0.011168794581865624 -0.0022812477058106284 0.014808888961392649 0.015884208617801286 0.025539835094868277 0.0093856759422058979 -0.00012164433577715958 0.017839135343590311 -0.00027380572936088827 -0.0044009656962110885 -0.002441857607091999 0.0077071837120742739
leaf_weight=6.9452539086341885 5.9021821320056906 22.249290347099304 9.3183009773492795 9.5885862708091718 13.685334995388983 5.004538461565974 9.4639618247747404 8.061396926641466 15.449521377682684 7.3870998024940482 5.6903512328863135 13.392602860927587 5.3085328489541999 14.71849240362644 10.676190435886381 159.40810437500477 6.0307137519121179 42.084566190838814 5.2118223160505277 5.8599724769592276 6.1279739588499078 4.9911807626485807 5.6140927225351316 5.1715948581695557 5.4606356024742118 5.7720955014228812 6.9368965178728104 19.163507968187336 6.0412477552890778 6.4079066067934027
leaf_count=43 36 138 54 59 85 30 58 49 95 44 35 81 32 90 64 989 37 260 32 36 37 30 33 31 33 34 42 118 37 39
internal_value=0 0.00194827 0.00317096 -0.000785484 0.00141326 0.00495554 0.00852392 0.00227354 -0.000820208 0.00280223 0.00676705 0.00401908 0.00162884 -0.000422082 0.00350003 -0.00157789 -0.00181239 0.000540987 -0.000949437 0.0050626 0.00867333 -0.00102612 0.0143589 0.0180434 0.00771948 0.00999462 0.00460456 0.000824244 0.00582742 -0.00130964
internal_weight=0 130.43 108.18 322.694 85.132 34.8428 25.2542 98.8622 35.4722 20.0227 13.0775 63.3899 38.7646 33.4561 18.7376 237.562 231.66 72.2519 54.2333 18.0187 12.1587 50.2892 15.7902 10.7857 24.6253 19.1647 12.1487 36.6038 11.0324 25.5714
internal_count=2781 792 654 1989 520 211 152 600 217 122 79 383 235 203 113 1469 1433 444 334 110 74 309 94 64 148 115 74 224 67 157
is_linear=0
shrinkage=0.01


Tree=23
num_leaves=31
num_cat=0
split_feature=7 2 7 10 5 2 10 10 10 3 2 2 4 10 10 9 7 2 2 7 7 3 9 7 2 5 7 10 3 5
split_gain=16.1481 19.4281 17.0137 14.0467 15.7186 12.1877 12.1088 10.9802 14.0534 12.8608 21.4245 9.66789 8.8008 7.86822 10.0956 10.2353 7.38446 7.61809 6.51818 6.35326 8.10137 5.81167 6.25713 5.77284 5.65031 5.50126 5.49301 5.26388 7.89843 5.25927
threshold=1.7320070000000001 0.00030600000000008404 -98.16737049999999 0.0048857142857142962 -0.00013333333333337413 0.0013540000000000776 0.01880357142857143 0.010360714285714298 0.0071214285714285763 -0.00018666666666661277 -1.9999999999964487e-05 -0.0004930000000000766 0.00056000000000006056 0.0042928571428571425 0.0039571428571428422 0.042565534031494774 -99.133836499999987 0.00020899999999995925 -0.00030299999999994215 93.744447000000022 35.600891000000011 0.00020333333333338868 0.15467374611119636 60.800278500000012 -0.00017100000000008772 -0.00041111111111108428 -114.35221299999999 0.0045214285714285625 0.00040833333333339944 0.00017777777777788775
decision_type=2 2 2 2 2 2 2 2 2 2 2 2 2 2 2 2 2 2 2 2 2 2 2 2 2 2 2 2 2 2
left_child=1 2 16 4 -4 6 7 8 9 11 -11 -2 18 14 15 -12 17 24 -5 20 -9 22 -6 -13 25 26 -1 -3 -29 -27
right_child=5 27 3 12 21 -7 -8 19 -10 10 13 23 -14 -15 -16 -17 -18 -19 -20 -21 -22 -23 -24 -25 -26 29 -28 28 -30 -31
leaf_value=0.0085915134483397909 0.0060416261443721146 -0.010604264433413455 0.0032559364270215918 -0.0033364803738811823 -0.0026974861687548003 -0.0077295954314057815 -0.0076570307364909138 0.00013824632390120259 -0.0024672272175356169 0.010144741439850818 -0.001900603076093196 -0.0063388909803914727 0.002916571739205676 0.0034892736679095755 -0.007340180353727248 0.0055078236514641025 0.0084954207641418939 -0.0052840812176310594 -0.0083057716976313641 -0.001379641584896196 0.0084386134488431477 -0.0061879884887890736 0.0048961841633288405 0.001871911219575001 0.0040093909280316037 -0.0070559128547987727 8.7837896939094929e-05 -0.0001128925538540374 -0.0089150080962436349 0.00058686862204014578
leaf_weight=11.213643938302992 11.201399236917494 20.791445165872574 76.118055135011673 62.076616495847702 48.788391947746277 14.443825185298918 13.742146670818327 15.682274073362349 84.503451287746429 36.649782478809357 43.977218627929688 33.857189804315567 13.763594090938566 128.40310537815094 16.728849649429321 32.099757999181747 15.664448618888853 15.65938878059387 47.510785788297653 11.918003141880034 50.097909837961197 33.455825626850128 13.791672438383101 11.172275483608244 71.714103817939758 15.627093344926832 23.867279171943665 21.559929251670837 19.649856746196747 20.527601331472397
leaf_count=30 30 56 204 167 131 39 37 42 227 98 118 91 37 344 45 86 42 42 128 32 134 90 37 30 192 42 64 58 53 55
internal_value=0 -0.00121612 -0.000518808 -0.00198171 -0.000129701 0.00128115 0.0015503 0.00181961 0.00114535 0.00212094 0.00306735 -0.002199 -0.00455615 0.0018862 -0.000322364 0.00121529 0.00195572 0.0012986 -0.0055056 0.00525979 0.00647816 -0.00282415 -0.00100286 -0.00427991 0.00202988 2.02318e-05 0.00285116 -0.00647417 -0.00434559 -0.00269933
internal_weight=0 531.78 469.779 295.505 172.154 504.477 490.033 476.291 398.593 314.09 257.859 56.2309 123.351 221.209 92.8058 76.077 174.274 158.609 109.587 77.6982 65.7802 96.0359 62.5801 45.0295 142.95 71.2356 35.0809 62.0012 41.2098 36.1547
internal_count=2781 1428 1261 794 462 1353 1314 1277 1069 842 691 151 332 593 249 204 467 425 295 208 176 258 168 121 383 191 94 167 111 97
is_linear=0
shrinkage=0.01


Tree=24
num_leaves=31
num_cat=0
split_feature=0 10 10 1 2 0 8 0 6 2 4 4 4 0 1 8 2 4 6 1 8 6 0 0 0 10 2 6 1 0
split_gain=20.6411 16.1831 13.7661 13.0765 20.1893 12.5681 10.305 8.40687 16.3797 13.1616 20.1255 11.3384 8.88745 8.70872 9.81267 8.21763 9.3277 8.12685 12.5267 12.5931 12.2064 9.93402 7.80753 7.6991 7.56055 7.91644 12.8795 7.24699 6.27893 6.29761
threshold=0.82530000000000014 0.0052321428571428562 0.010360714285714298 -9.4999999999956217e-05 -0.00031900000000006917 0.6553500000000001 31.121892467766994 0.78085000000000016 -0.015555277777777874 -0.0001429999999999487 0.00036000000000008253 0.00012249999999996988 -0.00063499999999999657 0.81025000000000014 0.00023300000000003876 72.051707417435082 0.0008730000000001793 -0.001172500000000076 0.0033425555555555713 0.00022650000000001838 66.290289720601052 0.013735277777777779 0.91455000000000009 0.81525000000000014 0.8579500000000001 0.0060821428571428623 -0.00012599999999995945 -0.012934277777777779 0.00038299999999985573 0.71365000000000012
decision_type=2 2 2 2 2 2 2 2 2 2 2 2 2 2 2 2 2 2 2 2 2 2 2 2 2 2 2 2 2 2
left_child=1 5 17 4 23 -1 -6 8 -7 11 28 12 -10 14 -9 22 -17 -2 24 21 -21 -20 -4 -3 25 -19 -27 -15 29 -11
right_child=2 3 15 -5 6 7 -8 13 9 10 -12 -13 -14 27 -16 16 -18 18 19 20 -22 -23 -24 -25 -26 26 -28 -29 -30 -31
leaf_value=-0.0093495136462719338 0.010753056598861071 -0.00543579587536854 -0.00086275928152909761 -0.0057200549985252204 0.014155356934300464 -0.010332098927872249 0.00083522364634899988 0.0088277341442092091 0.0010084505372957206 -0.0046493148855435698 0.0033231865597207391 -0.0024734965780743995 0.010016151618747176 0.0045645671824073733 -0.0020163737786327201 -0.010821388296783713 0.0012852274424849095 -0.0042384761999433333 0.0048040952431128575 0.013079989235737173 0.0034201919703259836 -0.0037875554528582767 0.0065164001156484668 0.0028163933643689325 -0.0043588750763252247 -0.0014928078635057982 0.012884348369650812 -0.0060804756347378362 0.0049156022568147256 -0.001277988742013497
leaf_weight=13.9113911986351 15.460566043853758 47.279748499393463 59.994480699300766 107.34734952449799 11.441408663988115 15.477255403995512 12.060768395662306 33.473682582378387 17.527720987796783 84.181941986083984 93.568375796079636 18.172244668006897 30.431044846773148 11.699336975812914 10.87648096680641 14.650960922241213 10.923211157321928 11.30562114715576 41.396070569753647 29.00892636179924 24.551223963499069 19.709464013576508 18.677778840065002 14.603950768709181 27.283197194337845 12.065232098102568 12.506761938333513 13.771443039178846 12.067530602216719 165.76415210962296
leaf_count=39 42 131 165 298 31 43 33 91 48 233 256 50 83 32 30 41 30 31 113 79 67 54 51 40 75 33 34 38 33 457
internal_value=0 -0.000922932 0.00221187 -0.0033978 -0.000463291 -4.87184e-06 0.00739464 0.000251348 -0.000261381 0.000108215 -0.00065153 0.00420323 0.00675382 0.00347193 0.00614726 -0.000708621 -0.00562661 0.00379172 0.00317516 0.0051442 0.00868533 0.00201488 0.000882499 -0.00347082 -0.000386224 0.00261071 0.00580697 -0.00115312 -0.00207549 -0.00241886
internal_weight=0 713.656 297.533 192.733 85.3859 520.923 23.5022 507.011 437.19 421.713 355.582 66.131 47.9588 69.8209 44.3502 104.246 25.5742 193.287 177.826 114.666 53.5602 61.1055 78.6723 61.8837 63.1608 35.8776 24.572 25.4708 262.014 249.946
internal_count=2781 1966 815 533 235 1433 64 1394 1203 1160 979 181 131 191 121 287 71 528 486 313 146 167 216 171 173 98 67 70 723 690
is_linear=0
shrinkage=0.01


Tree=25
num_leaves=31
num_cat=0
split_feature=9 6 7 1 1 9 5 3 2 2 2 1 6 3 3 5 5 3 1 2 2 1 6 2 7 4 4 5 7 3
split_gain=6.81755 5.55286 7.7738 5.10535 9.48995 9.83557 6.85012 7.57491 5.43077 5.07779 12.3522 4.87506 7.51658 5.71294 9.52117 4.87271 4.80925 4.05307 7.77054 6.95599 4.96246 5.50025 5.32462 6.70138 6.78792 8.77997 4.56921 4.09304 3.99971 3.64473
threshold=-0.16718384206069012 0.01144844444444443 -82.972893499999984 -0.00030549999999995853 -0.00051250000000008223 0.1926687152012366 -0.00021111111111099531 0.00017333333333330317 0.00037800000000004502 0.00025599999999997852 0.00013799999999991599 -0.00015299999999990319 -0.0089004444444443758 -0.00029999999999991139 -0.00010833333333332139 0.00042222222222226829 -0.0017222222222221248 -0.00065000000000003933 -0.00038999999999994589 -0.00036799999999992389 0.00044900000000008827 4.6000000000046011e-05 0.0011062777777777757 0.00030600000000008404 7.3348250000000013 2.0000000000075516e-05 0.0012200000000001101 -0.00013333333333337413 36.122705500000002 5.666666666664933e-05
decision_type=2 2 2 2 2 2 2 2 2 2 2 2 2 2 2 2 2 2 2 2 2 2 2 2 2 2 2 2 2 2
left_child=17 3 15 4 -2 -6 16 11 -9 10 -4 -8 -13 -14 -15 -3 28 -1 -19 -20 21 -21 -23 24 25 -24 -22 -26 -5 -16
right_child=1 2 9 6 5 -7 7 8 -10 -11 -12 12 13 14 29 -17 -18 18 19 20 26 22 23 -25 27 -27 -28 -29 -30 -31
leaf_value=-0.0022980956856786176 -0.0029777970741307479 0.016012419603684273 -0.0029193640008777018 0.0067871226096289641 0.00017718730396361945 0.014184013616866236 -0.0045264399238367763 -0.0047012089822206816 0.0033427853269968433 -0.00088252142612724237 0.017026637030739894 0.013319795529145098 -0.0073194347009561279 0.014814189784880962 -0.0022965535644832728 0.0020693437138497818 -0.0056775182039990905 0.0113596216329797 -0.0073692166003039711 0.00024451752582850208 -0.005216574006406619 0.013996611709414981 -0.0038761143058413374 0.011917975852298089 0.0037320846491830997 0.010948258173184795 0.0058076350673965764 -0.0074051009838759464 -0.0052176747183179497 0.0043252880104411185
leaf_weight=19.050621449947357 21.890881478786469 5.3826632052659971 6.6701871752738935 6.1385364234447461 11.420645400881769 9.0499110519885999 10.262961924076079 48.88682259619236 9.9035956412553769 62.57282754778862 5.5620717704296112 6.0951730757951728 6.1442926824092856 5.6781004071235648 17.154283419251442 5.0215167999267578 63.949908539652824 9.3469759672880155 7.4414048641920081 29.125453814864159 13.117563590407373 6.8104216009378424 5.7202543318271699 9.0838081091642362 5.1541517674922934 12.253847971558569 5.0943070501089087 8.4692307561635953 4.8394953310489655 15.79834535717964
leaf_count=117 135 32 41 38 70 54 64 304 60 384 33 37 38 34 105 30 403 55 46 178 80 40 35 54 31 73 31 52 30 97
internal_value=0 -0.000778953 0.00140337 -0.00156734 0.00156234 0.00645699 -0.00225332 -0.000759964 -0.00332579 0.000258077 0.00613362 0.00169261 0.00297333 0.00151605 0.00296244 0.00946184 -0.00462595 0.00192794 0.0026596 0.00184437 0.00258491 0.00370409 0.00579977 0.00437207 0.00214042 0.00617973 -0.00206335 -0.0031222 0.0014054 0.000851355
internal_weight=0 322.422 85.2093 237.213 42.3614 20.4706 194.852 119.924 58.7904 74.8051 12.2323 61.1332 50.8702 44.775 38.6307 10.4042 74.9279 130.668 111.617 102.27 94.829 76.6172 47.4917 40.6813 31.5975 17.9741 18.2119 13.6234 10.978 32.9526
internal_count=2781 1989 520 1469 259 124 1210 739 364 458 74 375 311 274 236 62 471 792 675 620 574 463 285 245 191 108 111 83 68 202
is_linear=0
shrinkage=0.01


Tree=26
num_leaves=31
num_cat=0
split_feature=0 7 7 2 6 10 3 6 10 2 3 7 2 10 6 6 2 0 6 7 6 10 10 6 6 7 7 7 6 10
split_gain=19.8991 17.456 22.2823 18.1446 13.3908 12.0321 16.4648 14.3801 13.398 11.0639 12.5939 13.9108 14.8764 12.0571 10.1439 9.45011 9.00073 8.26049 8.37525 13.6632 9.53233 8.06961 10.1778 7.95227 8.11664 7.23395 7.00021 6.41813 6.69561 6.32003
threshold=0.65245000000000009 1.7320070000000001 -98.16737049999999 0.00022800000000006151 -0.020279333333333368 0.0049071428571428573 7.000000000007002e-05 -0.0087454444444444151 0.004207142857142839 0.0013540000000000776 -0.00018666666666661277 71.976596000000015 -1.9999999999964487e-05 0.0084500000000000079 -0.033910888888888928 -0.0019559444444444125 4.0000000000595124e-06 0.73755000000000015 -0.015399777777777677 -111.20928499999998 -0.031678666666666626 0.009882142857142848 0.015517857142857147 0.022723333333333488 0.020390277777777747 14.424761500000001 44.374872000000003 56.145245500000009 0.032844333333333371 0.0033500000000000079
decision_type=2 2 2 2 2 2 2 2 2 2 2 2 2 2 2 2 2 2 2 2 2 2 2 2 2 2 2 2 2 2
left_child=-1 2 3 15 -3 6 7 -4 -9 10 21 12 13 -12 -7 17 -17 -2 20 -20 -19 -6 26 24 25 -14 -23 28 -25 -8
right_child=1 4 5 -5 9 14 29 8 -10 -11 11 -13 23 -15 -16 16 -18 18 19 -21 -22 22 -24 27 -26 -27 -28 -29 -30 -31
leaf_value=0.012555137099092221 0.0071942253781003057 0.011269491222653048 -0.0059361785564112507 -0.0073971190326228998 -0.003942591274641671 0.002452450167657474 -0.00047554719111908713 0.00088621147563325894 0.010164591264943557 -0.0076748558847041385 0.011084960230724708 -0.0021845531845747328 -0.0015983423735886238 0.00040279896995586091 -0.0060179341646214345 0.013119002019393844 0.0034607887949594813 -0.0033405880720386383 -0.011409294863579751 0 0.0071852193222157034 0.00090314899902649987 -0.0054266021378313401 0.011447742352218022 -0.0070093568499808561 0.0027649875713515156 0.011208132474814881 -8.212800372516686e-05 0.0022847601191324164 -0.0059227990511047388
leaf_weight=12.371016323566435 17.566071361303329 12.735498875379561 19.321503132581711 20.840884774923325 67.328812211751938 15.608893990516661 32.045515507459641 51.498917043209076 22.394637078046799 14.428069323301314 35.542122840881348 63.273055791854858 51.814076244831085 15.310663312673567 131.37137579917908 13.464971125125883 35.485594779253006 13.07956689596176 13.403330415487288 46.60772779583931 24.255431234836578 16.406717628240589 13.388026684522627 20.956634849309921 11.546998023986815 139.52218952775002 11.214762806892393 13.803615927696226 13.428986281156538 66.086956262588501
leaf_count=33 47 34 52 56 181 42 86 138 60 39 95 170 139 41 354 36 95 35 36 125 65 44 36 56 31 374 30 37 36 178
internal_value=0 -0.000153382 -0.00143174 0.00135757 0.00118001 -0.00295742 -0.0012965 0.00170484 0.00372163 0.000912383 0.0011777 0.00206712 0.00296186 0.00789552 -0.00511055 0.00248096 0.00615922 0.000901405 -0.000230088 -0.00255182 0.00347193 -0.00181037 0.00166704 0.00195586 0.00108107 0.00157795 0.00514855 0.00560828 0.00791522 -0.00415645
internal_weight=0 1023.73 523.031 184.704 500.7 338.328 191.348 93.2151 73.8936 487.965 473.537 365.198 301.925 50.8528 146.98 163.863 48.9506 114.912 97.3461 60.0111 37.335 108.338 41.0095 251.073 202.883 191.336 27.6215 48.1892 34.3856 98.1325
internal_count=2781 2748 1405 495 1343 910 514 250 198 1309 1270 979 809 136 396 439 131 308 261 161 100 291 110 673 544 513 74 129 92 264
is_linear=0
shrinkage=0.01


Tree=27
num_leaves=31
num_cat=0
split_feature=1 4 3 3 10 10 6 4 1 1 8 6 8 10 8 3 6 6 5 1 6 1 5 5 5 4 9 4 1 3
split_gain=6.16138 12.839 7.42329 11.2879 10.6574 9.04647 10.0522 9.01221 9.71514 8.94518 8.41163 8.3678 9.40203 8.25191 7.62189 9.67834 6.99096 8.91028 7.96984 6.94705 6.18497 5.52289 5.04832 4.95703 7.17612 5.19922 4.82016 4.7197 4.65017 7.01603
threshold=0.0005864999999999344 0.0012474999999999572 0.00021999999999994249 -0.00020333333333327761 0.005253571428571426 0.010360714285714298 0.0042257777777776626 0.00043500000000001876 -0.00031450000000010631 6.7000000000094775e-05 37.234241873183159 -0.038963111111111108 61.467281033076794 0.0082107142857142795 78.053038047839792 0.00081833333333342095 0.017121944444444318 -0.0065118333333333269 0.00040555555555554795 -0.00030549999999995853 0.0040904999999999978 6.7000000000094775e-05 0.00071111111111116243 -0.0028388888888889459 0.00044444444444452508 -0.0019150000000001108 0.13794368280967068 0.0006524999999999449 7.3000000000100776e-05 0.00010000000000004451
decision_type=2 2 2 2 2 2 2 2 2 2 2 2 2 2 2 2 2 2 2 2 2 2 2 2 2 2 2 2 2 2
left_child=1 2 3 5 10 6 9 8 -5 11 -4 -1 13 -13 15 16 17 -6 -18 -12 -9 -19 -21 -7 25 -25 -3 -24 29 -10
right_child=-2 26 4 7 14 23 -8 20 28 -11 19 12 -14 -15 -16 -17 18 21 -20 22 -22 -23 27 24 -26 -27 -28 -29 -30 -31
leaf_value=-0.006528614390818979 0.0034158354663124282 -0.007659178990350699 -0.0032003650980816961 0.0051045856159994121 -0.0057867193430478523 -0.008538443812384517 0.0079798885436925884 -0.0010930107773995813 -0.0056643514577091325 -0.0040563547712152556 -0.0039788058596512913 0.0024012844553726433 -0.0064642980260848958 0.010775703050158559 -0.0080538796379738282 0.0054950749647543276 -0.0091399015659763081 0.0086929535421440482 0.0010623443853745185 0.0056172445130948205 0.0069385327879497418 0.00027498533994329172 -0.00039971762810492951 -0.0037880134126267594 -0.0072092254793296876 0.0048920122936349291 -0.0010113368437911353 0.0055629191504661495 -0.0016067824336223611 -0.00043661036124629192
leaf_weight=10.860824197530745 50.071835190057755 30.103999346494675 19.93276435136795 16.095131456851959 14.554450303316115 11.594035029411314 23.430511474609375 19.611467063426971 93.944467008113861 29.043431103229523 10.926261484622954 143.30823394656181 10.840888887643812 12.839360475540159 13.340581715106962 24.066195040941238 20.228454887866974 12.783596873283384 11.991732746362684 95.016210198402405 18.290999978780746 20.400767505168915 35.363446980714798 10.863236784934996 13.30439832806587 18.236089050769809 17.710848271846771 20.88192081451416 145.43919444084167 35.923391580581665
leaf_count=30 137 84 55 44 40 32 64 54 260 80 30 393 30 35 37 66 56 35 33 260 50 56 97 30 37 50 49 57 401 99
internal_value=0 -0.000178838 8.48457e-05 -0.000543883 0.00137616 0.000913268 0.00177962 -0.00180492 -0.00240345 0.00106909 0.00289129 0.00191353 0.00247216 0.00310273 -0.000966882 -4.1553e-05 -0.00172525 0.00068632 -0.00532034 0.00364762 0.0027646 0.00356425 0.00420738 -0.00276005 -0.00114023 0.0016155 -0.00522491 0.0018022 -0.00284771 -0.00422742
internal_weight=0 960.927 913.112 613.626 299.486 284.321 230.323 329.305 291.402 206.893 182.121 177.849 166.988 156.148 117.366 104.025 79.959 47.7388 32.2202 162.188 37.9025 33.1844 151.262 53.9978 42.4037 29.0993 47.8148 56.2454 275.307 129.868
internal_count=2781 2644 2511 1689 822 781 632 908 804 568 499 488 458 428 323 286 220 131 89 444 104 91 414 149 117 80 133 154 760 359
is_linear=0
shrinkage=0.01


Tree=28
num_leaves=31
num_cat=0
split_feature=10 5 2 3 10 3 6 6 10 10 3 3 2 10 4 9 4 6 3 1 5 1 3 3 1 9 1 1 1 1
split_gain=11.8849 12.1018 7.27334 8.09166 6.96821 5.77283 18.978 6.63233 9.44604 6.23646 13.2158 8.41548 6.88966 9.72626 8.81282 5.89032 5.42554 5.29836 5.98923 5.17353 5.15625 5.03745 4.89642 9.12464 10.86 4.60487 4.48795 5.21901 5.42905 6.63657
threshold=0.0051178571428571436 -0.00021111111111099531 -0.00031900000000006917 0.00014666666666668385 0.0030357142857142809 -0.00069500000000000106 -0.024185999999999982 0.034153277777777664 0.0067464285714285708 0.011150000000000012 -7.0000000000069993e-05 -0.00028666666666671276 0.00045899999999998725 0.0077035714285714372 0.0013774999999999762 0.078257343223821871 0.00084000000000000752 0.0062557777777777499 -0.00032999999999988589 -0.00027849999999990377 0.00020555555555551444 -0.00031450000000010631 0.00013333333333337419 0.0006533333333333392 0.00026199999999992901 0.15874164961425627 -0.00024199999999996444 5.799999999994699e-05 2.099999999999325e-05 -7.2000000000127504e-05
decision_type=2 2 2 2 2 2 2 2 2 2 2 2 2 2 2 2 2 2 2 2 2 2 2 2 2 2 2 2 2 2
left_child=1 21 -3 26 -5 -2 -7 8 15 11 -11 -10 13 -13 20 17 -15 18 -8 -6 -14 -1 -19 24 -24 -21 -4 28 29 -28
right_child=5 2 3 4 19 6 7 -9 9 10 -12 12 14 16 -16 -17 -18 22 -20 25 -22 -23 23 -25 -26 -27 27 -29 -30 -31
