tree
version=v4
num_class=1
num_tree_per_iteration=1
label_index=0
max_feature_idx=8
objective=binary sigmoid:1
feature_names=price_close MA_100 diff_MA_100 diff_price_close diff_MA_9 VWAP diff_divergence divergence predicted_label
feature_infos=[3.0368249014223032:3.5077238167025091] [3.1105848434088892:3.4137025910627701] [-0.0037235394438139835:0.0031360935342994445] [-0.20090162610891227:0.11039839960939046] [-0.025788152694738553:0.015917024327620766] [3.1576943398366835:3.3231608886156048] [-0.022886288822336009:0.01514410748550965] [-0.18500613782529873:0.14887813826900453] none
tree_sizes=1676 2036 1925 1936 2052 1715 1923 1808 2035 2033 2049 2040 1932 1819 2032 1824 1926 2035 1817 1935 1813 1820 1822 1817 1929 1811 1822 1813 1707 1812 1823 1808 1826 1926

Tree=0
num_leaves=15
num_cat=0
split_feature=0 5 7 1 7 4 0 5 2 1 7 4 7 4
split_gain=32.7698 34.4672 20.1921 9.7284 7.47894 15.5238 12.4056 18.0286 10.2291 9.12264 9.79944 2.88045 2.20726 0.557494
threshold=3.4234660879207941 3.3177252755447184 0.12440203577065813 3.3649194344117439 0.050350735025298084 0.0047874294300243045 3.3392023033306217 3.2993446882739943 0.00019310786965198726 3.3360209646383958 -0.02035498333112273 -0.0010839249309924079 0.098068899555036296 -0.0028236237738368248
decision_type=2 2 2 2 2 2 2 2 2 2 2 2 2 2
left_child=1 2 4 -2 6 12 9 8 -8 10 -1 -11 13 -6
right_child=3 -3 -4 -5 5 -7 7 -9 -10 11 -12 -13 -14 -15
leaf_value=-0.33275905981545734 -0.33294738198961571 -0.32032172537068548 -0.32355481355346821 -0.31576155691452917 -0.35030127033830716 -0.33197153072352242 -0.33560541496202206 -0.35049721507665765 -0.31841126417176846 -0.35336102279101067 -0.35030127033830716 -0.34454049503080342 -0.34584352754083403 -0.354416109843667
leaf_weight=9.2348680794239026 5.5895254164934149 8.5057995468378049 5.8325482606887809 8.0197538584470731 4.8604568839073208 5.346502572298049 8.5057995468378085 5.1034797281026831 5.8325482606887809 9.477890923619265 4.8604568839073208 6.0755711048841503 5.8325482606887809 10.20695945620537
leaf_count=38 23 35 24 33 20 22 35 21 24 39 20 25 24 42
internal_value=-0.337279 -0.339473 -0.34148 -0.32282 -0.342868 -0.347177 -0.340564 -0.334356 -0.328611 -0.344635 -0.338808 -0.349916 -0.351067 -0.353089
internal_weight=0 89.6754 81.1696 13.6093 75.3371 26.2465 49.0906 19.4418 14.3383 29.6488 14.0953 15.5535 20.9 15.0674
internal_count=425 369 334 56 310 108 202 80 59 122 58 64 86 62
is_linear=0
shrinkage=1


Tree=1
num_leaves=18
num_cat=0
split_feature=5 4 5 7 5 3 6 6 5 2 5 6 4 5 5 2 6
split_gain=28.7442 16.5302 19.5272 23.3043 15.4193 13.6549 12.5629 7.02474 6.27665 14.1639 5.92248 3.68336 7.10229 2.61617 1.03244 0.862417 3.83905e-05
threshold=3.3156721837700665 -0.0040965860591888328 3.2843966694260547 0.12440203577065813 3.2993446882739943 0.0053332730341506549 0.0038475266536674995 -0.0040627720575401307 3.2673496501702806 -4.7409654644114945e-05 3.1605198266904795 0.0040676787351559005 0.0019199162764313995 3.2936645691343016 3.2776412729901634 0.0018912743492376374 0.000467625327312371
decision_type=2 2 2 2 2 2 2 2 2 2 2 2 2 2 2 2 2
left_child=1 14 3 5 13 8 -6 -2 10 -10 -3 12 -7 -4 -1 16 -12
right_child=7 2 4 -5 6 11 -8 -9 9 -11 15 -13 -14 -15 -16 -17 -18
leaf_value=-0.009739161891493207 0.0053539662818527442 -0.0026847455833816708 0.011615317953522922 0.01635558474710708 -0.0094661298501347597 0.0076102054092715699 0.0097633365529448124 0.020963243525749884 -0.012072854168063587 0.0089369291513683065 -0.01703041690258424 0.0095712857891524714 -0.0092854271029490891 0.021858987039396021 -0.015414711988435954 -0.012344730713326644 -0.017069289179304972
leaf_weight=6.7975249737501127 4.8705866485834122 4.8560365289449718 4.8638144731521624 5.3585291802883139 6.5547841489315015 4.8561055064201337 7.0533114820718765 7.0656003355979902 8.0065827965736371 5.3548427373170844 5.3327633440494555 4.8630689382553092 5.1019378006458282 5.1152865588665009 6.0647958070039749 6.3124118894338599 4.8524742722511292
leaf_count=28 20 20 20 22 27 20 29 29 33 22 22 20 21 21 25 26 20
internal_value=0 -0.00190718 -0.000185024 -0.00345472 0.00742459 -0.00559768 0.000500835 0.0145938 -0.00902823 -0.00365279 -0.0123918 0.00243761 -0.00104616 0.0168662 -0.0124153 -0.015249 -0.0170489
internal_weight=0 91.3443 78.4819 54.8948 23.5872 49.5362 13.6081 11.9362 34.7151 13.3614 21.3537 14.8211 9.95804 9.9791 12.8623 16.4976 10.1852
internal_count=425 376 323 226 97 204 56 49 143 55 88 61 41 41 53 68 42
is_linear=0
shrinkage=0.01


Tree=2
num_leaves=17
num_cat=0
split_feature=0 5 7 3 5 7 0 6 7 6 0 7 2 6 0 7
split_gain=31.682 33.0953 19.4545 15.2273 8.94294 7.56472 10.6658 9.26614 5.86939 4.92305 2.54223 1.44408 1.05196 0.497248 0.106974 0.104678
threshold=3.4234660879207941 3.3177252755447184 0.12124558262747455 0.0067284293656193492 3.2715691490639385 0.050350735025298084 3.3482332076660821 -0.0010923053435825112 0.025452152779822827 0.000467625327312371 3.1848301913535511 -0.038381820585037245 0.0018912743492376374 -0.0032626873014367504 3.1657038961436652 -0.043901276296250062
decision_type=2 2 2 2 2 2 2 2 2 2 2 2 2 2 2 2
left_child=1 2 3 5 -2 6 9 -8 11 10 -1 -5 13 -7 -11 -12
right_child=4 -3 -4 8 -6 12 7 -9 -10 14 15 -13 -14 -15 -16 -17
leaf_value=-0.0078806320373719652 0.0033166668311062457 0.01655052455575216 0.011418805935242804 0.010891781625742027 0.020211249349057728 -0.01281144234569751 0.010739206259505122 -0.0068975992523077354 -0.0042277385730105079 -0.0047407957658423669 -0.014908237069062516 0.0033631826669319959 -0.010118496051282198 -0.016950416588076039 -0.0026413352380409709 -0.016987662981263627
leaf_weight=6.5468728095293107 4.8691991567611685 8.5493065118789655 7.3149572014808646 5.3483179062604913 8.7879722565412504 4.8375391364097604 6.0836281478404999 5.8371543288230878 7.7690477371215811 4.8557029217481595 4.840817898511883 4.8656181395053872 5.8128776401281348 7.2568085193634042 4.8521664291620255 4.8425849825143832
leaf_count=27 20 35 30 22 36 20 25 24 32 20 20 20 24 30 20 20
internal_value=0 -0.00216257 -0.00413612 -0.00567897 0.0141878 -0.00825932 -0.00572628 0.00210313 0.00232282 -0.00932456 -0.0126939 0.00730538 -0.0136146 -0.0152949 -0.00369145 -0.0159481
internal_weight=0 89.6134 81.0641 73.7491 13.6572 55.7662 37.8589 11.9208 17.983 25.9381 16.2303 10.2139 17.9072 12.0943 9.70787 9.6834
internal_count=425 369 334 304 56 230 156 49 74 107 67 42 74 50 40 40
is_linear=0
shrinkage=0.01


Tree=3
num_leaves=17
num_cat=0
split_feature=1 3 7 5 7 3 2 6 1 7 2 6 7 2 7 1
split_gain=29.135 15.4128 14.0779 23.55 16.4674 8.50389 7.59916 7.12719 6.85112 12.6031 6.64844 3.82065 3.72306 3.23366 1.55704 0.000546033
threshold=3.4045640902025558 -0.0060556156026827504 0.12124558262747455 3.2673496501702806 0.023395497400613866 1.0000000180025095e-35 1.0000000180025095e-35 -0.00029998461083935441 3.3622600812007861 0.022065421929651888 0.0021006960000171664 0.0037539997356814685 -0.049229596471933361 -4.7409654644114945e-05 0.073039148729852524 3.2545742190140303
decision_type=2 2 2 2 2 2 2 2 2 2 2 2 2 2 2 2
left_child=1 8 3 6 5 11 -3 -6 15 -10 14 13 -7 -5 -8 -1
right_child=-2 2 -4 4 7 12 10 -9 9 -11 -12 -13 -14 -15 -16 -17
leaf_value=-0.014998199477832581 0.020307734422473793 0.003565370354879483 0.01531012033760034 -0.010872503844465175 0.0056969371192283355 0.01347097610379382 -0.016967905314942459 0.020566188908888103 -0.012605755016909991 0.0081846468772381158 -0.0017808805859635542 0.0033248705919753114 0.0016347344617818544 -0.00057805781825257397 -0.010673435775529047 -0.014849732277080875
leaf_weight=5.0812706500291842 6.6120188832283011 4.8502694964408901 6.111888736486434 8.2240852415561658 6.0928315967321396 4.8764876425266266 7.7435643374919909 6.8452932983636838 6.7842941433191282 5.1133693009614944 6.5478086173534384 4.8682840168476096 5.8401386588811857 4.8512492775917115 7.9795355796813965 4.8336353003978729
leaf_count=21 27 20 25 34 25 20 32 28 28 21 27 20 24 20 33 20
internal_value=0 -0.00138982 0.000766265 -0.00052726 0.00419959 -2.77793e-05 -0.00777728 0.0135639 -0.00878659 -0.00367047 -0.0102475 -0.0042374 0.00702069 -0.00705303 -0.0137734 -0.0149258
internal_weight=0 96.644 74.8314 68.7195 41.5984 28.6602 27.1212 12.9381 21.8126 11.8977 22.2709 17.9436 10.7166 13.0753 15.7231 9.91491
internal_count=425 398 308 283 171 118 112 53 90 49 92 74 44 54 65 41
is_linear=0
shrinkage=0.01


Tree=4
num_leaves=18
num_cat=0
split_feature=1 3 7 5 7 3 4 2 4 1 7 7 7 4 4 4 3
split_gain=28.4808 15.1327 13.7666 23.1003 16.0972 8.33152 8.10989 7.46767 9.81121 6.7485 12.3706 3.63654 3.40317 2.48674 0.4234 0.09492 0.000343015
threshold=3.4045640902025558 -0.0060556156026827504 0.12124558262747455 3.2673496501702806 0.023395497400613866 1.0000000180025095e-35 -0.00082538855271807588 1.0000000180025095e-35 0.0060889640128942721 3.3622600812007861 0.022065421929651888 -0.049229596471933361 0.095417408256504924 -1.0000000180025095e-35 -0.00058885341585179763 -0.003045313666799609 1.0000000180025095e-35
decision_type=2 2 2 2 2 2 2 2 2 2 2 2 2 2 2 2 2
left_child=1 9 3 7 5 13 -6 -3 12 14 -11 -7 16 15 -1 -5 -9
right_child=-2 2 -4 4 6 11 -8 8 -10 10 -12 -13 -14 -15 -16 -17 -18
leaf_value=-0.016836945485324585 0.020048195018651582 0.0035275415352678525 0.01512327425613927 -0.0086310414990833449 0.0032142808776527056 0.013308560963745282 0.019542379149873716 -0.016795442667080555 0.0016527695594951675 -0.012507842729906045 0.0080922490061251517 0.0016179551473891078 -0.007048505880599896 -0.00016787060372890292 -0.012697074557467738 -0.0066497265379574467 -0.016905030365677847
leaf_weight=5.0642661154270172 6.6305457502603522 4.8532456904649761 6.1254567801952353 4.8317999839782697 4.8755172342061988 4.8865880221128464 8.088248133659361 6.9855333417654091 5.3386587649583808 6.7691041082143766 5.1200030446052551 5.8416899144649488 5.0732923150062552 8.2575623542070424 4.8234312683343905 4.840078532695772 4.8318138718605042
leaf_count=21 27 20 25 20 20 20 33 29 22 28 21 24 21 34 20 20 20
internal_value=0 -0.00137657 0.000758517 -0.000522204 0.00415519 -2.75605e-05 0.0134016 -0.0077106 -0.0101642 -0.00871316 -0.00363648 0.00694287 -0.0138992 -0.00419839 -0.0148174 -0.00763954 -0.0168403
internal_weight=0 96.6063 74.8295 68.704 41.6215 28.6577 12.9638 27.0825 22.2293 21.7768 11.8891 10.7283 16.8906 17.9294 9.8877 9.67188 11.8173
internal_count=425 398 308 283 171 118 53 112 92 90 49 44 70 74 41 40 49
is_linear=0
shrinkage=0.01


Tree=5
num_leaves=15
num_cat=0
split_feature=0 5 3 4 5 2 5 5 3 0 2 4 0 4
split_gain=30.0235 31.4992 16.2476 9.83318 8.33215 7.51824 9.99028 9.32036 6.31731 4.39137 3.46182 3.2619 2.27737 0.119804
threshold=3.4234660879207941 3.3177252755447184 -0.0060556156026827504 -0.0039335711519750119 3.2715691490639385 0.0019757457752116463 3.2761857921367761 3.1621146141454313 0.0042388317490955627 3.3509109370269088 0.00019310786965198726 -1.0000000180025095e-35 3.3509109370269088 -0.00074771681493768216
decision_type=2 2 2 2 2 2 2 2 2 2 2 2 2 2
left_child=1 2 9 -4 -2 6 7 -5 10 13 11 -8 -7 -1
right_child=4 -3 3 5 -6 12 8 -9 -10 -11 -12 -13 -14 -15
leaf_value=-0.016729102393322214 0.0032687725462237503 0.016090136512693549 -0.011920965340904689 0.000342828211516408 0.019552964899939386 0.0031936848503517361 -0.009932123411117608 -0.014610134306468748 0.009120202498232503 -0.0060064312831593974 0.005074460144614882 0.00077975874555408567 0.012017761653295505 -0.014677778309395446
leaf_weight=6.9722827970981607 4.8714139461517325 8.5935672968626005 7.9772271513938895 7.5035211890935924 8.8514527678489667 6.8259565979242307 5.7882482856512034 9.3786974996328336 8.3039031326770765 7.2645465284585944 5.3634950518608084 5.586360603570947 5.1175757646560669 4.8121015578508386
leaf_count=29 20 35 33 31 36 28 24 39 34 30 22 23 21 20
internal_value=0 -0.00211273 -0.00404647 -0.00155921 0.0137723 -2.47516e-05 -0.00201876 -0.0079641 0.00198932 -0.0121217 -0.00154837 -0.00467124 0.00697463 -0.0158915
internal_weight=0 89.4875 80.8939 61.845 13.7229 53.8678 41.9242 16.8822 25.042 19.0489 16.7381 11.3746 11.9435 11.7844
internal_count=425 369 334 255 56 222 173 70 103 79 69 47 49 49
is_linear=0
shrinkage=0.01


Tree=6
num_leaves=17
num_cat=0
split_feature=0 1 7 3 7 1 0 4 4 7 7 4 7 0 0 1
split_gain=29.3838 22.3537 16.6188 17.6586 10.1706 8.93385 8.60732 10.5505 9.64683 8.73657 5.9242 4.66207 4.62761 1.53151 0.883583 0.928508
threshold=3.4234660879207941 3.4045640902025558 0.12440203577065813 0.0063599363879065516 0.050350735025298084 3.3649194344117439 3.3482332076660821 -0.0013732705217455175 0.0015639995026159872 -0.049830459484277993 -0.048276132228217243 0.0045347943762097396 0.039462606620651826 3.1848301913535511 3.2953290932989758 3.2958643133285839
decision_type=2 2 2 2 2 2 2 2 2 2 2 2 2 2 2 2
left_child=1 2 3 4 6 -2 7 13 -8 -9 -5 12 -12 -1 -6 -16
right_child=5 -3 -4 10 14 -7 8 9 -10 -11 11 -13 -14 -15 15 -17
leaf_value=-0.0099400757628834852 0.0039170687437646142 0.018604078441517468 0.012897404176067422 0.013116078247250843 -0.016594483596070075 0.020314985631881274 0.011101953462231256 0.0062194497829542398 -0.0073693954501310079 -0.0090517013927971252 0.0031548204026058458 0.0077444195728781119 -0.010654794933411725 -0.016749181576540945 -0.0084794982705274011 -0.014080399192862058
leaf_weight=5.7884480953216517 5.6203295588493338 4.9306616187095633 5.8923342674970618 4.8976294100284603 5.986275494098666 8.1264327317476255 6.3383511006832105 7.2833395302295632 5.1043304651975632 7.7140596359968274 4.8800372332334501 5.6022055000066748 4.8265651017427444 7.6937329471111298 4.8154302537441236 7.681127518415451
leaf_count=24 23 20 24 20 25 33 26 30 21 32 20 23 20 32 20 32
internal_value=0 -0.00209295 -0.00330058 -0.00451471 -0.00730246 0.0136107 -0.00446308 -0.0074063 0.00286229 -0.00163542 0.00354308 0.000480469 -0.00371195 -0.0138258 -0.0134354 -0.0119221
internal_weight=0 89.4345 84.5039 78.6115 58.4051 13.7468 39.9223 28.4796 11.4427 14.9974 20.2064 15.3088 9.7066 13.4822 18.4828 12.4966
internal_count=425 369 349 325 242 56 165 118 47 62 83 63 40 56 77 52
is_linear=0
shrinkage=0.01


Tree=7
num_leaves=16
num_cat=0
split_feature=0 5 3 4 1 3 1 0 4 1 1 1 1 4 5
split_gain=28.7607 30.4062 15.8652 9.59131 8.71832 6.83016 4.64589 4.28306 3.93445 6.83423 7.11824 8.43746 10.734 3.24875 0.117554
threshold=3.4234660879207941 3.3177252755447184 -0.0060556156026827504 -0.0039335711519750119 3.3649194344117439 0.0053332730341506549 3.3691622052952401 3.3509109370269088 0.003885752174773716 3.3809955971697692 3.3611195200965853 3.3133485181632847 3.1485401509212587 0.0036085352250321283 3.2787611002365429
decision_type=2 2 2 2 2 2 2 2 2 2 2 2 2 2 2
left_child=1 2 7 -4 -2 8 13 14 9 10 11 12 -5 -7 -1
right_child=4 -3 3 5 -6 6 -8 -9 -10 -11 -12 -13 -14 -15 -16
leaf_value=-0.016546486166169602 0.0038756573642000679 0.015778644682650646 -0.011776923434961811 -0.0055583671508906453 0.02006396661499163 -0.0029089714851525117 0.013211287212160803 -0.0059370012034439638 -0.0090516246348552407 -0.010270548512940183 0.012070329321971811 -0.012574670883259999 0.013975502028473039 0.0066872155299904793 -0.014509271558749535
leaf_weight=6.9331238418817538 5.6235622465610495 8.6204817593097669 7.9482403844594947 6.2524220496416181 8.1457220762968046 7.0365572124719638 4.8918540477752677 7.2526406049728385 7.5075802356004706 6.0354820787906638 5.1127463877201071 4.8058011233806601 5.1140348315238953 7.075216144323349 4.7889632284641266
leaf_count=29 23 35 33 26 33 29 20 30 31 25 21 20 21 29 20
internal_value=0 -0.00207352 -0.00397922 -0.0015228 0.0134524 -8.77472e-06 0.0048134 -0.0119771 -0.00263995 -0.000878044 0.00178525 -0.0014663 0.00323038 0.00190227 -0.0157142
internal_weight=0 89.3751 80.7547 61.7799 13.7693 53.8317 19.0036 18.9747 34.8281 27.3205 21.285 16.1723 11.3665 14.1118 11.7221
internal_count=425 369 334 255 56 222 78 79 144 113 88 67 47 58 49
is_linear=0
shrinkage=0.01


Tree=8
num_leaves=18
num_cat=0
split_feature=5 4 5 7 5 3 6 6 5 2 5 6 4 5 5 2 4
split_gain=24.8909 15.3321 17.3846 20.8672 14.1506 12.418 11.4647 6.44836 5.87751 13.1457 5.7707 3.45727 6.84942 2.61324 1.04415 0.784983 0.000203421
threshold=3.3156721837700665 -0.0040965860591888328 3.2843966694260547 0.12440203577065813 3.2993446882739943 0.0053332730341506549 0.0038475266536674995 -0.0040627720575401307 3.2673496501702806 -4.7409654644114945e-05 3.1605198266904795 0.0040676787351559005 0.0019199162764313995 3.2936645691343016 3.2776412729901634 0.0018912743492376374 0.0013056839861735894
decision_type=2 2 2 2 2 2 2 2 2 2 2 2 2 2 2 2 2
left_child=1 14 3 5 13 8 -6 -2 10 -10 -3 12 -7 -4 -1 16 -12
right_child=7 2 4 -5 6 11 -8 -9 9 -11 15 -13 -14 -15 -16 -17 -18
leaf_value=-0.00926768528494132 0.0046592905618359519 -0.0022621864987995631 0.010777559337649057 0.015384566957331343 -0.0092108253373846989 0.0074551906994757139 0.0091560857227691705 0.019531825302752822 -0.011579833635050251 0.0086952633637569533 -0.016417273742138378 0.0092444934779747894 -0.0091443777174109436 0.020965332478039653 -0.015007015938017213 -0.01194384362416809 -0.016507526085317154
leaf_weight=6.7232981324195844 4.9128069281578064 4.8163458108902004 4.9123489707708377 5.4183915406465522 6.5161053985357267 4.8637570738792402 7.1033223420381546 7.1699191927909833 7.9094866216182709 5.3682370483875257 5.2371867746114749 4.8844547271728507 5.0841974318027496 5.1651701033115387 5.9975154995918274 6.2512866407632819 4.7736504822969437
leaf_count=28 20 20 20 22 27 20 29 29 33 22 22 20 21 21 25 26 20
internal_value=0 -0.00179108 -0.000136887 -0.00324082 0.00701578 -0.00529251 0.000368585 0.0134847 -0.0085939 -0.00338253 -0.0118766 0.00235449 -0.00102851 0.0159992 -0.0119736 -0.0147241 -0.0164603
internal_weight=0 91.0248 78.3039 54.607 23.6969 49.1886 13.6194 12.0827 34.3562 13.2777 21.0785 14.8324 9.94795 10.0775 12.7208 16.2621 10.0108
internal_count=425 376 323 226 97 204 56 49 143 55 88 61 41 41 53 68 42
is_linear=0
shrinkage=0.01


Tree=9
num_leaves=18
num_cat=0
split_feature=0 1 3 4 1 1 1 2 2 1 3 0 6 4 0 2 1
split_gain=27.8405 21.1194 14.1524 8.483 8.40678 7.81395 13.8516 8.71542 10.211 8.62986 5.31259 3.73778 3.52481 2.93843 2.86858 1.88885 0.813763
threshold=3.4234660879207941 3.4045640902025558 -0.0060556156026827504 -0.0039335711519750119 3.3649194344117439 3.1427991519778535 3.2585890462267648 0.00076035253806661107 0.00013360905922832347 3.118381535403056 0.0067284293656193492 3.317650272543458 0.0010776866426709388 -1.0000000180025095e-35 3.3509109370269088 -0.00081915689161671235 3.3788661208898429
decision_type=2 2 2 2 2 2 2 2 2 2 2 2 2 2 2 2 2
left_child=1 2 14 16 -2 9 11 8 10 -5 13 -7 -9 -8 15 -1 -4
right_child=4 -3 3 5 -6 6 7 12 -10 -11 -12 -13 -14 -15 -16 -17 -18
leaf_value=-0.0084356878305857572 0.0038120915491229503 0.018017681012167944 -0.012518524019173338 0.00042569549476591018 0.019695583953161133 0.019232895793633083 -0.009677341878618153 -0.014575158506489825 0.015223190266350614 -0.016524053354570873 0.0072512673173886115 0.0068779117357624531 -0.0024718589433357502 0.0002006942833849456 -0.0054449981830332695 -0.016354178913943095 -0.0067064559238038312
leaf_weight=4.804445445537568 5.6268476098775855 4.955813840031623 4.7991077005863172 7.49084225296974 8.1713885515928251 4.893798887729643 5.7515972256660399 4.7926141917705518 5.1600204706192008 5.0147788971662521 5.6388974636793128 4.9008741229772568 4.8322627395391464 6.3210165202617761 6.9929305315017691 8.0761722475290298 4.8370319455862045
leaf_count=20 23 20 20 31 33 20 24 20 21 21 23 20 20 26 29 34 20
internal_value=0 -0.00204458 -0.0032239 -0.000948449 0.0132184 0.000573133 0.00262659 -0.000515387 0.00284413 -0.00637119 -0.000762353 0.0130509 -0.00849858 -0.00450537 -0.0106013 -0.0134006 -0.00960105
internal_weight=0 89.2622 84.3064 64.4328 13.7982 54.7967 42.2911 32.4964 22.8715 12.5056 17.7115 9.79467 9.62488 12.0726 19.8735 12.8806 9.63614
internal_count=425 369 349 266 56 226 174 134 94 52 73 40 40 50 83 54 40
is_linear=0
shrinkage=0.01


Tree=10
num_leaves=18
num_cat=0
split_feature=1 3 7 5 7 3 4 2 4 1 7 7 7 4 4 1 7
split_gain=25.2949 13.771 12.5569 21.2769 14.5094 7.48544 7.47955 7.41867 9.25114 6.28698 11.6066 3.4969 3.3324 2.21144 0.417683 0.0855751 0.00221517
threshold=3.4045640902025558 -0.0060556156026827504 0.12124558262747455 3.2673496501702806 0.023395497400613866 1.0000000180025095e-35 -0.00082538855271807588 1.0000000180025095e-35 0.0060889640128942721 3.3622600812007861 0.022065421929651888 -0.049229596471933361 0.095417408256504924 -1.0000000180025095e-35 -0.00058885341585179763 3.383382902799037 0.061006077606160287
decision_type=2 2 2 2 2 2 2 2 2 2 2 2 2 2 2 2 2
left_child=1 9 3 7 5 13 -6 -3 12 14 -11 -7 16 15 -1 -5 -9
right_child=-2 2 -4 4 6 11 -8 8 -10 10 -12 -13 -14 -15 -16 -17 -18
leaf_value=-0.016323345014864269 0.018779639260349364 0.0037833823155733444 0.014383165442524366 -0.0082068771538231309 0.0029227272249787947 0.012783778153324186 0.018563325568624035 -0.016647131108976719 0.0015536997783466449 -0.0121218143587817 0.0078693703220132812 0.0013475976314950384 -0.0067595806333569644 -0.00019907567127331488 -0.012179738887007357 -0.0063169710847185935 -0.016369090656747756
leaf_weight=4.9828199595212936 6.7046202719211569 4.8315064162015942 6.1728695482015601 4.7815493494272232 4.8882472813129416 4.9153867363929749 8.1639031171798688 5.0337891727685982 5.3461585640907279 6.6945697069168073 5.1294159889221191 5.8629230409860593 5.0382324755191794 8.2578240483999288 4.7534199357032794 4.8020525425672531 6.6520619243383408
leaf_count=21 27 20 25 20 20 20 33 21 22 28 21 24 21 34 20 20 28
internal_value=0 -0.00130867 0.000722212 -0.000507522 0.00396801 -1.68371e-05 0.0127057 -0.00744029 -0.00989733 -0.00834948 -0.00344935 0.006563 -0.0135579 -0.00399183 -0.0143004 -0.0072599 -0.0164889
internal_weight=0 96.3067 74.7465 68.5736 41.6719 28.6197 13.0522 26.9017 22.0702 21.5602 11.824 10.7783 16.7241 17.8414 9.73624 9.5836 11.6859
internal_count=425 398 308 283 171 118 53 112 92 90 49 44 70 74 41 40 49
is_linear=0
shrinkage=0.01


Tree=11
num_leaves=18
num_cat=0
split_feature=5 4 5 7 5 3 6 4 5 2 2 6 4 5 5 2 6
split_gain=23.6323 14.7536 16.5374 19.762 13.5083 11.9779 10.9344 6.12158 5.66425 12.6157 5.63863 3.33751 6.65603 2.53036 1.04101 0.761369 0.00130438
threshold=3.3156721837700665 -0.0040965860591888328 3.2843966694260547 0.12440203577065813 3.2993446882739943 0.0053332730341506549 0.0038475266536674995 -0.0039628296974067992 3.2673496501702806 -4.7409654644114945e-05 0.00011747070691781049 0.0040676787351559005 0.0019199162764313995 3.2936645691343016 3.2776412729901634 0.0018912743492376374 0.0010509975797878825
decision_type=2 2 2 2 2 2 2 2 2 2 2 2 2 2 2 2 2
left_child=1 14 3 5 13 8 -6 -2 10 -10 -3 12 -7 -4 -1 16 -12
right_child=7 2 4 -5 6 11 -8 -9 9 -11 15 -13 -14 -15 -16 -17 -18
leaf_value=-0.0090628356016943263 0.0045174172665910393 -0.0021553447506923876 0.010456866283863218 0.014912586026391436 -0.0090555345471401913 0.0073540924131633711 0.0088887631911864304 0.018992026342006391 -0.011381671647356088 0.0084912010506492976 -0.01610586544889361 0.009092163469391127 -0.0090183608551593943 0.020462263691615301 -0.014810165190314891 -0.011752627946172782 -0.016335395601785912
leaf_weight=6.6871315091848356 4.9179140776395798 4.8043920546770122 4.9281812608242053 5.4423066824674597 6.4908361434936506 4.8681686520576459 7.1215496063232422 7.1985432058572751 7.8648940771818161 5.3792341500520688 5.1781192421913165 4.8937823474407187 5.068102553486824 5.1890640705823898 5.9606894552707672 6.2178055495023719 4.744267612695694
leaf_count=28 20 20 20 22 27 20 29 29 33 22 22 20 21 21 25 26 20
internal_value=0 -0.00175107 -0.000130216 -0.00316591 0.0068369 -0.00517307 0.000332328 0.013117 -0.00842874 -0.00331011 -0.0116655 0.00233243 -0.000996854 0.0155886 -0.0117714 -0.0144963 -0.0162156
internal_weight=0 90.8385 78.1907 54.4611 23.7296 49.0188 13.6124 12.1165 34.1887 13.2441 20.9446 14.8301 9.93627 10.1172 12.6478 16.1402 9.92239
internal_count=425 376 323 226 97 204 56 49 143 55 88 61 41 41 53 68 42
is_linear=0
shrinkage=0.01


Tree=12
num_leaves=17
num_cat=0
split_feature=1 6 1 7 7 3 7 7 3 2 1 6 2 7 4 7
split_gain=24.303 13.5301 13.1545 24.4218 20.3761 10.4193 10.1109 6.6856 4.80888 4.44812 4.07297 3.69042 2.13341 1.8819 0.198838 0.139889
threshold=3.4045640902025558 -0.0046774694610656189 3.3611195200965853 0.023395497400613866 0.12440203577065813 0.014007360474171728 -0.02035498333112273 -0.049830459484277993 0.0028023821682581222 -4.7409654644114945e-05 3.3629846946556534 0.0028037733437433769 0.0018912743492376374 0.068768215543359781 -0.0095607822350607368 0.083599975864769208
decision_type=2 2 2 2 2 2 2 2 2 2 2 2 2 2 2 2
left_child=1 10 4 7 5 6 -3 -4 9 -9 -1 -7 15 -5 -12 -8
right_child=-2 2 3 13 -6 11 12 8 -10 -11 14 -13 -14 -15 -16 -17
leaf_value=-0.0163008832208047 0.018382102204644021 -0.00040472106020498182 0.0062779515422192334 0.011769751640773349 0.014741854926892721 -0.0031232844139308874 -0.016291510000816481 -0.01633897961693212 0.0028308442133018327 -0.0032916087268344157 -0.0071946237304799585 0.0090492316872810303 -0.008262481768137939 0.019105045795130952 -0.0043567174774645041 -0.01415531208024064
leaf_weight=5.9232491999864569 6.7214480042457572 9.1443406194448418 7.2596997320651999 7.6665213108062726 5.450241968035697 5.0705160796642286 8.0519002676010221 4.7454005479812604 4.9012179374694815 5.8146373331546819 5.0748260766267768 4.8952141851186752 5.9828733354806891 6.4317142218351364 4.8079934120178214 4.9500549286603919
leaf_count=25 27 38 30 31 22 21 34 20 20 24 21 20 25 26 20 21
internal_value=0 -0.00128625 0.000377205 0.00477706 -0.00334305 -0.00593046 -0.00904333 -0.00163831 -0.00535532 -0.00915475 -0.0097439 0.00285591 -0.0132043 0.0151162 -0.00581398 -0.0154782
internal_weight=0 96.1704 80.3643 36.8192 43.5451 38.0949 28.1292 22.721 15.4613 10.56 15.8061 9.96573 18.9848 14.0982 9.88282 13.002
internal_count=425 398 332 151 181 159 118 94 64 44 66 41 80 57 41 55
is_linear=0
shrinkage=0.01


Tree=13
num_leaves=16
num_cat=0
split_feature=0 5 7 1 7 0 5 2 1 7 6 6 7 6 2
split_gain=25.9737 27.7205 16.4295 7.91179 7.45375 10.0748 16.9534 8.89175 8.69127 9.26135 7.06613 3.84804 2.34275 0.550462 0.116542
threshold=3.4234660879207941 3.3177252755447184 0.12124558262747455 3.3649194344117439 0.050350735025298084 3.3392023033306217 3.2993446882739943 0.00019310786965198726 3.3360209646383958 -0.02035498333112273 0.0029424689098940253 0.000467625327312371 0.098068899555036296 -0.0045362929711714175 -0.00064167481306731655
decision_type=2 2 2 2 2 2 2 2 2 2 2 2 2 2 2
left_child=1 2 4 -2 5 8 7 -7 9 -1 12 14 13 -6 -10
right_child=3 -3 -4 -5 10 6 -8 -9 11 -11 -12 -13 -14 -15 -16
leaf_value=0.0048646213662363533 0.0036149447907842403 0.015001485116016346 0.010394075349842916 0.019002287213225756 -0.011945373111925332 0.0015498378981613399 -0.013136622355906808 0.017512837177351179 -0.01419609180770961 -0.012316248405790629 0.00069343003417775663 -0.0045594516166227277 -0.006870524719878748 -0.016147460236094379 -0.016319460610571938
leaf_weight=9.1711089611053449 5.6348930150270453 8.6718986630439741 7.3859334588050833 8.2103867977857572 4.7191247940063503 8.5096937268972415 5.086908906698226 5.9149143099784842 4.7372273504733986 4.7690189033746746 5.078969955444335 4.8324115425348273 5.2311289310455313 9.1850190162658709 5.6890024542808568
leaf_count=38 23 35 30 33 20 35 21 24 20 20 21 20 22 39 24
internal_value=0 -0.00198399 -0.00381808 0.0127398 -0.00525751 -0.0030034 0.00256007 0.00809558 -0.00672108 -0.00101308 -0.00979197 -0.0119358 -0.0125751 -0.0147213 -0.0153547
internal_weight=0 88.9824 80.3105 13.8453 72.9245 48.7103 19.5115 14.4246 29.1988 13.9401 24.2142 15.2586 19.1353 13.9041 10.4262
internal_count=425 369 334 56 304 202 80 59 122 58 102 64 81 59 44
is_linear=0
shrinkage=0.01


Tree=14
num_leaves=18
num_cat=0
split_feature=1 6 5 7 3 1 1 2 1 5 1 6 6 2 6 5 6
split_gain=23.4204 13.2072 17.5692 18.3766 11.1471 9.1799 5.61098 14.8529 5.59442 5.54784 3.99582 3.1927 3.8882 0.899821 0.686965 0.309913 0.0020022
threshold=3.4045640902025558 -0.0046774694610656189 3.2843966694260547 0.12440203577065813 0.0053332730341506549 3.3611195200965853 3.3664601188964287 -4.7409654644114945e-05 3.3746666011474384 3.1605198266904795 3.3629846946556534 0.0040676787351559005 0.001768182214743508 0.0018912743492376374 0.0012652497215561722 3.3016228254173909 0.00069738952996867287
decision_type=2 2 2 2 2 2 2 2 2 2 2 2 2 2 2 2 2
left_child=1 10 3 4 6 -4 9 -8 14 -3 -1 12 -6 16 -7 -12 -11
right_child=-2 2 5 -5 11 8 7 -9 -10 13 15 -13 -14 -15 -16 -17 -18
leaf_value=-0.016155064101050012 0.01802804273569273 -0.001963648448491557 -0.0016076640544986853 0.014458273851337067 0.0054504609082650195 0.017565650196404818 -0.011320880096133062 0.010753987480205023 0.0038809063276699141 -0.015917860509391594 -0.003911599460069623 0.0089169489646578146 -0.0070731295251024963 -0.011016528445480017 0.012628003127050683 -0.0074590443750747097 -0.016200291640912173
leaf_weight=5.889855980873107 6.7327219098806372 4.7836736291646984 8.4508737176656741 5.4622814059257498 4.8536518067121488 6.1708258986473101 8.0505931675434095 4.9050998389720908 6.8740063756704322 5.3688494712114316 4.7637979686260206 4.9043274521827689 5.0672761797904968 5.4832000434398642 5.1854628622531891 5.0982678234577179 4.7139004617929459
leaf_count=25 27 20 35 22 20 25 34 20 28 23 20 20 21 23 21 21 20
internal_value=0 -0.00126572 0.000377095 -0.00292384 -0.00489652 0.00700748 -0.00810732 -0.00296321 0.0110011 -0.0113823 -0.00963776 0.00231664 -0.000946168 -0.0142769 0.015311 -0.00574548 -0.0160499
internal_weight=0 96.0259 80.274 53.5929 48.1306 26.6812 33.3053 12.9557 18.2303 20.3496 15.7519 14.8253 9.92093 15.5659 11.3563 9.86207 10.0827
internal_count=425 398 332 223 201 109 140 54 74 86 66 61 41 66 46 41 43
is_linear=0
shrinkage=0.01


Tree=15
num_leaves=16
num_cat=0
split_feature=0 5 7 3 5 7 0 4 4 7 7 0 2 0 4
split_gain=25.1584 26.8296 15.8653 12.6957 7.36732 6.39338 8.72948 9.09216 5.68651 4.9753 3.8679 2.07084 0.971699 0.864554 0.460079
threshold=3.4234660879207941 3.3177252755447184 0.12124558262747455 0.0067284293656193492 3.2715691490639385 0.050350735025298084 3.3482332076660821 0.00061403067294829594 -0.0013732705217455175 -0.038381820585037245 -0.049830459484277993 3.3745232367677374 0.0018912743492376374 3.1848301913535511 -0.0015905515412673041
decision_type=2 2 2 2 2 2 2 2 2 2 2 2 2 2 2
left_child=1 2 3 5 -2 6 8 -8 13 -5 -10 -11 14 -1 -7
right_child=4 -3 -4 9 -6 12 7 -9 10 11 -12 -13 -14 -15 -16
leaf_value=-0.010610940117805103 0.0026660324109923222 0.014737311782308806 0.010186802173822174 0.010132943907916792 0.017917957174457672 -0.011918019839541855 0.0096450340264675645 -0.0078992358790308716 0.0020272417840619707 -0.0051113289181754212 -0.0087457894853897929 0.0030140980296730836 -0.0092019720211749308 -0.016060955644763161 -0.015938140318197826
leaf_weight=5.2227855026721901 4.8977021872997275 8.6854856908321363 7.3970369994640341 5.3972304612398174 8.9629664421081525 4.9149866253137597 6.6040981113910657 5.3443446457386017 5.796433553099626 6.7582274675369245 7.8409767299890634 5.8530217409133911 5.6731678098440161 6.5749793946743011 6.7652342468500146
leaf_count=22 20 35 30 22 36 21 27 22 24 28 33 24 24 28 29
internal_value=0 -0.00195692 -0.00376616 -0.00518495 0.0125287 -0.00758116 -0.00525266 0.00179777 -0.00856467 0.00209834 -0.00416683 -0.00134023 -0.0125973 -0.0136483 -0.0142465
internal_weight=0 88.828 80.1425 72.7455 13.8607 54.737 37.3836 11.9484 25.4352 18.0085 13.6374 12.6112 17.3534 11.7978 11.6802
internal_count=425 369 334 304 56 230 156 49 107 74 57 52 74 50 50
is_linear=0
shrinkage=0.01


Tree=16
num_leaves=17
num_cat=0
split_feature=1 3 5 7 4 1 1 5 4 1 2 3 1 2 1 2
split_gain=22.5588 12.956 11.7446 16.172 13.7998 12.8843 8.50685 7.29389 9.7696 5.47658 5.35282 6.12705 3.91804 1.28378 0.926494 0.419053
threshold=3.4045640902025558 -0.012503922194049942 3.2843966694260547 0.12124558262747455 -0.0047255420576517429 3.3699339270376574 3.3809955971697692 3.2993446882739943 0.0036085352250321283 3.3030612407154631 1.0000000180025095e-35 0.0053332730341506549 3.3622600812007861 1.0417428507825123e-05 3.1309316744440534 0.0017928687403434564
decision_type=2 2 2 2 2 2 2 2 2 2 2 2 2 2 2 2
left_child=1 12 3 5 -4 9 -7 -6 -9 10 -3 14 -1 -8 -12 -11
right_child=-2 2 4 -5 7 6 13 8 -10 15 11 -13 -14 -15 -16 -17
leaf_value=-0.01464148521728033 0.017680894499710012 0.0039879787118062091 -0.0091253445784262015 0.01248169068962931 0.016155508233062141 0.01367582231773224 -0.0059736085063241059 -0.0033233470746764876 0.01399134915908821 -0.016518642380436443 -0.015953811634249901 -0.00065417543317478565 -0.0048782607589327783 0.0013375543372940663 -0.0098163379879901771 -0.012318823363321412
leaf_weight=7.4811603277921703 6.7408004105091086 4.8123956769704881 5.0619659125804928 6.4487325996160498 8.9309190213680285 5.1186663657426825 4.7598864883184415 7.2595395147800428 5.9129845798015594 4.7539485245943052 5.1404095292091387 6.7566939592361441 9.1226599961519224 4.8476845622062683 4.716224268078804 4.7492063790559769
leaf_count=32 27 20 21 26 36 21 20 30 24 20 22 28 38 20 20 20
internal_value=0 -0.00124504 0.000437402 -0.00234193 0.00576822 -0.00443575 0.00326304 0.00917903 0.00444901 -0.00810139 -0.00529893 -0.00798908 -0.00927726 -0.00228462 -0.0130171 -0.0144198
internal_weight=0 95.8731 79.2693 52.1038 27.1654 45.6551 14.7262 22.1034 13.1725 30.9289 21.4257 16.6133 16.6038 9.60757 9.85663 9.50315
internal_count=425 398 328 217 111 191 61 90 54 130 90 70 70 40 42 40
is_linear=0
shrinkage=0.01


Tree=17
num_leaves=18
num_cat=0
split_feature=0 1 3 4 1 1 1 1 2 2 3 0 6 0 4 2 1
split_gain=24.37 18.1032 12.9713 7.8701 7.5396 6.8635 12.5706 8.28944 7.82302 9.11144 4.78926 3.70175 3.34913 2.68533 2.6244 1.75348 0.744296
threshold=3.4234660879207941 3.4045640902025558 -0.0060556156026827504 -0.0039335711519750119 3.3649194344117439 3.1427991519778535 3.2585890462267648 3.118381535403056 0.00076035253806661107 0.00013360905922832347 0.0067284293656193492 3.317650272543458 0.0010776866426709388 3.3509109370269088 -1.0000000180025095e-35 -0.00081915689161671235 3.3788661208898429
decision_type=2 2 2 2 2 2 2 2 2 2 2 2 2 2 2 2 2
left_child=1 2 13 16 -2 7 11 -5 9 10 14 -7 -10 15 -8 -1 -4
right_child=4 -3 3 5 -6 6 8 -9 12 -11 -12 -13 -14 -15 -16 -17 -18
leaf_value=-0.0081028806561530779 0.0034167892764656888 0.016565160004910259 -0.012056924598774697 0.00070732002751506542 0.018426630893433785 0.018563662890013127 -0.0092469040553076372 -0.016026051657741579 -0.014101037498981478 0.014323742340884758 0.0068420130010837252 0.0062950326323117593 -0.0022289304377415692 -0.0051555288579626015 0.00011895836951704119 -0.015790884085424672 -0.0064686276014485535
leaf_weight=4.7539638429880151 5.6392822563648215 4.9941450655460349 4.7295501232147199 7.4440533071756345 8.2312179505825025 4.9154248535633069 5.6810091584920821 4.9151964634656906 4.7065137624740583 5.19868379831314 5.6636128276586524 4.9218614995479584 4.7990356385707855 6.929993361234664 6.3203159421682473 7.8911538571119317 4.8044106662273407
leaf_count=20 23 20 20 31 33 20 24 21 20 21 23 20 20 29 26 34 20
internal_value=0 -0.00193001 -0.0030339 -0.000858106 0.0123241 0.000606562 0.00252576 -0.00594744 -0.000482812 0.00268703 -0.000737584 0.0124253 -0.00810721 -0.0101587 -0.00431451 -0.0129006 -0.00924084
internal_weight=0 88.6689 83.6748 64.0997 13.8705 54.5657 42.2065 12.3592 32.3692 22.8636 17.6649 9.83729 9.50555 19.5751 12.0013 12.6451 9.53396
internal_count=425 369 349 266 56 226 174 52 134 94 73 40 40 83 50 54 40
is_linear=0
shrinkage=0.01


Tree=18
num_leaves=16
num_cat=0
split_feature=0 5 7 3 5 7 0 4 4 7 7 0 2 0 4
split_gain=23.877 25.75 15.1051 12.212 7.0161 6.12828 8.37635 8.93961 5.55674 4.81034 3.71033 2.01679 0.952724 0.857905 0.457748
threshold=3.4234660879207941 3.3177252755447184 0.12124558262747455 0.0067284293656193492 3.2715691490639385 0.050350735025298084 3.3482332076660821 0.00061403067294829594 -0.0013732705217455175 -0.038381820585037245 -0.049830459484277993 3.3745232367677374 0.0018912743492376374 3.1848301913535511 -0.0015905515412673041
decision_type=2 2 2 2 2 2 2 2 2 2 2 2 2 2 2
left_child=1 2 3 5 -2 6 8 -8 13 -5 -10 -11 14 -1 -7
right_child=4 -3 -4 9 -6 12 7 -9 10 11 -12 -13 -14 -15 -16
leaf_value=-0.01043431387922188 0.002567131905546203 0.014431077398917086 0.0099099109642428688 0.0099473531901568477 0.017445395097899361 -0.011689673266744643 0.0095114916241347044 -0.0078862775670204208 0.0019875483253371036 -0.0050537513905554157 -0.0085743793629913644 0.0029682291687609741 -0.0090078291759936521 -0.015881066297663362 -0.015718783919324231
leaf_weight=5.1939101219177193 4.8984434455633155 8.693686828017233 7.4078651517629615 5.4071396738290813 8.9798438847064954 4.8720396459102639 6.6102238744497281 5.3388916403055191 5.7982804328203139 6.7484005242586118 7.8007032871246453 5.8514100164175034 5.637398049235343 6.5241895765066147 6.6938496232032785
leaf_count=22 20 35 30 22 36 21 27 22 24 28 33 24 24 28 29
internal_value=0 -0.00191278 -0.00369146 -0.00508166 0.012194 -0.0074418 -0.00516282 0.00173813 -0.00841992 0.00205756 -0.00407103 -0.00132831 -0.0123786 -0.0134669 -0.0140216
internal_weight=0 88.578 79.8843 72.4764 13.8783 54.4695 37.2662 11.9491 25.3171 18.007 13.599 12.5998 17.2033 11.7181 11.5659
internal_count=425 369 334 304 56 230 156 49 107 74 57 52 74 50 50
is_linear=0
shrinkage=0.01


Tree=19
num_leaves=17
num_cat=0
split_feature=1 6 5 3 5 4 2 1 1 2 2 2 1 2 5 3
split_gain=21.3146 12.5451 16.2233 9.81646 9.47624 9.74534 6.91296 7.49891 15.6176 13.2081 6.8727 6.23943 3.82173 1.57783 0.349707 0.287942
threshold=3.4045640902025558 -0.0046774694610656189 3.2883906965643548 -0.0054080815172470311 3.2993446882739943 0.0036085352250321283 0.0024229316747010903 3.3651513261322394 3.1839104345146398 0.0018681053821216766 6.935196028590164e-05 -4.7409654644114945e-05 3.3629846946556534 0.00037804275097896861 3.3016228254173909 0.0042388317490955627
decision_type=2 2 2 2 2 2 2 2 2 2 2 2 2 2 2 2
left_child=1 12 3 13 -4 -6 7 8 9 10 -5 -9 -1 -3 -14 -10
right_child=-2 2 4 6 5 -7 -8 11 15 -11 -12 -13 14 -15 -16 -17
leaf_value=-0.015839671363944541 0.017177048621719641 -0.01585485956968976 0.015126282278662664 0.0041229952486912143 -0.0041747550681260617 0.011639151772131205 0.0098998742217076482 -0.0019888786201841917 -0.016259024813077137 0.014672795288854013 -0.011615020902062061 0.011952967402235209 -0.0036478900117586023 -0.0077281318424854521 -0.0074253179384251014 -0.012931423181956187
leaf_weight=5.8079314976930609 6.7463684678077689 4.8796515613794309 9.178372651338579 4.7994176447391563 9.3910453617572802 6.6608833968639365 5.3950683921575537 7.4193377196788788 5.6460740417242032 4.8923332691192618 6.577596977353096 5.6578944325447065 4.7286146581172925 4.6807480603456497 5.0878304094076157 4.8206756561994553
leaf_count=25 27 21 37 20 39 27 22 31 24 20 28 23 20 20 21 20
internal_value=0 -0.00121402 0.000386693 -0.00266979 0.00702157 0.00238736 -0.000722911 -0.00216239 -0.00519764 0.000932628 -0.00497591 0.00404309 -0.00940991 -0.011876 -0.00560572 -0.0147264
internal_weight=0 95.6235 79.9991 54.7688 25.2303 16.0519 45.2084 39.8133 26.7361 16.2693 11.377 13.0772 15.6244 9.5604 9.81645 10.4667
internal_count=425 398 332 229 103 66 188 166 112 68 48 54 66 41 41 44
is_linear=0
shrinkage=0.01


Tree=20
num_leaves=16
num_cat=0
split_feature=0 5 7 1 7 0 5 1 7 6 4 6 7 6 6
split_gain=23.1832 24.972 14.6437 7.27062 6.66706 8.93036 16.3868 8.48626 8.94101 6.7136 6.57907 3.59616 2.21865 0.563582 0.117911
threshold=3.4234660879207941 3.3177252755447184 0.12124558262747455 3.3649194344117439 0.050350735025298084 3.3392023033306217 3.2993446882739943 3.3360209646383958 -0.02035498333112273 0.0029424689098940253 -0.00059375916981174715 0.000467625327312371 0.098068899555036296 -0.0045362929711714175 -0.0034600732210925407
decision_type=2 2 2 2 2 2 2 2 2 2 2 2 2 2 2
left_child=1 2 4 -2 5 7 10 8 -1 12 -7 14 13 -6 -9
right_child=3 -3 -4 -5 9 6 -8 11 -10 -11 -12 -13 -14 -15 -16
leaf_value=0.0050059175182363604 0.0032660893570099609 0.01419929642287442 0.0097400863894047379 0.018001333524437956 -0.01138119050832428 0.015886597474878198 -0.013116153892281894 -0.01377834195656045 -0.011954145730367891 0.00088382107285690304 0.0021608264444311744 -0.0044805885344899963 -0.006525323551846594 -0.015678361253206607 -0.015931576456471537
leaf_weight=9.1381671726703626 5.6412311047315589 8.6991003900766355 7.4140333682298651 8.2392357289791089 4.6215436160564449 5.9028566032648095 5.0779255479574195 4.661059424281115 4.7107215523719814 5.0541338473558417 8.5507901608943939 4.8194190114736548 5.1728886663913718 8.9871097207069415 5.5969591289758718
leaf_count=38 23 35 30 33 20 24 21 20 20 21 35 20 22 39 24
internal_value=0 -0.00188851 -0.00364429 0.0120127 -0.00501692 -0.00288707 0.00233725 -0.00641463 -0.000763075 -0.0093469 0.00776642 -0.0116057 -0.0121 -0.014219 -0.0149532
internal_weight=0 88.4067 79.7076 13.8805 72.2936 48.4579 19.5316 28.9263 13.8489 23.8357 14.4536 15.0774 18.7815 13.6087 10.258
internal_count=425 369 334 56 304 202 80 122 58 102 59 64 81 59 44
is_linear=0
shrinkage=0.01


Tree=21
num_leaves=16
num_cat=0
split_feature=0 5 7 5 7 0 5 2 2 4 6 6 7 5 6
split_gain=22.7194 24.4744 14.3607 6.67181 6.56399 8.76849 16.0733 8.19011 6.92243 9.29183 6.61695 3.01533 2.19604 1.58195 0.558981
threshold=3.4234660879207941 3.3177252755447184 0.12124558262747455 3.2715691490639385 0.050350735025298084 3.3392023033306217 3.2993446882739943 0.00019310786965198726 -1.6394036667533026e-05 0.0013056839861735894 0.0029424689098940253 -0.0018272025807095635 0.098068899555036296 3.2809633885091789 -0.0045362929711714175
decision_type=2 2 2 2 2 2 2 2 2 2 2 2 2 2 2
left_child=1 2 4 -2 5 8 7 -7 9 11 12 -1 14 -13 -6
right_child=3 -3 -4 -5 10 6 -8 -9 -10 -11 -12 13 -14 -15 -16
leaf_value=-0.01295596323371645 0.0024972827108875289 0.014048326860650532 0.0096353542914382109 0.017005200266801621 -0.011303043509824749 0.0013948275715195324 -0.013015447999764198 0.016686817883663881 -0.016060600678915026 0.0064345158885967561 0.00087483995297794957 -0.00030519734347168133 -0.006470197713949276 -0.0082851599341115332 -0.01559028309167
leaf_weight=6.7542212307453182 4.896706908941268 8.7046299725770933 7.4196462035179129 8.9881829023361188 4.6070339530706432 8.5187767446041125 5.0661026090383521 5.94765681028366 5.8641146570444134 6.3223422020673743 5.0549557060003272 4.9669693708419818 5.1648325473070136 4.9699526876211166 8.947701573371889
leaf_count=29 20 35 30 36 20 35 21 24 25 26 21 21 22 21 39
internal_value=0 -0.00187181 -0.00361266 0.0118888 -0.00497438 -0.00286114 0.00231368 0.0076819 -0.00636134 -0.00388985 -0.00927741 -0.00780056 -0.0120189 -0.00429638 -0.0141331
internal_weight=0 88.3089 79.6043 13.8849 72.1847 48.4101 19.5325 14.4664 28.8776 23.0135 23.7745 16.6911 18.7196 9.93692 13.5547
internal_count=425 369 334 56 304 202 80 59 122 97 102 71 81 42 59
is_linear=0
shrinkage=0.01


Tree=22
num_leaves=16
num_cat=0
split_feature=1 3 1 7 7 2 4 4 3 1 7 7 1 6 3
split_gain=20.2718 12.209 9.3143 19.104 16.4751 11.0619 8.41918 6.03474 5.4856 3.71439 3.55783 2.67792 2.35142 1.89133 0.0133857
threshold=3.4045640902025558 -0.012503922194049942 3.3611195200965853 0.023395497400613866 0.12124558262747455 1.0000000180025095e-35 0.0060889640128942721 -0.0013732705217455175 1.0000000180025095e-35 3.3622600812007861 0.097378706976130061 -0.049830459484277993 3.3763000057350188 -0.0010923053435825112 0.0022914130333693277
decision_type=2 2 2 2 2 2 2 2 2 2 2 2 2 2 2
left_child=1 9 4 8 5 7 10 -3 11 -1 14 -4 -5 -13 -7
right_child=-2 2 3 12 -6 6 -8 -9 -10 -11 -12 13 -14 -15 -16
leaf_value=-0.014305370311233528 0.01675458798551574 -0.006211355365513308 0.00076071182050128829 0.016410791582681435 0.01183609779820924 -0.015525098420972159 0.0011331441269086947 0.0081774784353439069 0.0048143002688806284 -0.0047438473670947902 -0.0055970267903961051 -0.0036763293148981253 0.0078050163345787897 -0.01250463339482852 -0.016197584902236339
leaf_weight=7.3647934049367931 6.7426765561103812 4.9648588001728058 5.046398550271987 8.970043405890463 6.470941334962844 8.0038331896066719 5.5394997149705878 7.0590462237596494 8.8327579349279386 9.0620438158512098 4.7090243697166434 4.7162876874208424 4.9146318584680548 4.9986353814601943 4.6967916190624228
leaf_count=32 27 21 21 36 26 35 23 29 36 38 20 20 20 21 20
internal_value=0 -0.00118723 0.000445282 0.00405782 -0.00282162 -0.00553368 -0.00960456 0.0022361 -0.0014191 -0.00903065 -0.0130211 -0.00514899 0.0133647 -0.00821877 -0.0157738
internal_weight=0 95.3496 78.9228 37.4788 41.444 34.9731 22.9491 12.0239 23.5941 16.4268 17.4096 14.7613 13.8847 9.71492 12.7006
internal_count=425 398 328 154 174 148 98 50 98 70 75 62 56 41 55
is_linear=0
shrinkage=0.01


Tree=23
num_leaves=16
num_cat=0
split_feature=0 1 7 3 7 1 0 4 4 7 7 0 0 2 4
split_gain=21.9492 16.2967 12.4262 12.4572 7.48592 7.0479 7.02506 9.19686 8.63489 7.65402 5.96273 1.88349 1.49661 0.913685 0.460447
threshold=3.4234660879207941 3.4045640902025558 0.12124558262747455 0.0067284293656193492 0.050350735025298084 3.3649194344117439 3.3482332076660821 -0.0013732705217455175 0.0015639995026159872 -0.049830459484277993 -0.038381820585037245 3.3745232367677374 3.1848301913535511 0.0018912743492376374 -0.0015905515412673041
decision_type=2 2 2 2 2 2 2 2 2 2 2 2 2 2 2
left_child=1 2 3 4 6 -2 7 12 -8 -9 -5 -12 -1 14 -6
right_child=5 -3 -4 10 13 -7 8 9 -10 -11 11 -13 -14 -15 -16
leaf_value=-0.0090394031617344293 0.0030759802973594876 0.015700860870836553 0.0094464877439644889 0.010500040848481005 -0.011305759507493801 0.017579554123237594 0.010255441137102635 0.0058995004923323739 -0.007231225805613163 -0.0083744736529062207 -0.0048243001969869373 0.0029424205393927733 -0.015875264654536966 -0.0087213458949188041 -0.015381469876180597
leaf_weight=5.6366599798202479 5.646111622452735 4.9941092729568473 7.4256048649549475 6.6548835337162044 4.7930922955274591 8.2406305670738202 6.3772240877151471 7.2943092286586708 5.0679744035005569 7.7458120137453168 6.7086828798055631 5.840899720788002 7.417184129357338 5.5783807486295691 6.5731612890958795
leaf_count=24 23 20 30 27 21 33 26 30 21 33 28 24 32 24 29
internal_value=0 -0.00184401 -0.00289824 -0.00410935 -0.00647492 0.0116826 -0.0040917 -0.0067821 0.00251228 -0.00145174 0.0028482 -0.00120947 -0.0129235 -0.012036 -0.0136628
internal_weight=0 88.108 83.1139 75.6883 56.4838 13.8867 39.5392 28.094 11.4452 15.0401 19.2045 12.5496 13.0538 16.9446 11.3663
internal_count=425 369 349 319 240 56 166 119 47 63 79 52 56 74 50
is_linear=0
shrinkage=0.01


Tree=24
num_leaves=17
num_cat=0
split_feature=1 6 5 3 5 4 2 1 1 2 2 2 1 2 5 3
split_gain=19.4999 12.0314 15.1074 9.42329 8.8404 9.1916 6.50095 7.04223 15.4056 12.3847 6.56521 5.82451 3.63659 1.52777 0.384363 0.272852
threshold=3.4045640902025558 -0.0046774694610656189 3.2883906965643548 -0.0054080815172470311 3.2993446882739943 0.0036085352250321283 0.0024229316747010903 3.3651513261322394 3.1839104345146398 0.0018681053821216766 6.935196028590164e-05 -4.7409654644114945e-05 3.3629846946556534 0.00037804275097896861 3.3016228254173909 0.0042388317490955627
decision_type=2 2 2 2 2 2 2 2 2 2 2 2 2 2 2 2
left_child=1 12 3 13 -4 -6 7 8 9 10 -5 -9 -1 -3 -14 -10
right_child=-2 2 4 6 5 -7 -8 11 15 -11 -12 -13 14 -15 -16 -17
leaf_value=-0.015559918861862096 0.016438054764141903 -0.015584816074783202 0.014614928787600012 0.0041942028606208118 -0.0040763909271322608 0.011291785047973483 0.0096356270038756697 -0.0018941814833299589 -0.016037960558292316 0.01436721841477044 -0.011243025265728413 0.011582825307793808 -0.0034598925414349281 -0.0075425195340936583 -0.0074295412154599862 -0.012783625163739099
leaf_weight=5.7225518673658362 6.7374362945556632 4.814488008618353 9.196921721100809 4.7906202226877266 9.3587199747562426 6.6621897220611563 5.4016156792640677 7.390912264585495 5.5766171067953092 4.8938894420862189 6.4831947833299637 5.664576441049574 4.6961027830839139 4.637212797999382 5.0751732885837555 4.7886191606521606
leaf_count=25 27 21 37 20 39 27 22 31 24 20 28 23 20 20 21 20
internal_value=0 -0.00116649 0.00040173 -0.00256217 0.00680037 0.00231436 -0.000655251 -0.00205938 -0.00501791 0.00108325 -0.00468323 0.00395329 -0.00922927 -0.0116391 -0.00552172 -0.0145345
internal_weight=0 95.1534 79.6596 54.4417 25.2178 16.0209 44.99 39.5884 26.5329 16.1677 11.2738 13.0555 15.4938 9.4517 9.77128 10.3652
internal_count=425 398 332 229 103 66 188 166 112 68 48 54 66 41 41 44
is_linear=0
shrinkage=0.01


Tree=25
num_leaves=16
num_cat=0
split_feature=1 3 5 7 4 1 1 5 4 1 2 1 2 7 4
split_gain=19.1239 11.7426 10.1226 13.8702 12.6079 11.6527 7.99958 6.3636 8.75917 5.3972 8.84047 3.6257 1.14989 0.573971 0.0292365
threshold=3.4045640902025558 -0.012503922194049942 3.2843966694260547 0.12124558262747455 -0.0047255420576517429 3.3699339270376574 3.3809955971697692 3.2993446882739943 0.0036085352250321283 3.118381535403056 0.0020585182196273259 3.3622600812007861 1.0417428507825123e-05 0.092249938352756869 0.001893136049938793
decision_type=2 2 2 2 2 2 2 2 2 2 2 2 2 2 2
left_child=1 11 3 5 -4 9 -7 -6 -9 -3 13 -1 -8 14 -11
right_child=-2 2 4 -5 7 6 12 8 -10 10 -12 -13 -14 -15 -16
leaf_value=-0.014118691260120966 0.016283241530503808 -0.0007730730558617603 -0.0089195974429308999 0.011527747958512047 0.01513159196558269 0.01328173304658836 -0.0057194287434653478 -0.003187092587364338 0.01321356205702065 -0.015333582404595323 -0.00085821722767503983 -0.004638825416019567 0.0012198947543272005 -0.011734778102062094 -0.016406436716191717
leaf_weight=7.2946379333734539 6.7334968000650397 8.3023609668016451 5.0196757018566158 6.4773591309785834 8.9661412835121173 5.1222091168165198 4.7182037979364377 7.2233689725399 5.9295762777328491 5.1942910104990023 6.9224338680505744 9.0272074937820417 4.8349622935056686 5.0542075783014289 4.970858559012413
leaf_count=32 27 35 21 26 36 21 20 30 24 23 29 38 20 22 21
internal_value=0 -0.00115609 0.00044416 -0.00215627 0.00538815 -0.00412074 0.00319886 0.00863513 0.00420661 -0.0076491 -0.0102274 -0.00887561 -0.00220736 -0.0144889 -0.0158582
internal_weight=0 95.0575 78.7356 51.5969 27.1388 45.1195 14.6754 22.1191 13.1529 30.4442 22.1418 16.3218 9.55317 15.2194 10.1651
internal_count=425 398 328 217 111 191 61 90 54 130 95 70 40 66 44
is_linear=0
shrinkage=0.01


Tree=26
num_leaves=16
num_cat=0
split_feature=0 5 7 3 7 0 4 5 4 7 6 7 0 0 0
split_gain=21.0821 22.9302 13.2462 11.4691 6.19178 7.31762 8.30487 6.16973 5.40645 4.56593 3.31737 3.15361 0.846516 0.642022 0.307027
threshold=3.4234660879207941 3.3177252755447184 0.12124558262747455 0.0053332730341506549 0.050350735025298084 3.3482332076660821 -0.00040803460578309187 3.2715691490639385 -0.0013732705217455175 -0.038381820585037245 0.0029424689098940253 -0.049830459484277993 3.1848301913535511 3.3087287683666866 3.3793365346124093
decision_type=2 2 2 2 2 2 2 2 2 2 2 2 2 2 2
left_child=1 2 3 4 5 8 -7 -2 12 -5 -11 -10 -1 -6 -15
right_child=7 -3 -4 9 13 6 -8 -9 11 10 -12 -13 -14 14 -16
leaf_value=-0.010004053601477315 0.0024115036912801318 0.01360271968600768 0.0092057232136904168 0.0096545021115125498 -0.015151585934053372 0.0096266274482884589 -0.0070552402896120123 0.016373111561294281 0.0018598814821927602 -0.0053818713381527765 0.0048118388376762302 -0.0079658003098038669 -0.015462632261397448 -0.0089525202817744981 -0.012349919620730919
leaf_weight=5.1167031079530663 4.8868809491395941 8.6945865601301175 7.4278538674116126 5.4172685295343426 5.3757953494787243 6.1341926753520966 5.811736658215521 8.9838552772998792 5.8051331043243346 7.8644901812076551 5.3739839494228363 7.4695439785719033 6.3878857344388962 4.5676457136869413 6.3691364079713821
leaf_count=22 20 35 30 22 24 25 24 36 24 33 22 32 28 20 28
internal_value=0 -0.00181216 -0.00350608 -0.0048231 -0.00719523 -0.00491807 0.00151084 0.0114542 -0.0080174 0.00192081 -0.00124387 -0.00366894 -0.0130349 -0.0123219 -0.010931
internal_weight=0 87.816 79.1214 71.6935 53.0378 36.7252 11.9459 13.8707 24.7793 18.6557 13.2385 13.2747 11.5046 16.3126 10.9368
internal_count=425 369 334 304 227 155 49 56 106 77 55 56 50 72 48
is_linear=0
shrinkage=0.01


Tree=27
num_leaves=16
num_cat=0
split_feature=0 5 3 7 5 1 1 2 3 1 0 2 7 1 2
split_gain=20.6686 22.481 13.1112 13.052 8.75873 6.73268 6.57909 7.78767 4.06328 3.6896 3.65808 3.36786 1.11915 0.117199 0.0136307
threshold=3.4234660879207941 3.3177252755447184 -0.0060556156026827504 0.1158487187085231 3.2761857921367761 3.3649194344117439 3.118381535403056 0.0021006960000171664 1.0000000180025095e-35 3.3691622052952401 3.3509109370269088 0.00013360905922832347 -0.049830459484277993 3.3334481691800191 0.0010171058667636237
decision_type=2 2 2 2 2 2 2 2 2 2 2 2 2 2 2
left_child=1 2 10 4 6 -2 -4 14 11 -10 13 12 -6 -1 -8
right_child=5 -3 3 -5 8 -7 7 -9 9 -11 -12 -13 -14 -15 -16
leaf_value=-0.015390174180357633 0.0029228046298715176 0.013463949240152453 0.00013993154159449515 0.010950261956510452 -0.0025299198180674899 0.017107602941583464 -0.015898400948023254 -0.0005352722758508691 -0.00039162514979074734 0.011441525822346674 -0.0053070142618406625 0.0041063722725925124 -0.0086364680995933574 -0.013315522136992497 -0.015198315736990353
leaf_weight=6.3491255342960375 5.6382679492235175 8.6963484883308393 7.8348064422607449 7.66673420369625 7.1312027275562269 8.2308588773012143 4.6364234089851397 4.9893876463174811 5.1409943401813489 5.4056058377027512 7.087557077407836 5.8669077157974234 5.182164490222938 4.7675381749868393 6.9499275237321854
leaf_count=28 23 35 33 31 30 33 20 21 21 22 30 24 22 21 31
internal_value=0 -0.00179641 -0.0034761 -0.00124713 -0.00300699 0.011341 -0.00741127 -0.0109805 0.00073554 0.0056734 -0.0109211 -0.00212897 -0.0050999 -0.0145004 -0.0154785
internal_weight=0 87.7047 79.0084 60.8042 53.1374 13.8691 24.4105 16.5757 28.7269 10.5466 18.2042 18.1803 12.3134 11.1167 11.5864
internal_count=425 369 334 255 224 56 105 72 119 43 79 76 52 49 51
is_linear=0
shrinkage=0.01


Tree=28
num_leaves=15
num_cat=0
split_feature=0 5 7 1 7 0 5 1 7 2 4 7 7 4
split_gain=20.2644 22.0419 12.7895 6.60733 5.84747 7.91882 15.6462 8.3498 8.58311 7.62391 6.24736 2.26001 2.16014 0.549123
threshold=3.4234660879207941 3.3177252755447184 0.12124558262747455 3.3649194344117439 0.050350735025298084 3.3392023033306217 3.2993446882739943 3.3360209646383958 -0.02035498333112273 0.00019310786965198726 0.0044783204362954807 0.097378706976130061 -0.049830459484277993 -0.0028236237738368248
decision_type=2 2 2 2 2 2 2 2 2 2 2 2 2 2
left_child=1 2 4 -2 5 7 9 8 -1 -7 11 13 -9 -6
right_child=3 -3 -4 -5 10 6 -8 12 -10 -11 -12 -13 -14 -15
leaf_value=0.0051645959192642308 0.0028927519679243369 0.013327820679940112 0.0090416980165530843 0.016945139170899765 -0.010911173264289571 0.0013768420161340558 -0.012985828577999807 -0.0078813253064496502 -0.011553261409766351 0.016129264086750843 0.0010028717988352399 -0.005881904450122856 -0.015550462209452108 -0.015204671145957192
leaf_weight=9.0951827168464643 5.6398671865463248 8.6973146051168424 7.428841993212699 8.2266956716775876 4.5244521945714977 8.5057329982519168 5.0546228289604178 8.2512157112359947 4.6365892887115505 5.9561191499233237 5.0444846004247657 5.0611993968486777 6.6189075708389309 8.7199061959981936
leaf_count=38 23 35 30 33 20 35 21 35 20 24 21 22 29 39
internal_value=0 -0.00178079 -0.0034463 0.0112297 -0.00474437 -0.0027518 0.00215922 -0.00610283 -0.000480257 0.00745263 -0.00885056 -0.0115659 -0.011295 -0.013738
internal_weight=0 87.5946 78.8973 13.8666 71.4684 48.1184 19.5165 28.6019 13.7318 14.4619 23.35 18.3056 14.8701 13.2444
internal_count=425 369 334 56 304 202 80 122 58 59 102 81 64 59
is_linear=0
shrinkage=0.01


Tree=29
num_leaves=16
num_cat=0
split_feature=0 5 3 4 1 3 1 4 1 1 1 1 0 4 1
split_gain=19.8698 21.6133 12.8415 7.81545 6.48607 5.36709 3.87985 7.33079 6.53715 5.93533 4.30042 3.74094 3.62081 2.68779 0.121652
threshold=3.4234660879207941 3.3177252755447184 -0.0060556156026827504 -0.0044349443012019476 3.3649194344117439 0.0053332730341506549 3.3783087226433453 0.003885752174773716 3.3589009821069351 3.2585890462267648 3.126928465734534 3.3691622052952401 3.3509109370269088 0.0036085352250321283 3.3334481691800191
decision_type=2 2 2 2 2 2 2 2 2 2 2 2 2 2 2
left_child=1 2 12 -4 -2 6 7 8 9 10 -5 13 14 -7 -1
right_child=4 -3 3 5 -6 11 -8 -9 -10 -11 -12 -13 -14 -15 -16
leaf_value=-0.015293415753686526 0.002863028231944063 0.013194245869570961 -0.011386181345454245 -0.0023795557849866002 0.016786555622145875 -0.0027198096868031787 -0.0086034601086519141 -0.009468137141026919 0.012593911239105528 -0.0087824377831134913 0.010783591970476647 0.011814101384462181 -0.0052178155165591503 0.0060298454221574781 -0.013172322895332069
leaf_weight=6.3102404773235339 5.6414276063442221 8.6975086033344251 6.7137712240219107 5.1213915646076256 8.2213952839374524 6.9492004215717333 7.5757320970296851 6.8593232184648505 4.8681888431310645 5.7262325584888449 4.815762922167778 4.9453283995389929 7.0669356435537329 7.0957701802253723 4.7313265353441238
leaf_count=28 23 35 29 22 33 29 32 29 20 25 20 20 30 29 21
internal_value=0 -0.00176546 -0.00341707 -0.00121133 0.0111204 5.47071e-05 -0.00226955 -0.000517733 0.00247248 -0.00067327 0.00399959 0.00433434 -0.0108072 0.00170067 -0.0143845
internal_weight=0 87.4767 78.7792 60.6707 13.8628 53.9569 34.9666 27.3909 20.5316 15.6634 9.93715 18.9903 18.1085 14.045 11.0416
internal_count=425 369 334 255 56 226 148 116 87 67 42 78 79 58 49
is_linear=0
shrinkage=0.01


Tree=30
num_leaves=16
num_cat=0
split_feature=5 4 5 7 5 3 6 4 3 6 4 4 4 5 5
split_gain=16.8442 12.1483 12.3255 14.49 13.063 11.3753 8.74961 5.06351 5.98361 4.95219 4.06316 5.81109 3.53102 1.54369 1.12638
threshold=3.3156721837700665 -0.0040965860591888328 3.2883906965643548 0.12440203577065813 3.2993446882739943 0.0053332730341506549 0.0038475266536674995 0.0015639995026159872 -0.005143517000154362 -0.0040627720575401307 0.0058654869095164939 0.0019199162764313995 -0.0013732705217455175 3.2336770816332137 3.2776412729901634
decision_type=2 2 2 2 2 2 2 2 2 2 2 2 2 2 2
left_child=1 14 3 5 -4 7 -6 8 -3 -2 11 -7 -10 -9 -1
right_child=9 2 4 -5 6 10 -8 13 12 -11 -12 -13 -14 -15 -16
leaf_value=-0.0079129701236738577 0.0033255021237131488 -0.01220592486950749 0.015773122951831874 0.012810616845690011 -0.0084384140022188744 0.007295617503105597 0.007678636067573099 -0.015455496331377626 -0.0066104446485012857 0.016331981166744634 0.010348047523474227 -0.0077330279034982657 0.0039800964825521578 -0.0089399845302131613 -0.014006177382608207
leaf_weight=6.4234954714775068 4.9296387434005737 6.2713052630424491 8.7276314496994036 5.4935789555311194 6.3739653974771482 4.8371988236904127 7.143227681517601 6.8152473568916303 5.3010802417993474 7.2072694599628431 4.9134065508842459 5.4963358491659164 7.7519510686397641 7.7958709597587585 5.7491907179355621
leaf_count=28 20 28 35 22 27 20 29 30 23 29 20 23 33 33 25
internal_value=0 -0.00150835 -3.93995e-05 -0.00259267 0.00623633 -0.00431319 7.8721e-05 -0.00753678 -0.00417795 0.0110491 0.00286164 -0.000698015 -0.00032092 -0.0119791 -0.0107908
internal_weight=0 89.0935 76.9208 54.676 22.2448 49.1824 13.5172 33.9355 19.3243 12.1369 15.2469 10.3335 13.053 14.6111 12.1727
internal_count=425 376 323 232 91 210 56 147 84 49 63 43 56 63 53
is_linear=0
shrinkage=0.01


Tree=31
num_leaves=16
num_cat=0
split_feature=0 5 3 6 1 2 5 5 1 1 0 0 0 2 1
split_gain=19.2881 20.8545 12.4765 6.92985 6.38728 6.08387 6.80981 10.3456 6.26703 10.2566 6.06055 3.5587 2.03515 0.728866 0.119885
threshold=3.4234660879207941 3.3177252755447184 -0.0060556156026827504 -0.0046774694610656189 3.3649194344117439 0.0019757457752116463 3.2927438471584973 3.3009724647898957 3.3725094266452156 3.118381535403056 3.3392023033306217 3.3509109370269088 3.3509109370269088 0.0014316468778781124 3.3334481691800191
decision_type=2 2 2 2 2 2 2 2 2 2 2 2 2 2 2
left_child=1 2 11 -4 -2 6 8 -8 9 -5 -10 14 -7 -11 -1
right_child=4 -3 3 5 -6 12 7 -9 10 13 -12 -13 -14 -15 -16
leaf_value=-0.01515264483906547 0.0027667669385722719 0.012953978199034726 -0.011016389443540433 0.0012467385078694276 0.016587923186273661 0.0026756158230846626 0.015105107634883812 -0.0028241986914003571 -0.0061041141886644069 -0.016017127568510616 0.0094233351200968627 -0.005135713166817657 0.011079241739891591 -0.010876966821085316 -0.013038569447376188
leaf_weight=6.2561016380786914 5.6408400386571875 8.6929839700460416 6.4246069341897956 7.3480743169784608 8.210747152566908 6.5938408970832807 5.2107064127922049 8.4168262928724271 4.9262178689241392 6.7139113247394544 5.1327825486660004 7.0459343641996375 5.1190246939659119 4.6826679259538651 4.6957724243402481
leaf_count=28 23 35 28 31 33 27 21 35 21 29 21 30 21 21 21
internal_value=0 -0.00174299 -0.00336914 -0.00119687 0.0109595 -3.17107e-05 -0.00179289 0.00403136 -0.00454845 -0.00796545 0.00181904 -0.0106796 0.00634836 -0.0139051 -0.0142462
internal_weight=0 87.2595 78.5665 60.5687 13.8516 54.1441 42.4312 13.6275 28.8037 18.7447 10.059 17.9978 11.7129 11.3966 10.9519
internal_count=425 369 334 255 56 227 179 56 123 81 42 79 48 50 49
is_linear=0
shrinkage=0.01


Tree=32
num_leaves=16
num_cat=0
split_feature=5 4 5 7 5 3 6 4 3 6 4 4 4 5 5
split_gain=16.1847 11.7744 11.9702 14.0884 12.693 11.0737 8.49481 5.00906 5.85391 4.85587 3.94643 5.68742 3.45961 1.50221 1.12723
threshold=3.3156721837700665 -0.0040965860591888328 3.2883906965643548 0.12440203577065813 3.2993446882739943 0.0053332730341506549 0.0038475266536674995 0.0015639995026159872 -0.005143517000154362 -0.0040627720575401307 0.0058654869095164939 0.0019199162764313995 -0.0013732705217455175 3.2336770816332137 3.2776412729901634
decision_type=2 2 2 2 2 2 2 2 2 2 2 2 2 2 2
left_child=1 14 3 5 -4 7 -6 8 -3 -2 11 -7 -10 -9 -1
right_child=9 2 4 -5 6 10 -8 13 12 -11 -12 -13 -14 -15 -16
leaf_value=-0.0077631616941985374 0.0031904147903491003 -0.012081275141813168 0.015548427001067972 0.01262953194493993 -0.0083383679087050463 0.0072063152366950919 0.0075553741794624867 -0.015326193627238789 -0.0065330025344191344 0.016074045696944546 0.010188525582556993 -0.0076657186617662574 0.0039616380385552883 -0.0088825053580235003 -0.01387677866982338
leaf_weight=6.3880750983953458 4.9302702248096466 6.2250571697950354 8.7267393022775668 5.4931975752115241 6.354255869984625 4.8401989936828596 7.143057182431221 6.7635746002197248 5.2830285429954458 7.1941851377487165 4.9191377162933341 5.4858991056680679 7.7479403913021176 7.7790784239768982 5.7130967378616333
leaf_count=28 20 28 35 22 27 20 29 30 23 29 20 23 33 33 25
internal_value=0 -0.00148163 -3.63512e-05 -0.00255719 0.00614971 -0.00425819 7.29291e-05 -0.00744951 -0.00410397 0.0108351 0.00281697 -0.000694682 -0.00029311 -0.0118794 -0.0106495
internal_weight=0 88.8623 76.7612 54.5371 22.2241 49.0439 13.4973 33.7987 19.256 12.1245 15.2452 10.3261 13.031 14.5427 12.1012
internal_count=425 376 323 232 91 210 56 147 84 49 63 43 56 63 53
is_linear=0
shrinkage=0.01


Tree=33
num_leaves=17
num_cat=0
split_feature=1 3 5 7 4 1 1 5 4 1 2 3 1 2 2 2
split_gain=16.8278 10.667 8.89958 12.307 11.8456 11.0505 7.33383 5.70502 7.91612 5.37021 5.0066 5.42389 3.35317 1.06989 0.855306 0.386586
threshold=3.4045640902025558 -0.012503922194049942 3.2843966694260547 0.12124558262747455 -0.0047255420576517429 3.3699339270376574 3.3809955971697692 3.2993446882739943 0.0036085352250321283 3.3030612407154631 1.0000000180025095e-35 0.0053332730341506549 3.3622600812007861 1.0417428507825123e-05 0.0017743692847635997 0.0017928687403434564
decision_type=2 2 2 2 2 2 2 2 2 2 2 2 2 2 2 2
left_child=1 12 3 5 -4 9 -7 -6 -9 10 -3 14 -1 -8 -12 -11
right_child=-2 2 4 -5 7 6 13 8 -10 15 11 -13 -14 -15 -16 -17
leaf_value=-0.013654472898619549 0.015335729282511352 0.0044543889601461936 -0.0088668889062969367 0.010861223234382584 0.01436450972416818 0.012894416041690466 -0.0053720596958168913 -0.0030468916771217176 0.012568244878325497 -0.015789438222360147 -0.015010363390794 -0.00032618018363235213 -0.0044432611035253892 0.0013528219714778601 -0.0089871201724912066 -0.011683431245610354
leaf_weight=7.0979745537042644 6.6787641644477835 4.7624569088220658 4.9750275313854244 6.4762556105852118 8.9598439931869525 5.1197372376918784 4.6662574261426908 7.1829760670661909 5.9240927994251251 4.57976585626602 4.8727461546659487 6.6898126602172843 8.9167976975440961 4.7986509054899216 4.5673307031393051 4.5923024266958237
leaf_count=32 27 20 21 26 36 21 20 30 24 20 22 28 38 20 20 20
internal_value=0 -0.00109066 0.000432636 -0.00202136 0.00507214 -0.00388995 0.00325276 0.00821472 0.00401079 -0.00735497 -0.00455464 -0.00721461 -0.0085258 -0.00196259 -0.0120962 -0.0137336
internal_weight=0 94.182 78.1673 51.1253 27.0419 44.6491 14.5846 22.0669 13.1071 30.0644 20.8923 16.1299 16.0148 9.46491 9.44008 9.17207
internal_count=425 398 328 217 111 191 61 90 54 130 90 70 70 40 42 40
is_linear=0
shrinkage=0.01


end of trees

feature_importances:
MA_100=90
divergence=84
VWAP=80
diff_MA_9=73
diff_MA_100=59
price_close=54
diff_price_close=48
diff_divergence=43

parameters:
[boosting: gbdt]
[objective: binary]
[metric: binary_logloss]
[tree_learner: serial]
[device_type: cpu]
[data_sample_strategy: bagging]
[data: ]
[valid: ]
[num_iterations: 5000]
[learning_rate: 0.01]
[num_leaves: 31]
[num_threads: 4]
[seed: 0]
[deterministic: 0]
[force_col_wise: 0]
[force_row_wise: 0]
[histogram_pool_size: -1]
[max_depth: -1]
[min_data_in_leaf: 20]
[min_sum_hessian_in_leaf: 0.001]
[bagging_fraction: 0.6]
[pos_bagging_fraction: 1]
[neg_bagging_fraction: 1]
[bagging_freq: 0]
[bagging_seed: 3]
[feature_fraction: 0.7]
[feature_fraction_bynode: 1]
[feature_fraction_seed: 2]
[extra_trees: 0]
[extra_seed: 6]
[early_stopping_round: 0]
[first_metric_only: 0]
[max_delta_step: 0]
[lambda_l1: 0]
[lambda_l2: 0]
[linear_lambda: 0]
[min_gain_to_split: 0]
[drop_rate: 0.1]
[max_drop: 50]
[skip_drop: 0.5]
[xgboost_dart_mode: 0]
[uniform_drop: 0]
[drop_seed: 4]
[top_rate: 0.2]
[other_rate: 0.1]
[min_data_per_group: 100]
[max_cat_threshold: 32]
[cat_l2: 10]
[cat_smooth: 10]
[max_cat_to_onehot: 4]
[top_k: 20]
[monotone_constraints: ]
[monotone_constraints_method: basic]
[monotone_penalty: 0]
[feature_contri: ]
[forcedsplits_filename: ]
[refit_decay_rate: 0.9]
[cegb_tradeoff: 1]
[cegb_penalty_split: 0]
[cegb_penalty_feature_lazy: ]
[cegb_penalty_feature_coupled: ]
[path_smooth: 0]
[interaction_constraints: ]
[verbosity: 0]
[saved_feature_importance_type: 0]
[use_quantized_grad: 0]
[num_grad_quant_bins: 4]
[quant_train_renew_leaf: 0]
[stochastic_rounding: 1]
[linear_tree: 0]
[max_bin: 255]
[max_bin_by_feature: ]
[min_data_in_bin: 3]
[bin_construct_sample_cnt: 200000]
[data_random_seed: 1]
[is_enable_sparse: 1]
[enable_bundle: 1]
[use_missing: 1]
[zero_as_missing: 0]
[feature_pre_filter: 1]
[pre_partition: 0]
[two_round: 0]
[header: 0]
[label_column: ]
[weight_column: ]
[group_column: ]
[ignore_column: ]
[categorical_feature: ]
[forcedbins_filename: ]
[precise_float_parser: 0]
[parser_config_file: ]
[objective_seed: 5]
[num_class: 1]
[is_unbalance: 0]
[scale_pos_weight: 1]
[sigmoid: 1]
[boost_from_average: 1]
[reg_sqrt: 0]
[alpha: 0.9]
[fair_c: 1]
[poisson_max_delta_step: 0.7]
[tweedie_variance_power: 1.5]
[lambdarank_truncation_level: 30]
[lambdarank_norm: 1]
[label_gain: ]
[lambdarank_position_bias_regularization: 0]
[eval_at: ]
[multi_error_top_k: 1]
[auc_mu_weights: ]
[num_machines: 1]
[local_listen_port: 12400]
[time_out: 120]
[machine_list_filename: ]
[machines: ]
[gpu_platform_id: -1]
[gpu_device_id: -1]
[gpu_use_dp: 0]
[num_gpu: 1]

end of parameters

pandas_categorical:[]
