tree
version=v4
num_class=3
num_tree_per_iteration=3
label_index=0
max_feature_idx=7
objective=multiclass num_class:3
feature_names=price_close MA_100 diff_MA_100 diff_price_close diff_MA_9 VWAP diff_divergence divergence
feature_infos=[2.0984825768275708:2.4364230942095486] [2.1963371917810259:2.3857961145963071] [-0.0031507297856494532:0.0019390140689710123] [-0.12289718082659551:0.11340830548328462] [-0.016461643819176697:0.012212821242123972] [2.2583421553359679:2.3368148988560669] [-0.013310914033527244:0.013978668965309637] [-0.12650256467431387:0.10957989550395197]
tree_sizes=1246 1366 1346 1187 1497 1401 1297 1283 1408 1394 1481 1408 1313 1180 1410 1293 1176 1382 1292 1397 1500 1292 1080 1511 1193 1176 1397 1295 1186 1502 1418 1292 1407 1299 1281 1497

Tree=0
num_leaves=11
num_cat=0
split_feature=0 2 0 7 7 1 1 2 5 1
split_gain=24.593 15.7216 22.6768 11.0189 8.76864 6.99821 5.82209 5.98666 3.83224 1.26983
threshold=2.3853808946061368 -0.00044798709738702586 2.1923508959145814 -0.091276294524248666 0.017174981025833484 2.2308380400887065 2.3083618705879343 0.0010801942858527094 2.3026966766104171 2.2787110692321879
decision_type=2 2 2 2 2 2 2 2 2 2
left_child=1 2 -1 -4 8 -6 7 -7 -3 -5
right_child=-2 4 3 9 5 6 -8 -9 -10 -11
leaf_value=-1.0803321977570357 -1.0595616659669007 -1.0813772612955999 -1.0715099237768073 -1.0622190697932015 -1.0667613413604433 -1.080331214552043 -1.0689791349220061 -1.0717589219395063 -1.0746512220697446 -1.0567195806990055
leaf_weight=10.472288608551024 15.877340793609617 21.958024501800537 11.147920131683344 10.810104370117193 15.539525032043455 19.25549840927124 13.512630462646483 14.526077747344969 14.863893508911131 10.810104370117186
leaf_count=31 47 65 33 32 46 57 40 43 44 32
internal_value=-1.07133 -1.07264 -1.06762 -1.06352 -1.07483 -1.07254 -1.07446 -1.07669 -1.07871 -1.05937
internal_weight=0 142.896 43.2404 32.7681 99.6556 62.8337 47.2942 33.7816 36.8219 21.6202
internal_count=470 423 128 97 295 186 140 100 109 64
is_linear=0
shrinkage=1


Tree=1
num_leaves=12
num_cat=0
split_feature=2 7 7 6 6 4 2 7 5 7 6
split_gain=13.6528 18.3792 8.24886 6.08257 11.4878 4.89532 4.54911 4.3924 2.07794 1.02216 0.651767
threshold=-0.00013857593175981006 0.033980783934263854 -0.093784733509696835 0.0014067314232346642 -0.0017084535039293411 0.00013865385590960957 0.00095538671798545149 0.071395006914201989 2.3081859539798182 -0.079781497332098703 -0.00072561021309347485
decision_type=2 2 2 2 2 2 2 2 2 2 2
left_child=2 3 -1 4 -2 -6 -3 10 -4 -10 -8
right_child=1 6 8 -5 5 -7 7 -9 9 -11 -12
leaf_value=-1.1385957734361207 -1.1419953707317994 -1.1491077393363329 -1.1447653235092372 -1.141732879741193 -1.1251776435840797 -1.134048318898883 -1.1377185253273099 -1.1470513420653448 -1.147496640944345 -1.1517659161442364 -1.1414447603781095
leaf_weight=10.43005847930908 13.037573099136351 14.993209064006804 11.407876461744307 14.667269736528395 10.755997806787493 17.274784356355667 9.7781798243522626 12.711633771657942 11.733815789222716 15.971027046442034 10.430058479309084
leaf_count=32 40 46 35 45 33 53 30 39 36 49 32
internal_value=-1.1421 -1.14003 -1.14641 -1.13613 -1.13416 -1.13056 -1.14456 -1.14244 -1.14852 -1.15002 -1.13958
internal_weight=0 103.649 49.5428 55.7356 41.0684 28.0308 47.9131 32.9199 39.1127 27.7048 20.2082
internal_count=470 318 152 171 126 86 147 101 120 85 62
is_linear=0
shrinkage=1


Tree=2
num_leaves=12
num_cat=0
split_feature=0 5 6 0 5 2 6 5 0 5 2
split_gain=24.2149 17.4604 14.368 8.81659 8.41212 6.35628 9.12974 14.5428 4.12375 7.90495 0.857886
threshold=2.1900615506308392 2.2929094461457278 -0.00090227808553589018 2.296670020902138 2.317182733851475 0.00087781795357111403 0.00086227173912245558 2.2970409859471324 2.3678431489709921 2.2964770816768847 0.00097554954906375901
decision_type=2 2 2 2 2 2 2 2 2 2 2
left_child=-1 -2 3 -3 5 6 -4 -8 9 -5 -6
right_child=1 2 4 8 10 -7 7 -9 -10 -11 -12
leaf_value=-1.0691624298064497 -1.0730631541877365 -1.0748925238712197 -1.090484231359244 -1.0869308063608873 -1.0938059851285937 -1.0921921503156449 -1.0725704985296936 -1.0868202358910419 -1.0892519745740012 -1.0752265502937883 -1.0897743519218028
leaf_weight=10.409137338399885 11.416473209857939 14.102702200412748 15.110038071870802 13.095366328954698 20.482496052980427 12.759587705135344 12.088030457496645 17.124709814786911 11.080694586038588 10.073358714580534 10.073358714580534
leaf_count=31 34 42 45 39 61 38 36 51 33 30 30
internal_value=-1.08383 -1.08487 -1.08588 -1.08152 -1.0883 -1.086 -1.08418 -1.08094 -1.08424 -1.08187 -1.09253
internal_weight=0 147.407 135.99 48.3521 87.6382 57.0824 44.3228 29.2127 34.2494 23.1687 30.5559
internal_count=470 439 405 144 261 170 132 87 102 69 91
is_linear=0
shrinkage=1


Tree=3
num_leaves=10
num_cat=0
split_feature=5 1 6 6 7 7 1 5 1
split_gain=22.7381 12.7078 11.8006 8.46436 5.56033 5.08857 7.03233 4.52304 4.50544
threshold=2.3175331785837483 2.2578708634582334 -0.00051853151408498544 -0.0028748656893105014 -0.0057848150994821426 0.017174981025833484 2.2824691143826188 2.2968868913345597 2.3406409853034389
decision_type=2 2 2 2 2 2 2 2 2
left_child=1 2 -1 -2 8 -3 -7 -4 -5
right_child=3 5 7 4 -6 6 -8 -9 -10
leaf_value=-0.0053536822074214101 -7.7289410355414984e-05 -0.0099999943718915105 0.00015027384944884826 0.0089782225678922741 0.012596372967832238 -0.0086120196228658269 0.0009027147104637964 0.0079116694372759391 -0.00017639186131086944
leaf_weight=19.214909017086029 19.951647490262985 21.525859713554382 13.509308785200121 10.856985151767732 15.263618439435957 14.49844402074814 16.208098173141479 17.603932231664658 10.136223167181013
leaf_count=57 59 64 40 32 45 43 48 52 30
internal_value=0 -0.002801 0.000767565 0.0051066 0.00797909 -0.00625347 -0.00357069 0.004585 0.00453078
internal_weight=0 102.561 50.3282 56.2085 36.2568 52.2324 30.7065 31.1132 20.9932
internal_count=470 304 149 166 107 155 91 92 62
is_linear=0
shrinkage=0.01


Tree=4
num_leaves=13
num_cat=0
split_feature=1 5 2 5 1 5 4 7 5 1 7 4
split_gain=17.6294 25.5234 6.98042 8.19878 6.91129 18.9791 6.36296 4.8403 6.45425 4.33025 1.53659 0.264501
threshold=2.292919648711822 2.323556487115936 -0.00044798709738702586 2.2929451151917761 2.3471257678080364 2.334370460808096 0.00081190011770604375 0.062332124384640204 2.2971281882772607 2.2578708634582334 0.00125855658473939 0.00059940047919737627
decision_type=2 2 2 2 2 2 2 2 2 2 2 2
left_child=2 6 11 -4 -3 -6 10 8 9 -5 -2 -1
right_child=1 4 3 7 5 -7 -8 -9 -10 -11 -12 -13
leaf_value=-0.0066347849260847023 0.016589375553915226 -0.0059908018766884497 -0.0087545115477343713 -0.0087149638860062432 0.009542615283091643 -0.0078000279829189062 0.003985649695428895 0.0063181778053055093 0.0053695630411912621 1.4205413452340488e-05 0.010347825462790214 -0.0095584186458794098
leaf_weight=13.318707197904589 10.491982072591787 18.883731544017792 11.703013390302656 11.075437933206564 14.368614673614504 11.05376687645912 10.774308085441588 11.075388312339781 9.7870690822601301 11.099699378013609 9.8140223622322065 9.7410333156585676
leaf_count=41 32 58 36 34 44 34 33 34 30 34 30 30
internal_value=0 0.00344413 -0.00333711 -0.00136517 -0.00141105 0.00196176 0.0103798 0.000636635 -0.00131448 -0.00432026 0.0136873 -0.00794892
internal_weight=0 75.3864 77.8003 54.7406 44.3061 25.4224 31.0803 43.0376 31.9622 22.1751 20.306 23.0597
internal_count=470 231 239 168 136 78 95 132 98 68 62 71
is_linear=0
shrinkage=0.01


Tree=5
num_leaves=12
num_cat=0
split_feature=0 5 6 0 5 2 6 5 0 5 2
split_gain=23.5921 17.1155 14.184 8.66533 8.30585 6.30052 8.97084 14.2476 4.05727 7.79236 0.855628
threshold=2.1900615506308392 2.2929094461457278 -0.00090227808553589018 2.296670020902138 2.317182733851475 0.00087781795357111403 0.00086227173912245558 2.2970409859471324 2.3678431489709921 2.2964770816768847 0.00097554954906375901
decision_type=2 2 2 2 2 2 2 2 2 2 2
left_child=-1 -2 3 -3 5 6 -4 -8 9 -5 -6
right_child=1 2 4 8 10 -7 7 -9 -10 -11 -12
leaf_value=0.014423110631963599 0.010630099514001668 0.0088519870155296214 -0.0066124138170509626 -0.0030897007419901784 -0.009933701089559651 -0.0083334262876070438 0.011112088976438551 -0.0029758924796678917 -0.0053861833722123956 0.0085238356893609906 -0.0059024109717726939
leaf_weight=10.481353819370268 11.465978831052778 14.142952203750609 15.062462210655211 13.085788726806642 20.396541982889179 12.727607995271681 12.143702626228334 17.109134703874588 11.053078114986418 10.100487023591993 10.043022364377974
leaf_count=31 34 42 45 39 61 38 36 51 33 30 30
internal_value=0 -0.00103528 -0.0020342 0.00229389 -0.00443916 -0.00215806 -0.000347175 0.0028563 -0.000403775 0.00194136 -0.00866007
internal_weight=0 147.331 135.865 48.3823 87.4825 57.0429 44.3153 29.2528 34.2394 23.1863 30.4396
internal_count=470 439 405 144 261 170 132 87 102 69 91
is_linear=0
shrinkage=0.01


Tree=6
num_leaves=11
num_cat=0
split_feature=0 2 0 7 7 1 1 2 2 1
split_gain=23.6263 15.2229 21.9411 10.6323 8.57136 6.91726 5.73822 5.86673 3.25919 1.24285
threshold=2.3853808946061368 -0.00044798709738702586 2.1923508959145814 -0.091276294524248666 0.017174981025833484 2.2308380400887065 2.3083618705879343 0.0010801942858527094 0.00013660714655361342 2.2787110692321879
decision_type=2 2 2 2 2 2 2 2 2 2
left_child=1 2 -1 -4 8 -6 7 -7 -3 -5
right_child=-2 4 3 9 5 6 -8 -9 -10 -11
leaf_value=-0.0089266732261824022 0.011477393531074914 -0.0038026676779227128 -0.00021087704876715624 0.0088855080606357467 0.0045494225318335208 -0.0089432959702490621 0.0023322173955145297 -0.00044915167873661358 -0.0099755189711402212 0.014298790698741013
leaf_weight=10.403495401144026 16.016817659139633 16.132626503705978 11.16325175762176 10.890125721693044 15.549856245517729 19.158728897571564 13.522302120923994 14.538859844207762 20.477448850870132 10.90405088663101
leaf_count=31 47 48 33 32 46 57 40 43 61 32
internal_value=0 -0.00129501 0.00363225 0.00764192 -0.0034564 -0.00119045 -0.00310739 -0.00532025 -0.00730039 0.0116925
internal_weight=0 142.741 43.3609 32.9574 99.3798 62.7697 47.2199 33.6976 36.6101 21.7942
internal_count=470 423 128 97 295 186 140 100 109 64
is_linear=0
shrinkage=0.01


Tree=7
num_leaves=11
num_cat=0
split_feature=0 0 0 5 1 1 1 0 4 4
split_gain=27.4849 29.4578 5.31465 5.24071 7.50335 6.2996 4.82716 5.612 3.86838 0.567295
threshold=2.3091702347102694 2.3234412247835574 2.3895893536795429 2.2975971657779559 2.2060098395717174 2.2944399091751455 2.3245796343919136 2.3406164334895014 -0.00072497982799935013 -0.0005049784959612057
decision_type=2 2 2 2 2 2 2 2 2 2
left_child=3 -2 6 9 -5 -6 7 -3 -8 -1
right_child=1 2 -4 4 5 -7 8 -9 -10 -11
leaf_value=-0.0055274145840782021 0.015051316923116729 0.0042031842874854317 -0.0057596876099845051 0.004600815762558377 -0.0085666828872054644 -0.00022479084781141726 0.001308144233250082 -0.0045726945626491542 0.010315344248597043 -0.009061114544993823
leaf_weight=9.76634129881859 18.753773480653763 13.431621193885805 10.391793787479399 11.718813747167586 18.769130706787109 17.898750066757202 9.7945733964443225 15.630286008119581 9.8249909579753858 17.196120619773865
leaf_count=30 57 41 32 36 58 55 30 48 30 53
internal_value=0 0.00416561 0.000673275 -0.00430188 -0.0022958 -0.00453363 0.00207598 -0.000481926 0.00589887 -0.00784324
internal_weight=0 77.827 59.0733 75.3492 48.3867 36.6679 48.6815 29.0619 19.6196 26.9625
internal_count=470 238 181 232 149 113 149 89 60 83
is_linear=0
shrinkage=0.01


Tree=8
num_leaves=12
num_cat=0
split_feature=4 5 5 5 2 5 5 4 3 4 5
split_gain=18.4524 16.1795 13.7411 7.63014 6.78489 15.4874 6.78372 6.59787 2.62057 2.4711 1.83749
threshold=-0.0017392213907720941 2.2929094461457278 2.3175331785837483 2.3281310933008261 0.00094417440188343537 2.2952525701454221 2.2965245716461973 -0.0032110249234342798 0.00085703730059627514 0.0011247094531308124 2.3060273019305186
decision_type=2 2 2 2 2 2 2 2 2 2 2
left_child=2 -2 -1 4 5 -3 -7 -4 9 -8 -6
right_child=1 3 7 -5 10 6 8 -9 -10 -11 -12
leaf_value=0.011892066893188027 0.0096052245252179723 0.010334019438354627 0.0057654000023428789 -0.0093261929739956381 -0.0086110319503548451 -0.0090569763675215891 -0.0018829000839445389 -0.0044195613301289327 -0.0045351299401875621 0.0042908958105996363 -0.0028838113514467164
leaf_weight=18.947284907102585 10.512898206710814 11.138617783784865 12.484529644250872 17.668888777494431 15.381987899541857 12.357781141996382 12.390388876199724 12.71366700530052 11.083539962768553 13.112158417701719 10.007319241762159
leaf_count=56 31 33 37 53 46 37 37 38 33 39 30
internal_value=0 -0.00213158 0.00547933 -0.00334572 -0.00208828 -0.000236526 -0.00267872 0.000589926 -0.000478246 0.00125667 -0.00641302
internal_weight=0 113.654 44.1455 103.141 85.4718 60.0825 48.9439 25.1982 36.5861 25.5025 25.3893
internal_count=470 339 131 308 255 179 146 75 109 76 76
is_linear=0
shrinkage=0.01


Tree=9
num_leaves=12
num_cat=0
split_feature=0 2 0 2 1 2 1 0 0 4 1
split_gain=23.1196 14.9623 21.5873 6.49942 11.109 3.46317 3.19274 8.44421 5.8362 4.04664 1.71811
threshold=2.3853808946061368 -0.00044798709738702586 2.1923508959145814 0.0010766484920803345 2.2915843225178061 -0.0012270705108237132 2.2308380400887065 2.2251255744748222 2.3243141395685578 0.0016022182514672247 2.3062948350371126
decision_type=2 2 2 2 2 2 2 2 2 2 2
left_child=1 2 -1 6 -5 10 7 -3 -8 -10 -4
right_child=-2 3 5 4 -6 -7 8 -9 9 -11 -12
leaf_value=-0.0088906454729711995 0.011325234626573324 -0.0080665803194730386 0.0080355639748932207 0.0077716737836565778 -0.0057704654870375715 0.012019223439380076 -0.0095637350388334107 0.0040975464663443595 0.00055624062481569555 -0.0072841013651776419 0.0021958614406240827
leaf_weight=10.370449602603911 16.08961296081543 10.761702120304109 10.267719745635985 12.174505382776262 11.816438376903532 11.583083003759386 26.376763880252838 11.832834631204603 14.861143261194231 11.405200779438017 11.199782788753508
leaf_count=31 47 32 30 36 35 34 79 35 44 34 33
internal_value=0 -0.00128431 0.00359495 -0.00343095 0.00106389 0.00755778 -0.00487699 -0.00166214 -0.00623209 -0.00282493 0.00505961
internal_weight=0 142.65 43.421 99.2286 23.9909 33.0506 75.2376 22.5945 52.6431 26.2663 21.4675
internal_count=470 423 128 295 71 97 224 67 157 78 63
is_linear=0
shrinkage=0.01


Tree=10
num_leaves=13
num_cat=0
split_feature=1 5 2 5 1 5 4 7 5 1 7 4
split_gain=17.0812 24.589 6.83195 8.01865 6.7321 18.5266 6.06643 4.71266 6.378 4.20895 1.42385 0.263991
threshold=2.292919648711822 2.323556487115936 -0.00044798709738702586 2.2929451151917761 2.3471257678080364 2.334370460808096 0.00081190011770604375 0.062332124384640204 2.2971281882772607 2.2578708634582334 -1.0000000180025095e-35 0.00059940047919737627
decision_type=2 2 2 2 2 2 2 2 2 2 2 2
left_child=2 6 11 -4 -3 -6 10 8 9 -5 -2 -1
right_child=1 4 3 7 5 -7 -8 -9 -10 -11 -12 -13
leaf_value=-0.0065636960827530622 0.016140938240829985 -0.0059351482509019983 -0.0086867625241150298 -0.0086534904200801059 0.0093669042416424913 -0.0077627233927554471 0.0039071319556301682 0.0062187390656914142 0.0053334533482522683 0 0.010132914670822522 -0.0094888638671569454
leaf_weight=13.235323786735536 10.625462502241138 18.797130167484283 11.616950988769529 11.002091616392141 14.458654135465624 11.012148916721342 10.812002360820768 11.119573593139647 9.8019813299179059 11.132238984107969 9.8871819674968719 9.6599859893321973
leaf_count=41 32 58 36 34 44 34 33 34 30 34 30 30
internal_value=0 0.00338084 -0.00329442 -0.00134612 -0.00139849 0.00192051 0.0101498 0.000626831 -0.00130228 -0.0042966 0.0133568 -0.00787727
internal_weight=0 75.5926 77.5681 54.6728 44.2679 25.4708 31.3246 43.0559 31.9363 22.1343 20.5126 22.8953
internal_count=470 231 239 168 136 78 95 132 98 68 62 71
is_linear=0
shrinkage=0.01


Tree=11
num_leaves=12
num_cat=0
split_feature=4 5 5 5 2 5 5 4 3 4 5
split_gain=18.1535 15.8724 13.3776 7.54974 6.69357 15.1697 6.70182 6.52085 2.59733 2.42314 1.82728
threshold=-0.0017392213907720941 2.2929094461457278 2.3175331785837483 2.3281310933008261 0.00094417440188343537 2.2952525701454221 2.2965245716461973 -0.0032110249234342798 0.00085703730059627514 0.0011247094531308124 2.3060273019305186
decision_type=2 2 2 2 2 2 2 2 2 2 2
left_child=2 -2 -1 4 5 -3 -7 -4 9 -8 -6
right_child=1 3 7 -5 10 6 8 -9 -10 -11 -12
leaf_value=0.011733135747237687 0.0094814149137270268 0.010197486512729477 0.0057336375572103323 -0.0092856538365947098 -0.008573105068682408 -0.0090146825981390916 -0.0018615106910917795 -0.0043928539516048821 -0.0045173367751134737 0.0042511658978272738 -0.0028555898477201766
leaf_weight=19.037747651338577 10.554893195629118 11.187228083610533 12.49929189682007 17.600435644388199 15.331038266420366 12.309789210557936 12.375683337450029 12.691625982522963 11.070672452449797 13.132704406976698 9.9906142055988294
leaf_count=56 31 33 37 53 46 37 37 38 33 39 30
internal_value=0 -0.00211735 0.0054275 -0.00332369 -0.00207381 -0.000235972 -0.00265981 0.000594997 -0.000475227 0.00125079 -0.00637671
internal_weight=0 113.553 44.2287 102.998 85.3977 60.0761 48.8888 25.1909 36.5791 25.5084 25.3217
internal_count=470 339 131 308 255 179 146 75 109 76 76
is_linear=0
shrinkage=0.01


Tree=12
num_leaves=11
num_cat=0
split_feature=1 6 2 2 1 2 2 4 2 2
split_gain=10.3769 11.8672 11.3853 10.5768 7.48337 6.10842 5.90257 5.63324 3.58743 0.118018
threshold=2.3290178285502132 -0.00090227808553589018 0.0011027029883765584 -0.00043302773358067087 2.2346089260286646 0.0010801942858527094 0.00025018951553645868 0.00081190011770604375 0.00048874355872574615 0.00028675903869790359
decision_type=2 2 2 2 2 2 2 2 2 2
left_child=1 5 3 7 -5 9 -2 -3 -6 -1
right_child=6 2 -4 4 8 -7 -8 -9 -10 -11
leaf_value=-0.0098449267968220445 0.0090489829680550325 0.00018253286878109154 0.0088803000723144572 0.0019887362492377147 -0.0098612452341469703 0.00018398140269856753 0.00060632755560458267 0.0096247062250603768 -0.0031369401599161879 -0.007455726236126281
leaf_weight=13.32330295443535 17.01885575056076 15.289046525955202 14.00181585550308 15.552472084760664 15.646096438169478 10.51091757416725 16.595601201057434 10.948068857192991 17.466430097818375 12.360408425331114
leaf_count=40 50 45 41 46 47 31 49 32 52 37
internal_value=0 -0.00132574 0.000630528 -0.000908093 -0.00367584 -0.00614693 0.00492463 0.00418206 -0.00636449 -0.00876727
internal_weight=0 125.099 88.9039 74.9021 48.665 36.1946 33.6145 26.2371 33.1125 25.6837
internal_count=470 371 263 222 145 108 99 77 99 77
is_linear=0
shrinkage=0.01


Tree=13
num_leaves=10
num_cat=0
split_feature=0 0 7 7 2 1 0 1 5
split_gain=26.4798 28.3315 7.29374 6.64736 11.8044 6.50579 3.5512 1.32642 0.394829
threshold=2.3091702347102694 2.3234412247835574 -0.093784733509696835 0.066690746664210834 0.0005650858065366916 2.2060098395717174 2.3628308156163098 2.2578708634582334 2.317182733851475
decision_type=2 2 2 2 2 2 2 2 2
left_child=2 -2 -1 4 -3 -4 -6 -7 -9
right_child=1 3 5 -5 6 7 -8 8 -10
leaf_value=0.0034171866493377155 0.014678304183421283 -0.0039783015354879422 -0.00037519878342330738 -0.0045011336353925424 0.0034331380731577182 -0.0091741326541698569 0.011013139918504888 -0.003828874408531995 -0.0069426379074669555
leaf_weight=10.469310283660887 18.958137273788452 15.673264324665068 18.20378378033638 17.47747403383255 14.16333043575287 24.38376185297966 11.85929888486862 10.371908426284792 11.575779706239699
leaf_count=32 57 48 56 54 43 76 36 32 36
internal_value=0 0.00407188 -0.00424107 0.000637859 0.00282149 -0.00550228 0.00695479 -0.00749004 -0.00554055
internal_weight=0 78.1315 75.0045 59.1734 41.6959 64.5352 26.0226 46.3314 21.9477
internal_count=470 238 232 181 127 200 79 144 68
is_linear=0
shrinkage=0.01


Tree=14
num_leaves=12
num_cat=0
split_feature=1 2 5 2 6 2 7 5 6 7 7
split_gain=23.1785 25.9635 13.8662 13.272 12.8403 10.7326 4.07974 3.47385 3.00158 2.91473 1.56851
threshold=2.2787110692321879 0.00099751020315719274 2.2971281882772607 -0.00047978752572808142 -0.00090227808553589018 0.0007219292549605073 -0.0073537215989936114 2.2970409859471324 0.00018290959816646971 0.034692125944368442 0.026890887946754875
decision_type=2 2 2 2 2 2 2 2 2 2 2
left_child=1 2 5 -4 6 -1 -2 8 -6 -8 -9
right_child=4 -3 3 -5 7 -7 9 10 -10 -11 -12
leaf_value=0.018109473094489747 0.0062163651767283366 -0.0083471312484874535 0.0083909273626861531 -0.0047377787506630541 -0.0068530316971577385 0.0047642461598312123 -0.004626005261645718 -0.0098508245793753179 0.00072522131548677566 0.0025311674460412204 -0.0048018276036545108
leaf_weight=15.046045988798143 11.50397929549217 13.023847341537474 17.650213599205017 13.415083438158037 10.268202781677248 10.564060270786284 11.36730793118477 23.837166637182236 10.076401174068449 11.038153797388075 9.9662285745143873
leaf_count=44 34 39 52 40 31 31 34 72 30 33 30
internal_value=0 0.00430457 0.00723909 0.00269239 -0.00340903 0.0126835 0.00139018 -0.00642993 -0.00306553 -0.00105998 -0.00841028
internal_weight=0 69.6993 56.6754 31.0653 88.0574 25.6101 33.9094 54.148 20.3446 22.4055 33.8034
internal_count=470 206 167 92 264 75 101 163 61 67 102
is_linear=0
shrinkage=0.01


Tree=15
num_leaves=11
num_cat=0
split_feature=0 2 0 7 7 2 5 5 7 5
split_gain=22.396 14.4394 21.0104 10.2633 8.32706 5.73313 4.29943 3.65138 2.94279 1.22268
threshold=2.3853808946061368 -0.00044798709738702586 2.1923508959145814 -0.091276294524248666 0.017174981025833484 0.0010766484920803345 2.2953239128523926 2.3026966766104171 0.043923659448287918 2.3194042547277469
decision_type=2 2 2 2 2 2 2 2 2 2
left_child=1 2 -1 -4 7 6 8 -3 -6 -5
right_child=-2 4 3 9 5 -7 -8 -9 -10 -11
leaf_value=-0.0088442542664524827 0.011107681878887428 -0.0098405332830262936 -0.00030564210310618376 0.0085884873854473222 -0.0091232704619886081 0.0032252644995446715 0.000449938726595946 -0.0032352789147713714 -0.0020560357412550885 0.013916553661340043
leaf_weight=10.326258659362791 16.192472606897354 21.516184002161026 11.212728112936015 10.99484527111054 13.348942816257479 20.022323846817017 17.872053980827332 14.786811351776121 11.395298331975935 11.018827855587004
leaf_count=31 47 65 33 32 40 59 53 44 34 32
internal_value=0 -0.00126843 0.00351304 0.00739852 -0.00338469 -0.00115315 -0.00323639 -0.00719385 -0.00593027 0.0113515
internal_weight=0 142.494 43.5527 33.2264 98.9416 62.6386 42.6163 36.303 24.7442 22.0137
internal_count=470 423 128 97 295 186 127 109 74 64
is_linear=0
shrinkage=0.01


Tree=16
num_leaves=10
num_cat=0
split_feature=1 5 7 1 5 4 1 2 7
split_gain=16.4797 23.6682 6.72517 6.60785 17.941 5.78184 4.5247 3.90014 1.31977
threshold=2.292919648711822 2.323556487115936 0.062706076014614767 2.3471257678080364 2.3348555511936144 0.00081190011770604375 2.2060098395717174 0.0007302594537315078 0.00125855658473939
decision_type=2 2 2 2 2 2 2 2 2
left_child=2 5 6 -3 -5 8 -1 -8 -2
right_child=1 3 -4 4 -6 -7 7 -9 -10
leaf_value=-0.00036849729322994165 0.015695520046684473 -0.0058973919343585472 0.002963430127679845 0.008616064778732526 -0.0084863412666463141 0.0038214667883255411 -0.0088089518292537757 -0.0027216277476366287 0.0099111887365152564
leaf_weight=18.196070283651352 10.757175952196127 18.737363368272781 14.007176667451857 15.54087617993355 9.9594155550003034 10.852958679199217 26.529869198799133 18.56590473651886 9.9622678756713849
leaf_count=56 32 58 43 47 31 33 83 57 30
internal_value=0 0.00331047 -0.00324706 -0.00139151 0.00189041 0.00991382 -0.00463979 -0.0063365 0.0130233
internal_weight=0 75.8101 77.299 44.2377 25.5003 31.5724 63.2918 45.0958 20.7194
internal_count=470 231 239 136 78 95 196 140 62
is_linear=0
shrinkage=0.01


Tree=17
num_leaves=12
num_cat=0
split_feature=1 2 6 4 1 0 0 2 0 3 0
split_gain=22.7561 25.4817 12.7182 10.7082 14.5396 7.36084 6.90219 3.24119 4.69186 2.60962 1.08942
threshold=2.2787110692321879 0.00099751020315719274 -0.00090227808553589018 -0.0016664795201275504 2.2028428789652148 2.3678431489709921 2.2276801483135649 0.00010434216055221769 2.3434239657990825 -1.0000000180025095e-35 2.3829844398782734
decision_type=2 2 2 2 2 2 2 2 2 2 2
left_child=1 3 5 -1 -5 9 -6 -4 -9 -2 -10
right_child=2 -3 7 4 6 -7 -8 8 10 -11 -12
leaf_value=0.014477186084347891 0.0081993647234553033 -0.0083054084077160036 -0.00979389383264191 -0.0058840487484202496 0.0016302818447630979 -0.0052748791608551414 0.011369359192827076 0 -0.0047994885446247535 0.0013275507653878883 -0.0097277334297896801
leaf_weight=14.79704964160919 10.806619077920912 12.975924640893934 18.801197171211243 10.027972370386122 11.806888639926909 10.968563199043272 20.204177469015121 14.021835207939146 9.9634564518928546 12.132672041654589 11.219931334257124
leaf_count=43 32 39 57 30 35 33 59 42 30 36 34
internal_value=0 0.00425864 -0.00338365 0.00715418 0.00452463 0.00139031 0.00782463 -0.00639649 -0.00453119 0.00462978 -0.00749019
internal_weight=0 69.812 87.9143 56.8361 42.039 33.9079 32.0111 54.0064 35.2052 22.9393 21.1834
internal_count=470 206 264 167 124 101 94 163 106 68 64
is_linear=0
shrinkage=0.01


Tree=18
num_leaves=11
num_cat=0
split_feature=0 2 0 7 7 2 5 5 7 5
split_gain=21.8651 14.1606 20.6388 10.0385 8.22236 5.60713 4.24596 3.61317 2.92487 1.1772
threshold=2.3853808946061368 -0.00044798709738702586 2.1923508959145814 -0.091276294524248666 0.017174981025833484 0.0010766484920803345 2.2953239128523926 2.3026966766104171 0.043923659448287918 2.3194042547277469
decision_type=2 2 2 2 2 2 2 2 2 2
left_child=1 2 -1 -4 7 6 8 -3 -6 -5
right_child=-2 4 3 9 5 -7 -8 -9 -10 -11
leaf_value=-0.0088058650106729915 0.010946813855208857 -0.0097930598240008448 -0.00031346542645077277 0.0084897465859421501 -0.0090797788757849759 0.0031832310597978658 0.00045639177529484135 -0.0032125325508348523 -0.0020247388553959302 0.013718828688626483
leaf_weight=10.289361536502836 16.267780333757401 21.40765905380249 11.216343551874155 11.029217243194585 13.294920325279238 20.055853009223938 17.866275608539581 14.766292065382002 11.375518351793287 11.077393919229506
leaf_count=31 47 65 33 32 40 59 53 44 34 32
internal_value=0 -0.00125697 0.00347249 0.00730868 -0.00335687 -0.00114045 -0.00320518 -0.0071507 -0.00588838 0.011205
internal_weight=0 142.379 43.6123 33.323 98.7665 62.5926 42.5367 36.174 24.6704 22.1066
internal_count=470 423 128 97 295 186 127 109 74 64
is_linear=0
shrinkage=0.01


Tree=19
num_leaves=12
num_cat=0
split_feature=1 5 2 5 1 5 4 1 1 6 4
split_gain=16.1823 23.1382 6.61531 7.80122 6.52899 17.6207 5.65423 4.26591 6.60737 0.387657 0.254627
threshold=2.292919648711822 2.323556487115936 -0.00044798709738702586 2.2929451151917761 2.3471257678080364 2.3348555511936144 0.00081190011770604375 2.275218320536339 2.2346089260286646 -0.00062783587517611917 0.00059940047919737627
decision_type=2 2 2 2 2 2 2 2 2 2 2
left_child=2 6 10 -4 -3 -6 9 8 -5 -2 -1
right_child=1 4 3 7 5 -7 -8 -9 -10 -11 -12
leaf_value=-0.0064652079076098134 0.010707101432593472 -0.0058686550659521755 -0.0085950935377504343 -0.0013088228251916568 0.0085143886605072456 -0.0084461879436669978 0.0037635968401702304 -0.0048727798767594617 0.007772716999718968 0.01462844035186407 -0.0093679645770424046
leaf_weight=13.116197854280474 10.025822639465334 18.691655397415161 11.49608278274536 19.105511635541916 15.597265988588335 9.9135065376758558 10.880641549825667 10.441965848207472 13.492678374052046 10.801594138145449 9.5104360580444318
leaf_count=41 30 58 36 59 47 31 33 32 41 32 30
internal_value=0 0.00327604 -0.00322274 -0.00130907 -0.00138153 0.0018772 0.00978426 0.000629269 0.0024318 0.0128488 -0.00776515
internal_weight=0 75.9105 77.1629 54.5362 44.2024 25.5108 31.7081 43.0402 32.5982 20.8274 22.6266
internal_count=470 231 239 168 136 78 95 132 100 62 71
is_linear=0
shrinkage=0.01


Tree=20
num_leaves=13
num_cat=0
split_feature=1 4 6 1 0 5 0 0 5 4 7 5
split_gain=22.2714 21.2692 12.6019 8.87753 10.2422 9.09172 9.63603 7.24411 3.39932 4.62911 1.5716 1.3664
threshold=2.2787110692321879 -0.0016664795201275504 -0.00090227808553589018 2.2679304954369397 2.3007684909347268 2.2968868913345597 2.2014936806190364 2.3678431489709921 2.2970409859471324 0.00081190011770604375 0.026890887946754875 2.3266654018600446
decision_type=2 2 2 2 2 2 2 2 2 2 2 2
left_child=1 -1 7 4 5 -3 -7 11 9 -4 -10 -2
right_child=2 3 8 -5 -6 6 -8 -9 10 -11 -12 -13
leaf_value=0.014481065486774247 0.0016890140081101757 0.0092965128889970702 -0.0077593237444464344 0.0085387871003103633 -0.0097845070299206489 0.004547402056443382 -0.0088676957296870383 -0.0052302023022883616 -0.0097769117474620516 0.0016919920131588382 -0.0047107466395072059 0.0067795931924435728
leaf_weight=15.559553056955336 10.085555434226992 10.614066123962404 10.215711295604708 12.64648401737213 9.9723579585552198 10.798146635293962 10.348866015672682 10.934168696403502 23.648115515708923 10.082553446292875 9.9038766622543317 12.876314014196394
leaf_count=45 30 31 31 37 30 32 31 33 72 30 30 38
internal_value=0 0.0042056 -0.00335423 0.00122597 -0.000981242 0.00177346 -0.00198141 0.00139624 -0.00635999 -0.00303036 -0.00832964 0.00460404
internal_weight=0 69.9395 87.7463 54.3799 41.7334 31.7611 21.147 33.896 53.8503 20.2983 33.552 22.9619
internal_count=470 206 264 161 124 94 63 101 163 61 102 68
is_linear=0
shrinkage=0.01


Tree=21
num_leaves=11
num_cat=0
split_feature=0 2 0 7 7 2 5 5 7 5
split_gain=21.3692 13.8977 20.2642 9.8161 8.12605 5.51834 4.19318 3.57879 2.89031 1.14515
threshold=2.3853808946061368 -0.00044798709738702586 2.1923508959145814 -0.091276294524248666 0.017174981025833484 0.0010766484920803345 2.2953239128523926 2.3026966766104171 0.043923659448287918 2.3194042547277469
decision_type=2 2 2 2 2 2 2 2 2 2
left_child=1 2 -1 -4 7 6 8 -3 -6 -5
right_child=-2 4 3 9 5 -7 -8 -9 -10 -11
leaf_value=-0.0087648461257445725 0.010796086782992105 -0.0097489600376247775 -0.00031950109586010092 0.0083831397009801883 -0.0090343465767553019 0.0031573488717756659 0.00045683769418306729 -0.0031903094288167474 -0.0020119565342390784 0.013536084078842244
leaf_weight=10.249348938465117 16.337663739919662 21.304227739572525 11.218852251768107 11.065958082675939 13.237039148807527 20.076280444860458 17.865406572818756 14.745938956737517 11.366944670677183 11.13092193007469
leaf_count=31 47 65 33 32 40 59 53 44 34 32
internal_value=0 -0.001246 0.00343428 0.00722085 -0.00333027 -0.0011278 -0.00317964 -0.00711012 -0.00585179 0.0110611
internal_weight=0 142.261 43.6651 33.4157 98.5958 62.5457 42.4694 36.0502 24.604 22.1969
internal_count=470 423 128 97 295 186 127 109 74 64
is_linear=0
shrinkage=0.01


Tree=22
num_leaves=9
num_cat=0
split_feature=1 7 1 2 7 1 2 4
split_gain=15.8885 11.716 15.2653 17.1076 6.64137 4.45979 3.81156 1.39639
threshold=2.292919648711822 0.058978904673313355 2.3196009315575439 0.00028092694732495543 0.062706076014614767 2.2060098395717174 0.0007302594537315078 1.0000000180025095e-35
decision_type=2 2 2 2 2 2 2 2
left_child=4 2 7 -4 5 -1 -7 -2
right_child=1 -3 3 -5 -6 6 -8 -9
leaf_value=-0.0003467683021946544 0.012856044933660058 -0.0055364461575084659 -0.0058872945474482078 0.007733933550634388 0.0029727380365520313 -0.0087393849385582131 -0.0027078740806843293 0.0077645262143028262
leaf_weight=18.172128885984421 15.138330966234209 12.505500286817549 18.703121095895767 17.961794704198837 13.998053967952726 26.30727019906044 18.546693444252014 11.697046756744383
leaf_count=56 45 39 58 54 43 83 57 35
internal_value=0 0.00324158 0.004992 0.000761302 -0.00319877 -0.00458784 -0.00627923 0.0107109
internal_weight=0 76.0058 63.5003 36.6649 77.0241 63.0261 44.854 26.8354
internal_count=470 231 192 112 239 196 140 80
is_linear=0
shrinkage=0.01


Tree=23
num_leaves=13
num_cat=0
split_feature=1 2 4 4 4 7 0 7 1 0 1 7
split_gain=21.8146 24.6989 10.2199 13.5471 8.68383 5.47082 5.17693 3.07895 5.48355 2.99631 2.32214 0.990668
threshold=2.2787110692321879 0.00099751020315719274 -0.00012602443026499263 0.0038566919851259489 -0.0032110249234342798 -0.01198836556088456 2.3829844398782734 0.028622757767532873 2.3184341222404945 2.3434239657990825 2.2125900081589438 0.0023170599826292109
decision_type=2 2 2 2 2 2 2 2 2 2 2 2
left_child=1 2 10 11 -2 -6 7 8 -7 -10 -1 -4
right_child=4 -3 3 -5 5 6 -8 -9 9 -11 -12 -13
leaf_value=0.0082536425917485064 0.0040783200092615966 -0.0082545941450884747 -0.0034590529248571577 0.011855707774647584 -0.0097156210397950846 -0.008773925810958776 -0.0079103357449805661 0.0034225507055555817 0.0037909471474582425 -0.0037889548205026352 0.015043488037148481 0.00074979253384908559
leaf_weight=10.649928867816927 13.222418576478956 12.913866162300108 10.755498170852663 12.045943915843962 16.697010397911072 10.257804185152056 16.400567919015884 10.330144882202147 10.721970558166506 9.9505293369293195 12.834205776453016 10.856029391288756
leaf_count=31 39 39 32 35 51 31 50 31 32 30 37 32
internal_value=0 0.00415564 0.00698732 0.00339669 -0.00332596 -0.00465974 -0.0031641 -0.00123878 -0.00283381 9.36102e-05 0.0120548 -0.00130507
internal_weight=0 70.0555 57.1416 33.6575 87.5804 74.358 57.661 41.2604 30.9303 20.6725 23.4841 21.6115
internal_count=470 206 167 99 264 225 174 124 93 62 68 64
is_linear=0
shrinkage=0.01


Tree=24
num_leaves=10
num_cat=0
split_feature=5 4 1 6 2 5 4 5 4
split_gain=19.8486 14.5929 13.8468 7.51293 6.70808 6.68475 3.59908 3.30644 1.11269
threshold=2.3175331785837483 0.00013865385590960957 2.2537159196499776 -0.0028748656893105014 0.00048874355872574615 2.2968868913345597 0.00027373852250667246 2.2935749131182308 0.0016602755847794361
decision_type=2 2 2 2 2 2 2 2 2
left_child=1 7 5 -2 -4 -3 -5 -1 -8
right_child=3 2 4 6 -6 -7 8 -9 -10
leaf_value=-0.0021702946905998994 -0.0001663307748169277 0.00038959214825440297 -0.009767894191027084 0.011165851140432783 -0.00025405822200763438 0.010015168538754469 0.0021118564676997141 -0.0088648907959073958 0.0068449266803532532
leaf_weight=10.342184603214262 20.020178884267807 14.161182731390001 12.556623488664629 15.187980204820631 18.438249707221985 15.11985597014427 10.319266110658647 30.955727905035019 11.443658798933027
leaf_count=31 59 42 38 44 55 44 30 94 33
internal_value=0 -0.00264887 0.000474479 0.00472001 -0.00415948 0.00541116 0.00738775 -0.00722182 0.00466632
internal_weight=0 101.574 60.2759 56.9711 30.9949 29.281 36.9509 41.2979 21.7629
internal_count=470 304 179 166 93 86 107 125 63
is_linear=0
shrinkage=0.01


Tree=25
num_leaves=10
num_cat=0
split_feature=1 5 7 1 5 4 1 2 7
split_gain=15.5938 22.0776 6.57085 6.40384 17.0917 5.43424 4.4156 3.76611 1.20666
threshold=2.292919648711822 2.323556487115936 0.062706076014614767 2.3471257678080364 2.3348555511936144 0.00081190011770604375 2.2060098395717174 0.0007302594537315078 0.00125855658473939
decision_type=2 2 2 2 2 2 2 2 2
left_child=2 5 6 -3 -5 8 -1 -8 -2
right_child=1 3 -4 4 -6 -7 7 -9 -10
leaf_value=-0.00033966448103392818 0.015047949516836858 -0.0058180210024047557 0.0029611694593423671 0.008353926354178599 -0.008375024627491302 0.0036331067553079951 -0.0087007377718578884 -0.0026974122213689533 0.0095350424946928809
leaf_weight=18.1647929251194 10.947931677103048 18.609075963497162 14.004914760589598 15.685088783502581 9.8290082812309247 10.942668229341505 26.18107083439827 18.533452361822128 10.088749527931212
leaf_count=56 32 58 43 47 31 33 83 57 30
internal_value=0 0.00320698 -0.0031742 -0.00135988 0.00186272 0.00952382 -0.00455913 -0.00624634 0.012509
internal_weight=0 76.1025 76.8842 44.1232 25.5141 31.9793 62.8793 44.7145 21.0367
internal_count=470 231 239 136 78 95 196 140 62
is_linear=0
shrinkage=0.01


Tree=26
num_leaves=12
num_cat=0
split_feature=0 5 6 0 5 4 6 5 0 5 7
split_gain=20.635 14.8675 13.1532 7.77284 7.61528 6.30865 5.74621 5.52907 3.27354 1.88062 0.855338
threshold=2.1900615506308392 2.2929094461457278 -0.00090227808553589018 2.3678431489709921 2.317182733851475 -0.0017392213907720941 0.0014291945315789702 2.300826558947461 2.2836204538935729 2.2965245716461973 -0.00028106161282681613
decision_type=2 2 2 2 2 2 2 2 2 2 2
left_child=-1 -2 3 5 6 8 9 -8 -3 -4 -6
right_child=1 2 4 -5 10 -7 7 -9 -10 -11 -12
leaf_value=0.013263980510480874 0.0097221900272914143 0.011640003490246917 -0.0071200210606642798 -0.0051556438378980761 -0.0096734192165720909 -0.0012850991607454645 0.0050878220963412558 -0.0039508346251179239 0.0040981423652073469 -0.0017447590304299748 -0.0056142800680856666
leaf_weight=10.816630363464354 11.787629961967466 10.34076541662216 18.48668918013573 10.875431627035139 19.835610985755924 12.693325519561769 15.594308853149416 11.714346289634703 14.592345476150511 11.014669507741926 9.8312369883060438
leaf_count=31 34 30 56 33 61 38 46 35 43 33 30
internal_value=0 -0.000986403 -0.00193549 0.00221629 -0.0042755 0.00438157 -0.0021008 0.00117384 0.00730001 -0.00515956 -0.00838524
internal_weight=0 146.766 134.979 48.5019 86.4769 37.6264 56.81 27.3087 24.9331 29.5014 29.6668
internal_count=470 439 405 144 261 111 170 81 73 89 91
is_linear=0
shrinkage=0.01


Tree=27
num_leaves=11
num_cat=0
split_feature=0 2 0 7 7 1 1 2 5 1
split_gain=20.6102 13.4486 19.5613 9.56085 7.99171 6.6444 5.65083 5.34838 3.47192 1.10129
threshold=2.3853808946061368 -0.00044798709738702586 2.1923508959145814 -0.091276294524248666 0.017174981025833484 2.2308380400887065 2.3083618705879343 0.0010801942858527094 2.3026966766104171 2.2787110692321879
decision_type=2 2 2 2 2 2 2 2 2 2
left_child=1 2 -1 -4 8 -6 7 -7 -3 -5
right_child=-2 4 3 9 5 6 -8 -9 -10 -11
leaf_value=-0.0086840760757277789 0.010564269081055198 -0.0096673154078118391 -0.00037604987588197892 0.0082095398878114373 0.0045134842154229797 -0.0087262224530152213 0.0024084015884674272 -0.00058932987438602396 -0.0031912623516155703 0.013253613408111892
leaf_weight=10.167712926864622 16.443089008331299 21.103835195302963 11.246891707181925 11.124223172664648 15.566893130540846 18.777281999588013 13.476342588663099 14.633909046649931 14.742885887622831 11.211682200431822
leaf_count=31 47 65 33 32 46 57 40 43 44 32
internal_value=0 -0.0012291 0.00336675 0.00705997 -0.00328607 -0.00110305 -0.00299469 -0.00520454 -0.00704798 0.0108338
internal_weight=0 142.052 43.7505 33.5828 98.3011 62.4544 46.8875 33.4112 35.8467 22.3359
internal_count=470 423 128 97 295 186 140 100 109 64
is_linear=0
shrinkage=0.01


Tree=28
num_leaves=10
num_cat=0
split_feature=0 0 7 1 7 2 0 1 4
split_gain=24.5254 26.138 6.93738 6.29486 6.09082 11.1585 3.39282 1.31167 1.35524
threshold=2.3091702347102694 2.3234412247835574 -0.093784733509696835 2.2060098395717174 0.066690746664210834 0.0005650858065366916 2.3628308156163098 2.2578708634582334 -0.0019574912314357369
decision_type=2 2 2 2 2 2 2 2 2
left_child=2 -2 -1 -4 5 -3 -7 -5 -9
right_child=1 4 3 7 -6 6 -8 8 -10
leaf_value=0.0033279986339333966 0.013952161053769997 -0.0039846418299102999 -0.0003215342531856067 -0.0090339804314744331 -0.0043812917022274227 0.0031948529522043156 0.010554423641738265 -0.008288740954811611 -0.0030237447703631406
leaf_weight=10.505304753780363 19.346653521060944 15.665371924638746 18.146027117967606 23.948915660381317 17.316507250070572 14.308488517999651 12.036541998386381 9.458979010581972 12.203385442495344
leaf_count=32 57 48 56 76 54 43 36 30 38
internal_value=0 0.00388866 -0.00411852 -0.00536443 0.000572149 0.00264324 0.00662231 -0.00734374 -0.00539621
internal_weight=0 78.6736 74.2626 63.7573 59.3269 42.0104 26.345 45.6113 21.6624
internal_count=470 238 232 200 181 127 79 144 68
is_linear=0
shrinkage=0.01


Tree=29
num_leaves=13
num_cat=0
split_feature=1 4 6 1 0 5 0 0 5 4 3 1
split_gain=20.9436 20.0195 12.2939 8.48642 9.95734 8.76242 9.42122 6.96697 3.35287 4.53439 2.52018 2.19768
threshold=2.2787110692321879 -0.0016664795201275504 -0.00090227808553589018 2.2679304954369397 2.3007684909347268 2.2968868913345597 2.2014936806190364 2.3678431489709921 2.326613516513854 0.0001721672908827632 -1.0000000180025095e-35 2.3138464447406184
decision_type=2 2 2 2 2 2 2 2 2 2 2 2
left_child=1 -1 7 4 5 -3 -7 10 9 -4 -2 -11
right_child=2 3 8 -5 -6 6 -8 -9 -10 11 -12 -13
leaf_value=0.013948705619371367 0.0080451244187842372 0.009047337181627849 -0.0095802973256798769 0.0082746758810180315 -0.0097235891146010313 0.004433149674091052 -0.0088294795669265087 -0.0051175021764343692 -0.0096515400712767676 -0.0044356129907031309 0.0013007806834768021 0.0016988776440444785
leaf_weight=15.772035777568815 10.862383365631102 10.694707781076433 11.035417616367338 12.747844338417051 9.9046579301357252 10.842257350683214 10.312806040048597 10.84505322575569 19.143034398555756 13.146444380283357 12.144705355167391 10.07584363222122
leaf_count=45 32 31 34 37 30 32 31 33 59 40 36 30
internal_value=0 0.00405911 -0.00327138 0.00115861 -0.00100464 0.00169743 -0.00199628 0.001417 -0.00625924 -0.00431196 0.00454931 -0.00173519
internal_weight=0 70.2743 87.2529 54.5023 41.7544 31.8498 21.1551 33.8521 53.4007 34.2577 23.0071 23.2223
internal_count=470 206 264 161 124 94 63 101 163 104 68 70
is_linear=0
shrinkage=0.01


Tree=30
num_leaves=12
num_cat=0
split_feature=5 4 2 6 2 6 7 4 7 5 7
split_gain=19.0589 14.2579 9.27836 7.20566 7.14315 11.631 4.86696 5.05775 3.45077 1.96602 0.15521
threshold=2.3175331785837483 0.00013865385590960957 -0.00043302773358067087 -0.0028748656893105014 0.0010394250333554125 0.00086227173912245558 -0.0057848150994821426 0.00027373852250667246 0.036018856782148896 2.2966914422504883 0.0020813070443403974
decision_type=2 2 2 2 2 2 2 2 2 2 2
left_child=1 8 -3 -2 5 -4 7 -5 10 -7 -1
right_child=3 2 4 6 -6 9 -8 -9 -10 -11 -12
leaf_value=-0.0096949962590086244 -0.00017667738389979125 0.0088639986129349611 0.0051400859950817149 0.0088092480116777668 0.0055979724909858272 -0.0091533507771112896 0.0114522938321205 -0.00081065536992470585 -0.0018822876376205654 -0.0034180510156957915 -0.0073749774094126865
leaf_weight=18.238938421010975 20.023062527179718 10.752194821834562 11.069569200277327 10.764589965343477 11.254228949546812 16.437075674533848 15.760684311389921 10.620117098093031 9.9901555478572828 10.725914955139158 12.789894908666609
leaf_count=56 59 31 33 31 33 50 45 31 30 32 39
internal_value=0 -0.0026052 0.000477202 0.00461169 -0.00133907 -0.00341643 0.00721324 0.00400371 -0.00714636 -0.00694616 -0.00879759
internal_weight=0 101.258 60.239 57.1685 49.4868 38.2326 37.1454 21.3847 41.019 27.163 31.0288
internal_count=470 304 179 166 148 115 107 62 125 82 95
is_linear=0
shrinkage=0.01


Tree=31
num_leaves=11
num_cat=0
split_feature=0 0 5 1 1 2 1 5 2 1
split_gain=24.0749 25.4615 5.26186 7.055 5.90488 5.11217 7.5111 10.8857 4.34877 0.526481
threshold=2.3091702347102694 2.3234412247835574 2.2975971657779559 2.2060098395717174 2.2944399091751455 0.00033562899461170309 2.3471257678080364 2.3194042547277469 0.00087781795357111403 2.2346089260286646
decision_type=2 2 2 2 2 2 2 2 2 2
left_child=2 -2 9 -4 -5 -3 7 8 -7 -1
right_child=1 5 3 4 -6 6 -8 -9 -10 -11
leaf_value=-0.0088684134735303091 0.013742789693419959 -0.0057535141991932838 0.0046050483003649712 -0.0082742081602720646 -0.00011486615707063054 -7.4639136109073558e-05 0.0087343428910922703 -0.0068487849598519749 0.0087440866035911891 -0.0054163731375667925
leaf_weight=16.800822883844379 19.459225088357925 10.374266147613524 11.714075177907942 18.142180591821671 17.760469555854797 11.247708171606066 12.109961479902266 15.006038546562193 10.597966253757475 9.6656555831432325
leaf_count=53 57 32 36 58 55 34 36 47 32 30
internal_value=0 0.00384586 -0.0040894 -0.00206608 -0.00427722 0.00056567 0.00193399 -0.000291219 0.00417836 -0.00767049
internal_weight=0 78.7952 74.0832 47.6167 35.9027 59.3359 48.9617 36.8517 21.8457 26.4665
internal_count=470 238 232 149 113 181 149 113 66 83
is_linear=0
shrinkage=0.01


Tree=32
num_leaves=12
num_cat=0
split_feature=4 5 5 5 2 5 5 4 3 4 5
split_gain=16.4758 13.9881 11.2864 7.03806 6.1515 13.6542 6.35595 5.93853 2.61662 2.24341 1.9048
threshold=-0.0017392213907720941 2.2929094461457278 2.3175331785837483 2.3281310933008261 0.00094417440188343537 2.2952525701454221 2.2965245716461973 -0.0032110249234342798 0.00085703730059627514 0.0011247094531308124 2.3060273019305186
decision_type=2 2 2 2 2 2 2 2 2 2 2
left_child=2 -2 -1 4 5 -3 -7 -4 9 -8 -6
right_child=1 3 7 -5 10 6 8 -9 -10 -11 -12
leaf_value=0.010818607016408252 0.0087087149481919739 0.0095400241645245392 0.0055049135361762208 -0.0090339702387233888 -0.0084100714051155694 -0.0088268850417538812 -0.0017278545787395255 -0.0041747382945758063 -0.0045094299124701469 0.0041596930394565794 -0.0025406744285356065
leaf_weight=19.532990664243698 10.805760353803633 11.413742393255232 12.600617289543154 17.13860297203064 15.095769941806795 12.080739110708235 12.265618175268175 12.497214168310164 11.053675144910811 13.173438459634779 9.7981314361095411
leaf_count=56 31 33 37 53 46 37 37 38 33 39 30
internal_value=0 -0.00203523 0.00513577 -0.00319042 -0.00198952 -0.00023509 -0.00256746 0.000647902 -0.000449523 0.00128616 -0.00615932
internal_weight=0 112.825 44.6308 102.02 84.8811 59.9872 48.5735 25.0978 36.4927 25.4391 24.8939
internal_count=470 339 131 308 255 179 146 75 109 76 76
is_linear=0
shrinkage=0.01


Tree=33
num_leaves=11
num_cat=0
split_feature=5 4 1 7 2 4 1 5 7 7
split_gain=18.6859 14.081 13.3652 6.70149 6.62496 5.37963 5.32707 5.37964 3.42368 0.156777
threshold=2.3175331785837483 0.00013865385590960957 2.2537159196499776 0.0023170599826292109 0.00048874355872574615 -0.0029754088826576815 2.3626374821426608 2.3284322297995979 0.036018856782148896 0.0020813070443403974
decision_type=2 2 2 2 2 2 2 2 2 2
left_child=1 8 3 -3 -4 -2 7 -7 9 -1
right_child=5 2 4 -5 -6 6 -8 -9 -10 -11
leaf_value=-0.0096575024356694728 -0.00078432885833799783 0.011563774217013642 -0.0096978700057416094 0.0015929198813956185 -0.00021660722922604985 0.0046805042041129117 2.2904219281792177e-05 0.013025241149983505 -0.0018628825290914661 -0.0073325208936148734
leaf_weight=18.156962394714359 13.906536936759947 10.771669596433641 12.454862952232363 18.602106839418411 18.397561401128769 18.877178192138672 10.567159295082091 13.911633580923079 9.978276848793028 12.740715056657789
leaf_count=56 41 31 38 55 55 54 31 40 30 39
internal_value=0 -0.00258393 0.000476515 0.00531009 -0.00409539 0.00456023 0.00629538 0.00828025 -0.00710773 -0.0087578
internal_weight=0 101.102 60.2262 29.3738 30.8524 57.2625 43.356 32.7888 40.876 30.8977
internal_count=470 304 179 86 93 166 125 94 125 95
is_linear=0
shrinkage=0.01


Tree=34
num_leaves=11
num_cat=0
split_feature=1 5 7 1 5 4 1 1 5 7
split_gain=14.9085 21.0705 6.41197 6.18835 16.428 5.07055 4.33362 2.48249 1.86283 1.07566
threshold=2.292919648711822 2.323556487115936 0.062706076014614767 2.3471257678080364 2.3348555511936144 0.00081190011770604375 2.2060098395717174 2.2578708634582334 2.2935211803800368 0.00125855658473939
decision_type=2 2 2 2 2 2 2 2 2 2
left_child=2 5 6 -3 -5 9 -1 -8 -9 -2
right_child=1 3 -4 4 -6 -7 7 8 -10 -11
leaf_value=-0.00031160345394734399 0.014519016609920773 -0.0057526079107134377 0.0029392916137845394 0.0081134950726101159 -0.00830499821698053 0.0035653282492664174 -0.0085318372758830738 -0.00025907116767834716 -0.0062489955614204997 0.0092931411313900286
leaf_weight=18.13299435377121 11.096928030252458 18.500332474708557 14.010133951902388 15.814993590116503 9.7437015473842603 10.974037706851957 22.56120827794075 9.6409278213977831 12.174649357795714 10.168166756629942
leaf_count=56 32 58 43 47 31 33 72 30 38 30
internal_value=0 0.00312636 -0.00311639 -0.00135026 0.00180735 0.00926044 -0.00449213 -0.00617332 -0.00366077 0.0121222
internal_weight=0 76.2982 76.5199 44.059 25.5587 32.2391 62.5098 44.3768 21.8156 21.2651
internal_count=470 231 239 136 78 95 196 140 68 62
is_linear=0
shrinkage=0.01


Tree=35
num_leaves=13
num_cat=0
split_feature=1 2 5 0 2 4 1 2 5 0 1 0
split_gain=20.1433 21.3323 13.9402 17.7775 10.641 8.53309 6.57518 3.96948 5.31643 15.8999 5.90532 0.596869
threshold=2.2824691143826188 0.00099751020315719274 2.2971281882772607 2.1900615506308392 0.0007302594537315078 -0.0032110249234342798 2.2066384073414138 -0.00020127689268045754 2.2964770816768847 2.3628308156163098 2.3253472653365836 2.3243141395685578
decision_type=2 2 2 2 2 2 2 2 2 2 2 2
left_child=1 2 4 -4 -1 -2 -5 -7 11 -10 -11 -9
right_child=5 -3 3 6 -6 7 -8 8 9 10 -12 -13
leaf_value=0.01692383906865658 0.003945266508149416 -0.0069969850373713307 0.012617253245070112 -0.0088618559865313758 0.0037918930465221786 -0.0095604992540591766 0.0020539467524351941 -0.0056145032118341247 0.0082229835608293427 0.00021510942960011633 -0.0095817524606530285 -0.0096517727301281952
leaf_weight=16.193486571311954 13.288726866245268 14.454047173261641 10.59725785255432 10.327453017234804 10.409137636423109 13.855069667100905 11.423404812812803 9.8243388533592242 11.852984994649885 9.8350807130336779 15.484941601753233 9.8393808603286725
leaf_count=46 39 44 30 31 30 43 34 30 35 30 48 30
internal_value=0 0.00382282 0.0065 0.00204116 0.0118564 -0.00334385 -0.00310002 -0.00473183 -0.00352246 -0.00125841 -0.00575113 -0.00772389
internal_weight=0 73.4048 58.9507 32.3481 26.6026 83.9805 21.7509 70.6918 56.8367 37.173 25.32 19.6637
internal_count=470 215 171 95 76 255 65 216 173 113 78 60
is_linear=0
shrinkage=0.01


end of trees

feature_importances:
VWAP=82
MA_100=68
diff_MA_100=55
price_close=52
divergence=51
diff_MA_9=42
diff_divergence=21
diff_price_close=5

parameters:
[boosting: gbdt]
[objective: multiclass]
[metric: multi_logloss]
[tree_learner: serial]
[device_type: cpu]
[data_sample_strategy: bagging]
[data: ]
[valid: ]
[num_iterations: 5000]
[learning_rate: 0.01]
[num_leaves: 31]
[num_threads: 4]
[seed: 0]
[deterministic: 0]
[force_col_wise: 0]
[force_row_wise: 0]
[histogram_pool_size: -1]
[max_depth: 10]
[min_data_in_leaf: 30]
[min_sum_hessian_in_leaf: 0.001]
[bagging_fraction: 0.6]
[pos_bagging_fraction: 1]
[neg_bagging_fraction: 1]
[bagging_freq: 0]
[bagging_seed: 3]
[feature_fraction: 0.7]
[feature_fraction_bynode: 1]
[feature_fraction_seed: 2]
[extra_trees: 0]
[extra_seed: 6]
[early_stopping_round: 0]
[first_metric_only: 0]
[max_delta_step: 0]
[lambda_l1: 0.1]
[lambda_l2: 0.1]
[linear_lambda: 0]
[min_gain_to_split: 0.1]
[drop_rate: 0.1]
[max_drop: 50]
[skip_drop: 0.5]
[xgboost_dart_mode: 0]
[uniform_drop: 0]
[drop_seed: 4]
[top_rate: 0.2]
[other_rate: 0.1]
[min_data_per_group: 100]
[max_cat_threshold: 32]
[cat_l2: 10]
[cat_smooth: 10]
[max_cat_to_onehot: 4]
[top_k: 20]
[monotone_constraints: ]
[monotone_constraints_method: basic]
[monotone_penalty: 0]
[feature_contri: ]
[forcedsplits_filename: ]
[refit_decay_rate: 0.9]
[cegb_tradeoff: 1]
[cegb_penalty_split: 0]
[cegb_penalty_feature_lazy: ]
[cegb_penalty_feature_coupled: ]
[path_smooth: 0]
[interaction_constraints: ]
[verbosity: 0]
[saved_feature_importance_type: 0]
[use_quantized_grad: 0]
[num_grad_quant_bins: 4]
[quant_train_renew_leaf: 0]
[stochastic_rounding: 1]
[linear_tree: 0]
[max_bin: 255]
[max_bin_by_feature: ]
[min_data_in_bin: 3]
[bin_construct_sample_cnt: 200000]
[data_random_seed: 1]
[is_enable_sparse: 1]
[enable_bundle: 1]
[use_missing: 1]
[zero_as_missing: 0]
[feature_pre_filter: 1]
[pre_partition: 0]
[two_round: 0]
[header: 0]
[label_column: ]
[weight_column: ]
[group_column: ]
[ignore_column: ]
[categorical_feature: ]
[forcedbins_filename: ]
[precise_float_parser: 0]
[parser_config_file: ]
[objective_seed: 5]
[num_class: 3]
[is_unbalance: 0]
[scale_pos_weight: 1]
[sigmoid: 1]
[boost_from_average: 1]
[reg_sqrt: 0]
[alpha: 0.9]
[fair_c: 1]
[poisson_max_delta_step: 0.7]
[tweedie_variance_power: 1.5]
[lambdarank_truncation_level: 30]
[lambdarank_norm: 1]
[label_gain: ]
[lambdarank_position_bias_regularization: 0]
[eval_at: ]
[multi_error_top_k: 1]
[auc_mu_weights: ]
[num_machines: 1]
[local_listen_port: 12400]
[time_out: 120]
[machine_list_filename: ]
[machines: ]
[gpu_platform_id: -1]
[gpu_device_id: -1]
[gpu_use_dp: 0]
[num_gpu: 1]

end of parameters

pandas_categorical:[]
