tree
version=v4
num_class=3
num_tree_per_iteration=3
label_index=0
max_feature_idx=11
objective=multiclass num_class:3
feature_names=price_close diff_MA_100 diff_MA_50 diff_MA_30 diff_MA_20 diff_MA_9 divergence OBV VWAP MFI Volume_Oscillator ATR
feature_infos=[0.74457658128009907:0.96294322874855431] [-0.0011501982319490622:0.0013985411972826656] [-0.0020984948478361964:0.0021378511006109324] [-0.0039770971408692457:0.0037478815551214018] [-0.0041785519601056365:0.0053621940025564419] [-0.010149325353742356:0.011108261521499352] [-0.045415719344887751:0.034996772833724377] [-34.289191221292455:2.0197093668756945] [0.77524300662021972:0.85786699219223461] [0.045382400981566207:99.968663583631738] [-0.99952226836384872:0.99876594269971852] [0.0029664589843570693:0.071508709680064939]
tree_sizes=3336 3319 3389 3438 3430 3456 3449 3442 3476 3449 3429 3453 3437 3443 3452 3429 3434 3452 3437 3460 3481 3441 3435 3449 3458 3434 3432 3472 3433 3426 3477 3446 3474 3485 3453 3438 3447 3448 3453 3450 3454 3455 3444 3457 3457 3482 3439 3460 3492 3453 3459 3456 3454 3449 3460 3458 3450 3483 3443 3451 3487 3446 3455 3435 3453 3490 3468 3429 3460 3495 3445 3457 3463 3440 3461 3459 3443 3467 3486 3441 3475 3452 3439 3479 3471 3471 3441 3453 3443 3464 3446 3452 3451 3467 3427 3448 3472 3432 3469 3445 3460 3455 3451 3440 3457 3509 3492 3445 3440 3419 3446 3477 3448 3462 3478 3438 3463 3473 3443 3448 3459 3423 3455 3453 3439 3459 3459 3438 3453 3454 3459 3454 3418 3462 3471 3446 3421 3477 3487 3447 3472 3451 3478 3453 3461 3449 3467 3467 3473 3461 3457 3460 3452 3476 3469 3452 3444 3437 3444 3440 3448 3426 3455 3435 3438 3472 3440 3430 3480 3427 3464 3476 3425 3440 3462 3438 3483 3461 3423 3477 3431 3472 3424 3481 3458 3452 3426 3491 3461 3491 3474 3437 3458 3478 3454 3444 3455 3467 3497 3458 3472 3459 3427 3462 3454 3444 3448 3447 3416 3501 3482 3471 3464 3476 3413 3471

Tree=0
num_leaves=31
num_cat=0
split_feature=11 3 3 0 8 8 9 3 6 8 8 1 8 0 9 8 3 8 11 11 6 11 0 1 10 9 9 8 0 8
split_gain=78.9054 48.2438 16.4091 16.3018 12.7213 13.84 22.4248 11.0882 10.768 10.4329 16.422 15.468 24.4406 20.7919 12.6858 9.9594 8.37557 7.78929 7.60946 7.48438 7.46227 6.76203 6.56249 14.7921 10.4584 6.54319 6.96276 5.92608 11.3533 5.90331
threshold=0.010274659871494155 6.9258973983576957e-05 0.0006348556986377486 0.79701721488150834 0.85777925126095866 0.80957920159637575 92.857835190917015 -0.00023540284088008343 0.01928281775313068 0.85471474806507952 0.80212632322297572 0.0002093491895397426 0.81918130486385132 0.90328707589181956 81.637650586436408 0.79410273153992328 0.00096011851709287843 0.80892807400828926 0.015830883498009086 0.0050065083990792876 0.011428620898323862 0.0050958625932076814 0.84668363324517848 0.00012568030645282449 0.12382061021756319 78.203877833453262 51.028626329749535 0.8478737184697166 0.83809277284369443 0.85728973800051989
decision_type=2 2 2 2 2 2 2 2 2 2 2 2 2 2 2 2 2 2 2 2 2 2 2 2 2 2 2 2 2 2
left_child=1 3 9 19 5 7 22 -5 -4 10 15 17 20 -14 21 -3 18 -12 -2 -1 -13 -11 23 29 -24 26 -9 28 -19 -7
right_child=16 2 8 4 -6 6 -8 25 -10 14 11 12 13 -15 -16 -17 -18 27 -20 -21 -22 -23 24 -25 -26 -27 -28 -29 -30 -31
leaf_value=-0.99989881573207695 -1.0042600981613774 -0.99737160150298731 -0.98849671150664531 -1.0033467384688943 -0.99338159537117499 -1.0041099408931797 -0.98911109945925069 -0.99681708399650415 -0.99814352834642595 -1.0026792411408472 -1.0073939065083111 -0.99357108312986731 -1.0069020757501868 -0.98961715696442176 -0.98550783838202671 -0.98527631591394738 -0.9962428518336599 -1.0016375740800538 -1.0086782425790373 -1.0099744100323911 -0.98200721972630423 -0.99370069570268715 -0.99773081886217851 -0.99407803874133438 -1.0050256809979567 -1.000786185463922 -0.98773603688496447 -1.0053639732188342 -0.99045211554630508 -1.0097046290710627
leaf_weight=10.464929938316343 166.74121701717377 12.906746923923494 50.929325699806213 17.092718899250031 26.859986841678619 55.46412867307663 12.557915925979612 16.046225905418396 15.348563909530638 10.464929938316343 20.232197880744934 11.162591934204103 20.232197880744938 10.464929938316343 16.743887901306152 14.99973291158676 10.464929938316343 29.650634825229645 51.975818693637848 25.464662849903107 12.209084928035734 38.720240771770477 47.092184722423553 11.511422932147978 33.487775802612305 10.464929938316343 18.836873888969421 16.046225905418396 12.906746923923491 29.650634825229645
leaf_count=30 478 37 146 49 77 159 36 46 44 30 58 32 58 30 48 43 30 85 149 73 35 111 135 33 96 30 54 46 37 85
internal_value=-0.999899 -0.998014 -0.995094 -1.00073 -0.999907 -1.00061 -1.00196 -0.996534 -0.99071 -0.996383 -0.997768 -0.999243 -0.995122 -1.00096 -0.993029 -0.990806 -1.0049 -1.00206 -1.00532 -1.00706 -0.987437 -0.995633 -1.00288 -1.00464 -1.00075 -0.993942 -0.991864 -1.00019 -0.998255 -1.00608
internal_weight=0 608.012 293.018 314.994 279.065 252.205 189.764 62.4407 66.2779 226.74 160.811 132.905 54.0688 30.6971 65.9291 27.9065 229.182 78.8358 218.717 35.9296 23.3717 49.1852 177.206 96.6262 80.58 45.348 34.8831 58.6036 42.5574 85.1148
internal_count=2400 1743 840 903 800 723 544 179 190 650 461 381 155 88 189 80 657 226 627 103 67 141 508 277 231 130 100 168 122 244
is_linear=0
shrinkage=1


Tree=1
num_leaves=31
num_cat=0
split_feature=11 11 7 0 6 5 0 11 9 0 9 0 7 7 3 11 2 6 2 7 2 2 5 0 2 6 11 11 7 2
split_gain=319.963 54.967 29.9028 23.3405 19.0105 21.1779 19.0981 18.4451 11.3838 11.3432 11.169 10.5903 25.0499 27.1053 8.42422 7.19736 7.14731 22.2451 6.73177 6.17402 5.59791 5.64234 4.9335 4.02887 8.80431 8.5118 10.3017 3.02816 2.75858 2.32781
threshold=0.0098588637024523799 0.016311313863832642 0.062149849951138876 0.80999286842777629 0.012806626035173964 0.00020345570530877491 0.84443564955458628 0.008650636823323888 23.656015363686546 0.81702803667859525 50.56576731883721 0.80881199519455926 0.52962800454781711 0.2955455153134805 0.00054232248370089675 0.007033536788010256 2.3885044219740251e-05 0.0023869401334908895 -0.00022024654941193986 -0.0054662955323862951 6.086074954825272e-05 -0.00024425610219641619 -0.00089401053804682984 0.87261115359143948 1.2770033364639667e-05 -0.0080894594993651241 0.0065919210229964361 0.0194094699405295 0.72571774815706303 -0.00014076252519862328
decision_type=2 2 2 2 2 2 2 2 2 2 2 2 2 2 2 2 2 2 2 2 2 2 2 2 2 2 2 2 2 2
left_child=7 2 19 29 5 6 18 11 -3 -9 -7 12 13 -1 -6 -14 17 22 -5 -2 21 -8 -11 -13 25 -25 -27 -10 -12 -4
right_child=1 8 3 4 14 10 20 9 27 16 28 23 15 -15 -16 -17 -18 -19 -20 -21 -22 -23 -24 24 -26 26 -28 -29 -30 -31
leaf_value=-1.4510758421931413 -1.4322703956233696 -1.4356205889091405 -1.424644717336236 -1.4549539968184606 -1.4531622510416695 -1.439685501563807 -1.4400139881956771 -1.4379848182046648 -1.4266883333055624 -1.4429378366244101 -1.432248443042283 -1.4536903739422635 -1.4535734233851134 -1.4285232395942336 -1.443055064564045 -1.4445119786503653 -1.4515095572248722 -1.4307424237656272 -1.4447168313302432 -1.4207248084474873 -1.4453769191961667 -1.430637703457285 -1.4520771684142881 -1.4549098645341436 -1.4540206195109713 -1.449709116025923 -1.4357819416539019 -1.418863393464896 -1.4235616902937265 -1.4331815063373838
leaf_weight=10.259752392768862 12.149706780910494 8.0998045206069929 8.0998045206069964 11.339726328849794 16.199609041213989 13.499674201011659 15.119635105133055 12.14970678091049 10.799739360809328 8.0998045206069929 8.6397914886474627 211.40489798784256 52.918722867965698 10.799739360809324 16.469602525234222 10.259752392768858 36.449120342731476 8.0998045206069929 14.309654653072355 8.9097849726676923 8.0998045206069929 12.149706780910494 20.24951130151749 8.9097849726676959 38.069081246852875 11.339726328849794 9.7197654247283918 17.549576461315155 9.7197654247283918 8.0998045206069929
leaf_count=38 45 30 30 42 60 50 56 45 40 30 32 783 196 40 61 38 135 30 53 33 30 45 75 33 141 42 36 65 36 30
internal_value=-1.4464 -1.43586 -1.43836 -1.44003 -1.44151 -1.4392 -1.44268 -1.45108 -1.42475 -1.44687 -1.43259 -1.45206 -1.44893 -1.43953 -1.44804 -1.45209 -1.44838 -1.44527 -1.44922 -1.42724 -1.43792 -1.43576 -1.44943 -1.453 -1.45083 -1.44674 -1.44331 -1.42173 -1.4275 -1.42874
internal_weight=0 199.255 162.806 141.747 125.547 92.8778 61.0185 448.729 36.4491 85.0479 31.8592 363.681 84.238 21.0595 32.6692 63.1785 72.8982 36.4491 25.6494 21.0595 35.3691 27.2693 28.3493 279.443 68.0384 29.9693 21.0595 28.3493 18.3596 16.1996
internal_count=2400 738 603 525 465 344 226 1662 135 315 118 1347 312 78 121 234 270 135 95 78 131 101 105 1035 252 111 78 105 68 60
is_linear=0
shrinkage=1


Tree=2
num_leaves=31
num_cat=0
split_feature=11 2 7 6 7 1 5 5 6 8 8 11 1 7 8 7 7 11 6 5 8 7 5 5 8 2 8 8 2 1
split_gain=67.8204 31.905 29.852 33.371 25.6585 25.7244 24.1315 20.8215 15.9858 14.6256 17.2382 14.3107 13.4152 12.7492 10.3194 10.8414 9.68585 9.05693 8.30768 9.11168 7.67297 27.2498 9.00902 7.51675 6.6079 6.45987 6.33661 21.6814 7.39687 5.30334
threshold=0.0088549556413226767 -0.00017547267606710101 0.73427055814198194 -0.0071500004848501489 1.6379961035353541 -0.00026065556246868121 0.00091655945676716321 0.00029019011564068725 -0.014681837479519453 0.80868943876602417 0.81362047586014319 0.013604611669248286 -2.7496594220410838e-05 1.1995950702298215 0.85461380184608349 0.35494533264525596 0.39046904493531653 0.0066877630266135831 -0.014681837479519453 0.0009299873179591801 0.85775832788972572 0.12895649429090295 -0.00087196496185437667 -0.00046769842029009684 0.8573049594280312 -0.00034223501869784506 0.81053899773891713 0.84040255514857454 -0.00025131977228076691 0.00019752005907081041
decision_type=2 2 2 2 2 2 2 2 2 2 2 2 2 2 2 2 2 2 2 2 2 2 2 2 2 2 2 2 2 2
left_child=1 8 3 -3 5 14 9 29 16 -4 13 18 -12 -11 -2 -16 -1 -18 -7 26 21 24 -23 -15 -5 -10 -20 -28 -29 -6
right_child=4 2 6 20 7 11 -8 -9 25 10 12 -13 -14 23 15 -17 17 -19 19 -21 -22 22 -24 -25 -26 -27 27 28 -30 -31
leaf_value=-0.92910350018843513 -0.91706586105991283 -0.91545399538670513 -0.91149202146320452 -0.91239860797968086 -0.90901888735745651 -0.93506369627618513 -0.92709533211434525 -0.92866332053659795 -0.91225482802477842 -0.91561026809597867 -0.9253673050140705 -0.93389839395540053 -0.91415882883985167 -0.92055928850312518 -0.91913894825244957 -0.93256240688321868 -0.91493086091717601 -0.92583714731552502 -0.93132751980311612 -0.93221418759820263 -0.9345078800913309 -0.92097895932426654 -0.93050642035722853 -0.9302258084215862 -0.92314388699967542 -0.9178502044252832 -0.91550785501868792 -0.92075584008214684 -0.92872798722359806 -0.91895854316428838
leaf_weight=16.872216880321503 21.897983610630035 22.615950286388397 22.615950286388397 11.487466812133791 10.769500136375429 18.667133569717407 47.744783937931061 17.231200218200684 32.308500409126282 11.846450150012968 13.641366839408873 72.873617589473724 46.308850586414337 11.128483474254606 10.769500136375429 13.282383501529692 17.231200218200687 13.282383501529692 25.487816989421844 40.565117180347443 18.308150231838226 10.769500136375425 104.10516798496246 27.64171701669693 11.846450150012968 63.18106746673584 17.231200218200684 13.282383501529692 84.720067739486694 11.846450150012968
leaf_count=47 61 63 63 32 30 52 133 48 90 33 38 203 129 31 30 37 48 37 71 113 51 30 290 77 33 176 48 37 236 33
internal_value=-0.924659 -0.92229 -0.92388 -0.92677 -0.927981 -0.928928 -0.921014 -0.920436 -0.918292 -0.918827 -0.920346 -0.930095 -0.916723 -0.924659 -0.922026 -0.926513 -0.923071 -0.919699 -0.9287 -0.928034 -0.928416 -0.927596 -0.929602 -0.927422 -0.917781 -0.915936 -0.926817 -0.925806 -0.927634 -0.914133
internal_weight=0 502.936 360.06 179.133 358.624 318.777 180.928 39.8472 142.875 133.183 110.567 272.827 59.9502 50.6167 45.9499 24.0519 47.3858 30.5136 199.954 181.287 156.517 138.209 114.875 38.7702 23.3339 95.4896 140.721 115.234 98.0025 22.616
internal_count=2400 1401 1003 499 999 888 504 111 398 371 308 760 167 141 128 67 132 85 557 505 436 385 320 108 65 266 392 321 273 63
is_linear=0
shrinkage=1


Tree=3
num_leaves=31
num_cat=0
split_feature=11 2 4 7 0 6 5 0 7 6 8 4 7 7 0 4 4 5 6 11 11 0 7 6 8 5 0 0 0 4
split_gain=77.566 48.1016 21.0139 18.7457 25.7657 19.6734 15.6795 15.6468 13.6653 11.8027 15.4096 18.0408 12.2156 11.4616 16.969 11.3932 9.50886 9.20363 9.02976 8.27967 8.05276 6.94874 10.5117 10.049 11.0822 6.73267 6.32964 7.09962 6.26286 6.47677
threshold=0.010274659871494155 -0.00015837436411836323 0.001110945004403119 0.73427055814198194 0.90609559785364169 0.019413369926227057 0.00099807460129008895 0.88965366648235633 1.177612721725293 -0.0071500004848501489 0.85777304207004834 -0.00021288056096746552 0.13132889542895818 1.7581615922092457 0.82871404097375856 0.0003862657609011722 0.00083183688051036164 -0.0011902448907046834 0.013090582688724763 0.0055992902133815822 0.015830883498009086 0.84783806104401416 0.023835535751570717 -0.0042175105561668693 0.81356790224879771 0.0010765504019680796 0.90427409583492169 0.87167991571892156 0.85690154291864995 0.00053886701156358196
decision_type=2 2 2 2 2 2 2 2 2 2 2 2 2 2 2 2 2 2 2 2 2 2 2 2 2 2 2 2 2 2
left_child=1 7 3 9 5 6 8 17 -5 -3 11 -11 19 14 -10 -8 20 -1 -6 -13 26 23 -23 -19 -25 -18 27 -2 29 -14
right_child=16 2 -4 4 18 -7 15 -9 13 10 -12 12 28 -15 -16 -17 25 21 -20 -21 -22 22 -24 24 -26 -27 -28 -29 -30 -31
leaf_value=-0.0075806333596238253 -0.0038648798631287012 -0.00082094923200840486 0.012107360513199036 -0.0055346731022968545 0.0045497257588945272 -0.010415059422085768 0 0.0092719614244334767 -0.0010406166642375645 -0.001071075745005481 0.016329945591271013 -0.0050288212426833432 0.0089058031775407793 -0.0084203123984735746 0.0080501579716684944 0.012056282743472799 -0.0041271395596941731 -0.0055137496091261012 0.017757384837355998 0.0055128556529686311 -0.0092206712758558761 -0.004148607425010024 0.0062823578428357202 0.0081492467906901928 -0.0051875025766074815 0.0068785488145847841 0.0016833191188557017 -0.0090579022048213349 0.013970028458120518 0.00037871476002917381
leaf_weight=37.962569653987885 108.3186522424221 26.853024065494537 27.650021582841873 40.398606836795807 10.483363628387453 17.077633202075958 13.273316979408262 10.484058350324629 50.589911371469498 33.8553786277771 14.009133517742155 11.157581776380537 57.360050112009048 10.43991908431053 34.257749229669571 18.890367835760117 11.150570183992388 66.172297984361649 10.840254604816435 21.663175642490387 48.335326373577118 17.432542830705643 21.286832690238953 13.265959948301317 11.502208441495894 10.809795528650282 14.637585580348967 35.512937545776367 20.657176226377487 10.845044732093809
leaf_count=109 311 77 79 116 30 49 38 30 145 97 40 32 164 30 98 54 32 190 31 62 139 50 61 38 33 31 42 102 59 31
internal_value=0 0.00186653 0.00367621 0.0030919 0.000979627 -0.000217668 0.000819479 -0.00249964 -0.000663244 0.0053034 0.00627919 0.00535759 0.00715384 0.00139522 0.00262322 0.00708818 -0.00496271 -0.00324696 0.0113623 0.00189439 -0.00562773 -0.00196554 0.0015617 -0.00347837 0.00191956 0.00125161 -0.0045204 -0.00515942 0.00908083 0.00756712
internal_weight=0 608.408 430.302 402.652 206.251 184.928 167.85 178.106 135.686 196.401 169.548 155.538 121.683 95.2876 84.8477 32.1637 228.765 167.622 21.3236 32.8208 206.805 129.66 38.7194 90.9405 24.7682 21.9604 158.469 143.832 88.8623 68.2051
internal_count=2400 1743 1232 1153 591 530 481 511 389 562 485 445 348 273 243 92 657 481 61 94 594 372 111 261 71 63 455 413 254 195
is_linear=0
shrinkage=0.01


Tree=4
num_leaves=31
num_cat=0
split_feature=0 7 2 8 0 8 0 0 8 8 8 7 8 8 9 7 7 0 7 4 7 8 0 8 8 2 3 8 7 8
split_gain=18.9948 29.3802 39.8412 25.0268 15.4947 39.3934 30.5349 28.0187 22.752 14.6546 19.7554 25.8268 16.7481 13.6296 11.8207 13.3299 13.2643 7.45063 7.20757 8.89997 5.74443 13.4359 5.2964 5.61544 9.77048 10.4973 7.3948 5.06441 23.1 6.61558
threshold=0.87460836995887481 0.070384609655332941 6.086074954825272e-05 0.85758103207495229 0.81600928137266837 0.81020891978440923 0.80610587505129461 0.79925634500891996 0.79283634899208477 0.81500200426162916 0.82161224336421634 1.7271151640885443 0.80064853997391017 0.81773304267321867 83.639376000579318 1.0792303190110129 1.2076729995696793 0.89939715601973735 0.69294783147032535 -0.0014430213320047456 1.6051195084618926 0.84680156244774119 0.82871404097375856 0.85455160049359946 0.85548772943002305 -4.4938977902253534e-05 0.00030772560510539121 0.8020305024830926 0.71167103447520097 0.80861835921708358
decision_type=2 2 2 2 2 2 2 2 2 2 2 2 2 2 2 2 2 2 2 2 2 2 2 2 2 2 2 2 2 2
left_child=4 3 14 -2 5 7 -7 -1 -9 12 11 -11 -6 -13 15 -3 -17 -4 19 -12 21 -19 -21 -24 25 -25 -26 28 -10 -29
right_child=1 2 17 -5 9 6 -8 8 27 10 18 13 -14 -15 -16 16 -18 20 -20 22 -22 -23 23 24 26 -27 -28 29 -30 -31
leaf_value=-0.0072404488280343147 0.021425289782412642 0.0020858057170969778 -0.0068107592093450773 0.0018772761874337918 0.0067905832811464163 0.022689232416256994 -0.00076622856928018168 0.018137665391954598 -0.0010589016752526556 0.020662104804897986 0.0079313315093459957 -0.0069131244182134132 -0.0076632202070382252 0.0071574321714673005 -0.0013473274508958143 0.023770154976725692 0.0088723841915214572 0.0081028811412268142 -0.0066885442375458661 -0.0085498846447337514 -0.0059043010108763309 -0.0040781341414185017 -0.0085349129239021531 -0.0012282386621089503 -0.0010579940716098318 0.013040443080252434 -0.0080303556589769003 -0.006639120998591477 0.015559684742509731 0.0014779753945767856
leaf_weight=42.011445105075836 14.470655560493471 11.908666551113127 32.551993578672409 12.153986364603041 8.9162440896034223 14.202559649944307 8.9276963472366315 8.4475736320018751 30.191619873046875 8.7321059405803663 9.4914408028125745 12.104647457599642 69.077405333518982 15.642185568809508 9.6732667386531812 10.349937647581102 15.218434631824492 16.523774772882462 30.459113597869873 11.322839140892027 14.81743139028549 19.700920701026917 10.507431596517561 10.818737983703615 117.64656299352646 9.5301179289817792 17.485355943441391 15.330264598131178 11.414737999439238 28.332144528627396
leaf_count=156 53 44 121 45 33 52 33 31 112 32 35 45 257 58 36 38 56 61 113 42 55 73 39 40 436 35 65 57 42 105
internal_value=0 0.00302193 0.00105985 0.0125796 -0.000969762 0.00159408 0.0136286 -0.000457964 0.00257633 -0.00220064 -0.00102959 0.00576264 -0.00599147 0.000980412 0.00840603 0.010947 0.015011 -0.00307683 -0.00217675 -0.00143254 -0.000667304 0.00145768 -0.00194362 -0.00148207 -0.000993835 0.0054365 -0.00197285 0.00100351 0.00350282 -0.00135782
internal_weight=0 157.369 130.744 26.6246 490.592 158.858 23.1303 135.728 93.7163 331.734 253.741 36.4789 77.9936 27.7468 47.1503 37.477 25.5684 83.5941 217.262 186.802 51.0421 36.2247 177.311 165.988 155.481 20.3489 135.132 85.2688 41.6064 43.6624
internal_count=2400 582 484 98 1818 588 85 503 347 1230 940 135 290 103 174 138 94 310 805 692 189 134 657 615 576 75 501 316 154 162
is_linear=0
shrinkage=0.01


Tree=5
num_leaves=31
num_cat=0
split_feature=11 2 7 6 7 5 5 2 11 6 8 8 7 5 6 11 7 11 8 7 5 5 8 2 6 2 7 7 5 7
split_gain=66.5829 31.2129 29.2485 32.7563 25.2382 23.6773 20.447 18.2505 19.0691 15.6806 14.2789 16.8912 12.4775 10.858 10.7636 11.4107 9.51461 8.88018 7.58599 26.8114 8.8792 7.40018 6.48562 6.31108 6.21061 7.52891 5.59416 11.4617 5.49541 4.53564
threshold=0.0088549556413226767 -0.00017547267606710101 0.73427055814198194 -0.0071500004848501489 1.6379961035353541 0.00091655945676716321 0.00029019011564068725 -0.00066165791278222075 0.013604611669248286 -0.014681837479519453 0.80868943876602417 0.81362047586014319 1.1995950702298215 0.00038242234066193653 0.01003464758869377 0.0072934052618685583 0.39046904493531653 0.0066877630266135831 0.85775832788972572 0.12895649429090295 -0.00087196496185437667 -0.00046769842029009684 0.8573049594280312 -0.00034223501869784506 -0.013065427880737333 -0.00025131977228076691 1.2484175024733666 1.4712720212644446 -0.0017443390423520497 1.187706609055972
decision_type=2 2 2 2 2 2 2 2 2 2 2 2 2 2 2 2 2 2 2 2 2 2 2 2 2 2 2 2 2 2
left_child=1 9 3 -3 7 10 -6 28 13 16 -4 12 -12 24 15 -13 -1 -18 19 22 -21 -14 -5 -11 -9 -26 -27 -28 -2 -7
right_child=4 2 5 18 6 29 -8 8 -10 23 11 14 21 -15 -16 -17 17 -19 -20 20 -22 -23 -24 -25 25 26 27 -29 -30 -31
leaf_value=-0.0044214823967051635 0.0087831647561971548 0.0091042269523121805 0.013002375896263742 0.01213753765660165 0.010415460578992498 0.0027723377567005483 -0.0039788351119946046 -0.0063172902534427734 -0.0094415717749984657 0.012256862515638168 0.008931805763849698 0.0086083183564164088 0.0040608681195693644 -0.0065851163425667825 0.012715502205143111 -0.0032344128915792027 0.0096107790892570981 -0.0011812618051824659 -0.0097910761009620678 0.0036521622629118672 -0.0058035104930584573 -0.0055285157090587131 0.0014996588935311693 0.0067331613046122049 0.0059445509196485429 -0.0032463516297183714 0.0071848341768077154 -0.0056939205965322861 -0.00022220385700802631 -0.0042366861676847783
leaf_weight=16.857982844114304 11.494450062513353 22.6706263422966 22.697243273258209 11.519134879112245 22.673735499382019 12.205905854701994 17.215406805276871 25.819605529308319 71.972225725650787 32.414189279079437 11.879910349845884 21.223039537668228 11.140374749898909 74.896101772785187 25.923022121191025 12.934280931949614 17.27912858128548 13.28365510702133 18.259705871343613 10.777841567993162 103.92958399653435 27.601398527622223 11.851832658052443 63.302415549755096 14.012759268283842 76.015363782644272 16.887681841850284 11.488902688026426 15.79481929540634 35.513758987188339
leaf_count=47 32 63 63 32 63 34 48 72 201 90 33 59 31 209 72 36 48 37 51 30 290 77 33 176 39 212 47 32 44 99
internal_value=0 0.0023454 0.000771549 -0.00209097 -0.00329436 0.00360582 0.00418373 -0.00423543 -0.00496994 0.00629486 0.00576941 0.00426701 0 -0.00349299 0.00784796 0.00409831 0.00156222 0.00489901 -0.00372556 -0.0029097 -0.00490394 -0.00274194 0.00681486 0.00862503 -0.00187687 -0.000895625 -0.00182818 0.00193378 0.00355263 -0.00242093
internal_weight=0 503.265 360.128 179.009 358.271 181.119 39.8891 318.382 291.093 143.137 133.399 110.702 50.6217 219.12 60.0803 34.1573 47.4208 30.5628 156.338 138.078 114.707 38.7418 23.371 95.7166 144.224 118.405 104.392 28.3766 27.2893 47.7197
internal_count=2400 1401 1003 499 999 504 111 888 812 398 371 308 141 611 167 95 132 85 436 385 320 108 65 266 402 330 291 79 76 133
is_linear=0
shrinkage=0.01


Tree=6
num_leaves=31
num_cat=0
split_feature=11 2 7 0 5 0 2 8 7 7 1 8 0 8 5 8 7 0 8 7 5 11 2 8 11 7 0 7 6 8
split_gain=76.7061 47.0586 19.5704 26.3905 22.6031 15.4314 15.0947 12.7417 15.2738 11.4508 10.9735 10.297 24.5833 23.7404 10.9489 12.492 9.9168 16.2949 10.4743 9.2517 9.11165 8.06231 8.4968 8.20592 9.15025 7.31438 6.88495 10.352 9.95151 10.9342
threshold=0.010274659871494155 -0.00015837436411836323 0.73427055814198194 0.92399952750729275 0.00099807460129008895 0.88965366648235633 0.00032088393499402074 0.85777304207004834 0.69598689277873726 1.177612721725293 -0.00018164033972284385 0.81566780273418271 0.83013888427553117 0.83044243729555656 -0.00057594028611579462 0.80868943876602417 0.13132889542895818 0.80881199519455926 0.85752177713171573 1.6139879088459759 -0.0011902448907046834 0.015830883498009086 0.00022139535928711321 0.85447318966236441 0.0144055236708412 0.62417181332463556 0.84783806104401416 0.21771403114279428 -0.0042175105561668693 0.81356790224879771
decision_type=2 2 2 2 2 2 2 2 2 2 2 2 2 2 2 2 2 2 2 2 2 2 2 2 2 2 2 2 2 2
left_child=1 5 6 4 9 20 7 8 10 -4 -3 12 14 -13 -11 -16 18 -18 -12 -6 -1 22 23 -2 -25 -19 28 -28 -22 -30
right_child=21 2 3 -5 19 -7 -8 -9 -10 11 16 13 -14 -15 15 -17 17 25 -20 -21 26 -23 -24 24 -26 -27 27 -29 29 -31
leaf_value=-0.0075313326727595503 -0.0081632835971576865 -0.00575985585859795 -0.0056153642491314163 0.016683519752685998 0.0033295042612292831 0.0092103519109842345 0.011342365964640659 0.012313113814807099 0.011494379998212812 -0.0082943144132698772 -0.0061818433239708096 -0.0092691726529248349 0.011974555195825584 0.0060822759255528451 -0.007462994490955722 0.0051880524373908079 -0.0019179211693904383 0.010262949054962509 0.0044773873197151348 0.012233010642423187 -0.0054740572546539872 -0.0083686756400445771 -0.0006442656866137577 -0.0045888475657604507 0.0055861649508733829 0.001736193048854838 -0.0028304515810789062 0.0075911016728456302 0.008104026215024835 -0.0051462927591560013
leaf_weight=37.852846413850784 56.635361284017563 14.98690617084503 41.345535010099411 10.881140410900114 33.623643904924393 10.502601772546766 40.376898020505905 18.621346175670624 20.693679839372635 14.27833718061447 18.803188353776932 26.384026348590851 20.694118678569794 16.094772100448608 10.434290289878843 29.712677329778671 22.04146084189415 42.049704223871231 17.831883639097214 18.258705854415894 66.035464465618134 53.100836515426636 55.744146525859833 52.555963635444641 10.452081739902495 13.666697204113005 22.279816597700119 16.420953124761581 13.283899605274202 11.477954745292662
leaf_count=109 163 43 119 31 96 30 115 53 59 41 54 76 59 46 30 85 63 120 51 52 190 153 160 151 30 39 64 47 38 33
internal_value=0 0.00185478 0.00364216 0.00156509 0.000772516 -0.00246842 0.00583818 0.00450889 0.00352632 -0.00109354 0.00223625 0.000491174 0.00272262 -0.00342856 -0.000792404 0.0018648 0.00329669 0.00531759 -0.000968245 0.00649961 -0.00321239 -0.00493914 -0.00389093 -0.00539346 -0.00287894 0.00819619 -0.00193739 0.00157387 -0.00344509 0.00192584
internal_weight=0 608.633 430.779 221.707 210.826 177.854 209.072 168.695 150.074 158.944 129.38 117.598 75.1194 42.4788 54.4253 40.147 114.393 77.7579 36.6351 51.8823 167.351 228.488 175.388 119.643 63.008 55.7164 129.498 38.7008 90.7973 24.7619
internal_count=2400 1743 1232 635 604 511 597 482 429 456 370 337 215 122 156 115 327 222 105 148 481 657 504 344 181 159 372 111 261 71
is_linear=0
shrinkage=0.01


Tree=7
num_leaves=31
num_cat=0
split_feature=11 11 7 11 2 5 2 6 3 7 6 7 4 7 7 2 7 6 5 10 3 11 11 11 6 6 2 7 5 7
split_gain=308.935 50.9052 28.35 18.1204 15.8234 24.442 10.3804 24.7794 8.26371 7.76158 7.1016 27.2482 5.98983 10.014 11.7039 7.34771 5.55934 5.18291 4.09399 3.84484 3.70823 5.22611 3.52289 3.31145 3.13896 5.1224 4.2669 3.82878 2.74488 2.68685
threshold=0.0098588637024523799 0.016311313863832642 0.062149849951138876 0.008650636823323888 0.00029904540260083939 0.0002226401305940873 3.9063530368366191e-05 -0.00039791338410338767 -0.00052775789721559707 0.69902807090920216 -0.017222244591410748 0.41954960676856839 0.00042044483832559548 1.3616586073933126 0.81644325370299631 -0.00018789582244116418 -0.0054662955323862951 0.0058148356886091887 -0.0011304553101570967 -0.064498677047020767 0.00041292735806564013 0.01188865296827119 0.007033536788010256 0.0194094699405295 0.013875779523746913 0.0017167622145913277 0.00011244942963128947 -0.0044820679754583176 -0.00087196496185437667 0.69598689277873726
decision_type=2 2 2 2 2 2 2 2 2 2 2 2 2 2 2 2 2 2 2 2 2 2 2 2 2 2 2 2 2 2
left_child=3 2 16 10 5 12 7 18 -3 -7 11 -1 13 14 15 28 -2 -11 -5 -17 -6 -22 29 -10 25 27 -27 -24 -4 -12
right_child=1 8 4 6 20 9 -8 -9 23 17 22 -13 -14 -15 -16 19 -18 -19 -20 -21 21 -23 24 -25 -26 26 -28 -29 -30 -31
leaf_value=0.011063048151956719 0.013798131151301289 0.011526675513390294 0.0022965224600046985 0.0033689566978060775 -0.0042726913493990881 0.0079481719292581396 -0.0041784949805239689 0.012999803036601571 0.018542218912162015 0.022347322790172184 -0.0055042832327038826 -0.0085830045650481836 0.01301071699215965 -0.0029760686491387056 0.014526220534584675 0.012672059708247283 0.024678979573747248 0.011760356415460456 -0.0048800139334074797 0.0033509787606720394 -0.00097009382935987277 0.0088662929125214902 0 0.026384280677651778 -0.0080981412769298728 0.0041065497784998732 -0.0031035360857249411 -0.0071471182173261164 -0.0050786943676083343 -0.0077786320690141075
leaf_weight=11.489014953374864 12.302073389291765 8.2583679556846601 11.667986840009684 8.1462962329387683 11.585301548242567 10.660383611917494 40.077906459569931 15.523646354675291 11.595118969678881 14.341241270303728 100.68120807409286 17.93494388461113 8.1653699576854688 15.908720314502714 12.337213277816771 8.7545581459999102 9.1486288011074048 8.1791079938411695 21.276159524917603 9.8034611940383964 14.327136844396593 8.4125524461269361 9.1623727381229383 17.500597327947617 20.306373804807663 11.590456753969191 27.074729442596436 39.94303822517395 8.6460254192352277 123.12781462073326
leaf_count=42 45 30 43 30 43 39 149 57 42 52 375 67 30 59 45 32 33 30 79 36 53 31 34 63 76 43 101 149 32 460
internal_value=0 0.0102714 0.00785627 -0.00464072 0.00622668 0.0080982 -0.000473584 0.00280978 0.0208142 0.0152525 -0.00561816 -0.000866556 0.00491567 0.00389809 0.00605475 0.00331004 0.0185781 0.0186155 -0.00255855 0.00784605 0.000277456 0.00264798 -0.00603603 0.0233676 -0.00451671 -0.00366847 -0.000911393 -0.00581278 -0.000803024 -0.00676289
internal_weight=0 201.594 164.24 446.334 142.789 108.464 85.024 44.9461 37.3541 33.1807 361.31 29.424 75.2833 67.118 51.2092 38.872 21.4507 22.5203 29.4225 18.558 34.325 22.7397 331.886 29.0957 108.077 87.7706 38.6652 49.1054 20.314 223.809
internal_count=2400 738 603 1662 525 398 315 166 135 121 1347 109 277 247 188 143 78 82 109 68 127 84 1238 105 403 327 144 183 75 835
is_linear=0
shrinkage=0.01


Tree=8
num_leaves=31
num_cat=0
split_feature=11 2 5 3 0 11 0 6 6 2 6 2 11 6 5 9 0 6 9 6 2 6 2 9 6 5 0 2 11 0
split_gain=65.7838 30.4857 24.1404 18.5051 17.6892 15.4224 13.6638 11.3965 10.6143 9.72042 11.2949 9.81899 9.25961 12.5137 9.97441 8.96451 8.00446 7.98286 7.78259 8.11868 6.51443 6.48092 10.3662 7.93874 5.72284 5.69982 5.63787 5.2705 4.8882 6.54313
threshold=0.0088549556413226767 -0.00017547267606710101 0.00028035074058857529 0.00055367297462488596 0.87634124031062799 0.0144055236708412 0.79487191106728827 -0.016297508213846065 -0.0071500004848501489 -0.00066165791278222075 -0.013065427880737333 -0.00025131977228076691 0.0048360371976612611 0.0093606868972239705 0.00086486331031121477 26.130460594810682 0.819784091915983 0.01195850755173228 70.252816019391432 0.016516133368119249 -0.00058424355618624791 0.0056324259203142111 0.00010894914704534521 82.975795096984157 0.018884021766107043 -0.00019891924211029585 0.87064168593521407 -0.00034223501869784506 0.01047453160002452 0.90688948818960424
decision_type=2 2 2 2 2 2 2 2 2 2 2 2 2 2 2 2 2 2 2 2 2 2 2 2 2 2 2 2 2 2
left_child=1 4 5 6 7 9 -3 15 -8 -2 -11 -12 25 21 16 -1 -15 -18 19 26 -17 22 -14 -24 -5 -10 -13 -9 -4 -30
right_child=2 3 28 24 -6 -7 8 27 12 10 11 18 13 14 -16 20 17 -19 -20 -21 -22 -23 23 -25 -26 -27 -28 -29 29 -31
leaf_value=0.0095454747480677258 0.008033431115342873 0.012251727729388968 -0.0041192132238554559 -0.0058914984481887181 -0.005202046679342924 -0.006487623723815469 0.0067935386023302282 0.012200364292742724 0.010118295017013284 -0.0066755615270039093 0.0073098911684938567 0.00085084793736925823 -0.0026982188487764303 -0.00077417039909502181 -0.0039368306651678866 0.0039573982706377344 0.0010975217058048926 0.011019574376803428 -0.0051734274313647091 0.0064057506659058227 -0.006544655881163792 -0.0055602626280053958 0.00064162357329584799 0.010938023564916733 0.0019018416836928266 0.0023007242703556225 -0.005691173753899971 0.007233975576092894 -0.0092743172360721764 -0.0013344058662386185
leaf_weight=11.52126821875572 14.025118499994276 11.884088456630705 51.17428457736969 47.272976338863373 12.210356831550596 44.747677087783813 31.706603735685349 35.39516344666481 14.037292093038557 25.790901869535446 18.360776275396347 54.549227684736252 77.060670971870422 14.711407750844954 14.332309812307356 11.868026643991469 12.222989380359648 25.608205527067184 27.605968803167343 20.490615487098694 11.48300760984421 35.118631511926651 24.748231768608093 10.793924152851103 11.487599283456801 29.091515779495239 17.201191484928131 60.892311036586761 71.547013401985168 12.533436983823774
leaf_count=32 39 33 143 132 34 125 88 98 39 72 51 152 215 41 40 33 34 71 77 57 32 98 69 30 32 81 48 169 200 35
internal_value=0 0.00233024 -0.00327627 0.000773693 0.00622929 -0.00124634 0.00177737 0.00730427 0.00133975 6.83836e-05 -0.000611171 0.00051728 0.000662546 -0.000183449 0.0033973 0.00235861 0.00542055 0.00785154 -0.00052025 0.000865622 -0.00117029 -0.00181246 -0.00063082 0.00381855 -0.00435028 0.00488579 -0.000709333 0.00908075 -0.00660889 -0.00810563
internal_weight=0 503.447 358.026 360.076 143.37 222.771 301.316 131.16 289.432 178.024 163.999 138.208 257.725 214.596 66.8749 34.8723 52.5426 37.8312 119.847 92.241 23.351 147.721 112.603 35.5422 58.7606 43.1288 71.7504 96.2875 135.255 84.0805
internal_count=2400 1401 999 1003 398 621 839 364 806 496 457 385 718 598 186 97 146 105 334 257 65 412 314 99 164 120 200 267 378 235
is_linear=0
shrinkage=0.01


Tree=9
num_leaves=31
num_cat=0
split_feature=11 2 3 8 8 1 2 5 8 8 8 6 6 5 8 3 8 11 11 3 3 5 1 8 6 8 6 2 8 11
split_gain=75.4555 46.024 23.7153 17.9516 15.58 15.9674 18.2962 13.0372 12.7837 17.3829 11.306 11.1266 9.4643 10.8071 10.9314 8.1783 8.10619 8.07959 7.37594 7.06639 9.3658 6.96487 6.13177 5.68362 7.43771 7.2937 5.65808 5.30819 8.01821 9.11081
threshold=0.010274659871494155 -0.00015837436411836323 0.0006348556986377486 0.85711326620895445 0.80212632322297572 0.00020221563833316972 2.6418584624821054e-05 -0.0011902448907046834 0.81918130486385132 0.83044243729555656 0.80892807400828926 0.01928281775313068 -0.0071500004848501489 0.00058659690540813225 0.85775832788972572 0.00096011851709287843 0.80064853997391017 0.0083147882855284187 0.015830883498009086 -0.00069833063256802264 1.7226799520819739e-05 0.00029019011564068725 9.0217119420032982e-06 0.80957920159637575 -0.0092130818875266734 0.84764050902235122 0.010146386851078106 0.00022139535928711321 0.85453108056568017 0.0144055236708412
decision_type=2 2 2 2 2 2 2 2 2 2 2 2 2 2 2 2 2 2 2 2 2 2 2 2 2 2 2 2 2 2
left_child=1 7 3 4 16 10 -7 -1 26 -10 -6 -4 -5 14 22 18 21 -11 27 -9 -21 -3 -14 -12 -25 -26 -8 28 -2 -30
right_child=15 2 11 12 5 6 8 19 9 17 23 -13 13 -15 -16 -17 -18 -19 -20 20 -22 -23 -24 24 25 -27 -28 -29 29 -31
leaf_value=-0.0075639106907756009 -0.0081314629586799331 0.00014037451834664224 0.011436848850661867 -0.00044643820247347956 -0.0075271093319627114 -0.0072986999360467207 0.0048497470859116274 0.0052827298360029994 -0.0053789003562579171 0.00040641882676782025 0.006324106961762244 0.001631483263915875 -0.00011342583786769748 0.015245974656032247 0.014052719240510386 0.0036449680931981798 0.011156780481528355 0.011609170680650441 -0.0086460353099383942 -0.0034532205721608169 0.0028101115415314543 0.0086458225543327421 0.0090866912482375738 0.0049032498195407644 0 -0.0059939980913732297 0.014213032266304507 -0.0014163661795287019 -0.0046306601019611843 0.0055334857175254959
leaf_weight=38.785754173994064 56.820656031370163 25.932266235351562 50.03445628285408 13.957038372755049 27.757010072469711 12.893630921840666 10.879124879837038 15.694988310337065 18.022305399179459 10.831554353237154 11.162965565919874 15.416906982660292 22.042516082525253 17.624294340610504 12.004382640123366 10.468475222587584 20.05303281545639 16.516654938459396 51.538584053516388 91.059922397136688 32.091470897197723 15.450784981250761 10.539463669061659 16.736484289169312 52.070269882678986 33.436351895332336 17.96519210934639 47.353348314762115 51.428934305906296 10.470183670520781
leaf_count=112 164 74 142 40 80 37 31 45 52 31 32 44 63 50 34 30 57 47 149 262 92 44 30 48 149 96 51 136 148 30
internal_value=0 0.00183761 0.00360254 0.00260547 0.00146416 0.000255625 0.00362397 -0.002442 0.00554233 0.00219637 -0.00181692 0.00914849 0.00692579 0.00859387 0.00591378 -0.00490459 0.00593061 0.00722628 -0.00532195 -0.000999616 -0.00181202 0.00335326 0.00285068 -0.000405094 -0.00115502 -0.00235685 0.010745 -0.00427977 -0.00541132 -0.00288912
internal_weight=0 608.959 431.327 365.875 289.708 228.272 87.1085 177.632 74.2148 45.3705 141.163 65.4514 76.1677 62.2107 44.5864 228.08 61.4361 27.3482 217.612 138.846 123.151 41.3831 32.582 113.406 102.243 85.5066 28.8443 166.073 118.72 61.8991
internal_count=2400 1743 1232 1046 829 654 249 511 212 130 405 186 217 177 127 657 175 78 627 399 354 118 93 325 293 245 82 478 342 178
is_linear=0
shrinkage=0.01


Tree=10
num_leaves=31
num_cat=0
split_feature=11 11 7 0 11 6 5 0 0 0 7 7 9 9 3 11 7 0 0 7 6 5 11 0 0 7 11 5 11 7
split_gain=302.102 48.6631 27.4888 21.7367 17.95 17.8386 19.5007 18.1569 10.9043 10.4931 24.2318 25.4586 10.4085 10.2147 8.2637 7.12026 6.22164 12.8251 6.63124 5.31475 4.68834 4.82728 4.45991 4.45686 4.02329 6.36332 7.25314 2.68129 2.66366 2.38711
threshold=0.0098588637024523799 0.016311313863832642 0.062149849951138876 0.80999286842777629 0.008650636823323888 0.012806626035173964 0.00020345570530877491 0.84443564955458628 0.81702803667859525 0.80881199519455926 0.52962800454781711 0.2955455153134805 50.56576731883721 23.656015363686546 0.00054232248370089675 0.007033536788010256 1.1301683498162935 0.87460836995887481 0.8488427527567014 -0.0054662955323862951 -0.012052720381443447 -0.00074997118434749755 0.013604611669248286 0.85873689179453849 0.87261115359143948 0.13132889542895818 0.0065919210229964361 0.00077239902442988184 0.0194094699405295 0.72571774815706303
decision_type=2 2 2 2 2 2 2 2 2 2 2 2 2 2 2 2 2 2 2 2 2 2 2 2 2 2 2 2 2 2
left_child=4 2 19 -4 9 6 7 20 -6 10 11 -1 -8 -3 -7 -12 17 18 -10 -2 -5 -22 23 -9 -11 26 -26 -18 -15 -14
right_child=1 13 3 5 8 14 12 22 16 24 15 -13 29 28 -16 -17 27 -19 -20 -21 21 -23 -24 -25 25 -27 -28 -29 -30 -31
leaf_value=-0.0046034207453109393 0.013571426711979351 0.010150477141234198 0.016879877398482842 -0.0085149283491976792 0.0081960701368867274 -0.0067325013918304449 0.0063622165119177603 0.014834818103117185 0.001716092917310395 -0.007226816631979994 -0.0071046094781979374 0.017184894851309057 0.013574348912575087 0.018528641366763278 0.0032821465439029562 0.0019290598060601458 -0.0080263903147293845 0.010374554446165559 -0.006874415642377024 0.024159651275116514 -0.0049329514874600121 0.0058201866103810215 0.0016635136789444403 0.0064457736581555224 -0.0055172702953198635 -0.0067343015487610867 0.0051615679976945664 -0.0013282816246565296 0.025749540008907244 0.021605419439096243
leaf_weight=10.162335902452471 12.408318966627123 8.3233297467231733 16.623790681362152 9.1723586618900317 12.276897579431532 16.110327243804932 13.748585790395735 11.756871521472933 18.092566192150116 208.77543023228645 52.223149329423904 11.050209939479826 8.8303685784339923 11.208967983722689 16.53266379237175 10.228956103324888 17.696280598640445 9.8217000365257245 17.42684942483902 9.2772039473056775 8.3435066044330615 8.1345617771148664 8.5033139884471876 15.647867709398268 13.113660275936128 42.134152680635452 12.139812946319578 9.6565656065940839 18.362711578607559 10.069803237915037
leaf_count=38 45 30 60 34 45 60 50 43 67 783 196 40 32 40 61 38 66 36 65 33 31 30 31 57 49 158 45 36 65 36
internal_value=0 0.0101036 0.00774022 0.00613509 -0.00461403 0.00470692 0.00691453 0.00356861 -0.000466563 -0.00559025 -0.00246449 0.00672718 0.0131625 0.0203302 -0.00163532 -0.00560829 -0.00195254 0.000300752 -0.00247805 0.0182371 -0.00282241 0.000318208 0.00815688 0.010122 -0.00653236 -0.00435849 -0.000344202 -0.00571159 0.0231179 0.017997
internal_weight=0 203.055 165.16 143.474 444.799 126.85 94.2072 61.5585 84.9709 359.828 83.6647 21.2125 32.6488 37.895 32.643 62.4521 72.694 45.3411 35.5194 21.6855 25.6504 16.4781 35.9081 27.4047 276.163 67.3876 25.2535 27.3528 29.5717 18.9002
internal_count=2400 738 603 525 1662 465 344 226 315 1347 312 78 118 135 121 234 270 168 132 78 95 61 131 100 1035 252 94 102 105 68
is_linear=0
shrinkage=0.01


Tree=11
num_leaves=31
num_cat=0
split_feature=2 7 1 0 0 8 0 0 6 6 7 8 8 1 0 0 7 1 0 0 6 0 8 0 8 8 7 6 6 2
split_gain=39.0872 33.8494 28.0727 26.6542 22.5224 26.932 20.5908 18.199 14.7331 14.6631 15.2768 12.9228 20.8778 29.5223 24.725 14.1714 11.3732 10.1947 9.43873 8.6682 10.6434 9.71314 16.9882 8.58648 8.45898 8.27248 8.05634 7.78217 7.13065 6.9391
threshold=-0.00015837436411836323 0.73227398549371936 -0.00019598838756529344 0.84668363324517848 0.81729432086505815 0.81020891978440923 0.92497399626615184 0.79835107720046017 -0.013727644324651232 -0.0077984100763694433 1.0792303190110129 0.84657249650707234 0.82161224336421634 0.000189410783576649 0.90427409583492169 0.83809277284369443 1.3074649252612631 -0.00035031061685153459 0.8351885056197611 0.80714576847062169 0.0058148356886091887 0.82696935906267666 0.85719150781365616 0.85257136336397232 0.84811837314200866 0.85771657890536412 0.15978329125675608 0.00063914730173531009 -0.016001334162465904 -0.00024425610219641619
decision_type=2 2 2 2 2 2 2 2 2 2 2 2 2 2 2 2 2 2 2 2 2 2 2 2 2 2 2 2 2 2
left_child=3 2 -2 4 5 7 9 -1 17 -3 -11 12 13 15 -14 16 -12 -5 29 26 21 -21 27 25 -13 -24 -4 -23 -7 -6
right_child=1 6 19 8 18 28 -8 -9 -10 10 11 24 14 -15 -16 -17 -18 -19 -20 20 -22 22 23 -25 -26 -27 -28 -29 -30 -31
leaf_value=0.011767915936453918 0.0065455488775223673 -0.0074559026254778409 -0.0072618578902052099 0.0020366762601680541 0.015396554386403314 -0.0084889816998919686 -0.010786531050083883 -0.0013446665432014461 0.0025959750525961279 0.008382266916788058 0.0013872292561644065 -0.0096646601047524257 0.011986753063325669 -0.0050986164000798289 -0.0012110748387246231 -0.006100689403066204 0.0089691169214675473 -0.0082956825104655869 0.0058659574053629131 -0.0087486167268722489 -0.0084313173835017484 -0.0022547144161354062 -0.004734794501876317 -0.0085329262115553754 0.00093163908323367251 0.004782554955660507 0.0029285555892518129 0.0071282780853572257 0.0013345801280485996 0.0060468194961572188
leaf_weight=28.593563765287399 23.727365434169769 17.220256149768829 11.110095560550688 13.648661911487578 30.357193171977997 20.756338119506839 14.275180667638777 16.539031028747559 57.570084571838379 33.175446301698685 39.187436133623123 16.806907385587696 37.501973509788513 64.494782447814941 22.568475842475891 12.540774762630461 40.704112976789474 30.417020916938782 37.506488978862762 32.520151317119598 80.343137711286545 15.029260843992232 32.211942791938782 38.195707708597183 13.273874044418333 12.552474468946455 25.05353632569313 20.813055157661438 11.157023251056669 11.537474334239958
leaf_count=79 66 48 31 38 84 58 40 46 160 92 109 47 104 180 63 35 113 85 104 91 225 42 90 107 37 35 70 58 31 32
internal_value=0 -0.00139312 -0.00384251 0.00325629 0.00584596 0.00197371 0.000894906 0.0069483 -0.000721947 0.00146227 0.00201628 0.00115442 0.00200964 8.28907e-05 0.00701794 0.0037107 0.00526903 -0.00507539 0.00958355 -0.00476863 -0.0054793 -0.00390082 -0.00255917 -0.00504759 -0.00496806 -0.00203902 -0.000185933 0.00317069 -0.00502995 0.0128661
internal_weight=0 603.306 291.557 258.083 156.447 77.046 311.749 45.1326 101.636 297.474 280.254 247.078 216.998 156.927 60.0704 92.4323 79.8915 44.0657 79.4012 267.829 231.666 151.323 118.802 82.9601 30.0808 44.7644 36.1636 35.8423 31.9134 41.8947
internal_count=2400 1683 815 717 434 214 868 125 283 828 780 688 604 437 167 257 222 123 220 749 648 423 332 232 84 125 101 100 89 116
is_linear=0
shrinkage=0.01


Tree=12
num_leaves=31
num_cat=0
split_feature=3 8 8 0 9 0 7 8 5 9 5 5 8 0 7 9 8 3 3 8 7 3 6 6 3 8 8 9 6 7
split_gain=44.706 18.0688 26.6297 25.7738 31.6118 23.8523 20.89 19.8449 17.9963 17.748 15.148 10.4874 10.3256 10.1459 9.5381 11.5313 10.6723 13.2384 8.89819 10.19 8.34344 8.08526 7.83085 7.72204 7.04842 6.37847 6.31842 6.20907 6.01976 5.54387
threshold=5.5811601081534608e-05 0.85471474806507952 0.81522376699497678 0.82871404097375856 66.818268884773502 0.90609559785364169 0.080630969729871563 0.85775166390672719 -0.0011902448907046834 70.252816019391432 0.00099807460129008895 -0.00057594028611579462 0.84098680692304317 0.79701721488150834 1.6208758359799902 92.857835190917015 0.81020891978440923 -0.000276059792598704 -0.00076014291694392877 0.85777925126095866 -0.046634651186455066 0.00052686201802193422 0.0077276204704435645 0.0077276204704435645 0.00052379458464696393 0.84511072127441889 0.85448714936715287 76.567229802006935 0.011709965218238085 1.169627098824104
decision_type=2 2 2 2 2 2 2 2 2 2 2 2 2 2 2 2 2 2 2 2 2 2 2 2 2 2 2 2 2 2
left_child=8 2 3 4 11 10 7 -3 -1 12 25 -2 -7 -10 15 16 17 -15 -18 -20 -21 -6 24 -5 -8 -4 -27 -19 29 -13
right_child=1 6 5 23 21 9 22 -9 13 -11 -12 28 -14 14 -16 -17 18 27 19 20 -22 -23 -24 -25 -26 26 -28 -29 -30 -31
leaf_value=-0.0061387863731713508 -0.0018396738642480418 -0.0070037186858640712 -0.0098595800021754158 0.0043681920860977851 -0.0052014015663384965 -0.006578506305710741 0.004528321705185058 0.00859536580023363 -0.0070405040984130038 0.013789805494298426 0.0013025458262165279 0.0098335919652318988 0.0055549290848646475 -0.0051871166521714951 -0.0076226630549607365 0.0096857378395135713 0.0037817632964760295 0.0072127337467810552 -0.003443532505503832 0.01008445889929965 -0.0011511791300045377 0.0035639155795241751 0.013348113644594643 0.014882106423684253 0.013244723419435474 -0.0007883873588205374 -0.010238915232567361 -0.0012426472854930838 0.014657110752208762 0.0011324209462467722
leaf_weight=93.433856695890427 10.464495986700056 20.508508890867233 39.064739763736725 10.545968621969221 47.3222336769104 13.199971109628679 44.13912445306778 13.378835201263426 26.996124595403671 13.379766494035719 30.117887407541275 20.386650264263153 14.729221522808073 15.307292252779005 18.349441051483154 11.222448438405989 25.766000658273697 39.661799818277359 158.86924567818642 10.520698815584185 17.108604162931442 13.307520031929014 23.990876793861389 23.312606245279312 11.998317837715147 22.6600461602211 10.379091590642927 10.832298725843428 14.095013141632078 11.872690439224241
leaf_count=270 30 59 113 30 136 38 126 38 78 38 86 58 42 44 53 32 74 113 457 30 49 38 68 66 34 65 30 31 40 34
internal_value=0 0.00236478 0.00105253 0.0039806 0.00175042 -0.00202785 0.00574553 -0.000808556 -0.00225832 0.00436535 -0.00462293 0.00710904 -0.000146942 -0.00117034 -0.000649851 -0.000201631 -0.000607609 0.00290262 -0.00170133 -0.00246584 0.00311201 -0.00325835 0.00852736 0.0116593 0.00642931 -0.00711023 -0.00380934 0.0053802 0.00915035 0.00667552
internal_weight=0 408.854 294.838 151.307 117.449 143.531 114.016 33.8873 428.068 41.309 102.222 56.8188 27.9292 334.634 307.638 289.288 278.066 65.8014 212.265 186.499 27.6293 60.6298 80.1283 33.8586 56.1374 72.1039 33.0391 50.4941 46.3544 32.2593
internal_count=2400 1169 844 432 336 412 325 97 1231 118 294 162 80 961 883 830 798 188 610 536 79 174 228 96 160 208 95 144 132 92
is_linear=0
shrinkage=0.01


Tree=13
num_leaves=31
num_cat=0
split_feature=11 11 7 0 11 6 8 5 8 7 0 0 8 11 7 10 11 0 7 5 6 7 6 0 8 11 8 11 6 5
split_gain=296.032 46.6461 26.5903 21.0477 17.803 17.4151 20.4985 19.8762 16.9342 20.7069 10.6692 10.4352 28.1319 10.0781 8.14116 6.80461 6.45711 6.14939 7.16739 5.68228 5.48182 5.06857 4.27788 3.99609 6.73421 9.00584 4.3155 3.3431 4.67653 3.12114
threshold=0.0098588637024523799 0.016311313863832642 0.062149849951138876 0.80999286842777629 0.008650636823323888 0.012806626035173964 0.85199914480171024 -0.00091657971140302042 0.85521156918714947 0.30207925277445269 0.81702803667859525 0.80881199519455926 0.8101021877728326 0.007033536788010256 1.2304848460522757 0.63315595359247923 0.0194094699405295 0.80501806607639437 0.66723708082463584 0.00091655945676716321 -0.004907157062372546 -0.0054662955323862951 -0.004742563148521616 0.87261115359143948 0.85693235098165899 0.0062407928446318013 0.80064853997391017 0.0093089128450372788 0.0068485083690201795 0.00014504819118532633
decision_type=2 2 2 2 2 2 2 2 2 2 2 2 2 2 2 2 2 2 2 2 2 2 2 2 2 2 2 2 2 2
left_child=4 2 21 -4 11 6 7 -5 -8 -10 -6 12 13 17 -9 27 29 -1 -19 -7 -16 -2 -11 26 -25 -26 -13 -12 -29 -3
right_child=1 16 3 5 10 19 8 14 9 22 15 23 -14 -15 20 -17 -18 18 -20 -21 -22 -23 -24 24 25 -27 -28 28 -30 -31
leaf_value=-0.0079514454988471577 0.013353428057860002 0.010413056321327043 0.016573657844154398 0.00070945145312526219 0.0080817010042451738 -0.0045384765659746322 -0.00613616950087904 0.023324255487296563 -0.0063500589103323568 0.0064046979351155978 -0.0052043901985450811 -0.0014027917253694783 0.014847307967223087 0.00410226365513882 0.017542251033761679 0.0058943069764009837 0.023843391950971404 0.0059184294082641085 -0.0065593508264300583 0.0043138054828252481 0.0076679457071842242 0.023647130904197865 0.015359294119108581 -0.0067441099808081689 -0.0056122552798149985 0.0064849807266578879 -0.0075681238751091695 0.0032727349415003827 -0.0048363583414811626 0.019428573749315031
leaf_weight=45.129155099391937 12.511590778827669 8.7043364644050616 16.795986652374268 12.553501546382902 12.344529151916502 21.998801529407501 15.997520655393599 9.8315401375293714 8.9904057681560499 10.425797343254088 34.841210693120956 12.535968661308287 8.3372532427310926 11.593293845653532 10.880624145269392 9.4653430581092817 20.618594527244568 8.090519458055498 10.344967335462568 10.607865333557127 13.244519740343096 9.4066522717475873 12.718162119388582 42.557265132665634 13.591198414564134 11.071369171142576 195.22428160905838 14.885437816381456 13.376628398895262 9.0667813718318921
leaf_count=170 45 31 60 46 45 82 59 35 33 38 130 47 30 43 39 35 72 30 39 39 48 33 46 160 51 41 736 55 50 32
internal_value=0 0.00995478 0.00763868 0.00605841 -0.00458976 0.0046507 0.00682235 0.0115548 0.00221411 0.00640831 -0.000459083 -0.00556501 -0.00244553 -0.00439429 0.0155211 -0.00193483 0.0198957 -0.00596366 -0.00102707 -0.00162362 0.0122166 0.0179039 0.0114134 -0.00650735 -0.00433866 -0.000136997 -0.00720178 -0.00313247 -0.000533616 0.0151517
internal_weight=0 204.353 165.963 144.045 443.388 127.249 94.6421 46.5102 48.1319 32.1344 84.9131 358.475 83.4952 75.1579 33.9567 72.5686 38.3897 63.5646 18.4355 32.6067 24.1251 21.9182 23.144 274.98 67.2198 24.6626 207.76 63.1033 28.2621 17.7711
internal_count=2400 738 603 525 1662 465 344 168 176 117 315 1347 312 282 122 270 135 239 69 121 87 78 84 1035 252 92 783 235 105 63
is_linear=0
shrinkage=0.01


Tree=14
num_leaves=31
num_cat=0
split_feature=11 2 7 6 7 5 5 2 11 0 8 8 7 6 7 5 6 11 8 0 8 8 7 5 5 8 7 5 2 11
split_gain=63.8361 29.1026 27.7124 31.4855 24.4267 22.535 19.6584 17.708 18.545 17.1132 13.5589 16.2303 12.0361 10.9452 18.1712 10.5246 10.1938 11.1104 8.76803 8.79809 13.3137 7.349 25.9276 8.73618 7.17399 6.25585 5.53758 5.34372 5.10913 4.45436
threshold=0.0088549556413226767 -0.00017547267606710101 0.73427055814198194 -0.0071500004848501489 1.6379961035353541 0.00091655945676716321 0.00029019011564068725 -0.00066165791278222075 0.013509614113785708 0.87634124031062799 0.80868943876602417 0.81362047586014319 1.1995950702298215 -0.016297508213846065 0.39046904493531653 -0.00014069508984188014 0.01003464758869377 0.0072934052618685583 0.85478582478097509 0.88823589077200038 0.81053899773891713 0.85775832788972572 0.12895649429090295 -0.00087196496185437667 -0.00046769842029009684 0.8573049594280312 0.35494533264525596 -0.0017443390423520497 -0.00034223501869784506 0.01047453160002452
decision_type=2 2 2 2 2 2 2 2 2 2 2 2 2 2 2 2 2 2 2 2 2 2 2 2 2 2 2 2 2 2
left_child=1 9 3 -3 7 10 -6 27 15 13 -4 12 -12 14 -1 18 17 -13 19 20 -9 22 25 -24 -14 -5 -20 -2 -15 -17
right_child=4 2 5 21 6 -7 -8 8 -10 -11 11 16 24 28 -16 29 -18 -19 26 -21 -22 -23 23 -25 -26 -27 -28 -29 -30 -31
leaf_value=-0.0061089843987540771 0.0086501782315343209 0.0089248289808752431 0.012646056007576584 0.011925321369767461 0.010200375251320235 -0.0023662967139244208 -0.0039089290540839103 -0.0036637134747801842 -0.009226374260825395 -0.0051599925786584219 0.0087211878188064671 0.0084454038876294445 0.0039594958057518666 0.01194546076445983 0.0084452201241675094 -0.0037137027641410635 0.012375561661020043 -0.003232324168026567 -0.00093701078144818768 -0.0037879662933804261 0.0097980027210587423 -0.0096293520444623772 0.0036883992236333009 -0.0056971236471415236 -0.0054753169300423496 0.0014878606483672058 -0.007702246330620892 -0.00022156207735632725 0.0070671324968748055 -0.0077043031060839299
leaf_weight=14.672749876976011 11.530768275260927 22.76494511961937 22.865350514650345 11.572202026844026 22.782222837209702 47.625123709440231 17.170543879270554 11.097874969244002 73.676068842411041 12.190601170063017 11.93800103664398 21.303703308105469 11.170451432466505 35.582649379968643 20.248862504959106 67.867983460426331 26.107920825481415 12.932194054126738 27.928300768136978 16.828502207994461 20.911447614431381 18.113964796066284 10.766355961561201 103.48592758178711 27.54325407743454 11.85527992248535 21.831820338964462 15.791617661714552 61.134673446416855 49.981731951236725
leaf_count=41 32 63 63 32 63 133 48 31 207 34 33 59 31 98 56 190 72 36 78 47 58 51 30 290 77 33 61 44 169 140
internal_value=0 0.00229278 0.000770019 -0.00202287 -0.00323197 0.00352296 0.00411702 -0.00416104 -0.0048873 0.00609454 0.00562592 0.00416067 0 0.00714749 0.00230155 -0.00340214 0.00765962 0.00400859 -0.000977399 0.00201725 0.00510271 -0.00363368 -0.00283118 -0.0048015 -0.00272404 0.00671481 -0.00393475 0.00350397 0.0088827 -0.00541975
internal_weight=0 503.874 360.045 178.559 357.399 181.486 39.9528 317.446 290.124 143.83 133.861 110.996 50.6517 131.639 34.9216 216.448 60.3438 34.2359 98.5979 48.8378 32.0093 155.794 137.68 114.252 38.7137 23.4275 49.7601 27.3224 96.7173 117.85
internal_count=2400 1401 1003 499 999 504 111 888 812 398 371 308 141 364 97 605 167 95 275 136 89 436 385 320 108 65 139 76 267 330
is_linear=0
shrinkage=0.01


Tree=15
num_leaves=31
num_cat=0
split_feature=11 3 7 5 5 0 0 4 7 7 7 7 3 9 7 0 0 9 3 11 4 2 0 4 5 0 0 0 0 7
split_gain=73.2877 44.3327 17.8826 17.7725 17.3888 22.9479 13.0401 9.14974 8.93894 8.38469 11.2847 13.5023 9.87485 9.66866 8.69591 7.84967 21.133 11.3485 7.84546 7.74391 7.28273 6.6875 6.60222 6.56368 6.54841 6.22455 6.16494 6.91823 6.00827 6.33991
threshold=0.010274659871494155 6.9258973983576957e-05 0.71636668544792126 -0.0011669609632775633 0.00091655945676716321 0.90502262842910042 0.79701721488150834 0.00083183688051036164 0.080630969729871563 -0.039322167431433831 0.64057470487792922 1.5472621447343984 -0.00045413024972573707 51.837744103523285 0.3269462118130908 0.84668363324517848 0.8302676355787072 66.818268884773502 0.00023872200153263193 0.015830883498009086 0.00075296924357110006 0.00032088393499402074 0.80881199519455926 2.4404740932959527e-05 0.0010765504019680796 0.8624145823722057 0.90427409583492169 0.87167991571892156 0.82130925379872421 0.41529613531710158
decision_type=2 2 2 2 2 2 2 2 2 2 2 2 2 2 2 2 2 2 2 2 2 2 2 2 2 2 2 2 2 2
left_child=1 3 8 -1 5 15 -5 19 -3 -8 13 12 -12 23 -15 16 17 -4 -17 26 -6 22 -10 -11 -9 -22 27 -2 -24 -30
right_child=7 2 4 6 20 -7 9 24 21 10 11 -13 -14 14 -16 18 -18 -19 -20 -21 25 -23 28 -25 -26 -27 -28 -29 29 -31
leaf_value=-0.0057743524749745727 -0.0037693832337390453 0.001848895885008665 0.0029149930149528088 -0.0064273893649801576 0.003635218241054216 0.013193165308188808 0.0092096173055400028 -0.0040700209069335939 0 -0.0069023399265620332 0.012660596415556476 -0.003572181511947119 0.0033745751561954774 -0.0030458303274046657 0.0046593289129962948 0.0023364689359720039 0.010593579723425809 -0.0071663320967990185 -0.0075808945800098287 -0.0090477350177459795 0.014736755290947558 0.012726598884345949 0.014300546251705976 8.9047930617844196e-05 0.0067836461623766876 0.0047230351224192288 0.001709609955914819 -0.0089167717222236095 0.0086642399668762533 -0.00013298238393180561
leaf_weight=58.416734248399734 107.80448698997498 23.136189520359039 19.914857029914856 25.550023525953293 32.722332745790482 12.012648791074751 11.962346643209456 11.117460429668428 11.240521252155302 37.075055569410324 14.053369760513304 23.287375301122665 64.161965906620026 25.466028928756714 33.963950872421265 10.789784401655195 16.277554929256439 24.924441397190094 28.701023072004318 47.768054872751236 15.952043652534487 30.885597616434097 13.454830795526503 20.579630345106125 10.840554952621458 10.922412395477293 14.622254341840742 35.180565595626831 33.460932731628418 10.539170682430266
leaf_count=169 311 66 57 74 93 34 34 32 32 107 40 67 183 73 97 31 46 72 83 139 45 87 38 59 31 31 42 102 95 30
internal_value=0 0.00180784 0.00459283 -0.000801212 0.00250322 0.000181129 0.000331077 -0.00484401 0.00751275 0.00108686 0.000633758 0.00307573 0.00506985 -0.00147552 0.00134126 -0.00137415 0.000857716 -0.00267005 -0.00484693 -0.00550066 0.00686688 0.00881546 0.00702653 -0.00439364 0.0012495 0.0107366 -0.00441421 -0.0050482 0.00839557 0.00653888
internal_weight=0 609.451 294.934 314.516 172.217 112.62 256.1 227.333 122.717 230.55 218.587 101.503 78.2153 117.085 59.43 100.608 61.1169 44.8393 39.4908 205.375 59.5968 99.5811 68.6955 57.6547 21.958 26.8745 157.607 142.985 57.4549 44.0001
internal_count=2400 1743 840 903 492 323 734 657 348 660 626 290 223 336 170 289 175 129 114 594 169 282 195 166 63 76 455 413 163 125
is_linear=0
shrinkage=0.01


Tree=16
num_leaves=31
num_cat=0
split_feature=6 9 6 0 0 0 8 9 8 8 8 2 7 7 6 2 6 5 8 8 7 8 9 5 9 2 8 7 0 7
split_gain=41.9931 15.5023 11.2511 33.4723 15.3144 11.9138 13.3015 31.8445 17.0865 19.2141 37.4548 16.9139 13.6452 11.8082 12.9459 10.9178 10.1824 9.82253 8.76309 10.5053 7.87621 9.39113 7.82457 7.53597 3.69852 3.48401 3.30684 4.44282 4.44156 2.46818
threshold=0.025823073770095909 92.080133456674545 -0.015803656392556594 0.80890550748009959 0.84416195534179461 0.79653895165951072 0.8020305024830926 72.145053332510784 0.81500200426162916 0.84818770534196541 0.84745628334991274 4.8142381321780732e-05 1.2638407955092295 0.65284858731771911 0.007337963476044874 -3.748429605177072e-05 0.0017167622145913277 -0.0020541392435001189 0.85604475767495802 0.85452145211686348 0.35494533264525596 0.85771657890536412 35.432227311105208 0.00061541637403406135 47.7602548098019 -0.00098115093028983114 0.80129493933102824 0.69598689277873726 0.80781569172141865 1.1995950702298215
decision_type=2 2 2 2 2 2 2 2 2 2 2 2 2 2 2 2 2 2 2 2 2 2 2 2 2 2 2 2 2 2
left_child=1 2 3 -1 -5 -4 7 26 12 10 11 15 16 14 -9 -10 -8 -11 19 -6 21 -19 -18 -13 -22 -21 27 28 -7 -3
right_child=-2 29 5 4 18 6 8 13 9 17 -12 23 -14 -15 -16 -17 22 20 -20 25 24 -23 -24 -25 -26 -27 -28 -29 -30 -31
leaf_value=0.016265443304154213 0.019964718964176256 -0.0036210810278861994 -0.0067748936905198754 -0.0070545958031059579 0.009219585857615821 -0.0048610006196776415 -0.0057118339219980763 -0.0012110852524815276 0.0043904852178303661 0.0067109071440717896 0.022892852738256184 -0.0032329027433326963 -0.0076842475584483873 0.022199989736035555 0.016188404005773482 0.018185842459472454 0.01140456180719605 0.0019337118891896825 0.012614587725552146 0.00061159013837826541 -0.0072088452715726274 -0.0038362317170163225 -0.00042020785465895219 0.0032659238745862645 -0.0026761705352672601 -0.0084570899431249385 0.0035372829947842022 -0.0084531434666846438 0.0041751296224154435 -0.0081003140434661603
leaf_weight=16.588908642530441 10.266364216804503 32.071495443582535 27.370043039321899 19.312097638845444 9.8346171379089373 10.769790112972265 17.512021780014038 8.1230903863906914 18.875879973173145 14.065509378910063 9.3277533948421461 42.219077169895172 54.170793354511261 8.8774290382862073 8.6740641593933088 8.3945186138153058 9.3085617423057574 73.918923288583755 8.772978335618971 8.4302435815334338 28.698571860790253 45.437185645103455 13.413329839706419 30.683130949735641 51.719681560993195 8.0259082317352277 10.4999962747097 9.7845539450645429 10.757634192705153 21.693346381187439
leaf_count=59 36 121 103 72 35 40 66 30 69 51 33 157 205 31 31 30 34 273 32 31 108 169 50 113 193 30 39 37 40 82
internal_value=0 -0.000325116 0.000146984 0.0038771 5.64102e-05 -0.00036812 -3.357e-06 0.00411046 -0.00067116 0.000419132 0.00382611 0.00201965 -0.00441253 0.0128568 0.00775747 0.00872451 0 -0.00132177 0.00401031 0.00106433 -0.0018954 -0.000255826 0.00440902 -0.000483247 -0.00431309 -0.00377531 -0.00125421 -0.00289894 -0.000300823 -0.00545864
internal_weight=0 637.331 583.566 70.9648 54.3758 512.602 485.231 67.4866 417.745 323.34 109.5 100.173 94.4047 25.6746 16.7972 27.2704 40.2339 213.84 35.0637 26.2908 199.774 119.356 22.7219 72.9022 80.4183 16.4562 41.812 31.312 21.5274 53.7648
internal_count=2400 2364 2161 259 200 1902 1799 248 1551 1196 402 369 355 92 61 99 150 794 128 96 743 442 84 270 301 61 156 117 80 203
is_linear=0
shrinkage=0.01


Tree=17
num_leaves=31
num_cat=0
split_feature=11 3 8 0 7 5 7 7 7 0 8 5 11 5 0 8 6 7 4 11 3 0 8 8 6 4 0 11 11 3
split_gain=62.4343 28.7365 24.5283 31.2343 23.9799 19.2631 17.1947 17.9328 21.8101 27.4017 21.5608 16.9361 16.3269 14.044 12.4406 12.1598 11.6626 9.85041 10.3113 10.9794 9.11862 8.17929 12.9598 42.924 8.3601 9.38831 7.85568 7.74411 6.95145 6.9257
threshold=0.0088549556413226767 0.00052379458464696393 0.80212632322297572 0.80714576847062169 1.6379961035353541 0.00029019011564068725 0.40164457798878062 1.177612721725293 1.3840877414911732 0.82871404097375856 0.81424631755450272 -0.0016327149645950498 0.013604611669248286 0.00052530419474317036 0.8249959180968639 0.85461028565631147 0.01928281775313068 -0.046634651186455066 -0.00026480351154845033 0.0063489853779881067 -0.00021379021235512494 0.88720981987504188 0.82161224336421634 0.85461380184608349 -0.0151267320340131 0.00029864499198950517 0.85325102345573745 0.0079613486090175083 0.0064918557338095725 -0.00049047895587184243
decision_type=2 2 2 2 2 2 2 2 2 2 2 2 2 2 2 2 2 2 2 2 2 2 2 2 2 2 2 2 2 2
left_child=1 2 3 20 11 -6 13 27 -9 -10 -11 15 21 14 -4 -2 -3 -16 -19 -20 -1 22 -13 -24 -25 -26 -15 -8 -12 -17
right_child=4 16 6 -5 5 -7 7 8 9 10 28 12 -14 26 17 29 -18 18 19 -21 -22 -23 23 24 25 -27 -28 -29 -30 -31
leaf_value=0.012552068865582277 0.0060483973418348673 -0.0053169556327823195 -0.0070721989449276761 -0.0084416799754065217 0.01008568820908569 -0.003877997248523681 0.010008813831760523 -0.0018998113972121501 0.013979822578589332 -0.0069086874772256333 0.013369426760596791 -0.0073020627598917786 -0.0092398548177497122 0.00171731614306993 -0.0036004014282109997 0.0017961370770286256 0.0057318845526143844 0.0095954877235050542 0.0074873379357266743 -0.0021357627507282194 0.0010207360103066364 -0.0070310321167233484 0.011112855669373209 -0.0097825254360585073 0.00026423070797736506 -0.0081233408102343915 -0.0090776513051349459 0.0013249236029783938 0.0033278068951615048 -0.0091205949336815601
leaf_weight=10.843357294797899 25.548734843730927 60.68777984380722 10.718016654253004 37.08476135134697 22.83866024017334 17.150332719087601 91.412546902894974 48.121638119220734 30.794330686330795 17.538803726434708 10.866404801607134 39.215823143720627 70.609285891056061 10.804335892200472 13.62088021636009 10.781801402568819 11.167121708393095 35.443904638290405 22.389073252677917 24.771841615438461 18.999734669923782 52.027565002441406 24.156277745962143 19.26116144657135 44.358926087617874 18.853438377380371 17.129210263490677 11.909113079309462 19.866166979074478 12.128682672977446
leaf_count=30 71 170 30 104 63 48 252 134 85 49 30 110 199 30 38 30 31 98 62 69 53 146 67 54 124 53 48 33 55 34
internal_value=0 0.00226546 0.00324 -0.00231313 -0.00319973 0.00407731 0.00426026 0.00592052 0.00338983 0.00662022 0.00188535 -0.00412204 -0.00510459 0.00141314 0.00306806 0.00130039 -0.00358035 0.00421407 0.0055175 0.0024177 0.00527192 -0.00361998 -0.00239232 -0.000572121 -0.00401604 -0.00223049 -0.00487539 0.0090198 0.0069426 -0.00395418
internal_weight=0 504.169 432.314 66.9279 356.931 39.989 365.386 230.509 127.187 79.0657 48.2714 316.942 268.482 134.877 106.944 48.4592 71.8549 96.2257 82.6048 47.1609 29.8431 197.873 145.846 106.63 82.4735 63.2124 27.9335 103.322 30.7326 22.9105
internal_count=2400 1401 1200 187 999 111 1013 638 353 219 134 888 753 375 297 135 201 267 229 131 83 554 408 298 231 177 78 285 85 64
is_linear=0
shrinkage=0.01


Tree=18
num_leaves=31
num_cat=0
split_feature=11 2 3 8 8 1 2 9 8 8 9 6 1 6 4 6 8 1 8 4 11 11 9 6 3 8 6 6 1 8
split_gain=72.489 43.5732 22.3285 17.2944 14.5924 15.3405 17.7612 12.1919 11.9802 16.5963 11.9251 10.502 9.45042 9.06661 9.04235 8.79236 8.52141 12.527 7.76092 8.41203 7.69684 7.68573 6.36659 6.0054 5.79221 5.68095 5.76568 5.22955 5.15555 4.94305
threshold=0.010274659871494155 -0.00015837436411836323 0.0006348556986377486 0.85711326620895445 0.80212632322297572 0.00020221563833316972 2.6418584624821054e-05 88.759961923179716 0.81918130486385132 0.83044243729555656 77.205954926672945 0.01928281775313068 -0.00017044005294386541 -0.0071500004848501489 0.00083183688051036164 -0.010820123533591184 0.85777304207004834 1.2774073251065056e-05 0.80064853997391017 -8.6673135621551087e-05 0.0083147882855284187 0.015830883498009086 57.879380665469959 -0.0011538528728688988 0.00027539708158458304 0.84764050902235122 0.009481494561904948 0.010146386851078106 -1.3288760831231537e-05 0.85777925126095866
decision_type=2 2 2 2 2 2 2 2 2 2 2 2 2 2 2 2 2 2 2 2 2 2 2 2 2 2 2 2 2 2
left_child=1 7 3 4 18 10 -7 28 27 -10 15 -4 -9 -5 21 -6 17 23 19 -3 -11 -2 -21 -15 -12 26 -17 -8 29 -1
right_child=14 2 11 13 5 6 8 12 9 20 24 -13 -14 16 -16 25 -18 -19 -20 22 -22 -23 -24 -25 -26 -27 -28 -29 -30 -31
leaf_value=-0.0051169560371492227 -0.0043926818863534427 -0.0029156377131021455 0.011075103593312428 -0.00044850047799246804 0.0085733880338962985 -0.0072435604382357979 0.0047573863007103626 -0.0019121842159195216 -0.0052652302092696321 0.00039583683045945782 -0.0089104811524328229 0.0015647016406600352 0.010698173846598144 -0.001027810131996699 0.0012339375531133653 0.0022068226259530509 0.01544917591752927 0.012889428811797027 0.010812869003473766 0.012509197512080643 0.011316188442880175 -0.0090138232425583803 0.0025007756267147029 0.0080383586994857547 -0.0011028293225744505 -0.0051975506046308276 -0.0049111626558365562 0.013742270593147698 0 0.0012324307523846692
leaf_weight=105.76868087053299 157.4250553548336 14.391552925109862 50.490100234746933 13.957210093736647 10.852129250764845 12.849386125802992 10.910495251417162 11.802557587623598 17.906476616859436 10.832627862691881 27.654611557722092 15.449016332626341 11.600070506334303 18.906842738389969 21.969364821910858 49.963303506374359 13.554427862167357 18.45242840051651 20.230804532766342 10.628750681877138 16.640613377094269 47.650574445724487 16.561022341251373 11.632522016763689 14.970912814140318 22.928678393363953 14.590053170919417 18.16536158323288 34.341206550598145 13.550149530172346
leaf_count=306 455 41 142 40 31 37 31 34 52 31 80 44 33 54 63 143 38 52 57 30 47 139 47 33 43 66 42 51 99 39
internal_value=0 0.00179703 0.00350836 0.00253945 0.0014185 0.000245924 0.00354154 -0.00237729 0.00542344 0.0021759 -0.00178923 0.00886778 0.00431482 0.00676928 -0.00482133 0.000117233 0.00839404 0.00639425 0.00572514 0.00320579 0.00706364 -0.00547518 0.00648131 0.00240784 -0.00620069 -0.000928925 0.000577473 0.0104329 -0.00340515 -0.0043871
internal_weight=0 609.582 432.519 366.58 290.077 228.265 87.305 177.063 74.4556 45.3797 140.96 65.9391 23.4026 76.5034 227.045 98.3342 62.5462 48.9918 61.8121 41.5813 27.4732 205.076 27.1898 30.5394 42.6255 87.482 64.5534 29.0759 153.66 119.319
internal_count=2400 1743 1232 1046 829 654 249 511 212 130 405 186 67 217 657 282 177 139 175 118 78 594 77 87 123 251 185 82 444 345
is_linear=0
shrinkage=0.01


Tree=19
num_leaves=31
num_cat=0
split_feature=11 11 0 11 5 0 0 6 0 0 6 6 11 10 3 10 0 10 4 11 1 0 10 6 6 11 6 10 11 11
split_gain=286.541 43.5871 21.8811 17.4889 15.7068 14.4336 26.1786 10.6812 10.3534 10.3442 17.9438 9.99383 9.21463 7.86089 7.31278 6.73555 6.23667 5.28818 4.96668 4.80173 4.34716 4.03458 4.04378 4.10925 4.14898 3.28783 4.56985 3.19174 2.91338 2.74843
threshold=0.0098588637024523799 0.016311313863832642 0.90835368193966981 0.008650636823323888 0.0002226401305940873 0.80999286842777629 0.84443564955458628 -0.00096232342100438506 0.81702803667859525 0.80890550748009959 -0.017705758420013203 0.00088952602543440628 0.007033536788010256 -0.16436366439515523 -0.00052775789721559707 0.63315595359247923 0.80714576847062169 0.27369463084033424 -0.00018839752681271135 0.010875149943309547 -0.00024207111740076612 0.87261115359143948 -0.15085881381576216 0.006253740524512553 -0.003503690006017079 0.0093089128450372788 0.0068485083690201795 0.87604145791660215 0.011753908210725621 0.0194094699405295
decision_type=2 2 2 2 2 2 2 2 2 2 2 2 2 2 2 2 2 2 2 2 2 2 2 2 2 2 2 2 2 2
left_child=3 2 4 9 5 -2 18 20 -5 10 -1 19 16 -13 -3 25 -12 -9 -7 -6 -8 27 23 24 -23 -10 -27 -11 -22 -16
right_child=1 14 -4 8 11 6 7 17 15 21 12 13 -14 -15 29 -17 -18 -19 -20 -21 28 22 -24 -25 -26 26 -28 -29 -30 -31
leaf_value=0.0094923980634968874 0.01628074302798083 0.010633757655610707 -0.0043742445862947369 0.0079150232507419361 0.010827816202777568 -0.0053820038913034683 0.0069687578287444853 0.0071184723617919625 -0.0051760736514540034 -0.0075164904749132882 -0.0070956952811610527 0.014760337722679814 0.0037767865194765849 0.0040902620475996489 0.017209168951410867 0.0058606427893978102 0.0015446126401347238 -0.0025570835056515479 0.0033987390461638171 0.020299585882220032 0.011571880067759763 -0.0038497980255832133 -0.0063415599393786409 -0.0071900671436139875 0.0054576655120404643 0.0032068067155451552 -0.0048090597656809831 -0.0021878253149576234 0.019887518702430142 0.024238667501268681
leaf_weight=10.803124487400053 12.193027287721632 8.5695533752441388 14.087915569543837 12.443560004234312 9.0177535414695758 21.516292214393619 9.3955890536308271 16.833412587642677 34.700729429721832 191.06897619366646 53.238581031560898 12.143935143947603 11.888956069946287 16.914726704359055 12.103686839342119 9.4819286763668043 9.6513642072677595 8.225752651691435 8.9508896768093091 18.006091713905334 10.653249979019167 8.559175908565523 39.726156294345856 8.1611781120300275 10.482678264379503 14.946600973606111 13.326782435178755 12.622810184955595 9.2788191139698011 18.496385246515274
leaf_count=39 43 30 52 45 32 80 34 61 130 726 202 43 44 61 42 35 36 30 33 63 38 32 150 31 39 55 50 48 33 63
internal_value=0 0.00972181 0.00747962 -0.00455106 0.00857885 0.00611384 0.0046237 0.00877973 -0.000458955 -0.00552319 -0.00247001 0.0128081 -0.00422192 0.00861903 0.019225 -0.00191981 -0.00575349 0.00390515 -0.00276693 0.0172273 0.0128834 -0.00648377 -0.00430466 -0.0012811 0.00122353 -0.00311459 -0.000539895 -0.00719241 0.0155729 0.0215559
internal_weight=0 206.387 167.217 441.103 153.13 97.047 84.854 54.3868 84.8996 356.203 85.582 56.0825 74.7789 29.0587 39.1696 72.456 62.8899 25.0592 30.4672 27.0238 29.3277 270.621 66.9292 27.203 19.0419 62.9741 28.2734 203.692 19.9321 30.6001
internal_count=2400 738 603 1662 551 352 309 196 315 1347 321 199 282 104 135 270 238 91 113 95 105 1026 252 102 71 235 105 774 71 105
is_linear=0
shrinkage=0.01


Tree=20
num_leaves=31
num_cat=0
split_feature=5 7 1 4 6 7 1 9 5 1 3 7 9 7 7 7 7 9 9 6 1 6 7 6 1 6 7 3 7 4
split_gain=44.2488 28.0548 27.8363 16.3312 15.6338 18.5536 15.0438 12.6362 13.0632 11.5685 8.79183 7.81086 7.36475 11.2919 8.64242 6.73747 15.7011 13.3756 8.97161 12.463 21.336 6.21773 6.05312 6.66201 6.42976 5.62731 5.48938 8.04904 6.37071 4.80727
threshold=0.00080043110639310699 0.73427055814198194 -0.00016708741563675741 -0.00016610007716705286 -0.015410980151971563 -0.032727256444349671 -0.00035031061685153459 32.538740796660889 -0.00057594028611579462 -0.00025322807751054771 0.0006348556986377486 1.7581615922092457 38.17145195217973 0.34222917608204989 0.34222917608204989 1.2049588114452507 1.2936788913719259 67.407819381796159 74.295004839178375 0.016022176373281464 0.00016975138437874684 -0.0033909686859433514 0.6917680661914497 0.0058148356886091887 0.00018004995449283359 -0.0026385672370494158 0.37274618140212651 -0.00040963271343358304 0.63074852187817376 0.00091278383408960339
decision_type=2 2 2 2 2 2 2 2 2 2 2 2 2 2 2 2 2 2 2 2 2 2 2 2 2 2 2 2 2 2
left_child=1 2 4 12 6 -6 -1 9 -9 -3 26 -11 13 -4 -14 17 -17 -10 19 20 -18 -7 23 24 -5 -16 -2 -28 -29 -30
right_child=10 7 3 22 5 21 -8 8 15 11 -12 -13 14 -15 25 16 18 -19 -20 -21 -22 -23 -24 -25 -26 -27 27 28 29 -31
leaf_value=0.0043186049181836222 -0.0060473007125994554 0.0090292117537886154 -0.0022347094444031689 -0.0027762500649267754 -0.0046288445082198881 0.011423288292197898 -0.0063186796598179119 0.0094526755708676143 0.00037787459970339875 -0.0021159959737593777 -0.0073960537550647066 0.0066995269822567247 0.0037310760507273492 0.010687821317642758 -0.0074447785729363364 -0.0056731355202532868 0.013452146656354748 0.010757668738703721 0.00026273328851157294 0.015085023080807967 -0.0044118791764100832 0.0026899587814814374 -0.0086289724401526612 -0.0063100016660074367 0.0054500306928923171 -3.7298619546494532e-05 -0.009742357754127828 0.0056803600766744244 -0.00069148068142978452 -0.007906577867115943
leaf_weight=29.588283121585846 37.39547136425972 13.735553205013273 11.478601515293123 71.916943699121475 11.120563566684721 39.123835384845734 23.953444987535477 49.611776381731033 21.604430973529816 70.400258243083954 58.58408060669899 11.593314707279204 24.824574321508408 15.889265686273573 20.369727194309235 21.084142208099365 11.613181263208391 29.777312219142914 34.174436450004578 13.485319823026655 15.384443402290342 10.787340164184569 27.723157644271851 50.84167292714119 10.784794390201567 21.103154003620148 10.665935426950453 13.640168160200117 67.992656379938126 10.677395880222319
leaf_count=82 105 38 32 201 31 108 67 137 60 196 165 32 69 44 57 59 32 82 95 37 43 30 78 143 30 59 30 38 190 30
internal_value=0 0.00124299 -0.000586233 -0.00242838 0.00350246 0.00695896 -0.000424558 0.00355689 0.0050069 0.000564396 -0.00413407 -0.000850719 0.000883351 0.00524306 -0.00090648 0.00349553 0.00190952 0.00642192 0.00406905 0.00724903 0.00325681 0.0095649 -0.00435742 -0.00345738 -0.00168613 -0.00370875 -0.00276127 -0.00155355 -0.000587034 -0.00169223
internal_weight=0 661.97 369.505 254.932 114.573 61.0317 53.5417 292.464 196.735 95.7291 198.956 81.9936 93.6653 27.3679 66.2975 147.123 95.7415 51.3817 74.6574 40.4829 26.9976 49.9112 161.267 133.543 82.7017 41.4729 140.372 102.976 92.3102 78.6701
internal_count=2400 1842 1031 713 318 169 149 811 545 266 558 228 261 76 185 408 266 142 207 112 75 138 452 374 231 116 393 288 258 220
is_linear=0
shrinkage=0.01


Tree=21
num_leaves=31
num_cat=0
split_feature=11 3 5 7 5 8 7 11 8 8 7 4 4 7 8 11 9 7 7 7 7 4 7 8 5 3 8 7 8 5
split_gain=70.9711 42.7963 17.3291 17.1022 16.7073 13.1603 10.6588 9.91315 12.2599 17.8811 11.7812 8.92745 8.90252 8.63428 8.65996 7.5826 7.35551 10.7904 18.2062 11.5562 9.27845 7.02262 6.81442 6.54486 6.43055 6.15669 7.4907 6.06049 11.6919 9.32629
threshold=0.010274659871494155 6.9258973983576957e-05 -0.0011669609632775633 0.71636668544792126 0.00091655945676716321 0.85777925126095866 0.13132889542895818 0.0066877630266135831 0.83178017954377914 0.81527701128102092 1.1847421738176693 0.00021107981520301913 0.00083183688051036164 0.080630969729871563 0.85775166390672719 0.015830883498009086 51.837744103523285 0.73427055814198194 1.2090038232395777 1.4952844399805609 0.65578048519844645 0.00075296924357110006 1.6144509775681346 0.82211779030465737 0.0010765504019680796 -0.00023540284088008343 0.85540886496273694 0.6917680661914497 0.85579467423137945 0.00062182038374231096
decision_type=2 2 2 2 2 2 2 2 2 2 2 2 2 2 2 2 2 2 2 2 2 2 2 2 2 2 2 2 2 2
left_child=1 2 -1 13 7 6 -4 22 9 11 -10 -9 15 14 -3 -2 20 25 -19 -20 -8 -6 -5 -23 -14 26 -18 28 -15 -30
right_child=12 3 5 4 21 -7 16 8 10 -11 -12 -13 24 27 -16 -17 17 18 19 -21 -22 23 -24 -25 -26 -27 -28 -29 29 -31
leaf_value=-0.0057118590108462272 -0.0043532427458269725 -0.004303016976297043 -0.0057132531391409884 -0.0056757550727293436 0.0035552797663153481 0.0079325834763197232 -0.005079175118259528 -0.00029729553698386226 0.00081327496330237537 -0.008916055801161827 0.015393992032196744 0.011646005757219708 -0.0040500840977356111 0.0035878573405224287 0.007846874124330128 -0.0089525432117581582 -0.0043825515807330157 -0.0083187602661064144 0.0092624790407300778 -0.0038945504930017034 0.0011284612499726262 0.014481103106043169 0.0022952113878034418 0.0042004669277858646 0.006701624524032117 0.0080327310533455862 0.0068574932231450659 0.015225145173507903 0.0066700469433938923 0.015639832533987222
leaf_weight=58.205989390611649 157.10111865401268 11.485454320907595 31.895415723323822 33.900783360004425 32.80342698097229 20.799578964710236 41.211886346340179 14.675970464944841 10.461083769798281 15.443354696035383 12.089147120714186 10.606461644172667 11.10522720217705 39.598650753498077 11.692819178104399 47.433414667844772 11.530295610427858 20.321712881326675 16.917583763599399 10.783047556877134 57.215108126401901 16.421873509883884 15.388634145259855 10.600979477167128 10.867506265640257 33.493468314409256 11.914685040712355 12.506220430135725 25.114932626485825 22.846581339836121
leaf_count=169 455 33 92 98 93 59 119 42 30 45 34 30 32 112 33 139 33 59 48 31 164 46 44 30 31 95 34 35 71 64
internal_value=0 0.00177572 -0.000790657 0.00450674 0.0024621 0.000325791 -0.000345503 0.000182022 0.00280765 -0.000448019 0.00870758 0.00469989 -0.00477814 0.00735431 0.0017907 -0.0054286 0.000493751 0.00233793 -0.0011355 0.00410927 -0.00146308 0.00672802 -0.00316729 0.0105153 0.00122857 0.00528183 0.00129201 0.00862994 0.00766025 0.0109873
internal_weight=0 609.925 314.289 295.636 172.392 256.083 235.283 112.565 63.276 40.7258 22.5502 25.2824 226.507 123.245 23.1783 204.535 203.388 104.961 48.0223 27.7006 98.427 59.8263 49.2894 27.0229 21.9727 56.9384 23.445 100.066 87.5602 47.9615
internal_count=2400 1743 903 840 492 734 675 323 181 117 64 72 657 348 66 594 583 300 138 79 283 169 142 76 63 162 67 282 247 135
is_linear=0
shrinkage=0.01


Tree=22
num_leaves=31
num_cat=0
split_feature=11 11 7 0 11 5 1 8 0 8 0 3 0 11 9 8 0 7 7 0 0 7 0 8 11 8 1 0 7 5
split_gain=280.921 41.9565 25.0184 19.4826 17.3708 13.2667 13.7986 13.5259 10.2804 26.56 10.2042 10.9091 10.1766 9.82917 9.12367 8.29664 6.1083 7.03376 6.06644 12.3683 6.50402 4.67162 3.93487 6.64047 8.81894 4.27363 3.77893 6.49378 2.6598 2.65117
threshold=0.0098588637024523799 0.016311313863832642 0.062149849951138876 0.80999286842777629 0.008650636823323888 0.00020345570530877491 0.00020221563833316972 0.84935344043310634 0.80881199519455926 0.8101021877728326 0.84443564955458628 -3.1601068596343034e-05 0.81702803667859525 0.007033536788010256 23.656015363686546 0.81522376699497678 0.80501806607639437 0.66723708082463584 1.1301683498162935 0.87460836995887481 0.8488427527567014 -0.0054662955323862951 0.87261115359143948 0.85693235098165899 0.0062407928446318013 0.80064853997391017 -0.00016156352660257053 0.86078656392503328 1.2555886445915176 0.00077239902442988184
decision_type=2 2 2 2 2 2 2 2 2 2 2 2 2 2 2 2 2 2 2 2 2 2 2 2 2 2 2 2 2 2
left_child=4 2 21 -4 8 10 7 -7 9 13 15 26 -6 16 -3 -5 -1 -18 19 20 -14 -2 25 -24 -25 -10 -12 -28 -13 -20
right_child=1 14 3 5 12 6 -8 -9 22 -11 11 28 18 -15 -16 -17 17 -19 29 -21 -22 -23 23 24 -26 -27 27 -29 -30 -31
leaf_value=-0.0078943834853564057 0.012879351308712992 0.0093754426615717326 0.015834193447211924 0.0051253557035564135 0.0078346754728708598 0.017545419280274418 0.0013945244924742672 0.0038417422612953387 -0.00135523276965805 0.014177918690411691 0.0037501613808727571 0.0025963680685064236 0.0017097711168855651 0.0040384123998180302 0.021409782224228957 -0.0061881526423091509 0.0058880961351870957 -0.0064975143313897848 -0.0079649859353631766 0.010149142904537794 -0.0068189743163857355 0.022664285865198655 -0.0066899030336951357 -0.00556614093090741 0.0064111805609916384 -0.0075054453029442707 0.017975491888522144 0.0056691066643165316 -0.0044623783833933339 -0.0012788022541583564
leaf_weight=44.53270697593689 12.739688098430635 8.608981788158415 17.220906972885132 9.2558290362358111 12.49172869324684 19.86004409193993 17.564799696207047 11.707153737545012 12.481020033359526 8.5413976013660413 10.232973277568819 11.292864203453066 18.099291831254959 11.637373536825178 31.005521357059479 20.625270783901215 8.1034922897815722 10.232429116964338 17.444831252098087 9.9173809885978681 17.251257389783859 9.6617299914360029 42.138085931539536 13.497088879346849 11.114306360483168 192.61502113938332 8.4541646838188189 9.5186339020729047 9.8526238203048688 9.6128258407115919
leaf_count=170 45 30 60 34 45 69 64 42 47 30 37 41 67 43 105 77 30 39 66 36 65 33 160 51 41 736 30 34 37 36
internal_value=0 0.00958396 0.00738302 0.00585081 -0.00452724 0.00449241 0.00857575 0.012523 -0.00549893 -0.0023965 0.00194011 0.00473623 -0.00044804 -0.00432645 0.0188499 -0.00264497 -0.00589468 -0.000967251 -0.00190124 0.000318875 -0.00243159 0.017226 -0.0064418 -0.00428358 -0.000112756 -0.00713689 0.00879837 0.0115806 -0.00065107 -0.00563985
internal_weight=0 207.601 167.987 145.585 439.71 128.364 49.132 31.5672 354.893 83.0474 79.2324 49.3513 84.8173 74.506 39.6145 29.8811 62.8686 18.3359 72.3256 45.2679 35.3505 22.4014 271.846 66.7495 24.6114 205.096 28.2058 17.9728 21.1455 27.0577
internal_count=2400 738 603 525 1662 465 175 111 1347 312 290 179 315 282 135 111 239 69 270 168 132 78 1035 252 92 783 101 64 78 102
is_linear=0
shrinkage=0.01


Tree=23
num_leaves=31
num_cat=0
split_feature=5 8 8 0 0 0 2 8 1 5 8 8 4 3 0 0 1 7 8 2 7 7 8 7 0 7 0 1 7 7
split_gain=43.4977 28.2387 34.2154 24.9111 22.7639 28.8482 15.5373 14.8752 32.3372 9.70216 9.09513 20.5005 12.717 8.65461 7.48341 7.4638 6.20702 9.8284 11.1452 13.1147 9.26051 13.5193 9.85452 9.16566 7.00856 6.08375 12.5742 6.00039 7.57146 5.82641
threshold=0.00080043110639310699 0.80212632322297572 0.8391638030541887 0.80714576847062169 0.84668363324517848 0.82186866297242112 -0.00035330823378137971 0.82161224336421634 0.00015503617048157062 -0.00073586276926629324 0.80904855781445562 0.80965381334505393 -0.00094101885383829343 0.0006348556986377486 0.90220699864990361 0.80661244476826621 -0.00016708741563675741 1.1719689479369146 0.85455160049359946 -8.8831641150033378e-05 -0.039322167431433831 0.51657015648981519 0.85461764275916108 1.0792303190110129 0.88823589077200038 1.7940267309789533 0.8302676355787072 -0.00019925999742392839 0.3699532997122173 0.37274618140212651
decision_type=2 2 2 2 2 2 2 2 2 2 2 2 2 2 2 2 2 2 2 2 2 2 2 2 2 2 2 2 2 2
left_child=1 3 7 9 5 -4 -7 8 10 -1 -3 -12 -13 15 -9 -2 20 18 23 -20 -6 -22 24 -18 -23 26 -10 -8 -29 -17
right_child=13 2 4 -5 16 6 27 14 25 -11 11 12 -14 -15 -16 29 17 -19 19 -21 21 22 -24 -25 -26 -27 -28 28 -30 -31
leaf_value=0.0097782548772566858 0.0047848858576561275 0.010917507802195255 -0.0068650616544017138 -0.0087431776454599472 -0.0071944166826124261 0.012498092973627957 0.0078320052167954613 0.01529155398249007 0.00076859638331212572 -0.0010854200959988832 -0.0041571528211888928 -0.0020389761315560478 0.0095693412140104156 -0.0073436105530359664 0.0052710331207320342 -0.0069966666716918769 0.0080592925286602259 -0.0077595477247379288 0.0015120138036096705 -0.0054064574264689512 0.010299658260912904 0.0085135357468261973 -0.0072714986743907511 -0.0022623809067978903 -0.0018230157753851676 0.004116545826672798 -0.01023099818448645 -0.0013418517657452541 0.0082480575834642071 -0.0021459811473634144
leaf_weight=10.846383661031721 11.864528238773344 38.912521183490753 19.992887377738953 49.270669102668762 11.070028305053709 28.378866404294968 21.372553110122681 20.078859984874725 22.650895118713379 32.509712934494019 18.74696347117424 11.149058431386946 55.895086735486984 58.437826782464981 12.644663304090498 34.103521913290024 19.558775186538696 29.207375794649124 42.757093071937561 75.075791716575623 16.629683971405029 12.617943674325945 13.64250001311302 15.025317341089247 13.233226686716078 10.902260512113569 18.846587806940079 29.839456915855408 11.206024020910261 94.28087106347084
leaf_count=30 33 107 56 139 31 78 59 55 63 91 52 31 154 165 35 96 54 82 119 211 46 35 38 42 37 30 53 83 31 264
internal_value=0 0.00123163 0.00206581 -0.00388254 0.000190161 0.00396109 0.00636087 0.00527397 0.0041162 0.00162558 0.00688657 0.00503603 0.00762389 -0.00410229 0.0114779 -0.00274032 -0.0014858 -0.00244783 -0.00141897 -0.00288837 0.00109948 0.00276308 -0.00040311 0.00355254 0.00319708 -0.00245839 -0.00421555 0.003539 0.00126571 -0.00344672
internal_weight=0 662.061 569.434 92.6268 359.608 110.79 90.7969 209.827 177.103 43.3561 124.704 85.7911 67.0441 198.687 32.7235 140.249 248.818 181.624 152.417 117.833 67.1934 56.1234 39.4937 34.5841 25.8512 52.3997 41.4975 62.418 41.0455 128.384
internal_count=2400 1842 1582 260 1002 307 251 580 490 121 344 237 185 558 90 393 695 508 426 330 187 156 110 96 72 146 116 173 114 360
is_linear=0
shrinkage=0.01


Tree=24
num_leaves=31
num_cat=0
split_feature=11 3 7 0 4 0 7 1 0 0 1 1 4 7 7 11 9 7 7 1 7 11 0 0 1 11 7 0 9 4
split_gain=69.449 41.9576 16.6927 16.3772 18.0201 14.6585 11.3484 10.2352 15.9922 9.76018 23.6196 9.51312 8.77205 8.54972 7.52235 7.49136 7.40965 10.5633 12.472 15.0815 11.2384 7.40244 6.03309 6.84669 9.70555 6.22838 5.46237 6.58782 9.54576 9.4374
threshold=0.010274659871494155 6.9258973983576957e-05 0.71636668544792126 0.90609559785364169 0.00091278383408960339 0.79701721488150834 1.6179445754735069 -0.00010215390615025964 0.8085520231754032 0.85130709629678114 0.00021985659159129425 -0.00014306486672555072 0.00083183688051036164 1.6208758359799902 1.7581615922092457 0.015830883498009086 64.915017851940064 -0.039322167431433831 0.69294783147032535 -1.3288760831231537e-05 0.76004478832127098 0.0050065083990792876 0.90427409583492169 0.87167991571892156 0.0001783813609227414 0.0144055236708412 0.6917680661914497 0.85257136336397232 76.830980330132576 0.0003809360787815908
decision_type=2 2 2 2 2 2 2 2 2 2 2 2 2 2 2 2 2 2 2 2 2 2 2 2 2 2 2 2 2 2
left_child=1 5 11 4 6 21 7 8 -4 10 -9 -3 15 16 -8 22 17 -7 19 -19 -20 -1 23 24 25 -2 27 -13 29 -29
right_child=12 2 3 -5 -6 13 14 9 -10 -11 -12 26 -14 -15 -16 -17 -18 18 20 -21 -22 -23 -24 -25 -26 -27 -28 28 -30 -31
leaf_value=0.00017248866211005441 -0.0061238348208833473 0.0003054222233954385 -0.0039681863707498695 0.011203013056405309 0.0097683729304388726 0.0077514984808608051 0.0080082271994866457 -0.0049058340075870763 0.012216844168423086 -0.0078288032583401432 0.012275846069438254 0.0043238681489637578 0.0012273456716957298 -0.0074808130825839607 -0.0019863514831208596 -0.008893324821080701 0.0028512105099241835 -0.0056602397060371247 0.0080282813295374997 0.0030411570865636161 -0.00095583585575426577 -0.0097923486722925439 0.0017484905997993054 -0.0088072105359505558 0.0033040707335340942 0.00088736588791929829 0.014868985580897729 0.00015696826801782701 0.014599676226426935 0.011132190140148143
leaf_weight=10.332056194543837 75.740311443805695 17.21597346663475 12.496515870094301 18.891941070556641 21.690386444330215 13.409647822380064 23.767848044633865 30.833931714296341 11.657564163208006 31.737285614013672 10.686909615993498 38.936904013156891 21.971572607755661 14.455093950033186 10.74470943212509 47.217550456523895 83.725363105535507 80.152993112802505 21.193450003862381 26.260059535503387 39.732516139745712 24.939388632774353 14.600038975477217 34.906237363815308 16.62245100736618 14.893451660871504 11.855356484651564 14.722192615270616 23.685015469789505 17.123450815677643
leaf_count=30 220 49 36 53 61 38 67 89 33 92 30 110 63 42 31 139 239 232 60 75 114 73 42 102 48 43 33 42 66 48
internal_value=0 0.00175422 0.0044554 0.00243495 0.00134355 -0.000788305 -4.03969e-05 -0.00179394 0.00382018 -0.0036613 -0.000440604 0.00726436 -0.00473433 -1.56607e-05 0.004871 -0.00538167 0.000391248 -0.000743658 -0.00143461 -0.00350273 0.00216099 -0.00685284 -0.00431257 -0.00494286 -0.00366888 -0.00496099 0.00838043 0.0075407 0.00976646 0.00610604
internal_weight=0 610.247 296.046 172.507 153.615 314.201 131.925 97.4122 24.1541 73.2581 41.5208 123.539 225.952 278.929 34.5126 203.98 264.474 180.749 167.339 106.413 60.926 35.2714 156.762 142.162 107.256 90.6338 106.323 94.4676 55.5307 31.8456
internal_count=2400 1743 840 492 439 903 378 280 69 211 119 348 657 800 98 594 758 519 481 307 174 103 455 413 311 263 299 266 156 90
is_linear=0
shrinkage=0.01


Tree=25
num_leaves=31
num_cat=0
split_feature=11 11 0 11 6 6 9 11 0 8 0 4 11 9 0 0 10 11 10 0 8 0 0 8 11 8 4 11 6 11
split_gain=275.541 40.3493 21.2008 17.2339 13.5212 14.2192 19.036 12.5553 10.225 26.032 10.0193 9.99897 9.74108 8.72543 8.53405 7.68291 6.63362 6.49283 6.3281 6.07577 5.55962 4.50663 3.90758 6.57827 8.68771 4.24834 3.80746 3.25638 4.49361 2.44068
threshold=0.0098588637024523799 0.016311313863832642 0.90835368193966981 0.008650636823323888 -0.023350800847883487 0.00012226513267477038 70.5388497644811 0.011470219748563991 0.80881199519455926 0.8101021877728326 0.81702803667859525 0.00051325513059702354 0.007033536788010256 23.656015363686546 0.87528485380823451 0.84071893993326252 0.63315595359247923 0.012098687316184371 -0.22335806117917076 0.80501806607639437 0.8020305024830926 0.83887825803418847 0.87261115359143948 0.85693235098165899 0.0062407928446318013 0.80064853997391017 -0.00013965705064505893 0.0093089128450372788 0.0068485083690201795 0.013033260637542175
decision_type=2 2 2 2 2 2 2 2 2 2 2 2 2 2 2 2 2 2 2 2 2 2 2 2 2 2 2 2 2 2
left_child=3 2 4 8 -2 7 11 15 9 12 -5 14 19 -3 26 -6 27 -13 -17 -1 -21 -9 25 -24 -25 -10 -7 -12 -29 -23
right_child=1 13 -4 10 5 6 -8 21 22 -11 16 17 -14 -15 -16 18 -18 -19 -20 20 -22 29 23 24 -26 -27 -28 28 -30 -31
leaf_value=-0.0078722340971001201 -0.001864152024218762 0.0092345104164844993 -0.0043780433898627713 0.0077600129070937666 0.0015544471124171158 0.0017000670405788159 0.015797847349357186 0.011556901283556248 -0.0013466571196711957 0.013955319823151142 -0.005137064645431272 0.0031057906241080025 0.0040163002343660418 0.020966337385603728 0.006812737775104636 0.017842120357249813 0.0058241278406405009 0.015623155804226177 0.0065948346909082255 0.0038680128213291359 -0.007146556376036302 0.015477367553300536 -0.0066682303596504681 -0.00554786289576404 0.0063342385362722478 -0.0074821055056455525 -0.0060731817752329564 0.0031922758429331422 -0.0047670800345545388 0.02285518604267657
leaf_weight=44.298828452825546 11.746220886707304 8.662034869194029 14.092305332422255 12.536647051572798 12.419352591037748 10.38720622658729 15.650955110788344 13.561327397823332 12.471077352762221 8.6105485558509809 34.509041100740433 8.2789729237556475 11.652722775936125 31.392728984355927 13.922668039798735 9.2097994983196259 9.4999614059925062 8.8428705334663373 12.145364701747894 10.224821478128435 8.0901512801647169 11.752905786037447 41.970946460962296 13.459708511829378 11.159527987241743 191.63689935207367 15.182320386171346 14.959145426750185 13.250880450010298 11.511999964714049
leaf_count=170 43 30 52 45 45 38 55 48 47 30 130 30 43 105 50 32 35 31 43 38 31 41 160 51 41 736 55 55 50 40
internal_value=0 0.00945209 0.0072922 -0.00450404 0.0083645 0.0092132 0.00605431 0.0124193 -0.00547486 -0.00237839 -0.000440615 0.00331996 -0.00430181 0.0184835 0.000519027 0.0079211 -0.00188677 0.00968184 0.0115526 -0.00586973 -0.000955464 0.016485 -0.00641795 -0.00426518 -0.000117595 -0.00711297 -0.00288215 -0.00307806 -0.000514721 0.0192531
internal_weight=0 208.759 168.704 438.331 154.612 142.866 72.265 70.6007 353.575 82.8771 84.7557 56.614 74.2665 40.0548 39.4922 33.7745 72.219 17.1218 21.3552 62.6138 18.315 36.8262 270.698 66.5902 24.6192 204.108 25.5695 62.7191 28.21 23.2649
internal_count=2400 738 603 1662 551 508 259 249 1347 312 315 204 282 135 143 120 270 61 75 239 69 129 1035 252 92 783 93 235 105 81
is_linear=0
shrinkage=0.01


Tree=26
num_leaves=31
num_cat=0
split_feature=11 8 5 0 7 1 5 0 11 9 11 7 0 7 7 0 7 7 0 7 1 8 0 8 5 9 7 8 1 0
split_gain=60.6753 25.7898 30.5318 25.0873 23.1587 23.5813 18.3712 16.8824 13.8735 14.5146 13.2595 12.9753 11.8227 10.652 12.9618 14.9359 9.85872 11.5385 9.89144 13.5204 15.277 9.932 9.21323 8.64617 8.38166 8.36887 8.363 11.8111 7.44025 7.24209
threshold=0.0088549556413226767 0.80212632322297572 0.00077239902442988184 0.80714576847062169 1.6379961035353541 -0.00026065556246868121 0.00029019011564068725 0.83840997946003049 0.007033536788010256 89.614355174482384 0.013604611669248286 0.15978329125675608 0.88313487137489133 1.233856302984484 0.65667521674042573 0.86535297756619645 0.39046904493531653 1.1330046971373615 0.83013888427553117 1.3943522208119143 -8.9927668824374405e-05 0.81773304267321867 0.80365661551208345 0.85461380184608349 0.0019395530845733868 70.5388497644811 0.37274618140212651 0.82161224336421634 0.00023762238377195158 0.83093862234545712
decision_type=2 2 2 2 2 2 2 2 2 2 2 2 2 2 2 2 2 2 2 2 2 2 2 2 2 2 2 2 2 2
left_child=1 3 8 11 5 7 -6 -2 16 13 25 -1 24 14 15 -10 29 -18 19 20 -19 -20 -13 -9 26 -7 -4 28 -28 -3
right_child=4 2 12 -5 6 10 -8 23 9 -11 -12 22 -14 -15 -16 -17 17 18 21 -21 -22 -23 -24 -25 -26 -27 27 -29 -30 -31
leaf_value=-0.0061133760018948144 0.010424171705362598 -0.0038998844050015646 -0.0049582560016640147 -0.0081809829553376335 0.0098224957691628728 -0.0027610430273997018 -0.0038087054703610191 0.0033728132899572246 0.0080567369999224921 -0.0065922192485247371 -0.0088943643968926872 0.013493901513604583 -0.0082889882778714227 0.0082956507383606243 -0.0046972089039683893 -0.0033329695042370773 0.011833920000288083 0.010182757536700804 -0.0047753578645616098 0.014406604588941717 -0.004553396912123176 0.0067735757742948656 0.0014357230475337455 -0.0074738405865444691 -0.0070097896537462488 -0.007770405335379457 0.0028691020079922168 0.0097171084550756737 -0.0069565921502800212 0.0047693393380240394
leaf_weight=10.701682180166243 16.990235328674316 11.445104539394377 15.325952976942061 42.841951608657837 22.960968255996704 155.48312768340111 17.102343291044235 14.394986361265184 34.040779560804367 16.422936499118805 71.642599850893021 11.599243074655535 20.243438571691513 31.957829296588898 23.711251676082611 17.155185878276825 49.648965239524841 16.062266439199451 14.674985468387606 21.161898076534271 12.269353568553923 14.854157656431196 14.341766178607939 14.676776170730589 13.489696115255354 42.944556474685669 27.013445854187012 19.083122462034225 10.664310544729231 55.609781324863434
leaf_count=30 47 32 43 121 63 436 48 40 94 46 203 32 57 88 66 48 136 44 41 58 34 41 40 41 38 121 75 53 30 154
internal_value=0 0.00223153 0.00321077 -0.00298725 -0.00315904 -0.00406837 0.00398368 0.00252591 0.00475511 0.00211304 -0.00519728 0.00306369 -0.00143562 0.00346512 0.00138261 0.00422162 0.00641232 0.0080377 0.00562801 0.00835927 0.00377234 0.00100365 0.00689692 -0.00207565 0.000181684 -0.0038536 0.00154913 0.0033294 5.05145e-05 0.00327116
internal_weight=0 504.319 424.834 79.4846 356.196 316.132 40.0633 46.062 319.014 123.288 270.07 36.6427 105.82 106.865 74.9072 51.196 195.727 128.672 79.0227 49.4935 28.3316 29.5291 25.941 29.0718 85.5765 198.428 72.0868 56.7609 37.6778 67.0549
internal_count=2400 1401 1178 223 999 888 111 128 882 342 760 102 296 296 208 142 540 354 218 136 78 82 72 81 239 557 201 158 105 186
is_linear=0
shrinkage=0.01


Tree=27
num_leaves=31
num_cat=0
split_feature=11 2 3 7 1 0 7 0 0 9 1 0 5 3 3 11 2 9 7 7 3 11 1 0 0 11 2 7 11 7
split_gain=68.2528 41.3918 20.9345 17.3011 16.6795 14.1154 14.9476 12.833 27.5741 9.76096 8.76027 8.21958 7.97936 7.74253 6.88285 6.88224 6.68211 6.03996 5.83263 9.7172 5.35552 5.23555 5.0814 10.2745 5.24063 5.58309 5.06885 5.42272 6.8528 4.93412
threshold=0.010274659871494155 -0.00015837436411836323 0.0006348556986377486 0.73427055814198194 0.00020221563833316972 0.84783806104401416 0.023835535751570717 0.84668363324517848 0.90688948818960424 77.205954926672945 -0.00018164033972284385 0.83013888427553117 -0.00019891924211029585 0.00096011851709287843 -0.00020617249660331846 0.015830883498009086 -0.00035330823378137971 90.316201860830589 0.13132889542895818 0.038446906726108634 0.00027539708158458304 0.0061173372698084738 -3.5260581928042705e-05 0.8085520231754032 0.84094902825775619 0.0064278991345500533 0.00022139535928711321 0.72996349854973241 0.0144055236708412 0.64057470487792922
decision_type=2 2 2 2 2 2 2 2 2 2 2 2 2 2 2 2 2 2 2 2 2 2 2 2 2 2 2 2 2 2
left_child=1 5 3 10 9 16 -7 11 -9 22 -3 -6 -8 15 -12 26 -1 18 19 -16 -11 -18 23 -5 25 -24 27 28 -2 -4
right_child=13 2 29 4 7 6 12 8 -10 20 14 -13 -14 -15 17 -17 21 -19 -20 -21 -22 -23 24 -25 -26 -27 -28 -29 -30 -31
leaf_value=-0.0067617297312845947 -0.0048628978787424908 -0.0012892332946249363 0.012709153628321271 -0.0035953775909840007 0.004538934002057851 -0.0047744542545038477 -0.00095128648342727236 -0.0064077077393009628 0.011618233004935202 -0.0087164496466884001 0.0011832196180407394 0.01493942150366752 0.009109564354763745 0.0036127641578451823 0.0085005942408313412 -0.0083591678951648717 0.00093769622513976427 0.012640509573422984 0.0071131060129501888 -0.0023863417488367154 -0.0011090455661280608 -0.004803180788683273 0.0048628966079329794 0.0085379755163454089 -0.0068719381452515427 -0.0034783059910806786 -0.001299232469854439 -0.0078739481085926596 0.0033173780801793646 0.0066761583285742804
leaf_weight=57.121251910924911 58.481790006160736 21.646161317825317 20.490224152803421 11.805578529834749 19.466848373413086 21.449461996555328 11.528345584869383 23.328660637140274 13.203767627477644 25.753900855779648 31.19977131485939 12.955330252647398 23.608767211437225 10.475880533456801 13.851052224636076 50.491523653268814 30.538153380155563 14.29579836130142 82.152603000402451 19.595688670873642 14.96846157312393 32.421531230211258 14.731521338224409 16.540595412254333 14.516006022691725 17.338608980178833 47.092912286520004 46.76467502117157 12.185390174388884 45.941057920455933
leaf_count=167 170 62 57 34 55 62 33 68 37 75 89 36 67 30 39 149 88 40 231 56 43 94 42 47 42 50 136 137 35 129
internal_value=0 0.00173754 0.00340005 0.00246063 0.000295205 -0.00233846 0.00176458 0.00418935 9.39676e-05 -0.0020195 0.00464136 0.00875869 0.00578693 -0.00469937 0.00544476 -0.00511049 -0.00428015 0.00645896 0.0056756 0.00210428 -0.00595423 -0.00200568 0.000110606 0.00345466 -0.00190577 0.000325374 -0.00410295 -0.00521673 -0.00343552 0.00856833
internal_weight=0 610.449 433.782 367.35 184.609 176.668 56.5866 68.9546 36.5324 115.655 182.741 32.4222 35.1371 225.492 161.095 215.016 120.081 129.895 115.599 33.4467 40.7224 62.9597 74.9323 28.3462 46.5861 32.0701 164.525 117.432 70.6672 66.4313
internal_count=2400 1743 1232 1046 529 511 162 196 105 333 517 91 100 657 455 627 349 366 326 95 118 182 215 81 134 92 478 342 205 186
is_linear=0
shrinkage=0.01


Tree=28
num_leaves=31
num_cat=0
split_feature=6 3 8 0 3 8 8 0 0 10 0 8 0 0 8 8 4 9 3 0 0 9 6 9 9 6 5 8 8 8
split_gain=38.3577 17.5673 13.1479 17.0329 14.2131 13.312 16.5823 10.6255 9.77445 15.336 8.47927 7.47062 44.1779 17.8133 10.8684 10.4744 8.73626 7.17252 6.33864 6.27938 7.50253 5.85001 5.72102 9.88397 7.05108 5.67551 5.51029 7.73177 5.86504 5.38185
threshold=0.025823073770095909 -0.00028572318588776508 0.79859502926014547 0.80714576847062169 0.00029655619449081577 0.81773304267321867 0.82161224336421634 0.81600928137266837 0.8712107323911954 -0.22335806117917076 0.79925634500891996 0.81020891978440923 0.80781569172141865 0.84094902825775619 0.81522376699497678 0.80210639256420169 -8.1170727820545338e-05 12.750320549432177 0.0003934291416246572 0.86465294581079621 0.87775823125029473 33.020089433423038 0.006253740524512553 49.269411291539306 51.644649216650556 -0.0071500004848501489 0.00075778480316895946 0.84826114697850141 0.83381024515997682 0.85607030387632255
decision_type=2 2 2 2 2 2 2 2 2 2 2 2 2 2 2 2 2 2 2 2 2 2 2 2 2 2 2 2 2 2
left_child=1 11 3 -3 -5 7 -7 10 18 22 -4 15 -13 14 -14 -1 17 -15 21 29 -21 25 23 -10 -24 -8 -11 28 -28 -19
right_child=-2 2 5 4 -6 6 8 -9 9 26 -12 12 13 16 -16 -17 -18 19 -20 20 -22 -23 24 -25 -26 -27 27 -29 -30 -31
