tree
version=v4
num_class=1
num_tree_per_iteration=1
label_index=0
max_feature_idx=12
objective=binary sigmoid:1
feature_names=price_close diff_MA_100 diff_MA_50 diff_MA_30 diff_MA_20 diff_MA_9 divergence OBV VWAP MFI Volume_Oscillator ATR predicted_label
feature_infos=[0.74457658128009907:0.84080468885716197] [-0.00047082409885923493:0.00060683762953450682] [-0.0010281699370391362:0.0011499696879304633] [-0.0017883454906288954:0.0021388230209364867] [-0.0023517517328155435:0.003296222847557484] [-0.0059649516229133281:0.0054343571417589942] [-0.026000659311391727:0.019827895651652216] [0.11961189306667205:1.6708177329544016] [0.77524300662021972:0.81103156643147545] [0.42748616675476114:99.968663583631738] [-0.99951694231560229:0.9943259599354809] [0.0030331981679602555:0.023123936866279299] none
tree_sizes=1627 2034 2167 2151 2148 2171 2256 2165 1937 2063 2141 2255 2152 2146 2258 2140 2149 2158 1939 2154 2045 2146 1934 2268 2366 2245 2033 2157 2035 2248 2064 1932 1953 2151 2052 2250 2040

Tree=0
num_leaves=15
num_cat=0
split_feature=11 9 9 0 8 0 11 6 6 0 10 0 6 0
split_gain=34.801 22.4396 17.0006 30.6409 13.9889 8.0687 3.40709 5.30681 11.6216 2.53878 2.19614 1.06953 0.542736 3.55271e-15
threshold=0.0050756385607390918 22.234589867444594 84.226028829333671 0.8083471924986344 0.78003320796601827 0.8238470071941153 0.009104472688100081 -0.0008433035830812673 -0.0039146308336677196 0.81928877011881573 0.26878315393151969 0.81556794939926325 0.0040580525091263317 0.8083471924986344
decision_type=2 2 2 2 2 2 2 2 2 2 2 2 2 2
left_child=1 -1 3 -3 -2 6 7 8 -6 12 -7 13 -9 -8
right_child=4 2 -4 -5 5 10 11 9 -10 -11 -12 -13 -14 -15
leaf_value=1.487781281307238 1.4690848530601728 1.4688539592374688 1.4749240363132947 1.4291480931126836 1.4888627318207472 1.4808328311479757 1.4923474056976105 1.4880758699775847 1.4672337215505624 1.4813126050875438 1.4691743244164706 1.4857265253315703 1.4923474056976105 1.4923474056976105
leaf_weight=4.3800822943449047 5.5883808583021155 4.6821569353342039 5.7394181787967673 3.3228210508823395 5.7394181787967682 3.4738583713769904 7.7029033452272397 4.6821569353342118 4.3800822943449003 3.6248956918716422 3.0207464098930359 3.020746409893035 8.1560153067111951 4.9842315763235092
leaf_count=29 37 31 38 22 38 23 51 31 29 24 20 20 54 33
internal_value=1.48007 1.46807 1.46179 1.45237 1.48407 1.48579 1.48738 1.4852 1.4795 1.4887 1.47541 1.49107 1.49079 1.49235
internal_weight=0 18.1245 13.7444 8.00498 54.3734 48.7851 42.2904 26.5826 10.1195 16.4631 6.4946 15.7079 12.8382 12.6871
internal_count=480 120 91 53 360 323 280 176 67 109 43 104 85 84
is_linear=0
shrinkage=1


Tree=1
num_leaves=18
num_cat=0
split_feature=11 9 9 0 7 3 0 11 6 0 0 6 0 2 6 2 0
split_gain=33.9319 21.6812 16.1316 28.3828 11.7066 13.4215 7.86838 3.28634 5.24456 11.4675 2.52097 1.60895 1.06059 0.953447 1.14021e-06 6.49705e-07 1.77636e-15
threshold=0.0050756385607390918 22.234589867444594 84.226028829333671 0.8083471924986344 0.21452789834951044 0.00037218421173229604 0.8238470071941153 0.009104472688100081 -0.0008433035830812673 0.80441479414314931 0.81928877011881573 0.013228157201096215 0.81556794939926325 1.2543553576882529e-05 0.0057032548207464071 0.00024084146509234519 0.8083471924986344
decision_type=2 2 2 2 2 2 2 2 2 2 2 2 2 2 2 2 2
left_child=1 -1 3 -3 5 -2 7 8 9 -6 13 -8 15 -10 -15 16 -9
right_child=4 2 -4 -5 6 -7 11 12 10 -11 -12 -13 -14 14 -16 -17 -18
leaf_value=0.0076703635638463935 -0.0240082657759512 -0.011026776750545999 -0.0050791441006068005 -0.048835657186114538 0.0087702506389970205 0.0057259671751945049 -0.0096802935065640073 0.012248441969355112 0.0059129373418886624 -0.012699904347314066 0.0012299664419667654 0.00026213528397924912 0.0056188662970126221 0.012255779973224063 0.012248441969355109 0.012253803880666988 0.012248441969355107
leaf_weight=4.3588472455740002 3.0305918306112281 4.715228319168089 5.7580119371414176 3.4296472668647766 5.7220842540264112 3.041643500328064 3.1857858449220648 5.6951299607753736 3.1533878892660203 4.4011014550924301 3.6220647096633902 3.3278812766075134 3.0100029706954947 3.1537931710481626 6.4444891661405563 3.001857489347457 3.4470523446798325
leaf_count=29 20 31 38 22 38 20 21 38 21 29 24 22 20 21 43 20 23
internal_value=0 -0.0117894 -0.0178904 -0.0269474 0.00397042 -0.00911409 0.00562002 0.00721839 0.00509412 -0.000563998 0.00859229 -0.00460063 0.0109327 0.0106835 0.0122509 0.0122498 0.0122484
internal_weight=0 18.2617 13.9029 8.14488 54.2369 6.07224 48.1646 41.651 26.4969 10.1232 16.3737 6.51367 15.154 12.7517 9.59828 12.144 9.14218
internal_count=480 120 91 53 360 40 320 277 176 67 109 43 101 85 64 81 61
is_linear=0
shrinkage=0.01


Tree=2
num_leaves=19
num_cat=0
split_feature=11 5 8 2 3 11 8 6 6 6 2 2 2 7 6 6 11 1
split_gain=33.0934 19.6421 13.5199 9.59597 6.60434 5.3401 8.125 8.86079 9.7299 2.26356 2.18902 0.802922 0.272028 5.3005e-05 3.24714e-05 4.82117e-06 6.4445e-07 5.09762e-07
threshold=0.0050756385607390918 0.00043566958019719554 0.78003320796601827 -0.00022686591062914815 0.00054372795263485385 0.010124824619539672 0.80994071061615347 -0.0008433035830812673 -0.0039146308336677196 -0.0040218831156883508 0.00038377114624743586 2.3885044219740251e-05 -1.1463465126704263e-05 1.2013376130635891 0.0052742156793610948 0.0049490094721550424 0.013376879972580214 0.00013555844818935461
decision_type=2 2 2 2 2 2 2 2 2 2 2 2 2 2 2 2 2 2
left_child=1 3 -2 -1 5 6 7 8 -4 -5 12 -11 -9 15 16 -14 -7 -17
right_child=2 -3 4 9 -6 14 -8 10 -10 11 -12 -13 13 -15 -16 17 -18 -19
leaf_value=-0.020214749216731612 -0.010700668648939768 -0.027313812820974694 0.0080765102050096658 0.0065256849453435416 -0.0060948034013507514 0.012227036057254042 -0.01106416942401685 0.0088956379429863466 -0.012472340783794578 -0.0071859402831374996 0.002329054290747101 -4.4185952777139301e-05 0.012238340397604852 0.012276110701499541 0.012255748877098016 0.012226788226026117 0.012221068598612913 0.012221070445863156
leaf_weight=3.0715932846069345 5.6481451839208594 5.5461643338203421 4.7947262525558472 3.4760520607233047 4.3587215393781653 2.9792475104331952 3.0019117295742026 2.9901904612779644 4.436274394392969 3.072125107049942 3.0171062946319571 3.2286108583211899 3.5865509659051913 3.1714195013046256 5.2553837150335312 2.9790041297674179 4.6100456863641739 3.2716469764709473
leaf_count=20 37 36 32 23 29 20 20 20 29 20 20 21 24 21 35 20 31 22
internal_value=0 -0.0115857 0.00394103 -0.00479645 0.00564783 0.00680861 0.00457744 0.00623974 -0.00179895 4.75467e-05 0.010142 -0.00352638 0.0116154 0.0122406 0.0122366 0.0122291 0.0122234 0.0122238
internal_weight=0 18.3945 54.1004 12.8484 48.4522 44.0935 31.2488 28.2469 9.231 9.77679 19.0159 6.30074 15.9988 13.0086 12.8447 9.8372 7.58929 6.25065
internal_count=480 120 360 84 323 294 208 188 61 64 127 41 107 87 86 66 51 42
is_linear=0
shrinkage=0.01


Tree=3
num_leaves=19
num_cat=0
split_feature=11 5 8 2 0 0 11 6 0 0 6 0 2 8 7 11 2 5
split_gain=32.2807 18.7365 13.2426 9.25989 7.84895 6.28902 3.36259 5.102 11.0906 2.50048 1.54461 1.0669 0.954806 9.46701e-06 2.57903e-06 2.23937e-06 3.04717e-07 6.59361e-08
threshold=0.0050756385607390918 0.00043566958019719554 0.78003320796601827 -0.00022686591062914815 0.8238470071941153 0.8083471924986344 0.009104472688100081 -0.0008433035830812673 0.80441479414314931 0.81928877011881573 0.013228157201096215 0.81556794939926325 1.2543553576882529e-05 0.79254568947585302 0.69445305517380951 0.01100030073435365 0.00019490090267276774 -0.00024103804526298675
decision_type=2 2 2 2 2 2 2 2 2 2 2 2 2 2 2 2 2 2
left_child=1 3 -2 -1 6 -5 7 8 -4 12 -6 13 -9 -8 16 -15 -14 -17
right_child=2 -3 4 5 10 -7 11 9 -10 -11 -12 -13 14 15 -16 17 -18 -19
leaf_value=-0.01976308959861707 -0.010522995140349815 -0.026588062711493683 0.0087281628156046145 0.008148550245048309 -0.0095497760485046459 -0.0078933457224136631 0.01221829741430412 0.0058280054565391717 -0.01233907576033709 0.001177975420367473 0.00019017754573237921 0.0055501951616544276 0.012195868892885485 0.012205627720301027 0.012208933533533107 0.012194072586167996 0.012200356160136516 0.012196137566809873
leaf_weight=3.110175460577012 5.6858829259872428 5.6400951296091071 5.687758192420004 4.8391436636447906 3.2020382136106482 4.9371768981218338 3.2685403674840918 3.1264331489801469 4.4569833725690842 3.6091976463794699 3.3125964254140854 2.9898045361042014 3.1002694219350797 2.9608569592237455 3.4083157032728195 3.2462071478366834 2.9564501643180847 2.9528428018093127
leaf_count=20 37 36 38 32 21 32 22 21 29 24 22 20 21 20 23 22 20 20
internal_value=0 -0.0113871 0.00391183 -0.00473407 0.00561187 4.71712e-05 0.00720435 0.00503363 -0.000527502 0.00851598 -0.00459715 0.0109135 0.0106193 0.0122037 0.012202 0.0121985 0.0121981 0.0121951
internal_weight=0 18.5266 53.9642 12.8865 48.2783 9.77632 41.7637 26.3454 10.1447 16.2007 6.51463 15.4183 12.5915 12.4284 9.46504 9.15991 6.05672 6.19905
internal_count=480 120 360 84 323 64 280 176 67 109 43 104 85 84 64 62 41 42
is_linear=0
shrinkage=0.01


Tree=4
num_leaves=19
num_cat=0
split_feature=7 8 8 3 2 9 8 10 2 0 4 3 2 2 9 3 8 8
split_gain=14.0391 8.62702 31.4446 13.0914 11.3703 6.01946 5.9524 6.54626 4.53125 4.79068 10.1736 4.12076 2.31967 0.682814 0.225771 0.000205834 2.86893e-05 2.81615e-05
threshold=0.15252200729325652 0.80123626180595775 0.80135272925478918 0.0002001794117723055 0.00016204134347869162 67.688322975067052 0.79487536307748019 1.0000000180025095e-35 -0.0006341939560413622 0.80843411388350017 1.1212764901902263e-05 0.00048547728458275824 0.00028494128106898447 0.00010742430082438804 20.985713543892633 -0.00032791174818264096 0.80023425966586659 0.79631213424630987
decision_type=2 2 2 2 2 2 2 2 2 2 2 2 2 2 2 2 2 2
left_child=-1 5 -3 8 -5 12 7 -7 -4 14 -11 -6 16 -12 -10 -16 17 -2
right_child=1 2 3 4 11 6 -8 -9 9 10 13 -13 -14 -15 15 -17 -18 -19
leaf_value=-0.019773164890833549 0.012202029466717097 -0.032566140554691571 -0.0058136545601072519 -0.021054233060602338 0.0037984742715819527 0.012243307005301407 -0.008315907903923064 -0.003226033255318706 0.0090781569909441241 -0.013035105873639078 0.0056131062999798245 -0.010494765703781607 0.0022333540870271007 0.012268691774605297 0.012198614102566008 0.012303511520125874 0.012186160480078954 0.01224329833775227
leaf_weight=3.4205070734024039 3.6963841468095797 3.1132644414901725 3.3170894086360923 4.1867558956146231 5.8944446146488172 5.8297477513551694 4.8509517014026633 5.1541347801685333 3.1490088403224998 3.161623001098631 3.0063692778348923 3.0663240104913712 2.9956653565168372 3.1634330153465271 3.2493472695350638 4.4086543917655954 3.8272651731967926 2.9919107407331467
leaf_count=22 25 20 22 27 39 39 32 34 21 21 20 20 20 21 22 29 26 20
internal_value=0 0.000981753 -0.00205633 0.000538672 -0.00744926 0.00509343 0.000909887 0.00498439 0.00501615 0.00679997 0.00155112 -0.00109259 0.00999645 0.00902561 0.0113321 0.012259 0.012208 0.0122205
internal_weight=0 69.0624 39.7163 36.603 13.1475 29.3461 15.8348 10.9839 23.4555 20.1384 9.33143 8.96077 13.5112 6.1698 10.807 7.658 10.5156 6.68829
internal_count=480 458 262 242 86 196 105 73 156 134 62 59 91 41 72 51 71 45
is_linear=0
shrinkage=0.01


Tree=5
num_leaves=19
num_cat=0
split_feature=11 5 8 2 3 11 8 6 10 2 6 3 2 7 11 2 5 10
split_gain=31.1674 17.5659 12.8157 8.85721 6.50342 5.30585 7.92853 8.63065 10.3158 2.16357 2.15061 0.789079 0.272456 0.000144876 6.28325e-05 3.55786e-05 1.74277e-05 8.51933e-06
threshold=0.0050756385607390918 0.00043566958019719554 0.78003320796601827 -0.00022686591062914815 0.00054372795263485385 0.010124824619539672 0.80994071061615347 -0.0008433035830812673 0.10848260708882089 0.00038377114624743586 -0.0040218831156883508 6.6810012399998189e-05 -1.1463465126704263e-05 0.7418067317833229 0.013760819686617173 0.00014520064828243975 0.00027529627094852188 -0.20203400874166855
decision_type=2 2 2 2 2 2 2 2 2 2 2 2 2 2 2 2 2 2
left_child=1 3 -2 -1 5 6 7 8 -4 12 -5 -12 -9 17 15 -7 -16 -14
right_child=2 -3 4 10 -6 14 -8 9 -10 -11 11 -13 13 -15 16 -17 -18 -19
leaf_value=-0.01920336663310818 -0.010243014800348829 -0.02562737553036969 -0.011341307239272878 0.0064249897099332588 -0.0060854592633260889 0.012181210725892573 -0.010894694391597778 0.0088085899383748053 0.0098633489843861864 0.0022907678188981363 -0.0070082783220520037 4.8282694574343627e-05 0.012147321002243529 0.012230221860249996 0.012145606466232703 0.012229060832646273 0.012178660922120482 0.012166888228002843
leaf_weight=3.1587513089180002 5.7459768503904334 5.7684296816587439 5.067187115550043 3.4387573301792145 4.3602746278047553 3.0864601135253888 3.0208045840263358 2.9522829502820995 4.1924762427806854 3.0084810703992835 3.0955193042755127 3.2467009574174881 4.5111934989690781 3.8757335245609275 3.4907301813364029 3.1294317990541458 2.9372210651636124 4.3907808661460894
leaf_count=20 37 36 33 23 29 21 20 20 28 20 20 21 31 26 24 21 20 30
internal_value=0 -0.0111145 0.00387094 -0.00464478 0.00555968 0.00672259 0.00449699 0.00615765 -0.00174052 0.0100605 5.6894e-05 -0.00339589 0.0115466 0.0121792 0.0121826 0.0122053 0.0121607 0.012157
internal_weight=0 18.7082 53.769 12.9397 48.0231 43.6628 31.0189 27.9981 9.25966 18.7385 9.78098 6.34222 15.73 12.7777 12.6438 6.21589 6.42795 8.90197
internal_count=480 120 360 84 323 294 208 188 61 127 64 41 107 87 86 42 44 61
is_linear=0
shrinkage=0.01


Tree=6
num_leaves=20
num_cat=0
split_feature=11 5 8 2 0 0 11 6 7 6 0 6 0 2 7 0 1 0 2
split_gain=30.4154 16.7945 12.5562 8.55621 7.73984 6.05408 3.34269 4.91441 10.9222 7.37628 2.47346 1.49166 1.04843 0.957707 1.08514e-05 1.00706e-05 1.4311e-05 2.60718e-06 2.33461e-06
threshold=0.0050756385607390918 0.00043566958019719554 0.78003320796601827 -0.00022686591062914815 0.8238470071941153 0.8083471924986344 0.009104472688100081 -0.0008433035830812673 0.73602085447940746 -0.0037635250041235242 0.81928877011881573 0.013228157201096215 0.81556794939926325 1.2543553576882529e-05 0.69445305517380951 0.79994488817735132 5.3547929123043411e-06 0.80896388552565412 0.00019490090267276774
decision_type=2 2 2 2 2 2 2 2 2 2 2 2 2 2 2 2 2 2 2
left_child=1 3 -2 -1 6 -5 7 8 9 -4 13 -6 15 -9 18 -8 -17 -18 -15
right_child=2 -3 4 5 11 -7 12 10 -10 -11 -12 -13 -14 14 -16 16 17 -19 -20
leaf_value=-0.018791364927100655 -0.010076714130371161 -0.024985515245524489 0.0022712786420475673 0.008078583094229215 -0.0094593299217864014 -0.0076598332929820757 0.012162199689112219 0.0057096989044365118 0.012255252083210657 -0.019689591941853525 0.0011063412058905321 0.00011516004797971081 0.005536003524115405 0.012123350692459716 0.012151992770459292 0.012123508701506573 0.012143531482255315 0.012156589515301297 0.012135898770420568
leaf_weight=3.1955392062664041 5.7822133451700202 5.856996312737464 3.0033181458711624 4.795082226395607 3.2132253348827353 4.9851787537336349 3.0685615837573996 3.0890201032161739 4.0512521415948868 3.1166227310895902 3.5913553386926642 3.2966113984584808 2.9854116141796103 3.033789321780203 3.3512470275163651 3.0338914245367032 3.051969438791275 3.0641724020242691 2.900100976228714
leaf_count=20 37 36 20 32 21 32 21 21 27 20 24 22 20 21 23 21 21 21 20
internal_value=0 -0.0109297 0.00384234 -0.00458521 0.0055243 5.6423e-05 0.00712025 0.00495148 -0.000481216 -0.00891245 0.00841251 -0.00461076 0.0108485 0.010533 0.0121376 0.0121465 0.0121413 0.0121501 0.0121295
internal_weight=0 18.8328 53.6328 12.9758 47.8505 9.78026 41.3407 26.1367 10.1712 6.11994 15.9655 6.50984 15.204 12.3742 9.28514 12.2186 9.15003 6.11614 5.93389
internal_count=480 120 360 84 323 64 280 176 67 40 109 43 104 85 64 84 63 42 41
is_linear=0
shrinkage=0.01


Tree=7
num_leaves=19
num_cat=0
split_feature=11 5 2 7 6 3 3 11 4 7 4 3 6 11 7 6 6 11
split_gain=29.6868 16.1113 12.8137 10.5831 12.9837 6.41263 6.3449 5.13957 6.35589 15.413 2.44212 1.98468 1.35515 0.246307 0.000174554 9.58382e-05 7.26855e-05 8.63272e-06
threshold=0.0050756385607390918 9.9124974441089378e-05 0.00015587343821538149 0.21452789834951044 0.013685303369991632 1.052154101882641e-05 0.00054372795263485385 0.010124824619539672 -3.9722995674729138e-05 0.72251746531495709 -0.00031331000699119643 0.00020692133362815171 0.009194994560246918 0.0068127129621423097 0.70399314669834812 -0.0019209851600899273 0.008306629480543672 0.015972443571243528
decision_type=2 2 2 2 2 2 2 2 2 2 2 2 2 2 2 2 2 2
left_child=1 5 -3 4 -2 -1 7 8 9 10 -5 13 -13 14 -10 17 -17 -9
right_child=3 2 -4 6 -6 -7 -8 15 11 -11 -12 12 -14 -15 -16 16 -18 -19
leaf_value=-0.0089748023731660558 -0.022851012776405912 -0.030076275181567459 -0.0067153020362138447 0.012170806597836615 0.0059941968346375945 0.0076139025267013107 -0.0060536467210663839 0.01212240432618859 0.012131167947089953 -0.015255383395618133 0.0019829550865645739 -0.00050667680657895636 0.0089004741485533417 0.0087756632792596392 0.012227166426818082 0.012202780268656763 0.012134663735278104 0.012097907970613459
leaf_weight=5.1436314135789889 3.1199481338262549 5.389610677957533 4.1604700237512589 4.5378515571355811 3.1218468248844147 4.2604902386665344 4.3663715273141852 2.8878610581159592 3.4738620966672951 4.7162840515375128 4.8866108208894721 3.1370497643947592 2.9917499721050262 2.9360558241605759 4.1650498062372208 2.9555172920227033 3.3333645761013031 2.866680309176445
leaf_count=33 20 33 26 31 20 28 29 20 24 31 33 21 20 20 28 20 23 20
internal_value=0 -0.0107502 -0.0198991 0.00381399 -0.00842402 -0.00145937 0.0054305 0.00659969 0.00443656 -0.000497108 0.00688838 0.00861321 0.00408539 0.0112373 0.0121835 0.0121397 0.0121667 0.0121102
internal_weight=0 18.9542 9.55008 53.4961 6.24179 9.40412 47.2543 42.8879 30.8445 14.1407 9.42446 16.7038 6.1288 10.575 7.63891 12.0434 6.28888 5.75454
internal_count=480 120 59 360 40 61 320 291 208 95 64 113 41 72 52 83 43 40
is_linear=0
shrinkage=0.01


Tree=8
num_leaves=17
num_cat=0
split_feature=11 9 9 0 11 2 4 11 2 11 9 9 4 2 3 9
split_gain=28.9782 19.1224 14.5092 23.9675 7.52546 10.5446 7.55186 8.17165 8.7396 5.19433 1.94744 0.871653 0.714993 0.2632 0.000393151 8.96163e-05
threshold=0.0050756385607390918 22.234589867444594 84.226028829333671 0.8083471924986344 0.011344980376639757 0.00039321947166415244 0.00014464683556264515 0.0066365156273325218 2.6602535246555984e-05 0.0057320765652082968 55.738440335662865 53.186273228347908 0.00063644472655638451 -0.00023797840573491766 0.00026177685463174566 83.733066373673566
decision_type=2 2 2 2 2 2 2 2 2 2 2 2 2 2 2 2
left_child=1 -1 3 -3 5 6 7 9 -9 -2 -8 -11 14 -6 -12 -15
right_child=4 2 -4 -5 13 -7 10 8 -10 11 12 -13 -14 15 -16 -17
leaf_value=0.0077363649564992426 -0.0031144421625290469 -0.0098513178945391199 -0.0041307524891390918 -0.043441216311473393 0.0086150586723845856 -0.014007345030191588 0.0026860500213700101 -0.00012059295442148127 -0.020492217431666383 0.012233026510072695 0.012135441973620962 0.0053863491590760738 0.0069546925208450738 0.012173732428333596 0.012275977242393696 0.012105243940274837
leaf_weight=4.3903628736734417 5.2107312232255953 4.9247840791940671 6.0235580801963797 3.7355259954929352 2.8671429604291916 3.8005169183015814 4.1833050996065166 5.6648628115653974 3.3520300984382629 5.0583631992340088 5.3605334311723691 2.940297856926918 3.7633984833955756 4.8358173221349698 3.1664867103099823 3.1582882106304169
leaf_count=29 35 31 38 22 20 25 28 38 22 34 37 20 25 33 21 22
internal_value=0 -0.0105749 -0.0160498 -0.0243399 0.00378577 0.00188735 0.00344828 -0.000354789 -0.00769374 0.00465487 0.00857936 0.0097162 0.0105853 0.0112144 0.0121876 0.0121467
internal_weight=0 19.0742 14.6839 8.66031 53.3618 42.5005 38.7 22.2263 9.01689 13.2094 16.4737 7.99866 12.2904 10.8612 8.52702 7.99411
internal_count=480 120 91 53 360 285 260 149 60 89 111 54 83 75 58 55
is_linear=0
shrinkage=0.01


Tree=9
num_leaves=18
num_cat=0
split_feature=11 5 8 2 3 11 8 6 10 2 6 3 2 8 1 8 10
split_gain=28.2919 15.3828 12.1364 7.98655 6.31521 5.21328 7.59489 8.49188 9.90275 2.10987 2.01817 0.749662 0.274933 0.000218472 8.73804e-05 4.88806e-05 2.88009e-05
threshold=0.0050756385607390918 0.00043566958019719554 0.78003320796601827 -0.00022686591062914815 0.00054372795263485385 0.010124824619539672 0.80994071061615347 -0.0008433035830812673 0.10848260708882089 0.00038377114624743586 -0.0040218831156883508 6.6810012399998189e-05 -1.1463465126704263e-05 0.80727631012873424 5.3547929123043411e-06 0.79836964934557841 0.046676551557964435
decision_type=2 2 2 2 2 2 2 2 2 2 2 2 2 2 2 2 2
left_child=1 3 -2 -1 5 6 7 8 -4 12 -5 -12 -9 16 -7 -16 -14
right_child=2 -3 4 10 -6 14 -8 9 -10 -11 11 -13 13 -15 15 -17 -18
leaf_value=-0.017832240943553603 -0.0098579154950964778 -0.023589859126385844 -0.011070215569154461 0.0063810166443116568 -0.0060163970387332871 0.012061509600487701 -0.010560907095491408 0.0086928278134430891 0.0097607472452704187 0.002317488865197699 -0.0066116738043328748 0.00022015276164424031 0.012067499730949224 0.012177903110489885 0.012092264134161586 0.012143474311559353 0.01210315892900954
leaf_weight=3.2831809371709832 5.829759180545806 6.0563293993473044 5.1169185936450976 3.421988844871521 4.3736972212791434 4.8173821717500669 3.0584332793951026 2.9022244215011623 4.1192881166934967 3.0141730159521094 3.147702619433403 3.2796892076730728 4.968516409397127 3.3760914504528037 4.0042535811662674 3.487070620059967 4.1625199466943741
leaf_count=20 37 36 33 23 29 34 20 20 28 20 20 21 35 23 28 24 29
internal_value=0 -0.0104054 0.00375752 -0.00432515 0.00543208 0.00659582 0.00439241 0.00604585 -0.00177974 0.00996904 0.000177292 -0.00312561 0.0114657 0.0121092 0.0120947 0.0121161 0.0120838
internal_weight=0 19.1889 53.2303 13.1326 47.4006 43.0269 30.7182 27.6597 9.23621 18.4235 9.84938 6.42739 15.4094 12.5071 12.3087 7.49132 9.13104
internal_count=480 120 360 84 323 294 208 188 61 127 64 41 107 87 86 52 64
is_linear=0
shrinkage=0.01


Tree=10
num_leaves=19
num_cat=0
split_feature=11 9 9 0 7 3 0 11 6 0 0 0 6 9 11 3 1 11
split_gain=27.626 18.2495 13.8071 22.266 10.2035 12.5578 7.49716 3.20203 5.08276 11.0151 2.9059 1.91938 1.4216 0.25396 0.000148308 5.13434e-05 4.61041e-05 1.18784e-05
threshold=0.0050756385607390918 22.234589867444594 84.226028829333671 0.8083471924986344 0.21452789834951044 0.00037218421173229604 0.8238470071941153 0.0079310018498782303 -0.0008433035830812673 0.80441479414314931 0.81928877011881573 0.81548231061812093 0.013228157201096215 77.556174334446837 0.010124824619539672 0.00010589741201311177 0.00012179347049057211 0.01538854150888232
decision_type=2 2 2 2 2 2 2 2 2 2 2 2 2 2 2 2 2 2
left_child=1 -1 3 -3 5 -2 7 8 9 -6 13 14 -8 15 -9 -10 17 -16
right_child=4 2 -4 -5 6 -7 12 11 10 -11 -12 -13 -14 -15 16 -17 -18 -19
leaf_value=0.0077148608795282701 -0.022258526863248897 -0.0095283549994843505 -0.0039142142126378397 -0.041532842393213094 0.0085485338757088029 0.0059998789756052096 -0.0093354719078433627 0.012133821144576538 0.012059274097957045 -0.01274191437922154 0.00048115846795383419 0.0037961966187760911 1.5593606764542179e-05 0.0085771589940724906 0.012054538080672897 0.012112968735882031 0.012087066264006159 0.012027449014508399
leaf_weight=4.3772992640733746 3.1672539860010138 4.984420642256735 6.0861310958862296 3.8550818860530853 5.4692372381687164 3.1234418302774429 3.2281542420387259 3.3296169489622143 4.671805724501608 4.3731343001127243 3.4093132913112649 3.5616458505392066 3.2751942276954651 2.852137878537178 3.251586049795149 2.8778187930583954 3.2809010446071625 3.2233807444572449
leaf_count=29 20 31 38 22 37 20 21 23 33 28 23 24 22 20 23 20 23 23
internal_value=0 -0.0102398 -0.0155054 -0.0234861 0.00372982 -0.00822773 0.00533697 0.00694473 0.00458001 -0.000911177 0.00849327 0.0103047 -0.00462612 0.0111193 0.0120762 0.0120797 0.0120565 0.0120411
internal_weight=0 19.3029 14.9256 8.8395 53.0946 6.2907 46.8039 40.3006 23.6534 9.84237 13.8111 16.6471 6.50335 10.4018 13.0855 7.54962 9.75587 6.47497
internal_count=480 120 91 53 360 40 320 277 161 65 96 116 43 73 92 53 69 46
is_linear=0
shrinkage=0.01


Tree=11
num_leaves=20
num_cat=0
split_feature=7 0 6 4 7 2 7 0 7 2 8 1 1 0 10 8 10 4 2
split_gain=10.1047 8.08382 14.7397 11.0717 25.5812 10.9062 6.772 6.6636 4.61017 4.16454 3.23179 2.42958 3.26392 0.901072 0.899238 0.248056 0.000549727 0.00024726 0.00014614
threshold=0.15363072831501248 0.80828835140240496 0.005103753966327119 1.7912292012756129e-05 0.70962758256441272 -0.0006341939560413622 0.71155396006528482 0.81859209479957207 1.5193116680045329 0.00037497677053682793 0.80138098541674274 0.00025455403014923444 -0.00020299236363702231 0.80676869767392267 0.23358553391786049 0.80212903019205795 -0.4649296609270363 -4.9722729099810341e-05 -0.00011181677362792629
decision_type=2 2 2 2 2 2 2 2 2 2 2 2 2 2 2 2 2 2 2
left_child=-1 5 3 4 -3 -2 -5 14 -9 -10 -8 12 -7 15 16 17 -4 18 -14
right_child=1 2 7 6 -6 11 10 8 9 -11 -12 -13 13 -15 -16 -17 -18 -19 -20
leaf_value=-0.015658136550980563 -0.011015100381376054 0.0029981427333333655 0.012052620604950715 -0.013100523039782914 -0.034233913045216148 0.0016529537433130795 0.012093334135825466 -0.0083409537010780306 0.012196143273313649 -0.0040867553487427708 -0.002339585688632202 -0.00016652850179113912 0.012214575945906992 0.0054080201621835959 0.0054161127162184464 0.0090414891412326833 0.012242680454193508 0.012279557190051858 0.012126186195818192
leaf_weight=3.8966421484947196 3.84781585633755 3.2529530674219158 2.9644247889518738 3.5056489109992963 4.2647721171379089 5.6190285980701509 2.8598130792379379 5.3252068161964399 3.2404652982950211 3.0483464002609253 3.3910997658967972 4.0258462429046622 4.2889970242977222 2.9442215114831916 2.9400258213281631 3.2003073543310157 3.1272531002759951 3.3110322803258834 3.3172756135463715
leaf_count=24 25 22 21 22 26 37 20 35 22 20 22 27 29 20 20 22 21 22 23
internal_value=0 0.000897068 -0.00218717 -0.00900309 -0.0181234 0.00472479 -0.00197559 0.00351572 -0.00149423 0.00430341 0.00426352 0.00699254 0.00826327 0.0104403 0.00995809 0.0114897 0.0121502 0.0122074 0.012176
internal_weight=0 68.4745 37.92 17.2743 7.51773 30.5545 9.75656 20.6457 11.614 6.28881 6.25091 26.7067 22.6809 17.0618 9.0317 14.1176 6.09168 10.9173 7.60627
internal_count=480 456 251 112 48 205 64 139 77 42 42 180 153 116 62 96 42 74 52
is_linear=0
shrinkage=0.01


Tree=12
num_leaves=19
num_cat=0
split_feature=7 0 6 5 9 8 0 9 5 3 9 6 5 3 6 3 8 6
split_gain=9.81781 7.94019 14.3827 11.7328 15.2774 15.6604 6.58178 6.30375 8.82467 5.20599 3.77774 3.39685 2.866 1.38599 2.47041 0.930687 0.000373502 0.000270355
threshold=0.15363072831501248 0.80828835140240496 0.005103753966327119 0.00084673583142214081 56.157557327778143 0.80138098541674274 0.81859209479957207 81.637650586436408 -0.00022956692319142655 0.00048547728458275824 86.412878310825946 0.012225494139421313 -0.0013009370220872782 -5.8225621319463177e-05 -0.0016180508573877537 5.8361916963456391e-05 0.80201860966487404 0.0099174144516514535
decision_type=2 2 2 2 2 2 2 2 2 2 2 2 2 2 2 2 2 2
left_child=-1 7 3 4 5 -3 15 12 -9 11 -10 -8 -2 16 -15 -4 -14 -17
right_child=1 2 6 -5 -6 -7 9 8 10 -11 -12 -13 13 14 -16 17 -18 -19
leaf_value=-0.015358626300777034 -0.0007199719898589457 0.009772451294209587 0.0052536899756066959 0.0089043272322720662 -0.024500710820558547 -0.018033548601817908 -0.0042085437268608783 0.012163526046743707 -0.015531558983571262 -0.0099206228538459389 -0.0012871183940669421 0.0097483633139487658 0.012112208027229626 -1.757992119903126e-05 0.012205305549379831 0.012212602832660924 0.012236731006451805 0.012079183408609678
leaf_weight=3.9327207654714575 3.0941060036420849 4.1988246887922305 2.893109858036043 3.0602800846099845 6.1901758909225455 3.9131369441747665 3.0288893431425077 3.3494100421667099 3.224860802292822 4.4852981418371201 4.4050106555223465 4.1100838333368301 5.4592713713645988 3.2297945469617844 3.3882585614919654 2.9486704766750336 4.3107870817184448 3.1319921463727951
leaf_count=24 21 29 20 21 38 24 20 23 21 29 29 28 38 21 23 20 29 22
internal_value=0 0.000889242 -0.00216236 -0.00886679 -0.0126693 -0.00364091 0.00348891 0.00469208 -0.00136769 -0.00147773 -0.00730771 0.00382679 0.00810709 0.00977365 0.0062402 0.00992251 0.0121672 0.0121439
internal_weight=0 68.422 37.9605 17.3624 14.3021 8.11196 20.598 30.4615 10.9793 11.6243 7.62987 7.13897 19.4822 16.3881 6.61805 8.97377 9.77006 6.08066
internal_count=480 456 251 112 91 53 139 205 73 77 50 48 132 111 44 62 67 42
is_linear=0
shrinkage=0.01


Tree=13
num_leaves=19
num_cat=0
split_feature=11 5 8 0 7 11 11 10 6 0 10 0 0 10 10 11 5 11
split_gain=26.5274 14.239 11.4757 7.37844 4.83328 7.05669 3.28193 6.1005 7.78152 12.2504 1.92844 1.91 1.29425 0.233277 0.000241609 0.000134677 8.78481e-05 3.02268e-05
threshold=0.0050756385607390918 0.00043566958019719554 0.78003320796601827 0.8238470071941153 0.70962758256441272 0.0044241964829353506 0.0079310018498782303 0.30607812420199348 -0.0008433035830812673 0.80441479414314931 0.26878315393151969 0.81548231061812093 0.81649305339995804 0.83667193506693849 0.68059181392183843 0.0097844681787244443 0.00043566958019719554 0.015972443571243528
decision_type=2 2 2 2 2 2 2 2 2 2 2 2 2 2 2 2 2 2
left_child=1 4 -2 6 -1 -6 7 8 9 -4 -5 15 -10 14 -9 -8 17 -17
right_child=2 -3 3 10 5 -7 11 13 12 -11 -12 -13 -14 -15 -16 16 -18 -19
leaf_value=0.0024816633058875118 -0.0094322700038553791 -0.022440159919031793 0.0060722605070380976 0.00063199036762944026 -0.020326213202584941 -0.0004765489653955829 0.012093269194597476 0.012062284205914337 0.010084765303877899 -0.021389717826864649 -0.010247526756111519 0.0037868829283272242 0.0017230881655128092 0.008674651891461908 0.012188557433646137 0.012013255522978578 0.01205527629999476 0.011969639930105049
leaf_weight=6.0503384619951266 5.9233521670103064 6.2273179441690436 3.2579302340745917 3.4413303881883612 3.3270333409309387 3.879268005490303 3.0009402036666897 2.9745307564735395 5.168941408395769 3.2396022379398346 3.0941110849380493 3.5573808848857871 2.8838694393634796 2.8911556750535965 3.0887192636728287 3.7650797814130765 3.8146361261606216 2.7491410970687866
leaf_count=39 37 36 22 23 20 25 21 21 37 20 20 24 20 20 21 27 27 20
internal_value=0 -0.00996726 0.0036835 0.00533902 -0.00410811 -0.00964082 0.00693401 0.00451789 0.000521331 -0.00762 -0.00451876 0.0102969 0.00709028 0.0110121 0.0121266 0.0120343 0.0120172 0.0119948
internal_weight=0 19.484 52.8507 46.9274 13.2566 7.2063 40.3919 23.5047 14.5503 6.49753 6.53544 16.8872 8.05281 8.95441 6.06325 13.3298 10.3289 6.51422
internal_count=480 120 360 323 84 45 280 161 99 42 43 119 57 62 42 95 74 47
is_linear=0
shrinkage=0.01


Tree=14
num_leaves=20
num_cat=0
split_feature=11 5 8 2 0 8 11 6 7 6 0 10 8 0 2 7 0 5 10
split_gain=25.9123 13.8286 11.2479 11.1286 7.26969 5.69018 3.26628 4.61246 10.4308 6.55254 2.41552 1.87359 1.45528 1.02927 0.978353 9.48332e-05 5.84687e-05 5.93252e-05 1.77838e-05
threshold=0.0050756385607390918 9.9124974441089378e-05 0.78003320796601827 0.00015587343821538149 0.8238470071941153 0.80138098541674274 0.009104472688100081 -0.0008433035830812673 0.73602085447940746 -0.0037635250041235242 0.81928877011881573 0.26878315393151969 0.80210382141801861 0.81556794939926325 1.2543553576882529e-05 0.69445305517380951 0.79994488817735132 8.0399884937076851e-05 -0.152345800968928
decision_type=2 2 2 2 2 2 2 2 2 2 2 2 2 2 2 2 2 2 2
left_child=1 5 -2 -3 6 -1 7 8 9 -4 14 -6 -7 16 -9 18 -8 -18 -16
right_child=2 3 4 -5 11 12 13 10 -10 -11 -12 -13 -14 -15 15 -17 17 -19 -20
leaf_value=-0.01190783848727691 -0.0092852564288736401 -0.027108305938260347 0.0021225627308919916 -0.0058539201138510764 0.00062592160437269511 0.00913894028494679 0.012041553401252183 0.0053977203257791493 0.012180065671109044 -0.018472113177360576 0.00094770484728003601 -0.010081027223847213 -0.00049178046320337467 0.0053808882837510291 0.011965551858014326 0.012050757245717358 0.011958661264069186 0.012011739086731574 0.012001009817542372
leaf_weight=3.2574538737535494 5.9567954242229453 5.7439530789852125 2.967044934630394 4.3133146166801453 3.4399553835391989 3.1760575920343399 2.9514700621366492 2.9914133399724987 3.9609599113464355 3.2231381386518461 3.5513499379158011 3.1136622875928879 3.1009096950292587 2.938184291124343 2.8822874426841683 3.2456014603376389 3.560069799423216 5.1549106687307358 2.7775765955448186
leaf_count=20 37 33 20 26 23 21 21 21 27 20 24 20 20 20 21 23 26 37 20
internal_value=0 -0.00981268 0.00365645 -0.0179928 0.00530519 -0.00118396 0.00689717 0.00474428 -0.00049213 -0.00860078 0.00818516 -0.00446101 0.00438123 0.0106708 0.0103456 0.0120077 0.0120031 0.0119901 0.011983
internal_weight=0 19.5917 52.7144 10.0573 46.7576 9.53442 40.204 25.5994 10.1511 6.19018 15.4482 6.55362 6.27697 14.6046 11.8969 8.90547 11.6665 8.71498 5.65986
internal_count=480 120 360 59 323 61 280 176 67 40 109 43 41 104 85 64 84 63 41
is_linear=0
shrinkage=0.01


Tree=15
num_leaves=19
num_cat=0
split_feature=11 9 9 0 7 3 0 11 2 0 3 7 9 7 3 7 11 2
split_gain=25.3145 16.8461 12.6161 19.2741 9.46464 12.0231 7.08287 3.14431 3.69133 6.83368 1.83576 1.24039 1.03017 0.976165 0.251968 0.000350465 0.000158395 0.000109398
threshold=0.0050756385607390918 22.234589867444594 84.226028829333671 0.8083471924986344 0.21452789834951044 0.00037218421173229604 0.8238470071941153 0.009104472688100081 7.8519846834657083e-05 0.80755800535843691 0.0004298123195280446 0.73602085447940746 85.144972593670957 1.5880695671409106 -3.7939904768358172e-05 0.6923254877718793 0.010644385965953761 0.00014520064828243975
decision_type=2 2 2 2 2 2 2 2 2 2 2 2 2 2 2 2 2 2
left_child=1 -1 3 -3 5 -2 7 8 9 11 14 -6 16 -8 -10 -16 -9 -18
right_child=4 2 -4 -5 6 -7 13 12 10 -11 -12 -13 -14 -15 15 -17 17 -19
leaf_value=0.0076857523168617041 -0.021269321235067706 -0.0090432466463935372 -0.0035629400805313473 -0.038244418062701825 0.0039805583538817984 0.0061261270332631469 -0.0081114705169760999 0.012062320334315729 0.0084404240694238922 -0.0073350176337164553 0.0018156580421369228 0.012128743421996293 0.0053836707143892397 -0.00039734243158733598 0.011962589246852435 0.012112720847687187 0.011951034417910476 0.012028617140998649
leaf_weight=4.3589157313108471 3.2481404095888129 5.0746040791273099 6.1873959898948661 4.0757776498794556 4.861349746584894 3.1610072404146194 3.4133863598108283 3.111123397946356 2.7888945341110221 5.593703955411911 2.9036923348903647 3.0344194024801254 2.98456086218357 3.158123791217804 2.7414198964834204 3.592516303062439 5.1888729184865952 2.7973690181970596
leaf_count=29 20 31 38 22 33 20 22 22 20 37 20 21 21 21 20 25 38 20
internal_value=0 -0.00966205 -0.0145922 -0.0220501 0.00362959 -0.00775782 0.00521036 0.00680596 0.00471257 0.00112122 0.00874078 0.00711198 0.0105991 -0.00440423 0.010945 0.0120477 0.0120018 0.0119782
internal_weight=0 19.6967 15.3378 9.15038 52.5786 6.40915 46.1694 39.5979 25.516 13.4895 12.0265 7.89577 14.0819 6.57151 9.12283 6.33394 11.0974 7.98624
internal_count=480 120 91 53 360 40 320 277 176 91 85 54 101 43 65 45 80 58
is_linear=0
shrinkage=0.01


Tree=16
num_leaves=19
num_cat=0
split_feature=7 0 6 9 8 5 2 0 7 2 5 1 5 2 8 9 6 2
split_gain=11.1793 7.8782 13.703 11.0793 14.069 14.3622 10.7851 6.36817 4.44452 4.0471 3.75056 1.32693 1.52591 1.08691 0.910218 0.000604641 0.000486136 0.000531285
threshold=0.15252200729325652 0.80828835140240496 0.005103753966327119 7.9342584067466726 0.80123626180595775 0.00015187067239175181 -0.0006341939560413622 0.81859209479957207 1.5193116680045329 0.00037497677053682793 0.000963472518215991 0.00025277747596352823 0.00016344204463458747 -0.00033668443189083236 0.79382315547333315 75.886965614373509 -0.0056377872378280394 -1.1463465126704263e-05
decision_type=2 2 2 2 2 2 2 2 2 2 2 2 2 2 2 2 2 2
left_child=-1 6 3 -3 -5 -6 -2 14 -9 -10 11 12 13 -8 -4 -16 -15 -18
right_child=1 2 7 4 5 -7 10 8 9 -11 -12 -13 -14 16 15 -17 17 -19
leaf_value=-0.016898953644777465 -0.010927856342224269 0.0088093011109895425 0.0052254435494765517 1.598192034035679e-05 -0.03598482706169101 -0.0098485618577202044 0.0054123952882553332 -0.008087460027688927 0.012163669457722154 -0.0038931618220689221 -0.0032467776291598121 0.0020680141055785706 0.0045563942144844407 0.012033757269917745 0.011977619809636591 0.012179303170263873 0.012235572126791725 0.012076699429765324
leaf_weight=3.7102289199829093 3.856257006525996 3.0195227116346386 2.8772519975900668 5.6829351335763922 3.4746019393205625 5.3241368532180786 2.989567697048197 5.3795226216316205 3.2040151953697205 3.0774457603693008 3.1704086512327185 2.950205370783805 5.1988534480333319 3.6381893754005512 3.0297864526510239 2.9182054400444031 5.2050320357084345 3.5340307354926885
leaf_count=22 25 21 20 38 20 33 21 35 22 20 20 20 35 26 22 20 35 25
internal_value=0 0.000923048 -0.00211718 -0.00861526 -0.0122484 -0.0201697 0.00470434 0.00343407 -0.00141627 0.00429702 0.00696325 0.00833976 0.00923946 0.0108238 0.00984293 0.0120766 0.0121309 0.0121713
internal_weight=0 68.53 37.9874 17.5012 14.4817 8.79874 30.5425 20.4862 11.661 6.28146 26.6863 23.5159 20.5657 15.3668 8.82524 5.94799 12.3773 8.73906
internal_count=480 458 251 112 91 53 207 139 77 42 182 162 142 107 62 42 86 60
is_linear=0
shrinkage=0.01


Tree=17
num_leaves=19
num_cat=0
split_feature=11 5 8 0 3 7 11 6 7 6 0 6 0 4 7 5 11 7
split_gain=24.6933 12.9625 10.7698 7.02124 6.53803 7.26246 3.24088 4.53466 10.1556 6.27204 2.39791 1.20335 1.0261 0.95965 0.000133163 0.000101858 0.000135362 1.21124e-05
threshold=0.0050756385607390918 0.00043566958019719554 0.78003320796601827 0.8238470071941153 3.8385932981555022e-05 0.70962758256441272 0.009104472688100081 -0.0008433035830812673 0.73602085447940746 -0.0037635250041235242 0.81928877011881573 0.013228157201096215 0.81556794939926325 -0.00029922964797668422 0.69920319025775657 0.00043566958019719554 0.011951924936205026 0.59464893033413213
decision_type=2 2 2 2 2 2 2 2 2 2 2 2 2 2 2 2 2 2
left_child=1 4 -2 6 5 -1 7 8 9 -4 13 -5 15 -9 17 16 -8 -15
right_child=2 -3 3 11 -6 -7 12 10 -10 -11 -12 -13 -14 14 -16 -17 -18 -19
leaf_value=-0.00057733276370130354 -0.0089752212150294858 -0.021184939552026109 0.0020966212142412462 -0.0085527085870721192 0.0039632113359636947 -0.020313064587262598 0.011988521628501335 0.0054650332378015348 0.012130881430480071 -0.018003066119380847 0.00089305713141728423 -1.0470777960471864e-05 0.0053149993140262511 0.011937666781685466 0.012035682804286761 0.011997784180948205 0.011901633187357543 0.011966767248724428
leaf_weight=3.8569235801696795 6.0262799710035315 6.4223396480083457 2.9596301466226578 3.3282198905944815 5.9049147814512253 3.6095337420701981 2.9001773744821531 3.0554108321666673 3.9014989733695984 3.2653656154870969 3.5374320000410071 3.2687189280986786 2.9181109219789496 2.7175269126892143 2.947268158197403 3.8794736713171005 4.6964477002620697 3.0196382403373718
leaf_count=25 37 36 20 21 38 21 21 22 27 20 24 22 20 20 21 28 35 22
internal_value=0 -0.00950816 0.00360132 0.00523489 -0.00389975 -0.0101182 0.00681874 0.00467068 -0.000518713 -0.00844681 0.00811046 -0.00432011 0.0106098 0.0102852 0.011981 0.0119561 0.0119348 0.011953
internal_weight=0 19.7937 52.4212 46.3949 13.3714 7.46646 39.798 25.4038 10.1265 6.225 15.2773 6.59694 14.3942 11.7398 8.68443 11.4761 7.59663 5.73717
internal_count=480 120 360 323 84 46 280 176 67 40 109 43 104 85 63 84 56 42
is_linear=0
shrinkage=0.01


Tree=18
num_leaves=17
num_cat=0
split_feature=11 9 9 8 8 3 11 8 6 6 2 4 8 1 6 6
split_gain=24.1305 15.9119 11.7147 10.5586 7.55028 6.11059 5.11047 7.27642 8.02079 8.09345 2.03839 0.288405 0.000455627 0.000389009 0.000135036 5.00666e-05
threshold=0.0050756385607390918 22.234589867444594 84.226028829333671 0.78003320796601827 0.80175724559634476 0.00054372795263485385 0.010124824619539672 0.80994071061615347 -0.0008433035830812673 -0.0039146308336677196 0.00038377114624743586 -0.00029922964797668422 0.80727631012873424 0.0001331528455004172 0.005103753966327119 -0.0057297940908728742
decision_type=2 2 2 2 2 2 2 2 2 2 2 2 2 2 2 2
left_child=1 -1 4 -2 -3 6 7 8 9 -5 11 -10 14 15 -13 -8
right_child=3 2 -4 5 -6 -7 13 -9 10 -11 -12 12 -14 -15 -16 -17
leaf_value=0.007616378373709356 -0.0088385649447917762 -0.029228929079851827 -0.0034413331553699296 0.0077457084515834985 -0.011157677373976351 -0.0060640014355934349 0.011892918531367149 -0.010382526916887288 0.0084614512555493872 -0.010954451447635806 0.0022696958897603331 0.012000794149368076 0.012098497435771459 0.012033192111361017 0.011921975256887095 0.01194693617850527
leaf_weight=4.31956519186497 6.0580984950065604 5.1709329187870008 6.2210348695516577 4.5833817571401596 4.1816757768392563 4.3605090826749793 4.0123459100723267 3.0760104209184638 2.8655425608158138 4.6752271205186862 3.0015224963426581 4.0236450880765933 3.1481708586215964 4.7553687393665314 4.7275424003601074 2.9978381842374784
leaf_count=29 37 28 38 32 25 29 30 20 21 29 20 29 22 34 35 22
internal_value=0 -0.0093654 -0.0140755 0.00357491 -0.021149 0.0052017 0.00637506 0.00419076 0.0058495 -0.00169712 0.00978227 0.0113095 0.0119953 0.0119634 0.0119582 0.011916
internal_weight=0 19.8932 15.5736 52.2852 9.35261 46.2271 41.8666 30.101 27.025 9.25861 17.7664 14.7649 11.8994 11.7656 8.75119 7.01018
internal_count=480 120 91 360 53 323 294 208 188 61 127 107 86 86 64 52
is_linear=0
shrinkage=0.01


Tree=19
num_leaves=19
num_cat=0
split_feature=11 5 11 1 11 3 0 10 5 11 5 10 3 1 1 10 3 1
split_gain=23.5855 12.3824 7.13121 6.82767 12.621 5.70254 5.57407 4.77149 4.5127 4.35553 4.21333 1.98417 1.77818 0.753979 0.282995 0.246735 0.0005752 0.000352269
threshold=0.0050756385607390918 9.9124974441089378e-05 0.011344980376639757 0.00015632514003016687 0.0090642427478501691 1.052154101882641e-05 0.80988759635191754 0.10848260708882089 0.00039583654822494824 0.0057365124026494329 -0.00011300876389097601 0.8585188936757232 0.00017123624077591829 7.6209495483370318e-05 -6.8860501951206729e-05 0.32255662797385926 9.0530992300497118e-05 0.00017034652606789938
decision_type=2 2 2 2 2 2 2 2 2 2 2 2 2 2 2 2 2 2
left_child=1 5 3 7 8 -1 -3 9 12 -2 -11 15 -5 -12 -4 -9 -17 -16
right_child=2 6 14 4 -6 -7 -8 11 -10 10 13 -13 -14 -15 17 16 -18 -19
leaf_value=-0.0079049464849088556 -0.009661582876757658 -0.010094657633686248 0.0082240659149883568 0.0014015282833796312 -0.021164661683979 0.0076182092150272867 -0.02479924570199938 0.0086154664530226147 -0.0057940132349186312 -0.0030958766475887695 0.012160393133457164 0.0016822321031062324 0.012402058538769158 0.0052467993743495036 0.01190377180289481 0.012007304889223771 0.012187489871046014 0.012046256070963133
leaf_weight=5.3463348448276538 3.1787438541650799 5.6631463766098005 2.6952499002218246 2.8067451119422895 3.2710263580083838 4.2459354549646378 4.7319006770849228 2.8602841943502408 4.9471551328897476 5.2322529256343797 3.4706327319145229 2.8709515482187262 3.0840284079313278 2.8917732834815979 2.6836315691471082 4.1644736379384995 3.083428218960762 4.9095494598150253
leaf_count=33 21 33 20 20 21 28 26 20 32 36 24 20 20 20 20 30 21 35
internal_value=0 -0.00922741 0.00354868 0.00171543 -0.0039487 -0.00103376 -0.0167883 0.00459498 0.0012473 0.000708483 0.0035515 0.00901875 0.0071607 0.0090181 0.0110078 0.0111025 0.012084 0.0119959
internal_weight=0 19.9873 52.1499 41.8615 14.109 9.59227 10.395 27.7525 10.8379 14.7734 11.5947 12.9791 5.89077 6.36241 10.2884 10.1082 7.2479 7.59318
internal_count=480 120 360 285 93 61 59 192 72 101 80 91 40 44 75 71 51 55
is_linear=0
shrinkage=0.01


Tree=20
num_leaves=18
num_cat=0
split_feature=9 9 4 7 6 3 9 5 10 6 10 3 7 5 5 7 3
split_gain=8.009 11.0513 7.57912 13.2742 26.0146 7.5204 4.66637 4.44356 5.84495 3.35409 4.33088 3.89851 1.90788 0.247288 0.222694 0.000867023 0.000529942
threshold=31.512660877923263 49.070014243570171 -7.43765483457448e-06 0.70962758256441272 -0.0039146308336677196 0.00053205292865748943 67.688322975067052 -0.00017254653492676517 -0.43861273684417673 0.010401599503684468 -0.53033062690102495 0.00031197464678356385 0.63311688230485974 -0.0011714193349476318 0.0001162172067094014 0.73356693695499064 -9.2173672691486783e-05
decision_type=2 2 2 2 2 2 2 2 2 2 2 2 2 2 2 2 2
left_child=7 -2 3 6 -5 9 -3 13 -9 10 -4 12 -12 -1 -11 -14 -15
right_child=1 2 5 4 -6 -7 -8 8 -10 14 11 -13 15 16 -16 -17 -18
leaf_value=0.0085892711116837394 -0.01434257180481961 0.012029878942767499 -0.0057247118385344757 0.0022918819712597969 -0.030713296299644827 -0.0071204053320194985 -0.0029835019961515596 0.012260560336932787 -0.0050145421403175018 0.0086313121691310012 0.0024484236730835419 -0.004092641146401451 0.011970444384353227 0.012061629140759141 0.012175392061985108 0.012204060343523088 0.012252990397304583
leaf_weight=2.9158869087696075 6.2894944101572028 3.7756031006574649 4.4041469842195573 5.0071758925914764 4.5656049400567991 6.1234471499919882 4.583449974656105 2.9695048928260803 5.7531022727489454 2.8609200268983832 3.0239052027463931 3.0065680295228949 3.0139518082141876 2.8176537454128265 4.6622875183820724 3.3593227565288544 2.9753254204988497
leaf_count=21 39 27 29 34 26 39 31 20 38 20 20 19 22 20 32 23 20
internal_value=0 -0.0018727 -0.000251809 -0.00540958 -0.0134495 0.00278512 0.00379772 0.0059115 0.000866555 0.00527806 0.00279406 0.00581878 0.00898988 0.0109644 0.0108277 0.0120936 0.0121599
internal_weight=0 54.6759 48.3864 17.9318 9.57278 30.4545 8.35905 17.4315 8.72261 24.3311 16.8079 12.4037 9.39718 8.70887 7.52321 6.37327 5.79298
internal_count=480 361 322 118 60 204 58 119 58 165 113 84 65 61 52 45 40
is_linear=0
shrinkage=0.01


Tree=21
num_leaves=19
num_cat=0
split_feature=11 9 10 8 9 3 11 8 10 11 3 3 8 7 3 7 5 10
split_gain=22.8862 14.9974 11.0762 10.2978 9.24764 5.91824 5.04739 6.99897 3.60521 6.60034 4.06706 2.13393 1.58318 0.211819 0.000414948 0.000336971 0.000244875 6.51692e-05
threshold=0.0050756385607390918 22.234589867444594 -0.35502783896530593 0.78003320796601827 85.705938236407277 0.00054372795263485385 0.010124824619539672 0.80994071061615347 0.060936044052179242 0.0057349547568464028 -3.7939904768358172e-05 0.00027508311282503645 0.80201860966487404 0.71155396006528482 9.0530992300497118e-05 1.0986100626099231 0.00043566958019719554 0.5778547936749483
decision_type=2 2 2 2 2 2 2 2 2 2 2 2 2 2 2 2 2 2
left_child=1 -1 -3 -2 12 6 7 8 9 -5 -11 14 -4 -12 17 16 -8 -10
right_child=3 2 4 5 -6 -7 15 -9 11 10 13 -13 -14 -15 -16 -17 -18 -19
leaf_value=0.0075501493556537017 -0.0087066926033552601 -0.026820507472829803 -0.019933145885142514 -0.01078709725778261 0.0033207471959738541 -0.0059038696438332063 0.01183787267891403 -0.010058940700929169 0.011989273645881093 -0.0017343590910317464 0.008619556743285477 0.0024173252876329601 -0.010448537499622452 0.012173991777554247 0.012091701999457666 0.012010425649816317 0.01194438656123447 0.011924352315465268
leaf_weight=4.2829065173864391 6.0876046717166892 4.4975063651800182 3.6147145032882637 3.0217289924621644 4.2807437777519226 4.3916289061307898 4.9807790219783765 3.1124171167612067 2.7612332105636579 4.3144955188035947 2.9222507774829865 3.0700671374797812 3.4298113584518433 3.9331387430429459 3.2807588875293732 2.7752079516649237 3.8090361058712006 3.5138620287179947
leaf_count=29 37 25 20 20 26 29 38 20 20 30 21 21 20 27 23 20 28 26
internal_value=0 -0.00905031 -0.0135437 0.00351406 -0.00827123 0.00513535 0.00630368 0.0041357 0.00578312 0.00232475 0.00587183 0.00967035 -0.0153153 0.0106588 0.0120006 0.0119144 0.011884 0.0119529
internal_weight=0 20.1057 15.8228 51.9742 11.3253 45.8866 41.495 29.93 26.8175 14.1916 11.1699 12.6259 7.04453 6.85539 9.55585 11.565 8.78982 6.2751
internal_count=480 120 91 360 66 323 294 208 188 98 78 90 40 48 69 86 66 46
is_linear=0
shrinkage=0.01


Tree=22
num_leaves=17
num_cat=0
split_feature=11 9 9 0 8 0 11 11 11 8 0 5 7 7 11 5
split_gain=22.3733 14.5839 10.6042 16.4533 10.0963 6.84024 3.18475 4.70189 2.84897 3.93681 1.88 1.34506 0.868655 0.00055519 0.000328072 0.000150011
threshold=0.0050756385607390918 22.234589867444594 84.226028829333671 0.8083471924986344 0.78003320796601827 0.8238470071941153 0.0079310018498782303 0.0066365156273325218 0.0057320765652082968 0.80129185689519267 0.81548231061812093 -0.00031362589877548247 1.5880695671409106 0.70399314669834812 0.010124824619539672 8.0399884937076851e-05
decision_type=2 2 2 2 2 2 2 2 2 2 2 2 2 2 2 2
left_child=1 -1 3 -3 -2 6 7 8 9 -6 14 -10 -7 -13 -8 -16
right_child=4 2 -4 -5 5 12 10 -9 11 -11 -12 13 -14 -15 15 -17
leaf_value=0.0075109442511830972 -0.0085759501173757451 -0.0080160434765638097 -0.003211054678045474 -0.034254245378275296 0.0088839123089695902 -0.0077804616416528704 0.011974962722982775 -0.0045584341220059601 0.0049812876189867326 -0.0068372607092143526 0.0036044996092277617 0.011910995407160271 -0.00051094250905306762 0.012084783227633502 0.011816962507133382 0.011896460283501433
leaf_weight=4.2623130232095745 6.1184509843587866 5.275976359844206 6.2885281592607489 4.3690295517444611 3.266335576772696 3.4556580632925025 3.1559771001338985 4.7543508559465399 4.2255183905363101 3.1089382916688919 3.4986659884452811 3.0896509140729869 3.1349484324455261 4.5385223031044006 4.6806751489639264 4.8157754689455032
leaf_count=29 37 31 38 22 24 22 23 32 30 20 24 23 21 32 36 36
internal_value=0 -0.00891911 -0.0133143 -0.0199015 0.00348802 0.00510229 0.00668953 0.00429813 0.00660803 0.00121739 0.0100925 0.00950728 -0.00432258 0.0120144 0.0118866 0.0118573
internal_weight=0 20.1958 15.9335 9.64501 51.8435 45.725 39.1344 22.9833 18.229 6.37527 16.1511 11.8537 6.59061 7.62817 12.6524 9.49645
internal_count=480 120 91 53 360 323 280 161 129 44 119 85 43 55 95 72
is_linear=0
shrinkage=0.01


Tree=23
num_leaves=20
num_cat=0
split_feature=7 0 2 2 8 4 1 8 3 5 0 7 3 4 5 3 8 3 7
split_gain=7.90839 7.32107 10.7021 10.3243 9.00225 7.96336 5.38781 5.09101 4.06688 3.49451 3.42434 4.48335 1.29306 2.04071 2.27461 1.17419 0.00221545 0.000889901 0.000412749
threshold=0.15363072831501248 0.80828835140240496 0.00014520064828243975 -0.0006341939560413622 0.80123626180595775 1.7912292012756129e-05 0.0003122359990057611 0.79711921082209491 0.00020692133362815171 0.000963472518215991 0.81890376615929295 1.5218591487605189 -6.9963164898156891e-05 0.00031582251283673873 8.0399884937076851e-05 -0.00055358479388445392 0.80201860966487404 1.8074388105970843e-05 0.65125850762282655
decision_type=2 2 2 2 2 2 2 2 2 2 2 2 2 2 2 2 2 2 2
left_child=-1 3 4 -2 7 -6 8 -3 17 12 -10 -12 15 14 -14 -5 18 -4 -17
right_child=1 2 6 9 5 -7 -8 -9 10 -11 11 -13 13 -15 -16 16 -18 -19 -20
leaf_value=-0.01332439695317086 -0.010665683724169588 -0.0065803343713987461 0.011897009520898314 0.0046477452643669086 -0.020573474760718077 -0.0040101407344699256 -0.0088119859055571809 0.011921385006943506 0.0095018012559297937 -0.0029650113700849762 -0.010558676431353265 0.0049142189773581429 0.0074597917671069261 0.012161662840631028 -0.0037684076698938263 0.012087876250411286 0.012324337666522512 0.012147369833546686 0.011923981001238256
leaf_weight=4.1889390796422949 3.8877276480197933 3.1288073956966427 2.6766878068447175 2.7237655669450804 6.2560382038354856 5.4152951836585999 3.3036276400089255 2.8346501439809799 3.7293854057788831 3.2086927294731131 3.4722005128860474 4.0650866329669952 4.2836031913757289 3.3252076804637909 3.1171057373285294 2.8291170150041598 3.1577722877264023 3.0233868360519409 3.3632418662309647
leaf_count=24 25 20 20 20 37 35 22 21 26 20 22 27 30 23 21 20 21 21 25
internal_value=0 0.000833864 -0.00208442 0.00453393 -0.00778122 -0.0128884 0.00287168 0.00221421 0.00514663 0.00680595 0.00166427 -0.00221368 0.00818105 0.00565437 0.00273058 0.0104256 0.0121088 0.0120298 0.0119989
internal_weight=0 67.8014 37.9052 29.8962 17.6348 11.6713 20.2704 5.96346 16.9667 26.0085 11.2667 7.53729 22.7998 10.7259 7.40071 12.0739 9.35013 5.70007 6.19236
internal_count=480 456 251 205 113 72 138 41 116 180 75 49 160 74 51 86 66 41 45
is_linear=0
shrinkage=0.01


Tree=24
num_leaves=21
num_cat=0
split_feature=11 9 10 9 7 3 0 0 11 10 11 11 0 10 9 11 3 11 1 0
split_gain=21.7412 14.1382 10.3271 8.69288 8.47274 11.4557 6.66474 6.09462 3.08534 5.89175 5.41339 3.61237 1.8515 1.71832 0.808827 0.240794 0.000650771 0.000349015 9.09172e-05 3.13044e-05
threshold=0.0050756385607390918 22.234589867444594 -0.35502783896530593 85.705938236407277 0.21452789834951044 0.00037218421173229604 0.8238470071941153 0.80658194391661764 0.0079310018498782303 0.30607812420199348 0.0066365156273325218 0.0057320765652082968 0.81548231061812093 0.26878315393151969 46.989367396561896 0.0057320765652082968 9.0530992300497118e-05 0.0097844681787244443 0.00017034652606789938 0.80585153761149619
decision_type=2 2 2 2 2 2 2 2 2 2 2 2 2 2 2 2 2 2 2 2
left_child=1 -1 -3 7 5 -2 8 -4 9 10 11 -6 17 -8 -13 -11 -17 -10 19 -19
right_child=4 2 3 -5 6 -7 13 -9 12 15 -12 14 -14 -15 -16 16 -18 18 -20 -21
leaf_value=0.0074757096247515609 -0.020125284069897911 -0.025692891382146945 -0.0049383938751433199 0.0033174279524350882 -0.0043757479485212825 0.0063103259695855216 0.00061845520453030292 -0.023408773950515573 0.011959165337041331 0.0083985915520080716 -0.010474714114234609 0.012081474725354256 0.0036043152209413831 -0.0095936760842738073 0.0052251155959523168 0.011880131097198135 0.012092446373650685 0.011791843111765371 0.011877618855180398 0.011837271325852439
leaf_weight=4.2428069859743145 3.3433203995227805 4.6066855788230958 3.3822442293167061 4.2788620740175247 3.5879430323839205 3.216102734208107 3.4322664439678183 3.7864132076501846 2.8640892207622519 2.770180016756056 3.5026782602071753 2.818956583738327 3.4970872104167929 3.1689226031303406 4.4156548380851746 2.9262414127588272 2.8494297713041306 3.6050741523504239 3.0479225516319275 2.6187768429517746
leaf_count=29 20 25 20 26 24 20 23 20 21 20 23 20 24 20 32 22 20 28 23 20
internal_value=0 -0.00875914 -0.0130497 -0.00796184 0.00345546 -0.00716383 0.00499977 -0.0146943 0.00659138 0.00425106 0.000330883 0.00382807 0.0100153 -0.00428391 0.00789669 0.0108224 0.0119849 0.0118627 0.0118329 0.011811
internal_weight=0 20.297 16.0542 11.4475 51.6646 6.55942 45.1052 7.16866 38.504 22.8711 14.3252 10.8226 15.6329 6.60119 7.23461 8.54585 5.77567 12.1359 9.27177 6.22385
internal_count=480 120 91 66 360 40 320 40 277 161 99 76 116 43 52 62 42 92 71 48
is_linear=0
shrinkage=0.01


Tree=25
num_leaves=20
num_cat=0
split_feature=11 9 10 8 9 0 0 11 10 6 0 0 10 0 8 0 11 1 9
split_gain=21.2614 13.759 9.88713 9.69696 8.4385 6.64505 5.85454 3.16974 5.83419 6.99066 10.6378 1.86264 1.67067 1.30177 0.244612 0.000336247 0.000311026 0.00014363 4.91895e-05
threshold=0.0050756385607390918 22.234589867444594 -0.35502783896530593 0.78003320796601827 85.705938236407277 0.8238470071941153 0.80658194391661764 0.0079310018498782303 0.30607812420199348 -0.0008433035830812673 0.80441479414314931 0.81548231061812093 0.26878315393151969 0.81649305339995804 0.80250283983683735 0.81151276505591319 0.0097844681787244443 0.00022851846159921421 75.886965614373509
decision_type=2 2 2 2 2 2 2 2 2 2 2 2 2 2 2 2 2 2 2
left_child=1 -1 -3 -2 6 7 -4 8 9 10 -5 16 -7 -11 15 -10 -9 18 -18
right_child=3 2 4 5 -6 12 -8 11 14 13 -12 -13 -14 -15 -16 -17 17 -19 -20
leaf_value=0.0074367636373349408 -0.0083267723211501322 -0.025113562279942644 -0.0048753724985597813 0.0058757446842001024 0.0032906178904736089 0.00061251062213308379 -0.022917828280354088 0.011935915967944504 0.011891625740112086 0.0098636207179190662 -0.019555298488822533 0.0035765921488777083 -0.0094429569763427451 0.0013251379482170742 0.0083364462728717885 0.012044737084746474 0.011814257348791591 0.011875369117555467 0.011759277607019747
leaf_weight=4.2224782854318645 6.1749803721904746 4.665523409843451 3.3916574120521492 3.1884149014949763 4.2706277072429657 3.4309276342391959 3.8286346048116684 2.8410866558551779 2.9374046027660352 4.93682505190373 3.3975617736577988 3.4889928549528113 3.1872138530015945 2.7972768396139145 2.7437481433153152 2.802987813949585 3.8939867168664914 2.9171137809753418 2.7955683395266533
leaf_count=29 37 25 20 22 26 23 20 21 22 37 20 24 20 20 20 20 30 22 22
internal_value=0 -0.00863603 -0.0128366 0.00342992 -0.00785199 0.00503042 -0.0144426 0.00661239 0.00422118 0.000327912 -0.00724358 0.010034 -0.00423008 0.00677541 0.0107925 0.0119664 0.011844 0.0118168 0.0117913
internal_weight=0 20.3789 16.1564 51.5341 11.4909 45.3591 7.22029 38.741 22.8042 14.3201 6.58598 15.9367 6.61814 7.7341 8.48414 5.74039 12.4478 9.60667 6.68956
internal_count=480 120 91 360 66 323 40 280 161 99 42 119 43 57 62 42 95 74 52
is_linear=0
shrinkage=0.01


Tree=26
num_leaves=18
num_cat=0
split_feature=11 9 9 0 8 0 11 10 10 7 10 0 9 8 11 5 7
split_gain=20.7953 13.3936 9.5966 14.7104 9.50964 6.54729 3.15239 4.37387 2.57193 2.66632 1.62461 1.39216 1.04745 0.897648 0.000363571 0.000299257 0.000192334
threshold=0.0050756385607390918 22.234589867444594 84.226028829333671 0.8083471924986344 0.78003320796601827 0.8238470071941153 0.009104472688100081 0.19575426829621778 -0.38471262468139139 0.72251746531495709 0.26878315393151969 0.80851400748428637 85.144972593670957 0.80212090893000243 0.010644385965953761 8.0399884937076851e-05 0.65801857380441997
decision_type=2 2 2 2 2 2 2 2 2 2 2 2 2 2 2 2 2
left_child=1 -1 3 -3 -2 6 7 8 9 11 -7 -6 14 16 -8 -16 -9
right_child=4 2 -4 -5 5 10 12 13 -10 -11 -12 -13 -14 -15 15 -17 -18
leaf_value=0.0073979549663245646 -0.0082041914543899246 -0.0075642544602522342 -0.0030247455979953005 -0.032012062657969909 0.0026476758490247055 0.00060662105035098153 0.011937171477564425 0.011856027459230192 -0.0054410085924006483 -0.0039756858168180547 -0.0092957180051927626 0.011971806703778579 0.0050599386308450966 0.0061448850105350773 0.011745417685752425 0.011868635586328898 0.011971451235642777
leaf_weight=4.202284142374995 6.2044204324483863 5.3667021691799182 6.342978671193122 4.5460145175457001 3.1510129123926109 3.4296018630266181 2.9731938093900663 2.8989681452512723 4.5295249968767228 3.0481709241867065 3.2052290439605713 3.2558956742286682 2.8806257024407378 5.0621348768472672 3.9180675595998764 3.9664029255509377 2.8757594227790833
leaf_count=29 37 31 38 22 22 23 22 22 31 20 20 24 21 36 31 30 21
internal_value=0 -0.00851599 -0.0126299 -0.0187761 0.00340488 0.0049986 0.00657743 0.00445024 0.000754977 0.00372321 -0.00417711 0.00738606 0.0104207 0.00921886 0.0118429 0.0118074 0.0119135
internal_weight=0 20.458 16.2557 9.91272 51.399 45.1946 38.5598 24.8215 13.9846 9.45508 6.63483 6.40691 13.7383 10.8369 10.8577 7.88447 5.77473
internal_count=480 120 91 53 360 323 280 176 97 66 43 46 104 79 83 61 43
is_linear=0
shrinkage=0.01


Tree=27
num_leaves=19
num_cat=0
split_feature=11 9 9 0 7 3 0 11 11 11 7 0 5 7 7 11 1 5
split_gain=20.3437 13.0448 9.26772 14.0944 8.03711 11.1272 6.37347 3.04022 4.50774 2.80128 3.71696 1.8531 1.36158 0.827945 0.000675776 0.000333853 0.00012091 3.91245e-05
threshold=0.0050756385607390918 22.234589867444594 84.226028829333671 0.8083471924986344 0.21452789834951044 0.00037218421173229604 0.8238470071941153 0.0079310018498782303 0.0066365156273325218 0.0057320765652082968 0.70807684681140248 0.81548231061812093 -0.00031362589877548247 1.5880695671409106 0.71015990187247768 0.0097844681787244443 0.00017034652606789938 -2.1907629256578961e-05
decision_type=2 2 2 2 2 2 2 2 2 2 2 2 2 2 2 2 2 2
left_child=1 -1 3 -3 5 -2 7 8 9 10 -6 15 -11 -8 -14 -9 17 -17
right_child=4 2 -4 -5 6 -7 13 11 -10 12 -12 -13 14 -15 -16 16 -18 -19
leaf_value=0.0073592812815709563 -0.019543838456653684 -0.0074575449271307393 -0.0029893082657885127 -0.031281592687138232 0.0087232159345856861 0.0063739744757183164 -0.0074753422941695683 0.011899510559113216 -0.0044793338414927794 0.0047891390889727731 -0.0066239087524269293 0.0034904762237047849 0.011839440000499888 -0.00040957471842584139 0.012030794620353892 0.011727375529523132 0.011826745576999411 0.011778770292755225
leaf_weight=4.1822247058153179 3.3940190374851218 5.3889462947845477 6.3539353162050238 4.6053442060947418 3.1784274727106157 3.2357148975133896 3.4974650591611853 2.8045028150081626 4.7689280658960334 4.1420386806130409 3.1342673748731613 3.4636954367160788 3.4006374776363355 3.153796598315239 4.0357990562915802 3.5137468203902227 2.9872280284762383 2.5605855733156204
leaf_count=29 20 31 38 22 24 20 22 21 32 30 20 24 26 21 29 28 23 20
internal_value=0 -0.00840052 -0.0124322 -0.0184356 0.00337951 -0.00689436 0.0049053 0.00648633 0.00415955 0.00646226 0.00110333 0.00992572 0.00938399 -0.004125 0.0119433 0.0118042 0.0117747 0.011749
internal_weight=0 20.5305 16.3482 9.99429 51.2709 6.62973 44.6411 37.9899 22.6601 17.8912 6.31269 15.3298 11.5785 6.65126 7.43644 11.8661 9.06156 6.07433
internal_count=480 120 91 53 360 40 320 277 161 129 44 116 85 43 55 92 71 48
is_linear=0
shrinkage=0.01


Tree=28
num_leaves=18
num_cat=0
split_feature=9 9 8 4 0 3 8 0 5 6 8 3 6 10 8 5 3
split_gain=7.34444 9.81848 8.55677 6.77692 14.1172 8.16662 5.04904 8.12518 4.00902 1.91069 3.19477 3.24481 0.963134 0.693962 0.262349 0.230205 0.00328028
threshold=31.512660877923263 49.070014243570171 0.8097928685541198 -3.9722995674729138e-05 0.80755800535843691 0.00053205292865748943 0.80172285630690332 0.80843411388350017 0.00092728284519771897 0.010401599503684468 0.79494703189136084 0.00034074697699282291 -0.0034169842419841108 0.046676551557964435 0.80092717873861174 9.9124974441089378e-05 8.1929968649863141e-05
decision_type=2 2 2 2 2 2 2 2 2 2 2 2 2 2 2 2 2
left_child=6 -2 3 4 12 9 16 13 -7 10 -5 14 -3 -8 -12 -11 -1
right_child=1 2 -4 5 -6 8 7 -9 -10 15 11 -13 -14 -15 -16 -17 -18
leaf_value=0.011891136420466004 -0.013347138762942679 0.0089644587392980202 -0.012326911064114097 -0.002245177582439343 -0.015648801042452781 0.002369828555596865 0.012062971657431561 -0.0098394994199210214 -0.013421322276181841 0.00852652556984714 0.0083424249024553251 -0.0015270060191206302 0.0015483783371722244 0.0051379630163510747 0.012119302337901131 0.012142279495337392 0.012323205426607855
leaf_weight=4.2528568878769901 6.46605360507965 3.2871518805623055 5.2103582248091689 4.685730926692492 6.2393023073673248 3.0144942402839652 2.9395831003785116 4.0289437621831894 3.4450908452272415 2.8039773553609839 2.7971200123429281 2.8750717937946311 3.7478485479950887 2.850153349339962 5.3699162825942039 4.7330935224890709 2.9942607954144478
leaf_count=32 39 24 33 30 37 20 21 26 21 20 21 19 26 20 38 33 20
internal_value=0 -0.00177611 -0.000224145 0.0012424 -0.00469832 0.0038954 0.00573847 0.00106545 -0.00605207 0.00665735 0.00467349 0.00760943 0.00501359 0.00865395 0.0108258 0.0107971 0.0120697
internal_weight=0 54.6752 48.2092 42.9988 13.2743 29.7245 17.0658 9.81868 6.45959 23.2649 15.7278 11.0421 7.035 5.78974 8.16704 7.53707 7.24712
internal_count=480 361 322 289 87 202 119 67 41 161 108 78 50 41 59 53 52
is_linear=0
shrinkage=0.01


Tree=29
num_leaves=20
num_cat=0
split_feature=11 9 8 10 9 0 0 11 10 6 0 0 10 0 11 0 11 1 9
split_gain=19.7629 12.481 9.2194 9.199 7.71878 6.34163 5.14432 3.12321 5.7455 6.75385 10.1819 1.85496 1.5717 1.29956 0.245555 0.00034843 0.000317017 0.000182811 5.33538e-05
threshold=0.0050756385607390918 22.234589867444594 0.78003320796601827 -0.35502783896530593 85.705938236407277 0.8238470071941153 0.80658194391661764 0.0079310018498782303 0.30607812420199348 -0.0008433035830812673 0.80441479414314931 0.81548231061812093 0.26878315393151969 0.81649305339995804 0.0057320765652082968 0.80912179688808805 0.0097844681787244443 0.00022851846159921421 75.886965614373509
decision_type=2 2 2 2 2 2 2 2 2 2 2 2 2 2 2 2 2 2 2
left_child=1 -1 -2 -3 6 7 -5 8 9 10 -4 16 -7 -11 -10 -16 -9 18 -18
right_child=2 3 5 4 -6 12 -8 11 14 13 -12 -13 -14 -15 15 -17 17 -19 -20
leaf_value=0.0072745250170442042 -0.0080418566426804818 -0.02381256597065087 0.0058118627401643587 -0.0045864027797405879 0.0033254200718234378 0.0006413154541264998 -0.021302652193132363 0.011876062027078004 0.008244744975414978 0.0097908319064136367 -0.019030539281301773 0.0034831731238236536 -0.0090729090372269443 0.0012115499994961925 0.011826230666804178 0.011984046383077556 0.011749417662699746 0.011821161148228993 0.011691371432396536
leaf_weight=4.1377664506435421 6.2403386086225501 4.7961298227310243 3.1662710458040202 3.435066074132914 4.2800302058458328 3.4364646673202506 3.9671199768781662 2.7793043851852408 2.7052701190114004 4.8605199754238182 3.4448567628860474 3.4605303555726996 3.2319551408290863 2.7728546410799026 2.6057561710476875 3.0208220332860947 3.7942878752946836 2.8552416265010834 2.7176932767033577
leaf_count=29 37 25 22 20 26 23 20 21 20 37 20 24 20 20 20 22 30 22 22
internal_value=0 -0.00825276 0.00334648 -0.0121517 -0.00736435 0.00493096 -0.0135453 0.00650235 0.00412443 0.000266239 -0.00713275 0.00994213 -0.00406684 0.00667437 0.0107206 0.011911 0.0117823 0.0117544 0.0117252
internal_weight=0 20.6161 51.0922 16.4783 11.6822 44.8518 7.40219 38.1834 22.5764 14.2445 6.61113 15.6071 6.66842 7.63337 8.33185 5.62658 12.1465 9.36722 6.51198
internal_count=480 120 360 91 66 323 40 280 161 99 42 119 43 57 62 42 95 74 52
is_linear=0
shrinkage=0.01


Tree=30
num_leaves=18
num_cat=0
split_feature=11 5 8 2 3 11 8 6 6 2 4 2 4 3 1 5 4
split_gain=19.337 10.7491 9.04241 6.10566 5.64483 4.96475 6.73256 7.7401 7.34548 2.02567 1.68638 1.64182 0.303097 0.000992126 0.000915178 0.000144343 4.73409e-05
threshold=0.0050756385607390918 0.00043566958019719554 0.78003320796601827 -0.00022686591062914815 0.00054372795263485385 0.010124824619539672 0.80994071061615347 -0.0008433035830812673 -0.0039146308336677196 0.00038377114624743586 -0.00014663082050514473 6.4590958658516953e-05 -0.00029922964797668422 0.00015471811762446388 0.0001331528455004172 0.00039583654822494824 0.00010103877955186526
decision_type=2 2 2 2 2 2 2 2 2 2 2 2 2 2 2 2 2
left_child=1 3 -2 -1 5 6 7 8 -4 12 -5 -12 -9 16 15 -7 -14
right_child=2 -3 4 10 -6 14 -8 9 -10 -11 11 -13 13 -15 -16 -17 -18
leaf_value=-0.014211725953125134 -0.007925246191558509 -0.018359804553608191 0.0074622036952996223 0.0065860608229798712 -0.0058601916673348912 0.011681166814913784 -0.0099683086035581309 0.0081512295744865793 -0.010471538347429173 0.0020235275103301447 -0.006681349959790606 0.0032071090283345444 0.011806517680551104 0.011969171332938127 0.011904400626760259 0.011777665786456074 0.011751461072068273
leaf_weight=3.620429366827012 6.2686922252178183 6.8742974996566764 4.4026719778776169 3.4552085995674133 4.3960024118423453 3.9387408494949323 3.1185547709465018 2.726198315620425 4.7458241134881991 2.9444238245487204 3.552040621638298 3.184304878115654 3.366302318871023 5.056917779147625 4.5240730121731758 2.5559393689036369 2.9134412705898285
leaf_count=20 37 36 32 23 29 32 20 21 29 20 21 20 26 37 34 20 23
internal_value=0 -0.00814197 0.00332207 -0.0030565 0.00489978 0.00607369 0.00392014 0.00557606 -0.00184101 0.00956582 0.00090626 -0.00200702 0.011145 0.0118649 0.0117952 0.0117191 0.011781
internal_weight=0 20.6863 50.9578 13.812 44.6891 40.2931 29.2743 26.1558 9.1485 17.0073 10.1916 6.73635 14.0629 11.3367 11.0188 6.49468 6.27974
internal_count=480 120 360 84 323 294 208 188 61 127 64 41 107 86 86 52 49
is_linear=0
shrinkage=0.01


Tree=31
num_leaves=17
num_cat=0
split_feature=11 9 8 9 0 0 6 11 8 0 8 11 5 11 5 8
split_gain=18.9159 12.0077 8.86903 8.59416 13.016 6.28347 3.28275 5.03013 8.26969 5.00946 3.04146 2.96887 1.12597 0.000842483 0.000204655 0.000205131
threshold=0.0050756385607390918 22.234589867444594 0.78003320796601827 84.226028829333671 0.8083471924986344 0.81859209479957207 0.0049490094721550424 0.0071717888813367268 0.80216183054892809 0.80755800535843691 0.80905420707697007 0.0064430197858312607 -0.00079695526628936742 0.0097844681787244443 0.00043566958019719554 0.79992465431008819
decision_type=2 2 2 2 2 2 2 2 2 2 2 2 2 2 2 2
left_child=1 -1 -2 4 -3 6 7 8 9 -4 11 -7 -9 -14 15 -8
right_child=2 3 5 -5 -6 10 14 12 -10 -11 -12 -13 13 -15 -16 -17
leaf_value=0.007248274877290648 -0.0078110112063675668 -0.0070159125889428797 0.0022234121371027733 -0.0027508961106905015 -0.029647889155780621 -0.0042686673946711121 0.011723758524054211 0.004254359648702472 0.011982041860424378 -0.013808691729962949 -0.009879576968053529 0.0075384160613940765 0.011916141219360613 0.01170992145380978 0.011869049554250411 0.011829238275690665
leaf_weight=4.1227565258741405 6.2966257929801932 5.4790128022432345 4.0240744128823298 6.4229790270328513 4.7392320483922958 4.246805012226103 4.5077397599816305 2.6195822954177812 4.1122138947248459 3.7795502617955208 3.1265516728162757 4.2718206793069839 3.4780153557658213 4.6028514206409454 2.6402926594018936 3.1196930930018425
leaf_count=29 37 31 28 38 22 29 36 20 30 24 20 29 26 37 20 24
internal_value=0 -0.00802999 0.00329771 -0.0118151 -0.0175126 0.00486854 0.00710395 0.00497506 0.000505986 -0.00554146 -0.0014439 0.00165221 0.00995175 0.0117987 0.0117932 0.0117669
internal_weight=0 20.764 50.8258 16.6412 10.2182 44.5292 32.884 22.6163 11.9158 7.80362 11.6452 8.51863 10.7004 8.08087 10.2677 7.62743
internal_count=480 120 360 91 53 323 245 165 82 52 78 58 83 63 80 60
is_linear=0
shrinkage=0.01


Tree=32
num_leaves=17
num_cat=0
split_feature=11 5 8 2 11 3 8 6 10 2 11 11 6 7 2 2
split_gain=18.514 10.2962 8.69907 5.89369 5.59459 7.43389 5.73725 7.29088 8.40164 2.08731 1.51679 0.29328 0.0013501 0.00133091 0.000173583 0.000101854
threshold=0.0050756385607390918 0.00043566958019719554 0.78003320796601827 -0.00022686591062914815 0.011344980376639757 0.00054372795263485385 0.80994071061615347 -0.0008433035830812673 0.10848260708882089 0.00038377114624743586 0.0045569310065650967 0.0057797802607319889 0.0052742156793610948 0.73003269998754627 5.0443651194720391e-05 0.00018700735661564274
decision_type=2 2 2 2 2 2 2 2 2 2 2 2 2 2 2 2
left_child=1 3 -2 -1 5 6 7 8 -4 11 -5 -9 -6 14 -13 -16
right_child=2 -3 4 10 12 -7 -8 9 -10 -11 -12 13 -14 -15 15 -17
leaf_value=-0.013836645779226515 -0.0076990797537187239 -0.017850657415677377 -0.0091168273880383958 0.0042513762988750673 0.011668236373007517 -0.010993655789659017 -0.0075296159440798498 0.0082698014232649754 0.0095765089610775241 0.0019854013839760137 -0.0035533148176316786 0.01181436451136233 0.01191085058071361 0.011985873229863062 0.011681663944417863 0.011768646923098655
leaf_weight=3.65733626484871 6.3241463750600806 6.9595059156417838 5.5085861682891863 5.9008208066225052 4.5249622911214811 3.4160108268260947 3.5088537335395804 2.834785044193274 4.2664888873696327 2.9357131421566001 4.3080040216445923 3.6281324177980405 4.6514948755502701 3.7127690538763991 2.7096660807728767 2.6753465309739113
leaf_count=20 37 36 34 37 37 22 23 22 32 20 27 28 35 27 22 21
internal_value=0 -0.00792571 0.00327335 -0.00294432 0.00483718 0.00302411 0.00453085 0.00602771 -0.00095782 0.00971946 0.000957888 0.0111786 0.0117912 0.0118265 0.0117609 0.0117249
internal_weight=0 20.8257 50.697 13.8662 44.3728 35.1964 31.7803 28.2715 9.77508 18.4964 10.2088 15.5607 9.17646 12.7259 9.01315 5.38501
internal_count=480 120 360 84 323 251 229 206 66 140 64 120 72 98 71 43
is_linear=0
shrinkage=0.01


Tree=33
num_leaves=19
num_cat=0
split_feature=11 9 9 7 6 11 7 1 6 4 6 7 6 5 11 2 7 5
split_gain=18.1127 11.5929 8.28844 7.38986 11.0118 5.37882 4.50062 5.06635 4.39831 2.54117 3.24663 8.60576 4.08597 0.725891 0.513332 0.00151045 0.000312891 3.32365e-05
threshold=0.0050756385607390918 22.234589867444594 84.226028829333671 0.21452789834951044 0.013685303369991632 0.011344980376639757 1.3807179292583049 0.00016645614520655053 -0.0019209851600899273 0.00063644472655638451 -0.0008433035830812673 0.7246844540096683 -0.0037635250041235242 -0.00078003757150091324 0.0059485738499557581 0.00022151979169998673 0.65443249632861 -0.00024103804526298675
decision_type=2 2 2 2 2 2 2 2 2 2 2 2 2 2 2 2 2 2
left_child=1 -1 8 4 -2 6 9 -8 -3 10 11 12 -5 -12 -15 17 -16 -7
right_child=3 2 -4 5 -6 15 7 -9 -10 -11 13 -13 -14 14 16 -17 -18 -19
leaf_value=0.0072307485502945221 -0.019029157242390061 -0.0089765413483351587 -0.0026203534570055287 0.0026596559061753356 0.006560623998255407 0.011631617783830794 0.0053223001129080018 -0.012412066231644391 -0.022328618466994982 -0.0038302931305698217 0.0042159168941252913 0.011985580888119851 -0.013064752871017323 0.0074528210560999841 0.011692082067069743 0.011923011966765875 0.011831178513089654 0.01168388469066352
leaf_weight=4.1121915429830578 3.4366283267736426 4.074710905551914 6.4615221768617621 3.148100234568119 3.2928601652383804 2.4060491397976875 2.9093675985932341 3.6093194633722305 6.2532396614551526 3.1052357256412497 2.6154820919036856 4.8025514930486679 3.4784529209136981 4.5599963665008563 2.5962653458118439 3.8558203130960464 4.2884007915854454 2.4611279889941198
leaf_count=29 20 23 38 22 20 20 20 23 30 21 20 35 21 35 21 29 33 20
internal_value=0 -0.00781757 -0.0115033 0.00324937 -0.00650762 0.00474721 0.00300128 -0.00449701 -0.0170608 0.00471067 0.00575118 0.00179271 -0.0055945 0.0089689 0.0100551 0.0117752 0.0117787 0.011658
internal_weight=0 20.9017 16.7895 50.5657 6.72949 43.8362 35.1132 6.51869 10.328 28.5945 25.4892 11.4291 6.62655 14.0601 11.4447 8.723 6.88467 4.86718
internal_count=480 120 91 360 40 320 251 43 53 208 187 78 43 109 89 69 54 40
is_linear=0
shrinkage=0.01


Tree=34
num_leaves=18
num_cat=0
split_feature=11 5 8 0 3 2 0 6 6 11 10 8 6 11 5 8 5
split_gain=17.728 9.8464 8.42708 6.14344 6.20452 5.69041 4.6458 3.85933 3.27311 4.92741 8.48623 7.80993 1.14087 0.00188523 0.000248316 0.000233882 2.80478e-05
threshold=0.0050756385607390918 0.00043566958019719554 0.78003320796601827 0.81859209479957207 0.00050813919764197701 -0.00022686591062914815 0.8083471924986344 0.011467854197469486 0.0049490094721550424 0.0071717888813367268 0.087782150950462587 0.80201860966487404 0.0013405965667652733 0.010644385965953761 0.00043566958019719554 0.79992465431008819 -0.00021550322945340647
decision_type=2 2 2 2 2 2 2 2 2 2 2 2 2 2 2 2 2
left_child=1 5 -2 8 7 -1 -7 -5 9 10 11 -4 13 -11 15 -10 -15
right_child=2 -3 3 4 -6 6 -8 -9 14 12 -12 -13 -14 16 -16 -17 -18
leaf_value=-0.013479587463982375 -0.0075321123817947899 -0.017348715286428527 -0.018073754255027011 -0.004168654794893715 -0.012295984387801587 0.0081628477635765691 -0.0053420234261639631 0.0097872035435992051 0.011671253107625342 0.011946886157298496 0.010011569535220102 0.0036053451217680737 0.0041009809822358089 0.011606442955806727 0.011831339278841233 0.011784999475093094 0.011654724443683899
leaf_weight=3.6932148039340982 6.363161474466323 7.0451416969299308 3.2601445540785807 3.6225174665451032 3.632034569978714 4.8041342794895172 5.4224351942539215 4.3742411360144615 4.4089924469590169 3.1047261953353864 5.2199112996459007 3.3893506675958633 2.5827947109937668 2.3816039636731103 2.6007009297609329 3.0638672634959221 2.4317135885357901
leaf_count=20 37 36 21 24 23 32 32 31 36 23 39 22 20 20 20 24 20
internal_value=0 -0.00771567 0.00322553 0.00477871 -0.00145749 -0.00284016 0.00100216 0.00346522 0.00701394 0.00488251 0.000468114 -0.00702358 0.00987223 0.0117548 0.0117472 0.0117179 0.0116308
internal_weight=0 20.9649 50.4358 44.0726 11.6288 13.9198 10.2266 7.99676 32.4438 22.3702 11.8694 6.6495 10.5008 7.91804 10.0736 7.47286 4.81332
internal_count=480 120 360 323 78 84 64 55 245 165 82 43 83 63 80 60 40
is_linear=0
shrinkage=0.01


Tree=35
num_leaves=20
num_cat=0
split_feature=11 9 10 8 9 0 0 11 10 6 6 0 10 8 6 10 6 8 11
split_gain=17.3479 11.1775 8.43513 8.26673 7.13737 6.06778 4.67979 3.04155 4.14085 5.33284 6.24427 2.71656 1.47245 0.899729 0.300008 0.237715 0.00123489 0.000582784 7.60185e-05
threshold=0.0050756385607390918 22.234589867444594 -0.35502783896530593 0.78003320796601827 85.705938236407277 0.8238470071941153 0.80658194391661764 0.010124824619539672 0.19575426829621778 -0.0008433035830812673 -0.0039146308336677196 0.81649305339995804 0.26878315393151969 0.80212090893000243 0.01526657879256388 -0.73205843241196533 0.0031512478632936274 0.79648507366419186 0.01538854150888232
decision_type=2 2 2 2 2 2 2 2 2 2 2 2 2 2 2 2 2 2 2
left_child=1 -1 -3 -2 6 7 -4 8 9 10 -5 15 -7 17 16 -11 18 -10 -9
right_child=3 2 4 5 -6 12 -8 14 13 11 -12 -13 -14 -15 -16 -17 -18 -19 -20
leaf_value=0.0072071419348080238 -0.0074257502456672297 -0.022153184999069039 -0.0040233644033593405 0.0052609588597213831 0.0035690675488249963 0.00055524932891383211 -0.019743213338984173 0.011665383618466094 0.01167613984606335 0.0077289585668692045 -0.014395706719211173 -0.0017212015191503045 -0.0088433773277768503 0.0060565273494205063 0.0077623313234397506 0.011778018824248447 0.011890484736895825 0.011874234668958386 0.011591998295380285
leaf_weight=4.0977165251970318 6.389626517891883 4.9674420207738939 3.517735809087748 2.8994442522525787 4.3492860645055771 3.4131601154804221 4.1022253930568695 2.8085252791643125 2.6998162791132909 2.5017425268888429 3.6511128544807407 2.9049995020031929 3.2580626606941223 5.0481699332594872 2.5043480992317191 3.4486961960792621 2.6406114026904106 3.3008649274706841 2.8378839790821075
leaf_count=29 37 25 20 20 26 23 20 23 22 20 21 21 20 37 20 27 20 25 24
internal_value=0 -0.00761292 -0.0111985 0.0032018 -0.00665216 0.00474802 -0.0124862 0.00632113 0.00449601 0.00114553 -0.00569516 0.00620574 -0.00403481 0.00916775 0.0107954 0.0100757 0.011712 0.0117851 0.0116285
internal_weight=0 21.0344 16.9367 50.3071 11.9692 43.9174 7.61996 37.2462 26.4548 15.406 6.55056 8.85544 6.67122 11.0489 10.7914 5.95044 8.28702 6.00068 5.64641
internal_count=480 120 91 360 66 323 40 280 193 109 41 68 43 84 87 47 67 47 47
is_linear=0
shrinkage=0.01


Tree=36
num_leaves=18
num_cat=0
split_feature=11 8 0 8 6 0 3 4 8 6 6 6 4 8 11 10 11
split_gain=16.9823 8.10993 7.31917 12.1625 7.35231 6.01842 6.06393 4.78658 3.808 3.25874 4.84067 6.96574 3.54943 1.14679 0.00276235 0.000223196 0.000179844
threshold=0.0050756385607390918 0.78003320796601827 0.8083471924986344 0.8097069940991457 0.005103753966327119 0.81859209479957207 0.00050813919764197701 0.00010103877955186526 0.8014358006858544 0.0049490094721550424 -0.0039146308336677196 -0.0019209851600899273 -8.8673150727358583e-05 0.80195153692756205 0.010124824619539672 -0.4649296609270363 0.0064022949582845197
decision_type=2 2 2 2 2 2 2 2 2 2 2 2 2 2 2 2 2
left_child=2 -2 3 8 -4 9 7 -7 -1 10 13 -12 -13 -3 -15 -11 -17
right_child=1 5 4 -5 -6 6 -8 -9 -10 15 11 12 -14 14 -16 16 -18
leaf_value=-0.002209646796500785 -0.0073214619352746117 0.004102305681300069 -0.019614335346478155 -0.016604897576139317 -0.0016362210675564856 -0.0057764520709324332 -0.012112863419345024 0.0099506750452339164 0.012392689124509651 0.011652525717397666 -0.0092553981203973932 -0.0025786738244574993 0.011762255652103844 0.011982733875296508 0.011602053974762477 0.011686595365814097 0.011796881562454826
leaf_weight=3.2772294431924838 6.4157027751207343 2.5841871574521029 6.7940434664487821 3.677200123667717 3.4197504222393036 3.301790423691271 3.6547503918409348 4.6756125539541245 3.9244656711816788 3.8884783387184143 4.5419399142265275 2.7348045259714082 4.6779990568757182 4.1005548760294914 3.5619392767548561 2.5856242850422841 3.4535452723503113
leaf_count=19 37 20 35 20 20 22 23 33 26 32 28 20 37 30 30 21 27
internal_value=0 0.00317829 -0.00751552 -0.00180775 -0.013595 0.00471763 -0.0014457 0.00344133 0.0057477 0.00694903 0.00481937 0.000496388 0.00647146 0.00986298 0.0118058 0.0117116 0.0117497
internal_weight=0 50.1769 21.0927 10.8789 10.2138 43.7612 11.6322 7.9774 7.2017 32.1291 22.2014 11.9547 7.4128 10.2467 7.66249 9.92765 6.03917
internal_count=480 360 120 65 55 323 78 55 45 245 165 85 57 80 60 80 48
is_linear=0
shrinkage=0.01


end of trees

feature_importances:
ATR=99
price_close=90
divergence=69
VWAP=67
MFI=53
OBV=51
diff_MA_50=50
diff_MA_30=48
diff_MA_9=46
Volume_Oscillator=42
diff_MA_100=19
diff_MA_20=19

parameters:
[boosting: gbdt]
[objective: binary]
[metric: binary_logloss]
[tree_learner: serial]
[device_type: cpu]
[data_sample_strategy: bagging]
[data: ]
[valid: ]
[num_iterations: 5000]
[learning_rate: 0.01]
[num_leaves: 31]
[num_threads: 4]
[seed: 0]
[deterministic: 0]
[force_col_wise: 0]
[force_row_wise: 0]
[histogram_pool_size: -1]
[max_depth: -1]
[min_data_in_leaf: 20]
[min_sum_hessian_in_leaf: 0.001]
[bagging_fraction: 0.6]
[pos_bagging_fraction: 1]
[neg_bagging_fraction: 1]
[bagging_freq: 0]
[bagging_seed: 3]
[feature_fraction: 0.7]
[feature_fraction_bynode: 1]
[feature_fraction_seed: 2]
[extra_trees: 0]
[extra_seed: 6]
[early_stopping_round: 0]
[first_metric_only: 0]
[max_delta_step: 0]
[lambda_l1: 0]
[lambda_l2: 0]
[linear_lambda: 0]
[min_gain_to_split: 0]
[drop_rate: 0.1]
[max_drop: 50]
[skip_drop: 0.5]
[xgboost_dart_mode: 0]
[uniform_drop: 0]
[drop_seed: 4]
[top_rate: 0.2]
[other_rate: 0.1]
[min_data_per_group: 100]
[max_cat_threshold: 32]
[cat_l2: 10]
[cat_smooth: 10]
[max_cat_to_onehot: 4]
[top_k: 20]
[monotone_constraints: ]
[monotone_constraints_method: basic]
[monotone_penalty: 0]
[feature_contri: ]
[forcedsplits_filename: ]
[refit_decay_rate: 0.9]
[cegb_tradeoff: 1]
[cegb_penalty_split: 0]
[cegb_penalty_feature_lazy: ]
[cegb_penalty_feature_coupled: ]
[path_smooth: 0]
[interaction_constraints: ]
[verbosity: 0]
[saved_feature_importance_type: 0]
[use_quantized_grad: 0]
[num_grad_quant_bins: 4]
[quant_train_renew_leaf: 0]
[stochastic_rounding: 1]
[linear_tree: 0]
[max_bin: 255]
[max_bin_by_feature: ]
[min_data_in_bin: 3]
[bin_construct_sample_cnt: 200000]
[data_random_seed: 1]
[is_enable_sparse: 1]
[enable_bundle: 1]
[use_missing: 1]
[zero_as_missing: 0]
[feature_pre_filter: 1]
[pre_partition: 0]
[two_round: 0]
[header: 0]
[label_column: ]
[weight_column: ]
[group_column: ]
[ignore_column: ]
[categorical_feature: ]
[forcedbins_filename: ]
[precise_float_parser: 0]
[parser_config_file: ]
[objective_seed: 5]
[num_class: 1]
[is_unbalance: 0]
[scale_pos_weight: 1]
[sigmoid: 1]
[boost_from_average: 1]
[reg_sqrt: 0]
[alpha: 0.9]
[fair_c: 1]
[poisson_max_delta_step: 0.7]
[tweedie_variance_power: 1.5]
[lambdarank_truncation_level: 30]
[lambdarank_norm: 1]
[label_gain: ]
[lambdarank_position_bias_regularization: 0]
[eval_at: ]
[multi_error_top_k: 1]
[auc_mu_weights: ]
[num_machines: 1]
[local_listen_port: 12400]
[time_out: 120]
[machine_list_filename: ]
[machines: ]
[gpu_platform_id: -1]
[gpu_device_id: -1]
[gpu_use_dp: 0]
[num_gpu: 1]

end of parameters

pandas_categorical:[]
