tree
version=v4
num_class=3
num_tree_per_iteration=3
label_index=0
max_feature_idx=6
objective=multiclass num_class:3
feature_names=price_close diff_MA_100 diff_price_close diff_MA_9 VWAP diff_divergence MFI
feature_infos=[2.0984825768275708:2.4364230942095486] [-0.0031507297856494532:0.0019390140689710123] [-0.12289718082659551:0.11340830548328462] [-0.016461643819176697:0.012212821242123972] [2.2583421553359679:2.3368148988560669] [-0.013310914033527244:0.013978668965309637] [0:100]
tree_sizes=1254 1245 1362 1292 1178 1286 1307 1079 1294 1389 1195 1416 1510 1272 1420 1398 1506 1395 1286 1384 1413 1400 1288 1297 1404 1074 1423 1515 1193 1297 1293 1180 1300 1414 1072 1403 1284 1298 1394 1307 1388 1290 1283 1297 1306 1400 1282 1287 1180 1293 1306 1180 1287 1395

Tree=0
num_leaves=11
num_cat=0
split_feature=1 1 6 6 5 3 6 6 6 5
split_gain=10.6301 17.5569 11.7095 11.2132 12.2707 6.85383 3.63763 2.93017 0.874902 0.945497
threshold=0.0010766484920803345 -0.00044798709738702586 84.929560607075956 25.34856488192133 -0.00028633435834124471 -0.0016664795201275504 99.635976909131713 52.038460523416887 8.3117318594810161 0.00099280793229850083
decision_type=2 2 2 2 2 2 2 2 2 2
left_child=1 3 8 -1 -5 -2 -4 -7 -3 -10
right_child=5 2 6 4 -6 7 -8 -9 9 -11
leaf_value=-1.0598241327008759 -1.0734550596281267 -1.079994639016538 -1.0667702066418974 -1.0794508022883491 -1.0662342584986186 -1.0667613413604433 -1.073974495678077 -1.0597122536681391 -1.0755785736934402 -1.0795114030677642
leaf_weight=12.836998939514158 10.134472846984862 21.620208740234375 14.188261985778809 10.810104370117189 19.593314170837402 15.539525032043459 13.512630462646484 10.472288608551024 18.917682647705082 11.147920131683348
leaf_count=38 30 64 42 32 58 46 40 31 56 33
internal_value=-1.07133 -1.07273 -1.07553 -1.06762 -1.07098 -1.06657 -1.07032 -1.06385 -1.07834 -1.07709
internal_weight=0 122.627 79.3867 43.2404 30.4034 36.1463 27.7009 26.0118 51.6858 30.0656
internal_count=470 363 235 128 90 107 82 77 153 89
is_linear=0
shrinkage=1


Tree=1
num_leaves=11
num_cat=0
split_feature=6 3 1 5 1 4 6 6 1 4
split_gain=19.4447 18.6869 5.41643 5.43455 5.19147 5.80857 6.48638 3.55944 3.18592 1.66071
threshold=60.305644232009392 -0.0015537325234027397 0.0010766484920803345 0.0019495496739729836 0.00014961535778668103 2.2930304192027213 99.570692652517906 11.588960013581714 0.00095538671798545149 2.3151479636196712
decision_type=2 2 2 2 2 2 2 2 2 2
left_child=1 8 3 7 9 -6 -7 -3 -1 -2
right_child=4 2 -4 -5 5 6 -8 -9 -10 -11
leaf_value=-1.1478961395303224 -1.1507891355698034 -1.1272340511583661 -1.1403028289960622 -1.1393707388526988 -1.1498017887356164 -1.1372265398611694 -1.1471010077080699 -1.1348074060220843 -1.1411593376584162 -1.1458065690554309
leaf_weight=17.926663011312488 19.882298976182941 13.689451754093172 16.296966373920441 11.081937134265898 10.43005847930908 16.948845028877258 10.755997806787493 13.36351242661476 11.081937134265898 11.733815789222716
leaf_count=55 61 42 50 34 32 52 33 41 34 36
internal_value=-1.1421 -1.13884 -1.13539 -1.13332 -1.14599 -1.14347 -1.1411 -1.1309 -1.14529 -1.14899
internal_weight=0 83.4405 54.4319 38.1349 69.751 38.1349 27.7048 27.053 29.0086 31.6161
internal_count=470 256 167 117 214 117 85 83 89 97
is_linear=0
shrinkage=1


Tree=2
num_leaves=12
num_cat=0
split_feature=3 6 6 5 3 1 1 5 5 1 1
split_gain=19.0119 14.9069 13.1869 8.25688 6.63505 4.9229 11.2868 1.81757 1.0081 0.527426 0.15158
threshold=-0.0017392213907720941 98.123872496123738 21.1845908555654 0.0019495496739729836 -0.0026528905191907089 -0.00056370275444761464 0.00064467999901385309 -0.00099032573344004482 0.00091107418630986825 0.00035436764365504031 0.00023512985550588897
decision_type=2 2 2 2 2 2 2 2 2 2 2
left_child=2 3 -1 7 -4 -5 -7 -2 9 -9 -3
right_child=1 10 4 5 -6 6 -8 8 -10 -11 -12
leaf_value=-1.0846397789995432 -1.0867212591848077 -1.077726406066742 -1.0683515880535901 -1.089107954150951 -1.0787461148119102 -1.0732606311556594 -1.0880031775847645 -1.0937621730594451 -1.0887398377676585 -1.0905580855619377 -1.0799055974034333
leaf_weight=18.467824310064316 14.102702200412748 10.409137338399889 12.423809081315996 10.74491596221924 13.095366328954695 10.073358714580538 10.409137338399885 14.102702200412752 15.781595319509504 15.445816695690153 12.759587705135344
leaf_count=55 42 31 37 32 39 30 31 42 47 46 38
internal_value=-1.08383 -1.08599 -1.07825 -1.08782 -1.07361 -1.08369 -1.08079 -1.09001 -1.091 -1.09215 -1.07886
internal_weight=0 113.829 43.987 90.6602 25.5192 31.2274 20.4825 59.4328 45.3301 29.5485 23.1687
internal_count=470 339 131 270 76 93 61 177 135 88 69
is_linear=0
shrinkage=1


Tree=3
num_leaves=11
num_cat=0
split_feature=1 1 6 6 5 3 6 6 6 5
split_gain=10.475 17.2647 11.5601 11.0028 12.0441 6.68676 3.58551 2.86755 0.865491 0.93411
threshold=0.0010766484920803345 -0.00044798709738702586 84.929560607075956 25.34856488192133 -0.00028633435834124471 -0.0016664795201275504 99.635976909131713 52.038460523416887 8.3117318594810161 0.00099280793229850083
decision_type=2 2 2 2 2 2 2 2 2 2
left_child=1 3 8 -1 -5 -2 -4 -7 -3 -10
right_child=5 2 6 4 -6 7 -8 -9 9 -11
leaf_value=0.011369845638700889 -0.0020916038651554929 -0.0086228806121007081 0.0045174453056585698 -0.0080794553186476405 0.0050223070898307584 0.0045171627393212135 -0.0026334702956887029 0.011481044958983187 -0.0042252801093742463 -0.0081408204232231683
leaf_weight=12.890066564083098 10.115517318248747 21.54393681883812 14.21076911687851 10.773779183626177 19.646951049566269 15.569746404886248 13.5032859146595 10.515725106000898 18.889493137598041 11.110952049493788
leaf_count=38 30 64 42 32 58 46 40 31 56 33
internal_value=0 -0.0013964 -0.00417487 0.00366305 0.000338165 0.00471876 0.00100037 0.0073958 -0.00697337 -0.00573089
internal_weight=0 122.569 79.2584 43.3108 30.4207 36.201 27.7141 26.0855 51.5444 30.0004
internal_count=470 363 235 128 90 107 82 77 153 89
is_linear=0
shrinkage=0.01


Tree=4
num_leaves=10
num_cat=0
split_feature=0 0 6 4 6 4 4 3 2
split_gain=27.9782 30.0755 9.13723 12.0002 7.59804 6.00496 9.49089 1.32148 0.354218
threshold=2.3091702347102694 2.3234412247835574 8.3117318594810161 2.3215849348678921 84.929560607075956 2.3194042547277469 2.3322926844715028 0.001850689672864281 0.0024826971501050736
decision_type=2 2 2 2 2 2 2 2 2
left_child=2 -2 -1 8 5 -3 -7 -6 -4
right_child=1 4 3 -5 7 6 -8 -9 -10
leaf_value=0.0015680764978905279 0.015248965892209969 0.0077254045269036379 -0.0094183550693108121 0.0022575097345590399 -0.0067445959259628974 -0.0068474337075497341 0.0062721930621440413 -0.0014552313317288939 -0.0066331178682029271
leaf_weight=19.249441027641296 18.645041167736053 16.999516695737839 33.817232936620712 12.363135010004042 10.420787632465364 10.757340013980867 11.096132665872572 9.7562259435653669 10.08260866999626
leaf_count=59 57 52 104 38 32 33 34 30 31
internal_value=0 0.00421113 -0.00433143 -0.00636679 0.000687951 0.0032855 -0.000142147 -0.00425613 -0.00881792
internal_weight=0 77.675 75.5124 56.263 59.03 38.853 21.8535 20.177 43.8998
internal_count=470 238 232 173 181 119 67 62 135
is_linear=0
shrinkage=0.01


Tree=5
num_leaves=11
num_cat=0
split_feature=0 4 6 0 2 1 0 4 6 4
split_gain=23.9846 17.3187 9.79167 8.54228 8.15185 2.73436 8.88722 10.4855 3.22656 3.89829
threshold=2.1900615506308392 2.2929094461457278 99.635976909131713 2.3829844398782734 -0.013966049386497257 0.00027761513977653257 2.3091702347102694 2.2973962085369517 74.646073124647174 2.2975971657779559
decision_type=2 2 2 2 2 2 2 2 2 2
left_child=-1 -2 3 4 -3 8 -7 -8 9 -6
right_child=1 2 -4 -5 5 6 7 -9 -10 -11
leaf_value=0.014576438757931187 0.010709349121391569 0.0066087650128767725 0.0056805850673452276 -0.009380513562585728 -0.00098805697518670739 0.0070377077252564103 -0.0076857421707925248 0.0035689214553118738 -0.00072399069320995459 -0.0086230520726311884
leaf_weight=10.435558676719664 11.436865568161009 10.083358287811278 14.47423481941223 17.758085608482361 10.050768196582792 10.415049791336058 21.795868724584579 13.093941301107405 16.134939759969711 22.13423889875412
leaf_count=31 34 30 43 53 30 31 65 39 48 66
internal_value=0 -0.0010414 -0.0020445 -0.00297718 -0.00186312 -0.00279229 -0.0009954 -0.00343522 -0.00445086 -0.00628021
internal_weight=0 147.377 135.94 121.466 103.708 93.6248 45.3049 34.8898 48.3199 32.185
internal_count=470 439 405 362 309 279 135 104 144 96
is_linear=0
shrinkage=0.01


Tree=6
num_leaves=11
num_cat=0
split_feature=4 3 1 5 1 5 3 4 4 3
split_gain=22.7022 15.4952 10.7065 8.29163 7.68827 11.8426 3.61944 3.40397 2.12469 1.26279
threshold=2.3175331785837483 0.00013865385590960957 -0.00043302773358067087 -0.0028748656893105014 0.0010394250333554125 0.00086227173912245558 0.00027373852250667246 2.2935749131182308 2.2966914422504883 0.0016602755847794361
decision_type=2 2 2 2 2 2 2 2 2 2
left_child=1 7 -3 -2 5 -4 -5 -1 -7 -8
right_child=3 2 4 6 -6 8 9 -9 -10 -11
leaf_value=-0.002343818790370834 -3.6276398561940778e-05 0.0095569889997535445 0.0050060029550911102 0.011768076339969043 0.0057400048846518049 -0.0093886361450517403 0.0024456901088908277 -0.0090938998670658331 -0.0034712330365807582 0.0075314844598524328
leaf_weight=10.449868857860563 19.911664992570877 10.529303073883055 11.134199291467665 14.929173767566679 11.199039667844771 16.82447519898415 10.184660226106645 31.641960293054581 10.767187893390654 11.190395802259443
leaf_count=31 59 31 33 44 33 50 30 94 32 33
internal_value=0 -0.0027992 0.000430339 0.00510202 -0.00148976 -0.00361568 0.00794004 -0.00745133 -0.00713645 0.00517747
internal_weight=0 102.546 60.4542 56.2159 49.9249 38.7259 36.3042 42.0918 27.5917 21.3751
internal_count=470 304 179 166 148 115 107 125 82 63
is_linear=0
shrinkage=0.01


Tree=7
num_leaves=9
num_cat=0
split_feature=0 0 6 4 6 1 3 1
split_gain=27.4925 29.3584 9.01765 11.871 7.44802 6.13532 6.43211 2.5613
threshold=2.3091702347102694 2.3234412247835574 8.3117318594810161 2.3215849348678921 84.929560607075956 0.0012374673310351361 -0.00065629721590254586 0.00065869306525856441
decision_type=2 2 2 2 2 2 2 2
left_child=2 -2 -1 -4 5 6 -3 -6
right_child=1 4 3 -5 7 -7 -8 -9
leaf_value=0.0015529051794908361 0.015028344745561651 -0.00079858822344594624 -0.0087785476689771543 0.0022378091876205292 -0.0076619031700969654 -0.0035211999776199048 0.0089677158269664166 -0.00042077946192256577
leaf_weight=19.263651877641678 18.766895174980164 10.115762352943422 43.714810192584991 12.374989688396452 10.387775659561159 9.780586361885069 19.029699146747589 9.7451471090316755
leaf_count=59 57 31 135 38 32 30 58 30
internal_value=0 0.004166 -0.00430257 -0.00633058 0.000677852 0.00324399 0.00555271 -0.00422573
internal_weight=0 77.8259 75.3535 56.0898 59.059 38.926 29.1455 20.1329
internal_count=470 238 232 173 181 119 89 62
is_linear=0
shrinkage=0.01


Tree=8
num_leaves=11
num_cat=0
split_feature=0 6 0 5 2 5 1 5 5 0
split_gain=23.449 14.12 10.9078 11.3088 7.49754 4.7 5.71812 4.89348 1.14817 0.808
threshold=2.1900615506308392 99.635976909131713 2.3829844398782734 -0.0037534632256370766 -0.0040591871575277319 0.0020806725891999727 0.0001269019233556268 -0.00062783587517611917 0.00091107418630986825 2.3121676226097083
decision_type=2 2 2 2 2 2 2 2 2 2
left_child=-1 2 3 -2 -5 7 -7 9 -9 -6
right_child=1 -3 -4 4 5 6 -8 8 -10 -11
leaf_value=0.014367844226506813 0.0075607518892348213 0.0075327632006806193 -0.0093577443272398527 0.0034156179417832422 0.00034772598447146107 -0.0041329060643829404 0.0055581637829659114 -0.0090099169187531011 -0.0047929921381101 -0.003394561771036907
leaf_weight=10.497239679098127 13.478828817605971 16.881435841321945 18.034320473670959 19.157393902540207 11.414592117071154 13.742248684167864 10.762085705995558 21.402580916881561 11.713812857866285 10.71875140070915
leaf_count=31 40 50 54 57 34 41 32 64 35 32
internal_value=0 -0.00103289 -0.00215416 -0.000982079 -0.00216279 -0.00351787 8.79738e-05 -0.00513247 -0.00756735 -0.00142673
internal_weight=0 147.306 130.425 112.39 98.9115 79.7541 24.5043 55.2497 33.1164 22.1333
internal_count=470 439 389 335 295 238 73 165 99 66
is_linear=0
shrinkage=0.01


Tree=9
num_leaves=12
num_cat=0
split_feature=0 1 0 6 1 6 4 6 0 4 1
split_gain=23.704 15.0468 21.9499 8.78282 9.00575 7.90469 6.13806 4.73178 3.5296 1.34508 0.843185
threshold=2.3853808946061368 -0.00044798709738702586 2.1923508959145814 88.312314325341845 0.0010275048494423624 25.34856488192133 2.294692720566283 99.635976909131713 2.2118118383790706 2.2971281882772607 0.00069825219694452667
decision_type=2 2 2 2 2 2 2 2 2 2 2
left_child=1 2 -1 4 9 -4 -6 -5 -7 10 -3
right_child=-2 3 5 7 6 8 -8 -9 -10 -11 -12
leaf_value=-0.0089509443596505339 0.011501054753087929 -0.0099638714839136219 0.014410252755230979 0.0067856885689901794 0.0053756820158265203 0.0077406062022997357 -0.0045251698543393492 -0.0020513159226862904 -0.00022477613660073787 -0.0050385818758318136 -0.006071086574892923
leaf_weight=10.423732340335844 16.005093961954117 23.112123847007751 11.255181819200514 10.509614109992981 10.836894810199739 11.582271963357927 14.518226265907286 13.806316554546356 10.15857347846031 16.137105524539948 10.40374445915222
leaf_count=31 47 69 33 31 32 34 43 41 30 48 31
internal_value=0 -0.0012965 0.00359735 -0.00344739 -0.00514219 0.00760674 -0.000249721 0.00173933 0.00398895 -0.0076149 -0.00880691
internal_weight=0 142.744 43.4198 99.324 75.0081 32.996 25.3551 24.3159 21.7408 49.653 33.5159
internal_count=470 423 128 295 223 97 75 72 64 148 100
is_linear=0
shrinkage=0.01


Tree=10
num_leaves=10
num_cat=0
split_feature=0 0 6 6 1 0 1 3 1
split_gain=27.0319 28.6375 8.91278 7.32975 7.22447 9.21641 6.04188 6.28594 2.54056
threshold=2.3091702347102694 2.3234412247835574 8.3117318594810161 84.929560607075956 -0.0012702851852217643 2.2014936806190364 0.0012374673310351361 -0.00065629721590254586 0.00065869306525856441
decision_type=2 2 2 2 2 2 2 2 2
left_child=2 -2 -1 6 5 -4 7 -3 -5
right_child=1 3 4 8 -6 -7 -8 -9 -10
leaf_value=0.0015420992561221037 0.014809173700047569 -0.00078692713505225224 -0.0077634762314865028 -0.0076304724239394245 -0.0090882221340057041 0.0054229831874078992 -0.003507153908094706 0.0088625411577915991 -0.00041238924860501677
leaf_weight=19.273668467998505 18.887852072715759 10.108873695135118 11.275824308395388 10.356223970651628 34.885113835334778 9.7646424770355207 9.7711892127990705 19.101844400167465 9.7403661012649518
leaf_count=59 57 31 35 32 108 30 30 58 30
internal_value=0 0.00412308 -0.0042749 0.000670509 -0.00629664 -0.00159978 0.00321181 0.00549777 -0.00420091
internal_weight=0 77.9663 75.1992 59.0785 55.9256 21.0405 38.9819 29.2107 20.0966
internal_count=470 238 232 181 173 65 119 89 62
is_linear=0
shrinkage=0.01


Tree=11
num_leaves=12
num_cat=0
split_feature=0 6 0 5 2 5 1 5 5 0 5
split_gain=22.8689 13.8244 10.7896 11.124 7.38649 4.76582 5.61592 4.59207 1.13723 1.13595 0.371619
threshold=2.1900615506308392 99.635976909131713 2.3829844398782734 -0.0037534632256370766 -0.0034694545118709725 0.0020806725891999727 0.0001269019233556268 -0.00062783587517611917 0.00091107418630986825 2.3121676226097083 -0.00090227808553589018
decision_type=2 2 2 2 2 2 2 2 2 2 2
left_child=-1 2 3 -2 10 7 -7 9 -9 -6 -5
right_child=1 -3 -4 4 5 6 -8 8 -10 -11 -12
leaf_value=0.01414114391754971 0.0074887083099399818 0.0074352604147178659 -0.0093161069744219088 0.0046275662093488096 0.00065078529091537271 -0.0041073717858396966 0.0054936535257704422 -0.0089629626849771667 -0.0047593662652872289 -0.0039149346799570283 0.0016713443361996573
leaf_weight=10.564055472612379 13.512947291135786 16.938876211643219 17.963330149650574 10.089976966381075 11.083684056997301 13.720254540443422 10.788199782371519 21.311438143253326 11.687952458858488 10.032905220985411 10.094855785369871
leaf_count=31 40 50 54 30 33 41 32 64 35 30 30
internal_value=0 -0.00102364 -0.00213594 -0.000971483 -0.00214499 -0.0035358 8.33483e-05 -0.00519044 -0.00752319 -0.00147957 0.00321392
internal_weight=0 147.224 130.286 112.322 98.8093 78.6244 24.5085 54.116 32.9994 21.1166 20.1848
internal_count=470 439 389 335 295 235 73 162 99 63 60
is_linear=0
shrinkage=0.01


Tree=12
num_leaves=13
num_cat=0
split_feature=0 1 0 6 1 6 6 5 5 0 5 5
split_gain=23.1765 14.8285 21.5556 8.6693 8.9295 7.75639 4.63622 4.23072 3.5144 1.14371 2.32028 0.357036
threshold=2.3853808946061368 -0.00044798709738702586 2.1923508959145814 88.312314325341845 0.0010275048494423624 25.34856488192133 99.635976909131713 -0.0020349989799508523 0.001385980805947318 2.3091702347102694 -0.00099032573344004482 -0.00042726599062725684
decision_type=2 2 2 2 2 2 2 2 2 2 2 2
left_child=1 2 -1 4 9 -4 -5 -6 -7 10 -3 -11
right_child=-2 3 5 6 7 8 -8 -9 -10 11 -12 -13
leaf_value=-0.0089025946108251385 0.011342638551785314 -0.0089032424524062223 0.014247741208048757 0.0067106772880689523 -0.0051397881719823426 -0.00025982100551598728 -0.0020317683613835856 0.0031245983064904764 0.0076818645555446884 -0.006872040081564116 -0.0019960167149185607 -0.0099168837809439428
leaf_weight=10.380006462335585 16.080908447504044 10.382109224796297 11.305486261844633 10.537315100431442 10.417675793170931 10.174038231372835 13.791714608669281 14.924986779689787 11.605417609214781 10.029308199882509 10.062623262405394 19.037344008684158
leaf_count=31 47 31 33 31 31 30 41 44 34 30 30 57
internal_value=0 -0.00128549 0.00356831 -0.00342409 -0.0051113 0.00752608 0.00172577 -0.00024021 0.00394206 -0.00757893 -0.00557854 -0.00892772
internal_weight=0 142.648 43.4649 99.1831 74.854 33.0849 24.329 25.3427 21.7795 49.5114 20.4447 29.0667
internal_count=470 423 128 295 223 97 72 75 64 148 61 87
is_linear=0
shrinkage=0.01


Tree=13
num_leaves=11
num_cat=0
split_feature=0 0 1 4 4 4 1 4 1 4
split_gain=26.559 27.9749 5.41687 8.648 11.8612 5.19503 7.29425 5.40794 4.32276 0.373496
threshold=2.3091702347102694 2.3234412247835574 0.00033562899461170309 2.3322926844715028 2.3194042547277469 2.2975971657779559 -0.00047978752572808142 2.3215849348678921 0.00087781795357111403 2.2930299174164945
decision_type=2 2 2 2 2 2 2 2 2 2
left_child=5 -2 -3 4 8 9 7 -7 -4 -1
right_child=1 2 3 -5 -6 6 -8 -9 -10 -11
leaf_value=-0.0094954912842971743 0.014602066517580111 -0.0058187012817161278 0 0.0094956078350192825 -0.0070325787382733568 -0.0080231793406975102 0.0049360098476197226 -0.00036939734885800795 0.0090147876542594572 -0.006491745726051718
leaf_weight=10.92474800348282 19.001755803823471 10.436034977436064 11.107190579175951 11.795055836439131 15.267982125282286 19.276969969272614 10.757896780967711 18.198824882507324 10.499240219593046 15.87857949733734
leaf_count=34 57 32 34 36 47 60 33 56 32 49
internal_value=0 0.00407893 0.000660022 0.00207882 -0.000285814 -0.00424616 -0.0022475 -0.00434387 0.00444609 -0.00778395
internal_weight=0 78.1073 59.1055 48.6695 36.8744 75.037 48.2337 37.4758 21.6064 26.8033
internal_count=470 238 181 149 113 232 149 116 66 83
is_linear=0
shrinkage=0.01


Tree=14
num_leaves=12
num_cat=0
split_feature=3 6 6 5 3 1 1 5 5 1 1
split_gain=18.0338 13.9071 12.4493 7.94891 6.13408 4.75749 10.7888 1.75445 1.00277 0.548356 0.132886
threshold=-0.0017392213907720941 98.123872496123738 21.1845908555654 0.0019495496739729836 -0.0026528905191907089 -0.00056370275444761464 0.00064467999901385309 -0.00099032573344004482 0.00091107418630986825 0.00035436764365504031 0.00023512985550588897
decision_type=2 2 2 2 2 2 2 2 2 2 2
left_child=2 3 -1 7 -4 -5 -7 -2 9 -9 -3
right_child=1 10 4 5 -6 6 -8 8 -10 -11 -12
leaf_value=-0.00081185937603389549 -0.0028248052556372983 0.0057995519004099784 0.014884907171990812 -0.0051978603742318273 0.0049370124740119531 0.010298428340430528 -0.0041005399185279458 -0.0098321834064685511 -0.0047823156621321188 -0.0065765915730278844 0.0037348594890864195
leaf_weight=18.465366631746292 14.04556569457054 10.526061356067659 12.62674328684807 10.684553354978563 13.166258156299589 10.159657180309297 10.358163088560103 13.960484445095064 15.646985679864882 15.268603563308714 12.856009751558302
leaf_count=55 42 31 37 32 39 30 31 42 47 46 38
internal_value=0 -0.00211125 0.00540731 -0.00389992 0.00988422 0.000150711 0.00299616 -0.00605852 -0.00703986 -0.00819385 0.00472766
internal_weight=0 113.506 44.2584 90.124 25.793 31.2024 20.5178 58.9216 44.8761 29.2291 23.3821
internal_count=470 339 131 270 76 93 61 177 135 88 69
is_linear=0
shrinkage=0.01


Tree=15
num_leaves=12
num_cat=0
split_feature=0 1 0 6 1 6 6 5 5 0 5
split_gain=22.7013 14.5673 21.2437 8.59176 8.87398 7.60893 4.57268 3.62485 3.43994 1.33807 2.30395
threshold=2.3853808946061368 -0.00044798709738702586 2.1923508959145814 88.312314325341845 0.0010159390442183727 25.34856488192133 99.635976909131713 -0.0020349989799508523 0.001385980805947318 2.3091702347102694 -0.00099032573344004482
decision_type=2 2 2 2 2 2 2 2 2 2 2
left_child=1 2 -1 4 9 -4 -5 -6 -7 10 -3
right_child=-2 3 5 6 7 8 -8 -9 -10 -11 -12
leaf_value=-0.0088739175174870222 0.011199556861035307 -0.0088737795733634991 0.014086466444696327 0.0066714564227749748 -0.0050929975210193511 -0.00026306223405792094 -0.0020094419487533231 0.0023990930394107231 0.0075872530624482249 -0.0091893109366914388 -0.0019850242040293413
leaf_weight=10.353000313043593 16.148796230554581 10.354883283376696 11.355139285326002 10.5514817237854 10.385541498661043 10.174639850854875 13.77498996257782 16.60060915350914 11.642170488834379 27.30585104227066 10.056187957525252
leaf_count=31 47 31 33 31 31 30 41 49 34 82 30
internal_value=0 -0.00127539 0.00352989 -0.00339891 -0.0050815 0.00744622 0.00172681 -0.000455455 0.003896 -0.00767041 -0.00555479
internal_weight=0 142.554 43.5249 99.0295 74.7031 33.1719 24.3265 26.9862 21.8168 47.7169 20.4111
internal_count=470 423 128 295 223 97 72 80 64 143 61
is_linear=0
shrinkage=0.01


Tree=16
num_leaves=13
num_cat=0
split_feature=6 3 5 4 4 5 4 4 4 6 5 3
split_gain=17.9254 17.2998 4.58977 5.56514 4.73337 3.91025 3.78214 10.6819 4.23478 2.08732 1.31657 0.625089
threshold=60.305644232009392 -0.0015537325234027397 0.0020806725891999727 2.3175331785837483 2.2947504078451355 0.0032167120351631611 2.2968868913345597 2.2948322057780488 2.3151479636196712 16.496577894368055 -2.7709849703239083e-05 0.0049177310521886239
decision_type=2 2 2 2 2 2 2 2 2 2 2 2
left_child=1 9 3 4 -3 6 7 -2 -8 -1 -6 -7
right_child=5 2 -4 -5 10 11 8 -9 -10 -11 -12 -13
leaf_value=-0.00022101974907661194 -0.0064359554600266636 0.0046132968955828763 0.00084368216549080607 0.0019384097810662797 0.015750208660233682 -0.0094863878217306095 -0.0094640064485948354 0.0080408404518171103 -0.0015259501477412358 -0.0056776702137110004 0.0099206903781391669 -0.0053889653339559938
leaf_weight=13.687583446502687 9.6747816503047961 10.904739260673525 12.09040394425392 11.789117097854612 10.368878841400146 9.9668316841125506 10.882081866264345 10.507955372333525 18.431913048028946 15.198985159397123 9.9583163559436798 9.6565771102905256
leaf_count=42 30 33 37 36 31 31 34 32 57 47 30 30
internal_value=0 0.00310187 0.00638946 0.00791925 0.0101315 -0.00376917 -0.00223455 0.00105443 -0.00452891 -0.00313628 0.0130058 -0.00755831
internal_weight=0 83.998 55.1115 43.0211 31.2319 69.1201 49.4967 20.1827 29.314 28.8866 20.3272 19.6234
internal_count=470 256 167 130 94 214 153 62 91 89 61 61
is_linear=0
shrinkage=0.01


Tree=17
num_leaves=12
num_cat=0
split_feature=0 4 5 0 4 3 5 4 0 4 3
split_gain=21.9579 16.4128 13.7129 8.47101 8.08277 6.7473 5.92707 4.79865 3.57771 0.782885 0.22785
threshold=2.1900615506308392 2.2929094461457278 -0.00090227808553589018 2.3678431489709921 2.317182733851475 -0.0017392213907720941 0.00086227173912245558 2.2970409859471324 2.2836204538935729 2.326613516513854 0.00045817487900490233
decision_type=2 2 2 2 2 2 2 2 2 2 2
left_child=-1 -2 3 5 6 8 10 -8 -3 -6 -4
right_child=1 2 4 -5 9 -7 7 -9 -10 -11 -12
leaf_value=0.013784936508356018 0.010362735924940567 0.012158934043934335 -0.0049961968281576636 -0.0053693125188854105 -0.0060019982589219617 -0.00130713693927593 0.0038525442422465924 -0.0033635983141668351 0.0042398574419433436 -0.0098513842867464074 -0.007781193412945836
leaf_weight=10.667513847351072 11.561686426401137 10.186149001121519 10.315633028745653 11.038267612457274 10.588889837265016 12.717409104108812 18.517911970615387 18.106649577617645 14.511174052953718 19.564941227436066 9.9626718163490278
leaf_count=31 34 30 31 33 32 38 55 54 43 59 30
internal_value=0 -0.00100853 -0.00199303 0.00225442 -0.00436838 0.00453858 -0.0021201 0.000258314 0.00758219 -0.00855699 -0.006445
internal_weight=0 147.071 135.51 48.453 87.0567 37.4147 56.9029 36.6246 24.6973 30.1538 20.2783
internal_count=470 439 405 144 261 111 170 109 73 91 61
is_linear=0
shrinkage=0.01


Tree=18
num_leaves=11
num_cat=0
split_feature=0 0 0 4 6 0 5 6 5 4
split_gain=22.2123 9.25236 15.9822 13.3799 9.52781 6.15119 3.86285 3.01583 5.20181 1.46146
threshold=2.3853808946061368 2.3091702347102694 2.1923508959145814 2.3026966766104171 88.750169504197956 2.2836204538935729 -0.0017084535039293411 25.34856488192133 0.001385980805947318 2.2952525701454221
decision_type=2 2 2 2 2 2 2 2 2 2
left_child=1 2 -1 5 6 -4 -3 -5 -9 -8
right_child=-2 4 3 7 -6 -7 9 8 -10 -11
leaf_value=-0.0090578320430713538 0.011051735999756191 -0.0019116456738501836 -0.0061359564612859952 0.011263780193123468 0.0034226074116235788 0.0028328878670801634 -0.0048270505155649781 -0.00027474020685172107 0.0092089069343377749 -0.0094653773264704501
leaf_weight=12.964834928512571 16.218571037054062 16.093608379364014 15.739228427410128 12.384782940149305 13.170783966779707 14.532079696655272 11.735189378261564 10.179583638906481 12.697429597377775 22.954245656728745
leaf_count=39 47 48 47 36 39 43 35 30 37 69
internal_value=0 -0.00126485 0.00102516 0.00304594 -0.00408847 -0.00180229 -0.00605904 0.00722961 0.00496262 -0.00794339
internal_weight=0 142.452 78.4979 65.5331 63.9538 30.2713 50.783 35.2618 22.877 34.6894
internal_count=470 423 232 193 191 90 152 103 67 104
is_linear=0
shrinkage=0.01


Tree=19
num_leaves=12
num_cat=0
split_feature=0 0 1 4 4 4 1 3 4 1 3
split_gain=25.7921 26.9705 5.34146 8.44296 11.5669 5.19553 7.12558 5.80741 8.51181 4.26529 0.553072
threshold=2.3091702347102694 2.3234412247835574 0.00033562899461170309 2.3322926844715028 2.3194042547277469 2.2975971657779559 -0.00047978752572808142 -0.0022089330381207524 2.3158994887576472 0.00087781795357111403 -0.0005049784959612057
decision_type=2 2 2 2 2 2 2 2 2 2 2
left_child=5 -2 -3 4 9 10 7 -7 -9 -4 -1
right_child=1 2 3 -5 -6 6 -8 8 -10 -11 -12
leaf_value=-0.0054485890877238805 0.014282840119490992 -0.005800037631986478 0 0.009353403248251832 -0.0069820475955306759 -0.0088944643927515252 0.0048908984686519422 -0.0074865295299281548 0.0050181791923697159 0.008885563616121684 -0.0089570110363039815
leaf_weight=9.7023997902870196 19.175577759742737 10.417011469602583 11.1363842189312 11.854152917861937 15.197617053985594 15.69909283518791 10.776571750640867 10.207158476114275 11.387849926948546 10.547418147325514 16.988640576601028
leaf_count=30 57 32 34 36 47 49 33 32 35 32 53
internal_value=0 0.00400741 0.000641047 0.00204733 -0.000292829 -0.00419864 -0.00219729 -0.00427985 -0.000853503 0.00436009 -0.0077441
internal_weight=0 78.3282 59.1526 48.7356 36.8814 74.7617 48.0707 37.2941 21.595 21.6838 26.691
internal_count=470 238 181 149 113 232 149 116 67 66 83
is_linear=0
shrinkage=0.01


Tree=20
num_leaves=12
num_cat=0
split_feature=0 4 5 0 4 3 1 1 5 4 1
split_gain=21.4189 16.0907 13.5164 8.35127 7.98669 6.6044 7.77934 6.10548 8.57371 13.8846 0.912891
threshold=2.1900615506308392 2.2929094461457278 -0.00090227808553589018 2.3678431489709921 2.317182733851475 -0.0017392213907720941 -0.00020127689268045754 0.00087781795357111403 0.00086227173912245558 2.2970409859471324 0.00097554954906375901
decision_type=2 2 2 2 2 2 2 2 2 2 2
left_child=-1 -2 3 5 7 6 -3 8 -4 -10 -6
right_child=1 2 4 -5 10 -7 -8 -9 9 -11 -12
leaf_value=0.013573289733647381 0.010235348934819286 0.00063933772679786616 -0.0064936824869707534 -0.0053427250283389653 -0.0098235239882433854 -0.0012891079893832852 0.012141332741243488 -0.0082214476903934072 0.010901339501560952 -0.0029802749781836198 -0.0056669628471908333
leaf_weight=10.728488445281981 11.607377231121061 10.117157459259031 14.92356291413307 11.017918556928633 20.161859929561619 12.704866051673891 14.645696371793745 12.599037587642668 12.221064895391466 17.109571278095245 9.8708370923995954
leaf_count=31 34 30 45 33 61 38 43 38 36 51 30
internal_value=0 -0.000999438 -0.00197699 0.00223642 -0.00433959 0.00450008 0.00750375 -0.00210587 -0.000327622 0.00278712 -0.00851392
internal_weight=0 146.979 135.372 48.4856 86.8859 37.4677 24.7629 56.8532 44.2542 29.3306 30.0327
internal_count=470 439 405 144 261 111 73 170 132 87 91
is_linear=0
shrinkage=0.01


Tree=21
num_leaves=12
num_cat=0
split_feature=0 1 0 6 1 6 6 5 0 0 5
split_gain=21.7097 14.0788 20.4414 8.3532 8.75545 7.37068 4.48865 3.5997 3.38564 1.31541 2.26477
threshold=2.3853808946061368 -0.00044798709738702586 2.1923508959145814 88.312314325341845 0.0010159390442183727 25.34856488192133 99.635976909131713 -0.0020349989799508523 2.2118118383790706 2.3091702347102694 -0.00099032573344004482
decision_type=2 2 2 2 2 2 2 2 2 2 2
left_child=1 2 -1 4 9 -4 -5 -6 -7 10 -3
right_child=-2 3 5 6 7 8 -8 -9 -10 -11 -12
leaf_value=-0.0087793712370144647 0.010899455967140616 -0.0088021543523083626 0.013775229260815747 0.0065880748287476211 -0.0050496340979140917 0.0074321320326529803 -0.0020062215330663431 0.0024254287528943539 -0.00034017211966198753 -0.0091112901603562137 -0.0019577462849594382
leaf_weight=10.263001501560209 16.289738386869431 10.286713331937792 11.449823856353758 10.581163197755814 10.355042248964311 11.70114701986313 13.771907866001129 16.581242263317108 10.210455387830732 27.100346356630325 10.040843844413756
leaf_count=31 47 31 33 31 31 34 41 49 30 82 30
internal_value=0 -0.00125374 0.00346079 -0.00334866 -0.00501508 0.00727111 0.00169869 -0.00041925 0.00377984 -0.00759783 -0.00549643
internal_weight=0 142.342 43.6244 98.7173 74.3642 33.3614 24.3531 26.9363 21.9116 47.4279 20.3276
internal_count=470 423 128 295 223 97 72 80 64 143 61
is_linear=0
shrinkage=0.01


Tree=22
num_leaves=11
num_cat=0
split_feature=0 0 4 4 4 0 0 4 4 3
split_gain=25.3327 26.3562 5.14272 6.67307 5.83834 5.09677 3.87292 8.70971 2.63874 0.555077
threshold=2.3091702347102694 2.3234412247835574 2.2975971657779559 2.3081859539798182 2.3215849348678921 2.3895893536795429 2.3548500224213251 2.2957269670080898 2.3322926844715028 -0.0005049784959612057
decision_type=2 2 2 2 2 2 2 2 2 2
left_child=2 -2 9 -4 -5 6 7 -3 -8 -1
right_child=1 5 3 4 -6 -7 8 -9 -10 -11
leaf_value=-0.0054055943647267294 0.014087887643281467 0.0056152948606384527 0.0041960846805307907 -0.0083915380562848713 -0.00028263318828260301 -0.0056919766748145207 0.0013181033610965107 -0.0065164420903835443 0.0078949636211330804 -0.0089220099918508461
leaf_weight=9.6687493324279803 19.281751960515976 10.862143605947496 12.048754274845122 17.852048337459564 18.106376171112061 10.331956982612608 12.442914873361589 12.705008387565611 12.834499359130858 16.91721785068512
leaf_count=30 57 33 37 56 56 32 38 39 39 53
internal_value=0 0.00396435 -0.00416969 -0.00217876 -0.00434825 0.000630678 0.00199742 -0.000882549 0.00471483 -0.00770569
internal_weight=0 78.4583 74.5931 48.0072 35.9584 59.1765 48.8446 23.5672 25.2774 26.586
internal_count=470 238 232 149 112 181 149 72 77 83
is_linear=0
shrinkage=0.01


Tree=23
num_leaves=11
num_cat=0
split_feature=0 4 5 6 1 4 1 5 4 1
split_gain=20.8606 15.7708 13.3372 10.1827 12.0089 7.89324 6.01613 8.46189 13.5627 0.904939
threshold=2.1900615506308392 2.2929094461457278 -0.00090227808553589018 19.603938424472023 0.0011628832396182178 2.317182733851475 0.00087781795357111403 0.00086227173912245558 2.2970409859471324 0.00097554954906375901
decision_type=2 2 2 2 2 2 2 2 2 2
left_child=-1 -2 3 -3 -5 6 7 -4 -9 -7
right_child=1 2 5 4 -6 9 -8 8 -10 -11
leaf_value=0.013353452839159964 0.01010905506115849 -0.0033309199664946811 -0.0064650631945553797 0.010863492068394013 -0.002378655515236703 -0.0097799446012720725 -0.0081772365493598016 0.010751747612046584 -0.002953880265212286 -0.0056337891372568527
leaf_weight=10.791256636381148 11.652491897344587 19.467414557933807 14.890080362558363 18.38223430514336 10.659462004899977 20.067068457603458 12.549103230237959 12.277054846286775 17.083504408597946 9.8454733192920667
leaf_count=31 34 58 45 54 32 61 38 36 51 30
internal_value=0 -0.000989805 -0.00196038 0.00222203 0.0059773 -0.00431152 -0.00209192 -0.000329079 0.0027602 -0.00847191
internal_weight=0 146.874 135.221 48.5091 29.0417 86.7123 56.7997 44.2506 29.3606 29.9125
internal_count=470 439 405 144 86 261 170 132 87 91
is_linear=0
shrinkage=0.01


Tree=24
num_leaves=12
num_cat=0
split_feature=0 1 0 6 1 6 3 6 3 0 3
split_gain=21.2507 13.8183 20.0275 8.25643 8.67588 7.2279 4.91424 4.41409 3.55363 1.29582 2.24332
threshold=2.3853808946061368 -0.00044798709738702586 2.1923508959145814 88.312314325341845 0.0010159390442183727 25.34856488192133 0.00091520385387200431 99.635976909131713 -0.00094040442928111634 2.3091702347102694 -0.00030921111884363301
decision_type=2 2 2 2 2 2 2 2 2 2 2
left_child=1 2 -1 4 9 -4 -7 -5 -6 10 -3
right_child=-2 3 5 7 8 6 -8 -9 -10 -11 -12
leaf_value=-0.0087315315405098789 0.010759734628629168 -0.0087698385163278124 0.013601281697439065 0.0065346933273881368 -0.0050171459846436884 -0.00067836883149638362 0.0086962528586572128 -0.0019854411678939705 0.0024144053558831438 -0.0090675694389481271 -0.0019513542176318461
leaf_weight=10.215719282627104 16.354556024074554 10.255483537912371 11.502147972583769 10.59983491897583 10.332172721624376 11.592756539583208 10.365719050168989 13.756003141403198 16.588509052991867 26.982028871774673 10.036934971809385
leaf_count=31 47 31 33 31 31 34 30 41 49 82 30
internal_value=0 -0.00124354 0.00342223 -0.00332285 -0.00498299 0.0071776 0.00372104 0.00169325 -0.000408832 -0.0075603 -0.00547246
internal_weight=0 142.227 43.6763 98.551 74.1951 33.4606 21.9585 24.3558 26.9207 47.2744 20.2924
internal_count=470 423 128 295 223 97 64 72 80 143 61
is_linear=0
shrinkage=0.01


Tree=25
num_leaves=9
num_cat=0
split_feature=0 0 6 4 6 4 4 3
split_gain=24.9202 25.7789 8.53365 11.6708 6.89362 5.3696 8.85192 1.36389
threshold=2.3091702347102694 2.3234412247835574 8.3117318594810161 2.3215849348678921 84.929560607075956 2.3194042547277469 2.3322926844715028 0.001850689672864281
decision_type=2 2 2 2 2 2 2 2
left_child=2 -2 -1 -4 5 -3 -7 -6
right_child=1 4 3 -5 7 6 -8 -9
leaf_value=0.0015381100913569978 0.013906733022631795 0.0072149521801843607 -0.0086089388545979705 0.0023657489332562279 -0.0066550934201714653 -0.0067293061475009091 0.0059339261802433029 -0.0012678931254029155
leaf_weight=19.271587610244751 19.379708081483841 17.326453566551208 42.872065454721451 12.293372660875319 10.335903972387316 10.642838239669802 11.243964314460753 9.6434577405452711
leaf_count=59 57 52 135 38 32 33 34 30
internal_value=0 0.00392574 -0.00414329 -0.00614533 0.000623144 0.00307157 -0.000180909 -0.00412391
internal_weight=0 78.5723 74.437 55.1654 59.1926 39.2133 21.8868 19.9794
internal_count=470 238 232 173 181 119 67 62
is_linear=0
shrinkage=0.01


Tree=26
num_leaves=12
num_cat=0
split_feature=3 6 6 5 3 1 1 5 5 1 1
split_gain=16.9332 13.4899 11.5925 7.70582 5.65163 4.51108 10.3281 1.68965 0.970173 0.55674 0.110907
threshold=-0.0017392213907720941 98.123872496123738 21.1845908555654 0.0019495496739729836 -0.0026528905191907089 -0.00056370275444761464 0.00064467999901385309 -0.00099032573344004482 0.00091107418630986825 0.00035436764365504031 0.00023512985550588897
decision_type=2 2 2 2 2 2 2 2 2 2 2
left_child=2 3 -1 7 -4 -5 -7 -2 9 -9 -3
right_child=1 10 4 5 -6 6 -8 8 -10 -11 -12
leaf_value=-0.00080327688848304442 -0.0027884621622655814 0.0056800992835923268 0.014245312106799735 -0.0050834537952766821 0.0047457835937354063 0.010008410450202565 -0.0040603121990970036 -0.0097330318627119067 -0.0047086449131557781 -0.0064511256173809981 0.0037186767194585567
leaf_weight=18.445899158716202 14.009283632040022 10.567183613777162 12.839666932821276 10.590493232011797 13.253046274185179 10.248562932014467 10.322958827018736 13.806161165237429 15.559190213680266 15.113079130649565 12.859100282192228
leaf_count=55 42 31 37 32 39 30 31 42 47 46 38
internal_value=0 -0.00205767 0.00521528 -0.00382909 0.00949502 0.000156982 0.00291474 -0.00596656 -0.00693663 -0.00808052 0.00466633
internal_weight=0 113.076 44.5386 89.6497 26.0927 31.162 20.5715 58.4877 44.4784 28.9192 23.4263
internal_count=470 339 131 270 76 93 61 177 135 88 69
is_linear=0
shrinkage=0.01


Tree=27
num_leaves=13
num_cat=0
split_feature=0 1 0 6 1 6 3 6 3 0 3 6
split_gain=20.8273 13.5914 19.7492 8.15317 8.61547 7.11221 4.81025 4.34781 4.00341 1.07779 2.22235 0.268763
threshold=2.3853808946061368 -0.00044798709738702586 2.1923508959145814 88.312314325341845 0.0010275048494423624 25.34856488192133 0.00091520385387200431 99.635976909131713 -0.00094040442928111634 2.3091702347102694 -0.00030921111884363301 26.712319564247085
decision_type=2 2 2 2 2 2 2 2 2 2 2 2
left_child=1 2 -1 4 9 -4 -7 -5 -6 10 -3 -11
right_child=-2 3 5 7 8 6 -8 -9 -10 11 -12 -13
leaf_value=-0.0087034179488210371 0.010630664538378699 -0.0087397470444627624 0.013466534642091989 0.0064806757189327996 -0.0049740700149897505 -0.00067745584843722281 0.008589181638513221 -0.0019721033185566257 0.0030907492833781532 -0.0070233451460197539 -0.0019469583725080911 -0.0097643844217705552
leaf_weight=10.186993747949598 16.413566321134567 10.225693464279177 11.542298287153242 10.618838787078857 10.301393508911135 11.590587019920351 10.399757534265516 13.745699822902679 14.943492531776426 11.416264832019808 10.033917307853697 17.110579043626785
leaf_count=31 47 31 33 31 31 34 30 41 44 35 30 52
internal_value=0 -0.00123387 0.00338921 -0.00329952 -0.00495269 0.00710756 0.00367873 0.00168244 -0.000167355 -0.00740303 -0.00545071 -0.00873074
internal_weight=0 142.116 43.7196 98.3959 74.0313 33.5326 21.9903 24.3645 25.2449 48.7865 20.2596 28.5268
internal_count=470 423 128 295 223 97 64 72 75 148 61 87
is_linear=0
shrinkage=0.01


Tree=28
num_leaves=10
num_cat=0
split_feature=0 0 6 1 0 6 1 3 1
split_gain=24.5218 25.1497 8.43416 7.10424 8.89735 6.75809 5.61656 5.84554 2.54186
threshold=2.3091702347102694 2.3234412247835574 8.3117318594810161 -0.0012702851852217643 2.2014936806190364 84.929560607075956 0.0012374673310351361 -0.00065629721590254586 0.00065869306525856441
decision_type=2 2 2 2 2 2 2 2 2
left_child=2 -2 -1 4 -4 6 7 -3 -7
right_child=1 5 3 -5 -6 8 -8 -9 -10
leaf_value=0.001526292887066264 0.013714462754522433 -0.00084276346154180809 -0.0075861070870298667 -0.0089185568104401553 0.0054295264252767032 -0.0075361841522623855 -0.0034603249195032976 0.0084284954466224728 -0.00029069273479903157
leaf_weight=19.28178745508194 19.48283725976944 10.133778214454653 11.065610140562059 34.175705313682556 9.7597496509551984 10.258323758840563 9.7357764244079572 19.393545001745224 9.6695641577243787
leaf_count=59 57 31 35 108 30 32 30 58 30
internal_value=0 0.00388844 -0.00411758 -0.00611349 -0.00144178 0.000619646 0.00303944 0.00522074 -0.00408941
internal_weight=0 78.6738 74.2829 55.0011 20.8254 59.191 39.2631 29.5273 19.9279
internal_count=470 238 232 173 65 181 119 89 62
is_linear=0
shrinkage=0.01


Tree=29
num_leaves=11
num_cat=0
split_feature=0 0 5 3 0 2 0 0 0 5
split_gain=20.0706 11.1903 9.5125 13.8036 7.21481 5.37215 3.55004 2.69351 3.29138 0.767014
threshold=2.1900615506308392 2.3829844398782734 -0.00093844969587753002 0.0038566919851259489 2.296670020902138 -0.0040591871575277319 2.3434239657990825 2.3234412247835574 2.2104692103633261 0.0016882988618900365
decision_type=2 2 2 2 2 2 2 2 2 2
left_child=-1 2 4 5 -2 -4 -6 8 -7 -10
right_child=1 -3 3 -5 6 7 -8 -9 9 -11
leaf_value=0.013042033795491738 0.0092554421587794661 -0.0081298067990735207 0.0026942619426887533 0.0061008487841946067 -0.0019735956823184624 -0.0018868472741987313 0.0052625943598029225 -0.0017317572181898872 -0.009738411316442647 -0.0058087438032836235
leaf_weight=10.877535730600355 15.743061304092405 18.933844655752182 10.068052679300306 17.024248778820038 17.433392852544788 11.287262439727781 10.876667380332945 17.019874811172485 18.347999721765522 9.955482214689253
leaf_count=31 46 58 30 50 52 34 32 51 56 30
internal_value=0 -0.000976052 8.18646e-05 -0.00188931 0.00384563 -0.00395039 0.000780073 -0.00515243 -0.0065897 -0.00841671
internal_weight=0 146.69 127.756 83.7029 44.0531 66.6787 28.3101 56.6106 39.5907 28.3035
internal_count=470 439 381 251 130 201 84 171 120 86
is_linear=0
shrinkage=0.01


Tree=30
num_leaves=11
num_cat=0
split_feature=4 3 6 4 5 3 4 4 4 3
split_gain=19.8864 14.3784 7.84132 13.4219 7.15905 3.69701 3.28893 2.11476 4.24172 1.2039
threshold=2.3175331785837483 0.00013865385590960957 84.114691447195455 2.2936966314758211 -0.0028748656893105014 0.00027373852250667246 2.2935749131182308 2.2971281882772607 2.294692720566283 0.0016602755847794361
decision_type=2 2 2 2 2 2 2 2 2 2
left_child=1 6 7 -4 -2 -6 -1 8 -3 -7
right_child=4 2 3 -5 5 9 -8 -9 -10 -11
leaf_value=-0.0021593438837700096 -6.1623457248064433e-05 -0.00029427799540842785 -0.0033797108691757268 0.011705056892624589 0.011149653272028649 0.001943299768361454 -0.0088394130669436615 0.00084314083718339773 -0.0087705178032579864 0.0068364262879785321
leaf_weight=10.338290780782698 19.903504252433777 13.400149852037432 10.489426285028459 13.049061238765715 15.193381607532499 10.384408086538317 30.878223180770874 12.554152280092238 10.83687850832939 11.440704733133314
leaf_count=31 59 40 31 38 44 30 94 37 33 33
internal_value=0 -0.00265109 0.000445074 0.00495469 0.00472721 0.00732216 -0.00719734 -0.00241862 -0.00414574 0.00457336
internal_weight=0 101.546 60.3297 23.5385 56.922 37.0185 41.2165 36.7912 24.237 21.8251
internal_count=470 304 179 69 166 107 125 110 73 63
is_linear=0
shrinkage=0.01


Tree=31
num_leaves=10
num_cat=0
split_feature=0 0 6 1 0 6 1 0 1
split_gain=24.0806 24.5345 8.36015 7.05694 8.78939 6.64252 5.5071 3.4834 2.52111
threshold=2.3091702347102694 2.3234412247835574 8.3117318594810161 -0.0012702851852217643 2.2014936806190364 84.929560607075956 0.0012374673310351361 2.3548500224213251 0.00065869306525856441
decision_type=2 2 2 2 2 2 2 2 2
left_child=2 -2 -1 4 -4 6 7 -3 -7
right_child=1 5 3 -5 -6 8 -8 -9 -10
leaf_value=0.001528303701449485 0.013520223389262074 0.001250719871326844 -0.0075521344341171574 -0.0088855273358433139 0.0053899655152117552 -0.0075040363062215641 -0.0034367500011544959 0.008251871655640822 -0.00028128631074975395
leaf_weight=19.278904676437378 19.586457550525665 13.26713687181473 11.024049222469332 34.030446141958237 9.7759271860122663 10.224502980709078 9.7197015285491926 16.327370673418045 9.6639679074287397
leaf_count=59 57 40 35 108 30 32 30 49 30
internal_value=0 0.0038468 -0.00408883 -0.00608126 -0.00142485 0.000612204 0.00300722 0.00516173 -0.00406344
internal_weight=0 78.7891 74.1093 54.8304 20.8 59.2027 39.3142 29.5945 19.8885
internal_count=470 238 232 173 65 181 119 89 62
is_linear=0
shrinkage=0.01


Tree=32
num_leaves=11
num_cat=0
split_feature=0 6 0 5 3 5 0 0 6 5
split_gain=19.5713 12.7951 10.0589 10.0593 6.89472 8.48123 6.14664 2.76969 2.2312 1.61995
threshold=2.1900615506308392 99.635976909131713 2.3829844398782734 -0.0037534632256370766 0.0024568865504175368 -0.00061556712418542314 2.3007684909347268 2.326149448257457 71.887105483139962 0.00091107418630986825
decision_type=2 2 2 2 2 2 2 2 2 2
left_child=-1 2 3 -2 5 6 -5 -8 -6 -7
right_child=1 -3 -4 4 8 9 7 -9 -10 -11
leaf_value=0.012844353614850977 0.0070456858230736165 0.0071213737169261021 -0.0090780434120266117 0.0056716772002729952 -0.00036637026748402454 -0.0084459971612536773 -0.0068447242910652266 0.00037146488096632464 0.0056074382969777603 -0.0042235160244270325
leaf_weight=10.931867510080336 13.706828713417051 17.113561064004898 17.52152082324028 12.519284337759016 12.427695482969286 22.910490334033966 10.249829441308977 10.414686799049376 11.895646095275877 17.818362802267075
leaf_count=31 40 50 54 37 37 70 31 31 35 54
internal_value=0 -0.000966877 -0.00204843 -0.000932097 -0.00206144 -0.00358572 0.000139305 -0.00317541 0.00252525 -0.00663808
internal_weight=0 146.578 129.464 111.943 98.236 73.9127 33.1838 20.6645 24.3233 40.7289
internal_count=470 439 389 335 295 223 99 62 72 124
is_linear=0
shrinkage=0.01


Tree=33
num_leaves=12
num_cat=0
split_feature=1 1 6 6 5 3 6 6 5 3 5
split_gain=9.18068 14.9978 10.3428 9.66834 10.5272 5.88005 3.12656 2.4888 0.83858 3.41171 0.359025
threshold=0.0010766484920803345 -0.00044798709738702586 84.929560607075956 25.34856488192133 -0.00028633435834124471 -0.0016664795201275504 99.635976909131713 52.038460523416887 0.00099280793229850083 -0.00024731681015688339 -0.0017084535039293411
decision_type=2 2 2 2 2 2 2 2 2 2 2
left_child=1 3 8 -1 -5 -2 -4 -7 9 10 -3
right_child=5 2 6 4 -6 7 -8 -9 -10 -11 -12
leaf_value=0.010458209020040165 -0.0020312565138546463 -0.0063290097446569143 0.0041620235821425745 -0.0078092543936646303 0.0044965164822858344 0.0041729089208405604 -0.0025074390180672285 0.010606597345135492 -0.0085966364778473948 -0.0010217215560144434 -0.0095753127687224267
leaf_weight=13.226284891366957 10.06957173347473 11.809953957796095 14.385177671909332 10.516199797391893 20.014702081680298 15.75899922847748 13.405469089746475 10.785355031490324 17.089273750782013 11.286208212375639 10.07229205965996
leaf_count=38 30 36 42 32 58 46 40 31 52 34 31
internal_value=0 -0.00131947 -0.00395096 0.00334975 0.000213558 0.00438465 0.000911543 0.00685454 -0.00665607 -0.00560335 -0.00790552
internal_weight=0 121.806 78.0484 43.7572 30.5309 36.6139 27.7906 26.5444 50.2577 33.1685 21.8822
internal_count=470 363 235 128 90 107 82 77 153 101 67
is_linear=0
shrinkage=0.01


Tree=34
num_leaves=9
num_cat=0
split_feature=0 0 6 4 6 1 0 1
split_gain=23.6469 23.9232 8.26643 11.513 6.50581 5.41865 3.43473 2.49665
threshold=2.3091702347102694 2.3234412247835574 8.3117318594810161 2.3215849348678921 84.929560607075956 0.0012374673310351361 2.3548500224213251 0.00065869306525856441
decision_type=2 2 2 2 2 2 2 2
left_child=2 -2 -1 -4 5 6 -3 -6
right_child=1 4 3 -5 7 -7 -8 -9
leaf_value=0.0015214645736596972 0.01332677061858707 0.0012207866312536433 -0.0085170306274551643 0.002407183555190511 -0.007464218993567198 -0.0034256453761983842 0.0081656913188292105 -0.00026798995817146594
leaf_weight=19.284437090158463 19.689129918813705 13.284735202789308 42.388369977474213 12.263219833374022 10.18240198493004 9.7120037376880628 16.376817345619202 9.6564224660396558
leaf_count=59 57 40 135 38 32 30 49 30
internal_value=0 0.0038054 -0.00406048 -0.00604757 0.000605394 0.0029709 0.00510338 -0.00403056
internal_weight=0 78.9015 73.936 54.6516 59.2124 39.3736 29.6616 19.8388
internal_count=470 238 232 173 181 119 89 62
is_linear=0
shrinkage=0.01


Tree=35
num_leaves=12
num_cat=0
split_feature=3 4 4 6 6 1 4 5 1 4 3
split_gain=16.1539 14.6385 11.7571 12.1424 8.27101 4.32365 6.63177 7.95934 3.58037 1.28784 0.754061
threshold=-0.0017392213907720941 2.2929094461457278 2.3175331785837483 23.072904215289409 98.123872496123738 0.00094417440188343537 2.3194042547277469 0.00091107418630986825 0.00010434216055221769 2.323556487115936 0.0011247094531308124
decision_type=2 2 2 2 2 2 2 2 2 2 2
left_child=2 -2 -1 -4 5 6 7 -3 -9 -7 -6
right_child=1 4 3 -5 10 9 -8 8 -10 -11 -12
leaf_value=0.010894439802385678 0.0090314726578054356 -0.0058738695284077927 -0.0065489252143964291 0.0072691160150781366 0.004386866203692448 -0.0096592970934656266 -0.008885243470854811 -0.00095167314158593438 0.006913343248124957 -0.0048439793675140452 0.00042310155538505153
leaf_weight=19.485023975372314 10.701407998800276 17.777955591678619 12.25125825405121 12.98522627353668 10.173094004392626 16.898929446935657 13.917906254529951 11.067662417888643 11.560664951801298 10.416726082563398 10.213258117437361
leaf_count=56 31 54 37 38 30 52 43 33 34 32 30
internal_value=0 -0.00201845 0.00507788 0.000522194 -0.00319496 -0.004621 -0.00295051 -0.000864719 0.00303525 -0.00788384 0.00246165
internal_weight=0 112.728 44.7215 25.2365 102.026 81.6398 54.3242 40.4063 22.6283 27.3157 20.3864
internal_count=470 339 131 75 308 248 164 121 67 84 60
is_linear=0
shrinkage=0.01


Tree=36
num_leaves=11
num_cat=0
split_feature=0 0 0 4 6 0 3 3 6 4
split_gain=19.8935 8.43524 14.7818 12.1158 9.06077 5.9465 3.21923 2.8156 6.8459 1.13567
threshold=2.3853808946061368 2.3091702347102694 2.1923508959145814 2.3026966766104171 88.750169504197956 2.2836204538935729 -0.00065629721590254586 0.0016602755847794361 27.394331956472382 2.2952525701454221
decision_type=2 2 2 2 2 2 2 2 2 2
left_child=1 2 -1 5 6 -4 -3 8 -5 -8
right_child=-2 4 3 7 -6 -7 9 -9 -10 -11
leaf_value=-0.0088529699809496692 0.010344886962717688 -0.0022642883813460499 -0.0060404526917860425 0.011042735053336221 0.003376839901516839 0.0027917600548574167 -0.0051101133761346697 0.011256039192115652 0.00043199520590104032 -0.0092593163907985394
leaf_weight=12.695836931467054 16.540968388319016 17.152646481990814 15.620648354291918 10.510577857494356 13.187199145555494 14.544031947851179 12.621966391801832 10.450061559677122 14.748625397682188 20.288666695356369
leaf_count=39 47 52 47 30 39 43 38 30 43 62
internal_value=0 -0.00121205 0.000965782 0.00288385 -0.00393039 -0.00175377 -0.00587802 0.00682327 0.00491279 -0.0077186
internal_weight=0 141.82 78.5698 65.8739 63.2505 30.1647 50.0633 35.7093 25.2592 32.9106
internal_count=470 423 232 193 191 90 152 103 73 100
is_linear=0
shrinkage=0.01


Tree=37
num_leaves=11
num_cat=0
split_feature=6 3 1 1 5 6 1 6 6 6
split_gain=16.1062 15.6351 4.72762 4.68394 4.07239 3.85685 2.79883 2.72228 1.54244 0.435621
threshold=60.305644232009392 -0.0015537325234027397 0.00014961535778668103 0.0010766484920803345 0.0019495496739729836 87.059455589057805 0.00095538671798545149 11.588960013581714 98.123872496123738 99.570692652517906
decision_type=2 2 2 2 2 2 2 2 2 2
left_child=1 6 8 4 7 -4 -1 -3 -2 -7
right_child=2 3 5 -5 -6 9 -8 -9 -10 -11
leaf_value=-0.0055426035348229985 -0.0045150755100236356 0.013026453164061962 0.0026737802066579396 0.0014508536893493614 0.0026054067145393997 -0.0021838804975808151 0.00077929401330084364 0.0065032721853001321 -0.0093173048803243882 -0.0052214939149500088
leaf_weight=17.531708121299747 18.056954443454746 14.426952302455904 15.035886645317076 16.549353837966919 11.128344535827635 10.871265411376953 11.163813203573225 13.753307759761809 12.495277613401411 11.758681565523148
leaf_count=55 57 42 46 50 34 34 34 41 40 37
internal_value=0 0.00291528 -0.00361169 0.0059998 0.00788104 -0.00120241 -0.00305422 0.00991244 -0.00653571 -0.00382227
internal_weight=0 84.5535 68.2181 55.858 39.3086 37.6658 28.6955 28.1803 30.5522 22.6299
internal_count=470 256 214 167 117 117 89 83 97 71
is_linear=0
shrinkage=0.01


Tree=38
num_leaves=12
num_cat=0
split_feature=0 4 3 6 6 4 3 4 4 0 6
split_gain=18.8667 14.644 10.296 7.96753 7.643 3.96013 3.25267 3.45388 2.93692 2.05373 0.923478
threshold=2.1900615506308392 2.2929094461457278 -0.0017392213907720941 23.072904215289409 99.635976909131713 2.326613516513854 0.00213578819229765 2.300826558947461 2.2965245716461973 2.3234412247835574 41.703066463342495
decision_type=2 2 2 2 2 2 2 2 2 2 2
left_child=-1 -2 3 -3 5 6 8 -8 10 -10 -4
right_child=1 2 4 -5 -6 -7 7 -9 9 -11 -12
leaf_value=0.012565381970940958 0.0096641257025319536 -0.0023419427010815601 -0.0052714830918843911 0.0069626594032103622 0.0034922468054376698 -0.0090193831136368731 0.0032472681433973593 -0.0044547713857964475 -0.0053209410147223536 0.00078695074823269154 -0.0096471436553421438
leaf_weight=11.005224198102949 11.805239170789717 17.031686693429947 11.391588538885118 19.541224628686905 12.974089503288267 17.102334082126617 11.813276261091234 11.226855993270872 11.218613713979723 10.197925776243208 12.073518723249434
leaf_count=31 34 51 35 57 38 53 35 34 34 31 37
internal_value=0 -0.000953882 -0.00189926 0.00260775 -0.00359241 -0.00468805 -0.00357109 -0.000465553 -0.00513852 -0.00237593 -0.00759671
internal_weight=0 146.376 134.571 36.5729 97.9982 85.0241 67.9218 23.0401 44.8816 21.4165 23.4651
internal_count=470 439 405 108 297 259 206 69 137 65 72
is_linear=0
shrinkage=0.01


Tree=39
num_leaves=11
num_cat=0
split_feature=4 3 1 1 5 5 3 4 4 3
split_gain=19.0786 13.9976 9.07147 6.99949 11.362 6.79633 3.65699 3.23087 2.02826 1.17182
threshold=2.3175331785837483 0.00013865385590960957 -0.00043302773358067087 0.0010394250333554125 0.00086227173912245558 -0.0028748656893105014 0.00027373852250667246 2.2935749131182308 2.2966914422504883 0.0016602755847794361
decision_type=2 2 2 2 2 2 2 2 2 2
left_child=1 7 -3 4 -4 -2 -7 -1 -6 -8
right_child=5 2 3 -5 8 6 9 -9 -10 -11
leaf_value=-0.0021185209867737287 -5.4735406087868522e-05 0.0087156607462384114 0.0050148324170783912 0.0054959446505694924 -0.0091552335297939626 0.010926761392879989 0.0018197605482272313 -0.0087541136004652114 -0.0033268109270340744 0.0066317735542825128
leaf_weight=10.311113148927687 19.882352739572525 10.798658221960066 11.113244503736494 11.292116165161131 16.422925174236301 15.28482401371002 10.4291869699955 30.595044672489166 10.658412933349608 11.508442491292952
leaf_count=31 59 31 33 33 50 44 30 94 32 33
internal_value=0 -0.00260628 0.000443312 -0.00135559 -0.00341641 0.00461775 0.00713381 -0.00711513 -0.00691881 0.00440815
internal_weight=0 101.192 60.2854 49.4867 38.1946 57.1048 37.2225 40.9062 27.0813 21.9376
internal_count=470 304 179 148 115 166 107 125 82 63
is_linear=0
shrinkage=0.01


Tree=40
num_leaves=12
num_cat=0
split_feature=0 0 1 4 4 4 1 3 4 1 3
split_gain=23.0149 23.1404 5.14222 7.8108 10.9675 5.10588 6.80458 5.69533 8.01598 4.00509 0.522768
threshold=2.3091702347102694 2.3234412247835574 0.00033562899461170309 2.3322926844715028 2.3194042547277469 2.2975971657779559 -0.00047978752572808142 -0.0022089330381207524 2.3158994887576472 0.00087781795357111403 -0.0005049784959612057
decision_type=2 2 2 2 2 2 2 2 2 2 2
left_child=5 -2 -3 4 9 10 7 -7 -9 -4 -1
right_child=1 2 3 -5 -6 6 -8 8 -10 -11 -12
leaf_value=-0.0053203139790834334 0.013071884257304078 -0.0057517035838284053 0 0.0089298117029285098 -0.0068707871349182941 -0.0087200823583195586 0.0048913141929604591 -0.0072544357857935154 0.0049569099015543249 0.0085426587535475159 -0.0087717514149706077
leaf_weight=9.5906234979629534 19.819280177354813 10.35657277703285 11.141616910696031 12.02417942881584 15.033768653869627 15.357319563627241 10.765225529670714 9.9501095712184924 11.415070265531538 10.672419577836989 16.588860541582108
leaf_count=30 57 32 34 36 47 49 33 32 35 32 53
internal_value=0 0.00374556 0.000591121 0.00196466 -0.000299156 -0.00401832 -0.00202726 -0.00409037 -0.000690826 0.00419493 -0.00757046
internal_weight=0 79.0478 59.2286 48.872 36.8478 73.6672 47.4877 36.7225 21.3652 21.814 26.1795
internal_count=470 238 181 149 113 232 149 116 67 66 83
is_linear=0
shrinkage=0.01


Tree=41
num_leaves=11
num_cat=0
split_feature=3 6 6 5 3 1 1 5 1 5
split_gain=15.6219 12.6284 10.6377 7.36555 5.314 4.30287 9.84085 1.66824 2.17981 1.40134
threshold=-0.0017392213907720941 98.123872496123738 21.1845908555654 0.0019495496739729836 -0.0026528905191907089 -0.00056370275444761464 0.00064467999901385309 -0.00061556712418542314 0.0010238425113122676 0.00091107418630986825
decision_type=2 2 2 2 2 2 2 2 2 2
left_child=2 3 -1 7 -4 -5 -7 8 -2 -9
right_child=1 -3 4 5 -6 6 -8 9 -10 -11
leaf_value=-0.0008008308657190573 0 0.0044842673761592245 0.013604307766059604 -0.0049770214054404719 0.0044511536331710184 0.0097312040963531479 -0.0039939761174623192 -0.0087570762490138815 -0.0066389492458068721 -0.0045886710782398225
leaf_weight=18.421856254339218 10.014728367328646 23.570422410964966 13.040868014097216 10.492037832736971 13.381638407707213 10.329559713602068 10.261836290359495 22.306537806987762 10.081515252590178 15.415007621049879
leaf_count=55 30 69 37 32 39 30 31 69 31 47
internal_value=0 -0.00199112 0.00498279 -0.00372229 0.00904067 0.000172863 0.00285661 -0.00583032 -0.00338034 -0.00709672
internal_weight=0 112.472 44.8444 88.9012 26.4225 31.0834 20.5914 57.8178 20.0962 37.7215
internal_count=470 339 131 270 76 93 61 177 61 116
is_linear=0
shrinkage=0.01


Tree=42
num_leaves=11
num_cat=0
split_feature=0 0 0 4 6 0 3 3 6 4
split_gain=19.305 8.22035 14.4413 11.7096 8.95433 5.81672 3.21271 2.74413 6.69383 1.14082
threshold=2.3853808946061368 2.3091702347102694 2.1923508959145814 2.3026966766104171 88.750169504197956 2.2836204538935729 -0.00065629721590254586 0.0016602755847794361 27.394331956472382 2.2952525701454221
decision_type=2 2 2 2 2 2 2 2 2 2
left_child=1 2 -1 5 6 -4 -3 8 -5 -8
right_child=-2 4 3 7 -6 -7 9 -9 -10 -11
leaf_value=-0.0087931191099957194 0.010164303010798152 -0.0022159414843175582 -0.0059842101920959817 0.010857716057066044 0.0033744301609516122 0.002757391238459242 -0.0050568803632414687 0.011063499768990412 0.00038404860496866425 -0.0092203446919498361
leaf_weight=12.610297977924345 16.619131326675415 17.099361747503281 15.55230823159218 10.561029851436617 13.185361593961714 14.56134197115898 12.572330772876738 10.50340676307678 14.775231450796126 20.192315489053726
leaf_count=39 47 52 47 30 39 43 38 30 43 62
internal_value=0 -0.00119743 0.000950569 0.0028392 -0.00388708 -0.00172901 -0.00583014 0.00669951 0.00481467 -0.00767343
internal_weight=0 141.613 78.5636 65.9533 63.0494 30.1137 49.864 35.8397 25.3363 32.7646
internal_count=470 423 232 193 191 90 152 103 73 100
is_linear=0
shrinkage=0.01


Tree=43
num_leaves=11
num_cat=0
split_feature=6 3 1 4 6 1 5 1 6 4
split_gain=15.6501 15.0715 4.64755 5.11903 5.58943 4.56532 3.89292 2.72358 2.58636 1.55169
threshold=60.305644232009392 -0.0015537325234027397 0.00014961535778668103 2.2930304192027213 99.570692652517906 0.0010766484920803345 0.0019495496739729836 0.00095538671798545149 11.588960013581714 2.3151479636196712
decision_type=2 2 2 2 2 2 2 2 2 2
left_child=1 7 9 -4 -5 6 8 -1 -3 -2
right_child=2 5 3 4 -6 -7 -8 -9 -10 -11
leaf_value=-0.0054769019851909828 -0.0082766029959377048 0.012735949120755825 -0.0072916981155728838 0.0045455495013311158 -0.0046745877547429079 0.0013955813203013624 0.0025731462083078568 0.00076483501187118389 0.006388264095628887 -0.0033816313335371367
leaf_weight=17.427269756793979 18.920266270637516 14.537911117076876 9.9863521754741651 17.145102500915527 10.466731786727907 16.585780173540115 11.141356647014616 11.169270813465117 13.807500332593916 11.455810040235518
leaf_count=55 61 42 32 52 33 50 34 34 41 36
internal_value=0 0.00286789 -0.00357042 -0.00118184 0.00101016 0.00588338 0.00773486 -0.00300998 0.00971237 -0.00648052
internal_weight=0 84.6691 67.9743 37.5982 27.6118 56.0725 39.4868 28.5965 28.3454 30.3761
internal_count=470 256 214 117 85 167 117 89 83 97
is_linear=0
shrinkage=0.01


Tree=44
num_leaves=11
num_cat=0
split_feature=3 6 6 5 3 1 1 5 6 5
split_gain=15.3139 12.417 10.4401 7.27025 5.18442 4.22414 9.63859 1.65132 2.1839 1.38737
threshold=-0.0017392213907720941 98.123872496123738 21.1845908555654 0.0019495496739729836 -0.0026528905191907089 -0.00056370275444761464 0.00064467999901385309 -0.00061556712418542314 30.944584895284411 0.00091107418630986825
decision_type=2 2 2 2 2 2 2 2 2 2
left_child=2 3 -1 7 -4 -5 -7 8 -2 -9
right_child=1 -3 4 5 -6 6 -8 9 -10 -11
leaf_value=-0.00080542181279145432 -0.006686785251393379 0.0044377994145072845 0.013434450529892471 -0.0049399318072232187 0.0044040130121629183 0.0096105377177509548 -0.0039672085687127972 -0.008715884430343079 -4.1405478357273366e-06 -0.0045609691371578743
leaf_weight=18.424106746912003 9.8633960187435168 23.607834249734879 13.093508481979372 10.463327527046205 13.401921063661574 10.36584258079529 10.242087632417677 22.203608334064484 10.197556912899016 15.381778001785277
leaf_count=55 30 69 37 32 39 30 31 69 31 47
internal_value=0 -0.00197546 0.00492654 -0.00369637 0.00893801 0.000172307 0.00282757 -0.00579558 -0.00335628 -0.00705864
internal_weight=0 112.325 44.9195 88.7176 26.4954 31.0713 20.6079 57.6463 20.061 37.5854
internal_count=470 339 131 270 76 93 61 177 61 116
is_linear=0
shrinkage=0.01


Tree=45
num_leaves=12
num_cat=0
split_feature=0 1 0 6 1 6 3 6 3 0 3
split_gain=18.9949 12.5233 18.2193 7.68134 8.3342 6.63717 4.44443 4.16316 3.34197 1.23669 2.16179
threshold=2.3853808946061368 -0.00044798709738702586 2.1923508959145814 88.312314325341845 0.0010159390442183727 25.34856488192133 0.00091520385387200431 99.635976909131713 -0.00094040442928111634 2.3091702347102694 -0.00030921111884363301
decision_type=2 2 2 2 2 2 2 2 2 2 2
left_child=1 2 -1 4 9 -4 -7 -5 -6 10 -3
right_child=-2 3 5 7 8 6 -8 -9 -10 -11 -12
leaf_value=-0.0085303888344149797 0.010068647193341152 -0.0085943915421744909 0.012831940194597396 0.0063142221004984867 -0.0048364908291757477 -0.0007545502964965273 0.0081140286185092999 -0.0019484489609984301 0.00240014144975241 -0.0088632848969046017 -0.0018614433167914118
leaf_weight=9.9973521232604963 16.660441666841507 10.072482019662859 11.725118339061735 10.67009624838829 10.198889493942263 11.62013825774193 10.544241636991499 13.722883969545364 16.588975787162781 26.379008054733276 9.9808524250984174
leaf_count=31 47 31 33 31 31 34 30 41 49 82 30
internal_value=0 -0.00118952 0.00323117 -0.00318857 -0.00480954 0.00674513 0.00343707 0.00163604 -0.000325596 -0.00736869 -0.00531878
internal_weight=0 141.5 43.8869 97.6132 73.2202 33.8895 22.1644 24.393 26.7879 46.4323 20.0533
internal_count=470 423 128 295 223 97 64 72 80 143 61
is_linear=0
shrinkage=0.01


Tree=46
num_leaves=11
num_cat=0
split_feature=0 0 4 4 4 0 0 4 4 3
split_gain=22.3869 22.335 5.11329 6.3537 5.63208 4.70437 3.62743 8.36109 2.52776 0.521978
threshold=2.3091702347102694 2.3234412247835574 2.2975971657779559 2.3081859539798182 2.3215849348678921 2.3895893536795429 2.3548500224213251 2.2957269670080898 2.3322926844715028 -0.0005049784959612057
decision_type=2 2 2 2 2 2 2 2 2 2
left_child=2 -2 9 -4 -5 6 7 -3 -8 -1
right_child=1 5 3 4 -6 -7 8 -9 -10 -11
leaf_value=-0.005287359700494188 0.012810949890620756 0.0054143135346624198 0.004238446535006931 -0.0081720790458446272 -0.00013598671182630991 -0.0055437762019065534 0.0011776197602015885 -0.0064671124233140814 0.0075881031001661927 -0.0087404336337980268
leaf_weight=9.5606639385223406 19.949867635965347 10.934992194175722 12.008007168769835 17.369688361883163 17.938142865896225 10.19639816880226 12.511487334966661 12.62626591324806 12.965069174766539 16.513780981302261
leaf_count=30 57 33 37 56 56 32 38 39 39 53
internal_value=0 0.00368564 -0.00397588 -0.0019803 -0.0041295 0.000578998 0.00188114 -0.000910995 0.00449594 -0.00753754
internal_weight=0 79.1841 73.3903 47.3158 35.3078 59.2342 49.0378 23.5613 25.4766 26.0744
internal_count=470 238 232 149 112 181 149 72 77 83
is_linear=0
shrinkage=0.01


Tree=47
num_leaves=11
num_cat=0
split_feature=0 0 5 3 1 0 0 0 0 0
split_gain=17.916 10.5214 8.82959 12.8083 14.9317 13.6792 6.60384 3.37071 2.9463 2.3057
threshold=2.1900615506308392 2.3829844398782734 -0.00093844969587753002 0.0016753951450194651 0.00085366747911597163 2.2356895917964796 2.296670020902138 2.3434239657990825 2.2210950002349903 2.3234412247835574
decision_type=2 2 2 2 2 2 2 2 2 2
left_child=-1 2 6 8 5 -5 -2 -8 -4 -10
right_child=1 -3 3 4 -6 -7 7 -9 9 -11
leaf_value=0.01218758638234097 0.0088288956594545064 -0.0079472501894417135 -0.00067824068558275017 -0.0019894929406795358 -0.007877151296098053 0.01172058775527819 -0.0019430049077590729 0.0051009732459465166 -0.0090896889710654974 -0.0034663140605625219
leaf_weight=11.099265545606611 15.935219049453734 18.57289582490921 9.8701897263526899 12.435336858034136 10.56734976172447 17.000523775815964 17.383201718330387 10.931335538625715 20.814538925886154 12.565437555313109
leaf_count=31 46 58 30 37 32 49 52 32 65 38
internal_value=0 -0.000936095 8.27844e-05 -0.00182728 0.00223077 0.00590771 0.00369503 0.000749637 -0.00560024 -0.00701939
internal_weight=0 146.076 127.503 83.2534 40.0032 29.4359 44.2498 28.3145 43.2502 33.38
internal_count=470 439 381 251 118 86 130 84 133 103
is_linear=0
shrinkage=0.01


Tree=48
num_leaves=10
num_cat=0
split_feature=0 0 0 4 6 0 5 4 4
split_gain=18.5613 7.94865 14.0326 11.3282 8.79539 5.67029 3.82229 2.7045 1.41687
threshold=2.3853808946061368 2.3091702347102694 2.1923508959145814 2.3026966766104171 88.750169504197956 2.2836204538935729 -0.0017084535039293411 2.3215849348678921 2.2952525701454221
decision_type=2 2 2 2 2 2 2 2 2
left_child=1 2 -1 5 6 -4 -3 -5 -8
right_child=-2 4 3 7 -6 -7 8 -9 -10
leaf_value=-0.0087207154799743246 0.0099336360999252287 -0.0016144991850663823 -0.0059329332587435583 0.009540197910414815 0.0033590698118869541 0.0027018565875493025 -0.0045828032441405809 0.0038857752565940808 -0.0091961201669178341
leaf_weight=12.506015270948408 16.718476742506027 15.813282638788221 15.488266557455065 16.77309238910675 13.191586315631865 14.589058369398115 11.52886790037155 19.198990166187286 22.260318994522095
leaf_count=39 47 48 47 48 39 43 35 55 69
internal_value=0 -0.00117873 0.000931077 0.00278412 -0.00383129 -0.0017164 -0.00576657 0.00656918 -0.00766973
internal_weight=0 141.349 78.5554 66.0494 62.7941 30.0773 49.6025 35.9721 33.7892
internal_count=470 423 232 193 191 90 152 103 104
is_linear=0
shrinkage=0.01


Tree=49
num_leaves=11
num_cat=0
split_feature=6 3 1 4 6 1 6 1 1 6
split_gain=15.1977 14.56 4.56755 5.03434 5.44323 4.44128 2.86248 4.44841 2.66118 1.54
threshold=60.305644232009392 -0.0015537325234027397 0.00014961535778668103 2.2930304192027213 99.570692652517906 0.0010766484920803345 2.7136601415471309 0.00018003718391379489 0.00095538671798545149 98.123872496123738
decision_type=2 2 2 2 2 2 2 2 2 2
left_child=1 8 9 -4 -5 6 -3 -8 -1 -2
right_child=2 5 3 4 -6 -7 7 -9 -10 -11
leaf_value=-0.0054206957199086116 -0.0044002962553290675 0.0032901861545564758 -0.0072419441276318124 0.0044879865738420852 -0.0046204553869276088 0.0013486716914234088 0.014647416501151849 0.0061500744931173804 0.00075427178532774147 -0.0092238333636508324
leaf_weight=17.336241245269779 17.878079235553745 11.780458569526671 9.9282822608947736 17.177262783050537 10.417064785957338 16.615752190351486 10.272572636604311 17.596481770277023 11.171657890081404 12.318232506513594
leaf_count=55 57 35 32 52 33 50 30 52 34 40
internal_value=0 0.0028205 -0.00352896 -0.00116094 0.00100911 0.00577304 0.00759393 0.00935913 -0.00297172 -0.00642496
internal_weight=0 84.7732 67.7189 37.5226 27.5943 56.2653 39.6495 27.8691 28.5079 30.1963
internal_count=470 256 214 117 85 167 117 82 89 97
is_linear=0
shrinkage=0.01


Tree=50
num_leaves=11
num_cat=0
split_feature=0 6 2 0 3 3 1 0 0 3
split_gain=17.5064 11.8065 9.66244 6.76949 5.47556 8.66051 4.87159 2.16067 2.35933 2.00353
threshold=2.1900615506308392 99.635976909131713 -0.013966049386497257 2.3829844398782734 -0.0017392213907720941 0.0028219828197464385 -0.00020127689268045754 2.3234412247835574 2.3007684909347268 0.00081190011770604375
decision_type=2 2 2 2 2 2 2 2 2 2
left_child=-1 2 -2 4 6 7 -4 8 9 -6
right_child=1 -3 3 -5 5 -7 -8 -9 -10 -11
leaf_value=0.012023225177441477 0.0062967224261397938 0.0067944502289698019 -0.0025412928965456573 -0.0088745364244898657 -0.00097007225991355595 0.0025644885757635399 0.0060912632284885141 -0.0022111151426832207 -0.0095374380656353137 -0.0071573660535504055
leaf_weight=11.140156239271162 12.559283524751661 17.287700235843658 12.056753426790239 16.226040750741959 10.187202364206316 18.644255131483078 13.812810122966765 17.096979886293411 16.316825926303864 11.754073679447172
leaf_count=31 37 50 36 51 31 55 40 52 51 36
internal_value=0 -0.00092805 -0.00197799 -0.00288641 -0.00189559 -0.00328414 0.00203518 -0.00527314 -0.00660611 -0.00434745
internal_weight=0 145.942 128.654 116.095 99.8689 73.9993 25.8696 55.3551 38.2581 21.9413
internal_count=470 439 389 352 301 225 76 170 118 67
is_linear=0
shrinkage=0.01


Tree=51
num_leaves=10
num_cat=0
split_feature=0 0 0 4 6 0 5 4 4
split_gain=18.2125 7.83383 13.821 11.1044 8.70018 5.57773 3.79567 2.6431 1.4078
threshold=2.3853808946061368 2.3091702347102694 2.1923508959145814 2.3026966766104171 88.750169504197956 2.2836204538935729 -0.0017084535039293411 2.3215849348678921 2.2952525701454221
decision_type=2 2 2 2 2 2 2 2 2
left_child=1 2 -1 5 6 -4 -3 -5 -8
right_child=-2 4 3 7 -6 -7 8 -9 -10
leaf_value=-0.0086807734480022509 0.0098250108172341349 -0.0015976441673908384 -0.0058949856702812291 0.0094306745074151429 0.0033396490756237912 0.0026724384974407766 -0.004558054517888919 0.0038454728322725525 -0.0091625455064119794
leaf_weight=12.448307245969771 16.764203578233719 15.797297626733778 15.443295538425447 16.824681133031845 13.201365768909453 14.604965835809706 11.508967041969298 19.224646508693695 22.172528564929962
leaf_count=39 47 48 47 48 39 43 35 55 69
internal_value=0 -0.00116963 0.000923954 0.00275832 -0.00380636 -0.00170257 -0.00573603 0.0064987 -0.00763694
internal_weight=0 141.226 78.5459 66.0976 62.6802 30.0483 49.4788 36.0493 33.6815
internal_count=470 423 232 193 191 90 152 103 104
is_linear=0
shrinkage=0.01


Tree=52
num_leaves=11
num_cat=0
split_feature=0 0 4 4 4 0 0 4 4 3
split_gain=21.7232 21.5367 5.11759 6.22803 5.56819 4.60586 3.53108 8.23031 2.46761 0.52293
threshold=2.3091702347102694 2.3234412247835574 2.2975971657779559 2.3081859539798182 2.3215849348678921 2.3895893536795429 2.3548500224213251 2.2957269670080898 2.3322926844715028 -0.0005049784959612057
decision_type=2 2 2 2 2 2 2 2 2 2
left_child=2 -2 9 -4 -5 6 7 -3 -8 -1
right_child=1 5 3 4 -6 -7 8 -9 -10 -11
leaf_value=-0.0052477776673847069 0.012547243445919228 0.0053536513760486298 0.0042208035059674654 -0.0081099376791320694 -9.8565988177372397e-05 -0.0055062031429907099 0.001145073662550095 -0.0064367481675455486 0.0074714392975573033 -0.0087071290085137462
leaf_weight=9.5259505212306994 20.077760428190231 10.957115948200228 12.012053668498991 17.228016793727875 17.893827199935913 10.162252485752104 12.526861071586611 12.585766941308973 13.016381233930586 16.432362139225006
leaf_count=30 57 33 37 56 56 32 38 39 39 53
internal_value=0 0.00362182 -0.00392999 -0.0019304 -0.00406858 0.000564324 0.00185007 -0.000907636 0.00442444 -0.00750103
internal_weight=0 79.3261 73.0922 47.1339 35.1218 59.2484 49.0861 23.5429 25.5432 25.9583
internal_count=470 238 232 149 112 181 149 72 77 83
is_linear=0
shrinkage=0.01


Tree=53
num_leaves=12
num_cat=0
split_feature=0 4 3 6 6 4 3 4 4 0 6
split_gain=17.0811 13.844 9.56165 7.48136 7.10671 3.84077 3.08492 3.23955 2.88976 2.02814 0.969351
threshold=2.1900615506308392 2.2929094461457278 -0.0017392213907720941 23.072904215289409 99.635976909131713 2.326613516513854 0.00213578819229765 2.300826558947461 2.2965245716461973 2.3234412247835574 41.703066463342495
decision_type=2 2 2 2 2 2 2 2 2 2 2
left_child=-1 -2 3 -3 5 6 8 -8 10 -10 -4
right_child=1 2 4 -5 -6 -7 7 -9 9 -11 -12
leaf_value=0.011852286586679351 0.0093574114236536152 -0.0023299519263102779 -0.0050704311695642127 0.0066716702105226212 0.0033076869156061727 -0.0088707719573831879 0.003143128646641357 -0.0043293178565440849 -0.0051984323426879165 0.00089732456786376124 -0.0095556525506059059
leaf_weight=11.181700974702833 11.901526212692259 17.002868086099625 11.205493152141573 19.71238961815834 13.060583084821699 16.789529591798782 11.845281749963762 11.120610415935515 11.110005587339403 10.133414447307585 11.937434285879133
leaf_count=31 34 51 35 57 38 53 35 34 34 31 37
internal_value=0 -0.000919201 -0.00184627 0.00248084 -0.00349185 -0.00456183 -0.00346131 -0.000434929 -0.00500021 -0.00225324 -0.00745815
internal_weight=0 145.819 133.918 36.7153 97.2024 84.1418 67.3522 22.9659 44.3863 21.2434 23.1429
internal_count=470 439 405 108 297 259 206 69 137 65 72
is_linear=0
shrinkage=0.01


end of trees

feature_importances:
price_close=119
MFI=103
VWAP=96
diff_MA_100=90
diff_MA_9=69
diff_divergence=68
diff_price_close=6

parameters:
[boosting: gbdt]
[objective: multiclass]
[metric: multi_logloss]
[tree_learner: serial]
[device_type: cpu]
[data_sample_strategy: bagging]
[data: ]
[valid: ]
[num_iterations: 5000]
[learning_rate: 0.01]
[num_leaves: 31]
[num_threads: 4]
[seed: 0]
[deterministic: 0]
[force_col_wise: 0]
[force_row_wise: 0]
[histogram_pool_size: -1]
[max_depth: 10]
[min_data_in_leaf: 30]
[min_sum_hessian_in_leaf: 0.001]
[bagging_fraction: 0.6]
[pos_bagging_fraction: 1]
[neg_bagging_fraction: 1]
[bagging_freq: 0]
[bagging_seed: 3]
[feature_fraction: 0.7]
[feature_fraction_bynode: 1]
[feature_fraction_seed: 2]
[extra_trees: 0]
[extra_seed: 6]
[early_stopping_round: 0]
[first_metric_only: 0]
[max_delta_step: 0]
[lambda_l1: 0.1]
[lambda_l2: 0.1]
[linear_lambda: 0]
[min_gain_to_split: 0.1]
[drop_rate: 0.1]
[max_drop: 50]
[skip_drop: 0.5]
[xgboost_dart_mode: 0]
[uniform_drop: 0]
[drop_seed: 4]
[top_rate: 0.2]
[other_rate: 0.1]
[min_data_per_group: 100]
[max_cat_threshold: 32]
[cat_l2: 10]
[cat_smooth: 10]
[max_cat_to_onehot: 4]
[top_k: 20]
[monotone_constraints: ]
[monotone_constraints_method: basic]
[monotone_penalty: 0]
[feature_contri: ]
[forcedsplits_filename: ]
[refit_decay_rate: 0.9]
[cegb_tradeoff: 1]
[cegb_penalty_split: 0]
[cegb_penalty_feature_lazy: ]
[cegb_penalty_feature_coupled: ]
[path_smooth: 0]
[interaction_constraints: ]
[verbosity: 0]
[saved_feature_importance_type: 0]
[use_quantized_grad: 0]
[num_grad_quant_bins: 4]
[quant_train_renew_leaf: 0]
[stochastic_rounding: 1]
[linear_tree: 0]
[max_bin: 255]
[max_bin_by_feature: ]
[min_data_in_bin: 3]
[bin_construct_sample_cnt: 200000]
[data_random_seed: 1]
[is_enable_sparse: 1]
[enable_bundle: 1]
[use_missing: 1]
[zero_as_missing: 0]
[feature_pre_filter: 1]
[pre_partition: 0]
[two_round: 0]
[header: 0]
[label_column: ]
[weight_column: ]
[group_column: ]
[ignore_column: ]
[categorical_feature: ]
[forcedbins_filename: ]
[precise_float_parser: 0]
[parser_config_file: ]
[objective_seed: 5]
[num_class: 3]
[is_unbalance: 0]
[scale_pos_weight: 1]
[sigmoid: 1]
[boost_from_average: 1]
[reg_sqrt: 0]
[alpha: 0.9]
[fair_c: 1]
[poisson_max_delta_step: 0.7]
[tweedie_variance_power: 1.5]
[lambdarank_truncation_level: 30]
[lambdarank_norm: 1]
[label_gain: ]
[lambdarank_position_bias_regularization: 0]
[eval_at: ]
[multi_error_top_k: 1]
[auc_mu_weights: ]
[num_machines: 1]
[local_listen_port: 12400]
[time_out: 120]
[machine_list_filename: ]
[machines: ]
[gpu_platform_id: -1]
[gpu_device_id: -1]
[gpu_use_dp: 0]
[num_gpu: 1]

end of parameters

pandas_categorical:[]
