tree
version=v4
num_class=3
num_tree_per_iteration=3
label_index=0
max_feature_idx=9
objective=multiclass num_class:3
feature_names=price_close diff_MA_100 diff_MA_50 diff_MA_9 diff_divergence divergence OBV VWAP MFI Volume_Oscillator
feature_infos=[0.61437739736714159:1.437442303658214] [-0.0073023982264831533:0.0075701201089956038] [-0.014627416836021978:0.014917094338615433] [-0.081685084885091186:0.082887943298477929] [-0.081826506240206265:0.075317823189482325] [-0.050774887454080431:0.08419761808923365] [0.25903346537362681:66.094939275444148] [0.62947719921921719:0.84300126980002144] [5.8959499398270054e-06:100] [-0.99805693898916836:0.99823376887195614]
tree_sizes=2819 3296 3383 3008 3429 3442 3429 3415 3434 2811 3440 3441 3029 3407 3448 3431 3421 3454 3033 3456 3442 2919 3448 3445 3422 3441 3446 3460 3447 3430 3105 3438 3454 3361 3416 3433 3343 3437 3441 3015 3453 3446 3119 3445 3414 3034 3440 3452 2913 3437 3459 3444 3438 3423 3009 3429 3439 3014 3424 3441 3028 3433 3450 3236 3418 3457 3252 3426 3444 3024 3457 3450 2712 3405 3464 3033 3450 3428 3132 3465 3471 2717 3437 3447 3455 3453 3462 3141 3394 3448 3381 3458 3454 3363 3454 3440 2931 3420 3468 3131 3423 3458 2927 3427 3456 3162 3410 3448 3228 3472 3436 2811 3450 3441 3263 3436 3471 3384 3427 3448 3322 3444 3443 3476 3450 3470 3430 3416 3433 3125 3413 3450 3436 3455 3456 3259 3473 3475 3443 3457 3469 3256 3414 3458 2931 3449 3452 3266 3420 3446 3357 3439 3474 3015 3405 3438 3140 3459 3470 3153 3457 3443 3424 3449 3429 3481 3447 3427 3456 3441 3481 3464 3434 3459 3472 3459 3483 3483 3410 3476 3473 3459 3474 3473 3469 3463 3123 3413 3465 3437 3460 3439 3458 3479 3451 2843 3439 3257 3459 3418 3429 3330 3434 3465 2931 3436 3427 3420 3466 3457 2929 3465 3458 3457 3455 3467 3354 3431 3259 3444 3458 3461 3467 3421 3482 2826 3429 3469 3450 3444 3443 3431 3459 3473 3450 3436 3468 3354 3469 3466 3464 3438 3477 2944 3446 3424 3263 3438 3481 3395 3431 3481 2931 3435 3431 3454 3455 3453 3504 3433 3333 3445 3420 3445 3472 3438 3468 3369 3445 3467 3142 3434 3334 3423 3442 3482 3354 3444 3438 3437 3452 3433 3500 3458 3453 3161 3446 3441 3450 3444 3460 3474 3427 3445 3441 3454 3469 3145 3429 3442 3360 3439 3465 3428 3457 3462 3170 3433 3458 3411 3440 3457 3470 3440 3482 3423 3475 3475 3449 3434 3456 3385 3457 3444 3483 3441 3447 3445 3448 3481 3449 3488 3459 3451 3459 3461 3451 3440 3462 3464 3433 3492 3478 3440 3472 3413 3436 3470 3430 3451 3462 3438 3460 3448 3427 3481 3445 3495 3484 3434 3471 3470 3434 3453 3449 3454 3437 3452 3424 3462 3434 3449 3358 3434 3450 3480 3406 3489 3342 3435 3470 3487 3442 3439 3479 3457 3462 3478 3459 3459 3442 3456 3467 3477 3426 3449 3500 3473 3463 3493 3479 3413 3462 3464 3438 3338 3401 3473 3418 3456 3487 3250 3467 3455 3461 3406 3474 3457 3455 3466 3461 3419 3462 3476 3152 3427 3489 3449 3449 3421 3038 3472 3322 3455 3472 3323 3450 3456 3450 3031 3464 3130 3154 3460 3466 2923 3447 3170 3012 3448 3366 3431 3466 3449 3013 3469 3449 3151 3457 3455 3217 3485 3446 3034 3475 3449 3453 3450 3505 3457 3466 3347 3450 3445 3461 3439 3435 3423 3454 3443 3134 3459 3439 3421 3402 3469 3463 3004 3466 3445 3427 3469 3355 3398 3480 3348 3441 3479 3443 3344 3445 3436 2933 3441 3432 3464 3463 3450 2921 3465 3460 3462 3469 3436 3131 3465 3419 3321 3464 3417 3493 3460 3455 3139 3465 3421 3476 3463 3464 3437 3477 3460 3244 3480 3406 3469 3476 3417 2915 3481 3477 3237 3473 3461 3458 3467 3448 3392 3468 3428 3459 3447 3445 3437 3469 3393 3478 3456 3484 3450 3435 3448 3341 3443 3389 3252 3448 3490 3034 3450 3448 3245 3436 3465 3445 3444 3432 3461 3448 3469 3470 3335 3435 3472 3453 3439 3457 3435 3430 3342 3425 3433 3319 3446 3401 3461 3443 3444 3047 3473 3429 3488 3459 3404 3465 3479 3454 2915 3479 3445 3241 3492 3430 3472 3446 3457 3361 3461 3440 3484 3463 3486 3471 3451 3450 3469 3481 3461 3436 3468

Tree=0
num_leaves=26
num_cat=0
split_feature=2 2 2 0 8 9 5 5 5 7 8 5 8 5 0 8 2 5 3 0 3 2 7 2 9
split_gain=939.633 47.9929 29.6294 15.504 11.5352 10.481 10.1029 9.96561 8.63375 7.83468 5.70854 3.26654 2.81007 2.70056 2.31103 1.95393 2.54783 1.59887 1.18419 1.02387 0.736447 0.613863 0.584057 1.21296 0.549021
threshold=-0.00011211813554329318 -0.00024758279981912373 4.6537135787727566e-06 0.80427203137207282 53.099633230558275 -0.56730035194713568 -0.0094909859710231564 0.0038798186506235348 -0.00151248344398458 0.65284301590209692 50.515592191185327 0.00072772544445631759 56.149099138297281 -0.0052026332312641857 0.72027837405401496 50.515592191185327 -0.00068638076680371796 -0.013170195380093506 -0.002123822897568461 0.69759777531904477 0.00021107479145193733 0.00010343580724209157 0.82436165930554872 0.00022622216413425991 -0.87800430342824876
decision_type=2 2 2 2 2 2 2 2 2 2 2 2 2 2 2 2 2 2 2 2 2 2 2 2 2
left_child=1 7 3 9 -5 -3 -4 15 10 -2 -7 12 13 -8 -15 -1 -17 -18 -13 20 -11 -14 24 -24 -20
right_child=2 5 6 4 -6 8 11 -9 -10 19 -12 18 21 14 -16 16 17 -19 22 -21 -22 -23 23 -25 -26
leaf_value=-1.1853694825052028 -1.2052600886699192 -1.2060465398330038 -1.2060465398330038 -1.1943218069200758 -1.2074368918201901 -1.1885326032285886 -1.2151263794586755 -1.1973941653839637 -1.2013250099196084 -1.2161689462092693 -1.1970623560146529 -1.2120076926114216 -1.21303853719123 -1.2121394843252891 -1.2054491830221437 -1.1850519492923322 -1.1922885260329559 -1.1876900163585418 -1.2133903760842031 -1.2108184358030358 -1.2124900805415395 -1.2161896859174308 -1.2113090266992994 -1.2155711698065015 -1.2161604754315745
leaf_weight=92.462694525718689 13.523455321788786 11.636461555957792 11.636461555957792 10.378465712070467 18.240939736366272 17.92644077539444 10.378465712070467 9.4349688291549665 17.297442853450775 19.813434541225437 16.039447009563446 9.7494677901267988 12.894457399845122 10.063966751098635 10.063966751098631 22.643925189971924 19.498935580253601 22.643925189971924 11.007463634014128 9.4349688291549665 11.007463634014128 25.159916877746582 10.378465712070463 31.449896097183228 300.03200876712799
leaf_count=294 43 37 37 33 58 57 33 30 55 63 51 31 41 32 32 72 62 72 35 30 35 80 33 100 954
internal_value=-1.20675 -1.18988 -1.21413 -1.20861 -1.20269 -1.19738 -1.21516 -1.18707 -1.19544 -1.21178 -1.19249 -1.2154 -1.21333 -1.21098 -1.20875 -1.18646 -1.18806 -1.18975 -1.21579 -1.21399 -1.21491 -1.21517 -1.21589 -1.21455 -1.21607
internal_weight=0 229.584 525.213 82.3987 28.6194 62.8998 442.815 166.684 51.2633 53.7793 33.9659 431.178 68.5608 30.5064 20.1279 157.249 64.7868 42.1429 362.617 40.2559 30.8209 38.0544 352.868 41.8284 311.039
internal_count=2400 730 1670 262 91 200 1408 530 163 171 108 1371 218 97 64 500 206 134 1153 128 98 121 1122 133 989
is_linear=0
shrinkage=1


Tree=1
num_leaves=31
num_cat=0
split_feature=0 2 2 2 7 2 2 7 3 2 9 9 9 9 6 7 2 0 7 6 9 2 2 9 0 6 6 9 0 0
split_gain=136.77 62.9676 56.0927 71.572 50.5799 24.9099 23.9574 22.4553 17.4606 9.89631 9.14217 15.3872 9.05771 20.0333 8.71717 7.05909 6.65187 6.07235 6.25071 5.61489 5.0147 4.76098 4.10458 4.23969 4.00877 3.67894 2.83465 6.67369 2.614 4.48187
threshold=0.67445890386059848 0.00017068637259265443 0.00029248241845752926 -0.00033815648772811396 0.65263306789242004 0.00014108411549013103 -0.00012991607940376901 0.64897931172813117 0.0013557078235281741 -1.2667182274217479e-05 -0.29190430333421225 0.24065386753624635 -0.39932768132632218 0.15107601052368896 2.1194573030972905 0.6652458513134899 -0.00018146702940341483 0.82102415148115371 0.80166085785165953 5.8463024542931104 -0.013570611768596846 0.00025844477438718988 6.4562514269617135e-05 0.76399817925859981 0.82026910561847222 1.2788788249428047 1.5329479656256029 -0.14122900056030482 0.71705536167360351 0.69681858012851439
decision_type=2 2 2 2 2 2 2 2 2 2 2 2 2 2 2 2 2 2 2 2 2 2 2 2 2 2 2 2 2 2
left_child=1 4 3 -2 7 6 14 -1 12 -6 -11 -12 15 24 26 -8 -9 28 -19 -16 -20 -3 23 -15 -14 -17 27 -5 29 -7
right_child=2 21 -4 5 9 17 8 16 -10 10 11 -13 13 22 19 25 -18 18 20 -21 -22 -23 -24 -25 -26 -27 -28 -29 -30 -31
leaf_value=-1.5086988946186788 -1.5322756531944628 -1.5245963898244999 -1.5326354571544007 -1.5173398652604777 -1.5015569084037528 -1.5303135244481842 -1.5031622663851953 -1.5330754039469823 -1.5293952919704039 -1.5018008827643616 -1.5227339394831996 -1.5052533042134195 -1.5269416403265434 -1.5069960711124795 -1.5333661716790361 -1.5203686378526491 -1.5212064831355547 -1.5163839406798758 -1.5325485622434629 -1.5238882385353545 -1.5212064831355547 -1.5332225920053086 -1.5177636839881605 -1.516625193191864 -1.5199985828970772 -1.5115630428709257 -1.516625193191864 -1.5302242962435406 -1.5314818890397806 -1.5222676679604137
leaf_weight=8.1693000793457049 106.45619165897369 11.488078236579897 160.83309531211853 7.6587188243865976 27.571387767791748 16.33860015869141 7.6587188243865993 11.74336886405945 10.977496981620787 9.1904625892639178 10.466915726661684 9.9563344717025739 18.380925178527832 14.296275138854982 16.593890786170963 7.9140094518661526 7.6587188243865958 8.9351719617843646 7.6587188243865967 9.7010438442230207 7.6587188243865949 13.785693883895872 12.764531373977659 7.914009451866149 14.806856393814085 14.551565766334532 7.914009451866149 8.1693000793457031 23.74202835559845 11.743368864059446
leaf_count=32 417 45 630 30 108 64 30 46 43 36 41 39 72 56 65 31 30 35 30 38 30 54 50 31 58 57 31 32 93 46
internal_value=-1.52556 -1.51546 -1.52777 -1.52548 -1.51133 -1.5224 -1.52015 -1.52252 -1.51753 -1.50597 -1.51019 -1.51411 -1.51619 -1.51826 -1.52586 -1.51158 -1.52834 -1.52709 -1.523 -1.52984 -1.52682 -1.52927 -1.51298 -1.51033 -1.52387 -1.51458 -1.5215 -1.52404 -1.52903 -1.52691
internal_weight=0 110.03 502.667 341.834 84.7565 235.378 159.301 27.5714 109.264 57.1851 29.6137 20.4233 98.2869 68.1626 50.037 30.1243 19.4021 76.0766 24.2526 26.2949 15.3174 25.2738 34.9748 22.2103 33.1878 22.4656 23.742 15.828 51.824 28.082
internal_count=2400 431 1969 1339 332 922 624 108 428 224 116 80 385 267 196 118 76 298 95 103 60 99 137 87 130 88 93 62 203 110
is_linear=0
shrinkage=1


Tree=2
num_leaves=31
num_cat=0
split_feature=5 5 7 4 5 7 5 7 1 7 1 7 5 0 0 4 1 1 1 3 4 9 0 7 9 3 3 9 5 5
split_gain=525.674 113.093 39.1634 33.7753 25.5626 26.968 25.4251 20.3131 37.4464 23.013 14.8879 12.5088 11.1383 11.0422 10.3879 7.95601 7.31317 7.0945 6.59943 6.56301 4.89566 4.60667 3.88663 4.10486 3.70998 2.28494 4.48387 1.83783 1.17055 0.886247
threshold=0.0073380560129632242 -0.010881538627853181 0.65429015676722879 6.7091175498634761e-05 0.00033833265483251834 0.83173293532992887 0.01286121509162347 0.67764156163640743 -0.0002663815708536243 0.66122261790333525 0.00021900546462072515 0.83573819414679462 0.0026067840978457606 0.79574411413763968 0.85346225638331175 0.00052833294897158833 0.0002682485871539631 6.2550145859818787e-05 0.00017683119752875956 -0.002123822897568461 -0.00029645424094448808 -0.50374290837636171 0.69848985402359987 0.75480238599846761 -0.39194130868520488 0.000724206605979827 0.0004330469639537427 -0.11233758293583551 0.0098109162325089611 0.048721437275041919
decision_type=2 2 2 2 2 2 2 2 2 2 2 2 2 2 2 2 2 2 2 2 2 2 2 2 2 2 2 2 2 2
left_child=1 -1 15 7 5 18 13 9 14 12 24 19 -4 16 -9 -3 21 -15 22 -8 -10 -2 -5 -24 -6 26 -26 -14 -23 -21
right_child=6 2 3 4 10 -7 11 8 20 -11 -12 -13 27 17 -16 -17 -18 -19 -20 29 -22 28 23 -25 25 -27 -28 -29 -30 -31
leaf_value=-0.73964866419103104 -0.72285078866174834 -0.73875790353891568 -0.7368300922311678 -0.73622183008880548 -0.72402110803480313 -0.71965012122768823 -0.72228577760232282 -0.72983417066009271 -0.73881851041786351 -0.71858755901773885 -0.73181168689521692 -0.72541224576724861 -0.73004762961778147 -0.7198664674512113 -0.71676191513896148 -0.73027810241992208 -0.72505406938335693 -0.72930905060770612 -0.73975640555296074 -0.71404206416308813 -0.73278353146515007 -0.71728094446534363 -0.7252084673096052 -0.73248021491199511 -0.71670581221563379 -0.71565550592084592 -0.72429526926108301 -0.72477492843643199 -0.71338722824723988 -0.71733633886123904
leaf_weight=172.30833351612091 11.612083345651625 52.067083388566971 19.852916687726974 11.237500011920927 14.983333349227903 20.60208335518837 11.237500011920927 11.986666679382326 63.679166734218597 20.976666688919067 11.237500011920927 11.612083345651625 11.237500011920931 12.36125001311302 11.986666679382322 14.608750015497206 15.357916682958601 21.725833356380463 11.612083345651625 193.65958353877068 18.354583352804184 22.849583357572556 13.485000014305117 17.605416685342789 17.980000019073486 21.725833356380463 14.608750015497206 15.732500016689299 17.980000019073486 12.735833346843718
leaf_count=460 31 139 53 30 40 55 30 32 170 56 30 31 30 33 32 39 41 58 31 517 49 61 36 47 48 58 39 42 48 34
internal_value=-0.727049 -0.732888 -0.729938 -0.728516 -0.725128 -0.729337 -0.717037 -0.731543 -0.734276 -0.727252 -0.721222 -0.715185 -0.731165 -0.721221 -0.723324 -0.736923 -0.718887 -0.725903 -0.733063 -0.714644 -0.737489 -0.717107 -0.731177 -0.729298 -0.719486 -0.718261 -0.720059 -0.727012 -0.715513 -0.714236
internal_weight=0 567.868 395.56 328.884 155.078 74.5421 331.132 173.807 106.007 67.7996 80.5354 229.245 46.8229 101.887 23.9733 66.6758 67.7996 34.0871 53.94 217.633 82.0338 52.4417 42.3279 31.0904 69.2979 54.3146 32.5888 26.97 40.8296 206.395
internal_count=2400 1516 1056 878 414 199 884 464 283 181 215 612 125 272 64 178 181 91 144 581 219 140 113 83 185 145 87 72 109 551
is_linear=0
shrinkage=1


Tree=3
num_leaves=27
num_cat=0
split_feature=2 2 2 7 8 7 6 2 2 6 8 2 7 8 3 1 6 8 2 8 8 1 7 6 6 6
split_gain=916.216 45.7238 29.3277 13.3033 12.6018 7.53658 6.4677 5.60076 4.68166 4.64004 6.37602 4.00379 11.9262 6.0196 7.43593 3.56955 2.2518 1.95255 1.36146 1.20363 2.63727 1.12483 0.766234 0.398243 2.10514 0.141403
threshold=-0.00011211813554329318 -0.00024758279981912373 4.6537135787727566e-06 0.73235994285953454 53.099633230558275 0.65284301590209692 5.7909636696428572 -0.00018146702940341483 -0.00033815648772811396 1.2835001858444806 53.099633230558275 0.00027463888836504197 0.72463969118268079 65.119405339787718 0.00034638431676153886 -4.9497045955748657e-05 0.65016648752563444 63.163239893886036 -0.00068638076680371796 69.257320231620881 33.915829191412556 -0.00011725746652296863 0.80083411129737669 0.64732704543970365 0.62775368906731321 6.8703945003796649
decision_type=2 2 2 2 2 2 2 2 2 2 2 2 2 2 2 2 2 2 2 2 2 2 2 2 2 2
left_child=1 8 3 5 -5 -2 -6 21 17 -9 -11 12 23 14 15 -14 -7 -1 -19 20 -10 -3 -15 24 -4 -13
right_child=2 7 11 4 6 16 -8 9 19 10 -12 25 13 22 -16 -17 -18 18 -20 -21 -22 -23 -24 -25 -26 -27
leaf_value=0.020906193598953543 0.0014718636790498557 0.0096067540231096656 -0.0091431259525474734 0.012271914879827499 0.0042331890251711968 -0.0043688542246488734 -0.0072087785205359701 0.0025708152828511428 0.017659418132626534 0.015645202222314417 0.0042979884099349375 -0.0094156664239983361 -0.0074279575479912919 -0.0056397786236224972 0.0048088810941402209 6.3308560134351538e-05 -0.0093891401476859579 0.020264574930635441 0.015350457235536826 0.018779670457058445 0.0100527108894445 0.014595942541035472 -0.0093330924811087131 -0.0093615817601250938 -0.0038924519415786687 -0.0073725970968474266
leaf_weight=103.15004989504814 13.540338337421415 9.8114810883998889 35.373070478439331 10.436502337455751 10.0754711329937 17.862897783517838 9.4332640171051008 16.412614315748215 10.173366993665701 9.8160715103149432 10.735548287630079 211.99591740965843 15.368405759334562 15.988348990678789 13.178264826536177 10.354920715093614 20.978398144245148 14.965205371379851 18.745690077543259 10.476577073335646 11.105408370494841 16.45819029211998 12.534682124853132 104.49182185530663 10.969837248325346 10.326681166887282
leaf_count=324 43 31 113 33 32 57 30 52 32 31 34 678 49 51 42 33 67 47 59 33 35 52 40 334 35 33
internal_value=0 0.0165419 -0.0073367 -0.00183986 0.00344995 -0.00488378 -0.00125702 0.00923771 0.0192681 0.00664147 0.0098157 -0.00836091 -0.00736679 -0.00383621 -0.00124054 -0.00438506 -0.00712317 0.0201163 0.017615 0.0155293 0.0138018 0.0128139 -0.00732471 -0.00893478 -0.00793283 -0.00932862
internal_weight=0 231.85 522.909 82.3269 29.9452 52.3816 19.5087 63.2339 168.616 36.9642 20.5516 440.582 218.259 67.4246 38.9016 25.7233 38.8413 136.861 33.7109 31.7554 21.2788 26.2697 28.523 150.835 46.3429 222.323
internal_count=2400 730 1670 262 95 167 62 200 530 117 65 1408 697 215 124 82 124 430 106 100 67 83 91 482 148 711
is_linear=0
shrinkage=0.01


Tree=4
num_leaves=31
num_cat=0
split_feature=0 2 2 2 5 2 2 3 9 9 6 2 2 0 6 5 6 5 6 6 9 4 5 5 0 5 0 6 9 0
split_gain=133.582 60.9593 55.404 70.6265 46.7154 24.3871 23.3384 17.0965 8.73797 19.5 8.5958 7.2947 9.81385 5.98671 5.93461 5.71168 5.58469 5.57538 8.29476 5.09886 4.72463 5.24813 4.1692 12.2085 3.94907 3.76058 3.65798 2.76654 6.56359 2.59453
threshold=0.67445890386059848 0.00017068637259265443 0.00029248241845752926 -0.00033815648772811396 -0.0078895886112730334 0.00014108411549013103 -0.00012991607940376901 0.0013557078235281741 -0.39932768132632218 0.15107601052368896 2.1194573030972905 0.00010031567835050438 -0.00011211813554329318 0.82102415148115371 0.61883516433433583 0.0074583562819894875 5.8463024542931104 -0.0008043969871351363 0.82127239566101895 6.4035944283199244 0.2187809888102886 -0.00026816720899702767 0.0035382700250116144 -0.0032065584365048023 0.82026910561847222 0.00637413732468295 0.8225222081772493 1.5329479656256029 -0.14122900056030482 0.71705536167360351
decision_type=2 2 2 2 2 2 2 2 2 2 2 2 2 2 2 2 2 2 2 2 2 2 2 2 2 2 2 2 2 2
left_child=1 4 3 -2 -1 6 10 8 17 24 27 12 14 29 -6 -3 -12 -8 -19 -15 21 -14 23 -11 -10 26 -4 28 -5 -7
right_child=2 15 25 5 11 13 7 -9 9 22 16 -13 20 19 -16 -17 -18 18 -20 -21 -22 -23 -24 -25 -26 -27 -28 -29 -30 -31
leaf_value=-0.0082908668282395577 -0.0066980305538029625 0.0018635060669038902 -0.0082947778467276183 0.0081233932347660829 0.016663605049938978 -0.0013464196405891062 0.006552414307072112 -0.0038335155496660956 -0.0013885175497536726 0.01780582351059478 -0.0077924698869265754 0.0090713054664812113 0.022259191538029056 0.0065186943375377003 0.0046544062960754001 -0.007703962312423142 0.0016672669929704547 0.024047102550792135 0.011113699809714486 -0.0026544823078020448 0.023980958603012349 0.012915786279867057 0.016039089047002245 0.0013036249103575584 0.0054952384899962783 -0.0076842028448255344 -6.0424876488634733e-06 0.0088183258013949852 -0.0046475555384392995 -0.005903400893113535
leaf_weight=8.396198630332945 106.01105469465256 10.476608961820604 8.6445029675960559 7.6949328780174264 9.0162881314754504 28.052614867687225 8.4988840818405169 10.969987034797667 18.386719524860382 8.2420365810394269 16.521336585283283 12.374840021133421 11.899276942014692 13.841909974813463 8.2243001461029035 14.730858594179152 9.7016700208187086 8.7889389991760272 13.118412822484968 10.453103601932524 20.478115737438202 15.257320612668993 16.978231072425842 10.037209659814836 14.860691219568251 137.02007758617401 14.235639333724974 7.9578128159046164 8.1457200348377228 23.652298539876938
leaf_count=33 417 41 34 30 35 110 33 43 72 32 65 48 46 54 32 58 38 34 51 41 79 59 66 39 58 540 56 31 32 93
internal_value=0 0.00992989 -0.00219482 7.50444e-05 0.0139517 0.00312455 0.00534151 0.00791754 0.00923348 0.00720378 -0.000301747 0.0163897 0.0177542 -0.00152766 0.0110524 -0.00369641 -0.00426164 0.013735 0.0164335 0.00253617 0.0201306 0.0171131 0.0123785 0.0088552 0.0016656 -0.00705173 -0.00320365 0.00401931 0.00150551 -0.00345768
internal_weight=0 110.854 501.814 341.914 85.6463 235.903 159.903 109.881 98.9111 68.5049 50.0215 77.2501 64.8753 75.9999 17.2406 25.2075 26.223 30.4062 21.9074 24.295 47.6347 27.1566 35.2575 18.2792 33.2474 159.9 22.8801 23.7985 15.8407 51.7049
internal_count=2400 431 1969 1339 332 922 624 428 385 267 196 299 251 298 67 99 103 118 85 95 184 105 137 71 130 630 90 93 62 203
is_linear=0
shrinkage=0.01


Tree=5
num_leaves=31
num_cat=0
split_feature=2 2 2 5 2 0 2 9 5 9 9 3 0 9 5 2 0 0 3 8 9 4 5 0 8 3 8 8 5 5
split_gain=806.543 64.6915 50.0675 17.7541 10.0177 6.99259 6.41472 7.14064 6.20298 5.85987 4.1997 4.18957 4.12584 3.50804 2.71033 2.4357 2.35369 5.23804 2.24443 2.2251 2.03628 2.89376 1.98971 3.15504 3.26291 1.29823 1.24611 1.05167 0.708013 3.16394
threshold=0.00010031567835050438 -3.9905899824388407e-05 0.00029248241845752926 -0.0023006849421324245 0.00014108411549013103 0.82102415148115371 5.1703783656376075e-05 -0.39932768132632218 0.0077941141045529969 -0.28306955559164798 0.19438085230431093 -0.00073909678788625077 0.67629812511979825 0.022312955602003092 0.0075952592494344393 -0.00024758279981912373 0.72027837405401496 0.83068817342441847 3.3113052098465719e-05 56.992154568015785 -0.025464914636735159 0.00019077474022421995 0.0089835200571503088 0.8225222081772493 62.732444267946569 0.00053007678330790908 67.373534263379881 62.732444267946569 -0.010881538627853181 -0.008620803938851616
decision_type=2 2 2 2 2 2 2 2 2 2 2 2 2 2 2 2 2 2 2 2 2 2 2 2 2 2 2 2 2 2
left_child=1 8 3 13 9 14 11 -8 15 -5 -9 -3 18 -2 20 -1 -14 -18 -13 -7 21 -6 23 -4 -25 -16 -22 -11 -17 -30
right_child=2 6 22 4 5 19 7 10 -10 27 -12 12 16 -15 25 28 17 -19 -20 -21 26 -23 -24 24 -26 -27 -28 -29 29 -31
leaf_value=-0.012609147857517043 0.0021483986471966883 -0.0093178051458458339 0.013570763342257706 -0.0030801826001869217 0.0023410664640724946 0.00031070328266789236 -0.0060981483980015704 0.0057756961748958759 -0.0048568980894665775 0.0075573772588617329 -0.0012312769777681359 -0.003562963631987371 0.001326755415997512 -0.0047813517260926674 0.012927476643013771 -0.012676645746378098 -0.0080173406864397709 0.0012579724039564787 -0.0097259871734418652 0.0063897899582986374 0.01220349253654586 0.0093847516343166099 0.01306441510883077 0.0038027013825477369 0.011310161286460101 0.0085288199586844981 0.0074903050837961697 0.0031258954188432644 -0.0051871348233228842 -0.010897735232983249
leaf_weight=193.87902030348778 13.860117375850679 17.598303109407425 19.86140039563179 12.360371530055998 12.362605124711992 11.239501565694811 14.981179207563398 16.484048068523407 13.859208524227141 11.614893525838854 17.23047199845314 11.983103215694429 15.359179913997648 14.981847435235975 29.981543749570847 20.961231052875519 12.73332139849663 11.235855937004088 13.479785978794096 13.863816976547239 14.612942934036257 11.990584313869475 208.38625356554985 11.241332381963732 13.490596681833265 11.991930961608885 13.114165782928465 12.363563030958174 11.98102295398712 89.850070416927338
leaf_count=518 37 47 53 33 33 30 40 44 37 31 46 32 41 40 80 56 34 30 36 37 39 32 556 30 36 32 35 33 32 240
internal_value=0 -0.00921842 0.00973076 0.00575219 0.00708914 0.00849365 -0.0032601 -0.000359078 -0.0115767 0.00244556 0.00217202 -0.0049601 -0.00374853 -0.00142076 0.00975191 -0.011866 -0.00167692 -0.00364071 -0.00689001 0.00371971 0.00812894 0.0058742 0.0126224 0.0105101 0.00796714 0.0117178 0.0100451 0.00533646 -0.0106752 -0.0102414
internal_weight=0 461.616 437.317 184.338 155.496 119.157 131.085 48.6957 330.531 36.3388 33.7145 82.3895 64.7912 28.842 94.0538 316.671 39.3284 23.9692 25.4629 25.1033 52.0803 24.3532 252.98 44.5933 24.7319 41.9735 27.7271 23.9785 122.792 101.831
internal_count=2400 1233 1167 492 415 318 350 130 883 97 90 220 173 77 251 846 105 64 68 67 139 65 675 119 66 112 74 64 328 272
is_linear=0
shrinkage=0.01


Tree=6
num_leaves=31
num_cat=0
split_feature=5 5 1 8 4 4 7 5 1 5 9 8 1 8 8 7 4 0 7 7 1 0 5 9 7 0 5 5 8 7
split_gain=571.466 108.378 29.9469 24.4197 23.5957 18.9755 19.6941 18.7656 53.4392 11.6303 10.6792 8.49866 6.3073 6.51669 5.01209 6.62237 5.96205 4.98276 8.92528 5.45319 4.36351 3.833 14.2274 3.30679 4.26237 1.96189 1.60216 1.38306 1.55474 0.295553
threshold=-0.00151248344398458 -0.011031314193908069 0.00016959416880807379 81.29625777986476 -0.002011862253431584 -0.0003378113800032167 0.67819811504317651 0.0043777915210467264 0.00022350369811363627 0.016398214248866675 -0.25175574709549958 92.016491325154789 -0.00022955368178478872 44.233779694043896 52.015029726660821 0.84201272478917943 -1.0000000180025095e-35 0.72027837405401496 0.75726361767419714 0.6541614250857265 -0.00028348714817422177 0.82988803297245661 0.0089835200571503088 -0.35172580451585572 0.67923814685999351 0.81980373231337478 0.0005016659994169782 0.020125850353338474 41.32401674556251 0.82755888300120983
decision_type=2 2 2 2 2 2 2 2 2 2 2 2 2 2 2 2 2 2 2 2 2 2 2 2 2 2 2 2 2 2
left_child=1 3 5 14 9 6 -3 8 17 -2 -8 12 -7 -14 29 16 -16 19 -19 -6 -5 -9 -23 -15 -25 -12 -20 28 -24 -1
right_child=4 2 -4 20 7 11 10 21 -10 -11 25 -13 13 23 15 -17 -18 18 26 -21 -22 22 27 24 -26 -27 -28 -29 -30 -31
leaf_value=0.019014830025865955 0.0090245391263652133 -0.0021102990890118126 0.016708545032058191 0.0017695288910077255 -0.001856866020133633 -0.0064500873305627492 0.0039295029573513177 -0.0093769288774318178 0.012771455486719365 -0.0044151127200447006 0.02022772773416873 0.008468921226532004 0.005595759782035946 0.0025327773011167213 0.018169817728099641 0.021189265817858297 0.0077238452689515191 0.0039483648938919468 -0.003368201269003006 -0.0094180955959649853 0.011385589322831832 0.0021829447833590309 -0.0028970364046169597 -0.0092742340264577033 -0.00040725599220377918 0.013094953890350949 -0.0087242960745092142 -0.0092479767109808798 -0.007877915953806984 0.021284286188973055
leaf_weight=38.925661534070969 13.333223134279253 12.292285621166227 18.508026868104935 9.5612005293369311 11.928919851779936 16.944122612476349 9.5194952785968798 206.47455167770386 16.4641133248806 12.174833804368971 10.601303964853289 10.437880069017409 17.06412735581398 10.689672261476515 9.9561791121959686 14.151906847953795 13.730369746685028 11.026889801025389 10.024657696485521 57.050648033618927 9.8941618502140027 14.443033427000044 9.3510372936725599 9.3902054429054278 13.254224389791487 9.5801303982734662 15.937690794467924 67.078325510025024 26.50641080737114 48.320195019245148
leaf_count=121 42 39 58 30 38 54 30 664 52 39 33 33 54 34 31 44 43 35 32 183 31 46 30 30 42 30 51 216 85 150
internal_value=0 0.0112366 0.00489238 0.0172917 -0.006738 0.00304573 0.00845439 -0.00727321 -0.00391833 0.00257864 0.0128527 0.00010567 -0.00118642 0.000572717 0.0189176 0.0156445 0.0122146 -0.00653041 -0.00350739 -0.00812956 0.0067442 -0.00853683 -0.00704382 -0.00197778 -0.0041528 0.0169724 -0.00671541 -0.00834901 -0.00661846 0.0203061
internal_weight=0 282.821 138.281 144.54 471.794 119.773 41.9932 446.286 122.433 25.5081 29.7009 77.7802 67.3424 50.3982 125.084 37.8385 23.6865 105.969 36.9892 68.9796 19.4554 323.853 117.379 33.3341 22.6444 20.1814 25.9623 102.936 35.8574 87.2459
internal_count=2400 887 437 450 1513 379 132 1432 391 81 93 247 214 160 389 118 74 339 118 221 61 1041 377 106 72 63 83 331 115 271
is_linear=0
shrinkage=0.01


Tree=7
num_leaves=31
num_cat=0
split_feature=0 2 2 2 5 2 2 3 6 9 9 2 2 0 6 5 6 5 6 6 9 4 5 5 0 5 0 6 9 0
split_gain=130.544 58.8916 54.5995 69.6476 45.2925 23.7138 22.7329 16.6984 8.47125 8.38653 18.8983 6.87642 9.28549 5.88737 5.72928 5.65788 5.53915 5.33355 7.89527 5.01336 4.45368 5.01176 4.0193 11.822 3.88309 3.74726 3.62659 2.71181 6.44846 2.57631
threshold=0.67445890386059848 0.00017068637259265443 0.00029248241845752926 -0.00033815648772811396 -0.0078895886112730334 0.00014108411549013103 -0.00012991607940376901 0.0013557078235281741 2.1194573030972905 -0.39932768132632218 0.15107601052368896 0.00010031567835050438 -0.00011211813554329318 0.82102415148115371 0.61883516433433583 0.0074583562819894875 5.8463024542931104 -0.0008043969871351363 0.82127239566101895 6.4035944283199244 0.2187809888102886 -0.00026816720899702767 0.0035382700250116144 -0.0032065584365048023 0.82026910561847222 0.00637413732468295 0.8225222081772493 1.5329479656256029 -0.14122900056030482 0.71705536167360351
decision_type=2 2 2 2 2 2 2 2 2 2 2 2 2 2 2 2 2 2 2 2 2 2 2 2 2 2 2 2 2 2
left_child=1 4 3 -2 -1 6 8 9 27 17 24 12 14 29 -6 -3 -10 -8 -19 -15 21 -14 23 -12 -11 26 -4 28 -5 -7
right_child=2 15 25 5 11 13 7 -9 16 10 22 -13 20 19 -16 -17 -18 18 -20 -21 -22 -23 -24 -25 -26 -27 -28 -29 -30 -31
leaf_value=-0.0082766574228387516 -0.0066778829339600087 0.001858086149241442 -0.0082693091872081074 0.0080077975299894903 0.01633788309463453 -0.0013260818426487598 0.0064513626462167897 -0.0038287087536380171 -0.0077780512839152613 -0.0013910740207676326 0.01744130780767519 0.0089565462044576254 0.021726451659696711 0.0064495197931835014 0.0045802581441819531 -0.0076765693700845284 0.0016439949453920947 0.023444358894888589 0.010904638157052863 -0.0026421830478614372 0.023367442698580085 0.012650325014649038 0.015731174239340319 0.0012658072727486308 0.0054270866633226488 -0.0076560704142934104 0 0.0087029142705431495 -0.0046365914916883565 -0.0058749447881060622
leaf_weight=8.3611778318881971 105.58719992637634 10.480761140584947 8.5796321034431475 7.7401970326900473 9.1210760176181811 27.99771386384964 8.546078950166704 10.963247925043104 16.460505902767185 18.391209065914154 8.3453158736228925 12.443231165409086 12.088357180356978 13.894501507282259 8.2616780996322614 14.629684388637541 9.7186122834682447 8.9397634565830248 13.239276766777037 10.438879728317259 20.833883881568909 15.422401160001757 17.167992234230042 10.066205203533174 14.919587105512617 136.06160435080528 14.223193377256392 8.0029303431510908 8.1329799294471758 23.536557585000992
leaf_count=33 417 41 34 30 35 110 33 43 65 72 32 48 46 54 32 58 38 34 51 41 79 59 66 39 58 540 56 31 32 93
internal_value=0 0.00977425 -0.00217897 6.83782e-05 0.0136856 0.00308605 0.00526259 0.00779205 -0.000309795 0.00908357 0.00709667 0.0160551 0.0173681 -0.00151 0.0108651 -0.00366568 -0.00424926 0.0134686 0.0160865 0.00251345 0.0196584 0.0167389 0.0121586 0.00870624 0.00163989 -0.00702156 -0.00317494 0.00396765 0.00147809 -0.00343034
internal_weight=0 111.642 500.953 342.089 86.5318 236.502 160.634 110.579 50.0552 99.6154 68.8903 78.1706 65.7274 75.8677 17.3828 25.1104 26.1791 30.7251 22.179 24.3334 48.3446 27.5108 35.5795 18.4115 33.3108 158.864 22.8028 23.8761 15.8732 51.5343
internal_count=2400 431 1969 1339 332 922 624 428 196 385 267 299 251 298 67 99 103 118 85 95 184 105 137 71 130 630 90 93 62 203
is_linear=0
shrinkage=0.01


Tree=8
num_leaves=31
num_cat=0
split_feature=2 2 2 0 7 2 7 2 3 7 2 1 9 0 9 9 9 9 2 0 0 8 0 0 7 9 7 1 0 3
split_gain=789.034 63.3181 48.9097 14.1832 14.2414 7.41126 7.14974 7.56403 9.02973 5.67425 4.89315 4.81608 4.32543 4.31492 3.83842 3.34674 3.01735 7.03044 2.97943 1.71737 3.84394 2.16875 1.41644 3.04088 1.24152 0.810452 0.562007 0.548572 1.77605 0.454767
threshold=0.00010031567835050438 -3.9905899824388407e-05 0.00029248241845752926 0.81603788692361923 0.76199542098237238 0.00014544654432097073 0.65587255982975601 5.489499843691626e-05 -0.00073909678788625077 0.65429015676722879 -0.00019718360374532115 0.00012921272735050285 -0.12047318652832197 0.6797712962920085 0.13735181121912904 -0.312849170592363 -0.45877681885431459 0.2187809888102886 0.0001214119976143402 0.71705536167360351 0.69848985402359987 74.398167239153523 0.84304692548221982 0.80648832780220203 0.84005250786009011 -0.28650748394101394 0.65587255982975601 8.2943117831579829e-05 0.89997271021257386 0.0028752174905243293
decision_type=2 2 2 2 2 2 2 2 2 2 2 2 2 2 2 2 2 2 2 2 2 2 2 2 2 2 2 2 2 2
left_child=1 10 3 5 -5 18 16 8 -8 -7 -1 12 -10 -12 -6 -9 -3 -18 -2 20 21 26 23 -15 27 -21 -11 28 -4 -29
right_child=2 6 24 4 14 9 7 15 11 19 13 -13 -14 22 -16 -17 17 -19 -20 25 -22 -23 -24 -25 -26 -27 -28 29 -30 -31
leaf_value=-0.012329525855630626 0.0063502867511828374 -0.010926108820292905 0.0077513422581863842 -0.0062691020895349163 0.0075261465042483957 0.0019985706391737103 -0.010562859760491141 -0.0020861166474891884 -0.0030557599865382963 0.0093090852148022853 -0.011996136755260969 -0.0057783314363657025 0.0050290316532847247 -0.0051407145067216007 0.00068477718337990536 0.0046114667983533546 8.6083078478387155e-05 -0.0094685323817387743 0.00034522474353830302 0.0089728552837240547 0.0036186512759541862 0.0062109785693330258 -0.0055386928649091153 -0.011072771510917503 0.0091320026099910492 0.012967349614705911 0.012892948170558211 0.013075140522944936 0.01295117611479793 0.010476781237563159
leaf_weight=222.47929111123085 16.485636442899704 11.976531505584715 12.371337145566939 16.85454785823822 21.359337329864502 11.24246510863304 14.594882279634474 11.23508447408676 12.358255863189695 11.993551403284075 46.380071550607681 15.729131340980528 13.858828425407411 14.596816837787626 13.86176949739456 20.981109023094177 14.603865921497347 15.719243317842482 17.233071029186249 11.245740085840223 13.118489384651182 12.36925572156906 20.95783656835556 25.810882061719894 13.869659304618834 20.994030743837357 17.618412435054779 191.96854066848755 20.994978427886963 13.872593373060225
leaf_count=595 44 32 33 45 57 30 39 30 33 32 124 42 37 39 37 56 39 42 46 30 35 33 56 69 37 56 47 512 56 37
internal_value=0 -0.00912352 0.00962065 0.00568849 0.00124152 0.00742908 -0.00322862 -0.00159793 -0.00380565 0.00881932 -0.0114583 -0.00141121 0.00118288 -0.00964037 0.0048715 0.00224558 -0.00661489 -0.00484892 0.00332086 0.00968257 0.00850189 0.00999184 -0.00782699 -0.00897255 0.012478 0.011637 0.0115113 0.012664 0.011082 0.0129101
internal_weight=0 461.282 437.453 184.376 52.0757 132.301 131.057 88.7573 56.5411 98.5819 330.225 41.9462 26.2171 107.746 35.2211 32.2162 42.2996 30.3231 33.7187 87.3395 55.0997 41.9812 61.3655 40.4077 253.077 32.2398 29.612 239.207 33.3663 205.841
internal_count=2400 1233 1167 492 139 353 350 237 151 263 883 112 70 288 94 86 113 81 90 233 147 112 164 108 675 86 79 638 89 549
is_linear=0
shrinkage=0.01


Tree=9
num_leaves=25
num_cat=0
split_feature=2 2 2 0 6 7 2 0 8 2 2 0 8 3 1 6 8 0 2 1 7 6 6 6
split_gain=872.815 42.0007 28.5628 14.7357 12.6741 7.5977 5.30229 5.08165 4.5466 4.20309 3.91338 12.9595 5.71856 6.78133 3.53659 2.29554 1.72789 1.35693 1.27179 1.09548 1.06074 0.402905 2.07358 0.142514
threshold=-0.00011211813554329318 -0.00024758279981912373 4.6537135787727566e-06 0.80427203137207282 5.9197886642460267 0.65284301590209692 -0.00018146702940341483 0.66942278952856094 51.684424552261426 -0.00033815648772811396 0.00027463888836504197 0.81603788692361923 65.119405339787718 0.00034638431676153886 -4.9497045955748657e-05 0.65016648752563444 63.163239893886036 0.81980373231337478 -0.00068638076680371796 -0.00011725746652296863 0.80083411129737669 0.64732704543970365 0.62775368906731321 6.8703945003796649
decision_type=2 2 2 2 2 2 2 2 2 2 2 2 2 2 2 2 2 2 2 2 2 2 2 2
left_child=1 9 3 5 -5 -2 19 -8 -9 16 11 21 13 14 -13 -7 -1 -11 -18 -3 -14 22 -4 -12
right_child=2 6 10 4 -6 15 7 8 -10 17 23 12 20 -15 -16 -17 18 -19 -20 -21 -22 -23 -24 -25
leaf_value=0.020046975590266813 0.0014452211847790681 0.0092750643339428052 -0.0090710116272607853 0.0095950455153041622 -0.0037254765920331913 -0.0043352393632747552 0.00054118477924115565 0.013541578949166687 0.0049931289983354025 0.016709618824023397 -0.0093314315634889632 -0.0072453234156382223 -0.0049003690033847889 0.0047861462774878251 0.00039198753896941641 -0.0093471059794458886 0.019491503470331739 0.011698407838607301 0.014778038478164886 0.014155324323863912 -0.0092832345905492358 -0.0092910917312520342 -0.0038449384532448813 -0.0072832189613237655
leaf_weight=105.49689722061157 13.560069292783735 9.9351398050785082 35.012048274278641 16.562913507223133 12.294182658195494 17.811891108751297 10.775520116090773 11.537588745355608 14.967661917209623 20.702182114124298 209.35421216487885 14.348505884408949 13.446203976869585 13.191889822483061 10.02071660757065 22.076615303754807 15.278200358152388 11.587634921073912 19.079688400030136 16.690222650766373 12.44424584507942 107.06803807616234 10.926946252584456 10.221681147813795
leaf_count=324 43 31 113 52 39 57 34 36 47 64 678 46 43 42 32 71 47 36 59 52 40 346 35 33
internal_value=0 0.0159342 -0.00725969 -0.00183835 0.00389221 -0.00495247 0.00895944 0.00643945 0.00878872 0.0185109 -0.00828007 -0.00729382 -0.00346069 -0.000931995 -0.0040752 -0.00715054 0.0193068 0.0149838 0.0169535 0.0124132 -0.00707308 -0.00887358 -0.00786072 -0.00924399
internal_weight=0 236.051 518.34 82.3057 28.8571 53.4486 63.9061 37.2808 26.5053 172.145 436.034 216.459 63.4516 37.5611 24.3692 39.8885 139.855 32.2898 34.3579 26.6254 25.8904 153.007 45.939 219.576
internal_count=2400 730 1670 262 91 171 200 117 83 530 1408 697 203 120 78 128 430 100 106 83 83 494 148 711
is_linear=0
shrinkage=0.01


Tree=10
num_leaves=31
num_cat=0
split_feature=0 7 2 2 2 2 2 3 1 2 9 9 9 9 7 7 0 7 4 9 1 9 0 2 9 1 4 1 0 9
split_gain=127.36 56.8782 53.7741 68.8313 40.4164 23.0817 22.2839 16.2834 16.0439 8.72849 8.55715 14.0882 8.05909 18.38 6.46997 6.10565 5.78589 5.9187 4.96037 4.93237 4.1009 4.82372 3.82036 3.77058 3.99832 2.70923 2.87372 3.03915 5.94752 2.04185
threshold=0.67445890386059848 0.65263306789242004 0.00029248241845752926 -0.00033815648772811396 0.00017068637259265443 0.00014108411549013103 -0.00012991607940376901 0.0013557078235281741 0.00034715022322390215 -1.2667182274217479e-05 -0.29190430333421225 0.24065386753624635 -0.39932768132632218 0.15107601052368896 0.75904164070224545 0.6652458513134899 0.82102415148115371 0.80166085785165953 -5.9200013856952609e-05 -0.013570611768596846 -0.00012053158619129699 -0.097415126951124406 0.82026910561847222 6.4562514269617135e-05 0.76399817925859981 7.8092022037623568e-05 -0.00019053015471420795 0.00021250249364446197 0.69681858012851439 -0.12047318652832197
decision_type=2 2 2 2 2 2 2 2 2 2 2 2 2 2 2 2 2 2 2 2 2 2 2 2 2 2 2 2 2 2
left_child=1 8 3 -2 9 6 14 12 18 29 -11 -12 15 22 20 -8 25 -18 -1 -19 -5 -22 -14 24 -15 -7 -27 28 -28 -3
right_child=2 4 -4 5 -6 16 7 -9 -10 10 11 -13 13 23 -16 -17 17 19 -20 -21 21 -23 -24 -25 -26 26 27 -29 -30 -31
leaf_value=0.00050307509344144617 -0.006661115883516735 0.018442310701735236 -0.006989862738622326 0.009193345198414804 -0.00086573276283616427 -0.0082869863473487536 0.02087991372307562 -0.0038081504168845999 0.010146295371311375 0.022423242681188373 0.0025219541707539616 0.018990044071246378 -0.0013895052358892941 0.017653635781450818 -0.0039865787447799341 0.010441359256374058 0.0088590129311975369 -0.0069626834268385609 -0.0077603244017418593 0.0042934000115305033 0.0061913699809851841 -0.0042272312682335557 0.0053669945710426428 0.007420524321500077 0.0084318027975153718 -0.0057424958598042489 -0.0046129822556421878 -0.0056271995409688273 0.0065442164148975038 0.024976413941122474
leaf_weight=13.136005133390427 105.23374184966087 11.701161265373232 157.77204583585262 7.7733385562896755 13.226770371198652 9.3381242752075178 8.0148026049137133 10.934652805328367 11.114793747663496 9.5493005514144915 10.68622148036957 10.380999803543089 18.38840389251709 14.736184328794481 24.651440143585205 23.000375062227249 9.0715544521808642 7.610831081867218 15.550942540168762 7.6857951879501325 8.0219915509223991 9.6714098453521675 14.97172975540161 13.011691570281981 8.1100855171680433 15.155609399080275 8.1056507229805046 7.561743736267089 11.185452252626417 17.126032918691635
leaf_count=51 417 44 630 30 52 37 30 43 43 36 41 39 72 56 97 88 35 30 61 30 31 38 58 50 31 60 32 30 44 64
internal_value=0 0.00961111 -0.00216183 6.23842e-05 0.014868 0.00305354 0.00519213 0.00768639 0 0.0183813 0.0144745 0.0107353 0.00895286 0.00700588 -0.000324803 0.0132294 -0.00148969 0.00249264 -0.0039531 -0.00125096 0.00318236 0.000448495 0.00161984 0.0119705 0.0144746 -0.00340025 -0.00227312 -0.000263877 0.00180505 0.0224317
internal_weight=0 112.472 500.007 342.235 72.6705 237.001 161.286 111.168 39.8017 59.4437 30.6165 21.0672 100.233 69.2181 50.1182 31.0152 75.7148 24.3682 28.6869 15.2966 25.4667 17.6934 33.3601 35.858 22.8463 51.3466 42.0085 26.8528 19.2911 28.8272
internal_count=2400 431 1969 1339 276 922 624 428 155 224 116 80 385 267 196 118 298 95 112 60 99 69 130 137 87 203 166 106 76 108
is_linear=0
shrinkage=0.01


Tree=11
num_leaves=31
num_cat=0
split_feature=2 2 2 2 5 9 9 6 5 1 3 6 8 6 8 8 2 9 5 5 6 8 6 8 5 5 5 5 9 5
split_gain=773.025 74.0799 29.561 20.5098 16.8315 9.50249 9.60493 6.32266 6.02176 5.55445 4.5094 4.64855 5.8069 4.11904 4.19257 2.38934 2.31026 1.98161 2.16787 1.87187 2.49643 3.69022 1.80509 1.03989 0.704821 3.1163 0.481669 0.509833 0.342268 0.145772
threshold=5.489499843691626e-05 0.00029248241845752926 -3.9905899824388407e-05 0.00014108411549013103 -0.0023006849421324245 -0.32110852713222909 0.2187809888102886 0.80893683436283104 0.0077941141045529969 0.00013572738742484439 -0.00073909678788625077 1.5902154401856718 33.915829191412556 1.3190507513178409 66.143203920122062 85.270067216227218 -0.00024758279981912373 -0.053032989767654352 0.0072076606745646319 0.0089835200571503088 1.5472695717164198 62.470664578943506 1.2985913686543185 82.191394771793881 -0.010881538627853181 -0.008620803938851616 -0.0008043969871351363 0.0044723103970522602 0.38319257734136059 -0.0012487675256103168
decision_type=2 2 2 2 2 2 2 2 2 2 2 2 2 2 2 2 2 2 2 2 2 2 2 2 2 2 2 2 2 2
left_child=2 3 8 5 -5 7 22 -2 16 -8 -4 12 -12 15 -15 17 29 18 -6 20 -3 -22 -7 -14 -18 -26 -27 -28 -19 -1
right_child=1 19 10 4 13 6 9 -9 -10 -11 11 -13 23 14 -16 -17 24 28 -20 -21 21 -23 -24 -25 25 26 27 -29 -30 -31
leaf_value=-0.012512575214510498 -0.0089524596226349916 0.013285671232920588 -0.0092268291770087902 -0.0014998189063430464 0.0055479786758224781 0.0087195963076074131 0.0025645503868091308 0.00040707581015689834 -0.0047285184889408645 -0.0062965786631800314 -0.00028257178688634126 0.0010366118919678505 -0.0087042008382324475 0.0012630571310677189 0.0089857825349447841 0.0052805179424371389 -0.012467597881681048 0.012886236938913396 0.010673883004357143 0.012773409381427649 0.0036529459292048106 0.011391009016348839 0.0037868650876918962 -0.004656275536082775 -0.0050272171977115551 -0.011531114609255306 -0.0086453891064705822 -0.011679252338696187 0.010237612437671888 -0.010593632598995926
leaf_weight=177.3814577460289 13.475969582796099 17.998838514089584 17.95081439614296 20.227393358945847 17.618277370929718 18.74089041352272 16.102780371904377 14.980136781930922 13.847888201475142 12.36033910512924 17.597339481115341 16.475714296102524 22.821449100971222 15.36245918273926 13.495191127061842 13.496344476938246 20.922689497470856 21.372198164463043 18.748199731111526 208.49818223714828 11.246651291847231 15.372795552015303 14.237926453351973 11.229165405035017 11.966904103755949 49.324477195739746 28.037657171487808 12.339815735816954 19.121375858783722 16.068151533603668
leaf_count=475 36 48 48 54 47 50 43 40 37 33 47 44 61 41 36 36 56 57 50 556 30 41 38 30 32 132 75 33 51 43
internal_value=0 0.00861227 -0.0099885 0.00448589 0.00688658 0.000747533 0.00296832 -0.00400613 -0.0113525 -0.00125703 -0.00474194 -0.00353371 -0.00501016 0.00831797 0.00492766 0.00938305 -0.011638 0.0100826 0.00824001 0.0123438 0.0102901 0.00818503 0.00663811 -0.00741611 -0.0104753 -0.0100437 -0.0106954 -0.00962384 0.0116885 -0.0123639
internal_weight=0 482.456 415.964 229.339 139.441 89.898 61.4419 28.4561 329.889 28.4631 86.0745 68.1237 51.648 119.214 28.8577 90.3564 316.041 76.8601 36.3665 253.116 44.6183 26.6194 32.9788 34.0506 122.592 101.669 89.702 40.3775 40.4936 193.45
internal_count=2400 1287 1113 612 372 240 164 76 883 76 230 182 138 318 77 241 846 205 97 675 119 71 88 91 328 272 240 108 108 518
is_linear=0
shrinkage=0.01


Tree=12
num_leaves=27
num_cat=0
split_feature=2 2 2 0 8 5 5 7 5 1 1 5 1 2 8 2 5 3 8 7 0 3 7 2 1 1
split_gain=850.927 40.2375 28.1785 14.4968 10.8839 9.72221 8.47361 7.50054 5.82535 8.84643 8.11036 3.09043 5.9176 3.07208 1.57423 2.17325 1.60802 1.16504 1.12161 1.53561 1.0085 0.741157 0.580308 1.18126 0.118259 0.320639
threshold=-0.00011211813554329318 -0.00024758279981912373 4.6537135787727566e-06 0.80427203137207282 53.099633230558275 -0.0094909859710231564 0.0038798186506235348 0.65284301590209692 -0.00151248344398458 9.4184986670131656e-05 -0.00022955368178478872 0.00072772544445631759 0.00011720315381363867 -0.00018146702940341483 50.515592191185327 -0.00068638076680371796 -0.013170195380093506 -0.002123822897568461 55.699061414181323 0.75480238599846761 0.69759777531904477 0.00021107479145193733 0.82436165930554872 0.00022622216413425991 -1.4240079120042546e-05 -9.790188835073764e-05
decision_type=2 2 2 2 2 2 2 2 2 2 2 2 2 2 2 2 2 2 2 2 2 2 2 2 2 2
left_child=1 6 3 7 -5 -4 14 -2 10 -10 -3 12 18 -12 -1 -16 -17 -13 19 -7 21 -9 24 -24 25 -19
right_child=2 8 5 4 -6 11 -8 20 9 -11 13 17 -14 -15 15 16 -18 22 -20 -21 -22 -23 23 -25 -26 -27
leaf_value=0.019646791962503903 0.0014149434655007568 0.0033791094168445519 0.00069011448791672452 0.011866607417289744 -0.00078063855089785604 -0.0084418162213707442 0.0087101278978099789 -0.0093152239096915626 -0.0023854075243574281 0.010042188002510602 0.017319793822977353 -0.0050925411697740923 0 0.010526409998509846 0.019974934044565733 0.013254905176904218 0.017706291911897779 -0.0092237085810768036 -0.00905568112928762 -0.0030778905778434929 -0.0039674550143277369 -0.0056115974849166236 -0.0044095755700794149 -0.0086465978845817141 -0.0092367861929198505 -0.0059614544903516947
leaf_weight=96.764466106891632 13.582680791616438 10.61374521255493 11.647191792726515 10.582726716995241 18.351072520017624 12.101005852222444 9.6738792955875379 19.528788357973102 9.8688077628612536 13.110101133584974 13.938681364059446 9.6072469651699048 11.542610585689543 16.722461670637134 23.685871928930283 20.269103199243546 23.519966006278992 10.827997595071794 32.87547042965889 11.20474526286125 9.3595907688140851 10.878303498029707 10.250396460294722 30.731208384037018 283.56891551613808 9.2479948699474317
leaf_count=294 43 33 37 33 58 39 30 63 31 41 43 31 37 52 72 62 72 35 106 36 30 35 33 100 924 30
internal_value=0 0.0156289 -0.00721939 -0.00183604 0.00383567 -0.00823799 0.0181339 -0.00493219 0.00881547 0.00467434 0.0110799 -0.00848691 -0.00645187 0.0136935 0.0186773 0.0172451 0.0157035 -0.00887122 -0.00778961 -0.00592989 -0.00712331 -0.00804575 -0.00897215 -0.00762448 -0.00914818 -0.00780751
internal_weight=0 238.167 515.888 82.2832 28.9338 433.605 173.913 53.3494 64.2538 22.9789 41.2749 421.958 67.7238 30.6611 164.239 67.4749 43.7891 354.234 56.1812 23.3058 39.7667 30.4071 344.627 40.9816 303.645 20.076
internal_count=2400 730 1670 262 91 1408 530 171 200 72 128 1371 218 95 500 206 134 1153 181 75 128 98 1122 133 989 65
is_linear=0
shrinkage=0.01


Tree=13
num_leaves=31
num_cat=0
split_feature=0 7 5 5 5 6 8 7 7 7 5 6 0 8 0 6 0 8 6 0 6 6 8 0 1 0 5 5 8 6
split_gain=124.52 55.0658 47.8763 38.7297 29.1124 18.8557 18.7935 13.0694 12.7248 34.189 11.0689 9.90963 10.8487 11.3737 13.1941 7.28347 6.90298 6.64485 6.56745 18.9929 16.8369 5.81775 6.78708 5.62266 3.30456 3.42726 2.99659 7.28903 2.59175 2.1303
threshold=0.67445890386059848 0.65263306789242004 0.0016703532880227858 0.012389979826569477 -0.019252474241157998 0.58390152751652569 88.292207707940904 0.83573819414679462 0.75950941758045498 0.75726361767419714 0.0069488297213344827 0.58390152751652569 0.69244441177815685 69.985612853471778 0.82492645871855952 0.77638517851733413 0.65639782661966162 47.091667296547762 0.72567278901240073 0.80879484418992365 5.8463024542931104 5.8437810783469075 77.565584101073952 0.83068817342441847 -0.00037358924272740118 0.89027023689178941 -0.0034357636288470657 -0.0016684582372386567 46.065018002935986 0.72004919352411811
decision_type=2 2 2 2 2 2 2 2 2 2 2 2 2 2 2 2 2 2 2 2 2 2 2 2 2 2 2 2 2 2
left_child=1 5 26 4 -2 16 8 29 9 11 17 -6 15 14 -14 -13 -1 -4 -8 -20 -21 -10 23 -23 -25 -26 -3 -28 -7 -5
right_child=3 2 10 7 6 28 18 -9 21 -11 -12 12 13 -15 -16 -17 -18 -19 19 20 -22 22 -24 24 25 -27 27 -29 -30 -31
leaf_value=0.0016061348455682547 -0.0075969802368858622 0.027949443801916735 0.014517609581700569 -0.0019262530656903103 -0.0083131501744905453 -0.00059504173506173255 -0.00062142238071199096 0.0054964162426532738 -0.0059106265863695167 0.020093663444969146 -0.0034792498168957804 0.0017443184030691979 -6.283570804206365e-05 -0.0068721043343597148 0.0099481315555240979 0.015452926242422275 0.015022426543747172 0.0048649572146808526 0.018475949183894932 -0.0038798535149245413 0.014201684864523077 0.0057020173120382383 0.0075145007724137384 -0.0083551520501766851 0.0027896087106571731 -0.0037409013012331318 0.012541383003130525 0.024554343749453773 -0.007777746789667403 -0.0075114004855676821
leaf_weight=7.7519358694553357 47.773521542549133 10.53142789006233 14.124229192733766 7.8088429123163214 11.80504961311817 7.6883211135864284 8.9753969609737378 8.4446844011545164 39.420298635959625 9.3154801130294782 8.1865311264991742 7.6720640510320655 81.682280018925667 19.16510996222496 15.55080761015415 8.1935712397098523 7.923993706703186 15.467240691184996 12.818437397480009 13.245927393436434 8.2436401546001417 7.6297254860401145 7.9822835177183142 10.737501785159109 10.489408314228056 31.763397291302681 8.3615155220031721 16.726663589477543 16.451123252511024 130.38246713578701
leaf_count=30 190 39 53 31 47 30 35 33 156 36 32 30 320 75 60 31 30 59 49 52 32 30 31 42 41 125 31 62 65 523
internal_value=0 0.009466 0.0145969 -0.00214583 -0.00034553 0 0.00079029 -0.00646314 -0.000217514 0.00162952 0.00669003 0.000415582 0.0012079 0.000138763 0.00153655 0.00893901 0.00850353 0.0095393 0.00688637 0.00887566 0.00304376 -0.0028485 -0.00106834 -0.00222548 -0.00339434 -0.00209331 0.0229126 0.020656 -0.00554323 -0.00720465
internal_weight=0 113.213 73.3976 499.1 352.464 39.8154 304.69 146.636 261.407 153.384 37.778 144.069 132.264 116.398 97.2331 15.8656 15.6759 29.5915 43.2834 34.308 21.4896 108.023 68.6023 60.62 52.9903 42.2528 35.6196 25.0882 24.1394 138.191
internal_count=2400 431 276 1969 1382 155 1192 587 1024 599 144 563 516 455 380 61 60 112 168 133 84 425 269 238 208 166 132 93 95 554
is_linear=0
shrinkage=0.01


Tree=14
num_leaves=31
num_cat=0
split_feature=2 2 2 2 5 9 9 0 7 5 1 7 4 7 5 0 1 5 2 1 9 4 5 0 0 1 5 4 7 0
split_gain=756.565 72.4684 28.9105 20.0616 16.5558 9.30482 9.42374 6.50424 6.19075 5.94439 5.48338 4.42389 3.58991 3.78704 2.57671 2.4402 2.29253 2.82108 2.24272 2.4758 1.98143 2.83813 1.85089 3.01376 1.909 0.860212 1.32929 0.606448 0.537992 0.162999
threshold=5.489499843691626e-05 0.00029248241845752926 -3.9905899824388407e-05 0.00014108411549013103 -0.0023006849421324245 -0.32110852713222909 0.2187809888102886 0.82102415148115371 0.6652458513134899 0.0077941141045529969 0.00013572738742484439 0.83407417000286632 -0.00095733772354367186 0.65429015676722879 0.0075952592494344393 0.7290976288890908 0.00011720315381363867 1.0000000180025095e-35 -0.00024758279981912373 -0.00029408331025632112 -0.025464914636735159 0.00019077474022421995 0.0089835200571503088 0.8225222081772493 0.89284395867615463 -4.1523059697290414e-05 -0.0021200768686906453 0.00034793290347223676 0.65966276277128089 0.94210605987227136
decision_type=2 2 2 2 2 2 2 2 2 2 2 2 2 2 2 2 2 2 2 2 2 2 2 2 2 2 2 2 2 2
left_child=2 3 9 5 -5 8 15 14 -2 18 -8 -9 -4 -14 20 -7 17 -15 -1 -20 21 -6 23 -3 -25 26 -21 -16 -22 -24
right_child=1 22 12 4 7 6 10 11 -10 -11 -12 -13 13 16 27 -17 -18 -19 19 25 28 -23 29 24 -26 -27 -28 -29 -30 -31
leaf_value=-0.012240454608437033 -0.0088628953133911559 0.013157283017766759 -0.009483904240462946 -0.0015068335193311338 0.002143893477360334 0.0092638359022414983 0.0025469056531600811 -0.00082507954071057239 0.00039932539905948448 -0.0046570579724606303 -0.0062576369247564021 0.0075031151310363539 -0.0083619826975437888 -0.0036193196079393176 0.012245713490389791 0.0036492056910580918 -0.0052205759266683261 0.0019104239778171708 -0.0062670164682801554 -0.010739025548622824 0.0081336597398651931 0.0091119369175402254 0.012788145099195717 0.0044197868535820421 0.010274348618357958 -0.011828220978617757 -0.0064999756136083541 0.008875679958510508 0.01159324151683473 0.010940038215183544
leaf_weight=193.16377055644989 13.46738710999489 19.874130934476852 13.45345366001129 20.227288216352463 12.370776832103731 16.870781421661377 16.103788822889332 11.614443033933641 14.980558454990385 13.840299576520918 12.35760861635208 13.495257139205931 14.575013130903242 19.831507354974747 30.373993128538132 16.114204883575439 21.334587633609772 16.848954230546951 14.56732791662216 35.459285885095596 15.372595965862276 11.999088913202284 190.1103053689003 11.2488009929657 13.499246329069136 60.492743581533432 11.945879340171812 11.624728769063948 12.374472826719282 18.373773157596588
leaf_count=518 36 53 36 54 33 45 43 31 40 37 33 36 39 53 81 43 57 45 39 95 41 32 507 30 36 162 32 31 33 49
internal_value=0 0.00851741 -0.00988965 0.00443622 0.00681035 0.000738642 0.00293596 0.00822987 -0.00396611 -0.01124 -0.00124944 0.00362327 -0.00470043 -0.0037883 0.00944314 0.00657046 -0.00260965 -0.00105379 -0.0115239 -0.0103765 0.00786049 0.00563886 0.0122083 0.0101669 0.007682 -0.0109157 -0.00970779 0.01136 0.00974855 0.0126354
internal_weight=0 482.453 415.513 229.347 139.453 89.8943 61.4464 119.225 28.4479 329.469 28.4614 25.1097 86.0435 72.5901 94.1157 32.985 58.015 36.6805 315.629 122.465 52.1169 24.3699 253.106 44.6222 24.748 107.898 47.4052 41.9987 27.7471 208.484
internal_count=2400 1287 1113 612 372 240 164 318 76 883 76 67 230 194 251 88 155 98 846 328 139 65 675 119 66 289 127 112 74 556
is_linear=0
shrinkage=0.01


Tree=15
num_leaves=31
num_cat=0
split_feature=5 5 6 6 3 8 5 1 1 7 7 8 4 5 4 8 3 6 8 1 7 6 6 3 6 1 5 6 1 7
split_gain=533.288 97.1618 36.3186 31.3661 24.8633 22.1571 19.9935 54.2059 15.2859 14.5864 15.7891 13.8564 11.7173 6.60569 5.68016 4.44945 6.63477 4.19304 13.9887 4.1525 2.58096 3.30223 3.56198 2.37683 2.30888 1.74392 1.25561 3.98688 0.677016 0.254745
threshold=-0.00151248344398458 -0.011031314193908069 6.5247120410851975 2.1505330952585822 -0.0023241139536814277 81.29625777986476 0.0043777915210467264 0.00022350369811363627 0.00016232642854357995 0.65263306789242004 0.66622784476125563 61.346775398047122 -0.00025511212300488578 -0.0034357636288470657 -0.00084171200149962811 52.015029726660821 0.00069715536364034502 6.2210009178506462 51.684424552261426 -0.00028348714817422177 0.6541614250857265 1.2985913686543185 5.8463024542931104 -0.0034561660992605821 1.9156539264855976 -0.00016189200476290908 0.0057133569985001751 0.82127239566101895 -1.4240079120042546e-05 0.82755888300120983
decision_type=2 2 2 2 2 2 2 2 2 2 2 2 2 2 2 2 2 2 2 2 2 2 2 2 2 2 2 2 2 2
left_child=1 5 3 8 23 15 7 14 9 -3 13 -5 -12 -11 -6 29 25 26 -19 -7 -16 -22 -23 -2 -14 -17 27 -8 -28 -1
right_child=4 2 -4 11 6 19 17 -9 -10 10 12 -13 24 -15 20 16 -18 18 -20 -21 21 22 -24 -25 -26 -27 28 -29 -30 -31
leaf_value=0.017915429409876116 0.00084531820213134233 0.011081620167576091 -0.0087633587060790639 0.019155332576144851 -0.00044576579132918142 0.0015147462393787301 -0.0092676550247528452 0.012677158361196712 0.014926519093015449 -0.0093326645715024002 0.012241520451997705 0.0057751161031574551 -0.003472427086837438 0.00040238459808545805 -0.0022996647634558657 0.02002387165415476 0.0083464340707003308 0.0052868365783282434 -0.0092527260937707526 0.010815338333269314 -0.0093177377366493314 -0.001084089927765768 -0.0084840059931109851 0.0080378693189271516 0.0030142006706408331 0.013976823650921953 -0.0065844758011913149 -0.0013551274702005081 -0.00914822307401085 0.020036114772495572
leaf_weight=40.09879457950592 9.4940250515937823 13.851016402244566 17.428338021039963 22.986408770084381 14.449256360530851 9.6859270334243792 19.379492491483692 17.340435981750488 10.033471643924711 18.045510560274128 12.122459828853602 12.189759761095045 10.099707752466207 10.994080513715742 9.9636645615100843 15.580957800149916 12.032827585935591 9.3770673573017138 21.453639566898346 10.090543478727339 54.035139888525009 13.183563858270647 13.522324144840239 9.5332788825035077 11.776429355144499 11.207785457372667 15.042473435401915 9.9926840364932996 248.76055645942688 49.877892673015594
leaf_count=121 30 43 56 70 46 30 63 54 31 58 37 38 32 35 32 47 37 30 70 31 176 42 44 30 37 34 49 32 815 150
internal_value=0 0.0106885 0.00468084 0.00661364 -0.00661956 0.0163167 -0.0070976 -0.00363738 0.00336668 0.00182778 -0.000204 0.0145765 0.00439906 -0.00562403 -0.00634673 0.0178346 0.0147812 -0.00840117 -0.00479544 0.00634103 -0.00727421 -0.00787211 -0.00488596 0.00452448 0 0.0175925 -0.00877518 -0.0066234 -0.00900837 0.0191231
internal_weight=0 288.102 139.527 122.099 465.528 148.575 446.5 122.494 86.9227 76.8892 63.0382 35.1762 33.9986 29.0396 105.154 128.798 38.8216 324.006 30.8307 19.7765 90.7047 80.741 26.7059 19.0273 21.8761 26.7887 293.175 29.3722 263.803 89.9767
internal_count=2400 887 437 381 1513 450 1453 394 273 242 199 108 106 93 340 389 118 1059 100 61 294 262 86 60 69 81 959 95 864 271
is_linear=0
shrinkage=0.01


Tree=16
num_leaves=31
num_cat=0
split_feature=7 7 5 5 5 5 4 7 7 7 8 9 8 6 8 7 7 7 7 5 6 5 5 8 5 8 9 5 6 7
split_gain=120.069 42.946 30.1839 25.8468 34.8793 23.6567 21.4074 20.1148 15.6501 14.5532 14.1163 14.1037 17.4774 11.1236 7.26044 12.1557 5.93478 19.397 23.5292 11.3923 5.87744 5.67429 3.75842 3.52886 6.36494 3.46883 3.37475 3.07359 3.17441 3.60684
threshold=0.66622784476125563 0.64611261552897103 0.013348287572999941 -0.0078895886112730334 0.0016703532880227858 -0.019252474241157998 -9.7071346542798573e-05 0.65966276277128089 0.83573819414679462 0.65277398626232197 13.051099885708 -0.48228238447124033 88.292207707940904 0.70625837220971877 48.373917382876904 0.65528636991203826 0.70595343500915819 0.75950941758045498 0.75726361767419714 0.0021844105756275716 5.7712634173767388 0.0058183422188280995 -0.0055331271112950544 33.474635193480189 -0.0090811715919573693 63.417565713884308 0.24065386753624635 -0.015645400744651258 6.5868638876009502 0.84140475475630561
decision_type=2 2 2 2 2 2 2 2 2 2 2 2 2 2 2 2 2 2 2 2 2 2 2 2 2 2 2 2 2 2
left_child=1 -1 5 -3 7 -2 10 9 -4 -5 -6 21 16 25 15 -8 -13 18 19 22 -14 23 -18 -7 -25 -12 -16 -19 -29 -30
right_child=2 3 8 4 6 11 14 -9 -10 -11 13 12 20 -15 26 -17 17 27 -20 -21 -22 -23 -24 24 -26 -27 -28 28 29 -31
leaf_value=-0.0064713336570417328 -0.0075776400416689114 -0.0082549388680757691 -0.0077495977031378348 0.0080599687658016433 0.023230229232988123 -0.0031573514062318633 0.013970298104902218 0.0040707277910136605 0.0068174353786549478 0.021987191098894989 0.0015187915428342463 -0.0052555431720858192 0.0034358709149132985 0.017985879814037386 -0.0035297111345254325 -0.0014330825863209033 4.3937558644169393e-05 0.0018349251697767938 0.018836816574908797 0.0095858953835767109 0.014281885831884104 0.010285179849858288 -0.007339724342863516 0.011224002948548117 0.0007846554950715559 0.0097676445078141647 0.0037126253472294897 -0.0053364644194454159 0.0033926745420240116 -0.0056798869049094923
leaf_weight=20.837412685155869 47.542299032211304 8.306742846965788 121.49977976083755 10.06357505917549 8.0395206212997419 7.6838292032480231 10.059672668576242 11.730391532182692 7.7032477855682364 35.005988478660583 14.682860180735593 43.736449733376503 14.9092293381691 8.5220668315887433 22.26212897896767 10.088696911931036 22.033105134963989 8.6001152843236905 8.6397047936916334 10.901673033833502 7.7700553834438315 14.21446657180786 9.7604902088642138 8.9973902404308301 17.014273807406429 8.0638148188590986 8.8323769420385343 67.03859706223011 9.9571158438920992 7.6266299039125434
leaf_count=83 190 33 491 38 30 30 38 45 30 128 56 173 58 32 87 40 86 34 33 42 30 55 38 35 66 31 34 265 39 30
internal_value=0 0.00695932 -0.00281549 0.00876666 0.00973796 -0.0011015 0.00585668 0.0158868 -0.00686876 0.0189243 0.0114025 8.64031e-05 -0.00102245 0.0082652 0.00156912 0.00623914 -0.0020265 -0.00103967 0.00388234 0.000795884 0.00724206 0.00498206 -0.00220736 0.00269153 0.00446306 0.00451678 -0.00143517 -0.00376206 -0.00434417 -0.000495702
internal_weight=0 176.495 435.628 155.658 147.351 306.425 90.5511 56.8 129.203 45.0696 39.3083 258.883 210.973 31.2687 51.2429 20.1484 188.294 144.557 51.335 42.6953 22.6793 47.91 31.7936 33.6955 26.0117 22.7467 31.0945 93.2225 84.6223 17.5837
internal_count=2400 675 1725 592 559 1204 348 211 521 166 149 1014 828 119 199 78 740 567 199 166 88 186 124 131 101 87 121 368 334 69
is_linear=0
shrinkage=0.01


Tree=17
num_leaves=31
num_cat=0
split_feature=2 2 2 5 2 7 2 4 0 5 7 6 5 2 5 5 7 2 4 5 0 8 7 4 5 5 5 6 4 5
split_gain=740.67 59.5362 45.8357 16.6757 9.15392 6.83842 7.19645 7.61143 6.40609 5.82576 4.36624 2.89024 2.8052 2.59477 2.51084 2.50963 2.27943 2.15671 1.7931 1.79116 2.96235 3.16505 1.73718 1.71149 1.42078 0.728563 3.0866 0.608 0.597719 0.466754
threshold=0.00010031567835050438 -3.9905899824388407e-05 0.00029248241845752926 -0.0023006849421324245 0.00014108411549013103 0.65587255982975601 5.489499843691626e-05 -0.00026816720899702767 0.82102415148115371 0.0077941141045529969 0.83407417000286632 0.64180339399359398 0.0033271332673311398 0.0001214119976143402 0.0026067840978457606 0.0075952592494344393 0.75700362710232871 -0.00024758279981912373 0.00019077474022421995 0.0089835200571503088 0.8225222081772493 62.732444267946569 0.69873190169337607 -0.00018475034964843259 -0.0061377119212613898 -0.010881538627853181 -0.008620803938851616 0.67914501570840502 0.00034793290347223676 -0.0008043969871351363
decision_type=2 2 2 2 2 2 2 2 2 2 2 2 2 2 2 2 2 2 2 2 2 2 2 2 2 2 2 2 2 2
left_child=1 9 3 16 13 11 7 22 15 17 -10 -3 -8 -5 -13 18 -2 -1 23 20 -4 -22 -7 -6 -9 -19 -27 -20 -17 -28
right_child=2 5 19 4 8 6 12 24 10 -11 -12 14 -14 -15 -16 28 -18 25 27 -21 21 -23 -24 -25 -26 26 29 -29 -30 -31
leaf_value=-0.012116303382342899 -0.0041524078650870423 -0.0099074225480896404 0.013034627918779382 0.00484236140032535 0.0081211071995132937 -0.0046525301862158277 0.0054290006025296345 -0.0031778554978288314 -0.00084542712306998101 -0.0046109224320489755 0.007427806407328613 -0.007952635319929284 -0.00043817721586638297 -0.00045766721948711531 -0.0016220542878834336 0.012121527471757492 0.0014216690665249862 -0.01229390069868108 0.0075663499626834434 0.01250144577196262 0.0035089319250286217 0.010893744360711884 -0.010244503080438462 0.0026423558359280775 0.0011993062826960038 -0.0048558785695877876 -0.011322474440952626 0.011178721866290899 0.0087755157225874701 -0.0094405133304213441
leaf_weight=192.82585108280182 14.981838941574098 15.691172927618025 19.870618015527725 19.485535234212875 13.497656226158144 11.227508664131166 14.60803100466728 11.600112766027452 11.614949792623522 13.834861040115355 13.497319638729094 11.207729727029802 17.608663499355316 16.856944501399994 15.34187066555023 30.369948476552963 13.858853489160536 20.879369258880615 12.374181836843492 208.42518165707588 11.249097228050234 13.499144971370695 13.820919185876845 11.247895896434782 19.844771832227707 11.947060436010359 49.202605664730072 14.999274641275404 11.624009937047957 40.299932599067688
leaf_count=518 40 42 53 52 36 30 39 31 31 37 36 30 47 45 41 81 37 56 33 556 30 36 37 30 53 32 132 40 31 108
internal_value=0 -0.00885955 0.00931397 0.00550765 0.00680288 -0.00314313 -0.00154809 -0.00370319 0.00814504 -0.0111302 0.00357342 -0.00645769 0.0021998 0.00236207 -0.0043518 0.00934918 -0.00144368 -0.0114117 0.0077862 0.0120807 0.0100691 0.00760492 -0.00780623 0.00569169 -0.000388696 -0.0102838 -0.00984861 0.00961563 0.0112421 -0.0104977
internal_weight=0 459.94 437.452 184.408 155.568 130.951 88.71 56.4933 119.225 328.99 25.1123 42.2408 32.2167 36.3425 26.5496 94.113 28.8407 315.155 52.119 253.044 44.6189 24.7482 25.0484 24.7456 31.4449 122.329 101.45 27.3735 41.994 89.5025
internal_count=2400 1233 1167 492 415 350 237 151 318 883 67 113 86 97 71 251 77 846 139 675 119 66 67 66 84 328 272 73 112 240
is_linear=0
shrinkage=0.01


Tree=18
num_leaves=27
num_cat=0
split_feature=2 2 2 0 6 9 5 5 5 1 6 4 9 5 1 6 4 6 1 5 5 2 9 4 9 2
split_gain=812.335 37.398 27.3834 13.9693 12.2236 9.65199 9.48165 7.70138 7.34557 8.88643 3.72578 4.58591 4.03921 3.00222 5.84609 1.64536 1.33297 1.148 3.27801 1.12315 1.56626 1.02239 0.499756 0.44288 0.334844 0.254838
threshold=-0.00011211813554329318 -0.00024758279981912373 4.6537135787727566e-06 0.80427203137207282 5.9197886642460267 -0.56730035194713568 -0.0094909859710231564 0.0038798186506235348 -0.00151248344398458 -0.000187043624750971 0.69716211025047159 -0.00010675541812260601 0.15107601052368896 0.00072772544445631759 0.00011720315381363867 6.8359087112698509 -0.0020700829793217075 2.1612772239277569 -0.00027802101156954023 -0.019252474241157998 -0.016838682472784913 -0.00017356587239120144 -0.87800430342824876 0.00052833294897158833 0.1640026367866638 -0.00033815648772811396
decision_type=2 2 2 2 2 2 2 2 2 2 2 2 2 2 2 2 2 2 2 2 2 2 2 2 2 2
left_child=1 7 3 10 -5 -3 -4 19 9 -7 11 24 -13 14 17 16 -15 -8 -19 -1 -21 -11 -18 25 -2 -22
right_child=2 5 6 4 -6 8 13 -9 -10 21 -12 12 -14 15 -16 -17 22 18 -20 20 23 -23 -24 -25 -26 -27
leaf_value=0.019325438938269171 -0.0082369316156766237 0.00031726068749006063 0.00064239108379980777 0.0092477927421119165 -0.0037828870353604788 0.0058509959615848234 -0.0090153011062160063 0.0085122622670305223 0.0049736644920902115 0.019263604456282536 -0.0092475944999477061 0.0047144587268716995 -0.0042919603612924838 -0.0048659284415088488 2.6898497093488746e-07 -0.0053878112067091369 -0.0065082917332930515 -0.0092007445286548771 -0.0014813479028556137 0.01352225887925221 0.01887619139527565 0.013993423123264773 -0.0091430759245108417 0.015448995466857228 -0.0049656010805776132 0.016278768266045837
leaf_weight=62.136345833539963 9.6697435081005114 11.895702600479124 11.67809361219406 16.776852071285251 12.345982253551481 12.046018362045286 32.68038946390152 9.7460171878337842 17.65330109000206 11.214866429567335 14.48887577652931 9.7387855052948016 9.9690101444721204 9.2233322262763959 11.528873324394224 15.601729929447172 11.28660264611244 12.8888036608696 10.226977080106733 14.34691086411476 54.198415756225586 12.081619679927828 313.85657167434692 17.604696393013 9.3087180554866773 18.945412993431091
leaf_count=185 31 37 37 52 39 37 106 30 55 34 47 31 32 30 37 51 37 42 33 43 162 37 1035 53 30 57
internal_value=0 0.0150929 -0.00714612 -0.00184403 0.00369546 0.00854879 -0.00816032 0.0174805 0.0103736 0.0130209 -0.00489789 -0.00322341 0.00010949 -0.00840916 -0.00639713 -0.00879143 -0.0089456 -0.00773451 -0.00584966 0.0179918 0.0171762 0.0166447 -0.00905672 0.0177273 -0.00671923 0.0182402
internal_weight=0 241.869 511.269 82.298 29.1228 64.8915 428.971 176.978 52.9958 35.3425 53.1751 38.6863 19.7078 417.293 67.325 349.968 334.367 55.7962 23.1158 167.232 105.095 23.2965 325.143 90.7485 18.9785 73.1438
internal_count=2400 730 1670 262 91 200 1408 530 163 108 171 124 63 1371 218 1153 1102 181 75 500 315 71 1072 272 61 219
is_linear=0
shrinkage=0.01


Tree=19
num_leaves=31
num_cat=0
split_feature=2 2 2 6 1 5 2 4 9 5 9 9 5 1 3 5 6 9 9 5 5 2 2 6 6 2 5 4 6 4
split_gain=112.029 129.806 65.9694 40.4428 12.9593 9.77824 9.25675 9.21644 9.09236 8.25945 7.37744 10.2757 7.79189 6.68969 7.03909 7.41748 4.96283 4.39299 3.79562 3.6834 3.67215 4.13293 3.60863 3.65943 3.4785 3.16602 3.15922 4.26725 3.52743 3.46671
threshold=0.00029248241845752926 -0.00022213915245961055 0.00014108411549013103 1.4030355728202586 0.00017683119752875956 0.0043777915210467264 0.00010031567835050438 0.0015880289821217921 -0.52591751224644401 -0.0023006849421324245 -0.82432580777142062 0.24065386753624635 0.0044723103970522602 -1.0411130488774399e-05 -6.467967656392791e-05 -0.0012487675256103168 0.73874418929193719 -0.27904760891322911 0.13077793369952459 0.00637413732468295 0.0018502177762620422 -8.7953042246791111e-05 -0.00051275927481064787 5.8463024542931104 1.5472695717164198 -9.9157321816090147e-05 0.0075952592494344393 0.00019077474022421995 2.1717477858775451 -0.00028720570223922376
decision_type=2 2 2 2 2 2 2 2 2 2 2 2 2 2 2 2 2 2 2 2 2 2 2 2 2 2 2 2 2 2
left_child=1 5 3 6 7 22 10 8 -5 -4 -3 12 20 14 15 -10 -8 -14 -16 24 21 -12 -1 -24 -2 -13 27 29 -28 -11
right_child=19 2 9 4 -6 -7 16 -9 13 26 11 25 17 -15 18 -17 -18 -19 -20 -21 -22 -23 23 -25 -26 -27 28 -29 -30 -31
leaf_value=-0.0074726608057836983 -0.0082046316156520263 0.020194727221138822 0.0064084870716476965 0.016273135472996868 -0.0053880312052179873 0.0054855770159648312 0.010517090310171997 -0.004534129457869596 -0.0048359832295080916 -0.00081653940694032901 0.0034720698304006189 0.010699096949423956 0.019694519557434637 0.013379626081621399 0.0034432555782587032 0.007114377867446545 0.00052957762656083581 0.0095704767148105056 0.013060289933757727 -0.0076128942479095308 0.0011669406826853603 0.01199978544518236 -0.0053162905535006676 0.00085677454611463413 -0.00014953328050113838 0.017885468089980386 -0.0056647385631596056 -0.0028765918908952325 0.0014140385827531409 0.0076139782926712557
leaf_weight=73.41789822280407 8.6409503072500247 16.458507776260376 13.923782527446745 8.7246608138084394 13.133011996746061 7.7248376607894889 12.418586909770967 7.9006378948688498 13.879671350121493 9.2144549489021319 9.7860592901706678 9.1624502837657911 9.7453344464302081 8.0846844613552147 9.0490634888410586 8.1512359678745252 8.638657867908476 9.2290865480899793 8.1882694661617261 142.75777333974838 9.0402331054210645 15.339548259973528 47.761300414800644 11.647251859307287 14.553021445870398 34.011959224939346 29.245797261595726 23.341620743274689 8.9416900724172574 9.7876075804233533
leaf_count=294 35 60 54 33 51 30 47 31 54 36 37 34 36 31 35 31 33 35 31 582 34 57 189 46 58 124 117 92 35 38
internal_value=0 0.00261531 0.00627629 0.00938544 0.00359253 -0.00533113 0.0127106 0.00545714 0.00688815 -0.000659228 0.0138567 0.0127434 0.00971906 0.00510727 0.00334906 -0.000357104 0.00648888 0.0148986 0.00811831 -0.00700666 0.00677825 0.00874494 -0.00597138 -0.00408983 -0.00321574 0.0164117 -0.00190007 0 -0.00398174 0.00349064
internal_weight=0 445.948 305.397 210.942 77.1112 140.551 133.83 63.9782 56.0776 94.455 112.773 96.3147 53.1403 47.3529 39.2682 22.0309 21.0572 18.9744 17.2373 165.952 34.1658 25.1256 132.826 59.4086 23.194 43.1744 80.5312 42.3437 38.1875 19.0021
internal_count=2400 1725 1166 794 297 559 497 246 215 372 417 357 199 182 151 85 80 71 66 675 128 94 529 235 93 158 318 166 152 74
is_linear=0
shrinkage=0.01


Tree=20
num_leaves=31
num_cat=0
split_feature=2 2 2 5 2 0 6 5 9 9 9 0 2 6 9 6 3 5 2 1 9 2 3 5 0 0 1 3 9 1
split_gain=725.994 58.3759 44.9037 16.3254 8.98753 6.29198 6.20492 5.67521 5.56473 5.54476 9.02271 4.84592 4.70614 3.98359 3.37112 3.34302 2.84945 2.45561 2.09795 2.41903 1.96187 2.76341 1.83415 1.72576 2.92362 1.86303 1.29594 1.27128 0.914921 0.870386
threshold=0.00010031567835050438 -3.9905899824388407e-05 0.00029248241845752926 -0.0023006849421324245 0.00014108411549013103 0.82102415148115371 6.4035944283199244 0.0077941141045529969 -0.28306955559164798 -0.32110852713222909 0.2187809888102886 0.81545013351152285 1.1419842867899101e-05 6.3841376209810567 0.022312955602003092 0.8045057164109205 -2.4711854137771102e-05 0.0075952592494344393 -0.00024758279981912373 -0.00029408331025632112 -0.025464914636735159 0.00019394361730334933 -9.1529973196724499e-05 0.0089835200571503088 0.8225222081772493 0.89284395867615463 6.4184834083547151e-05 0.00053007678330790908 0.17292242409865397 -4.1523059697290414e-05
decision_type=2 2 2 2 2 2 2 2 2 2 2 2 2 2 2 2 2 2 2 2 2 2 2 2 2 2 2 2 2 2
left_child=1 7 3 14 8 17 9 18 -5 16 11 22 -12 -7 -2 -14 26 20 -1 -20 21 -6 -11 24 -4 -26 -3 -19 -10 -21
right_child=2 6 23 4 5 13 -8 -9 28 10 12 -13 15 -15 -16 -17 -18 27 19 29 -22 -23 -24 -25 25 -27 -28 -29 -30 -31
leaf_value=-0.012004819751465712 0.0020713603830899178 -0.011519662007543608 0.012927335257762237 -0.0030515202049453149 0.0017288615097770775 0 0.0039194208361614134 -0.0045926282953756212 0.0070393622478196385 0.0069606091205482636 -0.0097746002780062079 -0.0037135948867957282 -0.0064275715965294213 0.0079270360413358394 -0.0047212468798846436 0.00041731709974047483 -0.0037304647766340784 0.012322683083648794 -0.0061291702706836775 -0.0095175181112687763 0.0095886222279570194 0.0086230857667621355 0.0012068554665556578 0.012373347927632264 0.0043095228110378537 0.010093125129025288 -0.0063513381403006944 0.0079938581112313899 0.0028771818253971065 -0.011642639057602598
leaf_weight=192.47465315461159 13.862059831619264 11.947847485542299 19.864239364862442 12.356020480394362 11.247788250446321 13.864418447017671 11.230195254087446 13.832301944494246 12.746889710426332 11.981224358081818 14.942191272974013 11.219792455434797 13.084752380847933 11.248396843671797 14.974288344383238 14.97592920064926 19.07476469874382 29.986010849475861 14.544015347957609 47.286896526813507 27.746092796325684 13.124099045991896 11.233923316001892 208.32428911328316 11.248592913150789 13.497705101966856 11.221750378608702 11.997038990259169 11.241139173507689 60.348666369915009
leaf_count=518 37 32 53 33 30 37 30 37 34 32 40 30 35 30 40 40 51 80 39 127 74 35 30 556 30 36 30 32 30 162
internal_value=0 -0.00877896 0.00922007 0.00545268 0.00673423 0.0080643 -0.00311856 -0.0110301 0.00233384 -0.00379003 -0.00217638 0.00161384 -0.00523134 0.00353323 -0.00142551 -0.00275045 -0.00671226 0.00925785 -0.0113084 -0.0101942 0.00771108 0.00550228 0.00423635 0.0119594 0.00998053 0.00753232 -0.00909751 0.0111314 0.00515046 -0.010728
internal_weight=0 459.399 437.329 184.394 155.558 119.214 130.912 328.487 36.344 119.682 77.4378 34.4349 43.0029 25.1128 28.8363 28.0607 42.2444 94.101 314.654 122.18 52.118 24.3719 23.2151 252.935 44.6105 24.7463 23.1696 41.983 23.988 107.636
internal_count=2400 1233 1167 492 415 318 350 883 97 320 207 92 115 67 77 75 113 251 846 328 139 65 62 675 119 66 62 112 64 289
is_linear=0
shrinkage=0.01


Tree=21
num_leaves=26
num_cat=0
split_feature=2 2 2 0 9 0 7 1 7 2 0 7 1 2 7 9 7 0 1 4 7 7 9 4 2
split_gain=792.588 35.9461 27.023 13.7385 9.42281 8.4917 7.33299 5.30156 4.3631 3.74784 12.6582 5.56285 4.58113 3.59343 2.62622 1.43403 1.3529 1.18681 0.987879 0.789727 1.11116 1.17848 0.518799 0.370396 0.135166
threshold=-0.00011211813554329318 -0.00024758279981912373 4.6537135787727566e-06 0.80427203137207282 -0.56730035194713568 0.85346225638331175 0.65284301590209692 -0.00023955666337888146 0.75480238599846761 0.00027463888836504197 0.81603788692361923 0.83173293532992887 -2.8254102771962938e-05 -0.00033815648772811396 0.65402856746436433 0.048735507173525983 0.84172121184010551 0.81980373231337478 9.8532275784657411e-05 1.0000000180025095e-35 0.84236658832015421 0.80046839582751372 0.89095655544288499 0.00024312127026787647 -0.00051275927481064787
decision_type=2 2 2 2 2 2 2 2 2 2 2 2 2 2 2 2 2 2 2 2 2 2 2 2 2
left_child=1 13 3 6 -3 -5 -2 -6 14 10 22 12 15 19 -9 -12 -13 -15 23 24 21 -21 -4 -8 -1
right_child=2 4 9 5 7 -7 18 8 -10 -11 11 16 -14 17 -16 -17 -18 -19 -20 20 -22 -23 -24 -25 -26
leaf_value=0.019177534480235722 0.0013865946543486845 0.00028590463687315758 -0.0089064449106323537 0.0089069137729778768 0.0033668512958298152 -0.0018071600785367732 -0.0092496155237891294 0.013386605919000028 0.015941435316017005 -0.0090783357602330205 -0.00075762561873470447 -0.0086112483360537354 0.0036778891291201657 0.015514280938043586 0.0066376524749797881 -0.0063139982074664125 -0.0040209516648483145 0.010877248561356703 -0.0045082612952960415 0.017110855707573303 0.019147121017734234 0.012776327748736754 -0.0059737309371183994 -0.0061448162201550235 0.017013573984947176
leaf_weight=66.695331215858459 13.601904988288878 11.916128396987913 140.36509257555008 14.907158315181734 9.7743893861770612 14.287868320941923 17.216577231884006 9.8081462085247058 16.152187019586563 213.81497168540955 9.3349549174308795 15.687654316425325 14.353661566972731 21.418696105480194 17.559260725975037 10.218423098325728 13.284220874309538 11.911173880100248 12.626381725072859 20.851066559553146 16.609160363674164 16.097217261791229 9.4549077749252302 9.6273097991943342 24.957819133996964
leaf_count=197 43 37 463 46 30 45 56 30 49 711 30 51 46 64 54 33 43 36 41 62 49 48 31 31 74
internal_value=0 0.0148196 -0.00710711 -0.00184118 0.00841549 0.00364111 -0.00487697 0.0102105 0.0117134 -0.00811981 -0.00714774 -0.00334887 -0.000562816 0.017147 0.00913273 -0.00372957 -0.00656197 0.0139245 -0.00705879 0.0178697 0.0165376 0.015289 -0.00873214 -0.00820016 0.0186184
internal_weight=0 243.751 508.781 82.2672 65.2101 29.195 53.0722 53.294 43.5196 426.514 212.699 62.8789 33.907 178.54 27.3674 19.5534 28.9719 33.3299 39.4703 145.211 53.5574 36.9483 149.82 26.8439 91.6532
internal_count=2400 730 1670 262 200 91 171 163 133 1408 697 203 109 530 84 63 94 100 128 430 159 110 494 87 271
is_linear=0
shrinkage=0.01


Tree=22
num_leaves=31
num_cat=0
split_feature=0 2 2 2 7 1 2 2 4 2 9 9 6 1 6 0 7 6 9 9 0 1 6 9 2 9 1 1 4 1
split_gain=116.929 50.9313 50.8567 65.818 36.5539 25.9612 21.1503 20.5179 13.2587 9.83155 8.17831 12.4289 8.12138 6.35142 5.54877 5.53142 5.67323 5.40633 5.19298 4.87858 4.87551 4.78768 4.39592 3.6972 3.48035 3.17666 3.03906 2.72252 2.82913 2.95331
threshold=0.67445890386059848 0.0001890146829706674 0.00029248241845752926 -0.00033815648772811396 0.65263306789242004 0.00031415219780811526 0.00014108411549013103 -0.00012991607940376901 0.0015880289821217921 5.489499843691626e-05 -0.53389784763521064 0.40472534306171543 2.1194573030972905 0.00011720315381363867 0.57938451489801968 0.82102415148115371 0.80166085785165953 5.8463024542931104 0.65241809904435977 -0.013570611768596846 0.72573142410778224 -0.00010455814427323683 0.82127239566101895 0.24065386753624635 9.0268385640579498e-05 -0.097415126951124406 0.00012921272735050285 7.8092022037623568e-05 -0.00019053015471420795 0.00021250249364446197
decision_type=2 2 2 2 2 2 2 2 2 2 2 2 2 2 2 2 2 2 2 2 2 2 2 2 2 2 2 2 2 2
left_child=1 4 3 -2 5 14 7 12 10 23 22 20 21 -3 -1 27 -17 -14 -13 -18 -12 -5 -9 -6 -22 -23 -20 -8 -29 -30
right_child=2 13 -4 6 9 -7 15 8 -10 -11 11 18 17 -15 -16 16 19 -19 26 -21 24 25 -24 -25 -26 -27 -28 28 29 -31
leaf_value=0.0029609348956742393 -0.0065967061413644799 0.0027273000177500425 -0.0068754120144168844 0.010156867091113521 0.016465708335732736 0.017867058989044504 -0.0082494099211093738 0.019596753541429132 -0.003472631451925614 0.010554723246885847 -0.0004978606038027845 0.018537601602736275 -0.0077429621738891868 -0.0082920330008963497 -0.0075130270590804552 0.0086248898647205106 -0.0069422031777498314 0.0015628477611479624 0.0043957457997605785 0.0042588190494183952 0.007795343053182211 0.0052080039988456226 0.010160187842818148 0.02289464806308858 0.00069051009018502208 -0.0035716923292302928 0.013316232958230803 -0.0056607532879689995 0.0018361454756005272 -0.0055352371359988365
leaf_weight=8.4940594434738212 103.8622979670763 7.892946511507037 153.78213492035866 7.8815177083015469 25.579114407300949 8.1590714752674085 9.2296777963638288 8.335800915956499 10.187091350555418 20.140267550945282 16.177128553390503 9.4351825118064898 16.30948527157307 14.572449415922163 11.912370145320891 9.1745844781398791 7.5771045386791229 9.7773695886135084 8.2961245477199572 7.7020216286182386 27.899883598089218 7.8526487052440688 15.275503307580946 18.436418741941452 9.5978150963783246 8.3838023543357814 8.0671409070491773 14.942583978176115 19.244887098670009 7.4438486844301215
leaf_count=32 417 31 630 30 92 30 37 30 40 75 62 35 65 59 47 35 30 38 31 30 106 30 57 65 37 33 30 60 76 30
internal_value=0 0.00907943 -0.00209972 4.20588e-05 0.0123528 0.00288718 0.00293533 0.00495581 0.00731305 0.0165408 0.00839094 0.0068149 -0.000346648 -0.00438128 -0.00311136 -0.00143778 0.00244051 -0.0042243 0.0125267 -0.0012399 0.00403277 0.00380639 0.0136025 0.019227 0.00601008 0.000619222 0.00890849 -0.0033232 -0.00218995 -0.000195491
internal_weight=0 115.187 496.436 342.654 92.7213 28.5655 238.791 163.476 113.272 64.1558 103.085 79.4733 50.2048 22.4654 20.4064 75.3147 24.4537 26.0869 25.7984 15.2791 53.6748 24.118 23.6113 44.0155 37.4977 16.2365 16.3633 50.861 41.6313 26.6887
internal_count=2400 431 1969 1339 341 109 922 624 428 232 388 301 196 90 79 298 95 103 96 60 205 93 87 157 143 63 61 203 166 106
is_linear=0
shrinkage=0.01


Tree=23
num_leaves=31
num_cat=0
split_feature=5 5 6 5 1 4 5 4 0 0 0 3 6 6 0 1 1 0 0 1 3 6 0 9 5 6 1 9 4 5
split_gain=452.418 98.8255 39.8031 45.2861 26.3839 27.0635 22.1702 12.8465 10.9095 14.2987 10.0587 8.69562 7.36047 7.08364 6.74661 6.6964 5.59028 4.57164 16.4881 5.63329 5.5817 4.25219 4.22329 4.22297 3.86985 2.7017 2.22642 2.00051 1.62387 1.23688
threshold=0.0073380560129632242 -0.010881538627853181 6.5247120410851975 1.0000000180025095e-35 0.00027741776647888244 0.0001253146173605946 0.01286121509162347 0.0014735240227136128 0.72027837405401496 0.69511937985847683 0.79574411413763968 -0.001461977529572833 0.66901196462606671 2.2172600676947316 0.67445890386059848 0.0002682485871539631 -0.00029906791919559467 0.68321905687660378 0.70885873225113538 -8.8551468566011579e-05 -0.00049913428317444042 6.2210009178506462 0.73058204886521361 -0.50374290837636171 0.020406540980464186 0.67602025679271638 -0.00019982384500533132 0.1640026367866638 0.00049799016024343345 0.034321780919150453
decision_type=2 2 2 2 2 2 2 2 2 2 2 2 2 2 2 2 2 2 2 2 2 2 2 2 2 2 2 2 2 2
left_child=1 -1 3 7 5 8 10 17 9 12 15 -8 -5 -12 25 23 -4 28 -19 20 -20 29 -16 -2 -23 -7 -10 -14 -3 -13
right_child=6 2 16 4 -6 14 11 -9 26 -11 13 21 27 -15 22 -17 -18 18 19 -21 -22 24 -24 -25 -26 -27 -28 -29 -30 -31
leaf_value=-0.011797158623318831 0.0038006838915462604 -0.011543475270709772 0.010819710770445575 0.0026481846973448252 -0.011224719638724857 -0.0019571631826845646 0.0041367056278389328 0.00049441801288343992 -0.0037304067661842345 0.0097239311222184193 -0.0039762622041653456 0.012479258649801182 -0.0034666800961501683 0.0051328072288561455 0.0098554466515257729 0.0016946851392273643 0.0029761413083507575 0.0019122386857635895 -0.0098674260459990764 -0.011480395299137419 -0.0019195158573199259 0.0032861470543533635 0.0037711232932858231 0.010826446679690623 0.011271477352047784 0.004512013877376782 -0.0095367725496924346 -0.0088756093795918211 -0.0069057944701058716 0.009796941711880865
leaf_weight=170.6697823703289 11.61074662208557 46.114358097314835 19.48415744304657 17.208292424678802 19.728055238723755 13.072424143552782 17.597553700208664 17.945249617099762 11.211664795875551 11.615544259548185 15.71921932697296 159.87696868181229 20.560720145702366 18.346362352371216 30.729483008384705 15.347575455904005 17.969719976186752 16.84016415476799 18.204179853200912 41.639707237482071 17.919476389884949 11.98496586084366 19.458329290151596 40.836477488279343 13.481740713119505 12.359333842992781 19.795271784067154 11.205423057079313 11.181626766920088 26.209369450807571
leaf_count=460 31 124 52 46 53 35 47 48 30 31 42 427 55 49 82 41 48 45 49 112 48 32 52 109 36 33 53 30 30 70
internal_value=0 -0.00544069 -0.00268412 -0.00371582 -0.000313705 0.00097353 0.00928033 -0.00745218 -0.00267341 -0.000184708 0.00537135 0.0110105 -0.0025702 0.000900914 0.00540192 0.00759829 0.00710108 -0.00839727 -0.00700078 -0.00894377 -0.00596858 0.0115753 0.00752857 0.00930031 0.00758014 0.00115292 -0.00748816 -0.00542791 -0.0106694 0.0121123
internal_weight=0 564.913 394.243 356.789 186.945 167.216 331.011 169.845 91.5969 60.59 101.86 229.151 48.9744 34.0656 75.6196 67.7948 37.4539 151.9 94.6035 77.7634 36.1237 211.553 50.1878 52.4472 25.4667 25.4318 31.0069 31.7661 57.296 186.086
internal_count=2400 1516 1056 956 500 447 884 456 245 162 272 612 131 91 202 181 100 408 254 209 97 565 134 140 68 68 83 85 154 497
is_linear=0
shrinkage=0.01


Tree=24
num_leaves=31
num_cat=0
split_feature=5 5 6 0 3 5 1 6 7 0 7 3 5 6 6 0 7 7 6 7 0 6 3 3 1 0 5 9 0 7
split_gain=498.378 87.4872 34.3847 29.4365 24.0284 19.4371 52.0181 17.02 18.3426 15.9641 13.4935 11.6123 9.1383 18.7156 12.6543 5.30647 7.95296 5.3137 4.18144 4.79763 3.07906 2.49457 2.30839 2.1261 1.96608 1.42301 8.96815 0.621764 0.560165 0.426322
threshold=-0.00151248344398458 -0.011031314193908069 6.5247120410851975 0.65490144408833983 -0.0023241139536814277 0.0043777915210467264 0.00022350369811363627 2.1505330952585822 0.65263306789242004 0.69964522360142412 0.74820815032688615 0.00039886512918491107 -0.019252474241157998 5.8463024542931104 6.1963283943772298 0.72027837405401496 0.75726361767419714 0.6541614250857265 6.2210009178506462 0.82436165930554872 0.8225222081772493 1.3282815420426981 -0.0034561660992605821 0.0006761157874337621 -0.00022637666521502228 0.82988803297245661 0.012685109938160301 -0.42131605349054541 0.89870220371187248 0.76101708104564303
decision_type=2 2 2 2 2 2 2 2 2 2 2 2 2 2 2 2 2 2 2 2 2 2 2 2 2 2 2 2 2 2
left_child=1 12 3 -3 22 6 15 8 -5 -10 21 -9 28 23 -15 17 -17 -6 25 -20 -12 -11 -2 27 -18 -7 -27 -14 -1 -29
right_child=4 2 -4 7 5 18 -8 11 9 10 20 -13 13 14 -16 16 24 -19 19 -21 -22 -23 -24 -25 -26 26 -28 29 -30 -31
leaf_value=0.01891127648120584 0.00079781821978318573 -0.0058525014100418203 -0.008685455576716735 0.017954682071570277 -0.001724575694256085 -0.0091575146186406581 0.012298770885698463 0.017873834083142203 -0.0050595189887337614 0.008166604619604112 0.0041949305250094373 0.0055263996152248671 0.014229378925703607 -0.00069034689654127014 0.012795613996234039 0.0038684689687407126 -0.0085633417720872781 -0.009237999310460536 -0.0090875989712261122 -0.0010299076696428421 -0.0033021314583536192 0.015299016984960974 0.0078733529646455528 0.012050141057538637 -0.0027626449354864135 -0.00069592288678843876 -0.0090266586286616383 0.019160578947121365 0.015091852274134974 0.015293087314609191
leaf_weight=54.70769077539444 9.509817987680437 16.913281917572021 17.231215357780457 9.9347399175167066 11.807615190744398 200.71633589267731 17.547424018383026 24.202241122722626 16.416942000389099 11.029512941837313 12.037994891405107 11.660198748111723 10.147322177886961 13.142776548862459 14.350896984338759 11.053055197000502 15.012823164463041 55.423264414072037 13.528173923492433 16.905613213777542 9.793170899152754 11.351282596588133 9.5892598628997785 11.677719503641127 10.770657479763033 16.130974024534225 71.132197380065918 27.830308556556702 10.179544746875761 10.122872889041899
leaf_count=160 30 54 56 30 38 669 54 72 53 34 37 36 30 40 43 35 49 183 45 55 31 34 30 35 35 52 238 82 30 30
internal_value=0 0.0101896 0.00448709 0.00634102 -0.00650526 -0.00698284 -0.00356342 0.00829188 0.00540499 0.00330593 0.00643919 0.0139136 0.0154449 0.0132537 0.00633355 -0.00625687 -0.00314872 -0.00793781 -0.00828419 -0.00466243 0.000786529 0.0118805 0.00442489 0.0164039 -0.00619886 -0.00866172 -0.00750069 0.017413 0.0183516 0.0181982
internal_weight=0 292.73 140.571 123.339 459.127 440.028 121.615 106.426 70.5636 60.6289 44.212 35.8624 152.159 87.2719 27.4937 104.067 36.8365 67.2309 318.413 30.4338 21.8312 22.3808 19.0991 59.7782 25.7835 287.98 87.2632 48.1005 64.8872 37.9532
internal_count=2400 887 437 381 1513 1453 394 327 219 189 136 108 450 260 83 340 119 221 1059 100 68 68 60 177 84 959 290 142 190 112
is_linear=0
shrinkage=0.01


Tree=25
num_leaves=31
num_cat=0
split_feature=7 2 2 2 7 1 2 9 9 1 2 2 3 8 6 8 6 6 7 6 6 2 7 6 7 9 9 8 7 2
split_gain=113.473 88.0409 34.8128 53.4715 33.328 25.5559 11.6141 13.3488 26.6219 11.4083 10.8282 15.8156 14.4282 16.4965 8.22524 13.3425 6.78368 7.8719 6.73012 5.55684 5.37956 5.35633 4.66935 4.96024 4.47248 3.72251 3.53386 3.36678 2.49443 2.22523
threshold=0.66622784476125563 0.00014108411549013103 0.00029248241845752926 -0.00033815648772811396 0.65263306789242004 0.00031415219780811526 -1.2667182274217479e-05 -0.32110852713222909 0.24065386753624635 5.9715156541739762e-05 0.00011237961308996348 -0.00012991607940376901 0.0011825600602858313 61.956699036982819 2.1194573030972905 62.188518871332839 2.206196217680056 1.2643042999868708 0.70595343500915819 0.57938451489801968 5.8463024542931104 0.00019925359607231299 0.76101708104564303 1.6385205439859913 0.65569637115052359 0.14546881678209825 0.048735507173525983 63.163239893886036 0.65716129750779328 -0.00068638076680371796
decision_type=2 2 2 2 2 2 2 2 2 2 2 2 2 2 2 2 2 2 2 2 2 2 2 2 2 2 2 2 2 2
left_child=1 4 3 27 5 19 -6 -8 24 -3 11 14 13 16 15 -5 17 -13 -12 -1 -16 -11 23 -20 -9 -24 -15 -2 -23 -29
right_child=2 9 -4 10 6 -7 7 8 -10 21 18 12 -14 26 20 -17 -18 -19 22 -21 -22 28 25 -25 -26 -27 -28 29 -30 -31
leaf_value=0.0029075061976422422 -0.0076233562897503604 0.0078465656172454577 -0.0068551230287174072 0.0094605073151834071 0.019506533356394306 0.01751565190887381 0.019230408472207323 0.0043101920844014494 0.018109043468606728 0.00025578467385490981 -0.0051130022759729192 0.0013260247184593487 -0.0028244178538314509 0.011190763969755615 -0.0077262747741642969 -0.0060239955367456981 -0.00064504643611873382 0.013597661523627744 2.3656453776611107e-05 -0.0075231784829416105 0.00156441932447459 -0.0076686547633129576 -0.0043096046174609407 0.011267017405153875 -0.0058641611003537085 0.004187421720337238 0.018918653728091733 -0.0065711656115350573 -0.0014141159816809207 -0.00058587683432678847
leaf_weight=8.5238944888114982 77.624160006642342 9.031843498349188 140.23264442384243 15.397689506411554 36.824927031993866 8.254718065261839 16.260535418987274 9.1155872941017204 13.980690628290175 18.112246260046959 24.436217918992043 9.8789443671703356 12.510171905159948 14.982950627803804 16.237835839390758 8.5184286981821042 15.198004603385924 11.552481949329374 8.0259570479392988 12.132989302277563 9.7760353684425336 29.715196430683136 14.680071473121645 7.9295215606689444 8.0055751502513868 7.7362280637025824 12.189825356006621 11.656537815928461 8.7041252553462964 14.082615822553633
leaf_count=32 314 35 578 59 130 30 58 34 50 71 98 37 49 56 65 33 58 43 31 48 38 121 58 30 31 30 45 47 35 56
internal_value=0 0.006711 -0.00275992 -0.000790897 0.0120536 0.00273619 0.0152345 0.0118577 0.00792185 -0.00249424 0.00236708 0.00405572 0.0069163 0.00884332 -0.000301454 0.00390149 0.00440548 0.00801985 -0.0010122 -0.00317759 -0.00420391 -0.00417495 0.00157982 0.00570902 -0.000395528 -0.00132716 0.0147509 -0.00657317 -0.00628496 -0.00335009
internal_weight=0 178.662 432.646 292.414 113.099 28.9116 84.1873 47.3624 31.1019 65.5634 189.05 126.242 76.3124 63.8022 49.93 23.9161 36.6294 21.4314 62.808 20.6569 26.0139 56.5316 38.3718 15.9555 17.1212 22.4163 27.1728 103.363 38.4193 25.7392
internal_count=2400 675 1725 1147 413 110 303 173 115 262 730 483 288 239 195 92 138 80 247 80 103 227 149 61 65 88 101 417 156 103
is_linear=0
shrinkage=0.01


Tree=26
num_leaves=31
num_cat=0
split_feature=5 5 6 5 1 4 5 4 7 6 7 7 6 1 7 7 3 1 7 7 1 3 9 7 6 9 1 1 4 5
split_gain=443.061 96.9898 39.0546 44.3828 25.8964 26.5885 21.7276 12.6097 10.9231 10.436 9.87793 8.43967 6.9433 6.56932 5.85752 16.8012 5.71525 5.5203 4.41165 16.185 5.60832 5.49102 4.15457 3.95578 3.8209 2.92523 2.19737 1.89962 1.58969 1.02994
threshold=0.0073380560129632242 -0.010881538627853181 6.5247120410851975 1.0000000180025095e-35 0.00027741776647888244 0.0001253146173605946 0.01286121509162347 0.0014735240227136128 0.83573819414679462 0.6336345169800055 0.70624578035910746 0.65569637115052359 2.2172600676947316 0.0002682485871539631 0.67764156163640743 0.6612086015897024 -0.002123822897568461 -0.00029906791919559467 0.65966276277128089 0.66975983235646341 -8.8551468566011579e-05 -0.00049913428317444042 -0.50374290837636171 0.66403715738390301 0.67602025679271638 0.39712411336491821 -0.00012389035142884583 0.0001229635830009568 0.00049799016024343345 0.0098109162325089611
decision_type=2 2 2 2 2 2 2 2 2 2 2 2 2 2 2 2 2 2 2 2 2 2 2 2 2 2 2 2 2 2
left_child=1 -1 3 7 5 9 10 18 16 -5 13 24 -12 22 15 25 -8 -4 28 -20 21 -21 -2 -13 -7 -11 -16 -25 -3 -24
right_child=6 2 17 4 -6 11 8 -9 -10 14 12 23 -14 -15 26 -17 -18 -19 19 20 -22 -23 29 27 -26 -27 -28 -29 -30 -31
leaf_value=-0.011693767369269043 0.0037526636580174199 -0.011439503446106329 0.010729493359153481 0.0063039036948314385 -0.011131373321884309 -0.0033952044858086045 0.0042662452745339139 0.00049003009712096559 0.0013371707723019315 -0.0031959067467666937 -0.003945165887572254 0.012212321865160126 0.0050744751256276499 0.0016735036597438305 -0.0043858024963968753 0.0075177000201263524 0.011785897815035513 0.0029349463099094166 0.0018784387893685448 -0.0097692224143412741 -0.011389051773888645 -0.0018815771080076507 0.009057415306550208 0.0080150482051132409 0.004231851327892746 -0.0092860817204705615 -0.0099716640159569665 0.0031524463146845433 -0.0068415662989186879 0.012722958884091433
leaf_weight=170.31318542361259 11.609301865100859 45.663829803466797 19.484215199947357 11.229938030242918 19.697565495967865 11.943358331918718 11.230463266372679 17.942528933286667 11.608555555343626 23.17076376080513 15.714057266712187 14.610233604907988 18.342000931501389 15.343742996454237 14.566679537296297 13.849304616451262 206.1388952434063 17.968443155288696 16.842595309019089 18.17219465970993 41.939334332942963 17.910747051239014 22.849082350730896 19.098491042852402 14.231325447559355 12.692570596933363 16.047327220439911 15.717271357774733 11.171164900064467 17.969183027744293
leaf_count=460 31 123 52 30 53 32 30 48 31 62 42 39 49 41 39 37 551 48 45 49 113 48 61 51 38 34 43 42 30 48
internal_value=0 -0.00538873 -0.00265811 -0.00368087 -0.000312616 0.000962165 0.00918522 -0.00738262 0.0108989 -0.00265355 0.0053149 0.00535193 0.000884013 0.00752216 -0.00392455 -0.00177259 0.0114041 0.00703435 -0.00832006 -0.00695369 -0.00887304 -0.00589763 0.00920838 0.00778149 0.000713933 -0.00539894 -0.0073693 0.00586383 -0.0105669 0.0107227
internal_weight=0 564.263 393.95 356.497 186.855 167.157 330.805 169.642 228.978 91.5566 101.827 75.6007 34.0561 67.7713 80.3266 49.7126 217.369 37.4527 151.7 94.8649 78.0223 36.0829 52.4276 49.426 26.1747 35.8633 30.614 34.8158 56.835 40.8183
internal_count=2400 1516 1056 956 500 447 884 456 612 245 272 202 91 181 215 133 581 100 408 255 210 97 140 132 70 96 82 93 153 109
is_linear=0
shrinkage=0.01


Tree=27
num_leaves=31
num_cat=0
split_feature=5 5 1 3 8 5 1 3 7 9 1 4 1 7 5 8 3 4 8 7 5 1 5 7 7 1 3 1 8 7
split_gain=487.301 84.3624 25.6443 23.7511 19.9449 19.2467 51.0289 16.9756 13.894 12.6379 8.40986 5.51721 4.11361 9.94515 4.084 4.03547 6.00073 3.96199 3.94737 3.62535 8.51902 4.59289 3.31526 2.55633 3.24083 2.55526 2.25741 1.6211 0.731627 0.214432
threshold=-0.00151248344398458 -0.011031314193908069 0.00016959416880807379 -0.0023241139536814277 81.29625777986476 0.0043777915210467264 0.00022350369811363627 -0.0006323104609461393 0.65263306789242004 -0.28650748394101394 5.7049902031591777e-05 -0.00084171200149962811 -0.00022955368178478872 0.75480238599846761 -0.0034357636288470657 52.015029726660821 0.00069715536364034502 -0.0013561902390903378 90.913864992267278 0.72463969118268079 0.012685109938160301 -9.790188835073764e-05 0.0087392925566958119 0.6541614250857265 0.74497735693139344 -0.00028956911101180033 -0.0034561660992605821 -0.00016189200476290908 40.663162963340177 0.82755888300120983
decision_type=2 2 2 2 2 2 2 2 2 2 2 2 2 2 2 2 2 2 2 2 2 2 2 2 2 2 2 2 2 2
left_child=1 4 7 26 15 6 11 9 -9 -3 12 -5 -10 14 -14 29 27 -11 -6 -7 21 -21 -23 -13 -25 -26 -2 -17 -22 -1
right_child=3 2 -4 5 18 19 -8 8 10 17 -12 23 13 -15 -16 16 -18 -19 -20 20 28 22 -24 24 25 -27 -28 -29 -30 -31
leaf_value=0.016662894757329148 0.00079827171255858009 -8.5933322307296553e-05 0.015095448652951626 -0.0004009924681975599 0.0011332363484680018 -0.0091140460516215133 0.012112552949328767 0.011205206582179163 -0.0070238773906355868 0.016528082012503047 0.0062632095311503247 -0.0021806968277150868 -0.0081427292515473728 0.0045806682415701931 4.8106251702084342e-06 0.018626773978309218 0.007661370644634403 0.0084094220166835969 0.010096410567186067 -0.0073978757403510946 -0.0062689418694673836 0.0043949536208886487 -0.0037464754405600272 -0.0092017009442256752 -0.0090838483955582097 -0.0024220223361059853 0.0077920454366587821 0.012917453927086396 -0.0088735100516350619 0.018623268182775144
leaf_weight=41.429217606782913 9.5085703134536761 12.543789952993391 19.376301735639572 14.393513053655623 9.8693651854991931 194.48513308167458 17.653243362903595 9.8527582585811597 17.34077912569046 11.505990117788313 11.817024260759352 9.8733330368995649 16.514180988073349 17.371876567602158 9.3819037675857562 16.130698621273041 12.334268748760222 15.152173787355425 10.332873880863188 11.048916161060335 17.632156699895859 10.671059340238573 9.1763734221458417 52.989978283643723 9.1071020662784594 17.314706981182098 9.6194786727428419 11.562737017869951 73.503851681947708 51.637640863656998
leaf_count=121 30 39 58 46 30 653 54 30 56 34 37 32 53 54 30 47 37 46 31 36 59 34 30 176 30 56 30 34 247 150
internal_value=0 0.0100317 0.00443013 -0.00646737 0.0151659 -0.00694485 -0.0035399 0.00270976 0.000114755 0.00811665 -0.00139357 -0.00622376 -0.00291075 -0.00122686 -0.00516382 0.0165755 0.0137123 0.0119996 0.00579405 -0.0082454 -0.00684651 -0.0022549 0.000580756 -0.00714975 -0.00775146 -0.00478153 0.00438967 0.016334 -0.00838799 0.0177802
internal_weight=0 294.154 140.857 456.977 153.297 437.849 121.332 121.48 82.2785 39.202 72.4258 103.679 60.6087 43.268 25.8961 133.095 40.0277 26.6582 20.2022 316.517 122.032 30.8963 19.8474 89.2851 79.4118 26.4218 19.128 27.6934 91.136 93.0669
internal_count=2400 887 437 1513 450 1453 394 379 260 119 230 340 193 137 83 389 118 80 61 1059 406 100 64 294 262 86 60 81 306 271
is_linear=0
shrinkage=0.01


Tree=28
num_leaves=31
num_cat=0
split_feature=0 2 2 2 5 2 2 3 7 5 1 6 2 7 1 0 7 1 1 0 7 6 1 5 6 0 5 1 5 5
split_gain=111.788 49.6359 64.1225 48.0533 36.9713 20.2313 19.5791 14.6066 11.1529 17.969 14.1516 7.8806 7.12376 6.58244 6.2962 7.01261 14.9299 13.5725 6.24062 5.41303 5.45179 5.3345 4.6363 3.72701 3.6386 3.59681 3.03081 2.72627 3.41146 2.39075
threshold=0.67445890386059848 0.00029248241845752926 -0.00033815648772811396 0.0001890146829706674 -0.0078895886112730334 0.00014108411549013103 -0.00012991607940376901 0.0013557078235281741 0.65263306789242004 0.0014898042132033831 0.00031415219780811526 2.1194573030972905 -1.2667182274217479e-05 0.84140475475630561 0.00035347151921305558 0.72573142410778224 0.66622784476125563 2.799782503576376e-05 0.00011720315381363867 0.82102415148115371 0.80166085785165953 5.8463024542931104 -0.00010455814427323683 0.00637413732468295 0.67236542931714094 0.8225222081772493 -0.0052026332312641857 7.8092022037623568e-05 0.0081064670341310392 -0.0034357636288470657
decision_type=2 2 2 2 2 2 2 2 2 2 2 2 2 2 2 2 2 2 2 2 2 2 2 2 2 2 2 2 2 2
left_child=3 2 -2 4 -1 6 11 13 10 29 -6 22 -11 14 15 16 -8 -17 -5 27 -21 -13 -4 25 -14 -3 -24 -7 -29 -10
right_child=1 23 5 18 8 19 7 -9 9 12 -12 21 24 -15 -16 17 -18 -19 -20 20 -22 -23 26 -25 -26 -27 -28 28 -30 -31
leaf_value=-0.0082077280670458039 -0.0065531530185437663 -0.008138980369177767 0.0099366835235167768 0.0026826428889009384 0.00031030984022764065 -0.0082288191779849775 0.010483302367024643 -0.0037879852139277859 0.025126015242423277 0.017668833668401562 0.017261222075820048 -0.0077077584906644061 0.0015301964796129684 0.0012401819660965219 0.0011520672339706433 0.0083780749361310799 -0.0041690031711861938 0.019660974283163123 -0.0082537053187408359 0.0084434804694143838 -0.0012056921906125916 0.0015489542635983981 0.0049930605964828697 -0.0074750623886592317 0.010193555672829886 9.579103459264417e-05 -0.0035683625991902866 0.00070592018725205736 -0.004986550904552781 0.018618390479507491
leaf_weight=8.1862801313400251 102.93405501544476 8.2345836013555544 7.9606466591358211 7.9166344851255444 12.164570808410646 9.1688866913318616 26.388921529054642 10.905173555016516 10.728017479181284 8.5377174019813555 8.3241696953773481 16.157922446727756 8.6523204445838946 12.061736196279524 9.0497121810913068 29.182007312774658 9.2538762688636762 17.48114338517189 14.387525498867033 9.2552593350410479 15.227814659476278 9.7871814668178541 8.0051912814378774 129.73336896300316 12.018158480525015 13.93928189575672 8.2738820165395701 20.528107866644859 20.911663725972176 25.604717463254932
leaf_count=33 417 34 30 31 46 37 97 43 37 30 30 65 32 46 34 109 35 64 59 35 60 38 31 540 44 56 32 81 85 89
internal_value=0 -0.0020663 4.12528e-05 0.00881769 0.0119427 0.00288 0.0048437 0.00712815 0.0138791 0.0159075 0.00729609 -0.000344291 0.00994733 0.00829144 0.00920911 0.0100804 0.00665015 0.0126593 -0.00433268 -0.0014094 0.00242078 -0.00418495 0.00372579 -0.00682206 0.00664019 -0.00294022 0.000585422 -0.00328319 -0.00214768 0.020631
