tree
version=v4
num_class=3
num_tree_per_iteration=3
label_index=0
max_feature_idx=10
objective=multiclass num_class:3
feature_names=price_close diff_MA_100 diff_MA_50 diff_MA_30 diff_MA_20 diff_MA_9 divergence OBV MFI Volume_Oscillator ATR
feature_infos=[64.799999999999997:96.899999999999991] [-0.13580000000001746:0.14960000000002083] [-0.22179999999997335:0.26699999999999591] [-0.30033333333334156:0.33899999999998442] [-0.492999999999995:0.44050000000000011] [-0.85666666666665492:0.85333333333333883] [-7.1273444444444323:7.8126555555555512] [-137.50682699999999:105.97097599999999] [4.3496123052030242:98.467383683794637] [-0.69385339848118943:0.7148775801202446] [0.28714285714285587:2.8078571428571419]
tree_sizes=3280 3337 3279 3334 3420 3429 3209 3439 3403 3430 3426 3425 3440 3422 3437 3411 3423 3401 3220 3422 3392 3434 3420 3418 3415 3433 3410

Tree=0
num_leaves=31
num_cat=0
split_feature=2 9 7 6 2 4 8 10 6 1 9 9 7 4 1 4 7 1 8 1 10 10 2 7 10 7 9 2 10 1
split_gain=21.3978 21.6971 17.2129 10.8719 26.2865 9.23746 8.39156 7.61406 10.1522 14.833 7.976 5.61654 9.77176 5.34198 5.27873 5.27372 4.96929 3.59783 7.1257 5.46377 7.60872 2.83831 1.97495 4.87214 2.48851 5.70281 1.87564 1.35212 0.424981 1.78604
threshold=-0.026199999999995779 0.37402272011830601 40.203278500000003 -4.8926111111111004 -0.10750000000000169 -0.089000000000005727 29.839928649405149 0.80892857142856822 -0.64886111111110967 -0.041550000000015068 -0.18307665519470509 0.19409564789201147 17.686818000000006 0.13475000000000395 -0.021749999999997268 0.040750000000002735 -85.436029499999989 0.029750000000007052 65.847859463697972 0.046750000000010068 0.59999999999999909 0.91500000000000126 -1.0000000180025095e-35 -77.430126999999985 0.4817857142857157 -71.094994999999997 0.47409960678496532 0.022599999999989965 0.62749999999999939 0.012749999999989827
decision_type=2 2 2 2 2 2 2 2 2 2 2 2 2 2 2 2 2 2 2 2 2 2 2 2 2 2 2 2 2 2
left_child=3 2 11 6 -5 14 -1 8 9 -7 -9 16 15 -4 -6 -13 -2 22 19 20 -19 -21 23 -18 25 -24 -3 -27 29 -26
right_child=1 26 13 4 5 7 -8 10 -10 -11 -12 12 -14 -15 -16 -17 17 18 -20 21 -22 -23 24 -25 28 27 -28 -29 -30 -31
leaf_value=-1.2730538024043412 -1.2755983099920167 -1.2669611565689787 -1.2764783534042929 -1.2582214559286367 -1.2737354503877067 -1.280661530959976 -1.2859845816543036 -1.2742334411182181 -1.2837640767628187 -1.2660509910701772 -1.2622378457146275 -1.2769134038442469 -1.2843123619602463 -1.2680832173820398 -1.2827403725065289 -1.2678219772442521 -1.2836602375355941 -1.2804854213469583 -1.2845151625193747 -1.2842133671508833 -1.2685217071160568 -1.2771835629795447 -1.2741466875429612 -1.2741466875429612 -1.2859796118073088 -1.285989285246337 -1.2730538024043412 -1.2804854213469583 -1.2850600928775779 -1.280098329611721
leaf_weight=9.0500923991203326 15.988496571779249 14.480147838592531 15.385157078504564 12.066789865493773 11.161780625581743 11.16178062558174 10.860110878944395 9.9551016390323657 9.0500923991203326 17.798515051603317 13.27346885204315 17.195175558328632 11.765120118856428 15.385157078504561 15.083487331867216 10.256771385669706 12.670129358768465 9.0500923991203326 19.306863784790039 11.161780625581743 12.368459612131117 12.368459612131117 9.0500923991203326 9.050092399120329 10.558441132307054 11.161780625581743 9.050092399120329 9.050092399120329 38.010388076305389 11.765120118856428
leaf_count=30 53 48 51 40 37 37 36 33 30 59 44 57 39 51 50 34 42 30 64 37 41 41 30 30 35 37 30 30 126 39
internal_value=-1.27692 -1.2784 -1.27924 -1.27336 -1.27201 -1.27394 -1.28007 -1.27181 -1.27462 -1.27171 -1.2673 -1.28017 -1.27675 -1.27223 -1.27888 -1.27346 -1.28088 -1.28137 -1.27945 -1.27724 -1.27362 -1.28058 -1.28246 -1.27966 -1.28313 -1.28065 -1.26924 -1.2836 -1.28431 -1.28295
internal_weight=0 285.078 261.548 119.461 99.551 87.4842 19.9102 61.239 38.0104 28.9603 23.2286 230.777 39.2171 30.7703 26.2453 27.4519 191.56 175.572 64.2557 44.9488 21.4186 23.5302 111.316 21.7202 89.5959 29.262 23.5302 20.2119 60.3339 22.3236
internal_count=1341 945 867 396 330 290 66 203 126 96 77 765 130 102 87 91 635 582 213 149 71 78 369 72 297 97 78 67 200 74
is_linear=0
shrinkage=1


Tree=1
num_leaves=31
num_cat=0
split_feature=7 5 9 2 1 1 0 1 2 9 2 1 2 7 4 7 4 0 8 0 2 7 7 9 7 7 4 1 4 4
split_gain=22.5291 29.7201 12.7318 12.355 11.3262 14.41 11.0567 8.13643 7.78699 7.26819 7.17523 6.66209 7.30008 12.482 6.42188 5.21867 6.50101 5.911 5.07514 5.21467 3.75614 3.82866 3.65896 3.62651 3.2351 2.91943 2.65337 2.20493 2.26284 1.14228
threshold=-18.991891999999996 0.051111111111104897 0.19874685613096876 0.038800000000001951 -0.015650000000000826 0.0086499999999958294 74.215000000000018 0.029750000000007052 0.14730000000000135 -0.21956320585131506 0.017800000000008257 0.0024000000000015125 -0.0017999999999958047 -67.242932499999981 -0.07824999999999703 49.885260000000009 0.09174999999999757 83.375000000000014 75.849165536719283 74.765000000000029 0.049600000000005202 36.242806000000009 -72.514460499999998 0.14708009763433808 -82.703987999999981 6.1259625000000009 0.060249999999989264 -0.037749999999995502 -0.067250000000008456 0.054749999999998529
decision_type=2 2 2 2 2 2 2 2 2 2 2 2 2 2 2 2 2 2 2 2 2 2 2 2 2 2 2 2 2 2
left_child=1 4 18 14 6 11 -1 -5 15 -8 22 12 -6 -14 25 16 20 -18 19 -3 -9 29 -7 -16 27 -2 -21 28 -11 -22
right_child=3 2 -4 7 5 10 9 8 -10 24 -12 -13 13 -15 23 -17 17 -19 -20 26 21 -23 -24 -25 -26 -27 -28 -29 -30 -31
leaf_value=-0.97148114993271195 -0.98167213865057001 -0.97164829893943794 -0.97687445864542066 -0.96854607623577982 -0.96811697212890646 -0.97676838011612921 -0.97483659947912782 -0.97535599079180735 -0.97039972377840777 -0.97929778712330029 -0.97287900309236408 -0.96385766310977505 -0.98323115305200248 -0.96882867984612986 -0.98508152559918916 -0.98530297609431106 -0.96998824512916648 -0.97961073121315112 -0.9732135494951899 -0.9621611144227461 -0.98633488336363673 -0.97679768333754824 -0.98350343924426065 -0.97989720506179545 -0.97858980635053816 -0.97503131385840658 -0.96854607623577982 -0.98665071563385098 -0.98536502726883579 -0.98148609646355311
leaf_weight=14.438271909952162 10.916742175817491 12.677507042884825 18.311954617500305 10.56458920240402 18.664107590913773 13.381812989711756 15.142577856779097 11.621048122644423 12.325354069471357 15.142577856779097 15.846883803606032 10.56458920240402 12.677507042884825 11.268895149230959 45.779886543750763 10.916742175817488 15.494730830192568 10.56458920240402 12.677507042884825 25.355014085769653 12.325354069471361 10.56458920240402 21.481331378221515 20.42487245798111 16.199036777019501 16.199036777019501 10.56458920240402 18.311954617500309 11.268895149230955 10.56458920240402
leaf_count=41 31 36 52 30 53 38 43 33 35 43 45 30 36 32 130 31 44 30 36 72 35 30 61 58 46 46 30 52 32 30
internal_value=-0.976612 -0.974755 -0.969611 -0.979179 -0.976858 -0.974611 -0.979447 -0.976814 -0.977758 -0.980977 -0.978409 -0.970975 -0.972788 -0.976491 -0.981825 -0.978882 -0.977872 -0.973924 -0.967427 -0.965948 -0.980177 -0.98188 -0.980955 -0.983505 -0.98252 -0.977677 -0.963984 -0.983914 -0.981947 -0.984171
internal_weight=0 273.975 79.5866 198.262 194.388 103.885 90.5033 104.942 94.377 76.065 50.71 53.1751 42.6105 23.9464 93.3205 82.0516 71.1349 26.0593 61.2746 48.5971 45.0756 33.4545 34.8631 66.2048 60.9225 27.1158 35.9196 44.7234 26.4115 22.8899
internal_count=1341 778 226 563 552 295 257 298 268 216 144 151 121 68 265 233 202 74 174 138 128 95 99 188 173 77 102 127 75 65
is_linear=0
shrinkage=1


Tree=2
num_leaves=31
num_cat=0
split_feature=1 4 8 2 4 1 5 0 1 2 8 8 5 1 0 2 6 5 4 0 6 4 6 0 0 5 0 4 4 2
split_gain=18.4889 13.8834 11.1243 13.3796 12.0673 13.6232 10.5953 23.6941 16.0293 10.031 6.89048 6.3813 5.97772 6.18268 9.68538 6.08358 5.71155 7.83543 5.18221 4.03717 3.8266 3.21377 2.93611 6.0627 2.8065 2.73426 1.98663 1.9222 2.54411 1.46655
threshold=0.010649999999998274 0.24174999999999616 15.968836177844524 -0.026199999999995779 0.021249999999994888 -0.023150000000001111 0.042777777777779143 71.125000000000014 0.046399999999991344 0.016100000000001561 64.496827073317235 51.437399799429329 -0.033333333333352748 0.049400000000012774 87.510000000000005 0.0066999999999950441 -0.47278888888889264 -0.0033333333333374067 -0.22224999999999537 82.675000000000011 0.42804444444444562 -0.037249999999993115 1.4784500000000096 75.315000000000012 82.605000000000018 0.013333333333328314 74.234999999999999 -0.1040000000000063 -0.1517499999999998 0.027700000000002948
decision_type=2 2 2 2 2 2 2 2 2 2 2 2 2 2 2 2 2 2 2 2 2 2 2 2 2 2 2 2 2 2
left_child=2 6 -1 11 5 -5 7 20 22 -7 19 18 13 21 -15 -14 -6 -18 -4 -10 -2 -9 23 -8 -12 -17 -20 28 -28 -19
right_child=1 -3 3 4 16 9 8 12 10 -11 24 -13 15 14 -16 25 17 29 26 -21 -22 -23 -24 -25 -26 -27 27 -29 -30 -31
leaf_value=-1.0580420694310821 -1.0483518548315578 -1.0734309890361147 -1.0656059921999397 -1.0537966277933084 -1.0625685969115395 -1.0702921437112878 -1.0632701933652327 -1.0730986987114024 -1.0523880770703327 -1.0603418264089783 -1.061855507407893 -1.0656059921999397 -1.0540787465307313 -1.0572829790537457 -1.0691056502405301 -1.0663704987581546 -1.0631070731930086 -1.0756324438037859 -1.0687589075122377 -1.0611346620598461 -1.0562018563241475 -1.0658586003880286 -1.0723413898308727 -1.071195388594828 -1.0687589075122377 -1.0600479671782257 -1.0747111440469899 -1.0751926331584589 -1.0678558175584818 -1.071116801490269
leaf_weight=11.178370535373686 10.83963203430176 13.549540042877195 10.839632034301756 13.549540042877195 10.500893533229826 20.324310064315796 18.291879057884216 11.855847537517549 10.1621550321579 19.985571563243866 13.549540042877199 18.630617558956146 10.500893533229826 15.581971049308779 12.194586038589476 12.872063040733339 10.162155032157896 13.888278543949125 10.162155032157896 12.194586038589476 18.291879057884216 13.210801541805266 17.953140556812286 19.985571563243866 10.162155032157896 13.888278543949125 11.17837053537369 37.599973618984222 11.517109036445616 19.646833062171936
leaf_count=33 32 40 32 40 31 60 54 35 30 59 40 55 31 46 36 38 30 41 30 36 54 39 53 59 30 41 33 111 34 58
internal_value=-1.06561 -1.06366 -1.06769 -1.06822 -1.06577 -1.06243 -1.06305 -1.06103 -1.06542 -1.06538 -1.06105 -1.07086 -1.06358 -1.06573 -1.0625 -1.06052 -1.06911 -1.07071 -1.07207 -1.05707 -1.0532 -1.06934 -1.06899 -1.06739 -1.06486 -1.06312 -1.07306 -1.07376 -1.0713 -1.07304
internal_weight=0 235.085 219.164 207.985 108.058 53.8594 221.535 119.236 102.299 40.3099 46.0684 99.9279 90.1044 52.8432 27.7766 37.2612 54.1982 43.6973 81.2972 22.3567 29.1315 25.0666 56.2306 38.2775 23.7117 26.7603 70.4576 60.2955 22.6955 33.5351
internal_count=1341 694 647 614 319 159 654 352 302 119 136 295 266 156 82 110 160 129 240 66 86 74 166 113 70 79 208 178 67 99
is_linear=0
shrinkage=1


Tree=3
num_leaves=30
num_cat=0
split_feature=0 2 3 2 1 1 1 10 1 2 1 4 1 2 10 3 0 1 8 6 0 10 10 1 0 1 10 6 1
split_gain=26.3873 18.9319 17.4641 26.2753 16.8226 12.0543 10.2236 12.2555 10.0035 11.0228 8.20325 7.85029 6.16697 5.89149 5.57269 9.27446 6.42454 5.39762 8.81957 4.02004 3.6396 3.56119 5.78795 4.31727 2.20995 3.98434 0.493807 0.479147 0.434174
threshold=82.27500000000002 -0.050900000000005712 -0.087833333333328753 -0.0075999999999964976 0.063200000000009041 -0.009599999999998941 -0.04369999999999407 0.63178571428571473 0.052950000000002724 0.049600000000005202 0.024149999999991682 0.16975000000000054 -0.019200000000004987 0.099499999999999048 0.61321428571428538 -0.019500000000007841 77.840000000000018 0.033149999999999132 53.45619032501309 -0.67925000000000313 76.345000000000013 0.37321428571428489 0.42000000000000076 0.030850000000000936 76.480000000000018 -0.015650000000000826 0.65714285714285603 1.3060722222222128 0.00070000000000192142
decision_type=2 2 2 2 2 2 2 2 2 2 2 2 2 2 2 2 2 2 2 2 2 2 2 2 2 2 2 2 2
left_child=1 6 12 10 5 -5 20 -8 9 14 -4 13 -2 -6 15 19 21 27 -19 -3 -1 -17 -23 -24 26 -26 -16 -7 -28
right_child=2 8 3 4 11 17 7 -9 -10 -11 -12 -13 -14 -15 24 16 -18 18 -20 -21 -22 22 23 -25 25 -27 28 -29 -30
leaf_value=-0.0040828549036874958 0.0013560564915243208 -0.00059605720020178559 0.019791010380009879 0.0091909483296725401 0.0096222097474474855 -0.0046459135524271099 0.016616007011539952 0.0021576229727582026 -0.0084774698478061183 0.0052754982153919118 0.0075596247537671182 0.014682681525889816 -0.009084703739510069 -0.00139802194041054 -0.0047966977651169671 -0.0084348351623955691 0.0040590191134459016 -0.0068517216688190573 0.0062750980609428339 0.0080228076272211256 0.0030490938446189539 0.0030002150760809433 -0.00585022157225909 0.00036483216005144952 -0.0079756921871370987 0.00045262712135600612 -0.0057538172863668855 -0.0082191716771476651 -0.0091082426339036838
leaf_weight=13.855921775102617 10.264429301023485 9.3637111783027667 13.656594783067705 9.657922297716139 9.9636436104774528 9.0347221195697802 10.322268605232241 13.90841284394264 29.1675965487957 17.799566775560379 9.9969480633735639 12.421474218368528 12.061711728572844 9.0590065121650678 9.3398247957229596 14.761210203170775 11.166686862707136 9.052949011325838 11.484742134809492 12.059335112571715 14.516904324293135 12.96368172764778 44.837983161211014 14.467708319425581 9.3411139547824877 13.288142472505568 9.0476651489734667 11.728425323963164 15.941194325685499
leaf_count=46 34 31 45 32 33 30 34 46 97 59 33 41 40 30 31 49 37 30 38 40 48 43 149 48 31 44 30 39 53
internal_value=0 -0.00174138 0.00374402 0.00543982 0.00275004 -0.000783264 0.00364283 0.00840097 -0.0030139 -0.00218497 0.0147172 0.00849219 -0.00425534 0.00434197 -0.00294523 -0.00170479 -0.00301136 -0.00315639 0.00043522 0.0042239 -0.000400792 -0.00393364 -0.00299006 -0.00431916 -0.00552527 -0.00300228 -0.00714582 -0.00674198 -0.00796135
internal_weight=0 276.149 128.383 106.056 82.4029 50.9588 52.6035 24.2307 223.545 194.378 23.6535 31.4441 22.3261 19.0227 176.578 119.62 98.1973 41.3008 20.5377 21.423 28.3728 87.0306 72.2694 59.3057 56.9579 22.6293 34.3287 20.7631 24.9889
internal_count=1341 916 425 351 273 169 174 80 742 645 78 104 74 63 586 397 326 137 68 71 94 289 240 197 189 75 114 69 83
is_linear=0
shrinkage=0.01


Tree=4
num_leaves=31
num_cat=0
split_feature=5 1 9 0 4 8 9 0 4 8 1 1 0 4 2 2 3 4 8 2 0 8 2 3 1 0 9 2 2 1
split_gain=17.1658 17.3682 13.3584 9.83765 7.02036 6.93559 6.52347 6.23843 6.17573 5.89625 5.53373 9.19003 15.0548 7.1088 10.63 7.96821 5.45515 5.3681 4.59066 4.30147 3.19495 3.06962 2.93568 2.53241 2.45007 2.44465 2.22949 2.14749 1.88139 2.13402
threshold=0.042777777777779143 0.045149999999999586 0.19874685613096876 81.965000000000018 -0.12675000000000833 68.61302566747429 0.027917853441039663 75.460000000000008 0.061500000000002338 62.160347417888325 0.023249999999997332 -0.019949999999994358 74.215000000000018 -0.07824999999999703 -0.036899999999995707 -0.003399999999999181 0.069500000000005016 0.012000000000007562 71.455803356348142 0.041899999999991173 78.210000000000022 26.076778111902239 -0.084500000000012662 0.091499999999996376 -0.044950000000000039 76.875000000000014 0.14708009763433808 0.021700000000016931 0.027900000000002482 0.029050000000005131
decision_type=2 2 2 2 2 2 2 2 2 2 2 2 2 2 2 2 2 2 2 2 2 2 2 2 2 2 2 2 2 2
left_child=3 2 7 8 21 23 -7 9 10 -2 11 12 -1 -13 -15 -16 18 -17 20 26 -9 -5 -14 -3 -22 -4 -6 -19 29 -12
right_child=1 5 25 4 19 6 -8 16 -10 -11 28 13 22 14 15 17 -18 27 -20 -21 24 -23 -24 -25 -26 -27 -28 -29 -30 -31
leaf_value=0.0059006155981043574 0.0056848369880139324 -0.0031730786048102563 -0.0041379884114839489 -0.002912837509677095 -0.0093093275824156965 0.0063520966793414535 -0.0028249931460677612 0.016340931624241984 0.0055217743762717179 -0.0032447530987302609 -0.0095273207997992881 0.007701202469229158 -0.0031278283844414561 -0.0070895413582838501 0.010121549362490632 -0.0024662607437291677 0.0026840597316855901 0.0069881257557638885 0.0047597385689029719 -0.0021575264884229747 0.012919625752247244 0.0043021992772237904 -0.0084594304614763003 -0.00956521520883645 0.0061506915018138169 0.0016064413232907482 -0.0040545623664033324 0.0010234016480955275 -0.0013605478151391076 -0.0029547800051557211
leaf_weight=13.749162495136259 21.858420729637146 16.177257329225544 15.487349361181261 13.025719225406649 30.933458864688873 13.389506340026857 17.95795527100563 10.967695415019987 16.552802681922913 10.916819512844084 10.54307144880295 17.278630197048187 20.049018561840054 14.421230435371397 10.936706453561781 25.695984661579132 14.819169014692305 12.335877358913423 14.112397164106367 20.067192375659943 11.308748215436932 10.568965733051298 23.54637381434441 10.895510315895079 12.348165541887287 13.730685681104658 12.306580126285551 12.689809948205946 13.01092556118965 10.545045822858809
leaf_count=39 62 46 44 37 88 38 51 31 47 31 30 49 57 41 31 73 42 35 40 57 32 30 67 31 35 39 35 36 37 30
internal_value=0 0.00238584 0.00448319 -0.00152296 -0.00433379 -0.00210441 0.00107077 0.00628003 -0.000303337 0.00267932 -0.000833208 -2.45304e-06 -0.00315676 0.00192566 0.000592451 0.00241395 0.00811405 0.000715698 0.00973576 -0.00606737 0.0117156 0.000281368 -0.00604314 -0.00580815 0.00946931 -0.00140808 -0.00784964 0.0040195 -0.0044648 -0.0063174
internal_weight=0 183.97 125.549 288.257 86.9019 58.4202 31.3475 96.3314 201.355 32.7752 184.802 150.703 57.3446 93.3582 76.0796 61.6584 63.5562 50.7217 48.737 63.3072 34.6246 23.5947 43.5954 27.0728 23.6569 29.218 43.24 25.0257 34.099 21.0881
internal_count=1341 522 356 819 247 166 89 273 572 93 525 428 163 265 216 175 180 144 138 180 98 67 124 77 67 83 123 71 97 60
is_linear=0
shrinkage=0.01


Tree=5
num_leaves=31
num_cat=0
split_feature=10 1 3 8 2 2 9 10 2 1 4 2 1 8 5 10 1 5 10 5 3 8 4 4 10 10 5 2 8 10
split_gain=26.1757 22.0934 15.7355 11.9759 8.7433 8.62412 12.2542 10.2093 8.34899 9.75108 8.79797 19.416 13.6357 6.73848 11.1331 12.0344 5.67117 9.96437 9.81823 6.91807 4.90866 4.46738 4.43491 2.67984 2.65815 2.53454 2.21643 2.36619 3.55708 2.00868
threshold=0.36750000000000133 0.014299999999984438 0.024833333333347699 21.128187812191559 0.13260000000001074 0.094900000000002663 0.18460094508327604 1.2246428571428571 -0.068900000000006387 -0.024599999999992402 0.047500000000006544 -0.0068000000000196783 -0.041550000000015068 33.397352265341944 0.026666666666677944 0.74928571428571511 0.046399999999991344 0.060000000000009386 0.65714285714285603 0.024444444444434058 -0.06816666666666292 52.229017534828522 0.090499999999998706 -0.13500000000000509 0.65428571428571558 0.63714285714285579 0.051111111111104897 -0.00439999999999685 55.213178476704535 0.95785714285714418
decision_type=2 2 2 2 2 2 2 2 2 2 2 2 2 2 2 2 2 2 2 2 2 2 2 2 2 2 2 2 2 2
left_child=-1 3 13 23 5 6 16 -7 25 10 11 12 -10 29 21 -16 17 18 -4 -18 -11 24 26 -2 -15 -5 27 -22 -29 -3
right_child=1 2 4 8 -6 7 -8 -9 9 20 -12 -13 -14 14 15 -17 19 -19 -20 -21 22 -23 -24 -25 -26 -27 -28 28 -30 -31
leaf_value=0.012413125169814672 0.0060568616352868511 -0.0031788491291698312 0.010486095140618551 -0.0031299669951930275 -0.0074598230860274005 0.012765960659352791 -0.0064568038861220999 -0.00052468068000808925 0.0060424048312438987 0.00075860521470530907 -0.0049672027890212637 0.014513301119938926 -0.0084538348092708 0.016276053183548682 -0.0050255348318631946 0.0085196307354909184 -0.0015150230430694262 -0.0063070420609904702 -0.0031781939911439622 0.008600411545977734 -0.0080003771883923411 0.00597150776040134 0.00056177521479836587 -0.00023808804241639531 0.0090152549243853793 -0.0091040096255076836 -0.0094867209613700727 -0.00046958389186703946 -0.0075499728374944057 0.0030245415016904461
leaf_weight=16.275689303874969 15.922055393457414 10.17637559771538 10.533065199851992 10.14910253882408 15.546056926250456 11.216979235410692 27.420436084270477 11.515048056840895 12.860948264598845 14.553433179855345 17.604519248008728 11.22316738963127 12.851947486400606 11.224199026823046 13.890636265277864 12.202065736055372 10.513816237449648 18.607144415378571 10.176187336444853 17.990840405225754 19.583443671464916 19.692327797412872 10.156519532203673 11.177841275930403 11.876451700925825 30.745362639427185 18.244178056716919 17.622254163026817 12.179552733898161 10.506284594535826
leaf_count=48 47 30 31 30 46 33 81 34 38 43 52 33 38 33 41 36 31 55 30 53 58 58 30 33 35 91 54 52 36 31
internal_value=0 -0.000464006 0.00173716 -0.00275371 -0.00043161 0.000491602 -0.000821601 0.0060169 -0.00365316 -0.00252714 0.00080922 0.00359537 -0.00116912 0.00497818 0.00647921 0.00127893 0.00144817 -0.000993169 0.00374063 0.00484217 -0.00450734 0.00961635 -0.00550512 0.0034323 0.0126412 -0.00765703 -0.00643049 -0.00526434 -0.00341225 0
internal_weight=0 437.962 223.088 214.874 133.52 117.974 95.2415 22.732 187.774 146.88 54.5406 36.9361 25.7129 89.5683 68.8857 26.0927 67.8211 39.3164 20.7093 28.5047 92.3394 42.793 77.7859 27.0999 23.1007 40.8945 67.6294 49.3853 29.8018 20.6827
internal_count=1341 1293 658 635 394 348 281 67 555 434 161 109 76 264 203 77 200 116 61 84 273 126 230 80 68 121 200 146 88 61
is_linear=0
shrinkage=0.01


Tree=6
num_leaves=29
num_cat=0
split_feature=0 3 1 9 6 1 6 0 5 4 0 0 5 0 1 7 1 1 7 0 5 4 4 7 5 9 4 6
split_gain=25.9258 17.1335 22.5677 16.9681 16.6858 13.5201 12.169 10.6842 12.2022 21.9041 9.28758 17.2183 13.8731 8.27009 6.10221 5.97441 5.46225 5.23365 7.49272 10.9806 5.28473 4.32413 3.67959 3.32312 2.75078 1.80701 3.25383 1.59124
threshold=82.27500000000002 -0.087833333333328753 -0.009599999999998941 0.37402272011830601 -0.29541111111112167 0.033149999999999132 0.86476111111111476 74.070000000000007 0.005555555555567083 -0.085250000000002032 91.00500000000001 86.610000000000014 0.11333333333333685 83.615000000000023 -0.019200000000004987 -88.973037999999988 -0.03920000000000811 0.052950000000002724 -3.7955574999999997 77.840000000000018 0.093333333333326621 0.014500000000005288 0.018499999999995968 -78.337764999999976 0.0049999999999954534 -0.13100918791713945 -0.015749999999997041 0.97434999999999417
decision_type=2 2 2 2 2 2 2 2 2 2 2 2 2 2 2 2 2 2 2 2 2 2 2 2 2 2 2 2
left_child=3 14 22 4 7 6 -4 -1 9 15 11 13 -12 -7 -2 -9 -10 18 19 20 25 -5 -3 -11 -20 -6 -27 -28
right_child=1 2 5 21 17 10 -8 8 16 23 12 -13 -14 -15 -16 -17 -18 -19 24 -21 -22 -23 -24 -25 -26 26 27 -29
leaf_value=-0.008157747758487684 0.0013406895377382534 0.019731505317838485 0.0055921182970614389 0.011021357321055303 -0.0088345672658206691 0.00024723339226163823 -0.0084541178237459453 0.0054669345593815599 -0.0066466133455884502 0.0089157323212512817 0.020051348926430547 -0.0052815305548895644 0.0026259799204618379 0.012018984624781522 -0.0090544406616992652 -0.0044235248278204891 0.0017436822638298233 -0.0083967704904529487 0.0049374287082470363 0.0027135862768631275 0.00072973098031344982 0.0019714233697742103 0.010611665152218307 0.017044393658951683 -0.0015059157787472742 -0.00058629743538076502 -0.0081494675983612326 -0.0033839813716184486
leaf_weight=11.114324271678923 10.27392500638962 9.1864805817604083 9.9898250102996844 11.225969254970552 31.773312598466873 9.3648586869239825 15.600228637456892 9.3935982882976514 16.210123509168628 13.076072156429293 9.4373801648616809 15.440155744552611 9.1229700148105604 17.274332225322723 11.999574035406111 16.891691416501999 14.462126821279524 27.230252504348755 11.171686261892321 16.609041303396225 9.9311913549900037 10.580047011375425 10.948566943407057 9.7620321214199084 15.667495250701903 10.532790184020994 29.731774270534515 10.511234551668165
leaf_count=37 34 30 33 37 106 31 52 31 54 43 31 51 30 57 40 56 48 91 37 55 33 35 36 32 52 35 99 35
internal_value=0 0.00370572 0.00537938 -0.00172867 -0.00245881 0.00313026 -0.00293141 0.000964789 0.00225656 0.00534917 0.00570537 0.00306041 0.0115998 0.00793449 -0.0042303 -0.000843739 -0.00266524 -0.00437194 -0.00355273 -0.00471823 -0.00606524 0.00670512 0.0148989 0.012493 0.00114735 -0.00689472 -0.00564621 -0.00694101
internal_weight=0 128.638 106.365 275.875 254.069 86.2298 25.5901 90.91 79.7956 49.1234 60.6397 42.0793 18.5604 26.6392 22.2735 26.2853 30.6723 163.159 135.929 109.089 92.4803 21.806 20.135 22.8381 26.8392 82.5491 50.7758 40.243
internal_count=1341 425 351 916 844 285 85 301 264 162 200 139 61 88 74 87 102 543 452 363 308 72 66 75 89 275 169 134
is_linear=0
shrinkage=0.01


Tree=7
num_leaves=31
num_cat=0
split_feature=5 1 9 6 1 4 1 1 3 9 10 2 4 9 1 9 4 9 2 5 1 1 10 2 5 4 6 9 10 9
split_gain=16.8243 16.9906 13.1363 8.96229 6.64286 6.29567 5.84739 11.6309 10.1434 7.56273 7.32615 7.59923 8.6949 6.72312 6.25255 5.53411 5.23815 7.55033 5.82508 4.83196 8.6251 5.42316 4.25431 3.9458 3.49538 3.37391 2.78948 2.16924 1.9755 1.64613
threshold=0.042777777777779143 0.045149999999999586 0.19874685613096876 2.3775333333333326 0.091599999999999696 0.10624999999999575 0.023249999999997332 -0.015650000000000826 -0.12749999999999059 0.21635696183432349 0.36750000000000133 -0.03989999999998161 -0.067250000000008456 -0.13600364743261559 0.014299999999984438 -0.21273082539791646 -0.0047499999999942579 0.038116237861763859 0.023000000000003244 -0.10833333333333427 -0.030899999999995483 -0.050899999999998606 0.59999999999999909 0.034900000000000382 0.012222222222213476 0.012500000000009949 0.66759444444445404 0.11608149624413631 0.51821428571428496 -0.073767997397388416
decision_type=2 2 2 2 2 2 2 2 2 2 2 2 2 2 2 2 2 2 2 2 2 2 2 2 2 2 2 2 2 2
left_child=6 2 15 -3 5 -5 7 8 -1 23 -9 12 -12 26 22 -2 -17 18 -18 -10 21 -21 25 24 -8 -15 -13 -19 -4 -25
right_child=1 3 28 4 -6 -7 9 10 19 -11 11 13 -14 14 -16 16 17 27 -20 20 -22 -23 -24 29 -26 -27 -28 -29 -30 -31
leaf_value=0.0034290402380278574 0.011066626065317673 -0.0085896202620273938 -0.0048560740716901002 -0.0031905440439040002 -0.0057846743794100252 0.0062384415327258677 -0.0090949847146369056 -0.0059473080455006736 -0.0080420004648035451 0.00309052753519751 0.00424312307319606 0.011866603187333907 -0.0080403547621135316 0.0028971702197827741 -0.0034639088025239725 0.0098462121033207461 -0.0040477394895097937 0.011132718978529051 0.0040650591337475003 -0.0051805817096217937 -0.0083041272656394858 0.0034301247243826304 -0.0005520846480303748 -0.00049610505619786954 -0.0022337791829585537 0.010927200134154973 0.0047114606308784534 0.004845514810530604 0.00049896478632912645 -0.0048862708047653237
leaf_weight=19.018755912780762 19.121575444936752 15.453338414430617 10.555952340364458 10.891313433647158 12.645567387342451 19.380503624677658 27.352441996335983 10.905594050884245 27.712741076946259 13.712886512279509 10.588782995939257 12.723070681095125 12.276031345129011 10.927684962749483 14.064608693122862 17.350360572338104 15.174634635448454 11.318370938301088 20.838421761989594 11.240125536918642 17.899618476629257 20.429829895496368 10.929069727659224 19.717993259429932 10.869923353195189 10.965339899063109 10.927566945552824 12.723986774682997 18.665617048740387 15.821698248386381
leaf_count=54 54 44 30 31 36 55 78 31 79 39 30 36 35 31 40 49 43 32 59 32 51 58 31 56 31 31 31 36 53 45
internal_value=0 0.00236041 0.0044315 -0.00208423 0.000249452 0.00281378 -0.0015088 -0.000561449 -0.00306958 -0.00366685 0.0017453 0.00265958 -0.00231458 0.00428712 0.00205821 0.00621028 0.00498498 0.00354988 0.000617178 -0.00468414 -0.00277433 0.000335897 0.0044582 -0.00493912 -0.00718077 0.00699596 0.00863649 0.0078806 -0.00141134 -0.00248682
internal_weight=0 184.12 125.749 58.3707 42.9174 30.2718 288.084 200.609 96.3011 87.4749 104.308 93.4022 22.8648 70.5373 46.8867 96.5274 77.4058 60.0554 36.0131 77.2823 49.5696 31.67 32.8221 73.7621 38.2224 21.893 23.6506 24.0424 29.2216 35.5397
internal_count=1341 522 356 166 122 86 819 570 274 249 296 265 65 200 133 273 219 170 102 220 141 90 93 210 109 62 67 68 83 101
is_linear=0
shrinkage=0.01


Tree=8
num_leaves=31
num_cat=0
split_feature=7 7 9 0 2 4 7 0 3 0 1 8 2 0 0 7 2 3 8 2 2 0 7 4 2 3 1 4 0 0
split_gain=31.6578 21.5165 12.0833 10.4113 12.8525 15.1175 13.3629 10.916 8.84138 8.73975 8.44454 10.3586 9.57779 7.70815 7.45213 6.56806 6.32641 5.63276 5.55001 22.4095 7.29235 4.64474 4.48327 4.18138 3.51589 9.4625 8.4561 11.3613 4.93888 4.32367
threshold=-38.215772499999993 41.177929000000006 0.087986205884724292 77.77500000000002 -0.008299999999998418 0.045000000000008818 -84.475286999999994 75.315000000000012 -0.059500000000006985 91.995000000000019 0.0024000000000015125 50.861567006859765 0.017800000000008257 83.945000000000007 88.560000000000016 49.885260000000009 0.003199999999999648 0.028166666666656685 57.815639742113454 -0.025500000000000963 -0.1239000000000061 73.89500000000001 -88.042176999999995 0.023749999999999719 0.033199999999993686 -0.0045000000000001697 0.046399999999991344 0.079000000000000639 67.300000000000011 80.079999999999998
decision_type=2 2 2 2 2 2 2 2 2 2 2 2 2 2 2 2 2 2 2 2 2 2 2 2 2 2 2 2 2 2
left_child=3 2 9 4 6 10 7 22 -4 13 11 -6 -12 24 15 -3 -10 -18 19 20 -5 -19 -1 -20 25 29 -26 -28 -27 -2
right_child=1 14 8 18 5 -7 -8 -9 16 -11 12 -13 -14 -15 -16 -17 17 21 23 -21 -22 -23 -24 -25 26 28 27 -29 -30 -31
leaf_value=0 0.0062180370599239912 -0.0062189183234252314 0.0076113524136189907 -0.00018557174911108844 0.0030426132819820774 -0.0060873729392962456 -0.0089850621686016208 0.0068410810307566192 -0.0081063371664275817 -0.0026682502272204075 0.0064416357302200513 0.016972929562956051 -0.0060745608603347129 0.012429418153569806 -0.0099766561787230663 0.0048976780429854736 0.0067434993935674382 -0.0055615084119930618 -0.0021772643637953926 0.0068737175489550929 -0.0094058292163448302 0.0020299982547304805 -0.0089891051632920698 -0.0097385684577071027 -0.0022729045933497487 0.0063076578806257159 0.014252333653657159 -0.0002988689915111066 0.015016946002224045 -0.0016409966853571589
leaf_weight=11.843155294656752 16.327029079198841 10.508784323930742 13.931493461132048 12.158777236938475 11.217983424663545 15.201272189617155 28.301819682121277 14.583829700946806 10.796080052852629 10.836299479007719 14.930608451366426 10.559295564889906 10.160607278347014 19.348585605621338 14.49083289504051 10.510747045278547 10.525534957647322 15.564629048109056 10.160937100648878 16.299882560968399 31.001729935407639 16.276724487543106 10.458834677934648 30.707028716802597 16.604777753353119 12.598140299320223 10.918118357658388 10.195129990577696 15.339714884757994 11.857199668884276
leaf_count=35 48 31 41 36 33 45 84 43 32 32 44 31 30 57 43 31 31 46 30 48 92 48 31 91 49 37 32 30 45 35
internal_value=0 0.00264497 0.00397589 -0.00263395 -0.000724501 0.00252059 -0.00382882 0.000114025 0.000539485 0.00582491 0.00534079 0.00988952 0.00132955 0.00664849 -0.00448114 -0.000615882 -0.00130575 0.000418657 -0.00504281 -0.00305714 -0.00683793 -0.00165535 -0.00425123 -0.00789293 0.00543393 0.00703416 0.00301414 0.00721045 0.0111618 0.00288225
internal_weight=0 226.63 191.119 227.586 127.257 62.0698 65.1876 36.8858 67.0945 124.025 46.8685 21.7773 25.0912 113.189 35.5104 21.0195 53.163 42.3669 100.328 59.4604 43.1605 31.8414 22.302 40.868 93.8401 56.1221 37.718 21.1132 27.9379 28.1842
internal_count=1341 668 563 673 376 183 193 109 198 365 138 64 74 333 105 62 157 125 297 176 128 94 66 121 276 165 111 62 82 83
is_linear=0
shrinkage=0.01


Tree=9
num_leaves=31
num_cat=0
split_feature=0 2 3 2 9 1 1 7 1 10 1 4 3 0 9 1 2 10 3 2 0 0 7 0 2 1 3 7 7 10
split_gain=25.4817 18.3334 16.7765 25.0868 16.2881 16.2621 11.6136 9.91843 9.81256 11.717 7.66564 7.55142 7.17716 7.72855 6.61357 6.01965 5.72484 5.11521 7.46765 5.07157 3.51959 2.95466 4.53006 2.85794 4.09595 2.80876 2.07745 0.389698 1.04731 0.206994
threshold=82.27500000000002 -0.050900000000005712 -0.087833333333328753 -0.0075999999999964976 0.19409564789201147 0.063200000000009041 -0.009599999999998941 9.3134475000000023 -0.04369999999999407 0.63178571428571473 0.024149999999991682 0.16975000000000054 0.030000000000008246 75.725000000000009 0.21785149510554136 -0.019200000000004987 0.099499999999999048 0.63321428571428595 -0.019500000000007841 0.032900000000005043 76.345000000000013 77.635000000000005 -81.146973499999987 74.765000000000029 0.043399999999998336 0.034500000000001314 0.044000000000011148 -73.528228499999983 14.516855000000001 0.56142857142857194
decision_type=2 2 2 2 2 2 2 2 2 2 2 2 2 2 2 2 2 2 2 2 2 2 2 2 2 2 2 2 2 2
left_child=1 8 15 10 17 6 -5 12 20 -10 -4 16 13 -6 25 -2 -7 18 -3 21 -1 22 -20 24 -19 -8 -21 -25 -29 -24
right_child=2 4 3 5 7 11 14 -9 9 -11 -12 -13 -14 -15 -16 -17 -18 23 19 26 -22 -23 29 27 -26 -27 -28 28 -30 -31
leaf_value=-0.0040375735884234229 0.0013195749478623568 0.003081926981674441 0.019161593116595974 0.0089302677014278884 -0.0047512893422243024 0.0094068294702023391 -0.007975995456794149 -0.0069520392807529887 0.01615912818674255 0.0020893460110746882 0.0073968225799414334 0.014328562885966203 0.010804654362359875 0.0058963883397168447 0.00399772652735022 -0.0090166615460237961 -0.0014274168474415075 -0.0068586141454734005 -0.00051502781816739715 0.0033568459132955527 0.0029762960558034368 -0.00060141923136456125 -0.008499729338864434 -0.009104011493425327 0.0017482556563755494 -0.0018276737804646154 -0.0030311497037514767 -0.0044715166612229245 -0.0085088701702630259 -0.006176296892595569
leaf_weight=13.797667592763903 10.287093341350557 16.917154043912888 13.905714839696886 9.7629668712615949 11.458909749984743 10.051233798265462 17.930743932724003 9.5976852476596815 10.472172826528551 13.962546795606611 10.068987190723417 12.57047715783119 11.843043297529219 16.372810870409012 9.6926982104778272 11.920526355504988 9.0783375501632673 13.486548751592638 10.47962900996208 10.224166214466097 14.574698090553282 10.543979197740553 31.932264089584351 19.755041629076004 9.0095022022724134 13.61122754216194 9.9080751538276655 12.925285160541536 17.868096172809601 10.468791127204893
leaf_count=46 34 56 45 32 38 33 60 32 34 46 33 41 39 54 32 40 30 45 35 34 48 35 107 66 30 45 33 43 60 35
internal_value=0 -0.00171623 0.00366883 0.00531864 -0.0029743 0.00268479 -0.000795444 0.00208278 0.00356818 0.00820138 0.0143134 0.00829997 0.00430551 0.0014754 -0.00313839 -0.00419939 0.00423252 -0.00441644 -0.00292944 -0.0041607 -0.000401674 -0.00554732 -0.00651163 -0.00644137 -0.00337489 -0.00536859 0.000164127 -0.00777697 -0.00686655 -0.00796549
internal_weight=0 275.598 128.88 106.672 222.791 82.6977 50.9976 49.2724 52.8071 24.4347 23.9747 31.7 39.6748 27.8317 41.2347 22.2076 19.1296 173.519 100.474 83.5569 28.3724 63.4247 52.8807 73.0445 22.4961 31.542 20.1322 50.5484 30.7934 42.4011
internal_count=1341 916 425 351 742 273 169 163 174 80 78 104 131 92 137 74 63 579 335 279 94 212 177 244 75 105 67 169 103 142
is_linear=0
shrinkage=0.01


Tree=10
num_leaves=31
num_cat=0
split_feature=7 5 9 2 1 1 10 0 1 2 9 2 4 7 4 0 7 10 10 1 2 2 7 9 10 7 10 7 0 10
split_gain=21.6742 28.044 12.0264 11.97 10.9165 13.6557 10.6448 10.5926 7.78488 7.5188 6.99198 6.94682 6.24887 5.09455 6.34115 5.52343 6.53257 5.3493 4.31091 9.57977 4.11376 3.98518 3.56128 3.55277 3.36639 3.18087 3.31917 2.84349 1.273 0.700887
threshold=-18.991891999999996 0.051111111111104897 0.19874685613096876 0.038800000000001951 -0.015650000000000826 0.0086499999999958294 0.41500000000000076 74.215000000000018 0.029750000000007052 0.14730000000000135 -0.21956320585131506 0.017800000000008257 -0.07824999999999703 49.885260000000009 0.069499999999997911 83.995000000000019 21.558899000000004 1.1917857142857138 0.8521428571428562 -0.010899999999992359 0.05649999999999978 -0.030500000000003521 -72.514460499999998 0.14708009763433808 0.63321428571428595 -82.703987999999981 0.94214285714285961 6.1259625000000009 76.345000000000013 1.0128571428571405
decision_type=2 2 2 2 2 2 2 2 2 2 2 2 2 2 2 2 2 2 2 2 2 2 2 2 2 2 2 2 2 2
left_child=1 4 18 12 7 6 -6 -1 -5 13 -9 22 27 14 17 16 -16 20 19 -3 -10 -8 -7 29 -21 26 -12 -2 -23 -14
right_child=3 2 -4 8 5 11 21 10 9 -11 25 -13 23 -15 15 -17 -18 -19 -20 24 -22 28 -24 -25 -26 -27 -28 -29 -30 -31
leaf_value=0.0049993111188462733 -0.0049933624899886923 0.0019953353204088583 -0.00026673602333542967 0.0078665473207387877 -0.00036162740448635906 -0.0001188999458580908 0.0037183550850644793 0.0017314569854235602 -0.0020323514644261737 0.0060928172528111066 -0.0087522313007165932 0.0036996998977242008 -0.0070780804522143619 -0.0085935168972987187 -0.00020098122745846627 -0.0038354789183431379 0.010115120993243756 0.0015753769987028926 0.014459709134523133 0.0082326690403234579 -0.010488992650138449 0.013755336841157553 -0.0067742751341365237 -0.0032222500664334597 0.015372354205165716 -0.0019014916360701568 -0.0022359613522497392 0.0015659223402004336 0.0084694821840209187 -0.0099702221523572231
leaf_weight=14.497134715318678 10.882135868072512 19.469851821660995 18.314766645431519 10.624434262514113 19.399650245904922 13.362083107233042 10.957436740398405 15.165270715951918 10.551611840724947 12.369463860988615 33.591235488653183 15.863470584154127 25.928201645612717 10.856473594903944 13.403584092855455 11.940470069646834 10.938371211290358 10.536743164062498 11.743480980396269 18.799933880567554 13.68606713414192 11.70493006706238 21.351922631263736 20.369491040706635 11.725531220436094 16.147883206605911 10.87040939927101 16.206720560789108 11.328952133655546 19.579595595598221
leaf_count=41 31 55 52 30 55 38 31 43 30 35 96 45 74 31 38 34 31 30 33 53 39 33 61 58 33 46 31 46 32 56
internal_value=0 0.00181951 0.00679662 -0.0025218 -0.000229037 0.00197351 0.00550078 -0.00277621 -0.000195697 -0.00112217 -0.00428162 -0.00173374 -0.00513291 -0.00222998 -0.00123296 0.00167002 0.0044162 -0.00428661 0.00890517 0.00755423 -0.00687205 0.00886717 -0.00424892 -0.00679624 0.0110491 -0.00580301 -0.0071901 -0.00104097 0.0112466 -0.00836347
internal_weight=0 274.294 80.0536 197.873 194.24 103.968 53.391 90.2719 104.907 94.2828 75.7748 50.5775 92.9661 81.9133 71.0568 36.2824 24.342 34.7744 61.7388 49.9953 24.2377 33.9913 34.714 65.8773 30.5255 60.6095 44.4616 27.0889 23.0339 45.5078
internal_count=1341 778 226 563 552 295 151 257 298 268 216 144 265 233 202 103 69 99 174 141 69 96 99 188 86 173 127 77 65 130
is_linear=0
shrinkage=0.01


Tree=11
num_leaves=31
num_cat=0
split_feature=7 7 5 3 8 9 3 0 0 0 5 7 0 1 6 6 7 5 0 3 6 6 0 6 8 7 6 5 5 1
split_gain=31.1311 21.1557 17.4358 15.5597 12.3863 11.8334 8.66742 8.53927 7.53111 7.36618 7.10124 6.47688 5.9159 5.46242 5.41231 9.13256 7.90495 4.18099 4.28784 4.12777 3.53293 10.2454 6.33007 4.03225 3.97396 3.23878 2.65234 3.51963 2.6219 0.907318
threshold=-38.215772499999993 41.177929000000006 0.051111111111104897 -0.032499999999998856 21.128187812191559 0.087986205884724292 -0.059500000000006985 91.995000000000019 83.945000000000007 88.560000000000016 -0.10055555555555883 49.885260000000009 75.690000000000012 0.023249999999997332 1.0511055555555517 0.74195555555554915 -80.24930049999999 0.17444444444443977 82.960000000000022 0.017166666666675216 1.2575166666666606 0.50831111111111238 80.079999999999998 2.3775333333333326 54.796839096025657 -87.046477499999995 0.80787777777778313 0.074999999999995751 -1.0000000180025095e-35 -0.050899999999998606
decision_type=2 2 2 2 2 2 2 2 2 2 2 2 2 2 2 2 2 2 2 2 2 2 2 2 2 2 2 2 2 2
left_child=2 5 3 4 -1 7 -7 8 20 11 -5 -3 -4 14 15 16 19 18 26 -12 21 22 -2 24 -22 -6 -8 -28 -18 -14
right_child=1 9 12 10 25 6 17 -9 -10 -11 13 -13 29 -15 -16 -17 28 -19 -20 -21 23 -23 -24 -25 -26 -27 27 -29 -30 -31
leaf_value=0.0021598463730333785 0.010453593505685164 -0.0061894621162556906 -0.00072578132564197703 0.0092177055896924195 -0.0037648627981235272 0.0075246573972694141 -0.0050315130891538922 -0.0026387283063558468 0.012276193104550095 -0.0099329619654830552 -0.0011908971906881313 0.004850023400906435 -0.0060154524247545858 0.0065218744621892968 -0.0070797390051671877 0.0081781499610701254 -0.0078811000749249554 0.0044024345164135363 -0.0081072834191695912 0.0076406571962046171 0.0061973090085634831 -0.0020504833519668151 0.0010517137567625117 0.0037594994699980205 0.014471479717160035 -0.0093401811586588165 0.0048183359569129846 -0.0031381726181176611 -0.0013262853057719143 -0.009251137683821133
leaf_weight=19.336819440126419 20.162156909704212 10.488185793161394 12.845464050769804 11.221211880445479 17.529980421066284 13.972582310438154 10.116250336170195 10.818968564271925 19.435614347457886 14.431651681661604 10.15379381179809 10.52969455718994 15.126367151737211 13.62528809905052 10.181453943252562 12.938063770532606 14.166652321815485 10.179506629705427 10.796101957559584 10.540446102619169 13.286096692085268 19.730147242546082 11.500739544630049 17.739935308694839 11.619282782077788 29.566387057304382 11.885823071002962 10.15323022007942 11.478572487831128 38.622584760189056
leaf_count=57 59 31 38 33 52 41 30 32 57 43 30 31 45 40 30 38 42 30 32 31 39 58 34 52 34 88 35 30 34 115
internal_value=0 0.00262019 -0.00261482 -0.000823686 -0.00453132 0.00393723 0.000535397 0.00576387 0.00657542 -0.0044536 0.00177959 -0.000614688 -0.00691538 0.000753114 -0.000371877 0.000773401 -0.00128564 -0.00129456 -0.00267507 0.00327441 0.00537479 0.00356071 0.00708415 0.00752415 0.0101399 -0.00729853 -0.000800733 0.00111004 -0.00500261 -0.00837196
internal_weight=0 226.846 227.333 160.739 66.4332 191.396 67.1035 124.293 113.474 35.4495 94.3055 21.0179 66.5944 83.0843 69.459 59.2775 46.3395 53.1309 42.9514 20.6942 94.0384 51.393 31.6629 42.6453 24.9054 47.0964 32.1553 22.0391 25.6452 53.749
internal_count=1341 668 673 475 197 563 198 365 333 105 278 62 198 245 205 175 137 157 127 61 276 151 93 125 73 140 95 65 76 160
is_linear=0
shrinkage=0.01


Tree=12
num_leaves=31
num_cat=0
split_feature=2 9 3 7 2 3 5 1 1 7 7 2 4 7 9 1 7 8 3 5 4 2 1 5 2 4 5 4 3 3
split_gain=19.9892 18.9316 17.5881 10.9296 13.7055 11.5211 7.93631 9.15246 15.8119 8.87878 9.95801 7.48669 7.9684 6.18518 5.94458 8.31522 8.88338 6.47972 5.07956 3.95908 4.04059 7.35452 5.13463 3.8574 2.44953 2.01221 3.41298 2.39567 1.71301 0.616014
threshold=-0.1104999999999947 0.19079080761667075 -0.11216666666667406 34.951344500000012 -0.021899999999995142 -0.087833333333328753 0.060555555555559699 -0.0053499999999928596 -0.028950000000001804 17.686818000000006 33.814523500000007 0.065200000000011485 0.12724999999999656 -85.943686999999997 -0.13100918791713945 -0.0027499999999847087 -86.407247499999983 50.075337236333262 0.042000000000008704 -0.13499999999999088 0.065249999999998934 0.049600000000005202 0.032650000000010955 -0.039444444444441722 -0.079300000000003465 0.027999999999998696 0.023333333333333432 -0.015749999999997041 -0.036666666666668839 0.066833333333327985
decision_type=2 2 2 2 2 2 2 2 2 2 2 2 2 2 2 2 2 2 2 2 2 2 2 2 2 2 2 2 2 2
left_child=2 3 -1 4 5 24 7 8 -3 18 -11 -5 -13 -6 17 16 -16 28 -8 -15 21 25 -23 -9 -2 27 -27 -21 -7 -22
right_child=1 6 -4 11 13 14 9 23 -10 10 -12 12 -14 19 15 -17 -18 -19 -20 20 29 22 -24 -25 -26 26 -28 -29 -30 -31
leaf_value=0.00036796660667640389 -0.0090457833867059693 -0.003651400584727859 0.017488052578223973 0.011183914541445926 0.0023249056153239289 -0.006829727170592389 0.0065501261093677786 0.000796267153563784 0.0140134248607844 -0.0056992763157606178 0.0090073228032434127 -0.0050566010259119262 0.0061475687274413016 0.0017195234163696425 0.0016337401369706131 -0.0016976755866957235 0.014615674481527546 0.0061339660955327391 0.016776255913166768 -0.0032359687224341876 -0.0090904123717606838 -0.0034575926094791054 0.0071271878189621395 -0.0063891600361488301 -0.0021013100957272659 -0.0070978595795249313 0.00018474048291407545 -0.0073747604615718833 -0.00060481375468121091 -0.006269834032632887
leaf_weight=12.37127920985222 9.939267963171007 9.1123432219028491 11.789584338665007 9.1620617806911451 13.670242130756376 9.026179105043413 11.254902452230455 14.810247898101808 11.029253154993055 8.9915963709354418 9.1690529286861402 12.33601623773575 12.824746519327162 9.0242152214050275 9.0714440047740954 9.3931128680706006 13.236774265766146 10.285880774259565 9.4754824936389905 22.079291105270386 20.293608963489532 8.9585654735565203 9.0544283986091596 14.510295480489729 11.408806353807448 10.434183657169344 15.869276046752928 45.313518285751343 9.3673398494720477 21.170746028423309
leaf_count=41 33 30 38 30 45 30 37 49 36 30 30 41 42 30 30 31 43 34 31 74 68 30 30 48 38 35 53 152 31 71
internal_value=0 -0.000561251 0.00880079 -0.00179105 -0.00249976 0.000873143 0.00348814 0.000803961 0.00599365 0.00686544 0.00167978 0.00349065 0.000616442 -0.00407248 0.00311578 0.00609388 0.00941216 -0.000151103 0.0113304 -0.00461893 -0.00499976 -0.00398519 0.00181773 -0.00273533 -0.00540825 -0.0051122 -0.00268222 -0.00604043 -0.00373403 -0.0076929
internal_weight=0 380.273 24.1609 291.92 257.597 81.7288 88.3532 49.4621 20.1416 38.891 18.1606 34.3228 25.1608 175.868 60.3807 31.7013 22.3082 28.6794 20.7304 162.198 153.174 111.709 18.013 29.3205 21.3481 93.6963 26.3035 67.3928 18.3935 41.4644
internal_count=1341 1262 79 971 858 270 291 163 66 128 60 113 83 588 199 104 73 95 68 543 513 374 60 97 71 314 88 226 61 139
is_linear=0
shrinkage=0.01


Tree=13
num_leaves=31
num_cat=0
split_feature=7 5 2 9 1 1 10 0 1 2 9 2 7 7 0 1 8 0 9 2 7 7 10 8 10 9 8 1 0 1
split_gain=21.2456 27.4276 11.7947 11.763 10.7461 13.3425 10.4482 10.4132 7.65956 7.39728 6.87593 6.82928 5.02748 5.79902 8.34581 7.37845 4.77959 4.80653 4.47937 3.89696 3.52405 3.14796 3.29778 2.59663 2.50395 2.2274 1.24465 1.41529 1.22464 0.633934
threshold=-18.991891999999996 0.051111111111104897 0.038800000000001951 0.19874685613096876 -0.015650000000000826 0.0086499999999958294 0.41500000000000076 74.215000000000018 0.029750000000007052 0.14730000000000135 -0.21956320585131506 0.017800000000008257 49.885260000000009 41.872834000000005 79.920000000000016 0.059100000000007931 75.849165536719283 74.765000000000029 0.30361500171772521 -0.030500000000003521 -72.514460499999998 -82.703987999999981 0.94214285714285961 22.032715817352997 0.6421428571428579 0.14708009763433808 50.075337236333262 -0.009599999999998941 76.345000000000013 0.014999999999993465
decision_type=2 2 2 2 2 2 2 2 2 2 2 2 2 2 2 2 2 2 2 2 2 2 2 2 2 2 2 2 2 2
left_child=1 4 18 16 7 6 -6 -1 -4 12 -9 20 13 14 15 24 17 -3 23 -8 -7 22 -12 -2 -10 29 -19 -28 -21 -25
right_child=2 3 8 -5 5 11 19 10 9 -11 21 -13 -14 -15 -16 -17 -18 26 -20 28 -22 -23 -24 25 -26 -27 27 -29 -30 -31
leaf_value=0.0049440114699512002 -0.0012885949813917761 0.0047552983267999836 0.0077981605696719148 -0.00027151671463592901 -0.00037174141656900084 -0.0001023431365794004 0.003674581631971667 0.0017058535847561307 0.00055251664379584397 0.006038848805997794 -0.0087065859272560751 0.0036699539732557591 -0.008543138189672483 0.0050725674834275203 -0.0073715217764514012 0.0062794268576508916 0.0031948012177074625 0.015069451245677188 0.00036411495324888571 0.013572540549241112 -0.0067273135534735859 -0.0018818817103883488 -0.0022062617267058736 -0.005712472005884448 -0.0059075473146533207 -0.0030867761380596872 0.0077122857311330275 0.013010706375228212 0.0083838280129636452 -0.0084133395130793348
leaf_weight=14.521469235420225 10.853269159793852 12.759165138006209 10.644513726234434 18.317975550889969 19.406764090061188 13.353553444147105 10.972568064928053 15.178381711244581 10.56870871782303 12.38903498649597 33.499471634626389 15.878492534160612 10.824111998081205 11.963559031486509 22.081073313951492 13.417628675699232 12.760883480310438 11.805013954639433 12.631840229034422 11.755262702703478 21.298191279172901 16.134174793958664 10.856389462947844 16.506355792284012 12.990367472171782 14.73845002055168 11.741155922412869 12.849672377109531 11.35526207089424 38.059651792049408
leaf_count=41 31 36 30 52 55 38 31 43 30 35 96 45 31 34 63 38 36 33 36 33 61 46 31 47 37 42 33 36 32 109
internal_value=0 0.00180018 -0.0024988 0.00671504 -0.000227559 0.00195631 0.00543723 -0.00275677 -0.000190407 -0.00111069 -0.0042524 -0.0017122 -0.00221117 -0.00122143 -0.00251975 0.000362644 0.00879526 0.0102194 -0.00509417 0.0087655 -0.0042107 -0.00576432 -0.00714662 -0.00596616 -0.00297718 -0.00668136 0.0120893 0.0105629 0.0111133 -0.00762656
internal_weight=0 274.444 197.669 80.2339 194.21 104.02 53.4899 90.1899 104.879 94.2345 75.6684 50.5302 81.8454 71.0213 59.0578 36.9767 61.9159 49.155 92.7896 34.0831 34.6517 60.49 44.3559 80.1577 23.5591 69.3045 36.3958 24.5908 23.1105 54.566
internal_count=1341 778 563 226 552 295 151 257 298 268 216 144 233 202 168 105 174 138 265 96 99 173 127 229 67 198 102 69 65 156
is_linear=0
shrinkage=0.01


Tree=14
num_leaves=31
num_cat=0
split_feature=10 1 3 0 1 8 4 2 1 0 4 2 1 9 4 0 3 8 1 3 10 3 0 2 3 2 0 4 8 10
split_gain=25.1948 20.9827 14.9573 12.465 12.9242 11.5056 9.1344 8.1988 9.55498 8.61193 8.48758 18.4798 13.3685 7.94843 6.60955 6.52325 8.53341 8.81438 5.13509 5.03953 4.24039 3.98267 3.93703 3.78345 9.49585 3.82686 3.11291 2.86466 2.49838 1.645
threshold=0.36750000000000133 0.014299999999984438 0.024833333333347699 82.960000000000022 0.046399999999991344 21.128187812191559 0.082000000000000753 -0.068900000000006387 -0.024599999999992402 81.320000000000007 0.047500000000006544 -0.0068000000000196783 -0.041550000000015068 0.053129867076710351 -0.060750000000005848 75.315000000000012 -0.021166666666680097 53.45619032501309 0.027899999999995376 -0.059500000000006985 0.87464285714285761 0.042000000000008704 79.565000000000012 0.12750000000001196 0.1398333333333284 0.039300000000004338 75.985000000000028 0.0097500000000039239 44.579546657107365 0.57642857142857162
decision_type=2 2 2 2 2 2 2 2 2 2 2 2 2 2 2 2 2 2 2 2 2 2 2 2 2 2 2 2 2 2
left_child=-1 5 14 4 18 22 -6 28 10 26 11 12 -9 -11 19 29 -17 -18 -4 -3 -8 -20 -2 24 25 -5 27 -10 -7 -16
right_child=1 2 3 23 6 7 20 8 9 13 -12 -13 -14 -15 15 16 17 -19 21 -21 -22 -23 -24 -25 -26 -27 -28 -29 -30 -31
leaf_value=0.012125745310111386 0.0065293959882154829 0.0046850522284846499 0.0032661571468479795 -0.00022254338032043152 0.012812051706540697 -0.0090097557227137668 -0.0014099954051209965 0.0060115276665646412 -0.00018261306959999773 0.0048235801750427208 -0.0048615551137148171 0.014142469619073852 -0.008364585946068457 -0.0058781928471365597 0.007824557255613717 0.0099366040834509908 0.0066676365885035595 -0.0039715420270138371 0.00012337454750849158 -0.0051203016361104827 0.0068950930664620925 -0.0075039015209652869 -0.0011202575446815266 -0.0090566480868968513 0.0053529729843809683 -0.0077497707769285142 -0.00854280204336429 -0.0065831149655992682 -0.0030641496204577472 0.013852902452010594
leaf_weight=16.412156969308853 16.00714606046677 10.595177531242372 13.253486126661299 10.156165748834608 13.729097604751585 30.496491581201553 12.598277002573015 12.873875290155409 12.154984861612322 15.910119771957399 17.48749577999115 11.337421655654905 12.759281516075136 12.141543000936506 10.944518238306047 16.731002658605576 14.671057373285295 16.290753334760666 11.534760147333147 10.171885222196577 11.577203541994093 15.866511285305021 11.174753516912459 12.049411028623579 10.845843344926832 21.900702178478241 34.192099422216415 17.506835758686066 10.109777361154554 10.648026466369627
leaf_count=48 47 31 39 30 40 91 37 38 36 47 52 33 38 36 32 49 43 48 34 30 34 47 33 36 32 65 102 52 30 31
internal_value=0 -0.000457491 0.00168227 -0.000435547 0.00211073 -0.0026957 0.0063095 -0.00358208 -0.00246578 -0.00443265 0.000837292 0.00356573 -0.00111023 0.000151605 0.00483023 0.00631177 0.00419801 0.00104281 -0.00178534 -7.12935e-05 0.00253799 -0.00426801 0.00335531 -0.00409109 -0.00265541 -0.00540422 -0.00645928 -0.00400331 -0.0075652 0.0108936
internal_weight=0 437.716 223.564 133.511 78.5593 214.152 37.9046 186.97 146.364 91.9056 54.4581 36.9706 25.6332 28.0517 90.0524 69.2854 47.6928 30.9618 40.6548 20.7671 24.1755 27.4013 27.1819 54.9521 42.9027 32.0569 63.8539 29.6618 40.6063 21.5925
internal_count=1341 1293 658 394 231 635 111 555 434 273 161 109 76 83 264 203 140 91 120 61 71 81 80 163 127 95 190 88 121 63
is_linear=0
shrinkage=0.01


Tree=15
num_leaves=31
num_cat=0
split_feature=0 2 9 10 2 8 6 5 0 5 4 6 5 8 10 9 6 8 10 8 0 5 0 2 0 4 6 6 2 0
split_gain=24.771 17.7123 15.8445 12.1412 18.4552 15.6803 11.0344 12.7157 12.3404 9.20685 13.2775 8.62899 9.29597 9.08584 6.99877 6.99008 6.70951 5.14963 5.09923 9.71874 4.50912 3.21789 2.84252 4.05792 2.65544 3.79167 2.40293 2.32246 2.24582 0.371422
threshold=82.27500000000002 -0.050900000000005712 0.19409564789201147 1.3625000000000018 -0.0061000000000035462 42.184781643566033 3.6263722222222232 -0.19722222222221572 90.50500000000001 0.005555555555567083 -0.10625000000000993 1.8631333333333304 0.060555555555559699 39.389782811858517 1.1364285714285713 0.20693652541278404 2.1822388888888899 71.892700141984008 0.63321428571428595 72.054820850795139 78.720000000000013 0.093333333333326621 74.765000000000029 0.043399999999998336 77.77500000000002 -0.035750000000000164 -2.9764722222222342 -0.24943888888888918 0.033199999999993686 78.390000000000015
decision_type=2 2 2 2 2 2 2 2 2 2 2 2 2 2 2 2 2 2 2 2 2 2 2 2 2 2 2 2 2 2
left_child=1 9 18 4 14 -6 7 -5 -8 10 20 12 13 -4 -2 16 17 -7 19 21 -1 24 23 -20 25 -3 -12 -27 -29 -24
right_child=3 2 11 6 5 15 8 -9 -10 -11 26 -13 -14 -15 -16 -17 -18 -19 22 -21 -22 -23 29 -25 -26 27 -28 28 -30 -31
leaf_value=0.0049098859312566396 0.018654154184462587 0.00065198947129817752 0.0066096110571913502 0.0045310220605493797 -0.0090107775041124803 -0.0035858195778688019 -0.0025467487425836406 -0.0082025634560505684 0.013226854240750095 -0.004550355295561981 0.014975783619061957 -0.0067573825548690857 0.010140981386059336 -0.0053817590704986545 0.0072116914211610775 0.012272310135925326 0.0099498721836392533 0.0059818271027869824 -0.00681561863536483 0.0062828454309935789 -0.0045752598415334097 0.0011824658604451732 -0.0087093305617991831 0.0017632186983960641 0.00027289568932800065 -0.0013536430653407706 0.0078626365201628495 -0.0081218574513133995 -0.0029015545041620179 -0.0065503836969391339
leaf_weight=9.068912595510481 12.719235986471178 9.008572280406943 11.846333503723146 12.179493635892866 9.0110184550285322 14.423970133066179 9.09906253218651 21.328335523605347 10.506732076406477 11.069471180438994 9.32068884372711 8.9457849562168104 15.301260083913801 13.297771960496901 10.148230552673338 11.007119357585905 9.758990138769148 9.0763812959194166 13.412387788295748 10.213400214910505 10.928403943777083 10.481729269027708 26.709313422441483 9.0003777742385846 9.3488437533378583 9.026575267314902 12.649136483669286 40.635971307754531 11.343388617038725 23.518893182277679
leaf_count=30 41 30 39 40 30 48 30 71 34 37 30 30 50 44 33 36 32 30 45 34 36 35 90 30 31 30 41 137 38 79
internal_value=0 -0.00169627 -0.00293856 0.00360932 0.00616642 0.00290609 -4.25197e-05 -0.00354467 0.00587979 0.00348271 0.00563111 0.00203905 0.0040212 0.000232016 0.0136732 0.0053693 0.00302485 7.67442e-05 -0.00436827 -0.00288126 -0.0002209 -0.00393996 -0.00639603 -0.00333363 -0.00462971 -0.00529806 0.0109799 -0.00619268 -0.0070096 -0.00773332
internal_weight=0 275.127 222.091 129.259 76.1449 53.2775 53.1136 33.5078 19.6058 53.0366 41.9671 49.3912 40.4454 25.1441 22.8675 44.2665 33.2593 23.5004 172.699 100.058 19.9973 89.8451 72.641 22.4128 79.3634 70.0145 21.9698 61.0059 51.9794 50.2282
internal_count=1341 916 742 425 250 176 175 111 64 174 137 163 133 83 74 146 110 78 579 335 66 301 244 75 266 235 71 205 175 169
is_linear=0
shrinkage=0.01


Tree=16
num_leaves=31
num_cat=0
split_feature=7 5 9 1 1 0 3 8 8 0 4 1 9 7 0 4 8 0 0 8 0 7 8 4 3 4 5 4 3 8
split_gain=20.8751 26.9487 11.4613 10.5611 13.1056 10.2603 10.2648 7.86537 7.79716 8.13804 7.74854 6.38184 6.17038 5.43334 4.73861 8.76766 4.6889 4.68096 4.55665 4.16247 5.47836 4.41249 3.63815 2.42387 2.29388 1.88234 1.86916 1.35171 1.02327 0.45703
threshold=-18.991891999999996 0.051111111111104897 0.19874685613096876 -0.015650000000000826 0.0086499999999958294 74.215000000000018 -0.12749999999999059 72.783820482118912 37.452700925029347 81.320000000000007 0.047500000000006544 0.0024000000000015125 -0.12227130832383878 17.686818000000006 81.555000000000021 0.06700000000000729 75.849165536719283 74.765000000000029 83.945000000000007 62.801271636426563 77.715000000000018 -68.639111499999999 56.355342935836831 0.060249999999989264 -0.0011666666666698686 1.0000000180025095e-35 -0.1288888888889019 -0.085250000000002032 0.025666666666658958 50.075337236333262
decision_type=2 2 2 2 2 2 2 2 2 2 2 2 2 2 2 2 2 2 2 2 2 2 2 2 2 2 2 2 2 2
left_child=1 3 16 5 11 -1 -7 8 9 -2 27 12 -5 -9 15 22 17 -3 -15 20 21 -6 -10 29 -14 -16 -11 -8 -27 -19
right_child=7 2 -4 4 19 6 10 13 14 26 -12 -13 24 18 25 -17 -18 23 -20 -21 -22 -23 -24 -25 -26 28 -28 -29 -30 -31
leaf_value=0.0048997170247862421 -0.0057382189537130172 0.0047133381224337117 -0.0002512271243338128 0.0088764019475367547 0.003343677215044577 0.0027702427216029202 -0.0056931417702940712 -0.0048268278593201451 -0.0026883654055806501 0.00045762142686279052 0.000962333624984631 0.012304324164985385 0.0039895000064705307 0.0084701920956335684 -0.0043480536408161668 0.0023727478978783469 0.0031528735595990416 0.015671609806162955 0.00052271682252763563 0.0033864943254527133 -0.0094525240427203588 -0.0045803377380054088 -0.0092886887248808791 0.0076060708680655929 -0.0016909943337906031 -0.0061413009860809952 0.0054498385076322646 -0.0094081862014386182 -0.010003333091611489 0.011898204944772624
leaf_weight=14.540612697601317 16.795175641775131 12.775096774101256 18.303776174783707 14.584402441978453 12.699099063873289 16.217717975378036 18.839765936136242 10.540125012397764 17.850821018218994 16.132962703704838 11.946958303451536 10.682102888822554 12.753099024295805 11.328554630279543 17.840048611164093 19.754195243120193 12.777476340532301 11.497164577245714 20.414054214954376 11.974064111709593 10.494248270988463 15.339326977729799 16.792533397674561 10.699695438146589 15.55484649538994 13.95721250772476 14.777651518583296 28.55907824635506 21.301073759794235 14.319508492946623
leaf_count=41 48 36 52 41 36 46 54 30 51 46 34 30 36 32 51 56 36 32 58 34 30 44 48 30 44 40 42 82 61 40
internal_value=0 0.00178343 0.00664968 -0.000227929 0.00193549 -0.0027374 -0.00422475 -0.00247867 -0.00352162 -0.000134688 -0.00615457 0.00538089 0.00360878 0.00132523 -0.0050139 -0.00290029 0.00869794 0.0101058 0.00340817 -0.00170283 -0.00331491 -0.000956744 -0.00593402 0.011947 0.000837976 -0.0071509 0.00288641 -0.0079677 -0.0085245 0.0136712
internal_weight=0 274.558 80.3727 194.185 104.081 90.1041 75.5635 197.484 155.202 47.7058 59.3458 53.5745 42.8923 42.2827 107.496 54.3975 62.0689 49.2915 31.7426 50.5067 38.5327 28.0384 34.6434 36.5164 28.3079 53.0983 30.9106 47.3988 35.2583 25.8167
internal_count=1341 778 226 552 295 257 216 563 443 136 170 151 121 120 307 155 174 138 90 144 110 80 99 102 80 152 88 136 101 72
is_linear=0
shrinkage=0.01


Tree=17
num_leaves=31
num_cat=0
split_feature=7 7 5 3 0 3 7 4 6 4 3 0 1 5 6 0 6 7 3 4 1 0 7 4 5 6 4 3 4 3
split_gain=29.995 20.4328 16.9898 15.2264 8.9223 12.5881 8.58039 8.32271 10.5518 7.60737 9.25925 16.0379 15.723 8.78278 7.24153 7.23771 6.45347 6.34187 6.1637 6.01213 6.45047 5.84568 5.55689 3.79767 3.71965 3.67848 3.41753 3.14699 3.11097 2.79266
threshold=-38.215772499999993 41.177929000000006 0.051111111111104897 -0.032499999999998856 91.160000000000011 -0.085999999999991403 -84.014423499999978 0.021249999999994888 -0.21072222222222334 -0.046750000000002949 0.029166666666661459 73.89500000000001 0.00955000000000439 0.081666666666663459 -3.1541333333333195 88.560000000000016 0.95822777777778623 49.885260000000009 0.017166666666675216 0.082749999999997229 0.062449999999998347 75.690000000000012 -81.420408999999992 0.035749999999993072 -0.15833333333333852 0.60061666666666025 0.045749999999998188 0.020833333333335705 0.079000000000000639 -0.045000000000008804
decision_type=2 2 2 2 2 2 2 2 2 2 2 2 2 2 2 2 2 2 2 2 2 2 2 2 2 2 2 2 2 2
left_child=2 4 3 6 5 -2 14 8 -5 29 12 13 -11 26 24 17 18 -3 -10 -13 -21 -4 -9 25 -1 -14 -12 -24 -6 -7
right_child=1 15 21 7 28 9 -8 22 16 10 11 19 23 -15 -16 -17 -18 -19 -20 20 -22 -23 27 -25 -26 -27 -28 -29 -30 -31
leaf_value=-0.00074816368302246122 0.013352511289325575 -0.0061355105431691679 -0.0006762371159819081 -0.0037431796079119353 -0.0056704227911188124 0.0024951288773831931 -0.0091426249293041113 0.0043563195437134388 0.0049419052501793199 -0.0012364734790624504 -0.0022333934249724376 0.013407388558054496 0.017454652302472746 -0.0075335781886152085 0.0035821562645702181 -0.0098592029932888601 0.00070101621191685825 0.0047927840207229724 0.014172918614976642 0.0096579395701454542 -0.0012863104732825838 -0.0082895771159842164 0 0.0064900428230217832 -0.0084903581900910262 0.0096310548606423265 0.0053862282686052481 -0.0069705742706966068 0.0017200071324672281 -0.0037050502853590486
leaf_weight=11.8231825530529 15.102433979511259 10.449698507785799 12.812132388353346 12.788065403699873 11.495677739381792 13.267819166183473 24.731120347976685 10.195883125066755 17.028687566518787 13.549655139446257 10.187291949987413 11.686911314725874 12.452935546636583 15.89776226878166 15.903947323560713 14.326390504837034 13.619493365287779 10.551230937242506 13.373360633850096 10.936154305934908 10.202954947948454 53.377840518951416 10.847732692956926 13.006439924240111 13.767388582229616 14.424179613590239 13.31620270013809 16.493921279907227 10.835616022348402 15.612123787403105
leaf_count=35 44 31 38 38 34 39 74 30 50 40 30 34 36 47 47 43 40 31 39 32 30 160 32 38 41 42 39 49 32 46
internal_value=0 0.00256631 -0.00257295 -0.000807017 0.00385525 0.004639 -0.00448322 0.00176487 0.00418173 0.00377292 0.00483702 0.00247669 0.00799829 -0.00180332 -0.00166683 -0.00440088 0.00650981 -0.000600862 0.00906841 0.00763425 0.00434734 -0.00683422 -0.00186764 0.0111559 -0.00496912 0.0133443 0.00204576 -0.00423246 -0.00204817 -0.00082332
internal_weight=0 227.301 226.763 160.573 191.974 169.643 66.2256 94.3471 56.8096 154.54 125.66 72.2273 53.4332 39.4013 41.4945 35.3273 44.0215 21.0009 30.402 32.826 21.1391 66.19 37.5375 39.8836 25.5906 26.8771 23.5035 27.3417 22.3313 28.8799
internal_count=1341 668 673 475 563 497 197 278 167 453 368 212 156 116 123 105 129 62 89 96 62 198 111 116 76 78 69 81 66 85
is_linear=0
shrinkage=0.01


Tree=18
num_leaves=29
num_cat=0
split_feature=0 2 3 2 1 1 1 2 1 10 4 1 1 2 10 3 7 0 1 7 10 10 1 0 4 2 2 7
split_gain=24.323 17.4099 16.1451 23.6455 15.5012 11.369 9.72785 10.6458 9.27388 10.9712 7.11003 7.0707 5.88443 5.52571 5.46229 8.81797 7.98542 6.1487 5.13349 5.73623 3.48301 5.67477 4.16512 3.40073 2.19039 5.23676 1.61918 0.855717
threshold=82.27500000000002 -0.050900000000005712 -0.087833333333328753 -0.0075999999999964976 0.063200000000009041 -0.009599999999998941 0.052950000000002724 0.049600000000005202 -0.04369999999999407 0.63178571428571473 0.16975000000000054 0.024149999999991682 -0.019200000000004987 0.099499999999999048 0.61321428571428538 -0.019500000000007841 -77.203680499999976 77.840000000000018 0.033149999999999132 32.195645500000005 0.37321428571428489 0.42000000000000076 0.030850000000000936 76.345000000000013 -0.075750000000006409 -0.0049999999999883462 0.03609999999999048 -63.104785999999997
decision_type=2 2 2 2 2 2 2 2 2 2 2 2 2 2 2 2 2 2 2 2 2 2 2 2 2 2 2 2
left_child=1 8 12 11 5 -5 7 14 23 -10 13 -4 -2 -6 15 16 -3 20 27 -20 -17 -22 -23 -1 -16 -26 -27 -7
right_child=2 6 3 4 10 18 -8 -9 9 -11 -12 -13 -14 -15 24 17 -18 -19 19 -21 21 22 -24 -25 25 26 -28 -29
leaf_value=-0.0040086135268147744 0.0012650518251740731 -0.001805940921142006 0.018424078437207364 0.008793807220097179 0.0091581874309315942 -0.0089696888352857398 -0.0083605605703850183 0.0052160614707221021 0.015510271983412979 0.0019875492626419931 0.01385058872868276 0.0071924492014051157 -0.0089666205498606707 -0.0014548006653480065 -0.0090241535359121602 -0.0083204922595156265 0.010271925883240773 0.003985246404920045 0.0059497607710361257 -0.0045533895210207375 0.003043799089930467 -0.0057384146822905989 0.00037726258352423361 0.0028817028735527773 0.0011484354917854819 -0.0080953626792680082 -0.0029357172489621434 -0.0044962477867443026
leaf_weight=13.759385108947756 10.319007575511934 10.887204349040987 14.202509671449663 9.8178673982620221 10.152098745107653 9.5195454955101013 28.624741017818451 17.84847503900528 10.687439471483232 14.043034344911574 12.773899078369139 10.159290909767149 11.81203520298004 9.0960222482681257 13.385093361139296 14.492127418518065 10.63211280107498 11.20899450778961 9.7331633269786852 10.904927849769591 12.928853601217268 44.27242985367775 14.45174318552017 14.647615641355513 12.385299384593962 20.743385672569278 9.8259107470512372 11.009212076663971
leaf_count=46 34 36 45 32 33 32 97 59 34 46 41 33 40 30 45 49 35 37 32 36 43 149 48 48 41 70 33 37
internal_value=0 -0.00168346 0.00357154 0.00517826 0.00261351 -0.000795209 -0.00291808 -0.00210205 0.00344433 0.00791069 0.00805751 0.0138297 -0.0041667 0.00410956 -0.00285578 -0.00162581 0.00413506 -0.00291239 -0.00312209 0.000356602 -0.00382507 -0.00289159 -0.00421829 -0.000423007 -0.00542575 -0.00426286 -0.00648448 -0.00665256
internal_weight=0 274.824 129.5 107.369 83.0067 50.9847 221.686 193.062 53.1375 24.7305 32.022 24.3618 22.131 19.2481 175.213 118.873 21.5193 97.3541 41.1668 20.6381 86.1452 71.653 58.7242 28.407 56.3397 42.9546 30.5693 20.5288
internal_count=1341 916 425 351 273 169 742 645 174 80 104 78 74 63 586 397 71 326 137 68 289 240 197 94 189 144 103 69
is_linear=0
shrinkage=0.01


Tree=19
num_leaves=31
num_cat=0
split_feature=1 2 10 6 2 2 2 10 1 2 0 1 0 2 0 1 0 4 10 6 10 1 10 6 10 9 9 6 9 0
split_gain=9.59792 13.0155 11.84 9.49306 14.5694 9.91793 9.16267 8.28845 10.572 13.4127 13.3196 9.86672 13.3307 8.26157 7.73533 6.85994 6.50684 6.47429 5.266 4.94498 4.90472 4.8903 4.6259 4.61612 4.15987 3.01834 2.18884 1.81665 1.55061 1.29
threshold=0.032650000000010955 0.038800000000001951 0.57857142857142774 -4.8926111111111004 -0.10750000000000169 -0.1304000000000087 0.14730000000000135 0.36750000000000133 -0.015650000000000826 -0.079300000000003465 74.215000000000018 0.014299999999984438 81.555000000000021 -0.036000000000001357 80.015000000000015 0.059100000000007931 75.315000000000012 0.063499999999997683 1.3625000000000018 0.77696666666666669 0.55214285714285649 0.027450000000001754 1.5978571428571435 1.1470611111111071 0.41500000000000076 -0.063698370416731168 -0.11733174608954801 1.6736388888888885 -0.10212393467430321 83.445000000000007
decision_type=2 2 2 2 2 2 2 2 2 2 2 2 2 2 2 2 2 2 2 2 2 2 2 2 2 2 2 2 2 2
left_child=1 3 -3 5 -5 -1 14 -6 9 -9 -11 12 13 -10 15 20 21 26 29 -18 -2 28 -20 -4 -15 -21 -12 -22 -13 -16
right_child=6 2 23 4 7 -7 -8 8 11 10 17 16 -14 24 18 -17 19 -19 22 25 27 -23 -24 -25 -26 -27 -28 -29 -30 -31
leaf_value=-0.00027817595051153116 0.003404606351857669 -0.0032772002435328151 0.011710395942582065 -0.0103538168219475 -0.0071153066112137247 0.012632942746002539 0.0059606620515950228 0.0066099416104119018 -0.0011411571637007971 0.0046179307323991649 -0.0046358067234454322 -0.003720716951849961 -0.0027233086093210669 0.0031902716000837294 -0.0048566984354193486 0.0055773369312907958 -0.0017869785865223778 0.0004578251232896332 0.0034451138087131924 0.0014147005613242174 -0.0011209211134305594 0.0015659209819369633 -0.0046403948566108725 0.0044009367122874446 0.010082837457511141 0.0090254649322167712 -0.0097525042784997601 -0.0065084756120852242 -0.0093987272185302416 -0.0086777994934231738
leaf_weight=11.617194771766664 10.553439557552336 10.926494419574736 20.273807615041733 13.90443569421768 14.72305592894554 11.777045100927351 12.417023032903669 13.747301965951918 10.568083971738814 13.49295663833618 13.391199707984915 10.457330673933031 18.998068630695343 12.048546701669691 16.049704879522324 15.201538085937498 17.145441710948944 10.600322544574736 10.53839221596718 10.592995256185533 10.559578329324724 10.537130951881407 20.572210639715195 16.31744784116745 38.904823213815689 10.988924443721769 29.206596136093147 17.50020095705986 10.781253248453142 27.568313449621201
leaf_count=33 30 31 57 40 42 33 35 39 30 38 38 30 54 34 46 43 49 30 30 30 30 30 59 46 109 31 84 50 31 79
internal_value=0 0.000930867 0.00576889 0.000114637 -0.000431509 0.00620504 -0.00218408 0.000128818 0.000596803 -0.0023238 -0.00418746 0.00215952 0.00455042 0.00681358 -0.00298264 -7.20846e-05 -0.00055948 -0.00644406 -0.00506238 0.00217354 -0.00233068 -0.00391815 -0.00186721 0.00849896 0.00848203 0.00535977 -0.00818205 -0.0045277 -0.00668042 -0.00730898
internal_weight=0 331 47.5177 283.483 260.088 23.3942 140.96 246.184 231.461 80.4384 66.6911 151.023 80.5195 61.5215 128.543 53.8148 70.5031 53.1981 74.7286 38.7274 38.6132 31.7757 31.1106 36.5913 50.9534 21.5819 42.5978 28.0598 21.2386 43.618
internal_count=1341 939 134 805 739 66 402 699 657 229 190 428 227 173 367 153 201 152 214 110 110 91 89 103 143 61 122 80 61 125
is_linear=0
shrinkage=0.01


Tree=20
num_leaves=31
num_cat=0
split_feature=7 7 9 0 2 6 7 0 7 3 0 0 0 7 2 3 8 2 2 6 6 7 6 6 2 0 3 0 3 9
split_gain=29.3962 20.0831 11.1946 9.9884 12.3432 14.1637 12.9576 10.5541 9.50599 8.32045 8.19839 7.3598 7.16283 6.25892 6.10826 5.4568 5.45556 21.5444 7.22864 5.37207 4.90079 4.42256 3.45935 9.92983 9.78226 6.29194 4.93065 4.45008 2.44926 2.39742
threshold=-38.215772499999993 41.177929000000006 0.087986205884724292 77.77500000000002 -0.008299999999998418 1.0511055555555517 -84.475286999999994 75.315000000000012 -75.355683999999982 -0.059500000000006985 91.995000000000019 83.945000000000007 88.560000000000016 49.885260000000009 0.003199999999999648 0.028166666666656685 57.815639742113454 -0.025500000000000963 -0.1239000000000061 0.63768333333332816 3.0871611111111226 -88.042176999999995 1.2575166666666606 0.42804444444444562 0.034900000000000382 80.079999999999998 0.0051666666666676528 76.725000000000009 0.020166666666661118 0.21635696183432349
decision_type=2 2 2 2 2 2 2 2 2 2 2 2 2 2 2 2 2 2 2 2 2 2 2 2 2 2 2 2 2 2
left_child=3 2 10 4 6 8 7 21 -6 -4 11 22 13 -3 -11 -16 17 18 -5 -10 29 -1 23 25 -24 -2 -25 -26 -18 -17
right_child=1 12 9 16 5 -7 -8 -9 19 14 -12 -13 -14 -15 15 20 28 -19 -20 -21 -22 -23 24 26 27 -27 -28 -29 -30 -31
leaf_value=0 0.011014158513427906 -0.0061084763372646249 0.0073237051598109516 -5.912455429749662e-05 0.0089126288723921972 -0.0080382222043922473 -0.0088552106748109715 0.0067282080096093327 -0.0051629463323774605 -0.0080098318121528973 -0.0026510018178243721 0.011981359467750433 -0.009821410394451625 0.00474867965756204 0.0065985865846072281 -0.0011154356840894146 -0.0034840277319136653 0.0067481592306984821 -0.0092734337000789178 0.0041022486670007656 0.0038434068780567399 -0.0089045903200243911 0.014915773301202149 -0.0059334845027872009 0.0011918820861294415 0.0013156745996405065 0.0032928490964901852 0.0090797568280421102 -0.009267674332447259 -0.007954188123974533
leaf_weight=11.815545707941054 17.626164585351948 10.43023329973221 14.06592473387718 12.082730799913405 25.954620480537411 10.451229155063627 27.97507032752037 14.638786405324934 10.43135485053063 10.709860473871229 10.825439333915709 19.600295305252075 14.271425157785414 10.568415611982344 10.57808744907379 11.17005798220635 10.772081822156904 16.365565538406372 30.625239431858063 15.277961343526838 10.555675357580183 10.382155030965807 12.123165816068648 11.937355995178224 19.110275089740757 11.197606414556502 10.943907231092451 11.717446208000181 29.676212042570114 10.105203330516813
leaf_count=35 51 31 41 36 76 31 84 43 31 32 32 57 43 31 31 33 32 48 92 45 31 31 35 35 56 33 32 34 89 30
internal_value=0 0.00253761 0.00381284 -0.00255055 -0.000680581 0.00249318 -0.00373686 0.000136593 0.00465433 0.000502805 0.00558095 0.00637128 -0.00437688 -0.000600171 -0.00129495 0.000392134 -0.00492233 -0.00294957 -0.00669615 0.000298784 -0.00165329 -0.00417623 0.00518763 0.00339823 0.00730563 0.00729859 -0.00148197 0.00424202 -0.00776444 -0.00443247
internal_weight=0 227.537 192.266 226.449 126.927 62.1152 64.8116 36.8365 51.6639 67.1848 125.082 114.256 35.2701 20.9986 53.1189 42.409 99.5218 59.0735 42.708 25.7093 31.8309 22.1977 94.6559 51.705 42.9509 28.8238 22.8813 30.8277 40.4483 21.2753
internal_count=1341 668 563 673 376 183 193 109 152 198 365 333 105 62 157 125 297 176 128 76 94 66 276 151 125 84 67 90 121 63
is_linear=0
shrinkage=0.01


Tree=21
num_leaves=31
num_cat=0
split_feature=0 2 3 2 9 1 1 1 10 1 4 1 9 1 2 10 8 3 0 0 10 8 0 10 0 2 1 4 4 0
split_gain=23.899 17.1012 15.8334 23.0875 15.5588 15.1745 11.1658 9.02245 10.6661 6.95744 6.94143 6.8343 6.34641 5.8138 5.40147 5.03106 9.56219 5.00915 8.12325 3.33318 3.15863 3.65465 6.44643 4.39004 2.81026 3.98465 2.69875 0.974842 1.68797 0.375894
threshold=82.27500000000002 -0.050900000000005712 -0.087833333333328753 -0.0075999999999964976 0.19409564789201147 0.063200000000009041 -0.009599999999998941 -0.04369999999999407 0.63178571428571473 0.043400000000005441 0.16975000000000054 0.024149999999991682 0.21785149510554136 -0.019200000000004987 0.099499999999999048 0.63321428571428595 72.054820850795139 0.030000000000008246 75.725000000000009 76.345000000000013 0.38107142857142767 45.594873150024057 75.940000000000012 0.43928571428571378 74.765000000000029 0.043399999999998336 0.034500000000001314 0.026000000000003357 0.049000000000013706 78.390000000000015
decision_type=2 2 2 2 2 2 2 2 2 2 2 2 2 2 2 2 2 2 2 2 2 2 2 2 2 2 2 2 2 2
left_child=1 7 13 11 15 6 -5 19 -9 17 14 -4 26 -2 -7 16 20 18 -6 -1 -3 22 -22 -23 25 -17 -8 -25 -29 -26
right_child=2 4 3 5 9 10 12 8 -10 -11 -12 -13 -14 -15 -16 24 -18 -19 -20 -21 21 23 -24 27 29 -27 -28 28 -30 -31
leaf_value=-0.0039761763827273642 0.0012458706840879259 -0.0089146207173857323 0.018132147403474436 0.0086820856099135389 -0.0048289808693246783 0.009025723199904143 -0.0078934613879200251 0.015246467015836531 0.0019490616666437224 -0.0057274049845085937 0.013656140515686184 0.0071147157240099689 0.003843124250228468 -0.0089348229764382048 -0.0014536451497088173 -0.0067642434964632686 0.0062344692702205554 0.0091409224776137742 0.0060470116363087077 0.0028476647202070448 0.0049624663961542912 0.0012479232493920011 -0.005877713805236523 -0.0071760862829075272 -0.0086622504306365505 0.0017451773056684182 -0.0018491315022588941 -0.00095427104914098406 -0.0069485449497608369 -0.0064900118133606431
leaf_weight=13.717452287673952 10.330536276102068 11.131509631872175 14.321391582489015 9.8632260262966138 11.715993076562883 10.206434011459352 17.706991374492649 10.775950372219087 14.074049502611159 9.2026380598545057 12.857288032770155 10.193725407123564 9.7699297070503217 11.741907298564909 9.0951682329177839 13.322665423154833 10.235888987779616 12.318688809871672 16.168054819107056 14.674381524324415 12.590848773717882 10.437878549098967 9.5493708550930005 26.11711511015892 26.48929426074028 9.0094325542449933 13.631105571985243 9.8494896590709704 9.8041360378265363 23.340797662734985
leaf_count=46 34 38 45 32 39 33 60 34 46 31 41 33 32 40 30 45 34 40 53 48 42 35 32 88 90 30 45 33 33 79
internal_value=0 -0.00167116 0.00353576 0.00512147 -0.00289778 0.00258424 -0.000793332 0.00340404 0.00779342 0.00203114 0.00795449 0.0136391 -0.00310663 -0.00414074 0.00405412 -0.00432074 -0.00284246 0.00384173 0.0014406 -0.000416545 -0.00389776 -0.00316178 0.000236584 -0.00451618 -0.00634289 -0.00329424 -0.00531042 -0.00585232 -0.00401515 -0.00767982
internal_weight=0 274.526 129.718 107.645 221.284 83.1301 50.9713 53.2418 24.85 49.4054 32.1589 24.5151 41.108 22.0724 19.3016 171.878 99.7162 40.2027 27.884 28.3918 89.4803 78.3488 22.1402 56.2086 72.1622 22.3321 31.3381 45.7707 19.6536 49.8301
internal_count=1341 916 425 351 742 273 169 174 80 163 104 78 137 74 63 579 335 132 92 94 301 263 74 189 244 75 105 154 66 169
is_linear=0
shrinkage=0.01


Tree=22
num_leaves=31
num_cat=0
split_feature=5 9 0 2 8 4 0 2 0 2 6 0 0 4 6 4 0 0 9 9 6 8 6 6 8 0 5 8 0 8
split_gain=15.4933 14.5384 9.07332 7.96254 6.75525 5.82796 4.80485 4.65563 7.60735 4.98733 6.55778 6.17877 5.44471 6.66426 4.62963 5.98078 4.27143 4.42297 2.89824 4.09005 3.79914 3.51343 7.30624 6.69099 2.80117 2.79741 2.76367 2.30187 2.05971 1.51712
threshold=0.042777777777779143 0.19079080761667075 81.965000000000018 -0.063399999999994336 43.862726922303366 0.061500000000002338 80.470000000000013 -0.034300000000001767 74.945000000000007 -0.013700000000000044 0.35320000000000112 67.185000000000016 74.765000000000029 0.0097500000000039239 2.1568888888889011 -0.11574999999999845 78.390000000000015 75.030000000000015 0.038116237861763859 -0.21273082539791646 1.376633333333338 65.135918157284763 2.1257833333333314 1.0266333333333437 63.292540531786294 79.325000000000003 0.17888888888888491 65.463323532189037 86.610000000000014 46.575084860914224
decision_type=2 2 2 2 2 2 2 2 2 2 2 2 2 2 2 2 2 2 2 2 2 2 2 2 2 2 2 2 2 2
left_child=2 3 5 -2 14 6 7 8 -1 -9 -11 -12 29 -14 15 28 17 -3 19 24 -20 23 -23 -21 -5 -10 -18 -6 -4 -13
right_child=1 16 4 18 27 -7 -8 9 25 10 11 12 13 -15 -16 -17 26 -19 20 21 -22 22 -24 -25 -26 -27 -28 -29 -30 -31
leaf_value=0.00081087200279947021 0.011662199640884446 -0.0036575232439370678 0.0033530878669280461 0.0088111860027295669 -0.0092065554576786311 0.0053615846459317941 0.0039338335573602451 0.0042029486519087117 -0.0094072230608093343 -0.0080154625977382106 0.0057064034303058418 -0.002825776762111808 -0.0033629764883105436 0.0041023661335734731 0.0039572701990588802 -0.0075824402274919994 -0.0020399424485557007 0.004950831820823994 0.0084886866438679386 0.0024148498280013183 0.001744289303704344 -0.00071404093817755906 0.0094732311579097134 -0.0064077857647668749 0.0018212357879105309 -0.0027889670192217716 -0.008718863317695176 -0.0035846469110809814 -0.0028638312430888414 -0.0084357863024215659
leaf_weight=19.98300313949585 12.215738087892531 11.599983155727388 10.567528128623964 13.128766089677812 24.676193535327911 16.628686875104904 19.022509217262268 20.539178729057312 19.181408494710926 12.254334002733229 14.480883419513701 10.483611702919008 23.51308611035347 24.06801900267601 10.868504524230955 18.014364421367645 14.054006904363634 12.008472532033919 19.977992326021194 20.243233293294907 15.150725394487379 16.982436269521717 11.717493683099745 14.693380922079085 10.981655508279799 10.465302735567091 11.866671711206434 11.558689355850218 10.501838117837904 10.445463508367537
leaf_count=57 34 33 30 37 71 47 54 58 55 35 41 30 67 68 31 52 40 34 56 57 43 48 33 42 31 30 34 33 30 30
internal_value=0 0.00225984 -0.00145219 0.00396101 -0.00416556 -0.000282629 -0.000799556 -0.00135198 -0.00391247 -0.0002434 -0.00121612 -0.000191669 -0.00145941 0.00039294 -0.00174894 -0.00336731 -0.0023586 0.000681362 0.0031784 0.00218367 0.00562148 0.000832887 0.00342891 -0.00127487 0.00568943 -0.00712182 -0.00515779 -0.00745553 0.000208192 -0.00570002
internal_weight=0 184.621 287.253 135.091 86.1871 201.065 184.437 165.414 49.6297 115.785 95.2454 82.9911 68.5102 47.5811 49.9522 39.0837 49.5291 23.6085 122.876 87.747 35.1287 63.6365 28.6999 34.9366 24.1104 29.6467 25.9207 36.2349 21.0694 20.9291
internal_count=1341 522 819 381 247 572 525 471 142 329 271 236 195 135 143 112 141 67 347 248 99 180 81 99 68 85 74 104 60 60
is_linear=0
shrinkage=0.01


Tree=23
num_leaves=31
num_cat=0
split_feature=7 7 5 2 8 4 9 10 3 10 3 8 7 2 2 9 2 7 3 2 7 5 10 2 7 10 3 4 9 10
split_gain=28.8584 19.7091 16.595 18.8655 12.3701 11.7883 11.0032 8.89559 8.18584 7.52128 7.20986 6.92875 6.72412 9.12792 6.01941 5.83527 5.3489 7.12312 5.34752 4.553 4.14095 11.0915 8.00355 6.14971 5.24717 4.03257 3.57269 6.35774 1.97575 1.66567
threshold=-38.215772499999993 41.177929000000006 0.051111111111104897 -0.026199999999995779 21.128187812191559 0.021249999999994888 0.087986205884724292 2.0174999999999992 -0.059500000000006985 0.70107142857142846 0.013166666666656114 27.446982853181122 -87.046477499999995 -0.087999999999993847 0.003199999999999648 0.15473107466988259 0.12750000000001196 49.084770500000012 0.028166666666656685 0.016100000000001561 -16.218516999999995 0.016666666666672828 0.79392857142857165 0.031099999999987919 17.868484000000002 0.78571428571428525 0.025666666666658958 0.11249999999999007 -0.08595388045431486 0.63321428571428595
decision_type=2 2 2 2 2 2 2 2 2 2 2 2 2 2 2 2 2 2 2 2 2 2 2 2 2 2 2 2 2 2
left_child=2 6 3 4 -1 9 7 11 -8 15 -7 -2 13 -6 -10 19 17 -3 -16 -5 21 -13 23 -22 -25 -20 -24 -28 -12 -4
right_child=1 16 29 5 12 10 8 -9 14 -11 28 20 -14 -15 18 -17 -18 -19 25 -21 22 -23 26 24 -26 -27 27 -29 -30 -31
leaf_value=0.0025548407629734332 -0.0022223294459647104 -0.0066840136758798997 -0.004870812318141648 0.0064875764598481909 -0.0082465737754984433 0.0043660257184705842 0.007245594076213945 0.014403349219843388 -0.007973076466706806 -0.0013021904755273817 -0.0082560682265406995 0.0078096997660015433 -0.0096065100880543038 0.004464891898851641 0.0065094831157983283 0.0010187476446103488 -0.0097794468960327417 0.0043343135940069983 -0.0053841249913324386 0.014807558461904718 0.016382450103388287 -0.0055298429667114636 0.006960748534075599 0.002637265911672312 0.012423495521225266 0.0016941636178910168 -0.0040901694992098656 0.0062351067385088277 -0.0020831228319159955 -0.0082349597947496411
leaf_weight=18.694232940673828 12.610062479972838 12.387516349554064 29.385835409164429 17.778998672962192 12.349023073911669 10.872239321470259 14.101922810077665 10.372604310512541 10.676898300647734 12.525499224662779 12.070690810680388 14.161835074424745 33.854320406913757 10.152129292488096 10.610596030950544 10.558308929204939 11.923398911952971 10.885846912860869 15.149450272321703 11.398666650056837 11.445156365633009 10.909184604883192 19.561284780502319 12.29394778609276 10.392137527465819 16.674428999423981 11.591069877147676 11.98880025744438 10.105917096138002 36.407255858182907
leaf_count=55 37 37 88 52 37 32 41 30 32 37 36 41 102 30 31 31 36 32 45 33 33 32 57 36 30 49 34 35 30 110
internal_value=0 0.00251172 -0.00253022 -0.00078658 -0.00444517 0.00242171 0.0037723 0.00552264 0.0004904 0.00537945 -0.00222744 0.00470079 -0.00678534 -0.00247276 -0.00129467 0.00750871 -0.00434694 -0.00149104 0.000376968 0.00981153 0.00556491 0.00196661 0.0067154 0.0103465 0.00719892 -0.00165037 0.00380225 0.00112148 -0.00550992 -0.00675724
internal_weight=0 227.736 226.153 160.36 75.0497 85.3103 192.539 125.326 67.2133 52.2615 33.0488 114.953 56.3555 22.5012 53.1114 39.736 35.1968 23.2734 42.4345 29.1777 102.343 25.071 77.2724 34.1312 22.6861 31.8239 43.1412 23.5799 22.1766 65.7931
internal_count=1341 668 673 475 224 251 563 365 198 153 98 335 169 67 157 116 105 69 125 85 298 73 225 99 66 94 126 69 66 198
is_linear=0
shrinkage=0.01


Tree=24
num_leaves=31
num_cat=0
split_feature=0 2 9 1 1 8 6 1 10 6 2 10 6 2 2 4 10 8 2 0 10 8 0 10 0 2 6 4 9 0
split_gain=23.4619 16.7984 15.3299 13.854 16.5602 19.361 8.9078 8.82008 10.3497 8.37978 7.8932 7.63057 13.0741 7.39335 5.09942 6.42549 4.99349 9.41636 4.07261 3.27927 3.13757 3.61513 6.35627 4.3568 2.80295 3.94605 1.49076 1.09543 0.383419 0.379503
threshold=82.27500000000002 -0.050900000000005712 0.19409564789201147 -0.009599999999998941 0.033149999999999132 42.184781643566033 -4.0369833333333238 -0.04369999999999407 0.63178571428571473 1.8631333333333304 0.0086999999999974893 1.2785714285714314 3.6263722222222232 -0.0026999999999972597 0.028399999999997764 0.013750000000001707 0.63321428571428595 72.054820850795139 0.059399999999989468 76.345000000000013 0.38107142857142767 45.594873150024057 75.940000000000012 0.43928571428571378 74.765000000000029 0.043399999999998336 0.69258333333332456 0.026000000000003357 0.04126963840754979 78.390000000000015
decision_type=2 2 2 2 2 2 2 2 2 2 2 2 2 2 2 2 2 2 2 2 2 2 2 2 2 2 2 2 2 2
left_child=1 7 16 6 10 -6 -2 19 -9 14 -5 18 -13 -8 15 -4 17 20 -7 -1 -3 22 -22 -23 25 -18 -25 -28 -12 -26
right_child=3 2 9 4 5 11 13 8 -10 -11 28 12 -14 -15 -16 -17 24 -19 -20 -21 21 23 -24 26 29 -27 27 -29 -30 -31
leaf_value=-0.0039543059226881064 0.0016576332058545178 -0.0088859610024065692 0.0066564607968702671 0.002764897425724997 -0.0045310630535511194 0.015740668290635945 0.018767965266902446 0.014994963700092843 0.0019268028222713639 -0.0066990472276895483 -0.0089414894609587594 -0.005050806189292263 0.0095010623419882773 0.0067039387375718677 0.010332414484779872 -0.0023951838441339151 -0.0067305522585965009 0.0061711367339939713 0.0066973752840873355 0.0028147132535667973 0.0049223177543936802 0.0012531681370466757 -0.0058474799090192497 -0.0077274989989126498 -0.0086381855322686003 0.0017449608008702922 -0.0058989484871012588 -0.0013803098570453929 -0.0055986837346124153 -0.0064565005146788633
leaf_weight=13.688934028148653 10.765198260545729 11.070687770843504 14.927198559045793 10.6486799120903 17.224488228559494 13.015029162168505 10.822476804256439 10.860607117414476 14.09187665581703 8.8774673342704755 12.896898597478868 9.7463101744651812 16.238410830497742 10.468061029911041 9.5390152633190137 16.116317808628082 13.263644635677339 10.266450136899946 9.2283172011375409 14.700503587722777 12.616059690713884 10.434169024229048 9.5165567696094495 22.25174143910408 26.375897616147995 9.0094029605388624 12.950062334537508 10.41526138782501 8.887055426836012 23.241509735584259
leaf_count=46 35 38 49 35 57 42 34 34 46 30 44 32 52 34 31 53 45 34 30 48 42 35 32 75 90 30 44 35 30 79
internal_value=0 -0.00165844 -0.00287713 0.00349858 0.00161359 0.00451419 0.00920056 0.00336501 0.00769181 0.00201051 -0.00420526 0.00776805 0.00400619 0.0129422 0.00395209 0.00193257 -0.00429362 -0.00282016 0.0120803 -0.000416522 -0.00387132 -0.00313804 0.000241081 -0.0044882 -0.00631274 -0.00326505 -0.00582319 -0.00394181 -0.00765526 -0.00765141
internal_weight=0 274.213 220.871 129.941 97.8852 65.4526 32.0557 53.3419 24.9525 49.46 32.4326 48.2281 25.9847 21.2905 40.5825 31.0435 171.411 99.521 22.2433 28.3894 89.2545 78.1839 22.1326 56.0512 71.8905 22.273 45.6171 23.3653 21.784 49.6174
internal_count=1341 916 742 425 322 213 103 174 80 163 109 156 84 68 133 102 579 335 72 94 301 263 74 189 244 75 154 79 74 169
is_linear=0
shrinkage=0.01


Tree=25
num_leaves=31
num_cat=0
split_feature=7 5 2 9 1 1 3 1 2 3 4 6 4 1 2 7 7 4 6 2 7 1 9 3 5 6 6 1 5 7
split_gain=19.8675 25.5285 11.267 11.0006 10.2062 12.7095 9.43132 7.38977 7.03227 6.53107 9.83787 9.672 6.12223 5.70534 9.20591 4.97186 4.89586 6.07396 6.14523 3.63938 3.70522 3.5121 3.42976 3.1644 2.66478 3.9628 3.84761 2.55525 2.18562 1.21736
threshold=-18.991891999999996 0.051111111111104897 0.038800000000001951 0.19874685613096876 -0.015650000000000826 0.023249999999997332 -0.12749999999999059 0.029750000000007052 0.14730000000000135 0.028166666666656685 -0.055250000000000903 0.58837222222221197 -0.07824999999999703 -0.032100000000006894 -0.1104999999999947 -76.652635499999988 49.885260000000009 0.09174999999999757 3.825327777777773 0.049600000000005202 36.242806000000009 -0.050899999999998606 0.14708009763433808 -0.07099999999999794 0.18388888888888746 -0.059533333333320108 -2.064761111111117 0.0086499999999958294 0.0088888888888973856 -64.96118749999998
decision_type=2 2 2 2 2 2 2 2 2 2 2 2 2 2 2 2 2 2 2 2 2 2 2 2 2 2 2 2 2 2
left_child=1 4 12 24 6 9 -1 -4 16 10 -6 15 23 14 -8 -12 17 19 -19 -9 -21 -16 -14 -2 25 26 -3 -13 -7 -27
right_child=2 3 7 -5 5 28 13 8 -10 -11 11 27 22 -15 21 -17 -18 18 -20 20 -22 -23 -24 -25 -26 29 -28 -29 -30 -31
leaf_value=0.0035734634108549159 -0.0044064814263552795 0.0089700923364115174 0.0076620393503563479 -0.00029926108458479543 0.010294358005240072 -0.0073102331418869087 -0.0094345994399170803 0.0013284261156840339 0.0058756897940514764 0.009129620413566894 0.0013895902582649825 0.0085297074995952186 -0.0081789219612161783 -0.0079071429136943292 -0.0035413430050473004 -0.0073449520264384496 -0.0084268410350339679 0.0072047098563714001 -0.0024425850679725704 -0.0073771462006595925 -0.00010314397391828151 0.0033624337571095081 -0.0031091990043944258 0.0024037290294757689 0.012935487411427603 0.012646142907234472 0.0013061966701971366 0.0018524402706197722 -0.0010433280106553445 0.0075552249569957935
leaf_weight=18.734871864318848 13.253712415695192 11.864630848169325 10.68300938606262 18.335131168365479 12.137911736965178 12.898343503475191 12.09682312607765 11.587435394525526 12.446012109518049 17.84122759103775 10.597853630781172 10.698277950286867 44.992775827646255 27.780273944139481 11.536400020122526 16.050966262817386 10.745021671056746 13.80089119076729 12.298896789550779 22.658462136983871 10.525871872901915 19.755087226629261 20.265140742063522 13.692127019166945 11.532583385705946 12.954564213752748 15.372497558593752 13.4094862639904 10.528824120759962 10.71281525492668
leaf_count=53 38 33 30 52 34 37 35 33 35 50 30 30 130 80 33 46 31 39 35 65 30 56 58 39 32 36 43 38 30 30
internal_value=0 0.00173727 -0.00242309 0.00645801 -0.000224703 0.0018994 -0.00269619 -0.000168334 -0.00107547 0.00378728 0.00224386 0.000282544 -0.00497076 -0.00436339 -0.00205847 -0.00384176 -0.00215361 -0.00117788 0.00262851 -0.00342003 -0.00510716 0.000782153 -0.00662704 -0.000912907 0.00845563 0.00739772 0.00470181 0.00487991 -0.00455262 0.0104253
internal_weight=0 274.839 196.949 80.7722 194.066 104.163 89.9035 104.746 94.0626 80.7357 62.8945 50.7566 92.2038 71.1686 43.3883 26.6488 81.6166 70.8716 26.0998 44.7718 33.1843 31.2915 65.2579 26.9458 62.4371 50.9045 27.2371 24.1078 23.4272 23.6674
internal_count=1341 778 563 226 552 295 257 298 268 228 178 144 265 204 124 76 233 202 74 128 95 89 188 77 174 142 76 68 67 66
is_linear=0
shrinkage=0.01


Tree=26
num_leaves=31
num_cat=0
split_feature=7 7 10 4 2 7 0 3 6 0 0 7 4 3 0 2 10 10 8 0 7 8 8 6 6 7 8 7 2 7
split_gain=28.4302 19.3359 11.5665 10.5275 18.9781 11.9676 8.56559 11.9607 8.39624 8.14953 7.46479 7.65408 7.42807 8.92497 15.4758 11.339 10.6268 8.81941 8.1155 7.03706 6.13508 4.63666 4.42104 4.18931 8.06113 3.90867 3.55537 3.29125 1.87672 1.30134
threshold=-38.215772499999993 41.177929000000006 0.7267857142857137 0.040750000000002735 -0.011099999999998998 -87.599186999999986 91.160000000000011 -0.085999999999991403 0.95822777777778623 80.845000000000013 75.875000000000014 -77.573870999999983 -0.046750000000002949 0.029166666666661459 73.89500000000001 0.0082999999999984215 0.60392857142857037 0.6550000000000008 64.84952176531354 88.560000000000016 49.885260000000009 32.716176472293228 57.195506502672394 2.2169944444444458 1.2105499999999838 -87.599186999999986 57.679008100434359 -84.475286999999994 -0.11430000000000005 -71.801560999999992
decision_type=2 2 2 2 2 2 2 2 2 2 2 2 2 2 2 2 2 2 2 2 2 2 2 2 2 2 2 2 2 2
left_child=2 6 3 4 5 -1 7 -2 10 25 -6 -12 21 15 23 16 -14 -17 -16 20 -3 -9 -8 24 -15 -4 -5 -7 -11 -28
right_child=1 19 9 26 8 27 22 12 -10 28 11 -13 13 14 18 17 -18 -19 -20 -21 -22 -23 -24 -25 -26 -27 29 -29 -30 -31
leaf_value=0.0048964509815574032 0.012946664488114283 -0.0060468650493572078 0.0018502863146512402 -0.00050647286518170731 0.013006556441240045 -0.003263475413820494 -0.0069438055810229814 -0.0040221392134945399 -0.0018445665411058949 -0.0038435952801460205 0.0083597683840099402 -0.00082752313349107771 0.0087633282734548863 -0.0070008184149950459 0.012899883793815608 0.0071352087733585591 -0.005197623403914782 0.018002971404701234 0.0028460824089043026 -0.0097400097170182807 0.0047108221973580274 0.0041831509723697985 0.0019206192737781069 -0.0071912116153650778 0.0040252014936722706 -0.0053779081997738778 -0.0049226801165134712 -0.0098232638077471995 -0.0089333827645779271 -0.0097929351543555067
leaf_weight=10.50611764192581 15.269831061363218 10.385191142559053 16.560486018657688 10.471321702003477 12.336393088102339 13.410741299390788 10.077136874198915 18.00116187334061 16.934693276882172 9.9851976633071882 18.575907349586483 17.246546119451526 11.378661811351778 10.115979015827181 14.88945749402046 19.298876076936722 10.214071333408354 12.875036448240278 18.1488938331604 14.14648315310478 10.581889063119887 10.949893504381178 12.248769670724867 10.52717813849449 18.775500953197479 13.319333165884016 12.034047335386274 20.161156713962558 41.104313850402832 13.253090292215349
leaf_count=31 44 31 49 31 36 40 30 53 50 30 54 51 33 30 43 56 30 37 53 43 31 32 36 31 55 40 36 61 124 40
internal_value=0 0.00249112 -0.00251389 -0.000813196 0.000722185 -0.00432773 0.00373711 0.00450163 0.00415846 -0.00554092 0.00628955 0.00391876 0.00365636 0.00470476 0.00238895 0.00779679 0.00211972 0.0115575 0.00743248 -0.00431206 -0.000573504 -0.000880588 -0.002049 -0.00182103 0.000119259 -0.00134561 -0.00551758 -0.00725004 -0.0079676 -0.00754311
internal_weight=0 227.884 225.899 144.93 109.172 44.078 192.77 170.445 65.0935 80.9693 48.1588 35.8225 155.175 126.224 72.457 53.7666 21.5927 32.1739 33.0384 35.1136 20.9671 28.9511 22.3259 39.4187 28.8915 29.8798 35.7585 33.5719 51.0895 25.2871
internal_count=1341 668 673 430 323 132 563 497 191 243 141 105 453 368 212 156 63 93 96 105 62 85 66 116 85 89 107 101 154 76
is_linear=0
shrinkage=0.01


end of trees

feature_importances:
price_close=111
diff_MA_100=108
diff_MA_50=107
OBV=81
diff_MA_20=75
ATR=65
Volume_Oscillator=55
diff_MA_30=54
MFI=53
divergence=52
diff_MA_9=44

parameters:
[boosting: gbdt]
[objective: multiclass]
[metric: multi_logloss]
[tree_learner: serial]
[device_type: cpu]
[data_sample_strategy: bagging]
[data: ]
[valid: ]
[num_iterations: 10000]
[learning_rate: 0.01]
[num_leaves: 31]
[num_threads: 4]
[seed: 0]
[deterministic: 0]
[force_col_wise: 0]
[force_row_wise: 0]
[histogram_pool_size: -1]
[max_depth: 10]
[min_data_in_leaf: 30]
[min_sum_hessian_in_leaf: 0.001]
[bagging_fraction: 0.6]
[pos_bagging_fraction: 1]
[neg_bagging_fraction: 1]
[bagging_freq: 0]
[bagging_seed: 3]
[feature_fraction: 0.7]
[feature_fraction_bynode: 1]
[feature_fraction_seed: 2]
[extra_trees: 0]
[extra_seed: 6]
[early_stopping_round: 0]
[first_metric_only: 0]
[max_delta_step: 0]
[lambda_l1: 0.1]
[lambda_l2: 0.1]
[linear_lambda: 0]
[min_gain_to_split: 0.1]
[drop_rate: 0.1]
[max_drop: 50]
[skip_drop: 0.5]
[xgboost_dart_mode: 0]
[uniform_drop: 0]
[drop_seed: 4]
[top_rate: 0.2]
[other_rate: 0.1]
[min_data_per_group: 100]
[max_cat_threshold: 32]
[cat_l2: 10]
[cat_smooth: 10]
[max_cat_to_onehot: 4]
[top_k: 20]
[monotone_constraints: ]
[monotone_constraints_method: basic]
[monotone_penalty: 0]
[feature_contri: ]
[forcedsplits_filename: ]
[refit_decay_rate: 0.9]
[cegb_tradeoff: 1]
[cegb_penalty_split: 0]
[cegb_penalty_feature_lazy: ]
[cegb_penalty_feature_coupled: ]
[path_smooth: 0]
[interaction_constraints: ]
[verbosity: -1]
[saved_feature_importance_type: 0]
[use_quantized_grad: 0]
[num_grad_quant_bins: 4]
[quant_train_renew_leaf: 0]
[stochastic_rounding: 1]
[linear_tree: 0]
[max_bin: 255]
[max_bin_by_feature: ]
[min_data_in_bin: 3]
[bin_construct_sample_cnt: 200000]
[data_random_seed: 1]
[is_enable_sparse: 1]
[enable_bundle: 1]
[use_missing: 1]
[zero_as_missing: 0]
[feature_pre_filter: 1]
[pre_partition: 0]
[two_round: 0]
[header: 0]
[label_column: ]
[weight_column: ]
[group_column: ]
[ignore_column: ]
[categorical_feature: ]
[forcedbins_filename: ]
[precise_float_parser: 0]
[parser_config_file: ]
[objective_seed: 5]
[num_class: 3]
[is_unbalance: 0]
[scale_pos_weight: 1]
[sigmoid: 1]
[boost_from_average: 1]
[reg_sqrt: 0]
[alpha: 0.9]
[fair_c: 1]
[poisson_max_delta_step: 0.7]
[tweedie_variance_power: 1.5]
[lambdarank_truncation_level: 30]
[lambdarank_norm: 1]
[label_gain: ]
[lambdarank_position_bias_regularization: 0]
[eval_at: ]
[multi_error_top_k: 1]
[auc_mu_weights: ]
[num_machines: 1]
[local_listen_port: 12400]
[time_out: 120]
[machine_list_filename: ]
[machines: ]
[gpu_platform_id: -1]
[gpu_device_id: -1]
[gpu_use_dp: 0]
[num_gpu: 1]

end of parameters

pandas_categorical:[]
