tree
version=v4
num_class=3
num_tree_per_iteration=3
label_index=0
max_feature_idx=10
objective=multiclass num_class:3
feature_names=price_close diff_MA_100 diff_MA_50 diff_MA_30 diff_MA_20 diff_MA_9 divergence OBV MFI Volume_Oscillator ATR
feature_infos=[0.64800000000000002:0.96899999999999997] [-0.0013579999999998593:0.0014959999999999418] [-0.0022180000000000533:0.0026700000000001722] [-0.0030033333333332468:0.0033900000000001151] [-0.0049299999999999899:0.0044049999999998812] [-0.0085666666666666114:0.0085333333333333927] [-0.0712734444444445:0.078126555555555588] [-137.50682699999999:105.97097599999999] [4.3496123052032232:98.467383683794452] [-0.69385339848118943:0.7148775801202446] [0.0028714285714285725:0.028078571428571435]
tree_sizes=3292 3373 3317 3280 3471 3484 3353 3492 3435 3364 3478 3443 3201 3452 3449 3443 3453 3462 3239 3484 3425 3439 3453 3463 3458 3495 3452

Tree=0
num_leaves=31
num_cat=0
split_feature=2 9 7 4 2 8 7 8 1 6 2 7 9 7 4 4 7 6 1 8 1 10 8 9 2 7 10 7 8 9
split_gain=21.7117 23.028 17.4014 11.0756 17.727 10.9484 10.573 10.1464 8.60646 13.581 8.06941 6.1871 5.75857 9.77176 5.34198 5.27372 5.0672 3.3693 3.31304 7.19918 5.62472 6.99343 2.9699 2.0846 1.98845 4.87214 2.42533 5.7742 1.37146 0.847931
threshold=-0.00026200000000003992 0.37402272011830601 40.203278500000003 -0.0011149999999999214 -0.0010830000000000004 26.228300287171724 -86.800598999999991 15.968836177844482 0.00010649999999995387 -0.021389055555555533 -0.00045499999999998314 11.328583000000002 0.19409564789201147 17.686818000000006 0.0013299999999999981 0.00040500000000004427 -85.436029499999989 -0.036828666666666725 0.00030000000000007804 63.607306451678788 0.00046699999999993974 0.0061035714285714348 45.463969945281519 0.47409960678496532 -1.0000000180025095e-35 -77.536571499999994 0.0048214285714285729 -71.094994999999997 55.952454532977917 0.018645965697078808
decision_type=2 2 2 2 2 2 2 2 2 2 2 2 2 2 2 2 2 2 2 2 2 2 2 2 2 2 2 2 2 2
left_child=3 2 12 5 -5 7 17 -1 9 -8 -11 -10 16 15 -4 -14 -2 -6 24 20 21 -20 -22 -3 25 -18 27 -26 -29 -21
right_child=1 23 14 4 6 -7 8 -9 11 10 -12 -13 13 -15 -16 -17 18 -19 19 29 22 -23 -24 -25 26 -27 -28 28 -30 -31
leaf_value=-1.2818617371283807 -1.2755983099920167 -1.2666783794600265 -1.2764783534042929 -1.2584853499740523 -1.2752395726815815 -1.2846246803513071 -1.2774925298156758 -1.2690992734226163 -1.2817245449027201 -1.2575111162236252 -1.2697438700441723 -1.2702981041677006 -1.2769134038442469 -1.2843123619602463 -1.2680832173820398 -1.2678219772442521 -1.2836602375355941 -1.2837640767628187 -1.2796085373591979 -1.2860094698070277 -1.2848985562180033 -1.2679190709868542 -1.2773956181451047 -1.2730538024043412 -1.2741466875429612 -1.2741466875429612 -1.2843081599347246 -1.2859937434217565 -1.2804854213469583 -1.2815783064855784
leaf_weight=9.6534318923950213 15.988496571779249 14.781817585229875 15.385157078504564 9.6534318923950178 9.0500923991203326 14.178478091955183 9.3517621457576734 16.893505811691284 9.3517621457576769 11.765120118856432 10.860110878944399 9.3517621457576734 17.195175558328632 11.765120118856428 15.385157078504561 10.256771385669706 12.670129358768465 9.050092399120329 9.3517621457576769 12.670129358768465 9.3517621457576769 10.860110878944395 12.670129358768461 9.050092399120329 9.0500923991203326 9.050092399120329 60.333949327468872 11.463450372219087 9.050092399120329 9.050092399120329
leaf_count=32 53 49 51 32 30 47 31 56 31 39 36 31 57 39 51 34 42 30 31 42 31 36 42 30 30 30 200 38 30 30
internal_value=-1.27692 -1.27841 -1.27927 -1.27333 -1.27114 -1.27754 -1.27295 -1.27378 -1.2706 -1.26746 -1.26328 -1.27606 -1.28022 -1.27675 -1.27223 -1.27346 -1.28093 -1.27946 -1.28142 -1.27957 -1.27714 -1.27336 -1.28065 -1.26903 -1.28247 -1.27966 -1.28314 -1.2807 -1.28364 -1.28424
internal_weight=0 285.38 261.548 119.16 78.4341 40.7254 68.7807 26.5469 50.6805 31.977 22.6252 18.7035 230.777 39.2171 30.7703 27.4519 191.56 18.1002 175.572 63.954 42.2338 20.2119 22.0219 23.8319 111.618 21.7202 89.8976 29.5636 20.5135 21.7202
internal_count=1341 946 867 395 260 135 228 88 168 106 75 62 765 130 102 91 635 60 582 212 140 67 73 79 370 72 298 98 68 72
is_linear=0
shrinkage=1


Tree=1
num_leaves=31
num_cat=0
split_feature=7 5 9 2 1 1 0 1 2 9 4 2 7 7 2 8 0 7 4 0 9 8 7 4 7 8 4 5 1 4
split_gain=23.0636 29.0034 13.6418 12.187 11.6844 14.5974 11.0648 7.82906 7.52556 7.27346 6.06011 5.99079 11.3004 6.38228 5.34764 5.21497 5.44989 4.87397 7.3342 4.56873 4.41857 3.28258 3.23819 2.92469 2.79792 2.63153 3.54645 2.2386 2.20737 2.05805
threshold=-18.991891999999996 0.00051666666666666538 0.19874685613096876 0.00034799999999995951 -0.00015650000000005934 8.6499999999933866e-05 0.74215000000000009 0.00030000000000007804 0.0014650000000000498 -0.21956320585131506 -0.00066750000000009846 5.5000000000027256e-05 -66.945201999999981 -77.430126999999985 0.00017599999999989849 75.849165536719141 0.74765000000000015 49.885260000000009 0.00094499999999980721 0.81555000000000011 0.14708009763433808 58.878406856528059 -82.703987999999981 0.00060000000000010056 6.1259625000000009 40.409947071018514 0.00066750000000004317 0.0010499999999999956 -0.00037700000000012718 -0.00058500000000000208
decision_type=2 2 2 2 2 2 2 2 2 2 2 2 2 2 2 2 2 2 2 2 2 2 2 2 2 2 2 2 2 2
left_child=1 4 15 10 6 11 -1 -5 17 -8 24 13 -13 -6 21 16 -3 18 25 -20 -12 -7 28 -18 -2 -9 27 -27 29 -11
right_child=3 2 -4 7 5 14 9 8 -10 22 20 12 -14 -15 -16 -17 23 -19 19 -21 -22 -23 -24 -25 -26 26 -28 -29 -30 -31
leaf_value=-0.97343825402007611 -0.98381189372971745 -0.97360555747492383 -0.97918632790233839 -0.97173915696498159 -0.96467430087908268 -0.98461147282578532 -0.97679631891074914 -0.97800826439146915 -0.97282232110233158 -0.98144197603095662 -0.98755861807630818 -0.98084877577854612 -0.96814292600036578 -0.97519302344834558 -0.97573427578554917 -0.97517203022010834 -0.96379909708952816 -0.98727091453375304 -0.97206149950697418 -0.98063582260505111 -0.9815535001024972 -0.97800826439146915 -0.98055245177109163 -0.97050095520980628 -0.9773474737227652 -0.98842425621300622 -0.97920900287851453 -0.98226838404317229 -0.98861965659669115 -0.98727091453375304
leaf_weight=14.426918059587477 11.260033607482912 12.667537808418272 17.945678561925888 13.019413858652113 13.723165959119799 23.927571415901184 15.130670160055159 10.556281507015226 12.667537808418272 15.482546210289 41.873249977827072 17.945678561925892 11.260033607482908 10.556281507015226 16.890050411224365 12.667537808418272 24.631323516368866 10.908157557249067 14.42691805958748 10.556281507015226 18.297554612159729 10.556281507015226 16.186298310756683 10.556281507015226 15.834422260522841 14.075042009353639 13.019413858652113 11.611909657716749 18.297554612159733 10.908157557249067
leaf_count=41 32 36 51 37 39 68 43 30 36 44 119 51 32 30 48 36 70 31 41 30 52 30 46 30 45 40 37 33 52 31
internal_value=-0.978595 -0.976714 -0.971583 -0.981193 -0.978773 -0.976508 -0.98141 -0.978981 -0.979961 -0.982941 -0.983987 -0.972852 -0.975965 -0.969174 -0.980299 -0.969315 -0.967796 -0.981041 -0.980101 -0.975718 -0.985757 -0.982565 -0.984486 -0.965753 -0.980007 -0.982346 -0.983553 -0.985705 -0.98588 -0.983913
internal_weight=0 273.76 78.4684 198.106 195.291 104.859 90.4321 110.841 97.8215 76.0052 87.2653 53.4852 29.2057 24.2794 51.3739 60.5227 47.8551 85.154 74.2458 24.9832 60.1708 34.4839 60.8746 35.1876 27.0945 49.2626 38.7064 25.687 44.6883 26.3907
internal_count=1341 778 223 563 555 298 257 315 278 216 248 152 83 69 146 172 136 242 211 71 171 98 173 100 77 140 110 73 127 75
is_linear=0
shrinkage=1


Tree=2
num_leaves=31
num_cat=0
split_feature=1 2 5 0 1 9 0 8 2 1 4 1 2 8 4 0 0 1 8 6 8 9 0 1 2 5 0 4 4 5
split_gain=18.8612 14.213 12.6947 21.2335 12.5305 12.4302 14.7579 11.1138 13.1099 12.6927 13.8278 11.3691 8.976 6.33949 5.48514 5.14177 6.02776 7.39043 8.77706 5.09122 3.4214 3.14754 2.81402 7.21198 2.63578 2.18775 1.98401 1.72845 3.41399 0.709235
threshold=0.00010649999999995387 0.0013090000000000603 0.00040000000000001151 0.71125000000000005 0.00046399999999990898 0.17853507930840609 0.83150000000000013 15.968836177844482 -0.00026200000000003992 1.0999999999983247e-05 0.00040500000000004427 -0.00023149999999999557 0.00016100000000007777 51.437399799429215 -0.0022324999999999702 0.74765000000000015 0.89305000000000012 0.00023100000000014778 52.229017534828422 0.004280444444444532 61.675788252231143 0.053129867076710351 0.75495000000000012 0.00029649999999997739 0.00049499999999985677 0.00047222222222220728 0.74235000000000007 -0.0010225000000000371 -0.001472500000000043 -0.00036666666666657072
decision_type=2 2 2 2 2 2 2 2 2 2 2 2 2 2 2 2 2 2 2 2 2 2 2 2 2 2 2 2 2 2
left_child=7 2 3 19 22 6 -6 -1 13 10 11 -10 -13 14 -9 -5 17 29 21 -2 -12 -19 23 -4 -24 -11 -16 28 -28 -17
right_child=1 -3 4 15 5 -7 -8 8 9 25 20 12 -14 -15 26 16 -18 18 -20 -21 -22 -23 24 -25 -26 -27 27 -29 -30 -31
leaf_value=-1.0559093751944315 -1.045353529415757 -1.0704495904735314 -1.0576042159591215 -1.0675887940757385 -1.0491991141271111 -1.0663262207215369 -1.0633783911943888 -1.0632583789791357 -1.0516416976152052 -1.066720033882953 -1.0631176024464275 -1.0672646407956317 -1.0570914937061886 -1.0634438291954444 -1.0666153273411589 -1.0656418606065794 -1.066349686950457 -1.0481806109257643 -1.0614836664740779 -1.0544511417890345 -1.0697142849484376 -1.0559122520556072 -1.0708517124583439 -1.0679808166071665 -1.0645897607084507 -1.0727005328726478 -1.0727240862771621 -1.0730264571191004 -1.0649546278851401 -1.0619426870151769
leaf_weight=11.189821153879164 10.511650174856188 16.276103496551514 10.511650174856188 10.172564685344694 16.276103496551517 16.615188986063004 13.563419580459593 10.511650174856184 16.276103496551514 13.224334090948107 13.224334090948107 15.937018007040022 18.649701923131943 18.649701923131943 10.172564685344694 10.172564685344698 12.546163111925123 10.511650174856188 19.666958391666412 17.632445454597473 18.310616433620453 12.885248601436613 18.649701923131946 17.971530944108963 11.189821153879164 12.885248601436613 13.224334090948107 36.621232867240906 10.511650174856184 10.172564685344694
leaf_count=33 31 48 31 30 48 49 40 31 48 39 39 47 55 55 30 30 37 31 58 52 54 38 55 53 33 38 39 108 31 30
internal_value=-1.06344 -1.06148 -1.0608 -1.0585 -1.06333 -1.05945 -1.05559 -1.06555 -1.06608 -1.06366 -1.06175 -1.05852 -1.06181 -1.0687 -1.0699 -1.06098 -1.06008 -1.05882 -1.05648 -1.05097 -1.06692 -1.05235 -1.0664 -1.06411 -1.06855 -1.06973 -1.07091 -1.07161 -1.06935 -1.06375
internal_weight=0 235.325 219.049 114.272 104.777 46.4547 29.8395 219.388 208.198 108.507 82.3978 50.8628 34.5867 99.6911 81.0414 86.1277 75.9551 63.409 43.0639 28.1441 31.535 23.3969 58.3227 28.4832 29.8395 26.1096 70.5298 60.3572 23.736 20.3451
internal_count=1341 694 646 337 309 137 88 647 614 320 243 150 102 294 239 254 224 187 127 83 93 69 172 84 88 77 208 178 70 60
is_linear=0
shrinkage=1


Tree=3
num_leaves=29
num_cat=0
split_feature=0 2 3 2 1 1 1 10 1 2 1 4 2 10 4 6 0 1 8 1 1 1 4 0 0 1 6 0
split_gain=26.4137 19.2886 16.5922 26.6779 16.7265 12.2443 10.6633 13.3176 9.83554 10.5678 8.45066 8.25268 5.40398 5.37778 10.6228 7.0242 6.23429 5.33737 9.05074 5.23156 5.05242 3.84851 3.82324 3.67408 3.33787 4.60344 0.435321 0.412629
threshold=0.82275000000000009 -0.00051099999999998358 -0.00090666666666672213 -7.5999999999964971e-05 0.00063199999999991052 -9.7500000000028106e-05 -0.00044000000000005141 0.006307142857142861 0.00053149999999996267 0.00049499999999985677 0.00023650000000008389 0.0016975000000000187 0.0010080000000000091 0.0063214285714285777 -0.00049749999999992845 -0.0059677777777777377 0.77840000000000009 0.00033349999999998664 53.456190325013125 0.00028349999999993663 -0.00019200000000002546 0.00032900000000007928 -0.00014500000000000621 0.76345000000000007 0.76480000000000015 -0.00015650000000005934 0.013060722222222211 0.74215000000000009
decision_type=2 2 2 2 2 2 2 2 2 2 2 2 2 2 2 2 2 2 2 2 2 2 2 2 2 2 2 2
left_child=1 6 20 10 5 -5 23 -8 9 13 -4 12 -6 14 -3 -16 21 26 -19 -11 -2 22 -17 -1 27 -26 -7 -15
right_child=2 8 3 4 11 17 7 -9 -10 19 -12 -13 -14 24 15 16 -18 18 -20 -21 -22 -23 -24 -25 25 -27 -28 -29
leaf_value=-0.0040992994082091547 0.00067303272582339201 0.0081732928900563433 0.019783594063858687 0.0091866967887327729 0.0090746619923567778 -0.0047944739456118645 0.017349711564305897 0.0021610515170797048 -0.0084718373678138413 -0.00026092826312373938 0.0075835448579232526 0.014687195186669971 -0.0014024642832694645 -0.0091163103390430964 0.0037903173785405809 -1.2411581209056974e-05 0.003067204190440554 -0.0069131877109917588 0.0062739666972102537 0.010354012285691336 -0.0090718281372288174 0.0010568567270700638 -0.0062174782164719049 0.0030651567259729067 -0.0079313966507244919 0.0014128872160304269 -0.0082187238703158409 -0.0062232024671116668
leaf_weight=13.876773208379747 9.9672857522964495 9.6548823416233045 13.659468561410906 9.6596399247646314 10.264631122350698 9.3377997577190417 10.032116353511812 13.905562758445738 28.876251935958862 9.0309219658374804 10.582911670207976 12.419593393802641 9.0619890689849836 16.25823470950127 14.472743660211561 12.039544761180876 12.073472023010252 9.3372686207294482 11.485380142927168 9.0732116103172284 10.863885432481764 10.56586444377899 66.840218782424927 14.504063129425047 9.0364435911178607 12.08180049061775 11.727604627609251 13.841262131929396
leaf_count=46 33 32 45 32 34 31 33 46 96 30 35 41 30 54 48 40 40 31 38 30 36 35 222 48 30 40 39 46
internal_value=0 -0.00174208 0.00374624 0.00533237 0.00262286 -0.000878133 0.00371099 0.00861381 -0.00302217 -0.00220598 0.0145518 0.00832387 0.00412867 -0.00295491 -0.00182728 -0.00267464 -0.00360896 -0.00323931 0.000308024 0.00503166 -0.0043804 -0.0045237 -0.00528427 -0.000404877 -0.00569275 -0.00255692 -0.00677791 -0.00784404
internal_weight=0 276.163 128.367 107.536 83.2939 51.5477 52.3185 23.9377 223.845 194.969 24.2424 31.7462 19.3266 176.864 125.647 115.992 101.519 41.8881 20.8226 18.1041 20.8312 89.4456 78.8798 28.3808 51.2177 21.1182 21.0654 30.0995
internal_count=1341 916 425 356 276 171 173 79 743 647 80 105 64 587 417 385 337 139 69 60 69 297 262 94 170 70 70 100
is_linear=0
shrinkage=0.01


Tree=4
num_leaves=31
num_cat=0
split_feature=5 1 9 0 4 0 8 4 9 1 1 0 3 0 4 2 3 8 2 9 8 5 0 2 8 0 9 1 3 3
split_gain=16.3734 16.9666 13.2246 10.1137 7.90523 7.17026 6.98252 6.94786 6.54294 6.30692 9.95543 11.4608 6.83307 6.70002 6.28566 8.91923 5.78516 6.7119 5.3443 4.36533 4.17241 4.06548 3.94658 2.97358 2.81731 2.70154 2.69659 2.58118 2.57048 2.521
threshold=0.0004388888888888221 0.00045149999999993812 0.19874685613096876 0.81805000000000005 -0.0012549999999999504 0.74765000000000015 68.613025667473991 0.00074000000000001853 0.027917853441039663 0.00023300000000009427 -0.00015650000000005934 0.74215000000000009 0.00027499999999991426 0.79565000000000008 -0.00066750000000009846 -0.00037600000000004291 0.00069166666666670162 71.455803356348014 6.1999999999950997e-05 0.21469893154489122 26.228300287171724 0.00071666666666669887 0.77255000000000007 0.00041800000000002951 57.420961060892758 0.76875000000000016 0.13228446760280679 0.00032549999999992313 -3.6666666666629315e-05 0.00091499999999999926
decision_type=2 2 2 2 2 2 2 2 2 2 2 2 2 2 2 2 2 2 2 2 2 2 2 2 2 2 2 2 2 2
left_child=3 2 5 7 20 24 29 9 -8 10 11 -1 14 28 -12 -16 17 21 -17 23 -5 -7 -20 -6 -2 -4 27 -11 -13 -3
right_child=1 6 25 4 19 16 8 -9 -10 26 12 13 -14 -15 15 18 -18 -19 22 -21 -22 -23 -24 -25 -26 -27 -28 -29 -30 -31
leaf_value=0.0051062969798511635 0.0047589282142973801 -0.0031730551381938497 -0.0044804543677794397 -0.0030879113008542647 -0.0089383416097459974 0.0064838757432552985 0.0063954661692297732 0.0072295748294270261 -0.0028004090765197105 -0.003073262272001403 0.0066130040646603617 -0.0090180100019412821 0.0081018887988272073 0.00038711426374756007 -0.008640642897979476 0.0069852195572376362 0.0023911373846115412 0.0040105584395869137 0.0019457136715435824 -0.0001430553735236348 0.0052759647718390928 0.014044917937104068 -0.0053654043620489922 -0.0037735163851506325 -0.0016538325568736985 0.0016287857297829101 -0.00012354162562628541 -0.0096450557268182302 -0.0029545740090581025 -0.0095527514895014272
leaf_weight=14.449519425630568 14.789428651332857 16.177213907241825 14.77026626467705 13.361885577440264 36.17126202583313 10.941084295511244 13.371912926435472 11.62060499191284 17.939361959695816 13.353387385606768 15.499548584222792 25.64044377207756 16.916737139225006 16.179071426391602 10.886174261569975 12.336949974298475 15.163392603397368 16.211847543716431 19.704675942659382 10.547641277313231 10.556925445795057 26.129691898822784 11.603093802928923 17.586932420730591 12.315110772848127 13.719845831394194 10.539853096008299 11.938384890556334 10.544925481081007 10.887446463108061
leaf_count=41 42 46 42 38 103 31 38 33 51 38 44 73 48 46 31 35 43 46 56 30 30 74 33 50 35 39 30 34 30 31
internal_value=0 0.00234577 0.00443939 -0.00147862 -0.0043002 0.00622291 -0.00208577 -0.000234966 0.00110284 -0.000701327 0.000173757 -0.00271965 0.00240924 -0.00490383 0.00101025 -0.000573126 0.0079494 0.00950501 0.00143142 -0.00612476 0.000568573 0.0118637 -0.000740505 -0.00727739 0.00181312 -0.00150807 -0.00447436 -0.00624047 -0.00729161 -0.00580198
internal_weight=0 182.417 124.041 289.438 88.2246 95.5506 58.3759 201.213 31.3113 189.593 153.761 66.814 86.9472 52.3644 70.0304 54.5309 68.446 53.2826 43.6447 64.3058 23.9188 37.0708 31.3078 53.7582 27.1045 28.4901 35.8316 25.2918 36.1854 27.0647
internal_count=1341 518 352 823 251 271 166 572 89 539 437 190 247 149 199 155 194 151 124 183 68 105 89 153 77 81 102 72 103 77
is_linear=0
shrinkage=0.01


Tree=5
num_leaves=31
num_cat=0
split_feature=10 1 3 8 2 2 9 2 1 4 2 1 2 8 5 10 4 1 4 3 4 8 10 4 8 9 5 2 8 10
split_gain=26.0364 22.8047 16.615 11.506 9.05701 8.77241 12.6421 7.97864 9.61354 9.04938 19.3941 13.6141 6.64618 6.64305 10.0648 10.788 6.10275 6.15143 5.4411 4.95305 4.47283 4.39424 3.83941 2.96681 2.49748 2.47807 2.25209 2.34969 3.56545 2.24617
threshold=0.0036749999999999999 0.00014300000000000426 0.00025333333333327218 21.128187812191523 0.0013090000000000603 0.00075900000000000978 0.19409564789201147 -0.00069299999999999906 -0.00024600000000002392 0.00047500000000005876 -7.5999999999964971e-05 -0.000415499999999902 0.00027699999999997177 33.397352265341866 0.00026666666666669286 0.007507142857142852 0.00039500000000003427 0.00040800000000001951 0.0011125000000000165 -0.00068833333333334623 0.00090499999999998925 51.437399799429215 0.0065392857142857128 -0.0013299999999999976 44.093566591222007 -0.10212393467430321 0.00050000000000000055 -4.5000000000072753e-05 55.213178476704321 0.0095857142857142946
decision_type=2 2 2 2 2 2 2 2 2 2 2 2 2 2 2 2 2 2 2 2 2 2 2 2 2 2 2 2 2 2
left_child=-1 3 13 23 5 6 12 24 9 10 11 -9 -4 29 21 -16 -14 -18 -7 -10 26 22 -15 -2 -5 -23 27 -21 -29 -3
right_child=1 2 4 7 -6 18 -8 8 19 -11 -12 -13 16 14 15 -17 17 -19 -20 20 -22 25 -24 -25 -26 -27 -28 28 -30 -31
leaf_value=0.012372562679710731 0.006018895094430197 -0.0032071331340265173 0.0059531210887812901 -0.0090899080130716885 -0.0075167985239652495 0.0090752939002711006 -0.0074884624012357803 0.006000567914994215 0.00074616971865787201 -0.0050686885767962254 0.014462959138525744 -0.0084729983036213596 -0.0064710448367250508 0.017048409423167363 -0.0043208450022439041 0.0084938327599589098 -0.0030639423073909101 0.0061195054253087838 0.00079512927526774154 -0.0080108654706722189 0.00055227450427701159 0.0095393711278014808 0.0083179399369735715 -0.00055330649059601449 -0.0031431754134156422 0.0024383981589634926 -0.0095089327223359006 -0.00049451247829522798 -0.0075778151553509091 0.0033973004038711134
leaf_weight=16.295209258794785 15.944030910730364 10.192184925079347 19.705416083335876 30.092328131198883 15.884445756673811 15.975388288497923 23.031553536653519 12.880686163902281 14.56166288256645 17.947505414485931 11.238844007253645 12.871228873729708 13.905742228031157 10.897624850273134 13.898934572935106 12.212662667036055 14.237667202949526 14.605574101209639 16.287167757749557 19.599012225866314 10.160995513200758 10.535248011350633 11.228157103061674 11.530703186988829 10.156548321247099 10.18789568543434 18.598536252975464 17.643247395753868 12.20440089702606 10.193143427371977
leaf_count=48 47 30 58 89 47 47 68 38 43 53 33 38 41 32 41 36 42 43 48 58 30 31 33 34 30 30 55 52 36 30
internal_value=0 -0.000462642 0.00177603 -0.00278415 -0.000449549 0.000500917 -0.00116709 -0.00367019 -0.00258118 0.000717725 0.00355829 -0.00119967 0.00115633 0.00511274 0.00659354 0.0016441 -0.00104018 0.00155688 0.00494148 -0.00454427 -0.0055418 0.00957552 0.0127203 0.00323238 -0.00762558 0.00612489 -0.00646596 -0.00528433 -0.00343983 4.68869e-05
internal_weight=0 438.409 222.979 215.43 133.633 117.749 85.486 187.955 147.706 54.9383 36.9908 25.7519 62.4544 89.3459 68.9605 26.1116 42.749 28.8432 32.2626 92.7679 78.2062 42.8489 22.1258 27.4747 40.2489 20.7231 68.0452 49.4467 29.8476 20.3853
internal_count=1341 1293 657 636 394 347 252 555 436 162 109 76 184 263 203 77 126 85 95 274 231 126 65 81 119 61 201 146 88 60
is_linear=0
shrinkage=0.01


Tree=6
num_leaves=30
num_cat=0
split_feature=0 9 6 3 1 1 6 0 5 4 0 0 5 0 7 1 4 1 7 0 5 1 4 7 5 9 4 6 1
split_gain=25.9865 17.009 16.6601 16.2818 24.0182 13.7114 11.0214 10.6444 12.241 21.9277 10.5248 17.019 15.2497 7.88232 5.97206 5.45296 5.26537 5.15545 7.2128 10.9664 5.28644 5.00249 3.84561 3.25615 2.89106 1.81307 3.04511 1.78164 0.293535
threshold=0.82275000000000009 0.37402272011830601 -0.0029541111111110459 -0.00090666666666672213 -9.7500000000028106e-05 0.00033700000000008728 0.0069258333333333541 0.74070000000000014 4.99999999999945e-05 -0.00086500000000011557 0.91005000000000014 0.86835000000000007 0.0011111111111111185 0.83615000000000006 -88.973037999999988 -0.00039199999999994789 0.00014249999999998988 0.00053149999999996267 -3.7955574999999997 0.77840000000000009 0.00093333333333328616 -0.00019200000000002546 0.00018500000000004627 -78.337764999999976 5.555555555553094e-05 -0.13100918791713945 -0.00014500000000000621 0.0097435000000000178 0.00022850000000007589
decision_type=2 2 2 2 2 2 2 2 2 2 2 2 2 2 2 2 2 2 2 2 2 2 2 2 2 2 2 2 2
left_child=1 2 7 21 22 6 -6 -1 9 14 11 13 -12 -7 -9 -10 -3 18 19 20 25 -2 -5 -11 -20 -4 -27 -28 -8
right_child=3 16 17 4 5 10 28 8 15 23 12 -13 -14 -15 -16 -17 -18 -19 24 -21 -22 -23 -24 -25 -26 26 27 -29 -30
leaf_value=-0.0081513513060947271 0.00066706919012738883 0.011608791265943542 -0.0088334325302160017 0.019834249039728021 0.0059691383648115982 0.00026127483879315123 -0.0090051908434902947 0.0054593325836506694 -0.0066548474155557836 0.008943689712910579 0.021052588204979954 -0.0053427209916046634 0.0026397244240439987 0.011794571683149126 -0.0044273404432654687 0.0017235018925675343 0.0016591903803672471 -0.00839274292019415 0.0049115324174128202 0.0027123351073101978 0.00073678861588349909 -0.0090405315043306286 0.010611225459948007 0.016997779040786639 -0.0016680423329266463 -0.00082243406485456132 -0.0081520937237355255 -0.003035051127187586 -0.0057023780542003674
leaf_weight=11.104068279266356 9.970885097980501 10.910819470882418 31.767224758863449 9.4958132207393664 9.0833483934402484 9.3560683429241198 9.00464114546776 9.3970196247100812 16.226159960031513 13.060679644346239 9.1244474649429339 15.718712687492369 9.1158689558505994 16.981755346059799 16.897553682327271 14.479615181684492 10.884444564580916 26.9511998295784 11.186152786016466 16.610263615846634 9.9266766011714918 10.806138694286345 10.948803246021269 9.7760537564754504 15.989200472831724 10.832470715045927 29.996643275022507 9.9116584658622724 8.9967367649078351
leaf_count=37 33 36 106 31 30 31 30 31 54 43 30 52 30 56 56 48 36 90 37 55 33 36 36 32 53 36 100 33 30
internal_value=0 -0.00173033 -0.00246105 0.00371083 0.00527652 0.002971 -0.00290771 0.000959138 0.00224738 0.00534557 0.00562866 0.00283296 0.0119696 0.00775187 -0.000848908 -0.00267872 0.00671595 -0.00437279 -0.00356454 -0.00471404 -0.00606083 -0.00435308 0.0150194 0.0124942 0.00101171 -0.00689067 -0.00563972 -0.00691698 -0.00745038
internal_weight=0 275.908 254.113 128.603 107.826 87.3816 27.0847 90.9412 79.8371 49.1313 60.2969 42.0565 18.2403 26.3378 26.2946 30.7058 21.7953 163.171 136.22 109.045 92.4347 20.777 20.4446 22.8367 27.1754 82.508 50.7408 39.9083 18.0014
internal_count=1341 916 844 425 356 289 90 301 264 162 199 139 60 87 87 102 72 543 453 363 308 69 67 75 90 275 169 133 60
is_linear=0
shrinkage=0.01


Tree=7
num_leaves=31
num_cat=0
split_feature=5 1 9 6 1 4 2 2 1 1 3 9 10 2 4 9 1 10 5 1 1 2 9 9 1 10 4 5 6 10
split_gain=16.0653 16.6325 13.0266 8.9593 6.68032 7.83119 6.29829 5.69164 5.2964 11.7814 10.2569 8.23084 7.31898 7.12181 8.2471 7.50228 7.01229 5.09795 4.73402 9.19267 5.70926 4.42616 4.29682 8.11518 4.70388 4.36415 4.01399 3.74735 3.30347 2.18822
threshold=0.0004388888888888221 0.00045149999999993812 0.19874685613096876 0.023775333333333374 0.00085700000000005227 0.0010624999999999665 -0.00069299999999999906 -0.00026200000000003992 0.00023100000000014778 -0.00015650000000005934 -0.0012749999999999704 0.21635696183432349 0.0036749999999999999 -0.00035700000000005167 -0.00066750000000009846 -0.13600364743261559 0.00014300000000000426 0.0059964285714285736 -0.0010944444444445087 -0.00030900000000005917 -0.00051050000000002471 0.00034799999999995951 -0.18754415373604608 -0.0036401560397842894 0.00030000000000007804 0.0059178571428571422 0.00013000000000001902 0.00012222222222219028 0.0066759444444444713 0.0053035714285714327
decision_type=2 2 2 2 2 2 2 2 2 2 2 2 2 2 2 2 2 2 2 2 2 2 2 2 2 2 2 2 2 2
left_child=8 2 6 -3 5 -5 -2 -8 9 10 -1 21 -11 14 -14 28 17 26 -12 20 -20 27 -9 25 -25 -24 -17 -10 -15 -4
right_child=1 3 29 4 -6 -7 7 22 11 12 18 -13 13 15 -16 16 -18 -19 19 -21 -22 -23 23 24 -26 -27 -28 -29 -30 -31
leaf_value=0.0034623019280062778 0.013455985846699929 -0.0085757564319453913 -0.0050214937134001646 -0.003180605800916531 -0.0048588206524209157 0.0077037246190090683 -0.0011922650040612382 0.01141779339069149 -0.0091138768898760599 -0.0059287840164219362 -0.0080269975968828237 0.0034495520309856184 0.0042244360242064257 0.012517894474826713 -0.0073943301998106508 0.002871019804212822 -0.0039981185161603629 -0.0011066149811577997 -0.0051782919859794593 -0.0083710166388217717 0.0036829941903139714 -0.0022569976073137116 0.0061155978631812777 0.01144644027716598 0.0033642954283464106 -0.0019847858581560655 0.011674552778447289 -0.0019631141465911266 0.0047169627171795483 0.00062187129964400868
leaf_weight=18.997835457324982 10.625633686780928 15.441251218318937 10.897253513336183 10.8865984082222 15.801276534795759 16.204522520303726 11.647318929433821 13.432002544403074 28.021564811468124 10.895700782537459 27.68973097205162 14.067107349634169 11.283474773168566 12.366480797529222 12.963453620672224 10.937327086925508 13.709021121263502 10.557535380125044 11.239016652107241 18.58008548617363 20.073531240224838 35.843802154064178 10.588177323341364 20.160547286272056 11.984284549951552 17.291145086288452 10.603335112333296 10.522150635719298 10.925634533166884 17.596391409635544
leaf_count=54 30 44 31 31 45 46 33 38 80 31 79 40 32 35 37 31 39 30 32 53 57 102 30 57 34 49 30 30 31 50
internal_value=0 0.00232207 0.00439195 -0.00206864 0.000265165 0.00329746 0.00615926 0.00522177 -0.00146568 -0.000561062 -0.00307958 -0.00350522 0.00176348 0.00267743 -0.00195124 0.00431656 0.00193088 0.00449874 -0.00469678 -0.0028162 0.000464218 -0.0048367 0.00625262 0.00506308 0.00848403 0.00106675 0.00728467 -0.00719778 0.00893727 -0.00151145
internal_weight=0 182.556 124.223 58.3336 42.8924 27.0911 95.7291 85.1035 289.277 200.822 96.5802 88.4546 104.242 93.3463 24.2469 69.0993 45.8072 32.0982 77.5824 49.8926 31.3125 74.3875 73.4562 60.0242 32.1448 27.8793 21.5407 38.5437 23.2921 28.4936
internal_count=1341 518 352 166 122 77 271 241 823 571 275 252 296 265 69 196 130 91 221 142 89 212 208 170 91 79 61 110 66 81
is_linear=0
shrinkage=0.01


Tree=8
num_leaves=31
num_cat=0
split_feature=7 7 9 0 2 4 7 0 0 3 8 1 0 0 7 2 7 8 2 2 3 0 7 4 4 3 1 2 0 2
split_gain=32.1583 21.7531 12.4033 10.4187 13.716 14.7453 14.2429 10.8937 8.91982 8.84087 8.3844 9.9786 7.46062 7.42493 6.55237 6.32624 5.89315 5.53418 22.3581 7.27768 4.92962 4.88585 4.48833 4.17213 3.53433 4.56166 8.54764 9.289 5.26789 3.16445
threshold=-38.215772499999993 41.177929000000006 0.087986205884724292 0.77775000000000005 -8.4000000000028483e-05 0.00038999999999989049 -84.475286999999994 0.7531500000000001 0.91995000000000016 -0.00059833333333336725 48.634669771576334 2.5500000000011628e-05 0.88560000000000005 0.83945000000000014 49.885260000000009 3.4999999999951743e-05 -77.573870999999983 57.815639742113312 -0.00025699999999984064 -0.0012420000000000206 0.00029666666666666735 0.73895000000000011 -88.042176999999995 0.00023749999999994611 -0.00046749999999995401 0.00026833333333331494 0.00017400000000000751 0.00010300000000018629 0.73625000000000018 0.00039800000000006502
decision_type=2 2 2 2 2 2 2 2 2 2 2 2 2 2 2 2 2 2 2 2 2 2 2 2 2 2 2 2 2 2
left_child=3 2 8 4 6 10 7 22 13 -4 16 -12 14 24 -3 -11 -6 18 19 -5 -17 -22 -1 -19 -2 26 -26 -28 29 -27
right_child=1 12 9 17 5 -7 -8 -9 -10 15 11 -13 -14 -15 -16 20 -18 23 -20 -21 21 -23 -24 -25 25 28 27 -29 -30 -31
leaf_value=0 0.0016254284980370621 -0.0062260089450673533 0.0075914203151479908 -0.0002127886051619151 0.0061000191599688818 -0.0053331423176612418 -0.0093342994893549202 0.0068041451401522554 -0.0026995560276142868 -0.0081192581691878225 0.016261771317251449 0.0032658128861108387 -0.009991615043537426 0.012377792530633241 0.0048731915544543095 0.0061936813188088859 -0.0043281593224613899 -0.0021999508639811102 0.0068318150970209717 -0.0094186783932902682 -0.0055655532571097024 0.002260148117781911 -0.0090067366505543912 -0.0097494797117807144 0.0014641201275231786 0.0053034704971133464 0.005186567404353676 0.018068554844367337 0.0084307702409694759 -0.0020092081298094654
leaf_weight=11.852511465549467 19.353549838066101 10.513527601957323 13.940921664237974 12.174459159374235 10.91175824403763 16.911683768033981 27.980650812387466 14.602965295314787 10.854588001966475 10.806837946176527 11.59441512823105 12.543683648109434 14.510656416416166 19.377882808446884 10.520756393671034 10.875069767236708 10.505022585391997 10.173014760017393 16.323955208063126 31.036100655794144 15.568984240293505 15.956361949443815 10.474313378334047 30.736905723810196 10.188634514808653 10.207034558057787 10.251001894474031 13.314067453145979 17.039133846759796 13.580249935388563
leaf_count=35 57 31 41 36 32 50 83 43 32 32 34 37 43 57 31 32 31 30 48 92 46 47 31 91 30 30 30 39 50 40
internal_value=0 0.00266446 0.00400195 -0.0026533 -0.000743916 0.0025894 -0.00396616 8.83389e-05 0.00587398 0.000521864 0.00555769 0.00959084 -0.00449733 0.00670575 -0.000630395 -0.00132245 0.000942135 -0.00506156 -0.00307988 -0.00685451 0.000401391 -0.00157838 -0.00427033 -0.00790648 0.00551309 0.00650502 0.00924929 0.0125526 0.00419467 0.00109584
internal_weight=0 226.859 191.314 227.821 127.377 62.4666 64.9104 36.9298 124.166 67.1482 45.5549 24.1381 35.5449 113.312 21.0343 53.2073 21.4168 100.444 59.5345 43.2106 42.4004 31.5253 22.3268 40.9099 93.9337 74.5801 33.7537 23.5651 40.8264 23.7873
internal_count=1341 668 563 673 376 184 192 109 365 198 134 71 105 333 62 157 63 297 176 128 125 93 66 121 276 219 99 69 120 70
is_linear=0
shrinkage=0.01


Tree=9
num_leaves=30
num_cat=0
split_feature=0 2 9 3 2 1 1 1 10 7 4 1 3 0 9 10 3 2 1 0 0 7 0 2 1 3 7 7 10
split_gain=25.5506 18.6934 16.0662 15.9506 25.5334 16.1585 11.7965 10.2104 12.6953 9.79944 7.93886 7.84571 7.18816 8.39863 6.74384 5.22305 7.41668 5.0731 4.93886 3.54409 2.93225 4.69658 2.76435 3.79012 2.73844 2.08021 0.388133 1.04475 0.208158
threshold=0.82275000000000009 -0.00051099999999998358 0.19409564789201147 -0.00090666666666672213 -7.5999999999964971e-05 0.00063199999999991052 -9.7500000000028106e-05 -0.00044000000000005141 0.006307142857142861 9.3134475000000023 0.0014425000000000134 0.00023650000000008389 0.0003216666666666646 0.75725000000000009 0.21785149510554136 0.0063214285714285777 -0.0001950000000000007 0.00032800000000005053 -0.00019200000000002546 0.76345000000000007 0.7763500000000001 -81.146973499999987 0.74765000000000015 0.00043399999999987898 0.00034349999999999664 0.0004583333333332274 -73.528228499999983 14.516855000000001 0.0055857142857142937
decision_type=2 2 2 2 2 2 2 2 2 2 2 2 2 2 2 2 2 2 2 2 2 2 2 2 2 2 2 2 2
left_child=1 7 15 18 11 6 -6 19 -9 12 -7 -5 13 -4 24 16 -3 20 -2 -1 21 -18 23 -17 -8 -19 -24 -28 -23
right_child=3 2 9 4 5 10 14 8 -10 -11 -12 -13 -14 -15 -16 22 17 25 -20 -21 -22 28 26 -25 -26 -27 27 -29 -30
leaf_value=-0.0040468762433578508 0.00065469091538458831 0.0030763424789266268 -0.0048607022576193934 0.019153551153049696 0.0089286522826744468 0.0030697701910051074 -0.0079928870629680602 0.016846575934331968 0.0020927334994925101 -0.006960126133639599 0.013141978105920866 0.007451073417145993 0.01124420833564675 0.0059994196932609866 0.004006383414255116 -0.006852995299550693 -0.00030417292077897581 0.0033805959943855814 -0.0090033914248982393 0.0029913006028431128 -0.00061035607634600758 -0.0084991701724817046 -0.0091036490421022003 0.0013324195628227546 -0.0019726348263597389 -0.0030153116393367941 -0.0044773088878197875 -0.0085098325522063797 -0.0061722702964572065
leaf_weight=13.809340476989748 9.9786005616188067 16.921923786401749 11.754752188920977 13.908855050802233 9.7636231780052167 16.086145609617233 18.221688121557236 10.1888984143734 13.959878444671629 9.6075051724910718 15.915008872747419 10.64493742585182 10.616428852081297 17.575001090764999 9.688240319490431 13.477132201194765 10.20991414785385 10.210577785968782 10.736591100692747 14.562719315290449 10.550579339265822 31.928845554590225 19.754264146089554 9.3475432395935041 13.896770268678663 9.8946081101894361 12.93259832262993 17.870498269796371 10.463824182748793
leaf_count=46 33 56 39 45 32 53 61 33 46 32 52 35 35 58 32 45 34 34 36 48 35 107 66 31 46 33 43 60 35
internal_value=0 -0.00171822 -0.00298412 0.00367457 0.00521845 0.00256225 -0.000885797 0.00363596 0.00840274 0.00202099 0.00813543 0.0141715 0.00421801 0.0016112 -0.00321758 -0.00441922 -0.00291158 -0.00414282 -0.00432221 -0.000401403 -0.00553424 -0.00649982 -0.00645708 -0.00346596 -0.00543334 0.000184064 -0.0077782 -0.00686911 -0.00796423
internal_weight=0 275.637 223.116 128.84 108.125 83.5715 51.5703 52.5208 24.1488 49.5537 32.0012 24.5538 39.9462 29.3298 41.8067 173.562 100.18 83.2583 20.7152 28.3721 63.1532 52.6026 73.382 22.8247 32.1185 20.1052 50.5574 30.8031 42.3927
internal_count=1341 916 743 425 356 276 171 173 79 164 105 80 132 97 139 579 334 278 69 94 211 176 245 76 107 67 169 103 142
is_linear=0
shrinkage=0.01


Tree=10
num_leaves=31
num_cat=0
split_feature=7 5 10 2 10 0 0 2 10 9 0 1 2 4 1 7 10 10 1 7 4 10 10 9 4 10 4 7 2 10
split_gain=22.1555 27.5626 14.0197 11.8292 9.20743 15.7886 12.3775 13.242 9.55597 8.50549 9.82428 7.50012 7.24695 5.90513 5.88653 7.70969 5.48909 5.20151 10.1494 4.76149 7.14287 6.07857 5.89917 4.33164 3.94453 3.37169 2.97746 2.73339 2.53173 2.34575
threshold=-18.991891999999996 -3.3333333333274144e-05 0.0036749999999999999 0.00034799999999995951 0.0073428571428571484 0.78390000000000015 0.76790000000000014 -1.4000000000014e-05 0.0046678571428571533 -0.13600364743261559 0.74215000000000009 0.00030000000000007804 0.0014650000000000498 -0.00066750000000009846 -0.00017600000000000946 -72.997099999999989 0.0058785714285714205 0.0061035714285714348 -0.00019950000000001908 49.885260000000009 0.00094499999999980721 0.010010714285714302 0.012296428571428561 0.14708009763433808 0.00066750000000004317 0.0094928571428571501 0.00058750000000001867 6.1259625000000009 0.00054699999999990878 0.0051714285714285655
decision_type=2 2 2 2 2 2 2 2 2 2 2 2 2 2 2 2 2 2 2 2 2 2 2 2 2 2 2 2 2 2
left_child=1 9 -3 13 5 6 7 16 -8 17 -11 -5 19 27 25 -16 -4 -1 -19 20 22 -22 24 -15 28 -12 -6 -2 -13 -9
right_child=3 2 4 11 26 -7 8 29 -10 10 14 12 -14 23 15 -17 -18 18 -20 -21 21 -23 -24 -25 -26 -27 -28 -29 -30 -31
leaf_value=-0.0019077203516254097 -0.0051514013666322167 -0.0058971712332995738 -0.0064346395565560476 0.0066957665534991854 0.012860323090158297 -0.0063714333316242915 0.0040735332006720847 0.0040716088470506328 0.01523470370486615 0.0040553640537506269 -0.0090979922945062901 -0.0038492790781573293 0.0056543207201505798 -0.0088570484582493701 0.002234196311122762 -0.0078942571558149651 0.0028830613659992926 -0.00022116793602838133 0.012558271028381713 -0.0085760344874304326 0.0073008940751815715 -0.0025308082787622861 0.0025942661442398753 -0.0029000274780466174 -0.00082956731740601621 -0.0030496199671146223 0.0060231755844072235 0.0012437054079038696 -0.010481300745061232 0.010027699669649009
leaf_weight=17.235685050487518 11.224386990070345 10.878412038087843 14.444460719823836 13.080560177564619 20.585925638675693 11.966296046972273 13.410642385482786 12.72085970640183 19.118283569812775 15.494695037603377 28.312481760978699 10.523322194814684 12.712859392166136 41.610498785972595 20.780612647533417 11.580072671175001 10.932699531316755 14.430050969123842 10.616273880004881 10.845573455095289 13.766425877809526 11.23796498775482 11.234322041273115 18.251010805368423 12.305616617202757 14.714609980583189 10.617281168699263 15.835467994213102 15.068984985351561 16.260342448949814
leaf_count=49 32 31 41 37 58 34 38 36 54 44 81 30 36 119 59 33 31 41 30 31 39 32 32 52 35 42 30 45 43 46
internal_value=0 0.00184013 0.00492258 -0.00255091 0.0058391 0.00431939 0.00580888 0.00285498 0.0106905 -0.00141594 -0.00314332 -0.000373341 -0.00133594 -0.00531097 -0.00463955 -0.00137256 -0.00238568 0.00227202 0.00518423 -0.00239881 -0.00147133 0.00284982 -0.00369209 -0.00706537 -0.00558383 -0.0070646 0.0105925 -0.00138136 -0.00781879 0.00747074
internal_weight=0 274.1 140.935 197.697 130.057 98.8536 86.8873 54.3584 32.5289 133.164 90.8825 110.776 97.6951 86.9214 75.3878 32.3607 25.3772 42.282 25.0463 84.9822 74.1366 25.0044 49.1322 59.8615 37.8979 43.0271 31.2032 27.0599 25.5923 28.9812
internal_count=1341 778 399 563 368 280 246 154 92 379 259 315 278 248 215 92 72 120 71 242 211 71 140 171 108 123 88 77 73 82
is_linear=0
shrinkage=0.01


Tree=11
num_leaves=31
num_cat=0
split_feature=7 7 5 3 9 8 0 3 0 0 5 7 0 1 6 6 7 5 0 6 6 0 3 3 7 6 6 5 5 1
split_gain=31.6142 21.3935 17.8411 15.4219 12.1314 12.0481 8.71073 8.66938 7.37143 7.24872 7.11526 6.46462 6.17562 5.62698 5.35433 8.2539 8.77425 4.19463 4.29571 3.99377 10.237 6.33144 4.80967 4.36334 3.01564 4.24511 2.66841 2.60853 2.43288 1.0732
threshold=-38.215772499999993 41.177929000000006 0.00051666666666666538 -0.00032000000000004242 0.087986205884724292 21.128187812191523 0.91995000000000016 -0.00059833333333336725 0.88560000000000005 0.83945000000000014 -0.00098333333333339135 49.885260000000009 0.75690000000000013 0.00023100000000014778 0.010511055555555595 0.0074195555555555135 -80.24930049999999 0.0017277777777777727 0.82960000000000012 0.012575166666666639 0.0050831111111110947 0.80080000000000007 0.00035666666666672736 0.00073499999999998577 -84.014423499999978 -0.031541333333333303 0.0080787777777777698 0.00073333333333341921 -1.0000000180025095e-35 -0.00049799999999994282
decision_type=2 2 2 2 2 2 2 2 2 2 2 2 2 2 2 2 2 2 2 2 2 2 2 2 2 2 2 2 2 2
left_child=2 4 3 5 6 -1 9 -6 11 19 -5 -3 -4 14 15 16 -12 18 26 20 21 -2 -21 -24 25 -7 -9 -28 -18 -14
right_child=1 8 12 10 7 24 -8 17 -10 -11 13 -13 29 -15 -16 -17 28 -19 -20 22 -22 -23 23 -25 -26 -27 27 -29 -30 -31
leaf_value=0.0021224788483323997 0.010417041765103148 -0.0061991499751992852 -0.00071687053594365587 0.0092039924633391512 0.0075081150545255769 -0.0081009924554046146 -0.0026692157374572914 -0.0050549104965512794 -0.0099476970291738805 0.012221286192817966 0.0036940780111028122 0.0048252676392412167 -0.0060254267881556254 0.0064210578541486589 -0.0071018172785519721 0.0078545471291942472 -0.007880439380541962 0.0043963431627893233 -0.0081247014373013668 0.012754587894054335 -0.0020763225081671878 0.0010210564082206042 0.0010289362937208209 0.0088712614499071134 -0.0099993347635281629 0 0.0043948076529042 -0.0024333026860042092 -0.0016045168882789119 -0.0095075710906774077
leaf_weight=19.36708864569664 20.184599757194523 10.494817584753038 12.839868694543837 11.226059615612028 13.980333030223845 15.832793623209001 10.836834460496901 10.131415992975233 14.45171809196472 19.466534525156021 20.042838364839547 10.539754897356032 15.136713176965712 14.30776000022888 10.196704685688017 12.610213547945021 14.165750324726099 10.181713551282881 10.810549974441527 13.349972337484358 19.755867004394531 11.51676109433174 13.251350015401842 16.080620914697647 21.52315017580986 10.819646030664442 11.547532975673677 10.49990653991699 11.833937317132962 37.659990072250366
leaf_count=57 59 31 38 33 41 47 32 30 43 57 59 31 45 42 30 37 42 30 32 39 58 34 39 47 64 32 34 31 35 112
internal_value=0 0.00263914 -0.00263365 -0.000842425 0.00396285 -0.00449126 0.0058109 0.000519702 -0.00447069 0.00663025 0.00176017 -0.000631155 -0.00702942 0.000733406 -0.000441653 0.000709305 -0.00123876 -0.00130964 -0.00269133 0.00545175 0.00352889 0.00704897 0.00773291 0.00537783 -0.00716966 -0.00481834 -0.000815488 0.00110152 -0.00507932 -0.00854143
internal_weight=0 227.08 227.563 161.926 191.594 67.5427 124.443 67.1515 35.4863 113.606 94.3833 21.0346 65.6366 83.1572 68.8494 58.6527 46.0425 53.1711 42.9894 94.1392 51.4572 31.7014 42.6819 29.332 48.1756 26.6524 32.1789 22.0474 25.9997 52.7967
internal_count=1341 668 673 478 563 200 365 198 105 333 278 62 195 245 203 173 136 157 127 276 151 93 125 86 143 79 95 65 77 157
is_linear=0
shrinkage=0.01


Tree=12
num_leaves=29
num_cat=0
split_feature=2 9 7 3 2 9 7 1 2 9 7 5 8 2 3 7 8 4 7 8 5 7 2 7 9 9 8 1
split_gain=20.2209 21.9319 16.3307 15.7117 17.0051 8.32683 9.20448 10.3029 6.84744 5.49852 9.45335 8.05053 5.35399 4.95343 6.16418 5.71329 5.25641 4.92166 3.90601 3.42861 3.32768 3.30942 5.44933 3.63272 3.38144 2.46185 0.764031 0.258828
threshold=-0.00026200000000003992 0.37402272011830601 40.203278500000003 -0.00090666666666672213 -0.0010460000000000467 -0.23625865641111843 -87.046477499999995 -2.5000000000108266e-05 -0.0012030000000001204 0.19409564789201147 17.686818000000006 0.00057222222222219632 45.196692163780149 0.00051600000000001655 0.00082333333333345371 25.095082500000004 58.202209108506132 0.0013299999999999981 -78.337764999999976 75.849165536719141 0.00060555555555552598 -73.732524499999997 4.5000000000017255e-05 -70.015181999999982 0.094875951700103822 -0.19272247912014448 61.675788252231143 -0.00016949999999998908
decision_type=2 2 2 2 2 2 2 2 2 2 2 2 2 2 2 2 2 2 2 2 2 2 2 2 2 2 2 2
left_child=3 2 9 8 -5 12 -7 18 -1 13 11 -11 -6 19 15 16 -15 -4 -8 21 -3 26 -23 -24 -25 -10 27 -2
right_child=1 20 17 4 5 6 7 -9 25 10 -12 -13 -14 14 -16 -17 -18 -19 -20 -21 -22 22 23 24 -26 -27 -28 -29
leaf_value=0.0043005489990233714 -0.006629743605666075 0.0031770470220136176 0.0003913286540456941 0.017748203360551499 -0.0069112095884362535 -0.0015135402055621351 0.0082563232702875262 0.0022429809692838857 -0.00029153950534112626 -0.0013788262712144592 -0.0073283266493550381 0.0094243764178916535 0.0037849349441742394 0 -0.0059733738705971297 -0.004702868233699092 0.01029994603213613 0.0084113465082436452 0.016703407369637172 -0.00013360549913102142 0.010889455131012802 0.0015180980578452491 0 -0.0072100621655014742 -0.00054638847056965223 -0.0068365397483593163 -0.0046335139356684088 -0.0090966938801234857
leaf_weight=12.419762939214705 12.284405112266539 10.325278431177141 15.428437083959581 10.566981732845305 9.3334000706672686 11.777127414941786 11.859519898891447 16.381129950284961 9.0492812693119067 15.392358630895616 11.6559961438179 12.178530842065809 9.0852825939655286 10.820027083158498 16.09472131729126 9.2511367499828321 9.0915170907974225 15.657594710588453 12.136775732040403 14.415515482425688 13.74960684776306 13.843722701072691 10.770146220922468 51.820063024759293 9.3304058313369733 17.43760147690773 9.021484047174452 23.255216240882874
leaf_count=41 41 34 51 34 31 39 39 54 30 51 39 40 30 36 54 31 30 51 39 48 45 46 36 174 31 58 30 78
internal_value=0 -0.00145273 -0.00230105 0.00343992 0.00594554 0.00414156 0.00618373 0.00845173 -0.0017618 -0.00322615 0.000157766 0.00337381 -0.00158923 -0.00392977 -0.00101138 0.00170399 0.00473929 0.00447698 0.0126218 -0.00483405 0.00764993 -0.0053458 -0.00416242 -0.00527032 -0.00621219 -0.00464755 -0.00758658 -0.00829304
internal_weight=0 284.386 260.311 120.047 81.1402 70.5732 52.1546 40.3774 38.9066 229.225 39.2269 27.5709 18.4187 189.998 45.2574 29.1627 19.9115 31.086 23.9963 144.741 24.0749 130.325 85.7643 71.9206 61.1505 26.4869 44.5611 35.5396
internal_count=1341 946 867 395 266 232 171 132 129 765 130 91 61 635 151 97 66 102 78 484 79 436 287 241 205 88 149 119
is_linear=0
shrinkage=0.01


Tree=13
num_leaves=31
num_cat=0
split_feature=7 5 10 2 10 0 0 2 10 9 0 8 8 1 7 1 10 10 1 0 8 9 7 10 0 10 0 7 9 8
split_gain=21.7141 27.0535 13.7908 11.668 8.9825 15.5615 12.1327 13.0324 9.32934 8.34793 9.68847 7.57895 9.58165 5.80291 7.59623 5.78011 5.41967 5.08535 9.9489 4.69541 4.28224 5.77931 4.29392 3.34756 2.68586 2.29499 1.8855 1.80907 0.957143 0.325734
threshold=-18.991891999999996 -3.3333333333274144e-05 0.0036749999999999999 0.00034799999999995951 0.0073428571428571484 0.78390000000000015 0.76790000000000014 -1.4000000000014e-05 0.0046678571428571533 -0.13600364743261559 0.74215000000000009 35.194211553948982 68.613025667473991 -0.00017600000000000946 -72.997099999999989 0.00040800000000001951 0.0058785714285714205 0.0061035714285714348 -0.00019950000000001908 0.80015000000000014 21.128187812191523 0.14708009763433808 9.3134475000000023 0.0094928571428571501 0.7672500000000001 0.0051714285714285655 0.89695000000000014 -79.299915999999982 -0.059669948548562633 51.94573689290435
decision_type=2 2 2 2 2 2 2 2 2 2 2 2 2 2 2 2 2 2 2 2 2 2 2 2 2 2 2 2 2 2
left_child=1 9 -3 20 5 6 7 16 -8 17 -11 -5 15 23 -15 -13 -4 -1 -19 -14 -2 29 -23 -12 -17 -9 -21 -6 -26 -22
right_child=3 2 4 11 27 -7 8 25 -10 10 13 12 19 14 -16 24 -18 18 -20 26 21 22 -24 -25 28 -27 -28 -29 -30 -31
leaf_value=-0.0018929147130670241 0.00021517158679064833 -0.0058691633267040121 -0.0064053980961868871 0.0072271281300968163 0.008331571544119119 -0.0063461253349808297 0.0040364514374213482 0.0040349748518695447 0.015053164124853307 0.0040222242643688198 -0.0090515590437518032 0.00090845676152745457 0.0070547775111105713 0.0022080610673768822 -0.007851526759621235 -0.0018330124651961364 0.0028531417003723964 -0.0002369715429324024 0.012399563659170752 -0.0029490014146852581 -0.0069292932470240657 -0.0066503608590229996 0.0019272048481154469 -0.0030192776353946396 -0.0047709870565437141 0.0099231067477526542 0.0025650013854517364 0.013663850635139741 -0.0089016977540578284 -0.0089887224597116778
leaf_weight=17.224138736724854 11.910522699356077 10.863128453493117 14.423603892326353 11.620394080877302 19.189224958419803 11.950938403606413 13.426003396511076 12.735424399375921 19.197701185941696 15.51089835166931 28.231212615966797 17.977366596460342 14.496571779251097 20.798580080270767 11.552333623170851 12.628997772932051 10.943535208702086 14.438304722309114 10.657534688711165 11.910442113876345 25.154022634029388 10.510977715253832 12.635164469480513 14.694321453571318 10.513310223817824 16.304941564798355 12.698171794414518 12.115150809288023 18.888955593109134 26.542852818965912
leaf_count=49 34 31 41 33 54 34 38 36 54 44 81 51 41 59 33 36 31 41 30 34 72 30 36 42 30 46 36 34 54 76
internal_value=0 0.00182036 0.00487039 -0.00252752 0.00577732 0.00427594 0.00575163 0.00282636 0.0105761 -0.00140767 -0.00312103 -0.000365329 -0.00127196 -0.00460957 -0.00136647 -0.00378614 -0.00237642 0.00224306 0.00511765 0.00256048 -0.00527229 -0.00615803 -0.00193682 -0.00702164 -0.00581521 0.00739794 -6.441e-05 0.010464 -0.00747976 -0.00802129
internal_weight=0 274.257 141.15 197.488 130.287 98.9821 87.0312 54.4075 32.6237 133.107 90.7873 110.734 99.1138 75.2764 32.3509 60.0086 25.3671 42.32 25.0958 39.1052 86.7535 74.843 23.1461 42.9255 42.0313 29.0404 24.6086 31.3044 29.4023 51.6969
internal_count=1341 778 399 563 368 280 246 154 92 379 259 315 282 215 92 171 72 120 71 111 248 214 66 123 120 82 70 88 84 148
is_linear=0
shrinkage=0.01


Tree=14
num_leaves=31
num_cat=0
split_feature=10 1 3 0 1 8 4 2 1 4 2 1 0 9 8 0 3 1 0 1 8 0 10 3 2 3 2 0 4 0
split_gain=25.0094 21.6721 15.7538 12.5483 13.3185 11.0169 10.6706 7.78859 9.42621 8.69338 18.5298 13.4117 8.41399 7.57903 6.49476 6.91118 13.1035 6.67531 5.64587 5.59222 5.34561 4.25195 4.22864 4.05556 3.94385 9.38433 3.75154 3.11434 2.87142 2.55238
threshold=0.0036749999999999999 0.00014300000000000426 0.00025333333333327218 0.82960000000000012 0.00046699999999993974 21.128187812191523 0.0008225000000000594 -0.00069299999999999906 -0.00024600000000002392 0.00047500000000005876 -7.5999999999964971e-05 -0.000415499999999902 0.81320000000000014 0.053129867076710351 33.397352265341866 0.7531500000000001 -0.00014166666666659553 0.00040149999999994362 0.67300000000000015 0.00027749999999981961 53.456190325013125 0.79565000000000008 0.0087464285714285769 0.00041499999999994325 0.0012739999999999976 0.0013849999999999698 0.00039299999999997676 0.75985000000000014 0.00010499999999996625 0.79565000000000008
decision_type=2 2 2 2 2 2 2 2 2 2 2 2 2 2 2 2 2 2 2 2 2 2 2 2 2 2 2 2 2 2
left_child=-1 5 14 4 19 21 -6 29 9 10 11 -9 27 -14 -3 18 17 -17 -16 -4 -18 -2 -8 -21 25 26 -5 28 -10 -7
right_child=1 2 3 24 6 7 22 8 12 -11 -12 -13 13 -15 15 16 20 -19 -20 23 -22 -23 -24 -25 -26 -27 -28 -29 -30 -31
leaf_value=0.012071540093110568 0.0064740727831604991 0 0.0036646539728395705 -0.00026628122493668315 0.013880567115091209 -0.0035975521952247118 -0.0014307389170262433 0.0059777866613065535 -0.00020092650237372889 -0.0049538356524918689 0.014108851971888482 -0.008404847185212061 0.0045148708596602647 -0.0058879974196440234 0.0059584085671029888 0.0042486758328387046 0.0046773563358933632 0.015762224306264054 0.016526259831916232 0.00040470755564057985 -0.0042137228967920031 -0.0014080629321465959 0.0068585373360470778 -0.007200740735538314 -0.0090919575453680176 0.0053203512892452901 -0.0077323490504541941 -0.0085629167518783342 -0.0066056778976359386 -0.0092499093406850121
leaf_weight=16.43812683224678 16.038263767957691 20.464985609054565 12.891382575035093 10.177274644374849 12.7036295235157 12.473953932523726 12.610370755195619 12.890186816453932 12.165554553270342 17.817177057266235 11.347746312618254 12.801353067159654 16.247912704944614 12.149808913469313 10.965044945478441 10.23969751596451 11.94779220223427 10.634989082813261 10.317499339580534 11.210200101137163 15.276028633117674 11.527325600385664 11.591817080974577 17.57021775841713 12.394515514373778 10.859284520149229 21.596050649881363 34.248973101377487 17.5347860455513 27.459828615188599
leaf_count=48 47 60 38 30 37 37 37 38 36 53 33 38 48 36 32 30 35 31 30 33 45 34 34 52 37 32 64 102 52 82
internal_value=0 -0.000455614 0.00172133 -0.00044963 0.00210572 -0.00272565 0.00647804 -0.0035975 -0.0025215 0.000745581 0.00352008 -0.00115469 -0.00447175 2.39272e-05 0.00495766 0.00641601 0.00426774 0.0102093 0.0111817 -0.00174885 -0.000272235 0.00314861 0.00251021 -0.00421259 -0.00411395 -0.00262542 -0.00538061 -0.00648066 -0.00402526 -0.00752268
internal_weight=0 438.154 223.451 133.605 78.5776 214.703 36.9058 187.137 147.203 54.8565 37.0393 25.6915 92.347 28.3977 89.846 69.3811 48.0985 20.8747 21.2825 41.6718 27.2238 27.5656 24.2022 28.7804 55.0271 42.6326 31.7733 63.9493 29.7003 39.9338
internal_count=1341 1293 657 394 231 636 108 555 436 162 109 76 274 84 263 203 141 61 62 123 80 81 71 85 163 126 94 190 88 119
is_linear=0
shrinkage=0.01


Tree=15
num_leaves=31
num_cat=0
split_feature=0 2 9 10 2 8 6 5 0 5 4 6 5 8 9 6 10 10 8 8 0 10 8 0 10 0 2 10 6 5
split_gain=24.809 18.0416 15.6769 12.6686 19.4642 15.5342 11.1734 12.7977 12.3738 9.41162 13.8223 8.54818 9.55036 8.65822 6.9954 6.7278 5.71492 5.1749 9.59257 5.13123 4.47227 3.22321 3.81472 6.75187 4.13837 2.75062 3.7522 2.37226 1.51516 2.33347
threshold=0.82275000000000009 -0.00051099999999998358 0.19409564789201147 0.013607142857142863 -5.5000000000082754e-05 42.184781643565998 0.03626372222222219 -0.0019500000000000071 0.90505000000000013 4.99999999999945e-05 -0.0010775000000000088 0.018631333333333392 0.00061111111111117344 39.389782811858431 0.20693652541278404 0.021822388888888881 0.011314285714285711 0.0063214285714285777 72.054820850794769 71.892700141983809 0.78720000000000001 0.0038107142857142667 45.59487315002395 0.75940000000000007 0.0044071428571428482 0.74765000000000015 0.00043399999999987898 0.0063785714285714374 0.0069258333333333541 0.00017222222222218478
decision_type=2 2 2 2 2 2 2 2 2 2 2 2 2 2 2 2 2 2 2 2 2 2 2 2 2 2 2 2 2 2
left_child=1 9 17 4 16 -6 7 -5 -8 10 20 12 13 -4 15 19 -2 18 21 -7 -1 -3 23 -23 -24 26 -19 -12 -26 -30
right_child=3 2 11 6 5 14 8 -9 -10 -11 27 -13 -14 -15 -16 -17 -18 25 -20 -21 -22 22 24 -25 28 -27 -28 -29 29 -31
leaf_value=0.0048833656382732257 0.018646910054911439 -0.0089657220731910233 0.0062694342273452268 0.0045232996893751175 -0.0089845394645144683 -0.0035950932060895102 -0.0025622480231420682 -0.0082173149475144765 0.01322782027384569 -0.0045632866144711785 0.014743566739824927 -0.0067657892940212348 0.010171800723978938 -0.005370924113213227 0.012257326747814075 0.0099439120482335674 0.0081613403724523151 -0.0068043495754522652 0.0062182566839510322 0.0059498459058532748 -0.0045621302488031016 0.0052344779952977196 0.00094228018728907779 -0.0058996052225893545 -0.0077752619239065341 -0.0077305711145351733 0.0013538351430251129 0.0076883111678745647 -0.0078724418210990386 -0.001296402456642761
leaf_weight=9.0811465680599195 12.374452739953997 11.23789408802986 12.119402319192888 12.183479487895964 8.9709070622920972 14.43604624271393 9.1104153692722338 21.631166785955429 10.506286919116972 11.083942145109175 10.631664395332342 8.954900383949278 15.28284379839897 13.283569991588591 11.012999415397642 9.7612541317939741 10.159078419208525 13.393091589212419 10.244723618030546 9.0900798738002759 10.91484224796295 12.335916787385942 10.749687463045118 9.5734890401363355 22.40967059135437 50.207627296447754 9.3342457413673383 11.046701967716215 9.2003095149993914 14.061744302511213
leaf_count=30 40 38 40 40 30 48 30 72 34 37 34 30 50 44 36 32 33 45 34 30 36 41 36 32 75 169 31 36 31 47
internal_value=0 -0.00169743 -0.00294703 0.00361248 0.00623855 0.0029079 -9.92184e-05 -0.00359756 0.00586805 0.00354666 0.00573333 0.001989 0.0039523 0.000146124 0.00535347 0.00300954 0.0140207 -0.00437156 -0.00286919 6.01503e-05 -0.000219758 -0.00392553 -0.00317917 0.000319217 -0.00455351 -0.00640715 -0.00341868 0.0112461 -0.00586812 -0.00396264
internal_weight=0 275.147 222.389 129.236 75.8048 53.2713 53.4313 33.8146 19.6167 52.7583 41.6744 49.6407 40.6858 25.403 44.3004 33.2874 22.5335 172.748 99.8134 23.5261 19.996 89.5687 78.3308 21.9094 56.4214 72.935 22.7273 21.6784 45.6717 23.2621
internal_count=1341 916 743 425 249 176 176 112 64 173 136 164 134 84 146 110 73 579 334 78 66 300 262 73 189 245 76 70 153 78
is_linear=0
shrinkage=0.01


Tree=16
num_leaves=31
num_cat=0
split_feature=7 5 9 0 8 9 5 8 0 3 1 7 7 1 8 0 4 0 0 0 1 1 8 1 5 4 5 9 0 3
split_gain=21.3207 26.5629 8.19896 9.57417 8.05571 7.83835 11.4907 7.07594 9.27699 6.95744 6.22385 5.53057 5.46703 4.87653 6.79997 4.76624 8.84836 4.60364 8.7638 4.53937 4.40614 8.4317 3.64485 3.2477 2.56553 1.90224 1.84873 1.61828 1.02793 1.02238
threshold=-18.991891999999996 -3.3333333333274144e-05 -0.13600364743261559 0.74215000000000009 72.783820482118713 0.19079080761667075 0.00059444444444434208 37.45270092502922 0.81320000000000014 -0.0011233333333333093 -0.00015650000000005934 -72.997099999999989 17.686818000000006 -0.00019950000000001908 45.030473770155091 0.81555000000000011 0.00066750000000004317 0.76065000000000016 0.77395000000000014 0.83945000000000014 -9.7500000000028106e-05 -0.0004660000000000219 56.355342935836639 0.00024449999999992539 0.00026666666666669286 1.0000000180025095e-35 -0.0012999999999999121 -0.059669948548562633 0.76790000000000014 0.00025666666666673837
decision_type=2 2 2 2 2 2 2 2 2 2 2 2 2 2 2 2 2 2 2 2 2 2 2 2 2 2 2 2 2 2
left_child=1 2 13 -4 7 6 17 8 -2 -5 -11 -12 -6 -1 -15 16 22 27 -19 -14 21 -8 -9 -7 -20 -17 -10 -3 -22 -27
right_child=4 5 3 9 12 23 20 15 26 10 11 -13 19 14 -16 25 -18 18 24 -21 28 -23 -24 -25 -26 29 -28 -29 -30 -31
leaf_value=-0.0016947764498478019 -0.0063160202858673718 0.0018680044945719779 0.0039986477063772511 0.0022211924351482125 -0.0048262358436751548 0.0027840647019705994 0.010786437381573002 -0.0026630436713287243 0.00047548431657421121 -0.008733281696826611 0.0012899017258689472 -0.0077416439008070612 0.0084888786815153251 0.010137779465496663 -0.0003263686859017061 -0.0043115455572318396 0.0024397987527327077 0.012546186014253884 -0.0016851462354528304 0.00055282569541762741 0.0098562988438777675 -0.00014075952595168535 -0.0092720001881217672 -0.0041278480535833825 0.0049883103376656144 -0.0061275297513572547 0.0054419953751337216 -0.0032815437025137954 0.014553747565963558 -0.0099889110507352628
leaf_weight=17.938830733299255 16.783022880554199 13.402343750000002 15.522299885749815 12.309050232172011 10.539136528968809 17.651444911956791 17.851784318685535 17.831149011850357 16.121620595455173 35.102140516042709 16.566985249519352 11.186707586050032 11.322744667530062 12.775664657354357 11.63839355111122 17.809689432382584 19.709584355354309 11.014702886343001 11.251927554607393 20.3926682472229 12.448345035314562 11.341587096452711 16.776459962129593 10.903616935014723 11.320197403430937 13.947099030017851 14.781463772058485 10.930750817060469 13.225834250450133 21.282179713249207
leaf_count=51 48 38 44 35 30 50 50 51 46 101 47 32 32 36 33 51 56 31 32 58 35 32 48 31 32 40 42 31 37 61
internal_value=0 0.00180268 -0.00139815 -0.00309821 -0.00250644 0.00482143 0.00600559 -0.00356261 -0.000333476 -0.00458044 -0.0059297 -0.00232927 0.00134456 0.00221723 0.00512765 -0.00498599 -0.00286488 0.00286642 0.00526274 0.00343529 0.00928996 0.00652111 -0.00591311 0.00010469 0.00162481 -0.00712993 0.0028932 -0.000408276 0.012362 -0.00851019
internal_weight=0 274.383 133.04 90.6872 197.297 141.343 112.787 155.042 47.6861 75.1649 62.8558 27.7537 42.2545 42.3529 24.4141 107.356 54.3172 57.9199 33.5868 31.7154 54.8676 29.1934 34.6076 28.5551 22.5721 53.039 30.9031 24.3331 25.6742 35.2293
internal_count=1341 778 379 259 563 399 318 443 136 215 180 79 120 120 69 307 155 164 95 90 154 82 99 81 64 152 88 69 72 101
is_linear=0
shrinkage=0.01


Tree=17
num_leaves=31
num_cat=0
split_feature=7 7 5 3 3 6 7 1 4 6 10 7 7 7 5 0 6 1 0 10 7 6 3 0 1 7 5 5 5 1
split_gain=30.4823 20.6881 17.4077 15.1118 9.20953 14.6553 8.7021 8.65945 8.45851 9.24466 7.83413 9.17887 18.1432 11.5597 14.793 7.23485 7.01555 6.91923 7.79038 10.9429 6.39309 6.28137 6.54162 6.08483 5.86452 5.43766 4.72913 4.24492 3.6846 3.25576
threshold=-38.215772499999993 41.177929000000006 0.00051666666666666538 -0.00032000000000004242 0.00029333333333331218 0.011778166666666647 -84.014423499999978 0.00042100000000000476 0.00021250000000000438 -0.0021072222222221488 0.0042107142857142907 -26.654851999999995 -17.964896499999998 1.3618315000000003 -0.00066111111111111221 0.88560000000000005 -0.031541333333333303 0.00030000000000007804 0.73895000000000011 0.0091071428571428675 49.885260000000009 0.0095822777777778718 0.00017166666666673661 0.75690000000000013 0.00073999999999996302 -81.420408999999992 0.00081666666666668785 0.00093888888888893362 -0.0016277777777778388 8.6499999999933866e-05
decision_type=2 2 2 2 2 2 2 2 2 2 2 2 2 2 2 2 2 2 2 2 2 2 2 2 2 2 2 2 2 2
left_child=2 4 3 6 7 -6 16 10 9 -5 -2 -12 -13 -14 -15 20 28 -7 26 -20 -3 22 -11 -4 -21 -10 -19 -16 -1 -27
right_child=1 15 23 8 5 17 -8 -9 25 21 11 12 13 14 27 -17 -18 18 19 24 -22 -23 -24 -25 -26 29 -28 -29 -30 -31
leaf_value=-0.00078284275892256136 0.012693734648410875 -0.0061695321857411934 -0.00068124575331459021 -0.0034119375570574803 -0.0074062127710836758 0.010943420323700957 -0.0091559224965904497 0.012088420643800574 0.0043545319921196087 0.0046281298906200785 0.0119628560650778 -0.0099945428414626048 0.013230700029503908 -0.00571860628579598 0.01000694851404341 -0.0098733905006212434 0.0032715180074001106 0.0021655688815125731 0.010639354686349146 -0.0052934726479497421 0.0047966814998516381 0.00066908067343942452 0.014162728629087596 -0.0084593689396173493 0.0052940841873199166 -0.0069627277894400022 -0.0067531619215275805 0.0020298308910863512 -0.0084870962002364051 -1.9459558608683545e-05
leaf_weight=11.842985749244692 10.314386963844298 10.473350197076799 12.815346091985701 12.128279983997343 15.208767116069792 10.262753009796141 24.759751081466675 18.597766637802124 10.196547538042067 16.704504847526554 10.656582683324812 10.512442320585249 11.347990393638609 15.959265500307074 14.691958338022241 14.346993356943129 16.973947733640671 11.214048087596895 17.52974659204483 10.518344312906267 10.550051480531691 13.639019727706907 13.376699030399321 52.430689930915833 10.209078997373579 16.483865171670917 12.190449118614195 12.9423730969429 13.762983858585356 11.884355366230009
leaf_count=35 30 31 38 36 45 30 74 54 30 49 31 31 33 47 43 43 50 33 51 31 31 40 39 157 30 49 36 38 41 35
internal_value=0 0.00258598 -0.00259223 -0.000824928 0.00388246 0.00146119 -0.00444489 0.00587847 0.00174838 0.00423802 0.00451817 0.00338191 0.00195347 0.00427176 0.0018918 -0.00442026 -0.00166702 0.00335781 0.00206342 0.00484755 -0.000622424 0.00638593 0.00893405 -0.00695031 -3.02862e-05 -0.00183282 -0.00244626 0.00632776 -0.00497962 -0.00409938
internal_weight=0 227.526 226.999 161.753 192.156 87.1332 67.3397 105.023 94.4133 55.8485 86.425 76.1106 65.454 54.9416 43.5936 35.3704 42.5799 71.9244 61.6617 38.2572 21.0234 43.7202 30.0812 65.246 20.7274 38.5648 23.4045 27.6343 25.606 28.3682
internal_count=1341 668 673 478 563 256 200 307 278 164 253 223 192 161 128 105 126 211 181 112 62 128 88 195 61 114 69 81 76 84
is_linear=0
shrinkage=0.01


Tree=18
num_leaves=29
num_cat=0
split_feature=0 2 3 1 1 2 0 0 1 10 1 2 0 2 10 4 6 0 7 1 4 0 0 1 7 0 4 10
split_gain=24.3482 17.7253 15.5276 26.4284 16.0359 13.9519 10.3997 16.7259 9.67643 11.7796 9.54502 10.199 8.24646 5.63279 5.25258 8.88619 6.96119 6.68124 4.97856 3.66666 3.76936 3.43447 2.80859 4.39657 0.280559 0.396535 0.173899 0.160749
threshold=0.82275000000000009 -0.00051099999999998358 -0.0012749999999999704 -0.00011050000000001335 0.00033700000000008728 8.7000000000003755e-05 0.91005000000000014 0.86835000000000007 -0.00044000000000005141 0.006307142857142861 0.00053149999999996267 0.00049499999999985677 0.83535000000000015 -1.8000000000017998e-05 0.0062857142857142877 -0.00049749999999992845 -0.0059677777777777377 0.77840000000000009 -5.4345689999999989 0.00032900000000007928 -0.00014500000000000621 0.76345000000000007 0.76480000000000015 -0.00015650000000005934 -12.281843499999999 0.75380000000000014 0.0019099999999999675 0.0099392857142857286
decision_type=2 2 2 2 2 2 2 2 2 2 2 2 2 2 2 2 2 2 2 2 2 2 2 2 2 2 2 2
left_child=1 8 -2 13 5 -5 7 12 21 -10 11 14 -6 -4 15 -3 -17 19 -13 20 -18 -1 24 -24 25 -16 -8 -7
right_child=2 10 3 4 6 27 26 -9 9 -11 -12 18 -14 -15 22 16 17 -19 -20 -21 -22 -23 23 -25 -26 -27 -28 -29
leaf_value=-0.0040282765867861855 -0.0073466425231438134 0.0075428034219885542 0.017982851343931797 0.0067626384223738248 -0.00033339084262234926 -0.006397063194413681 0.013036918929811379 -0.0054645778747608445 0.016124491753752666 0.0020116237362134996 -0.0083511054306598439 -0.0002123961865838256 0.011257370927478787 0.0078060127814642269 -0.0045215069191284155 0.0039863275716239613 0 0.0036494251329079971 0.010125862890435097 0.0010505602864491553 -0.006085849796743632 0.0028939043475487707 -0.007874428278215044 0.001160967582919094 -0.008995449243747379 -0.0079606657250358183 0.009670538110061893 -0.0089619116938689167
leaf_weight=13.784262686967852 11.682522088289259 9.4056300520896894 14.447738021612169 9.2021820843219775 9.0725886821746844 11.341030538082125 9.261194050312044 16.282126158475876 10.416777759790422 14.02327701449394 28.320594668388367 8.9986437261104602 17.837687313556671 9.8086704909801465 8.9229958355426842 14.226836234331129 11.940102636814116 11.505313843488691 9.1548686027526838 10.566914469003676 65.430148273706436 14.638654738664625 9.2014589011669177 12.375227451324461 11.874166697263716 10.051008582115172 9.3201405704021436 11.228871822357176
leaf_count=46 39 31 46 30 30 38 30 54 33 46 96 30 58 32 30 47 40 38 30 35 220 48 31 41 40 34 30 38
internal_value=0 -0.00168435 0.00357354 0.00467029 0.00223908 -0.00350809 0.00521208 0.00247969 0.00350643 0.00810872 -0.00292606 -0.00212362 0.00732585 0.0139576 -0.00286583 -0.00172242 -0.00250382 -0.00344546 0.00497334 -0.00438817 -0.00514428 -0.00043044 -0.00552271 -0.00266463 -0.00747441 -0.00642793 0.0114627 -0.00775113
internal_weight=0 274.837 129.485 117.802 93.5458 31.7721 61.7737 43.1924 52.863 24.4401 221.974 193.653 26.9103 24.2564 175.5 123.075 113.669 99.4425 18.1535 87.9372 77.3703 28.4229 52.4249 21.5767 30.8482 18.974 18.5813 22.5699
internal_count=1341 916 425 386 308 106 202 142 173 79 743 647 88 78 587 411 380 333 60 295 260 94 176 72 104 64 60 76
is_linear=0
shrinkage=0.01


Tree=19
num_leaves=31
num_cat=0
split_feature=1 2 10 6 2 2 2 10 1 2 0 1 0 2 2 0 4 1 4 6 10 10 10 0 0 4 9 0 0 0
split_gain=10.0408 12.3265 13.1853 9.49848 14.3659 12.0433 8.62646 8.27475 10.7347 12.9791 13.2794 10.5214 14.1173 7.59566 6.71252 6.68972 7.09195 7.45231 6.16212 5.62958 5.10549 4.78768 4.49727 4.10197 5.694 3.88318 1.92776 1.89259 1.4378 1.50725
threshold=0.00032549999999992313 0.00039299999999997676 0.0057821428571428555 -0.048926111111111163 -0.0010830000000000004 -0.0012420000000000206 0.0014650000000000498 0.0036749999999999999 -0.00015650000000005934 -0.00080700000000011307 0.74215000000000009 0.00014300000000000426 0.81555000000000011 -0.00035700000000005167 -1.8000000000017998e-05 0.80015000000000014 0.00066750000000004317 0.00059000000000003505 0.00064000000000002954 0.011470611111111197 0.013607142857142863 0.0061035714285714348 0.015957142857142868 0.7531500000000001 0.77545000000000008 0.00036750000000002064 -0.11733174608954801 0.76480000000000015 0.84610000000000007 0.8267500000000001
decision_type=2 2 2 2 2 2 2 2 2 2 2 2 2 2 2 2 2 2 2 2 2 2 2 2 2 2 2 2 2 2
left_child=1 3 -3 5 -5 -1 15 -6 9 -9 -11 12 13 -10 27 16 21 -18 26 -4 28 -2 -22 -16 -25 -15 -12 -13 29 -17
right_child=6 2 19 4 7 -7 -8 8 11 10 18 14 -14 25 23 20 17 -19 -20 -21 22 -23 -24 24 -26 -27 -28 -29 -30 -31
leaf_value=-0.00027467925620393855 0.0004518343222135896 -0.0039355596111566409 0.012375658882825496 -0.010352432275869013 -0.0070678757685393879 0.014025156125096581 0.0055690554506901751 0.0067620088709999205 -0.00049852274957143806 0.0047417146696790823 -0.0046209008976365387 -0.0078914161689670834 -0.0026181649319140556 0.0071051127007314297 -0.0018322237066554661 -0.0084407796824470856 -0.00097607688021657962 0.0093468877201378971 0.00043184992884707466 0.0041853442063417073 0.0034703143104074107 -0.0081989867221860108 -0.00452885135697716 0.0087374828907084562 -0.00038485662237190357 0.014059889172396443 -0.0094289479511737162 -0.0018944490595544966 -0.0093385039736749026 -0.0033184818000693045
leaf_weight=12.633884817361833 11.598400026559831 10.559800356626509 19.236966788768768 13.558334499597548 14.686731815338133 10.712523072957991 12.74465838074684 13.048403114080427 10.902406990528105 13.441802471876143 13.384159356355658 11.874698370695116 20.031524509191513 40.523128360509872 20.648979544639587 10.449996352195742 17.601629048585895 11.328029990196226 10.609576076269148 15.928055435419081 10.529987156391146 13.593593150377272 20.211917698383331 13.160858154296877 13.707768678665159 10.706107765436171 29.886480569839485 10.487977743148802 18.457950681447983 15.357385754585264
leaf_count=36 33 30 54 39 42 30 36 37 31 38 38 34 57 114 59 30 50 32 30 45 30 39 58 37 39 30 86 30 53 44
internal_value=0 0.000957245 0.00577064 0.000177011 -0.000367618 0.006276 -0.00222341 0.000180166 0.000645329 -0.00230276 -0.00408195 0.00221076 0.004636 0.00699129 -0.000629034 -0.00300396 -0.000303375 0.00304993 -0.00630648 0.00871659 -0.00493626 -0.00419057 -0.00175412 0.0014813 0.00406222 0.00860259 -0.0079789 -0.00514434 -0.00711476 -0.00545579
internal_weight=0 329.73 45.7248 284.005 260.659 23.3464 141.874 247.101 232.414 80.3704 67.322 152.043 82.1632 62.1316 69.8803 129.129 54.1217 28.9297 53.8802 35.165 75.0072 25.192 30.7419 47.5176 26.8686 51.2292 43.2706 22.3627 44.2653 25.8074
internal_count=1341 936 129 807 741 66 405 702 660 229 192 431 232 175 199 369 154 82 154 99 215 72 88 135 76 144 124 64 127 74
is_linear=0
shrinkage=0.01


Tree=20
num_leaves=31
num_cat=0
split_feature=7 7 9 0 2 6 7 0 7 0 3 0 0 7 2 8 2 2 6 3 6 7 6 6 2 8 3 0 3 9
split_gain=29.9388 20.3545 11.533 9.97657 13.2824 14.4232 13.7679 10.6305 9.79243 8.38707 8.30907 7.15908 7.03226 6.3095 6.10029 5.44627 21.4481 7.19283 5.36176 4.69398 5.28272 4.44991 3.77025 9.94278 9.17312 6.80322 5.48345 3.80539 2.45128 2.39361
threshold=-38.215772499999993 41.177929000000006 0.087986205884724292 0.77775000000000005 -8.4000000000028483e-05 0.010511055555555595 -84.475286999999994 0.7531500000000001 -75.355683999999982 0.91995000000000016 -0.00059833333333336725 0.88560000000000005 0.83945000000000014 49.885260000000009 3.4999999999951743e-05 57.815639742113312 -0.00025699999999984064 -0.0012420000000000206 0.006376833333333388 0.00029666666666666735 0.030871611111111145 -88.042176999999995 0.012575166666666639 0.0058837222222223326 0.00035299999999988124 32.716176472293128 5.0000000000050011e-05 0.7672500000000001 0.00020166666666665559 0.21635696183432349
decision_type=2 2 2 2 2 2 2 2 2 2 2 2 2 2 2 2 2 2 2 2 2 2 2 2 2 2 2 2 2 2
left_child=3 2 9 4 6 8 7 21 -6 12 -4 13 22 -3 -12 16 17 -5 -10 -16 29 -1 23 25 -24 -2 -27 -26 -17 -21
right_child=1 11 10 15 5 -7 -8 -9 18 -11 14 -13 -14 -15 19 28 -18 -19 -20 20 -22 -23 24 -25 27 26 -28 -29 -30 -31
leaf_value=0 0.00065980246090847211 -0.0061426664048929791 0.0072992903955686099 -9.3831363858016406e-05 0.0090160925998877123 -0.0080549549586345064 -0.00920864725194738 0.0067012099282672587 -0.0051550644769122588 -0.0026819709537151243 -0.0080183587230544598 -0.0098353194182389109 0.011918732227834026 0.0047520103261205751 0.0060038407463943889 -0.0034981295478907636 0.0066946188439045108 -0.0092798833874900254 0.0041025038163000696 -0.0011063987096721418 0.0042647733916655823 -0.0089607839456176137 0.014854447254991148 -0.0031728598840580951 0.0016838347713659105 0.014289341539822618 0.0041386509683847984 0.0089913965086274548 -0.0092818348780267547 -0.0079418778341012394
leaf_weight=11.839940965175627 13.64245083928108 10.454194486141207 14.077344089746473 12.102842330932615 26.317679822444912 10.464305907487867 27.66048064827919 14.653505980968474 10.425913840532308 10.843729406595228 10.717054635286329 14.292041152715681 19.635012686252594 10.56746059656143 10.947597622871397 10.780654788017271 16.396459609270096 30.643991619348526 15.278495520353315 11.165179699659353 10.232098042964934 10.433481425046923 12.142003148794172 15.697704195976256 19.133023589849476 12.059685885906221 10.280222594738005 11.749703466892241 29.715950787067413 10.095722466707228
leaf_count=35 40 31 41 36 77 31 83 43 31 32 32 43 57 31 32 32 48 92 45 33 30 31 35 46 56 35 30 34 89 30
internal_value=0 0.00256029 0.00384382 -0.002572 -0.00070414 0.00257113 -0.0038874 8.56257e-05 0.00473912 0.00563763 0.0004857 -0.0043963 0.00643703 -0.000622064 -0.00131023 -0.00494102 -0.00297094 -0.00670868 0.000303381 0.000375056 -0.00156278 -0.00423252 0.0052786 0.00341169 0.00748477 0.00631282 0.00970209 0.00451641 -0.00777919 -0.00442102
internal_weight=0 227.732 192.419 226.714 127.074 62.4864 64.5874 36.9269 52.0221 125.184 67.235 35.3137 114.34 21.0217 53.1577 99.6399 59.1433 42.7468 25.7044 42.4406 31.493 22.2734 94.7048 51.6801 43.0247 35.9824 22.3399 30.8827 40.4966 21.2609
internal_count=1341 668 563 673 376 184 192 109 153 365 198 105 333 62 157 297 176 128 76 125 93 66 276 151 125 105 65 90 121 63
is_linear=0
shrinkage=0.01


Tree=21
num_leaves=31
num_cat=0
split_feature=0 2 9 3 1 1 8 2 1 10 10 1 4 2 0 1 10 10 8 8 0 10 8 0 10 0 2 4 2 9
split_gain=23.9227 17.4128 15.4091 15.2727 25.7707 15.7119 20.9008 13.7813 9.42488 11.4398 6.9027 6.88879 6.72917 5.43601 5.26008 7.84224 5.17389 5.09697 9.44305 3.55356 3.36341 3.18695 3.74782 6.6248 4.11366 2.7227 3.67268 1.02134 1.96872 0.389671
threshold=0.82275000000000009 -0.00051099999999998358 0.19409564789201147 -0.0012749999999999704 -0.00011050000000001335 0.00033700000000008728 44.943898653005931 8.7000000000003755e-05 -0.00044000000000005141 0.006307142857142861 0.013607142857142863 0.00043400000000004551 -0.00046749999999995401 -1.8000000000017998e-05 0.76480000000000015 0.00021099999999990573 0.017385714285714286 0.0063214285714285777 72.054820850794769 57.195506502672309 0.76345000000000007 0.0038107142857142667 45.59487315002395 0.75940000000000007 0.0044071428571428482 0.74765000000000015 0.00043399999999987898 0.00025999999999998252 0.00023000000000006351 0.065094093178813053
decision_type=2 2 2 2 2 2 2 2 2 2 2 2 2 2 2 2 2 2 2 2 2 2 2 2 2 2 2 2 2 2
left_child=1 8 17 -2 13 7 12 -6 20 -10 19 14 -7 -5 15 -4 -12 18 21 -8 -1 -3 23 -23 -24 26 -19 -26 -29 -9
right_child=3 2 11 4 5 6 10 29 9 -11 16 -13 -14 -15 -16 -17 -18 25 -20 -21 -22 22 24 -25 27 -27 -28 28 -30 -31
leaf_value=-0.0039957741573000806 -0.0073170806212669347 -0.0089197095470605232 -0.0045018350663655815 0.017690655408495529 0.0066981841118877216 0.0027150191766583233 0.0078133366053786887 -0.0089694830814618497 0.015847425461408479 0.001977314206356474 0 -0.00573564887347417 -0.0090166263238131341 0.0077157332943407625 0.0077901965888400775 0.0074100038227621406 0.010005824788719102 -0.0067460909244049724 0.0061717444972539549 0.016349650640145711 0.00285632123114603 0.0051749332820606219 0.00097273107997912945 -0.0058608558050056974 -0.0071714564371143158 -0.007676500524757891 0.0013346243763266744 -0.0069829408568736727 -0.00048236917770466822 -0.0056399195506615383
leaf_weight=13.742338567972185 11.635486096143721 11.142278939485548 12.960969537496569 14.57107397913933 9.228451222181322 9.0742529034614581 9.213740289211275 13.538977205753328 10.505252063274385 14.050841003656386 10.747012764215471 9.2102418243885023 10.17893412709236 9.8467612564563733 18.012469738721848 9.4603192210197431 9.6612720787525159 13.291757285594942 10.266497582197188 13.07789960503578 14.668492466211317 12.371200919151308 10.727781057357786 9.5301378369331342 26.100610375404358 49.80348402261734 9.3438529372215253 10.059238731861116 9.2880934178829175 8.9307476878166181
leaf_count=46 39 38 43 46 30 30 30 46 33 46 35 31 34 32 59 31 31 45 34 42 48 41 36 32 88 169 31 34 31 30
internal_value=0 -0.00167202 -0.00290575 0.00353764 0.0046211 0.00221633 0.0051499 -0.00348396 0.0034658 0.0079918 0.00905002 0.00198503 -0.00345023 0.0137568 0.00377817 0.000490366 0.00473539 -0.00432413 -0.00283209 0.0129167 -0.000425358 -0.0038851 -0.00314334 0.000322561 -0.00451054 -0.00635274 -0.00337523 -0.00582609 -0.00393215 -0.00772128
internal_weight=0 274.536 221.569 129.705 118.069 93.6513 61.9531 31.6982 52.9669 24.5561 42.6999 49.644 19.2532 24.4178 40.4338 22.4213 20.4083 171.925 99.4858 22.2916 28.4108 89.2193 78.0771 21.9013 56.1757 72.4391 22.6356 45.4479 19.3473 22.4697
internal_count=1341 916 743 425 386 308 202 106 173 79 138 164 64 78 133 74 66 579 334 72 94 300 262 73 189 245 76 153 65 76
is_linear=0
shrinkage=0.01


Tree=22
num_leaves=31
num_cat=0
split_feature=5 9 2 0 4 4 6 0 0 8 0 2 0 2 0 6 0 0 4 9 4 3 9 6 0 0 0 5 0 8
split_gain=14.7901 14.5755 9.35781 9.2856 7.54949 6.62765 4.74897 4.01158 4.68591 3.99597 3.99211 4.78353 7.39788 4.43785 10.5619 6.05187 6.73124 5.53573 6.21082 3.07882 3.8925 5.17917 5.06833 3.76756 3.72095 7.9075 3.00113 2.77822 2.67434 1.59915
threshold=0.0004388888888888221 0.19079080761667075 -0.00069299999999999906 0.81805000000000005 -0.0012549999999999504 0.00074000000000001853 0.019528333333333373 0.78390000000000015 0.75030000000000008 26.228300287171724 0.80470000000000008 -0.00035700000000005167 0.74945000000000006 -8.4000000000028483e-05 0.76225000000000009 0.0035320000000000355 0.67185000000000017 0.74765000000000015 0.00020000000000003351 0.038116237861763859 0.0016975000000000187 0.00077666666666659234 -0.18754415373604608 0.013766333333333271 0.75265000000000015 0.82200000000000017 0.88400000000000012 0.0017888888888888956 0.79325000000000012 49.168718866609026
decision_type=2 2 2 2 2 2 2 2 2 2 2 2 2 2 2 2 2 2 2 2 2 2 2 2 2 2 2 2 2 2
left_child=3 2 -2 5 9 10 -6 8 -3 -5 11 12 -1 14 -13 -15 -17 29 -19 20 21 22 -4 -21 -24 -26 -8 -9 -14 -18
right_child=1 7 19 4 6 -7 26 27 -10 -11 -12 13 28 15 -16 16 17 18 -20 23 -22 -23 24 -25 25 -27 -28 -29 -30 -31
leaf_value=0.00083355006045478762 0.012854676926977098 -0.004114738949630806 0.006698023619837499 -0.0029640821637746608 -0.0082485950281187513 0.0070498617941610851 9.7520180805465287e-05 -0.0020062341233522637 0.004888265920957334 0.0052273340686203196 0.0036879729990884867 -0.0023177170151083772 -0.0093379114805495125 -0.0078334019321721262 0.010688507232401641 0.0059498115692964903 -0.002865549261657004 -0.0025172783301253962 0.0047526497017930198 0.0085052476135872163 0.007576005664180584 -0.0032152966336410592 -0.0032595825230150519 0.0017840184008236048 0.008901122012679355 -0.0030006917954540756 -0.00666716649588761 -0.0087048378213056971 -0.0028186811447806662 -0.0084363518747105713
leaf_weight=19.97215524315834 10.772858768701552 10.893620282411577 20.968113720417023 13.285669505596163 37.069652050733566 11.679001808166502 15.762613624334337 14.033706456422808 12.030848920345305 10.567763864994047 18.661780267953873 13.336819916963579 18.452554285526279 11.53835144639015 11.439907908439634 14.851873546838759 11.865856349468233 28.429706424474716 19.832512944936752 19.968755036592484 11.333271205425261 18.963169395923615 15.083998292684553 15.130979418754576 11.457098990678789 10.557626932859419 10.792694360017775 11.856597810983656 10.478768736124037 10.446862399578093
leaf_count=57 30 31 59 38 107 33 45 40 34 30 53 38 53 33 32 42 34 81 56 56 32 54 43 43 32 30 31 34 30 30
internal_value=0 0.00222272 0.00392647 -0.00141056 -0.00412871 -0.00022106 -0.00592662 -0.00244042 0.00056735 0.000629878 -0.000678392 -0.00116364 -0.00380237 -9.32041e-05 0.00366614 -0.00106689 -0.000133174 -0.00143404 0.000453144 0.00312957 0.00211203 0.00128638 0.0027767 0.00564953 0.000521453 0.00316038 -0.00262899 -0.00513406 -0.00702897 -0.00554443
internal_weight=0 183.051 134.236 288.465 87.4784 200.986 63.625 48.8148 22.9245 23.8534 189.307 170.645 48.9035 121.742 24.7767 96.9652 85.4268 70.5749 48.2622 123.463 88.3633 77.03 58.0668 35.0997 37.0987 22.0147 26.5553 25.8903 28.9313 22.3127
internal_count=1341 518 379 823 251 572 183 139 65 68 539 486 140 346 70 276 243 201 137 349 250 218 164 99 105 62 76 74 83 64
is_linear=0
shrinkage=0.01


Tree=23
num_leaves=31
num_cat=0
split_feature=7 7 5 2 7 4 2 9 3 10 10 7 5 8 9 7 5 2 2 2 7 8 3 5 10 9 10 4 10 4
split_gain=29.3742 19.993 17.0109 19.5849 15.6716 15.601 11.4511 11.3306 8.17081 7.90036 7.59931 7.20978 7.11905 7.91765 6.43133 6.07086 7.78938 6.77639 6.02539 5.58049 6.95963 5.57023 4.59502 4.56069 4.26729 4.04057 2.97542 2.2312 1.44683 4.05066
threshold=-38.215772499999993 41.177929000000006 0.00051666666666666538 -8.4000000000028483e-05 -84.475286999999994 0.00021250000000000438 -0.0007619999999999848 0.087986205884724292 -0.00059833333333336725 0.020142857142857139 0.0057321428571428653 -87.046477499999995 -0.00066111111111111221 44.579546657107237 -0.02177334570618885 -16.218516999999995 0.00017222222222218478 0.00037099999999995475 3.4999999999951743e-05 0.0012739999999999976 49.084770500000012 47.562356158779188 0.00029666666666666735 -0.0019500000000000071 0.0078571428571428525 -0.14368400121562994 0.0086607142857142803 0.00093499999999996375 0.0063428571428571388 0.00023749999999994611
decision_type=2 2 2 2 2 2 2 2 2 2 2 2 2 2 2 2 2 2 2 2 2 2 2 2 2 2 2 2 2 2
left_child=2 7 3 4 6 10 23 9 -9 12 21 -8 13 -2 -7 16 -14 26 -10 20 -3 -5 -20 -1 -24 -19 -17 -27 29 -4
right_child=1 19 28 5 -6 14 11 8 18 -11 -12 -13 15 -15 -16 17 -18 25 22 -21 -22 -23 24 -25 -26 27 -28 -29 -30 -31
leaf_value=0.00022960029005371154 -0.0046672999302915944 -0.0066275261980492332 -0.00034444920697548068 0.0051000152142207855 -0.0088616947885521904 -0.0068522967097790948 0.0094154078333051582 0.0072202266257792285 -0.0079866305683793416 0.013655796510451937 0.0022728141402887977 -0.0015070782817273444 0.0072413912207085511 0.006698287051757984 0.0023457325508856714 0.014504463321341719 -0.0040926264923491322 0.00015019495002462056 0.0059227167698196817 -0.0097977940622011924 0.004326795544169669 0.015234234113112165 -0.0053804758208720492 -0.0081111469397841963 0.0019400014151484035 0.0094491561145669256 0.0072672841630029563 0.0032830686827117379 -0.0082471909997208163 -0.0081363805483307267
leaf_weight=10.487326294183733 14.63615992665291 12.083877027034761 11.404980778694155 10.279300510883333 37.56517693400383 15.836913555860521 13.631260126829149 14.113543123006819 10.688466012477873 11.093881309032438 19.81840455532074 10.504752844572065 12.391243100166323 10.392488896846769 14.247733414173124 15.547817736864092 11.590727865695952 12.331621021032332 10.978591620922087 12.274426639080046 10.88939720392227 12.770512491464613 15.146480172872545 16.40684849023819 16.333825469017029 16.537010401487354 10.672584950923918 10.238080978393553 36.447451114654541 17.008525907993317
leaf_count=31 43 36 34 30 113 47 40 41 32 32 58 31 36 30 42 45 34 36 32 37 32 37 45 49 48 48 31 30 110 51
internal_value=0 0.00253341 -0.00255081 -0.000805474 -0.00396788 0.0030215 -0.000335524 0.00380286 0.000473943 0.00557818 0.00689528 0.00463373 0.00477444 2.00418e-05 -0.00246975 0.00609415 0.00172777 0.0076767 -0.00130898 -0.00436923 -0.00139556 0.0107995 0.000363348 -0.00483284 -0.0015564 0.00497398 0.0116355 0.00714961 -0.00687456 -0.005056
internal_weight=0 227.94 226.409 161.548 88.5954 72.9529 51.0302 192.693 67.2609 125.432 42.8682 24.136 114.338 25.0286 30.0846 89.3091 23.982 65.3271 53.1474 35.2477 22.9733 23.0498 42.4589 26.8942 31.4803 39.1067 26.2204 26.7751 64.861 28.4135
internal_count=1341 668 673 478 264 214 151 563 198 365 125 71 333 73 89 260 70 190 157 105 68 67 125 80 93 114 76 78 195 85
is_linear=0
shrinkage=0.01


Tree=24
num_leaves=31
num_cat=0
split_feature=0 2 9 1 1 8 1 10 6 6 2 2 4 2 6 2 4 10 8 0 10 8 0 10 0 2 6 4 6 9
split_gain=23.4789 17.0944 15.1829 13.7381 17.413 18.4188 9.21896 11.1075 8.8041 8.30788 8.29581 7.25479 6.67708 6.15016 14.7435 6.0902 8.08136 5.06286 9.31033 3.31069 3.16131 3.70128 6.53217 4.08587 2.71107 3.64043 1.51555 1.1713 0.596788 0.387277
threshold=0.82275000000000009 -0.00051099999999998358 0.19409564789201147 -9.7500000000028106e-05 0.00033700000000008728 44.943898653005931 -0.00044000000000005141 0.006307142857142861 -0.040369833333333265 0.018631333333333392 8.7000000000003755e-05 -1.8000000000017998e-05 -0.00046749999999995401 0.0006950000000001123 0.044172444444444466 0.0002919999999999035 0.00014249999999998988 0.0063214285714285777 72.054820850794769 0.76345000000000007 0.0038107142857142667 45.59487315002395 0.75940000000000007 0.0044071428571428482 0.74765000000000015 0.00043399999999987898 0.0069258333333333541 0.00025999999999998252 0.020608888888888847 0.065094093178813053
decision_type=2 2 2 2 2 2 2 2 2 2 2 2 2 2 2 2 2 2 2 2 2 2 2 2 2 2 2 2 2 2
left_child=1 6 17 8 10 12 19 -8 -2 15 -5 -10 -6 28 -15 16 -4 18 20 -1 -3 22 -22 -23 25 -19 -25 -28 -7 -12
right_child=3 2 9 4 5 13 7 -9 11 -11 29 -13 -14 14 -16 -17 -18 24 -20 -21 21 23 -24 26 -26 -27 27 -29 -30 -31
leaf_value=-0.003976496200003973 0.0016685684711620825 -0.0088884370331903731 0.0069891759812053646 0.0026498620022342122 0.0026987947703273362 0.010190387086228072 0.0155873598321027 0.001953030796620634 0.018645439385306314 -0.0067068769240627244 -0.0089440909701253395 0.0067010844728828192 -0.0089949736007438243 -0.0037352078902660826 0.011479128050872995 0.011015412769904172 -0.003080718699709239 -0.0067158502775833363 0.0061177532973548136 0.0028216614640077142 0.0051293143862585358 0.00098321238649275362 -0.0058333251435016987 -0.0077123845793887402 -0.0076474871456735163 0.0013359247473897682 -0.005891602810779422 -0.0012000365916313256 0.014766167089253955 -0.0056180371721731778
leaf_weight=13.716918528079988 10.75722563266754 11.075951635837553 15.233351945877077 11.586571723222731 9.0821320712566393 9.5914296507835406 10.588515460491182 14.070340722799299 10.859755873680115 8.885109215974806 13.474069088697435 10.469279646873474 10.140066206455229 10.986855149269106 14.69224828481674 9.2202954292297346 16.357856065034866 13.238781720399858 10.292594730854033 14.696055859327315 12.398888528347017 10.720422148704527 9.5001355111598951 22.202220171689987 49.586319178342819 9.3431057035922986 12.938474506139757 10.152519196271895 9.3836390972137433 8.9084326624870283
leaf_count=46 35 38 50 38 30 31 33 46 34 30 46 34 34 36 47 30 54 45 34 48 41 36 32 75 169 31 44 34 30 30
internal_value=0 -0.00165908 -0.00288459 0.00349991 0.0016214 0.00470265 0.00342451 0.00788731 0.00917445 0.0019654 -0.00414011 0.0128879 -0.00343276 0.00822687 0.00494161 0.00388967 0.00175018 -0.00429657 -0.00280871 -0.000427646 -0.00385809 -0.00311969 0.000323197 -0.00448172 -0.00632286 -0.00334919 -0.00579655 -0.00388603 0.0125712 -0.00769565
internal_weight=0 274.218 221.146 129.932 97.8454 63.8764 53.0718 24.6589 32.0863 49.6966 33.9691 21.329 19.2222 44.6542 25.6791 40.8115 31.5912 171.449 99.2812 28.413 88.9886 77.9127 21.899 56.0136 72.1682 22.5819 45.2932 23.091 18.9751 22.3825
internal_count=1341 916 743 425 322 208 173 79 103 164 114 68 64 144 83 134 104 579 334 94 300 262 73 189 245 76 153 78 61 76
is_linear=0
shrinkage=0.01


Tree=25
num_leaves=31
num_cat=0
split_feature=7 5 2 9 9 5 1 6 1 4 3 4 1 1 1 1 9 1 1 4 6 6 1 6 5 4 7 5 4 2
split_gain=20.2246 25.2371 11.1154 7.81375 7.53568 10.8503 7.22187 7.79059 8.92883 10.7228 5.97459 5.80903 4.74334 5.59507 4.34652 8.06262 4.22871 3.99367 6.75631 3.16155 4.29922 4.55181 3.12477 3.00216 2.97512 2.80467 2.65157 2.5969 2.88447 1.96834
threshold=-18.991891999999996 -3.3333333333274144e-05 0.00034799999999995951 -0.13600364743261559 0.19079080761667075 0.00059444444444434208 0.00030000000000007804 0.023211944444444358 0.00085700000000005227 0.00085499999999999476 -0.0010883333333332466 -0.00066750000000009846 -0.00019950000000001908 7.3999999999962998e-05 -9.7500000000028106e-05 -0.0004660000000000219 0.14708009763433808 -0.00013999999999991794 0.00014300000000000426 0.00058750000000001867 0.0080787777777777698 -0.00059533333333333649 0.00024449999999992539 0.039033833333333275 0.00099444444444446467 0.00011750000000004814 6.1259625000000009 -0.0014888888888888727 -0.00016999999999989243 0.00095300000000009277
decision_type=2 2 2 2 2 2 2 2 2 2 2 2 2 2 2 2 2 2 2 2 2 2 2 2 2 2 2 2 2 2
left_child=1 3 11 12 5 19 -4 24 9 23 -5 26 -1 -14 15 -7 -13 27 -19 20 21 -3 -6 -9 -8 -23 -2 -12 -29 -11
right_child=2 4 6 10 22 14 7 8 -10 29 17 16 13 -15 -16 -17 -18 18 -20 -21 -22 25 -24 -25 -26 -27 -28 28 -30 -31
leaf_value=-0.0017096531312206485 -0.0049683776123965427 0.0042037112802380669 0.0065860927883338895 0.0027178054933704406 0.0026840838457673028 0.010428553983114057 -0.0095641812249617261 -0.0056169401981423462 -0.0051108775327272492 0.00953697016846476 -0.01020175877729905 -0.0086728738233079472 0.0096661144442124324 3.7068836752852531e-05 0.012059584792421352 -0.00022906163595866913 -0.0027649327872140911 0.0023061204271890372 -0.0068094213881369501 0.0077115738771788489 0.0068718904993379263 -0.0066823312315271877 -0.0040958658246109773 0.0015423417890949138 -0.0026645024005360618 0.00050741006476703811 0.0013549360422926377 -0.0021082917240873612 -0.008553734705064554 0.0039717660787662755
leaf_weight=17.944996565580368 11.120601773262026 14.5366820693016 13.120197117328642 14.796743065118788 17.706086188554767 18.001443594694141 12.202889233827593 12.534255951642992 20.551773488521576 14.165148407220842 12.049862146377558 41.121480196714401 12.503729045391085 11.982329070568083 25.851072251796722 11.373567312955855 18.139727652072906 19.060199379920959 13.922880679368971 10.664130777120588 11.7359102666378 10.523283600807195 10.886385828256605 10.544041424989699 14.004494190216063 10.578295558691023 15.769099146127699 19.141979515552521 11.435412168502813 13.452444732189177
leaf_count=51 32 41 37 42 50 50 35 36 59 40 35 119 35 34 72 32 52 54 40 30 33 30 31 30 40 30 45 55 33 38
internal_value=0 0.00175266 -0.00244678 -0.0013734 0.00468592 0.00584315 -0.000337957 -0.00128618 0.000417332 0.00268377 -0.00303848 -0.00513834 0.00214964 0.0050141 0.00902111 0.00628138 -0.00688902 -0.00418028 -0.00152047 0.00279165 0.00164918 -5.71276e-05 6.25344e-05 -0.00231031 -0.00593934 -0.00304553 -0.00123182 -0.00620654 -0.0045714 0.00688636
internal_weight=0 274.695 196.726 132.838 141.857 113.264 110.575 97.455 71.2477 50.6959 90.4071 86.1509 42.4311 24.4861 55.2261 29.375 59.2612 75.6103 32.9831 58.0383 47.3742 35.6383 28.5925 23.0783 26.2074 21.1016 26.8897 42.6273 30.5774 27.6176
internal_count=1341 778 563 379 399 318 315 278 203 144 259 248 120 69 154 82 171 217 94 164 134 101 81 66 75 60 77 123 88 78
is_linear=0
shrinkage=0.01


Tree=26
num_leaves=31
num_cat=0
split_feature=7 7 10 4 2 10 7 6 3 6 0 3 2 8 10 8 0 0 6 0 10 7 0 8 3 7 10 3 0 0
split_gain=28.9005 19.6496 11.3429 11.3712 23.9062 13.0417 10.6428 9.22501 8.83991 14.1916 7.91395 8.06884 12.3045 7.85668 9.69442 7.1403 7.03979 6.72543 6.18442 6.59408 12.3933 6.18311 6.03403 5.44505 4.90698 4.26607 4.19695 3.96175 2.09504 0.49981
threshold=-38.215772499999993 41.177929000000006 0.0078571428571428525 0.00022000000000005351 -8.4000000000028483e-05 0.0057321428571428653 -84.629241999999991 -0.022024999999999958 0.00029333333333331218 0.011778166666666647 0.89495000000000013 -0.00079666666666672315 7.7999999999966998e-05 57.679008100434331 0.0056785714285714191 21.128187812191523 0.88560000000000005 0.67300000000000015 0.016452000000000026 0.73895000000000011 0.0091071428571428675 49.885260000000009 0.77645000000000008 47.562356158779188 0.00023833333333328491 -21.932804499999996 0.0065642857142857091 -0.00043833333333337382 0.80845000000000011 0.77450000000000008
decision_type=2 2 2 2 2 2 2 2 2 2 2 2 2 2 2 2 2 2 2 2 2 2 2 2 2 2 2 2 2 2
left_child=2 8 3 4 6 23 7 -1 10 -10 11 -2 25 14 -5 -4 21 -14 -11 -20 -21 -3 -7 -6 -15 -13 -19 -27 -17 -26
right_child=1 16 15 13 5 22 -8 -9 9 18 -12 12 17 24 -16 28 -18 26 19 20 -22 -23 -24 -25 29 27 -28 -29 -30 -31
leaf_value=-0.005092564462606735 0.014350033977378119 -0.0060861740356774252 0.00036415024021055581 -0.0069730132869713218 0.0050064795267438711 -0.0040614921712548817 -0.0089692939239190347 0.0066500921227761727 -0.0073542260987245157 0.0085577528881051121 -0.00011630537037140671 0.0067591965500845086 0.003707671716885247 -0.00093000329708274262 0.0058056203180768887 -0.0038865319213523069 -0.0097619131150924118 0.0077253633995506086 -0.0031841989324571164 0.010208168870483536 -0.0013721901582689508 0.0047052230255150767 0.0061031318428101458 0.014432621656373448 -0.0067956966298259305 0.0041369626705238804 0.016497968867794591 -0.0038044864222998745 -0.0093156783780957517 -0.0098530361421569224
leaf_weight=14.40589562058449 12.806927561759947 10.413231164216997 12.215339243412016 10.359546303749086 10.980958610773088 13.244405448436739 22.822177112102509 12.301889240741728 15.145428985357283 16.826289892196655 18.790217161178589 10.998821198940275 12.706428974866865 11.06184211373329 13.613259077072142 10.010183393955229 14.181647002696989 10.368837684392931 18.685083866119385 17.321700990200043 19.363386482000351 10.584475576877592 10.263560086488722 15.574782282114027 12.999459832906721 10.279542028903959 13.950239181518553 15.687271624803545 35.722735315561295 20.556641429662704
leaf_count=43 37 31 36 31 32 39 69 36 45 49 55 32 37 33 40 30 43 30 55 50 57 31 30 45 39 30 40 46 108 62
internal_value=0 0.00251084 -0.00253284 -0.0012092 0.000940506 0.00581609 -0.00396926 0.000283556 0.0037669 0.00139582 0.0057156 0.00698829 0.00568293 -0.00434195 0.000235927 -0.00634855 -0.00434046 0.00975497 0.00325288 0.00161025 0.00408144 -0.000602554 0.00034107 0.0106058 -0.00681899 0.001562 0.0128455 -0.000618514 -0.00816022 -0.00872206
internal_weight=0 228.11 226.133 168.184 99.5937 50.0637 49.53 26.7078 192.93 87.3419 105.588 86.7981 73.9911 68.5907 23.9728 57.9483 35.1794 37.0255 72.1965 55.3702 36.6851 20.9977 23.508 26.5557 44.6179 36.9656 24.3191 25.9668 45.7329 33.5561
internal_count=1341 668 673 499 294 146 148 79 563 256 307 252 215 205 71 174 105 107 211 162 107 62 69 77 134 108 70 76 138 101
is_linear=0
shrinkage=0.01


end of trees

feature_importances:
price_close=125
diff_MA_100=105
diff_MA_50=96
OBV=78
diff_MA_20=70
ATR=69
MFI=61
Volume_Oscillator=58
diff_MA_9=48
divergence=47
diff_MA_30=45

parameters:
[boosting: gbdt]
[objective: multiclass]
[metric: multi_logloss]
[tree_learner: serial]
[device_type: cpu]
[data_sample_strategy: bagging]
[data: ]
[valid: ]
[num_iterations: 10000]
[learning_rate: 0.01]
[num_leaves: 31]
[num_threads: 4]
[seed: 0]
[deterministic: 0]
[force_col_wise: 0]
[force_row_wise: 0]
[histogram_pool_size: -1]
[max_depth: 10]
[min_data_in_leaf: 30]
[min_sum_hessian_in_leaf: 0.001]
[bagging_fraction: 0.6]
[pos_bagging_fraction: 1]
[neg_bagging_fraction: 1]
[bagging_freq: 0]
[bagging_seed: 3]
[feature_fraction: 0.7]
[feature_fraction_bynode: 1]
[feature_fraction_seed: 2]
[extra_trees: 0]
[extra_seed: 6]
[early_stopping_round: 0]
[first_metric_only: 0]
[max_delta_step: 0]
[lambda_l1: 0.1]
[lambda_l2: 0.1]
[linear_lambda: 0]
[min_gain_to_split: 0.1]
[drop_rate: 0.1]
[max_drop: 50]
[skip_drop: 0.5]
[xgboost_dart_mode: 0]
[uniform_drop: 0]
[drop_seed: 4]
[top_rate: 0.2]
[other_rate: 0.1]
[min_data_per_group: 100]
[max_cat_threshold: 32]
[cat_l2: 10]
[cat_smooth: 10]
[max_cat_to_onehot: 4]
[top_k: 20]
[monotone_constraints: ]
[monotone_constraints_method: basic]
[monotone_penalty: 0]
[feature_contri: ]
[forcedsplits_filename: ]
[refit_decay_rate: 0.9]
[cegb_tradeoff: 1]
[cegb_penalty_split: 0]
[cegb_penalty_feature_lazy: ]
[cegb_penalty_feature_coupled: ]
[path_smooth: 0]
[interaction_constraints: ]
[verbosity: -1]
[saved_feature_importance_type: 0]
[use_quantized_grad: 0]
[num_grad_quant_bins: 4]
[quant_train_renew_leaf: 0]
[stochastic_rounding: 1]
[linear_tree: 0]
[max_bin: 255]
[max_bin_by_feature: ]
[min_data_in_bin: 3]
[bin_construct_sample_cnt: 200000]
[data_random_seed: 1]
[is_enable_sparse: 1]
[enable_bundle: 1]
[use_missing: 1]
[zero_as_missing: 0]
[feature_pre_filter: 1]
[pre_partition: 0]
[two_round: 0]
[header: 0]
[label_column: ]
[weight_column: ]
[group_column: ]
[ignore_column: ]
[categorical_feature: ]
[forcedbins_filename: ]
[precise_float_parser: 0]
[parser_config_file: ]
[objective_seed: 5]
[num_class: 3]
[is_unbalance: 0]
[scale_pos_weight: 1]
[sigmoid: 1]
[boost_from_average: 1]
[reg_sqrt: 0]
[alpha: 0.9]
[fair_c: 1]
[poisson_max_delta_step: 0.7]
[tweedie_variance_power: 1.5]
[lambdarank_truncation_level: 30]
[lambdarank_norm: 1]
[label_gain: ]
[lambdarank_position_bias_regularization: 0]
[eval_at: ]
[multi_error_top_k: 1]
[auc_mu_weights: ]
[num_machines: 1]
[local_listen_port: 12400]
[time_out: 120]
[machine_list_filename: ]
[machines: ]
[gpu_platform_id: -1]
[gpu_device_id: -1]
[gpu_use_dp: 0]
[num_gpu: 1]

end of parameters

pandas_categorical:[]
